Episode,Weight
0,0.023130774
1,0.017814837
2,-0.021799248
3,0.008144624
4,-0.06050213
5,0.0022802101
6,-0.040638328
7,-0.015987001
8,-0.022721846
9,0.0032162948
10,0.0038979647
11,-0.020488873
12,-0.0065480964
13,-0.029940639
14,0.015708318
15,-0.046012484
16,-0.008680923
17,-0.01987041
18,0.0044327625
19,-0.01934674
20,-0.014858327
21,0.0057375506
22,-0.00025863596
23,-0.0060007256
24,-0.026549052
25,-0.021743024
26,-0.022863422
27,-0.0024454356
28,0.01759105
29,0.024380036
30,-0.011647599
31,-0.108559795
32,-0.031130178
33,-0.00079481286
34,-0.05836622
35,-0.0696443
36,0.019904796
37,-0.0066135665
38,-0.011777992
39,0.003235216
40,-0.03805984
41,-0.016460275
42,0.018451557
43,0.0009750178
44,0.017503202
45,-0.038621042
46,0.014052924
47,-0.035794824
48,-0.01437571
49,0.0033162402
50,0.00070811424
51,0.00642988
52,-0.024307298
53,-0.033583496
54,-0.0038579793
55,0.0144322105
56,-0.0050376044
57,-0.029412461
58,-0.03929158
59,0.003745797
60,0.0048946836
61,-0.078520775
62,-0.047096893
63,-0.023528796
64,-0.08080211
65,-0.023815963
66,-0.02206148
67,-0.00038004745
68,-0.021349426
69,0.0007734721
70,-0.021431819
71,-0.014556866
72,-0.00043985262
73,-0.05798787
74,0.003471564
75,-0.0516084
76,-0.06375429
77,-0.048690945
78,-0.021054897
79,-0.02134262
80,0.020093864
81,0.011611429
82,-0.019790227
83,0.016259616
84,-0.019813288
85,-0.0040453477
86,-0.02540899
87,-0.018426022
88,-0.030012375
89,-0.0012353698
90,-0.046592414
91,-0.0451014
92,0.01957695
93,-0.028179348
94,0.012340277
95,-0.012924975
96,-0.04774488
97,-0.004459146
98,-0.07661455
99,0.00010384012
100,-0.00425284
101,-0.0059646294
102,-0.03843914
103,0.0012044966
104,0.019588154
105,0.06964218
106,-0.0071018534
107,-0.05024155
108,-0.030422196
109,-0.036756605
110,-0.06383958
111,0.004246667
112,-0.08660288
113,-0.014571077
114,0.006036996
115,-0.0076855654
116,-0.03506401
117,-0.0096094655
118,-0.06307983
119,-0.013712691
120,0.01128371
121,0.0046494156
122,0.009621842
123,0.0056535355
124,-0.044765078
125,0.0034914538
126,-0.017378347
127,-0.035382513
128,0.014496471
129,-0.0020101299
130,-0.0049484945
131,0.0076086777
132,0.028665751
133,-0.009249284
134,-0.07727562
135,-0.07538224
136,0.011862425
137,0.021502567
138,-0.020591356
139,0.0004904922
140,-0.0007946745
141,-0.05691154
142,0.056109235
143,0.044675615
144,0.009043038
145,-0.012895002
146,-0.019227277
147,-0.0800997
148,0.004768548
149,0.045157883
150,-0.05712016
151,-0.03891141
152,-0.0114003755
153,-0.02699383
154,-0.011132146
155,-0.0043966775
156,-0.02181016
157,0.019226374
158,-0.02166511
159,0.06364675
160,-0.028243292
161,1.9607818e-05
162,0.057858378
163,0.069598295
164,0.025206499
165,0.00422534
166,-0.00069432915
167,-0.032664567
168,0.0046266057
169,-0.021508414
170,0.09094505
171,-0.013153704
172,-0.13166797
173,0.049203023
174,0.06384731
175,0.004021709
176,0.006264179
177,-0.05073204
178,-0.020077348
179,-0.0047389795
180,-0.0030102096
181,-0.054125033
182,-0.030613651
183,-0.04888414
184,-0.021230742
185,-0.0072781653
186,0.06932608
187,0.0018584698
188,-0.013770131
189,0.007430578
190,0.053832892
191,-0.015505344
192,0.053761672
193,-0.043547016
194,0.0375207
195,-0.0008222808
196,0.0015325428
197,0.05961797
198,0.008867638
199,0.047490355
200,-0.0007703719
201,0.050924793
202,-0.0022714946
203,0.021901108
204,-0.04884842
205,0.06769717
206,-0.060494926
207,-0.0077963634
208,-0.06721943
209,-0.020641766
210,0.04477524
211,-0.025108708
212,-0.009736754
213,-0.0007431654
214,-0.005238053
215,-0.004211296
216,-0.03141881
217,-0.027056575
218,0.005966454
219,0.038673572
220,-0.0663532
221,-0.027295932
222,-0.019098166
223,-0.0016216974
224,-0.028542684
225,0.009303242
226,0.010281119
227,-0.003592911
228,0.0068872827
229,0.018054856
230,-0.006965526
231,-0.021368237
232,0.0025156618
233,0.015039945
234,-0.04281727
235,0.02138353
236,0.026434615
237,-0.17810105
238,-0.045909565
239,0.035610724
240,-0.012932141
241,-0.019076375
242,0.020015057
243,0.0610683
244,-0.056889243
245,0.0013071253
246,0.010681969
247,-0.01037314
248,-0.0019817422
249,0.0042349626
250,-0.01807592
251,-0.008490533
252,0.022131437
253,0.00075285137
254,0.0644212
255,-0.022993252
256,-0.0036232043
257,0.003471245
258,-0.025076456
259,0.03138194
260,-0.02351315
261,-0.0028111862
262,-0.028546734
263,-0.023152983
264,-0.014704126
265,-0.01792037
266,-0.011289511
267,-0.0045714304
268,-0.0048281257
269,-0.036575627
270,0.021552445
271,-0.055894323
272,-0.0018014204
273,-0.034192886
274,-0.006083728
275,0.017992873
276,-0.014673923
277,-0.007939786
278,-0.0044538947
279,0.002390549
280,-0.004269761
281,0.003134357
282,-0.025460824
283,-0.014452339
284,-0.0069917818
285,-0.00694284
286,0.00016103817
287,-0.07791586
288,-0.036804836
289,0.0075943293
290,-0.1260615
291,-0.092167474
292,0.026184304
293,-0.02520041
294,-0.03321846
295,0.017296776
296,-0.03131847
297,-0.016931457
298,0.01862334
299,0.008348756
300,0.049458645
301,-0.019774996
302,0.045018
303,-0.02972939
304,0.0076472145
305,0.001856036
306,-0.04139926
307,-0.006577021
308,-0.0002239082
309,-0.068553224
310,0.0009726007
311,0.010699876
312,0.018850867
313,-0.0055827983
314,-0.073368676
315,-0.0042467387
316,-0.009129133
317,-0.006181466
318,-0.048613086
319,-0.025473583
320,-0.06614417
321,-0.032662008
322,-0.024192305
323,0.007787509
324,0.017611077
325,0.066182286
326,0.023445189
327,0.075973876
328,-0.00023388302
329,-0.07679391
330,-0.01972342
331,-0.109758
332,-0.018073352
333,-0.04575394
334,-0.03617373
335,0.010935556
336,-0.0017866684
337,-0.005427461
338,-0.03334265
339,0.0025012458
340,-0.013778878
341,-0.004742826
342,-0.081386365
343,-0.016568407
344,-0.0006170277
345,0.011842821
346,-0.02694575
347,-0.04036641
348,0.0025482562
349,-0.0727346
350,-0.0056689237
351,0.0075396476
352,-0.02977171
353,-0.008267779
354,-0.10217842
355,-0.0139777735
356,-0.0027132134
357,0.0103031695
358,-0.0048487172
359,0.001680659
360,-0.00046747644
361,0.015542492
362,-0.008970176
363,-0.10203908
364,-0.032436475
365,-0.023319481
366,-0.07308963
367,0.020310104
368,-0.12784392
369,-0.040004626
370,-0.028223163
371,-0.017049849
372,-0.06219979
373,-0.017530328
374,-0.045743126
375,-0.0005857593
376,0.003829771
377,-0.0026761289
378,-0.0057226443
379,0.0045853495
380,-0.011998471
381,0.0007914238
382,-0.018804759
383,-0.028444419
384,-0.015171104
385,-0.005039341
386,-0.05866836
387,-0.03232135
388,-0.104558
389,-0.0036731279
390,-0.048567336
391,-0.0633076
392,0.0047265748
393,-0.009234972
394,-0.025960015
395,-0.0073582847
396,-0.016656503
397,-0.004360467
398,0.019104615
399,-0.01793176
400,-0.009829526
401,-0.01014822
402,-0.005983735
403,0.015627204
404,0.00019796556
405,-0.0033203426
406,-0.010129184
407,-0.004693845
408,-0.03065985
409,-0.03319195
410,-0.009119088
411,0.009144538
412,-0.016418057
413,-0.008879578
414,-0.007229729
415,0.0011310542
416,-0.04175483
417,-0.019888254
418,-0.026424289
419,-0.08212506
420,0.029240087
421,-0.028231334
422,-0.0435084
423,-0.039550275
424,0.021234052
425,-0.019756533
426,0.02836416
427,-0.01955245
428,0.0711676
429,-0.056721922
430,0.014236803
431,-0.011494219
432,-0.014006227
433,-0.010835148
434,-0.0069375844
435,0.0063854177
436,0.012110674
437,-0.023865916
438,-0.01463729
439,0.022700157
440,0.0071594846
441,-0.02718842
442,-0.037663374
443,-0.034681126
444,-0.026630946
445,-0.0015179703
446,-0.0826942
447,-0.013678617
448,-0.095338844
449,-0.03382757
450,-0.05564743
451,0.00090258033
452,-0.015929976
453,0.072473876
454,0.0005731761
455,0.033928137
456,-0.015870273
457,-0.1159486
458,-0.008818949
459,-0.08828162
460,-0.022276666
461,-0.055645917
462,-0.013465034
463,-0.010279632
464,0.022630457
465,-0.016288416
466,-0.006115265
467,-0.001991103
468,-0.007807601
469,-0.012783972
470,-0.13488932
471,-0.007603659
472,-0.026443234
473,0.008744304
474,-0.054752167
475,-0.06532793
476,0.02165266
477,-0.00018004666
478,0.03701623
479,-0.008586061
480,-0.06649258
481,0.00040445133
482,-0.15439518
483,-0.023330696
484,-0.019905128
485,-0.02963488
486,-0.041189864
487,-0.020541016
488,-0.0043593724
489,0.017891258
490,-0.033299215
491,-0.09232156
492,-0.03668831
493,-0.07867271
494,-0.11963883
495,0.021334553
496,-0.08948128
497,-0.042501636
498,-0.022216376
499,-0.037334252
500,-0.07609008
501,-0.0156215
502,-0.09960999
503,0.008819435
504,-0.014299247
505,0.0023264007
506,-0.0020417126
507,-0.004876943
508,-0.0095983865
509,-0.009068251
510,-0.052422192
511,-0.121612474
512,-0.031382345
513,-0.0016986999
514,-0.040067635
515,-0.009004325
516,-0.005278335
517,0.011636515
518,-0.04823291
519,-0.07733379
520,-0.00056192937
521,-0.01438294
522,-0.0036409926
523,-0.004067719
524,-0.018156892
525,-0.025712341
526,0.033221178
527,0.03142547
528,-0.007360055
529,-0.058501173
530,-0.012831344
531,-0.09727449
532,-0.022935148
533,0.034216404
534,0.022187494
535,-0.028771644
536,0.009137182
537,-0.0069416137
538,-0.019994354
539,-0.009458654
540,-0.0053370586
541,-0.031061776
542,-0.022038983
543,-0.01723269
544,0.018663129
545,-0.021826455
546,0.03015058
547,-0.015424467
548,0.050158665
549,-0.0028055818
550,-0.050145127
551,-0.031150002
552,-0.018918168
553,-0.01759895
554,0.024621837
555,-0.013129105
556,-0.0019728458
557,0.031942658
558,0.052462913
559,-0.030818475
560,0.0038081543
561,-0.04620985
562,-0.012529951
563,0.0005555892
564,0.003355237
565,-0.0015227037
566,-0.023322446
567,-0.028074676
568,-0.15381283
569,-0.01803461
570,0.025531031
571,0.018100763
572,0.016155882
573,-0.04802695
574,0.046713006
575,0.002816737
576,-0.11000044
577,-0.03978187
578,0.026532315
579,-0.003251201
580,-0.026877295
581,-0.0018865392
582,-0.0028740643
583,-0.042069815
584,-0.0054887203
585,-0.01007719
586,-0.014483131
587,-0.0879794
588,-0.057102513
589,0.037222825
590,-0.02124614
591,-0.0045165643
592,-0.035085935
593,-0.00085520966
594,0.017469306
595,-0.017570049
596,0.0007269268
597,-0.010368951
598,-0.046759266
599,-0.006003593
600,-0.05301426
601,-0.15867192
602,-0.032200623
603,-0.039046865
604,-0.13569607
605,-0.065907925
606,-0.05506747
607,0.000624526
608,-0.00968425
609,0.00014490887
610,-0.060085922
611,0.010214484
612,-0.0065127374
613,-0.024942284
614,-0.037095368
615,-0.0013048147
616,-0.012528358
617,-0.014692907
618,-0.009157189
619,-0.047163896
620,0.002153151
621,-0.025388429
622,-0.02472864
623,-0.05712611
624,0.0027052816
625,0.00011903244
626,-0.04441864
627,0.020061523
628,-0.057710767
629,0.0059035383
630,-0.06321929
631,-0.010644457
632,-0.0024305014
633,0.0067045256
634,-0.14297253
635,0.00886085
636,0.025303889
637,-0.0009878628
638,-0.0050994465
639,0.008790552
640,-0.00031418522
641,-0.011727908
642,-0.029506816
643,0.010763337
644,-0.025512388
645,-0.025361223
646,-0.04922197
647,-0.05237689
648,0.01610116
649,-0.028183443
650,-0.016970627
651,0.0070827007
652,-0.010715827
653,0.012815112
654,0.0773129
655,-0.0035058362
656,-0.015253672
657,-0.03260521
658,-0.016903587
659,0.036730222
660,-0.022854762
661,0.048581578
662,0.02948236
663,0.018938856
664,0.0060745995
665,-0.003210051
666,-0.012142104
667,-0.007276999
668,-0.022147007
669,0.014386686
670,-0.04599255
671,0.0170372
672,-0.015298114
673,0.007555431
674,-0.037845735
675,0.044902064
676,0.08491059
677,0.006867911
678,-0.04949403
679,-0.042265967
680,-0.033275016
681,-0.0050424314
682,0.012809724
683,-0.0097575
684,0.08377729
685,0.02261561
686,0.10862475
687,0.010234333
688,0.0011420657
689,0.011425049
690,-0.033428285
691,-0.003678884
692,-0.01274998
693,0.016609829
694,0.053635374
695,0.042591356
696,0.051579945
697,0.009628805
698,0.003989134
699,-0.0042343065
700,0.023487383
701,0.04280688
702,0.022389175
703,0.007424835
704,0.040201455
705,-0.06877295
706,-0.00799982
707,-0.01064167
708,-0.014486194
709,0.13937421
710,0.002101812
711,0.08401121
712,0.011348807
713,-0.001407846
714,-0.009710355
715,-0.05928108
716,0.0072456533
717,0.022795517
718,0.009962561
719,0.004310815
720,0.056586504
721,0.01904713
722,0.032321047
723,-0.009235304
724,0.011357005
725,0.012216194
726,-0.05773324
727,-0.01751365
728,-0.012005736
729,0.012842925
730,0.0024229295
731,-0.025965862
732,0.017791575
733,0.021041945
734,-0.012936804
735,-0.0061819544
736,-0.083292134
737,-0.009720712
738,-0.054607898
739,-0.020499732
740,-0.00705997
741,-0.015560828
742,-0.027693342
743,-0.016409494
744,0.002994311
745,-0.002914402
746,0.012950195
747,-0.071040824
748,0.019253941
749,-0.029433444
750,-0.03835514
751,0.07628918
752,-0.09793679
753,-0.064869925
754,-0.041254964
755,-0.04369933
756,-0.07390723
757,-0.018856583
758,-0.045352194
759,0.005016102
760,0.002132821
761,-0.023975112
762,-0.10535469
763,0.0056704795
764,0.043670915
765,-0.010123061
766,0.015162392
767,-0.049501266
768,-0.010957535
769,0.0009596054
770,-0.013741619
771,0.033070922
772,-0.034362454
773,-0.0078080865
774,0.0056553595
775,0.018799977
776,0.006497275
777,0.0057025347
778,-0.023057925
779,0.0038723687
780,0.016571444
781,0.009522428
782,-0.016407927
783,-0.04097425
784,-0.0037123482
785,-0.021495748
786,-0.007283395
787,0.013185588
788,0.0008067776
789,0.0031269148
790,0.037186228
791,0.011867806
792,-0.014434688
793,-0.0032371976
794,-0.020388683
795,-0.013117696
796,0.0022671043
797,0.01245789
798,-0.0066963686
799,-0.009425128
800,-0.010976541
801,-0.009678245
802,-0.0014046053
803,-0.034945656
804,-0.013717102
805,-0.031731237
806,0.0018815333
807,-0.004059938
808,0.004322513
809,-0.013658084
810,-0.026122836
811,0.0051991157
812,0.03409806
813,-0.037180495
814,-0.012126918
815,-0.0036216995
816,-0.021791928
817,0.0023543069
818,-0.069120444
819,0.004804048
820,0.005356375
821,-0.015450668
822,0.026580855
823,-0.02010857
824,-0.0019294566
825,-0.015901692
826,-0.033828776
827,-0.006050876
828,-0.0035783893
829,-0.018891064
830,-0.038827877
831,-0.013045543
832,-0.008664846
833,0.0052147363
834,-0.030842582
835,-0.00035922564
836,-0.024061318
837,0.015936162
838,0.0005622642
839,0.03890069
840,-0.008064865
841,-0.028463813
842,-0.038105
843,-0.018109133
844,-0.031631142
845,-0.019547764
846,-0.019460207
847,-0.00490305
848,-0.013911301
849,0.0052891304
850,-0.059615936
851,-0.005777457
852,0.0024179078
853,-0.007061416
854,-0.041406225
855,-0.0150661245
856,0.0074205818
857,0.012363418
858,-0.005756824
859,-0.016978003
860,-0.012607669
861,-0.012474771
862,-0.056464806
863,-0.0032392624
864,-0.024854027
865,-0.009009126
866,0.0054316926
867,-0.006884009
868,0.0062077343
869,-0.0144638615
870,-0.0053107417
871,-0.0040008035
872,-0.024095358
873,-0.0077858036
874,0.03687782
875,-0.031717308
876,-0.015378277
877,-0.00868967
878,-0.038346283
879,-0.008583524
880,-0.006769837
881,-0.061446894
882,-0.02558203
883,-0.0072819907
884,0.0051665897
885,-0.006634703
886,-0.030019345
887,-0.00077381043
888,-0.012478325
889,0.0026333684
890,0.026084423
891,0.0005519208
892,-0.023350185
893,0.00097068
894,-0.0071233795
895,-0.03578006
896,0.029420644
897,-0.0052481447
898,0.0122836605
899,0.0316699
900,-0.04511637
901,-0.0042848177
902,0.03693672
903,0.010835076
904,-0.0053573665
905,-0.017907556
906,-0.012273025
907,-0.0021647622
908,-0.0099442545
909,0.026595138
910,-0.06396573
911,-0.09025191
912,-0.0077047483
913,0.010290518
914,-0.01681666
915,-0.02450359
916,-0.009431271
917,-0.059071034
918,0.015311968
919,0.017463231
920,-0.026861545
921,-0.005733914
922,-0.011974381
923,-0.010474098
924,0.042712767
925,-0.014457186
926,-0.023455407
927,-0.07147014
928,-0.036375802
929,-0.006807166
930,-0.05535844
931,-0.07514454
932,-0.035729025
933,0.0064204643
934,0.001529478
935,0.027172968
936,-0.012333402
937,0.007383943
938,-0.017207965
939,-0.009503746
940,-0.03295609
941,-0.046051208
942,0.010987666
943,0.011533798
944,0.003193202
945,0.042606886
946,-0.0042389324
947,-0.008717756
948,0.003381085
949,0.010820076
950,0.034264885
951,0.014251215
952,-0.022096843
953,-0.018060144
954,-0.08006995
955,0.009203158
956,-0.016191158
957,-0.017762346
958,-0.090677574
959,0.018360054
960,-0.08907319
961,-0.0056718206
962,-0.05417209
963,0.022565981
964,0.044504985
965,0.005902149
966,0.012527075
967,-0.05388881
968,0.00783667
969,-0.029222047
970,-0.0314058
971,-0.016492836
972,0.007816509
973,-0.09381095
974,-0.015264898
975,0.010339849
976,0.028252887
977,0.026529966
978,-0.019647567
979,0.026913462
980,0.00016213044
981,-0.0016073029
982,0.0041777315
983,-0.004145522
984,0.018126667
985,0.025197083
986,-0.01149659
987,-0.020121709
988,0.039259993
989,-0.002776859
990,0.054655273
991,-0.005085561
992,-0.01997697
993,-0.012295472
994,0.012652962
995,0.0023096548
996,-0.005585679
997,0.031053036
998,0.005193116
999,0.0001673129
1000,0.008302794
1001,0.014241109
1002,0.025058303
1003,-0.02587437
1004,-0.018201267
1005,0.05463743
1006,0.023513883
1007,0.006799381
1008,-0.044061214
1009,-0.030134816
1010,0.036617942
1011,-0.048378047
1012,0.002523983
1013,-0.007980951
1014,-0.03274672
1015,-0.00802736
1016,-0.01159943
1017,0.019622693
1018,-0.029721975
1019,0.00021968962
1020,-0.06366798
1021,0.00964232
1022,-0.058426276
1023,-0.038921874
1024,-0.051643074
1025,0.0018336903
1026,-0.1231779
1027,0.008034921
1028,0.13026865
1029,-0.00345617
1030,-0.037991744
1031,-0.015198879
1032,0.0074527087
1033,0.02042866
1034,0.010119713
1035,-0.008557559
1036,-0.012057406
1037,-0.18905833
1038,-0.024224143
1039,0.12623532
1040,0.010078369
1041,-0.07983214
1042,0.0127676455
1043,-0.041672345
1044,-0.015164786
1045,0.12640607
1046,-0.16338083
1047,-0.09809383
1048,-0.02819392
1049,0.04645472
1050,0.0287102
1051,0.00015671582
1052,-0.020408906
1053,-0.041605737
1054,-2.307212e-05
1055,0.11848015
1056,0.008156109
1057,0.014142174
1058,0.17614354
1059,0.1421733
1060,0.054046765
1061,-0.02312894
1062,-0.05854913
1063,0.11764245
1064,-0.026774447
1065,-0.006876651
1066,0.0035499989
1067,0.0017383661
1068,-0.13047743
1069,0.042096734
1070,0.020464567
1071,0.007177592
1072,0.008550904
1073,-0.07550097
1074,0.041449368
1075,-0.0038336413
1076,0.0018669599
1077,-0.026196212
1078,-0.11578626
1079,0.00074117933
1080,-0.025205595
1081,-0.0075859176
1082,0.084072605
1083,-0.010156699
1084,-0.013124173
1085,0.04796952
1086,0.10384713
1087,0.034141853
1088,0.14523607
1089,-0.009309644
1090,0.024949325
1091,-0.010373892
1092,-0.029141294
1093,0.042330053
1094,0.013810299
1095,-0.027990103
1096,0.006078375
1097,0.074381866
1098,0.083478585
1099,-0.13007933
1100,0.097580515
1101,0.09743004
1102,-0.05716445
1103,-0.0057902616
1104,-0.075881876
1105,-0.049768984
1106,0.006224764
1107,-0.044519905
1108,0.004135925
1109,-0.020533009
1110,-0.06881054
1111,0.080919765
1112,-0.06898278
1113,-0.023971403
1114,0.10421654
1115,-0.043725498
1116,-0.03957331
1117,-0.1125305
1118,0.006909764
1119,0.005219926
1120,-0.025503116
1121,-0.016922435
1122,-0.18515843
1123,-0.023145508
1124,-0.019860655
1125,-0.050266024
1126,-0.0149464905
1127,-0.002041568
1128,0.0061211153
1129,-0.070254505
1130,-0.09773292
1131,-0.16607624
1132,-0.032977793
1133,-0.016022425
1134,-0.087224
1135,0.11429171
1136,-0.12537362
1137,0.080177724
1138,-0.08807497
1139,0.08975169
1140,-0.04918408
1141,0.0028289803
1142,0.04733822
1143,-0.0066106445
1144,0.008175917
1145,-0.009506568
1146,-0.0751572
1147,0.011047169
1148,0.09216575
1149,-0.009325795
1150,0.08561075
1151,0.10332418
1152,-0.02085409
1153,0.0063677514
1154,0.010947251
1155,0.026217729
1156,-0.01766498
1157,-0.004344047
1158,-0.015088759
1159,-0.007653746
1160,-0.03751842
1161,-0.028317811
1162,-0.012763941
1163,0.0132120345
1164,-0.015717741
1165,-0.029063499
1166,-0.09522649
1167,-0.011361837
1168,0.012550422
1169,-0.033705264
1170,0.005776615
1171,-0.09004952
1172,-0.018602239
1173,-0.034318496
1174,0.03689131
1175,-0.0006283738
1176,0.0013474335
1177,-0.0018647762
1178,-0.030139375
1179,0.005150298
1180,-0.011337354
1181,-0.017176075
1182,0.0011817404
1183,-0.015792908
1184,-0.0092658475
1185,0.001029836
1186,-0.02714345
1187,-0.043138143
1188,-0.12460857
1189,-0.016464684
1190,-0.005716146
1191,-0.007834858
1192,0.027534373
1193,-0.023439305
1194,-0.024597567
1195,-0.0055113425
1196,-0.04595162
1197,-0.019966803
1198,-0.05741466
1199,-0.020225145
1200,0.0058518993
1201,0.0009463617
1202,-0.03381446
1203,-0.008483909
1204,-9.015571e-05
1205,-0.024898708
1206,-0.0006256215
1207,-0.009055158
1208,-0.119188495
1209,-0.015231624
1210,0.012191214
1211,0.029135622
1212,-0.0110380305
1213,0.0014200254
1214,-0.0032879116
1215,-0.024706895
1216,-0.019995851
1217,-0.05080722
1218,-0.03548548
1219,0.0026550859
1220,-0.011689628
1221,-0.0819343
1222,-0.010554084
1223,-0.1400641
1224,-0.00025582238
1225,-0.006438197
1226,-0.016567992
1227,-0.034690965
1228,-0.051534954
1229,-0.033219796
1230,-0.049918223
1231,-0.0020689217
1232,-0.076620184
1233,-0.030848032
1234,-0.015403419
1235,-0.01142322
1236,-0.010259256
1237,0.003094619
1238,-0.015580943
1239,-0.025238678
1240,-0.0112191215
1241,0.010861777
1242,-0.028086405
1243,0.009883971
1244,-0.021035576
1245,-0.037849657
1246,0.061984528
1247,-0.011639919
1248,0.0011181479
1249,-0.0069361906
1250,-0.033866286
1251,-0.0070183286
1252,0.001838937
1253,-0.008512987
1254,-0.054669842
1255,0.013181217
1256,-0.013514197
1257,0.013779434
1258,0.029340986
1259,-0.011124452
1260,-0.0005965542
1261,-0.028457137
1262,-0.023201982
1263,-0.04416306
1264,-0.032210477
1265,-0.06924815
1266,0.0125435395
1267,0.03347192
1268,-0.028480524
1269,0.0007070912
1270,-0.00864529
1271,0.01023274
1272,-0.0071154474
1273,0.0035434333
1274,-0.08883863
1275,0.0021914758
1276,-0.0080541745
1277,0.010307671
1278,0.004863615
1279,0.00058474386
1280,0.0023265262
1281,-0.008973891
1282,0.013330909
1283,0.029138045
1284,-0.0020067354
1285,-0.016059797
1286,-0.053020567
1287,-0.057285566
1288,-0.002836862
1289,-0.0028667084
1290,-0.017101781
1291,-0.012590509
1292,-0.02167967
1293,-0.0071827616
1294,0.0006648274
1295,0.018549228
1296,-0.009916823
1297,-0.010844952
1298,-0.0047678263
1299,-0.025912097
1300,0.07299579
1301,-0.008731623
1302,0.0267395
1303,0.004650778
1304,-0.0095293475
1305,-0.013218845
1306,-0.0049227816
1307,-0.0017426292
1308,0.0009890328
1309,0.041721378
1310,0.044837244
1311,-0.073494315
1312,-0.011665624
1313,0.0045984313
1314,-0.029996285
1315,-0.07489213
1316,-0.020840824
1317,0.047896154
1318,0.0033307823
1319,0.010478356
1320,0.017698618
1321,-0.014194054
1322,-0.0066746282
1323,0.019858284
1324,-0.00081969216
1325,-0.011776317
1326,-0.0259951
1327,-0.024019327
1328,0.005634778
1329,-0.0020080316
1330,-0.029441804
1331,-0.0033045004
1332,0.0067759003
1333,-0.00798242
1334,0.00580182
1335,0.028078828
1336,-0.021586029
1337,-0.025657939
1338,-0.02384207
1339,0.11124003
1340,0.0098121045
1341,-0.015211032
1342,0.0052489284
1343,-0.03611231
1344,-0.0716783
1345,-0.043957256
1346,-0.013765016
1347,-0.010558715
1348,-0.0050062714
1349,-0.0004755518
1350,0.007632914
1351,-0.012512308
1352,-0.005131897
1353,0.000651234
1354,-0.022304805
1355,-0.005958279
1356,0.007106257
1357,-0.040965006
1358,-0.013954904
1359,-0.0066570905
1360,0.014869567
1361,-0.010327129
1362,-0.013796628
1363,0.007950941
1364,-0.0072355215
1365,-0.027936364
1366,-0.010249261
1367,-0.008838196
1368,0.013904253
1369,-0.08727409
1370,0.009741183
1371,-0.02495436
1372,-0.12215384
1373,-0.037721306
1374,-0.08369267
1375,-0.0002106441
1376,-0.009543457
1377,0.0055000307
1378,0.02002688
1379,-0.021248711
1380,-0.012039759
1381,-0.023251515
1382,-0.0016825103
1383,-0.010938028
1384,0.041393355
1385,0.0052012703
1386,0.003373707
1387,0.0051301573
1388,-0.0013702465
1389,-0.035730608
1390,-0.040457692
1391,-0.015477675
1392,0.01307921
1393,-0.031428415
1394,0.022325875
1395,0.00609513
1396,-0.026064675
1397,-0.010104238
1398,-0.0067324294
1399,-0.010858964
1400,-0.028415559
1401,-0.010547443
1402,-0.020522164
1403,-0.013965132
1404,-0.020701958
1405,-0.00074314466
1406,0.026373122
1407,-0.0063580973
1408,0.026930176
1409,0.01070854
1410,0.06369392
1411,0.0008118386
1412,0.024286076
1413,-0.0114098955
1414,0.0075685247
1415,0.040191207
1416,0.010207747
1417,0.002048631
1418,-0.024458278
1419,-0.011389046
1420,0.004027769
1421,-0.026979031
1422,-0.062036473
1423,-0.076907456
1424,-0.010857512
1425,0.04879457
1426,-0.025152653
1427,-0.06907007
1428,-0.0040826974
1429,-0.1201663
1430,0.037909534
1431,0.046685625
1432,-0.048443884
1433,0.013590318
1434,0.016090652
1435,0.01134846
1436,0.060705535
1437,0.011232773
1438,-0.021555347
1439,-0.02127105
1440,-0.06487236
1441,0.0048674974
1442,-0.032965254
1443,-0.017033312
1444,-0.08823799
1445,-0.009364488
1446,0.08240257
1447,0.027345221
1448,-0.01564695
1449,0.027053604
1450,-0.013996084
1451,-0.014842179
1452,-0.10500596
1453,-0.046563387
1454,-0.033077873
1455,-0.011734191
1456,-0.0021429814
1457,0.07510782
1458,0.014686023
1459,-0.011163121
1460,-0.0021659455
1461,-0.095941104
1462,0.034894705
1463,0.013372381
1464,-0.112656474
1465,-0.01059717
1466,-0.08182757
1467,-0.00042583497
1468,0.007777771
1469,-0.12892632
1470,-0.07360909
1471,0.0064515797
1472,-0.02619836
1473,-0.0038527045
1474,-0.059008516
1475,0.021908175
1476,0.050790135
1477,-0.11297486
1478,0.0027386758
1479,-0.14515947
1480,-0.011012561
1481,0.015165713
1482,-0.01305299
1483,0.07186563
1484,-0.09018633
1485,-0.08478344
1486,-0.06617139
1487,-0.007958803
1488,-0.107430115
1489,0.051067363
1490,-0.06715215
1491,0.053533338
1492,-0.011720254
1493,-0.013408678
1494,0.032186944
1495,-0.024644617
1496,0.05380267
1497,-0.10846917
1498,-0.029904325
1499,0.005398664
1500,-0.112041585
1501,-0.023082409
1502,-0.03203422
1503,-0.004659362
1504,-0.01673626
1505,-0.00397471
1506,0.06905511
1507,-0.0062935934
1508,0.0031082155
1509,0.061919566
1510,0.010216128
1511,-0.007348506
1512,0.008369182
1513,0.09254177
1514,0.040085103
1515,0.060798712
1516,-0.030930392
1517,-0.014547579
1518,-0.0064594136
1519,-0.06227515
1520,0.051072516
1521,-0.017490583
1522,0.07095523
1523,-0.09024627
1524,0.03682046
1525,-0.0011211142
1526,0.04504815
1527,-0.0026349516
1528,-0.0024441052
1529,-0.0034290708
1530,-0.0013714882
1531,0.0014701642
1532,-0.1133752
1533,0.004520736
1534,-0.07223201
1535,-0.017630745
1536,-0.02099981
1537,0.00028570706
1538,-0.030869365
1539,-0.04687812
1540,-0.020215997
1541,-0.0033503047
1542,-0.05673236
1543,-0.025845641
1544,-0.009166807
1545,0.0036092019
1546,-0.0023425815
1547,0.00048807584
1548,-0.00037920382
1549,0.0472406
1550,0.03517075
1551,0.026900403
1552,-0.006887171
1553,-0.009034482
1554,0.008550152
1555,0.027135534
1556,-0.010548575
1557,0.04522019
1558,-0.028648935
1559,-0.04710591
1560,0.0059601874
1561,-0.019732833
1562,-0.021693753
1563,-0.021985976
1564,-0.016810795
1565,-0.0059213606
1566,-0.013718702
1567,0.0025989132
1568,0.028958317
1569,-0.002749827
1570,-0.007295249
1571,-0.096256755
1572,-0.045248665
1573,-0.015397267
1574,-0.07574114
1575,-0.049735725
1576,0.010234334
1577,0.0025083723
1578,0.06084245
1579,-0.012647588
1580,0.029473076
1581,0.029588083
1582,0.047497757
1583,0.003694984
1584,-0.010110325
1585,-0.08441195
1586,-0.034756806
1587,0.010615712
1588,0.016318584
1589,0.032377988
1590,-0.037816312
1591,-0.014018631
1592,0.019497607
1593,0.0028019622
1594,0.03498364
1595,-0.03139417
1596,-0.019824054
1597,0.030817356
1598,0.042403627
1599,-0.032488324
1600,-0.044143554
1601,-0.021941073
1602,0.004684932
1603,-0.011084813
1604,-0.012035585
1605,0.050229784
1606,0.0015536515
1607,0.02230427
1608,-0.0015383137
1609,0.004785574
1610,-0.01916519
1611,-0.06653258
1612,0.020987926
1613,0.033066735
1614,-0.025064869
1615,-0.015544186
1616,0.050831176
1617,-0.008283319
1618,0.037311003
1619,-0.01272479
1620,0.008654643
1621,-0.0076083136
1622,-0.14050442
1623,-0.02948393
1624,-0.07792716
1625,0.030284788
1626,-0.056050856
1627,-0.025544398
1628,0.030488567
1629,0.016904963
1630,0.019992594
1631,-0.011787953
1632,-0.033391166
1633,0.010311347
1634,-0.05846342
1635,-0.024496317
1636,-0.011040866
1637,-0.01993436
1638,-0.019699901
1639,-0.012598056
1640,-0.01448534
1641,-0.10640377
1642,-0.02263827
1643,-0.025907094
1644,0.008926355
1645,-0.086003155
1646,0.025116693
1647,0.029228615
1648,-0.05658953
1649,-0.047895227
1650,-0.06387001
1651,0.0272729
1652,-0.045237828
1653,-0.011797274
1654,-0.13238586
1655,-0.009647921
1656,-0.022669638
1657,-0.0071966713
1658,0.0106592085
1659,-0.013668329
1660,0.04498194
1661,-0.009707129
1662,0.053061865
1663,-0.015476967
1664,-0.011816619
1665,-0.0028205605
1666,0.017916039
1667,0.030626962
1668,0.018505802
1669,-0.020375272
1670,-2.1971588e-05
1671,-0.008045301
1672,-0.026214015
1673,-0.018998636
1674,-0.005449273
1675,-0.0048059993
1676,-0.0026332177
1677,-0.12626486
1678,-0.10322748
1679,-0.08144857
1680,-0.00270524
1681,0.0079902
1682,-0.012410364
1683,0.005854056
1684,-0.0064299614
1685,-0.008124732
1686,0.026824582
1687,0.019030264
1688,-0.009846503
1689,0.015308046
1690,0.018909102
1691,0.014766614
1692,0.011863357
1693,-0.015501051
1694,-0.026829893
1695,-0.016820801
1696,-0.08019331
1697,-0.0024888692
1698,-0.028044704
1699,-0.022204207
1700,-0.061675057
1701,-0.012156798
1702,0.0023692292
1703,0.030813936
1704,-0.0017124834
1705,0.0011146392
1706,-0.031855628
1707,-0.009886344
1708,0.00046406215
1709,-0.022719057
1710,-0.01321038
1711,-0.014634138
1712,-0.0034905763
1713,0.0062201726
1714,-0.005780522
1715,-0.005009371
1716,-0.013702236
1717,-0.01605078
1718,0.021542339
1719,0.03129033
1720,0.061994642
1721,0.00429566
1722,-0.007819561
1723,0.0022007895
1724,0.0040994682
1725,-0.015448269
1726,-0.08852314
1727,0.002421379
1728,-0.006870149
1729,-0.013889121
1730,-0.012417041
1731,0.004722412
1732,0.028400578
1733,-0.0099184355
1734,-0.0016537656
1735,-0.028856926
1736,-0.007240361
1737,-0.0034939651
1738,-0.00715024
1739,-0.032474786
1740,-0.046093073
1741,-0.029018171
1742,0.01619689
1743,-0.005960803
1744,0.0009686664
1745,-4.4431974e-05
1746,-0.12642357
1747,0.044098098
1748,-0.0051917834
1749,0.0190623
1750,0.005641573
1751,-0.014133349
1752,0.015416741
1753,0.01371761
1754,-0.009329438
1755,0.011592416
1756,-0.007809489
1757,0.007854868
1758,0.008791843
1759,0.016186714
1760,0.0111754155
1761,0.0010466456
1762,-0.02080002
1763,-0.0077839806
1764,-0.012824529
1765,0.008810371
1766,-0.00084640604
1767,0.016519383
1768,-0.0073592197
1769,-0.02018847
1770,0.016371105
1771,0.0076990197
1772,-0.015134074
1773,-0.04650415
1774,-0.0134066455
1775,0.017881777
1776,-0.007907005
1777,-0.0268165
1778,-0.029441986
1779,-0.02295737
1780,0.0072583146
1781,0.0042364164
1782,0.015885482
1783,0.010720379
1784,0.0072160745
1785,0.010412758
1786,0.0055190497
1787,-0.016006667
1788,-0.016516399
1789,0.0021782676
1790,-0.064728096
1791,0.003741885
1792,0.010758577
1793,0.0057351403
1794,-0.02412231
1795,-0.009740578
1796,-0.008703661
1797,-0.007212661
1798,-0.026714053
1799,-0.043134063
1800,-0.0039169854
1801,-0.024568032
1802,0.0103208255
1803,-0.0050327433
1804,-0.010614809
1805,-0.014128621
1806,0.012738088
1807,-0.040397815
1808,0.0036303636
1809,-0.025469337
1810,0.014926527
1811,-0.043431107
1812,0.007146724
1813,0.017168405
1814,0.001970655
1815,-0.02168463
1816,-0.014134876
1817,0.0012610236
1818,-0.040396266
1819,0.011402538
1820,-0.017927036
1821,-0.0092344945
1822,-0.009102465
1823,-0.0760172
1824,-0.004515853
1825,0.005343752
1826,-0.007810427
1827,-0.039721068
1828,0.0062440527
1829,-0.019487336
1830,-0.05558512
1831,-0.04252274
1832,-0.014039159
1833,-0.013881623
1834,0.012082874
1835,-0.0079969
1836,0.019709516
1837,-0.03335913
1838,0.036679704
1839,-0.040015284
1840,-0.0052670534
1841,-0.00014144494
1842,-0.050803874
1843,0.01091184
1844,-0.009935162
1845,-0.06337258
1846,-0.006655481
1847,-0.035552226
1848,-0.030177532
1849,-0.01806101
1850,-0.021111041
1851,0.028058615
1852,0.004729989
1853,-0.029911973
1854,-0.016991775
1855,-0.006315305
1856,-0.05511887
1857,-0.04283869
1858,-0.03934383
1859,-0.0022728457
1860,-0.02342121
1861,0.024087124
1862,0.014114891
1863,0.03590733
1864,-0.0030152735
1865,-0.045450926
1866,-0.00844494
1867,-0.07286123
1868,-0.03650963
1869,-0.029445823
1870,-0.03537856
1871,-0.0145435175
1872,0.009196685
1873,-0.0058346866
1874,-0.045457326
1875,-0.015635673
1876,-0.0025150704
1877,-0.013763246
1878,-0.09902333
1879,-0.018350277
1880,-0.0074128006
1881,-0.002119898
1882,-0.02774938
1883,-0.043488316
1884,-0.017758418
1885,-0.0873036
1886,-0.04286725
1887,-0.00584913
1888,-0.040069677
1889,-0.0081477035
1890,-0.08053169
1891,0.010089228
1892,0.007815367
1893,-0.011776781
1894,-0.049937136
1895,0.00728115
1896,-0.014377002
1897,0.013906719
1898,0.013622585
1899,-0.09822862
1900,-0.0062110825
1901,-0.018182214
1902,-0.03637897
1903,0.012548913
1904,-0.117949754
1905,-0.027371068
1906,-0.029332671
1907,-0.001621056
1908,-0.056063842
1909,0.0098562855
1910,-0.044796973
1911,-0.010923595
1912,0.0014138102
1913,0.0005287994
1914,-0.11825526
1915,-0.014088374
1916,0.0018940078
1917,-0.01431086
1918,-0.00030238603
1919,-0.030215403
1920,-0.015007699
1921,0.00839139
1922,-0.0136971
1923,0.009191035
1924,-0.0425816
1925,-0.0118172765
1926,-0.04934133
1927,-0.069370955
1928,0.03274086
1929,0.0038674166
1930,0.0074843997
1931,-0.004274079
1932,0.0019123275
1933,-0.03455508
1934,0.04275037
1935,0.07621314
1936,-0.011900182
1937,-0.0095128855
1938,-0.016107883
1939,-0.17210561
1940,-0.0031060898
1941,0.084416494
1942,-0.12464937
1943,-0.029772118
1944,0.024891008
1945,-0.04164523
1946,0.0042715482
1947,0.013903862
1948,0.007152386
1949,-0.03384282
1950,-0.03732178
1951,0.08714786
1952,-0.0046826783
1953,-0.01334591
1954,0.027410557
1955,0.07398888
1956,0.023633791
1957,-0.018261012
1958,-0.033178926
1959,0.036250588
1960,-0.0140194725
1961,-0.017508917
1962,0.10418254
1963,-0.014999917
1964,-0.059975322
1965,0.036422215
1966,0.011981169
1967,0.0021424298
1968,-0.01563389
1969,-0.04642993
1970,0.017979719
1971,0.012622032
1972,-0.020199604
1973,-0.035284925
1974,-0.12020386
1975,-0.0059479335
1976,-0.15457329
1977,-0.009249619
1978,0.07744259
1979,-0.008969868
1980,0.0033461833
1981,0.044154234
1982,0.083727196
1983,0.004298761
1984,-0.06324693
1985,-0.012063663
1986,0.026506688
1987,0.0009128361
1988,-0.008510766
1989,0.016007587
1990,0.010126213
1991,-0.04507975
1992,0.012349801
1993,0.043772902
1994,-0.044553075
1995,-0.056487404
1996,-0.062393848
1997,0.050810028
1998,-0.075155206
1999,0.004559382
2000,-0.13973588
2001,0.0047571487
2002,0.0709278
2003,0.0142044695
2004,-0.012682175
2005,-0.0028259263
2006,0.017394667
2007,-0.017420596
2008,-0.06438977
2009,-0.07880685
2010,0.004241191
2011,-0.0506554
2012,-0.08158415
2013,-0.049413197
2014,0.019302854
2015,-0.0022880412
2016,-0.047106184
2017,0.00014542359
2018,-0.0110165635
2019,0.0059690825
2020,-0.008558944
2021,-0.0071235285
2022,-0.0120356595
2023,0.0056980327
2024,-0.00997264
2025,-0.0064135483
2026,-0.075981185
2027,-0.0035503483
2028,-0.0030057158
2029,-0.03193862
2030,-0.09381904
2031,0.03731208
2032,0.021796066
2033,0.050150014
2034,-0.031844944
2035,0.08704213
2036,-0.05192879
2037,-0.0139111895
2038,-0.0388188
2039,-0.008384554
2040,-0.003368692
2041,-0.005850629
2042,-0.15982316
2043,0.014763705
2044,0.06493771
2045,-0.02105435
2046,0.08061552
2047,0.03618722
2048,0.01874763
2049,-0.021553986
2050,0.053811863
2051,0.051007584
2052,0.031803112
2053,-0.0028641955
2054,-0.03713464
2055,-0.010858101
2056,0.021789983
2057,0.0008753206
2058,0.0117223635
2059,-0.022617323
2060,-0.009689708
2061,0.010459422
2062,0.0056425496
2063,0.014904125
2064,0.0041066096
2065,0.023457024
2066,0.005716579
2067,0.053390596
2068,-0.013399966
2069,-0.03300081
2070,0.07397439
2071,0.052628595
2072,0.014464613
2073,-0.0028825742
2074,0.043968137
2075,-0.025898822
2076,0.040098187
2077,-0.019249573
2078,-0.029991759
2079,-0.0023705384
2080,0.004639938
2081,0.009952293
2082,-0.014087485
2083,-0.06600272
2084,0.0013044673
2085,-0.014566099
2086,0.06997616
2087,0.070144154
2088,-0.018147882
2089,0.025972012
2090,-0.010800466
2091,-0.011607482
2092,0.014788817
2093,-0.048480287
2094,-0.063586034
2095,0.009005479
2096,-0.0031557088
2097,0.048958886
2098,0.026996745
2099,-0.01959548
2100,-0.0104187
2101,0.0033503557
2102,0.07692661
2103,0.03876395
2104,0.025427727
2105,-0.004188266
2106,-0.020406913
2107,0.029947538
2108,0.0052769226
2109,0.03665161
2110,-0.0005902656
2111,0.024175253
2112,-0.069452815
2113,0.009226291
2114,-0.017616741
2115,0.007048277
2116,0.025033899
2117,-0.02830714
2118,0.00566078
2119,0.00858916
2120,-0.012415146
2121,0.035198383
2122,0.025554163
2123,0.03709004
2124,0.013869112
2125,-0.03566305
2126,0.00425805
2127,-0.00037897198
2128,-0.09082416
2129,0.031133475
2130,-0.009647804
2131,0.030560479
2132,0.0014993269
2133,0.016332157
2134,0.05837196
2135,0.017397635
2136,0.04490508
2137,-0.0045997393
2138,0.06359023
2139,-0.012541696
2140,-0.07411151
2141,0.17194618
2142,-0.05119359
2143,0.0042488
2144,-0.008089802
2145,-0.00686608
2146,0.056706317
2147,-0.005944335
2148,0.0015516254
2149,0.019088237
2150,-0.010368138
2151,-0.0032081264
2152,-0.017825166
2153,0.05629985
2154,0.06089452
2155,0.050044157
2156,0.010336668
2157,-0.026394263
2158,-0.0009891294
2159,-0.00021667144
2160,0.04331166
2161,0.018290224
2162,0.05006889
2163,-0.003139128
2164,-0.0019396383
2165,-0.017314699
2166,0.0702635
2167,0.003585023
2168,-0.0148938205
2169,0.009807471
2170,0.005768612
2171,-0.020835763
2172,0.005659702
2173,-0.006880361
2174,-0.022035066
2175,-0.00021268857
2176,-0.026347287
2177,-0.01604498
2178,-0.11444341
2179,-0.023807311
2180,0.011912767
2181,-0.0085548535
2182,-0.01567075
2183,-0.027536796
2184,0.010122472
2185,2.182781e-05
2186,-0.03533546
2187,-0.002304205
2188,-0.010850425
2189,-0.08567251
2190,-0.058879122
2191,-0.021277182
2192,-0.010930081
2193,-0.021809176
2194,-0.0057337405
2195,-0.0478661
2196,-0.00058915024
2197,0.03856765
2198,-0.16599706
2199,-0.12580948
2200,-0.040885083
2201,-0.010837465
2202,0.009815756
2203,-0.01992125
2204,-0.039163046
2205,-0.022223774
2206,0.017593479
2207,0.026742144
2208,-0.05401498
2209,-0.008758192
2210,0.011192991
2211,0.030325087
2212,-0.04288128
2213,0.005209873
2214,-0.06638193
2215,-0.006148145
2216,0.016935546
2217,-0.00849245
2218,0.045384493
2219,0.0021545412
2220,-0.023750953
2221,-0.00046942712
2222,0.016855782
2223,-0.01036715
2224,0.0055551655
2225,-0.10603631
2226,0.017134354
2227,-0.015296356
2228,-0.017197425
2229,-0.08118866
2230,-0.14456163
2231,-0.08160684
2232,-0.057185736
2233,-0.012179096
2234,0.0006037475
2235,0.009998363
2236,0.008990997
2237,-0.038506765
2238,-0.031427618
2239,0.030452006
2240,0.05137434
2241,-0.0182139
2242,-0.006039036
2243,-0.01631442
2244,-0.009317698
2245,0.03247682
2246,-0.011046678
2247,-0.012554505
2248,-0.011868138
2249,-0.0075315777
2250,0.04356876
2251,-0.12354691
2252,0.00492645
2253,0.010632925
2254,-0.15690383
2255,-0.0012804723
2256,-0.03944176
2257,-0.013683501
2258,0.041486483
2259,-0.010747932
2260,-0.017878618
2261,-0.025573555
2262,-0.11552518
2263,0.04682211
2264,-0.06537107
2265,-0.021362279
2266,0.042651746
2267,-0.028838092
2268,-0.026020736
2269,-0.015038337
2270,0.029292086
2271,-0.011408511
2272,-0.10038676
2273,-0.01093579
2274,-0.16325353
2275,-0.008562768
2276,-0.007379115
2277,-0.022461195
2278,-0.018727142
2279,0.0042353785
2280,0.0028176312
2281,-0.096646026
2282,-0.15191595
2283,-0.19283643
2284,-0.042303257
2285,-0.02017761
2286,-0.05069644
2287,-0.00701312
2288,-0.114454046
2289,0.07502328
2290,-0.115242526
2291,0.057094887
2292,-0.054814383
2293,-0.015162876
2294,-0.017461486
2295,-0.017891906
2296,-0.02064493
2297,-0.01997682
2298,-0.1216839
2299,-0.014183151
2300,-0.051705886
2301,-0.016509669
2302,0.027735977
2303,-0.0002346177
2304,-0.00023853172
2305,0.011836714
2306,-0.0937857
2307,-0.12012159
2308,0.0046703
2309,-0.008110961
2310,-0.060902514
2311,-0.011559187
2312,-0.0051158355
2313,0.06535258
2314,0.010167423
2315,-0.0063623586
2316,0.0075115734
2317,-0.23906283
2318,-0.10211955
2319,-0.106245585
2320,0.0010739247
2321,0.022556568
2322,0.0042943284
2323,-0.10422178
2324,-0.010400453
2325,-0.016784815
2326,-0.17675239
2327,-0.22520371
2328,-0.05550676
2329,0.04913946
2330,0.039586604
2331,0.018448627
2332,-0.018386511
2333,-0.014852513
2334,0.0121554425
2335,0.034990445
2336,0.0075594895
2337,-0.004743689
2338,-0.029545855
2339,-0.019683035
2340,0.08438982
2341,-0.01895957
2342,0.00022099214
2343,-0.08361111
2344,-0.021116465
2345,0.008700347
2346,0.11730694
2347,7.01974e-05
2348,-0.022117376
2349,-0.03642132
2350,-0.011796367
2351,-0.035288148
2352,0.00822559
2353,-0.18780595
2354,0.07728799
2355,-0.013371433
2356,-0.015534072
2357,-0.069563106
2358,-0.22267573
2359,-0.012659576
2360,-0.09407457
2361,0.018370634
2362,-0.043606993
2363,0.0051768543
2364,0.014003862
2365,-0.102760054
2366,-0.080031775
2367,-0.018090378
2368,0.010589249
2369,-0.04190923
2370,-0.040913645
2371,0.0058680703
2372,0.009576289
2373,0.021142991
2374,0.008584789
2375,-0.10707707
2376,0.00019824662
2377,0.0015144178
2378,0.044187408
2379,-0.049921624
2380,-0.17409907
2381,0.005335304
2382,-0.13148241
2383,-0.0048610554
2384,-0.076452814
2385,-0.016852833
2386,-0.17154059
2387,-0.017154485
2388,0.0056268596
2389,-0.024269069
2390,0.036979835
2391,0.029889591
2392,-0.1145917
2393,-0.061923422
2394,-0.022577327
2395,-0.040742878
2396,-0.054959685
2397,-0.049130403
2398,0.02097518
2399,-0.0038182505
2400,-0.10958638
2401,0.011757487
2402,-0.040354658
2403,-0.017108176
2404,-0.011523504
2405,-0.0077786264
2406,0.06355939
2407,-0.016942712
2408,0.0064567826
2409,-0.03370871
2410,-0.25045255
2411,-0.12275284
2412,-0.023798479
2413,-0.08259062
2414,-0.1494785
2415,-0.11877247
2416,-0.10003293
2417,0.07509364
2418,-0.11805352
2419,-0.0255009
2420,-0.014920667
2421,0.0015686287
2422,-0.005500427
2423,-0.007107722
2424,-0.01636423
2425,-0.0049872864
2426,0.033460706
2427,-0.0071203783
2428,-0.07419537
2429,-0.012256071
2430,-0.100116625
2431,-0.16457433
2432,0.014350675
2433,-0.0012919867
2434,-0.017181722
2435,0.008382721
2436,-0.024851095
2437,0.017400073
2438,-0.017542016
2439,-0.023301182
2440,0.003904161
2441,-0.019604566
2442,0.008422894
2443,-0.0012434602
2444,0.005300466
2445,0.0017273569
2446,-0.021730423
2447,-0.028933411
2448,-0.0067105265
2449,0.0047360733
2450,-0.015081213
2451,-0.038763408
2452,-0.025914723
2453,-0.031086989
2454,0.01831262
2455,-0.011482656
2456,-0.016875567
2457,-0.012684034
2458,-0.010853273
2459,-0.0048353435
2460,0.024049519
2461,0.011182756
2462,-0.030177351
2463,-0.065431915
2464,0.015441159
2465,-0.0049787527
2466,-0.067295656
2467,-0.05515939
2468,-0.004776961
2469,-0.003326644
2470,0.010221632
2471,0.022874678
2472,0.022638062
2473,-0.004106652
2474,-0.007157396
2475,-0.009832403
2476,-0.022522796
2477,-0.024138173
2478,0.019347195
2479,-0.025085483
2480,-0.009717731
2481,0.019901464
2482,-0.006033785
2483,-0.02242336
2484,-0.019768858
2485,-0.02035109
2486,0.017125472
2487,0.025256217
2488,-0.06767231
2489,-0.038022388
2490,-0.055350896
2491,0.0016239228
2492,-0.018220562
2493,0.001782059
2494,-0.0059616216
2495,-0.0059116073
2496,-0.051974513
2497,-0.058033727
2498,-0.015597749
2499,-0.003933235
2500,-0.0030278713
2501,-0.035248067
2502,-0.003518591
2503,-0.03396103
2504,-0.016889544
2505,-0.018815305
2506,-0.023192922
2507,-0.010711012
2508,-0.017141635
2509,-0.04251205
2510,-0.026689801
2511,0.017389262
2512,-0.02448767
2513,0.019303877
2514,-0.018076325
2515,0.028191917
2516,-0.008725465
2517,0.00059117447
2518,0.011096535
2519,-0.010772298
2520,-0.018889174
2521,-0.015152405
2522,-0.0039384016
2523,-0.012472218
2524,-0.021213502
2525,-0.008469722
2526,0.059936
2527,-0.0057909037
2528,-0.012420852
2529,-0.008822934
2530,0.0076880846
2531,-0.015095606
2532,0.018494222
2533,-0.004608223
2534,-0.014354536
2535,0.007519032
2536,-0.027520264
2537,0.0182904
2538,0.021997996
2539,0.0049485466
2540,0.0025999618
2541,-0.012115146
2542,-0.024525147
2543,-0.03088175
2544,0.0049121976
2545,-0.03658647
2546,0.018330928
2547,-0.0290283
2548,-0.015867045
2549,0.001738826
2550,-0.008742247
2551,-0.0013811721
2552,0.01246753
2553,0.00030468727
2554,-0.016658586
2555,-0.0068644197
2556,-0.04965548
2557,-0.0111234905
2558,-0.026974635
2559,-0.020498516
2560,0.021930935
2561,-0.018082403
2562,-0.032237962
2563,-0.011543668
2564,-0.02013782
2565,-0.008975899
2566,-0.00698006
2567,-0.0593992
2568,-0.020327253
2569,-0.024069345
2570,-0.0086800875
2571,-0.005755956
2572,0.0064053787
2573,-0.030117292
2574,0.013416195
2575,-0.021580707
2576,-0.012258055
2577,0.0038228647
2578,-0.015186524
2579,0.0017984555
2580,-0.010228832
2581,0.0063470313
2582,0.018410327
2583,0.019553984
2584,-0.008116389
2585,0.0064174184
2586,-0.01404556
2587,-0.0098649
2588,-0.03231114
2589,0.019224884
2590,-0.013941029
2591,-0.020312896
2592,-0.03149145
2593,-0.021345502
2594,-0.039949838
2595,-0.06890596
2596,0.026825607
2597,0.029352821
2598,-0.03958426
2599,-0.01987542
2600,0.012788507
2601,-0.014935825
2602,-0.017015075
2603,-0.018238004
2604,0.05327859
2605,-0.032197323
2606,0.023986168
2607,-0.022486057
2608,0.007750334
2609,0.0059582423
2610,-0.03650729
2611,0.0009984446
2612,0.0036963352
2613,-0.0025681737
2614,-0.030027654
2615,0.032632362
2616,0.003499425
2617,-0.0018222062
2618,-0.0272504
2619,-0.011369148
2620,-0.012109206
2621,0.014336646
2622,-0.0405395
2623,-0.0084924055
2624,-0.07788047
2625,-0.010151971
2626,-0.019369842
2627,0.010043123
2628,-0.013293583
2629,0.07911695
2630,0.0072075236
2631,0.05321406
2632,-0.0148603795
2633,-0.0684463
2634,-0.017183153
2635,-0.035557047
2636,0.025300324
2637,-0.074248455
2638,-0.007826443
2639,0.0011156709
2640,0.054048814
2641,0.004302894
2642,0.020439953
2643,-0.01893213
2644,-0.008508145
2645,-0.012765912
2646,-0.07775404
2647,-0.0006314611
2648,-0.008131155
2649,0.019107591
2650,-0.016201515
2651,0.024008969
2652,0.045661416
2653,0.03247219
2654,0.03576917
2655,0.012100728
2656,-0.036490712
2657,-0.0072321193
2658,-0.076228365
2659,-0.034660615
2660,-0.0051399246
2661,-0.023315262
2662,-0.030237623
2663,-0.020906411
2664,-0.011434764
2665,0.007568774
2666,-0.007075338
2667,-0.1479194
2668,-0.011217351
2669,-0.027319565
2670,0.0033357993
2671,0.035165492
2672,-0.13055344
2673,-0.018321106
2674,0.014683911
2675,-0.018374044
2676,-0.049181588
2677,-0.012832041
2678,-0.05857862
2679,-0.008738837
2680,0.0018753897
2681,-0.0044846633
2682,-0.023679009
2683,0.00012243133
2684,0.007103005
2685,-0.0069671012
2686,-0.007190169
2687,0.0010522362
2688,0.00072368217
2689,0.001977933
2690,-0.04415041
2691,0.01670513
2692,0.018972663
2693,0.03926427
2694,-0.033353362
2695,-0.065487735
2696,0.008123951
2697,-0.0060298145
2698,0.017302249
2699,-0.0044562435
2700,-0.008823485
2701,-0.11744755
2702,-0.091109835
2703,0.03095282
2704,0.0038398667
2705,-0.000853382
2706,0.010987637
2707,-0.17865029
2708,0.0537111
2709,0.010926485
2710,-0.09409747
2711,-0.046136085
2712,-0.003715733
2713,-0.026937759
2714,-0.011655646
2715,-0.016115177
2716,-0.035563838
2717,0.0036697495
2718,0.04769113
2719,-0.07948234
2720,-0.06332951
2721,-0.009084781
2722,0.063129455
2723,-0.007086237
2724,0.031196818
2725,0.016461024
2726,-0.01809916
2727,-0.01314103
2728,-0.024030654
2729,-0.012844341
2730,0.040627163
2731,0.012234311
2732,-0.04262235
2733,-0.029191125
2734,-0.055508763
2735,-0.025723433
2736,-0.003228948
2737,-0.025465071
2738,-0.03009546
2739,-0.0017874388
2740,0.012636673
2741,-0.076470785
2742,-0.10109696
2743,0.0015778859
2744,-0.09832614
2745,0.008766704
2746,-0.012472278
2747,0.051007424
2748,0.012510515
2749,0.012394249
2750,0.011043795
2751,-0.010794755
2752,-9.024739e-05
2753,-0.046984177
2754,-0.00085610047
2755,-0.009440688
2756,-0.0037852766
2757,-0.045187563
2758,-0.004747739
2759,-0.086026095
2760,0.009779449
2761,-0.04522982
2762,-0.0026046494
2763,-0.14482357
2764,-0.006632706
2765,-0.060595144
2766,-0.013150324
2767,-0.0006952143
2768,-0.12364857
2769,0.01345193
2770,0.021705244
2771,0.0026304964
2772,-0.0007595265
2773,0.012382329
2774,-0.017131722
2775,0.014610843
2776,-0.056068156
2777,-0.050879974
2778,0.029847207
2779,-0.07796184
2780,-0.030813681
2781,-0.084410794
2782,-0.042894498
2783,-0.00739606
2784,-0.020323489
2785,-0.0036495847
2786,-0.11067988
2787,0.020180214
2788,0.019555766
2789,-0.03471449
2790,-0.020320501
2791,-0.009830663
2792,0.03616825
2793,-0.05701265
2794,-0.09057189
2795,-0.18183057
2796,-0.024865212
2797,-0.02675682
2798,-0.026902556
2799,-0.021536203
2800,-0.1804679
2801,-0.030008296
2802,-0.11358562
2803,0.08383362
2804,-0.05504144
2805,-0.005883111
2806,-0.03615137
2807,0.019684672
2808,0.026350359
2809,-0.0049767517
2810,-0.08741882
2811,-0.007553797
2812,-0.022301558
2813,-0.014782867
2814,0.05545529
2815,-0.00077114475
2816,-0.0065872967
2817,0.0035906301
2818,0.0088734515
2819,0.0220191
2820,0.0010615992
2821,-0.0035232517
2822,0.085095026
2823,0.06543134
2824,-0.040268816
2825,-0.0035688977
2826,-0.0065338854
2827,0.0021836045
2828,0.0006804484
2829,0.025884863
2830,-0.037551634
2831,-0.016514502
2832,-0.0032294432
2833,-0.026263596
2834,-0.008091278
2835,0.0067737335
2836,-0.01103621
2837,-0.030991115
2838,-0.0068949424
2839,0.027103122
2840,-0.013818486
2841,0.03359535
2842,-0.020458214
2843,0.0013196033
2844,-0.018552197
2845,-0.025279932
2846,0.043693483
2847,0.038310457
2848,-0.0033859187
2849,-0.00904967
2850,-0.02305145
2851,-0.010923149
2852,0.0008988477
2853,-0.030128457
2854,-0.03356613
2855,0.017612258
2856,0.0011176378
2857,-0.009852302
2858,-0.029313602
2859,-0.009098127
2860,0.03879411
2861,-0.02929585
2862,0.0020618124
2863,-0.018329786
2864,-0.01279591
2865,0.019899512
2866,-0.021903757
2867,-0.014980984
2868,-0.0030673551
2869,0.023045331
2870,0.005183676
2871,0.026968343
2872,0.0005542389
2873,-0.0008471664
2874,-0.02031734
2875,-0.0011760304
2876,-0.014259523
2877,-0.0036478578
2878,-0.032705806
2879,0.020459482
2880,0.010923686
2881,0.06588564
2882,-0.016870597
2883,0.00926848
2884,-0.006458364
2885,-0.009517141
2886,-0.018859869
2887,0.0037539632
2888,-0.0013910278
2889,-0.024133623
2890,0.0055893688
2891,0.015025294
2892,0.011245014
2893,-0.021997264
2894,0.023763414
2895,0.0024681517
2896,0.006941888
2897,-0.025919177
2898,-0.010053022
2899,-0.014015645
2900,-0.0043307333
2901,0.0067304373
2902,-0.056723304
2903,-0.0007289526
2904,0.016539589
2905,0.028351814
2906,-0.02969244
2907,-0.018650861
2908,-0.0061266995
2909,0.05295459
2910,0.013750592
2911,-0.0089311525
2912,0.022255965
2913,0.0014147596
2914,-0.00079779734
2915,-0.012691742
2916,-0.0087458845
2917,0.006013913
2918,-0.018472303
2919,-0.0045411643
2920,-0.0007427955
2921,-0.014236234
2922,0.026848013
2923,-0.016389549
2924,-0.0045312676
2925,0.07656642
2926,0.030417651
2927,-0.005339684
2928,-0.0051008207
2929,0.0074038804
2930,-0.003627041
2931,-0.009018809
2932,0.037682578
2933,-0.0019304579
2934,-0.02921764
2935,0.014907776
2936,0.004518951
2937,-0.0044140574
2938,0.030968687
2939,0.0032031275
2940,-0.019237548
2941,-0.012015952
2942,-0.023519175
2943,-0.018695163
2944,-0.024811806
2945,0.008090489
2946,-0.017055884
2947,0.002400897
2948,-0.004354473
2949,-0.00011493152
2950,-0.03771853
2951,-0.0469398
2952,-0.010654104
2953,0.0026396213
2954,-0.00014910141
2955,-0.0033152716
2956,-0.010859031
2957,-0.01650402
2958,0.022881543
2959,0.019340804
2960,0.0022623432
2961,-0.011251626
2962,0.002105666
2963,-0.009572398
2964,-0.02834847
2965,0.028145066
2966,0.018659128
2967,-0.00705152
2968,-0.0060436903
2969,-0.007890607
2970,-0.003714834
2971,0.009427689
2972,0.00017014623
2973,-0.015199837
2974,-0.028502278
2975,0.018143322
2976,0.006366879
2977,-0.0065108677
2978,0.06834579
2979,0.02920433
2980,-0.0017908107
2981,-0.019519586
2982,-0.047334332
2983,-0.015943877
2984,-0.0056799077
2985,-0.021567026
2986,0.007597776
2987,-0.013272307
2988,0.00082139083
2989,0.040783174
2990,-0.0033813126
2991,-0.0036917434
2992,-0.011319453
2993,-0.021977244
2994,-0.0054171584
2995,-0.005707908
2996,-0.006200629
2997,-0.0146681415
2998,0.023522908
2999,-0.0044256216
3000,-0.09254869
3001,0.014923
3002,0.0536864
3003,0.07467949
3004,0.005003802
3005,-0.04772482
3006,0.043565944
3007,-0.006902481
3008,0.024311084
3009,-0.06289008
3010,0.016359286
3011,-0.0062559303
3012,-0.0047658165
3013,-0.008912337
3014,0.008225399
3015,-0.017372297
3016,6.386444e-05
3017,-0.0053805225
3018,-0.009414955
3019,-0.07422167
3020,-0.06846873
3021,0.029448885
3022,-0.03522821
3023,-0.004878081
3024,0.00921637
3025,0.0016788897
3026,0.016514301
3027,0.0028745697
3028,0.002997047
3029,0.0027742148
3030,-0.028474852
3031,-0.01469949
3032,-0.012678295
3033,-0.11759737
3034,0.0019247128
3035,-0.02452677
3036,-0.12981899
3037,-0.014004722
3038,-0.10165716
3039,-0.00019400255
3040,-0.018263068
3041,-0.0015869144
3042,-0.056834232
3043,-0.017901327
3044,-0.018828336
3045,-0.015244289
3046,-0.01257704
3047,-0.004664337
3048,-0.0078046797
3049,-0.044701662
3050,0.016451815
3051,-0.049372885
3052,0.024697024
3053,-0.027857339
3054,-0.015395261
3055,0.010288519
3056,-0.04003539
3057,-0.05574559
3058,-0.058014598
3059,0.011240318
3060,-0.060271304
3061,0.0072921393
3062,-0.014735483
3063,-0.0069087916
3064,-0.0009864059
3065,-0.0005966198
3066,-0.13117453
3067,0.0017264223
3068,0.042449348
3069,-0.00641059
3070,0.039390597
3071,-0.02990049
3072,0.0075935693
3073,-0.005344325
3074,0.0028695753
3075,0.025148785
3076,-0.023397673
3077,-0.002132729
3078,-0.015985003
3079,-0.030829966
3080,0.0012798352
3081,-0.0037199857
3082,-0.013478975
3083,0.0029539056
3084,0.009018053
3085,0.007253688
3086,-0.037194476
3087,-0.04863196
3088,0.015839426
3089,0.009216248
3090,-0.013310129
3091,-0.042868946
3092,0.0049517523
3093,-0.061804377
3094,-0.0018004235
3095,-0.009594997
3096,-0.009668454
3097,-0.006710021
3098,0.026134027
3099,-0.0116594
3100,0.043900285
3101,0.009607946
3102,-0.030813994
3103,-0.03518322
3104,0.028683199
3105,0.00059206155
3106,-0.037783325
3107,-0.055618443
3108,-0.0137459235
3109,-0.016002543
3110,0.010018301
3111,0.048711717
3112,-0.00964139
3113,-0.0011836746
3114,-0.02836927
3115,-0.008731585
3116,-0.013873566
3117,-0.033608064
3118,-0.020197976
3119,-0.0061148326
3120,-0.0051035024
3121,0.020363383
3122,-0.0026662638
3123,0.0067716455
3124,0.010259755
3125,0.010206558
3126,0.040516917
3127,0.023934558
3128,-0.046239965
3129,-0.009951819
3130,-0.030472666
3131,0.009526122
3132,0.0027624888
3133,-0.004549094
3134,-0.0071010366
3135,0.0052969954
3136,-0.090563916
3137,-0.00951933
3138,-0.023068566
3139,-0.0035776761
3140,0.026137155
3141,-0.026181562
3142,-0.02034234
3143,-0.051978935
3144,-0.00700428
3145,0.0035044893
3146,-0.0057048774
3147,0.0017765177
3148,0.0064351875
3149,-0.04471665
3150,-0.017120084
3151,0.0064514345
3152,-0.0015636378
3153,0.010239834
3154,-0.02302361
3155,0.031121714
3156,-0.013134565
3157,0.0031998488
3158,-0.006952026
3159,-0.012317544
3160,0.0042372094
3161,-0.034877196
3162,0.018694809
3163,-0.007419318
3164,-0.030112606
3165,-0.020548223
3166,0.018178847
3167,-0.0035638213
3168,-0.009633932
3169,-0.019489193
3170,0.015182847
3171,-0.022013687
3172,-0.0053234436
3173,0.016694374
3174,-0.004542798
3175,-0.0072242734
3176,-0.0042161127
3177,0.010513736
3178,0.047285724
3179,-0.011218909
3180,-0.0012545396
3181,-0.012622455
3182,0.012352188
3183,-0.044756398
3184,0.0062884376
3185,-0.0075717294
3186,0.030305801
3187,-0.032621592
3188,-0.0049498
3189,-0.0020648553
3190,0.012720294
3191,-0.020778961
3192,-0.020894144
3193,-0.01391916
3194,0.0031627745
3195,-0.015075667
3196,-0.04710929
3197,-0.008256958
3198,-0.021981163
3199,-0.0025679562
3200,-0.0048868177
3201,-0.002539642
3202,-0.00068066496
3203,0.010504926
3204,0.013423081
3205,-0.009275268
3206,0.0036699423
3207,-0.023376651
3208,-0.020925926
3209,0.008802346
3210,-0.00046226353
3211,-0.01204242
3212,-0.017674387
3213,-0.09579304
3214,-0.037140463
3215,-0.013867393
3216,-0.017859124
3217,-0.043892417
3218,-0.015215736
3219,0.020190956
3220,-0.0004944183
3221,0.020583443
3222,0.03482511
3223,0.0022705893
3224,0.0019764001
3225,0.004579284
3226,-0.026138648
3227,0.0050330805
3228,-0.002901657
3229,0.030507775
3230,-0.0055812863
3231,-0.019321207
3232,-0.055074047
3233,-0.018235851
3234,-0.024742851
3235,-0.011297532
3236,-0.04522282
3237,-0.028045679
3238,-0.0014656977
3239,-0.019934166
3240,-0.036526963
3241,-0.0074478975
3242,-0.012117766
3243,-0.008199746
3244,-0.012677837
3245,0.01154029
3246,0.008128672
3247,-0.030880643
3248,-0.005942852
3249,-0.010912601
3250,-0.015418461
3251,0.0076201577
3252,0.0026903981
3253,-0.08808906
3254,-0.0032572336
3255,-0.002173542
3256,0.031485584
3257,-0.013080634
3258,0.0139372125
3259,-0.0061623114
3260,-0.011106515
3261,-0.0039040514
3262,-0.000652232
3263,-0.044269614
3264,0.0029203393
3265,-0.03323776
3266,-0.022003269
3267,-0.020491656
3268,-0.014212604
3269,0.008253904
3270,-0.010545919
3271,0.020587498
3272,-0.004111632
3273,0.012436612
3274,-0.008124935
3275,-0.014494073
3276,-0.021160595
3277,-0.0028005887
3278,0.011279098
3279,0.0039779353
3280,-0.005341604
3281,-0.017716108
3282,-0.009694392
3283,-0.01808664
3284,0.010031272
3285,-0.02322059
3286,0.0007922028
3287,-0.011435767
3288,0.00029263739
3289,-0.008312055
3290,-0.039657988
3291,0.008388453
3292,0.0037447033
3293,-0.07152941
3294,-0.009963909
3295,0.0035588245
3296,-0.0014332429
3297,-0.0046833227
3298,0.0035616807
3299,-0.01335299
3300,-0.0027334788
3301,0.018378936
3302,0.0014312211
3303,-0.00507191
3304,0.008964363
3305,0.0032902092
3306,-0.017025925
3307,-0.03435637
3308,-0.01346182
3309,-0.041263767
3310,-0.063806705
3311,-0.020078976
3312,-0.026888417
3313,-0.050975967
3314,0.0042241453
3315,0.0067659756
3316,-0.029095873
3317,-0.0022857783
3318,-0.025522683
3319,-0.0013285083
3320,-0.013917555
3321,-0.018507084
3322,-0.04410476
3323,-0.0015162124
3324,0.031021442
3325,-0.004579742
3326,0.009086351
3327,0.0045570442
3328,0.04652557
3329,-0.008455528
3330,-0.026624493
3331,0.007625246
3332,0.042041786
3333,-0.004872836
3334,-0.026614219
3335,-0.0038605053
3336,0.0075526913
3337,0.0045827436
3338,-0.0055378326
3339,-0.008981714
3340,-0.0074208044
3341,-0.120472506
3342,-0.022967778
3343,0.042388394
3344,-0.006734365
3345,0.045352213
3346,0.005375816
3347,-0.09335544
3348,-0.038867734
3349,0.0900705
3350,-0.15369777
3351,-0.09051601
3352,-0.012797363
3353,-0.010150066
3354,0.04284347
3355,-0.011220051
3356,0.010536337
3357,0.02137223
3358,-0.041518837
3359,0.03807372
3360,-0.06626533
3361,-0.020679176
3362,0.07151467
3363,0.09470997
3364,0.043832373
3365,0.022947147
3366,0.02378852
3367,0.05110738
3368,-0.00914313
3369,0.0017734405
3370,0.0737311
3371,-0.0055778674
3372,0.061037593
3373,0.024991073
3374,0.04562654
3375,-0.004543775
3376,-0.0035691874
3377,-0.013535544
3378,0.040994328
3379,-0.021559866
3380,-0.013256343
3381,-0.021372493
3382,-0.13046367
3383,-0.013582789
3384,-0.06641213
3385,0.0066622663
3386,0.058901247
3387,-0.02232573
3388,0.035459477
3389,-0.012129785
3390,0.024696432
3391,0.044616293
3392,0.08079691
3393,0.0072136824
3394,0.01585757
3395,-0.008701984
3396,0.018561624
3397,0.10455461
3398,0.001818285
3399,0.02861443
3400,-0.0016543339
3401,0.034998458
3402,0.012011903
3403,-0.0027010555
3404,0.035343975
3405,0.07626267
3406,-0.01900031
3407,0.007363124
3408,0.020027544
3409,0.037765965
3410,0.043936264
3411,0.019001173
3412,-0.019673586
3413,-0.030033797
3414,-0.024127968
3415,0.030453969
3416,-0.030279612
3417,-0.12832713
3418,0.05880892
3419,0.0034890198
3420,-0.026413705
3421,-0.04960917
3422,-0.037551075
3423,-0.005212758
3424,-0.029799905
3425,0.0030687049
3426,-0.0477311
3427,-0.00445885
3428,0.017275093
3429,0.011942615
3430,-0.03414437
3431,-0.0032749705
3432,-0.009912906
3433,0.008587107
3434,-0.16024908
3435,-0.0755107
3436,-0.033157747
3437,-0.0035856357
3438,0.012907462
3439,0.056666017
3440,-0.10366406
3441,0.017538495
3442,0.011921897
3443,0.0800815
3444,-0.06066303
3445,-0.016900746
3446,0.018306809
3447,-0.010952297
3448,-0.018649343
3449,0.007985726
3450,0.005316266
3451,-0.0041710404
3452,0.04125963
3453,-0.0038543602
3454,0.07525246
3455,0.04031361
3456,0.014699897
3457,0.0038168211
3458,-0.006716114
3459,0.03237726
3460,-0.0069217654
3461,-0.0046022832
3462,0.032762975
3463,0.009810226
3464,-0.023491243
3465,-0.010214002
3466,0.0028121069
3467,-0.007190895
3468,-0.018133312
3469,-0.050605223
3470,-0.0032129688
3471,-0.008881478
3472,-0.012205526
3473,-0.004471599
3474,-0.01652491
3475,-0.046042755
3476,0.00247147
3477,-0.0030169461
3478,0.016139744
3479,-0.0036447637
3480,-0.00698604
3481,0.0051779877
3482,-0.03587891
3483,-0.018016595
3484,-0.017761353
3485,0.023977786
3486,-0.005545653
3487,-0.031229652
3488,-0.03454415
3489,-0.012899918
3490,-0.036565963
3491,-0.030703457
3492,-0.017921474
3493,-0.012131839
3494,0.0007487447
3495,0.025106004
3496,-0.004853282
3497,-0.015920265
3498,-0.0046286304
3499,-0.015030598
3500,0.027067438
3501,-0.022832315
3502,0.0097396355
3503,-0.04172208
3504,-0.006133768
3505,0.017179279
3506,-0.058385797
3507,0.0026875199
3508,0.0015160795
3509,-0.039374422
3510,0.02000147
3511,0.009264304
3512,-0.061322726
3513,-0.029797932
3514,-0.010270285
3515,0.008696742
3516,0.0073353145
3517,-0.058154456
3518,-0.022821894
3519,-0.020479308
3520,-0.03227886
3521,0.011510399
3522,-0.00915721
3523,-0.020056814
3524,-0.020710897
3525,0.009077321
3526,0.005031975
3527,-0.0002687725
3528,-0.019167574
3529,-0.026380438
3530,-0.036178645
3531,0.030043388
3532,-0.06683246
3533,-0.028702106
3534,-0.014137884
3535,-0.019298334
3536,-0.026980553
3537,-0.033093773
3538,-0.018549716
3539,-0.033156388
3540,-0.0022196283
3541,-0.0042333663
3542,-0.014986392
3543,-0.03196517
3544,-0.00035448952
3545,-0.08819364
3546,-0.02280274
3547,0.026806992
3548,-0.060584668
3549,-0.014925829
3550,-0.06840164
3551,0.012807821
3552,-0.01201663
3553,0.0025054906
3554,-0.014054229
3555,0.005805596
3556,-0.005639947
3557,-0.009675178
3558,-0.053261228
3559,0.0043658107
3560,0.0011139498
3561,0.020279838
3562,0.006304601
3563,-0.01662973
3564,-0.017748678
3565,0.021973668
3566,-0.035926454
3567,-0.02864948
3568,0.0043673697
3569,-0.04334318
3570,0.019253707
3571,-0.0023819387
3572,0.006990465
3573,0.006699106
3574,-0.015765766
3575,-0.011169652
3576,-0.0006572545
3577,-0.009015704
3578,0.017257662
3579,-0.014225638
3580,-0.020571508
3581,0.0073919534
3582,-0.016047614
3583,0.007263644
3584,-0.002762024
3585,-0.0071447967
3586,0.036070645
3587,0.007947431
3588,0.034704957
3589,-0.006475033
3590,-0.012882697
3591,-0.0073210276
3592,0.029865813
3593,-0.011487756
3594,-0.0069050756
3595,-0.012949998
3596,-0.010613144
3597,-0.108767845
3598,-0.022815563
3599,0.008076267
3600,-0.002985468
3601,-0.0023345763
3602,-0.0012852324
3603,-0.031895798
3604,-0.017035587
3605,0.031862125
3606,0.10898011
3607,0.04272689
3608,0.0086673405
3609,0.023594433
3610,0.02184387
3611,-0.0049928506
3612,0.023577921
3613,-0.01725261
3614,-0.011565368
3615,0.042946734
3616,-0.10241814
3617,-0.010370784
3618,0.047906324
3619,0.03984563
3620,-0.006894653
3621,-0.010169095
3622,0.011983533
3623,0.017269759
3624,0.0028683362
3625,0.023844635
3626,-0.12027788
3627,-0.015826825
3628,0.026311664
3629,0.02155949
3630,-0.041006647
3631,-0.02182888
3632,-0.008509146
3633,0.027587153
3634,0.021028752
3635,-0.011597867
3636,0.00033406127
3637,0.024986876
3638,0.0575086
3639,0.042307854
3640,0.016314683
3641,-0.0076619624
3642,0.03348072
3643,0.016106375
3644,-0.0062088594
3645,0.027958652
3646,0.014204768
3647,0.004473052
3648,0.038174707
3649,0.013382004
3650,0.019686285
3651,-0.014185367
3652,0.01168871
3653,-0.0709545
3654,-0.0027873358
3655,0.008995733
3656,-0.007729197
3657,0.014473165
3658,-0.024761353
3659,-0.031314403
3660,-0.007550848
3661,0.052882504
3662,0.07150079
3663,-0.006318803
3664,0.052386727
3665,0.016764367
3666,-0.005149202
3667,0.018209592
3668,-0.0008279963
3669,-0.029320301
3670,0.024667947
3671,0.002918394
3672,0.019399602
3673,0.030310588
3674,0.022118613
3675,-0.023316644
3676,0.0064816875
3677,-0.10058591
3678,0.034547538
3679,0.008084423
3680,0.0877782
3681,0.004405799
3682,-0.041563608
3683,-0.030236388
3684,-0.008736153
3685,0.0059690094
3686,0.002661754
3687,-3.5067766e-05
3688,-0.0062445523
3689,0.011943813
3690,0.04056872
3691,-0.029409705
3692,0.0012859384
3693,-0.022441253
3694,-0.012462533
3695,-0.0008626643
3696,-0.007080255
3697,0.016371116
3698,-0.02208643
3699,0.001038284
3700,-0.014081042
3701,-0.00927148
3702,0.025019882
3703,-0.003632299
3704,-0.0041212896
3705,0.00893979
3706,0.008902539
3707,-0.018421274
3708,0.034570444
3709,-0.008024891
3710,0.006495077
3711,0.040561497
3712,-0.018726848
3713,-0.006315963
3714,-0.035943232
3715,-0.00733992
3716,-0.015555559
3717,-0.008189489
3718,-0.031284288
3719,-0.046406075
3720,-0.0028641748
3721,-0.0043502757
3722,0.011254295
3723,0.012540817
3724,-0.008013855
3725,0.02999988
3726,0.0020286944
3727,-0.0076431762
3728,-0.01562548
3729,-0.02467611
3730,0.0016299846
3731,0.079589635
3732,-0.01702155
3733,0.02065284
3734,-0.0035279505
3735,-0.0050721955
3736,-0.001310605
3737,0.006870168
3738,-0.005475309
3739,-0.004513562
3740,0.00616412
3741,-0.015633957
3742,-0.025152862
3743,0.014715709
3744,0.004125644
3745,0.0056244987
3746,0.023377376
3747,0.02623838
3748,0.018314565
3749,-0.015667342
3750,-0.054164506
3751,-0.02270075
3752,-0.020338068
3753,-0.0049473653
3754,0.00045626314
3755,0.007553428
3756,0.043974523
3757,0.013067739
3758,0.015294614
3759,-0.007859325
3760,-0.0038662693
3761,-0.013902355
3762,-0.011718821
3763,0.0046875905
3764,-0.006545234
3765,0.0051660435
3766,0.013982519
3767,-0.012341367
3768,0.004774265
3769,-0.00466943
3770,0.009432623
3771,0.03092813
3772,-0.013888273
3773,-0.025748366
3774,0.008300253
3775,-0.008297453
3776,0.03530465
3777,-0.06192521
3778,0.018317668
3779,0.002114785
3780,-0.0106423125
3781,0.004654134
3782,-0.008485484
3783,0.020670202
3784,0.01765512
3785,-0.02133036
3786,-0.014561295
3787,-0.06704067
3788,-0.01490395
3789,0.038479824
3790,-0.030186623
3791,-0.0068981466
3792,0.009414391
3793,-0.037848733
3794,0.017751947
3795,-0.017808631
3796,-0.015223927
3797,0.026341572
3798,-0.06725323
3799,-0.025851298
3800,-0.024209367
3801,-0.0880086
3802,-0.0019821976
3803,-0.025317807
3804,-0.13289289
3805,0.20234464
3806,-0.031456422
3807,0.0024410284
3808,-0.023566905
3809,0.0050884737
3810,-0.042507146
3811,-0.00091262825
3812,-0.008698458
3813,-0.005229542
3814,0.0066357967
3815,-0.014335912
3816,-0.005949566
3817,-0.040517144
3818,0.0059208698
3819,-0.077091284
3820,0.015518591
3821,-0.015959002
3822,-0.012306483
3823,0.002500009
3824,-0.10481311
3825,-0.04584938
3826,-0.051584415
3827,0.016145606
3828,-0.05686149
3829,0.01299469
3830,-0.04907199
3831,-0.0029512774
3832,-0.007999277
3833,-0.011923042
3834,-0.08970317
3835,-0.0017650459
3836,0.016718883
3837,-0.004968517
3838,0.010458389
3839,-0.031317927
3840,0.049362924
3841,-0.013920743
3842,-0.018901901
3843,0.02460977
3844,-0.009802845
3845,-0.0124757355
3846,-0.03567125
3847,-0.045178227
3848,0.011592466
3849,0.019349938
3850,-0.002729617
3851,-0.014593236
3852,-0.0013963375
3853,0.014062905
3854,-0.024595216
3855,0.027598577
3856,0.003023933
3857,0.046264417
3858,-0.013021237
3859,-0.046773713
3860,-0.032229286
3861,0.06532491
3862,0.004704275
3863,-0.01478049
3864,-0.0060686036
3865,0.0064226743
3866,0.02260238
3867,-0.00832768
3868,0.02950547
3869,-0.0046773283
3870,-0.029553445
3871,0.04188062
3872,0.026981533
3873,-0.0097097065
3874,0.06807735
3875,0.09867176
3876,0.020327844
3877,-0.0091853775
3878,-0.008425227
3879,0.045373905
3880,0.0016429924
3881,-0.007897505
3882,0.0077600526
3883,-0.01147915
3884,0.0061970023
3885,0.019960597
3886,0.020268178
3887,0.009725239
3888,-0.008760701
3889,-0.0040458753
3890,-0.010786131
3891,0.0033754278
3892,-0.0039944877
3893,0.0029246267
3894,0.019166589
3895,-0.027436478
3896,-0.10540419
3897,0.02014377
3898,0.033191558
3899,0.008397987
3900,-0.019065995
3901,-0.022293828
3902,0.022147205
3903,0.03236152
3904,0.06660948
3905,-0.0032773628
3906,0.014651443
3907,-0.025075687
3908,0.018450521
3909,0.030096866
3910,-0.011681387
3911,-0.016151456
3912,-0.0030070231
3913,0.046444494
3914,0.019738115
3915,0.018524708
3916,-0.01071576
3917,0.061249744
3918,0.0082268445
3919,0.002828682
3920,0.011725496
3921,0.016953146
3922,0.050250277
3923,0.018250564
3924,-0.0033652347
3925,0.0033026908
3926,-0.020597082
3927,0.018184341
3928,-6.9003465e-05
3929,-0.021600794
3930,0.020674516
3931,0.014992391
3932,-0.015291311
3933,-0.0036593615
3934,0.008330599
3935,-0.014301283
3936,0.00046257811
3937,-0.009418323
3938,-0.02896363
3939,0.00670849
3940,-0.0041766176
3941,0.02758553
3942,-0.030807804
3943,0.0056150127
3944,0.011403564
3945,0.018847736
3946,0.005993339
3947,-0.0053564925
3948,0.0045736353
3949,-0.0069826576
3950,0.0028646316
3951,0.020601632
3952,-0.015614493
3953,0.019242013
3954,0.03292947
3955,0.010758718
3956,-0.06431417
3957,-0.002915939
3958,-0.010384596
3959,0.0012389012
3960,0.008701292
3961,-0.018335514
3962,-0.022376085
3963,-0.01153336
3964,0.01534933
3965,0.0045291814
3966,0.03451564
3967,0.052104816
3968,0.005412694
3969,-0.010404081
3970,0.00081729586
3971,0.028705247
3972,-0.0112069715
3973,-0.023753474
3974,0.010883156
3975,-0.0019978862
3976,-0.033595785
3977,-0.0047648763
3978,0.007595671
3979,-0.009495151
3980,0.008282584
3981,-0.021005007
3982,0.02687821
3983,-0.026248485
3984,0.008228532
3985,0.0057297284
3986,-0.00055728003
3987,-0.031581994
3988,-0.016237082
3989,-0.014570909
3990,0.023683686
3991,0.0076711224
3992,-0.00018686344
3993,0.018026922
3994,0.0023291553
3995,0.0045846864
3996,0.0024979915
3997,0.022074208
3998,-0.0025134447
3999,-0.021749187
4000,0.0026107624
4001,-0.0035998416
4002,-0.029956186
4003,-0.05200747
4004,0.023049252
4005,-0.03688628
4006,-0.0012484388
4007,0.008127181
4008,0.014550646
4009,-0.0290802
4010,-0.00402234
4011,-0.019678902
4012,0.045939296
4013,-0.014356949
4014,0.024321554
4015,-0.027266914
4016,-0.0020902473
4017,-0.0035561286
4018,-0.00858566
4019,0.011168388
4020,-0.014081977
4021,0.014618117
4022,0.026539616
4023,0.01940837
4024,-0.021801468
4025,-0.004057931
4026,-0.03634844
4027,0.0011422676
4028,-0.009746963
4029,0.0037147233
4030,-0.037952725
4031,-0.007471819
4032,-0.029856797
4033,-0.0003957051
4034,-0.0153051475
4035,-0.0044620805
4036,-0.02937478
4037,0.028207622
4038,0.003649265
4039,0.03468617
4040,-0.02262453
4041,-0.004431442
4042,-0.020895718
4043,0.020382628
4044,0.01313124
4045,-0.020064402
4046,0.03877495
4047,-0.018402888
4048,0.03789482
4049,-0.0029347774
4050,-0.021688053
4051,-0.00586545
4052,-0.0013734953
4053,-0.011734877
4054,-0.024476927
4055,-0.0077961055
4056,0.024967708
4057,0.010658482
4058,0.002440139
4059,0.011545119
4060,0.02182866
4061,0.0340096
4062,0.028975151
4063,0.0016689745
4064,-0.001223044
4065,-0.0077827103
4066,0.026577035
4067,0.0067307474
4068,-0.0077119423
4069,-0.0012691831
4070,-0.016810227
4071,-0.013287785
4072,-0.0075266995
4073,0.007908268
4074,0.023622425
4075,0.016234256
4076,-0.014610026
4077,0.0036899229
4078,-0.009973308
4079,0.0146792
4080,0.009295091
4081,-0.031510368
4082,0.032056108
4083,-0.023088606
4084,0.016197797
4085,-0.005234384
4086,-0.005387304
4087,-0.00898262
4088,0.0028713082
4089,-0.017271541
4090,0.03317994
4091,0.0061849332
4092,-0.024369325
4093,-0.009126196
4094,-0.017340476
4095,-0.008382757
4096,-0.017409457
4097,0.0061709974
4098,-0.063115135
4099,-0.026581574
4100,-0.00063429354
4101,-0.0007058218
4102,-0.046234116
4103,-0.018545495
4104,0.006938384
4105,0.003402198
4106,0.006474897
4107,0.0029623122
4108,-0.013714161
4109,-0.044343993
4110,0.039665952
4111,0.033618633
4112,0.0039208056
4113,0.0016470054
4114,-0.0012915237
4115,-0.016357858
4116,-0.0012689249
4117,0.122489944
4118,-0.09699197
4119,-0.048828542
4120,-0.009295491
4121,-0.04279957
4122,-0.0213203
4123,-0.014040539
4124,-0.008648611
4125,-0.017248437
4126,-0.015352668
4127,0.045416813
4128,-0.038597785
4129,-0.002414762
4130,0.090617165
4131,0.12732415
4132,0.023564171
4133,0.001635384
4134,-0.10419959
4135,-0.08395457
4136,-0.010462466
4137,-0.018243235
4138,0.06761693
4139,-0.012762309
4140,0.013584831
4141,0.078802414
4142,0.043172553
4143,-0.0061410256
4144,-0.006725337
4145,-0.039687686
4146,-0.013457728
4147,-0.0066801673
4148,0.0011769354
4149,0.0030414383
4150,-0.064647034
4151,-0.054986637
4152,-0.020504659
4153,0.028283078
4154,0.09524245
4155,0.019497795
4156,-0.0012241873
4157,-0.0080151735
4158,0.0772782
4159,0.025632974
4160,0.1214842
4161,-0.10685452
4162,0.041174605
4163,-0.001687971
4164,-0.0015312037
4165,0.060958624
4166,0.0091096135
4167,0.028457643
4168,0.0055085393
4169,-0.04797442
4170,-0.017482162
4171,-0.088520885
4172,0.04792754
4173,0.1327734
4174,-0.025442911
4175,-0.0145639535
4176,-0.02638193
4177,0.0031731674
4178,0.09141487
4179,0.010233904
4180,0.0147325
4181,-0.0072011496
4182,-0.09459427
4183,-0.027383605
4184,-0.040404815
4185,0.016166445
4186,0.020171672
4187,-0.05416309
4188,0.0031474177
4189,-0.116551
4190,0.00189312
4191,0.0005491706
4192,-0.02666496
4193,0.0015551077
4194,-0.12331128
4195,-0.0073605506
4196,-0.014333999
4197,0.0064574303
4198,-0.0095936945
4199,-0.0032556562
4200,-0.0067079207
4201,-0.15665023
4202,-0.075687446
4203,-0.13866942
4204,-0.0150357885
4205,-0.010264008
4206,0.020636179
4207,0.06032616
4208,-0.1510381
4209,-0.057365973
4210,-0.104974665
4211,0.0871489
4212,-0.07886467
4213,-0.01057706
4214,-0.06757492
4215,-0.008720256
4216,0.010078793
4217,0.0073271864
4218,-0.14258534
4219,0.017955305
4220,0.09603829
4221,-0.008994843
4222,0.058299165
4223,-0.03714069
4224,0.013218523
4225,0.0022133556
4226,-0.06808939
4227,-0.15758106
4228,0.049820695
4229,-0.02335612
4230,-0.08766821
4231,-0.055433042
4232,0.00091999763
4233,0.012748634
4234,-0.033352703
4235,-0.012122463
4236,-0.0041674636
4237,-0.046369247
4238,0.05543057
4239,0.04937424
4240,-0.005668857
4241,-0.0042000487
4242,0.0040853564
4243,-0.08046327
4244,0.013973608
4245,0.09989947
4246,-0.020494482
4247,-0.15543078
4248,-0.012516412
4249,-0.027176784
4250,0.0034701354
4251,0.014539583
4252,-0.02045136
4253,0.014913577
4254,-0.032800484
4255,0.08794717
4256,-0.0044494374
4257,-0.0031891025
4258,0.103226595
4259,0.113873005
4260,0.08295697
4261,0.008906339
4262,-0.049435563
4263,-0.114844985
4264,-0.03276539
4265,-0.0017002719
4266,0.06122446
4267,-0.012992729
4268,-0.021522416
4269,0.071274005
4270,0.03321675
4271,0.009431618
4272,0.019995153
4273,-0.09505412
4274,0.005085201
4275,-0.019219235
4276,-0.015602652
4277,-0.08384081
4278,-0.06817216
4279,-0.098521836
4280,-0.06250486
4281,0.028712776
4282,0.09618868
4283,-0.005506148
4284,-0.0051197917
4285,-0.043318972
4286,0.07638821
4287,0.004793674
4288,0.10160517
4289,-0.041011114
4290,0.042440157
4291,-0.00092200644
4292,-0.030019479
4293,0.08481642
4294,0.00090116076
4295,0.04524544
4296,-0.002039349
4297,0.0071618245
4298,0.037550762
4299,0.025310287
4300,-0.06529814
4301,0.14385769
4302,-0.09153451
4303,-0.0074131014
4304,0.029313892
4305,-0.019850407
4306,0.051121786
4307,-0.028897716
4308,-0.005787553
4309,-0.015715512
4310,-0.042125206
4311,0.032445777
4312,-0.058996905
4313,-0.015277528
4314,0.00527046
4315,0.036043823
4316,-0.035772674
4317,-0.09426246
4318,-0.03850299
4319,-0.007489981
4320,-0.07212873
4321,-0.005758601
4322,0.008322421
4323,0.00074987405
4324,-0.0115430225
4325,3.30311e-05
4326,0.0011940496
4327,-0.012755933
4328,0.0032995443
4329,0.0034992355
4330,-0.11395525
4331,-0.034516193
4332,-0.010902594
4333,-0.19994758
4334,-0.033975683
4335,0.08744208
4336,-0.06285649
4337,0.0490438
4338,0.019125696
4339,0.047078658
4340,-0.040358648
4341,-0.0038687403
4342,-0.050973203
4343,-0.012777809
4344,-2.7730672e-05
4345,-0.012786798
4346,0.016368834
4347,0.0007582223
4348,0.061115608
4349,0.011439567
4350,0.026870044
4351,0.00869431
4352,0.0044847024
4353,-0.008914849
4354,0.019600524
4355,0.03682264
4356,0.012193371
4357,-0.014670226
4358,0.04991147
4359,0.02639832
4360,0.0031026406
4361,0.0153404595
4362,-0.015491923
4363,0.005085873
4364,0.0059025316
4365,-0.011519046
4366,-0.0037641623
4367,0.031501222
4368,-0.0013998688
4369,-0.039025154
4370,0.0053471234
4371,-0.0021950756
4372,-0.034359425
4373,-0.027609222
4374,0.031975362
4375,0.031271074
4376,0.00354016
4377,0.013144079
4378,0.0012151365
4379,-0.0068250983
4380,-0.00200132
4381,-0.002337693
4382,-0.00076100207
4383,0.038866226
4384,-0.017495597
4385,-0.013373507
4386,0.0021335832
4387,0.01349836
4388,0.007853775
4389,-0.022160243
4390,0.0049229125
4391,0.019754043
4392,0.010024218
4393,-0.016738608
4394,-0.008173813
4395,-0.007805918
4396,0.026294837
4397,0.0011224651
4398,-0.034142908
4399,-0.023320336
4400,-0.010896658
4401,0.034774087
4402,-0.008480539
4403,-0.0060172873
4404,-0.0042940415
4405,-0.0030951346
4406,0.039548133
4407,0.028916413
4408,-0.027868085
4409,0.017789427
4410,0.025686266
4411,0.0030266074
4412,-0.013657726
4413,-0.026837265
4414,0.01681215
4415,-0.011124428
4416,0.00049126794
4417,0.025985414
4418,0.02302023
4419,-0.012235386
4420,-0.005109054
4421,0.0056195688
4422,0.0022575704
4423,0.04153051
4424,-0.012825327
4425,0.0069377716
4426,-0.0009633766
4427,0.022155788
4428,-0.03016236
4429,0.01981493
4430,0.023816261
4431,-0.017905504
4432,-0.0012689775
4433,-0.02698236
4434,-0.013993108
4435,-0.02024771
4436,-0.0011828174
4437,-0.014087465
4438,0.012732454
4439,-0.021008007
4440,0.031894926
4441,-0.04589009
4442,0.003391179
4443,0.023984758
4444,-0.021189136
4445,0.0012030846
4446,-0.014650592
4447,-0.006537743
4448,0.012778869
4449,0.004497115
4450,-0.0063561923
4451,-0.003914044
4452,0.0019203875
4453,-2.3315079e-06
4454,-0.008352011
4455,-0.01614649
4456,0.00041170756
4457,0.035683215
4458,0.030450018
4459,-0.0071913237
4460,-0.0026683367
4461,0.03147276
4462,-0.014245022
4463,0.011990498
4464,0.0018586097
4465,-0.00024150888
4466,-0.017860703
4467,-0.007210839
4468,0.011304278
4469,-0.0102526955
4470,0.016893556
4471,0.0005978693
4472,0.00626352
4473,0.003687841
4474,0.011677243
4475,-0.008088847
4476,-0.0019406173
4477,-0.010205637
4478,0.010754813
4479,-0.02131188
4480,-0.014111904
4481,-0.014243134
4482,0.0068017947
4483,0.040096406
4484,-0.010597954
4485,-0.019265313
4486,-0.0071023414
4487,0.003755281
4488,-0.015744595
4489,0.002415491
4490,-0.006710379
4491,-0.0047305124
4492,-0.0020776843
4493,-0.0016994611
4494,0.0022267944
4495,0.031618178
4496,0.0032805172
4497,-0.030738225
4498,-0.0073832036
4499,0.009552726
4500,-0.012677559
4501,0.024170734
4502,0.038651742
4503,0.007884938
4504,0.035872538
4505,0.00813671
4506,-0.0076501737
4507,7.9166595e-05
4508,-0.01074829
4509,-0.04280435
4510,-0.0043190676
4511,0.022904674
4512,0.043132197
4513,0.004267709
4514,-0.019842621
4515,0.0044145593
4516,-0.057292502
4517,-0.009472455
4518,0.0100515215
4519,0.021073159
4520,-0.019683052
4521,0.0042522005
4522,-0.014860913
4523,0.0096844435
4524,0.012253501
4525,0.003618604
4526,-0.009769022
4527,0.0045480332
4528,0.007958366
4529,0.0071607456
4530,0.010109386
4531,0.01583294
4532,-0.027064975
4533,0.035771247
4534,0.079668574
4535,0.01263637
4536,0.03197317
4537,0.00061963394
4538,0.011967861
4539,0.00031905586
4540,-0.013960057
4541,0.044113684
4542,0.016082184
4543,-0.0054245507
4544,0.01097827
4545,-0.0073873103
4546,0.0017421579
4547,-0.015665794
4548,-0.0033459938
4549,-0.034720223
4550,-0.004031194
4551,0.005107223
4552,0.008856274
4553,0.013619751
4554,-0.07610788
4555,-0.04478186
4556,0.0462154
4557,-0.0005297548
4558,0.03474973
4559,-0.009598111
4560,0.029681439
4561,-0.00087127707
4562,0.03845925
4563,0.014302537
4564,-0.0009760659
4565,0.0043825577
4566,0.027394364
4567,-0.03985158
4568,0.037972108
4569,0.046850525
4570,0.052810308
4571,-0.041650444
4572,0.04323252
4573,0.0030163636
4574,-0.0018956817
4575,0.00093444245
4576,0.034387108
4577,-0.00067362125
4578,0.0091348095
4579,0.0016773917
4580,0.0010465772
4581,-0.010338732
4582,0.0011589744
4583,-0.01330667
4584,0.007167574
4585,-0.023922501
4586,0.087400794
4587,0.019137995
4588,0.017892394
4589,-0.0035398768
4590,-0.029083466
4591,-0.013397666
4592,0.039250564
4593,0.003598501
4594,-0.032191396
4595,0.018570028
4596,0.006977583
4597,-0.00732405
4598,0.0510919
4599,0.0015852188
4600,0.004513881
4601,-0.019321047
4602,-0.012139142
4603,-0.011065044
4604,0.002012501
4605,-0.002007684
4606,0.03481646
4607,0.0034128276
4608,0.036835
4609,-0.017970188
4610,0.02409559
4611,0.025165638
4612,-0.0108352965
4613,0.0408754
4614,0.038423922
4615,0.020335656
4616,0.021802863
4617,-0.01310966
4618,0.023524366
4619,0.010920857
4620,-0.0069372775
4621,0.016882256
4622,0.017445985
4623,-0.00537734
4624,0.0054480634
4625,0.0094457
4626,0.003497611
4627,0.011911687
4628,-0.002072766
4629,0.008723263
4630,0.043664258
4631,0.040154587
4632,-0.008364339
4633,-0.0080221975
4634,-0.00013262423
4635,-0.0072087077
4636,0.030220414
4637,0.02860454
4638,0.0056937537
4639,0.015015769
4640,0.02169263
4641,0.003145687
4642,-0.0077943816
4643,0.005282126
4644,0.024366576
4645,-0.012870734
4646,0.01799415
4647,0.033112206
4648,-0.00021636457
4649,0.023127055
4650,0.016917089
4651,-0.0028565212
4652,0.027786786
4653,0.0038762302
4654,0.0031238839
4655,-0.021213168
4656,-0.016399197
4657,0.040017083
4658,0.008626812
4659,0.0024922097
4660,-0.013139522
4661,-0.0055532325
4662,0.045362648
4663,0.03171769
4664,0.03703704
4665,0.021885417
4666,-0.005914242
4667,-0.015032636
4668,-0.0110888295
4669,-0.0028828362
4670,-0.0153833395
4671,0.0096238665
4672,-0.0030242717
4673,0.043477207
4674,0.019616174
4675,-0.0020887963
4676,0.02451121
4677,-0.005659925
4678,-0.004540199
4679,0.020628322
4680,-0.0043038223
4681,0.02784271
4682,-0.022969408
4683,0.040221814
4684,0.008712652
4685,0.00857029
4686,0.008543351
4687,-0.012539453
4688,0.026356596
4689,0.017239327
4690,-0.006759209
4691,0.021916514
4692,0.0008798518
4693,0.045262434
4694,-0.00015328423
4695,-0.0061650914
4696,0.01510079
4697,-0.032627787
4698,0.0032222539
4699,0.014384505
4700,-0.03527018
4701,0.027336853
4702,0.07282013
4703,-0.0030717177
4704,-0.0151681425
4705,-0.015106782
4706,0.040412985
4707,0.043603078
4708,0.02464537
4709,0.013345489
4710,-0.016290572
4711,-0.0089833625
4712,-0.015290849
4713,0.042661857
4714,0.033388976
4715,0.059345108
4716,0.007051362
4717,0.041629765
4718,0.014039547
4719,0.0047467714
4720,0.010015609
4721,0.013543816
4722,0.048996344
4723,-0.014257483
4724,0.02013319
4725,-0.0020162046
4726,0.018006474
4727,0.019196382
4728,0.02293647
4729,0.015706249
4730,0.049472906
4731,-0.020540245
4732,0.0022435584
4733,-0.016155504
4734,-0.0077905427
4735,-0.007946736
4736,-0.0028367369
4737,-0.008289337
4738,-0.024912285
4739,-0.01708434
4740,-0.071314044
4741,0.0070833457
4742,-0.03666431
4743,-0.039740805
4744,0.015714612
4745,-0.030686859
4746,-0.0035919964
4747,-4.841369e-05
4748,-0.004129654
4749,0.041156393
4750,-0.0094291195
4751,0.0022716508
4752,0.005297456
4753,0.0057958164
4754,-0.005216027
4755,-0.06859956
4756,0.063995145
4757,0.0042487057
4758,-0.033267114
4759,-0.022975823
4760,-0.00809686
4761,-0.021611417
4762,-0.00038592127
4763,-0.0044868845
4764,-0.014374995
4765,0.010715052
4766,0.08894463
4767,-0.101586364
4768,0.0038404567
4769,-0.0002144465
4770,0.07000836
4771,-0.073996566
4772,0.010928372
4773,0.060616177
4774,-0.08151262
4775,-0.035973802
4776,-0.01630468
4777,-0.007256727
4778,-0.0029856947
4779,0.007259685
4780,-0.06011317
4781,-0.005872443
4782,-0.06421801
4783,-0.017462261
4784,-0.017813882
4785,-0.04299497
4786,-0.0032955396
4787,0.007157004
4788,-0.0065419185
4789,-0.022011926
4790,-0.036959887
4791,-0.002503898
4792,-0.14472485
4793,-0.016674811
4794,0.011169084
4795,0.08784311
4796,0.014635678
4797,-0.034749992
4798,-0.012250762
4799,-3.4380708e-05
4800,-0.07269179
4801,-0.039009016
4802,-0.03703536
4803,0.009560349
4804,-0.004632435
4805,-0.015330785
4806,-0.0061875195
4807,-0.07698795
4808,-0.016901756
4809,-0.0074216775
4810,-0.005113006
4811,-0.05127334
4812,-0.0722302
4813,-0.023658507
4814,-0.07663992
4815,0.0021141253
4816,-0.01123383
4817,0.010238618
4818,-0.027811123
4819,0.0028679685
4820,-0.00448758
4821,-0.014502487
4822,-0.118513644
4823,-0.017841564
4824,-0.03999024
4825,-0.07236338
4826,-0.04604032
4827,-0.025400942
4828,-0.11676604
4829,-0.03154117
4830,-0.07663914
4831,0.009868154
4832,-0.09974856
4833,-0.0076796724
4834,-0.05165498
4835,-0.017559975
4836,0.003358832
4837,-0.026196692
4838,-0.010173628
4839,-0.0029765284
4840,0.041396886
4841,-0.06072577
4842,-0.03824785
4843,-0.07450788
4844,-0.016345376
4845,-0.024411855
4846,-0.03263452
4847,-0.016933613
4848,-0.081266396
4849,-0.01692736
4850,-0.060093917
4851,0.03601262
4852,-0.062204186
4853,0.0035079895
4854,-0.10790107
4855,0.0015485431
4856,-0.009823864
4857,0.005327539
4858,-0.07332541
4859,-0.009769869
4860,-0.04022995
4861,0.006199729
4862,0.0054562646
4863,-0.06239524
4864,0.04714127
4865,-0.012908006
4866,0.049433097
4867,0.03328821
4868,0.00015518727
4869,0.0042971
4870,0.07575935
4871,0.043249693
4872,0.017906498
4873,-0.016209962
4874,-0.016970739
4875,0.005236487
4876,-0.0036050538
4877,-0.0030450607
4878,0.007340655
4879,-0.013032618
4880,-0.015048694
4881,0.04528529
4882,-0.017277598
4883,-0.034332756
4884,-0.014321623
4885,0.005935203
4886,0.037219044
4887,0.052510202
4888,-0.0196205
4889,0.003403434
4890,0.023130374
4891,-0.007975442
4892,0.012095917
4893,0.0067180963
4894,0.034471586
4895,0.013246414
4896,-0.021682229
4897,0.0016127257
4898,-0.0035732342
4899,0.0008003232
4900,-0.016927337
4901,-0.024330918
4902,0.0051865755
4903,0.040991273
4904,-0.01694408
4905,-0.01354784
4906,-0.01669513
4907,-0.0020836238
4908,-0.029870695
4909,-0.014444449
4910,-0.010138231
4911,-0.01877138
4912,0.0030235057
4913,0.051944405
4914,0.00040344847
4915,0.0012448943
4916,-0.005503568
4917,-0.01342807
4918,0.03793472
4919,0.047059953
4920,-0.041383926
4921,-0.00034643547
4922,0.00021763938
4923,0.016313003
4924,-0.01751297
4925,0.014100109
4926,-0.014591546
4927,0.023070697
4928,-0.014540264
4929,0.049148694
4930,-0.0085514365
4931,-0.017099606
4932,0.0032369907
4933,0.0034815576
4934,-0.0039208643
4935,-0.035734326
4936,-0.012524083
4937,0.013447297
4938,0.00038902636
4939,0.06374833
4940,-0.02403148
4941,-0.016070303
4942,-0.005908249
4943,0.0067216097
4944,0.022909824
4945,0.015441561
4946,0.014321347
4947,0.020099923
4948,-0.0049881055
4949,0.002061582
4950,-0.0046803737
4951,-0.0069228867
4952,0.038246416
4953,0.030686637
4954,0.0151129505
4955,0.025137173
4956,0.06224373
4957,0.0453005
4958,0.050946426
4959,0.010111395
4960,0.0052802875
4961,-0.0034027826
4962,0.049293064
4963,0.0030860382
4964,0.009426457
4965,0.018310897
4966,-0.037020314
4967,0.007980527
4968,-0.011543526
4969,0.030541288
4970,0.04080677
4971,0.053355183
4972,-0.0274992
4973,0.05355895
4974,-0.013455819
4975,0.02551931
4976,0.056300137
4977,0.0014682492
4978,0.03676164
4979,-0.01177429
4980,0.03262799
4981,-0.0013623798
4982,0.019293651
4983,-0.005894733
4984,0.0075634206
4985,-0.0069472566
4986,0.051433884
4987,-0.00440593
4988,0.008474435
4989,-0.0065634507
4990,-0.017364522
4991,-0.009644918
4992,-0.048095375
4993,0.009165499
4994,-0.03333286
4995,0.015706029
4996,-0.055278614
4997,0.0063411263
4998,-0.04121831
4999,-0.06564714
5000,-0.0019357024
5001,0.0011684379
5002,-0.015457845
5003,-0.0026532975
5004,-0.00493143
5005,-0.005422011
5006,0.019164301
5007,-0.025476895
5008,-0.004781969
5009,-0.031142823
5010,-0.003999858
5011,-0.0069463407
5012,-0.003198045
5013,0.06707754
5014,-0.030049229
5015,-0.04386397
5016,0.000812788
5017,-0.015587155
5018,-0.021483673
5019,-0.01281279
5020,-0.037984334
5021,-0.032048997
5022,-0.045024592
5023,0.034552578
5024,0.002897385
5025,-0.0015286992
5026,0.05715225
5027,0.07662969
5028,0.03099691
5029,-0.036259793
5030,-0.03105764
5031,0.00928471
5032,0.018647568
5033,-0.0034497192
5034,0.025161223
5035,-0.027400251
5036,0.04906319
5037,0.022098785
5038,0.05064075
5039,-0.013807369
5040,-0.0006965696
5041,-0.016476275
5042,-0.010573755
5043,-0.010479722
5044,-0.012794475
5045,0.016710825
5046,-0.00807494
5047,-0.0024699285
5048,-0.01268011
5049,0.002487718
5050,0.031837314
5051,0.024111783
5052,-0.02484389
5053,-0.0043369713
5054,-0.01757109
5055,0.008549456
5056,-0.062564634
5057,-0.013813472
5058,0.022522276
5059,0.0007747139
5060,-0.016853072
5061,0.06904432
5062,-0.0012376935
5063,0.03170809
5064,0.0075069107
5065,0.005109649
5066,-0.020850005
5067,-0.08184232
5068,0.0029512912
5069,0.056251667
5070,-0.02665346
5071,0.002255319
5072,0.025721341
5073,-0.030719299
5074,0.027282538
5075,-0.02727688
5076,-0.006652599
5077,-0.0024075273
5078,-0.039840166
5079,0.0014499
5080,-0.01574524
5081,0.019208947
5082,0.005489973
5083,-0.05109993
5084,0.02957987
5085,0.003032935
5086,0.017014828
5087,0.00037725264
5088,-0.026524948
5089,-0.015919885
5090,-0.08969572
5091,-0.007147178
5092,-0.019082258
5093,-0.0022599816
5094,-0.027411474
5095,-0.00068597525
5096,-0.011356331
5097,-0.017223965
5098,-0.029543214
5099,-0.086940534
5100,-0.017306661
5101,-0.043597355
5102,-0.0026648685
5103,0.04447981
5104,-0.09680583
5105,0.009978355
5106,-0.05319902
5107,0.0061583812
5108,-0.072771944
5109,-0.0039350037
5110,-0.07126012
5111,-0.0068879905
5112,-0.018669134
5113,-0.0071927593
5114,-0.12488064
5115,-0.020994544
5116,0.00022737273
5117,0.0044046976
5118,0.0166744
5119,0.024229374
5120,0.025665559
5121,0.001118734
5122,0.0034449908
5123,0.03613457
5124,0.015566159
5125,-0.015353852
5126,-0.031024842
5127,-0.046929616
5128,0.019329077
5129,-0.0027767464
5130,-0.021979814
5131,-0.013236346
5132,-0.010075952
5133,-0.032202817
5134,0.038124356
5135,0.05559956
5136,-0.015967872
5137,0.04362692
5138,-0.01641178
5139,-0.127249
5140,-0.021779852
5141,0.03140898
5142,-0.11038217
5143,-0.029694434
5144,0.009637856
5145,-0.020065155
5146,0.029020501
5147,0.009517278
5148,0.035699014
5149,-0.014715849
5150,-0.008224301
5151,0.036572516
5152,0.030897435
5153,-0.005234364
5154,0.020706844
5155,0.027942002
5156,0.05035373
5157,-0.023220034
5158,-0.011828278
5159,0.077407524
5160,-0.021681895
5161,-0.020393265
5162,0.054573167
5163,-0.013366609
5164,-0.085025474
5165,0.026564982
5166,0.022462096
5167,-0.006183958
5168,-0.0097044725
5169,0.0010247044
5170,0.024247428
5171,-0.002309887
5172,0.002947929
5173,-0.05752732
5174,-0.07102874
5175,-0.028747622
5176,-0.033847835
5177,-0.0058203856
5178,0.04594592
5179,-0.024910422
5180,0.0034023793
5181,0.039988406
5182,0.07098475
5183,0.03730706
5184,0.039158046
5185,-0.01477557
5186,0.03338487
5187,-0.0032537493
5188,0.020863129
5189,0.007830869
5190,-0.0062063974
5191,-0.081279896
5192,0.007399583
5193,0.052373625
5194,0.00068693166
5195,0.0041511203
5196,-0.027451059
5197,0.037172843
5198,-0.051066704
5199,-0.008122463
5200,-0.06319269
5201,0.02025918
5202,0.03987661
5203,0.034732692
5204,-0.0006751388
5205,0.015599614
5206,-0.012239808
5207,0.012602089
5208,-0.04220618
5209,-0.068479836
5210,0.028984867
5211,0.015569565
5212,-0.07176466
5213,-0.008233895
5214,-0.023674065
5215,0.010932018
5216,-0.04815264
5217,-1.2216571e-05
5218,-0.0026215615
5219,0.003326656
5220,-0.0054290947
5221,0.017002486
5222,-0.015650572
5223,-0.0027156395
5224,0.018137515
5225,0.01478545
5226,-0.06513363
5227,0.037725985
5228,0.020424765
5229,-0.034706976
5230,-0.057530727
5231,0.016844483
5232,0.05053055
5233,0.027446622
5234,0.022523887
5235,0.02505022
5236,-0.028781561
5237,-0.0026150446
5238,0.010472967
5239,-0.0023337924
5240,-0.011712862
5241,-0.0070291483
5242,-0.03875973
5243,-0.0021463435
5244,0.042057607
5245,-0.013668105
5246,0.05876888
5247,0.011565026
5248,-0.0022404727
5249,-0.009706819
5250,-0.0016509737
5251,0.0054193162
5252,-0.04359366
5253,0.0023952285
5254,-0.029772338
5255,-0.020457823
5256,0.008187272
5257,-0.0017894008
5258,0.021488385
5259,-0.015471589
5260,-0.01697943
5261,-0.00488181
5262,-0.10536603
5263,-0.006502799
5264,-0.021936644
5265,-0.014295923
5266,-0.006419297
5267,-0.050123457
5268,-0.0022823156
5269,0.019051028
5270,-0.02596266
5271,-0.035605483
5272,-0.011803687
5273,-0.0051847682
5274,-0.00483742
5275,-0.009547472
5276,-0.021482568
5277,-0.0062278532
5278,-0.018079298
5279,-0.0008363707
5280,-0.0054284907
5281,-0.009030335
5282,-0.018324092
5283,-0.08827994
5284,-0.0035844822
5285,0.019085066
5286,-0.03513135
5287,-0.033285744
5288,0.003595188
5289,-0.011042177
5290,0.005640294
5291,0.011567284
5292,0.057031967
5293,-0.017076591
5294,0.01004456
5295,0.006462924
5296,-0.016559675
5297,-0.05965661
5298,0.0029227796
5299,0.0053887605
5300,0.0065123667
5301,-0.061314866
5302,-0.017577525
5303,0.042609718
5304,-0.032079704
5305,0.005105413
5306,-0.011494419
5307,-0.016693247
5308,-0.0055667944
5309,-0.008126891
5310,-0.045361564
5311,-0.009684222
5312,-0.048286214
5313,-0.025685782
5314,-0.012110894
5315,-0.0057094297
5316,-0.016883519
5317,0.021377508
5318,-0.010773504
5319,-0.048155002
5320,-0.00021922529
5321,-0.059442807
5322,-0.0074976594
5323,-0.073266216
5324,-0.00985284
5325,-0.009260676
5326,-0.0340943
5327,-0.02007302
5328,0.03690442
5329,0.009360614
5330,0.0057814578
5331,-0.010514329
5332,0.0032507142
5333,0.017124906
5334,-0.07584013
5335,-0.00608071
5336,-0.03218935
5337,0.021455208
5338,-0.0067655067
5339,-0.043461706
5340,0.035377048
5341,-0.005105404
5342,0.0146408845
5343,-0.008385544
5344,-0.044498663
5345,0.011439638
5346,-0.12285641
5347,0.0013615617
5348,-0.0038216836
5349,-0.014350151
5350,-0.011477998
5351,-0.003816039
5352,-0.011264492
5353,-0.0604054
5354,-0.030883942
5355,-0.11756472
5356,-0.012604828
5357,-0.050621673
5358,-0.031150388
5359,0.019242126
5360,-0.0635487
5361,-0.0007083005
5362,-0.07415645
5363,0.04076731
5364,-0.045357127
5365,-0.012654657
5366,-0.085346
5367,-0.013658606
5368,-0.0073001287
5369,-0.010248478
5370,-0.018487383
5371,-0.010695956
5372,-0.012215191
5373,0.002770264
5374,0.02653206
5375,-0.017344786
5376,0.05123783
5377,-0.011762879
5378,0.0011690942
5379,-0.10583051
5380,0.052120324
5381,-0.007176022
5382,0.0632495
5383,0.053205688
5384,0.027942088
5385,0.010486878
5386,0.0068861735
5387,-0.010401486
5388,-0.020151807
5389,-0.0084018065
5390,0.023436448
5391,0.036476236
5392,-0.0033149046
5393,0.059900682
5394,-0.011193351
5395,0.04863083
5396,0.006937256
5397,0.065708004
5398,-0.051528074
5399,-0.055346712
5400,0.00421377
5401,-0.01450748
5402,0.045836292
5403,0.006886339
5404,0.035515867
5405,0.0044496097
5406,0.025732016
5407,0.0775001
5408,-0.021477614
5409,-0.004688532
5410,0.08509625
5411,0.07440179
5412,0.06883444
5413,-0.00546863
5414,0.021265933
5415,0.059909582
5416,-0.030915016
5417,0.025341282
5418,0.08696388
5419,-0.010697485
5420,0.04759155
5421,0.06519614
5422,0.05011755
5423,-0.009938084
5424,-0.026843116
5425,-0.02498653
5426,0.02764333
5427,-0.013293045
5428,0.019686444
5429,-0.10965304
5430,-0.09201689
5431,0.005961398
5432,0.016513677
5433,0.01240397
5434,0.08396275
5435,2.6562004e-05
5436,-0.015978558
5437,-0.0006282324
5438,0.08699134
5439,0.018563395
5440,0.071836986
5441,0.071366355
5442,0.024514113
5443,-0.013451363
5444,0.024765283
5445,0.08805322
5446,-0.020292854
5447,0.08035558
5448,0.014023858
5449,0.029218055
5450,0.01247143
5451,0.05699931
5452,-0.05846116
5453,0.105977215
5454,-0.053848837
5455,-0.003871169
5456,-0.030362122
5457,0.01923357
5458,0.019908618
5459,0.024594847
5460,0.014477164
5461,0.0032196874
5462,-0.0034257232
5463,0.0022683744
5464,-0.029318145
5465,-0.01537617
5466,0.026477369
5467,0.03924947
5468,-0.03407131
5469,0.16876443
5470,-0.045429844
5471,-0.0041605383
5472,-0.046019353
5473,-0.00045254358
5474,0.037245348
5475,-0.014959192
5476,-0.024442818
5477,0.025311442
5478,-0.03632394
5479,-0.0010158352
5480,-0.009341318
5481,0.043202396
5482,-0.112851076
5483,0.011239266
5484,0.002740324
5485,0.095301636
5486,-0.0026203475
5487,0.062204696
5488,0.031441428
5489,0.035366405
5490,0.051734626
5491,0.06573691
5492,0.029035734
5493,0.0072712596
5494,0.014863775
5495,-0.02302761
5496,-0.020367868
5497,0.002618922
5498,0.050549068
5499,-0.0021288262
5500,0.08232778
5501,-0.006032563
5502,0.048307523
5503,0.02690962
5504,-0.04006775
5505,0.017180102
5506,-0.04053333
5507,0.021550162
5508,-0.017961875
5509,0.011681735
5510,-0.014287129
5511,-0.059808865
5512,0.019241286
5513,-0.008611221
5514,-0.00919379
5515,-0.006828876
5516,0.01305797
5517,-0.27001992
5518,0.014135304
5519,0.0015653449
5520,0.006666457
5521,-0.052777376
5522,-0.004914791
5523,-0.24884824
5524,-0.008554214
5525,0.053877544
5526,-0.10921981
5527,-0.06860326
5528,-0.010646959
5529,-0.04471495
5530,-0.008619076
5531,0.008600459
5532,-0.030376524
5533,-0.026780052
5534,-0.02351666
5535,-0.014779225
5536,-0.048239086
5537,-0.0056346897
5538,0.0067862608
5539,0.014861574
5540,0.038414735
5541,0.0016157432
5542,-0.035977222
5543,0.0062159407
5544,-0.015701517
5545,-0.0193499
5546,0.08100202
5547,-0.0070945546
5548,0.0011224031
5549,0.0013322444
5550,0.017093655
5551,-0.018338574
5552,-0.011300077
5553,-0.06171174
5554,-0.023521528
5555,0.0053628944
5556,-0.0055036987
5557,-0.13003795
5558,-0.10192426
5559,-0.040835395
5560,-0.066933595
5561,-0.025008805
5562,-0.0024166135
5563,0.05173495
5564,-0.0006006371
5565,-0.0714916
5566,0.010394975
5567,-0.00894924
5568,-0.045379277
5569,0.0017886796
5570,-0.004874771
5571,-0.0026139491
5572,-0.009831893
5573,0.06042719
5574,0.0013989966
5575,-0.083604865
5576,-0.007990477
5577,-0.042639658
5578,-0.009433137
5579,-0.16427588
5580,-0.0057755834
5581,-0.005920957
5582,-0.06494678
5583,-0.008014705
5584,-0.054941963
5585,-0.038686138
5586,0.061906155
5587,-0.031009419
5588,0.00584668
5589,0.004993616
5590,-0.04375827
5591,-0.0077569284
5592,-0.09016087
5593,-0.106891826
5594,0.030063506
5595,-0.06589485
5596,-0.08820791
5597,-0.17508751
5598,-0.06111219
5599,0.0055514155
5600,-0.04879684
5601,-0.0118500665
5602,-0.2256027
5603,0.008886891
5604,-0.017168941
5605,-0.009335814
5606,-0.02976046
5607,-0.011481522
5608,0.0031908124
5609,-0.096897
5610,-0.087957844
5611,-0.2618487
5612,-0.033156604
5613,-0.037818786
5614,-0.06650415
5615,-0.0062075546
5616,-0.23270781
5617,0.039184723
5618,-0.14717107
5619,0.025690444
5620,-0.11188761
5621,0.0051208646
5622,-9.0501795e-05
5623,-0.016332056
5624,-0.013237732
5625,-0.021416174
5626,-0.10930459
5627,-0.01145771
5628,-0.048919268
5629,0.0076341126
5630,0.038936373
5631,0.014054371
5632,-0.040689077
5633,0.0013973475
5634,-0.10549049
5635,0.00052218157
5636,0.13270448
5637,0.000850562
5638,-0.019457867
5639,-0.016982753
5640,0.025009818
5641,0.00779757
5642,-0.009242867
5643,-0.021980502
5644,3.7268746e-05
5645,-0.10103269
5646,0.033430018
5647,0.16137065
5648,0.011048253
5649,-0.02121123
5650,0.009992661
5651,-0.010122159
5652,-0.002404647
5653,0.07887149
5654,0.0034090276
5655,-0.0042885924
5656,0.0016062835
5657,0.07800441
5658,0.03497012
5659,-0.013647575
5660,-0.034445256
5661,-0.008454123
5662,0.007558253
5663,0.16559325
5664,-0.021884765
5665,-0.019484825
5666,0.20746753
5667,0.15559515
5668,0.07699208
5669,-0.01850419
5670,-0.0841714
5671,0.13812055
5672,-0.0035116076
5673,0.0045038513
5674,0.010930362
5675,0.0131899025
5676,-0.07597146
5677,0.01950144
5678,0.038196355
5679,-0.0053615454
5680,-0.002467905
5681,-0.005330911
5682,0.046932824
5683,0.00086412474
5684,-0.001704232
5685,0.0123890145
5686,-0.020674512
5687,-0.047841314
5688,0.0072666006
5689,-0.017189426
5690,0.14610012
5691,-0.0046509234
5692,-0.0030336746
5693,0.04227
5694,0.15728974
5695,0.062457703
5696,0.115468234
5697,0.007781749
5698,0.039093893
5699,-0.009816529
5700,-0.0040389607
5701,0.038472246
5702,0.013911503
5703,0.025148008
5704,-0.003201314
5705,0.12447129
5706,0.090898454
5707,-0.10551632
5708,0.14058085
5709,0.08436714
5710,-0.013398734
5711,0.011149514
5712,-0.010662889
5713,-0.024773605
5714,0.024549363
5715,-0.010334142
5716,-0.006158461
5717,-0.0074362047
5718,-0.082336366
5719,0.07503725
5720,-0.02297778
5721,-0.0015189471
5722,0.12627591
5723,-0.028279975
5724,0.0029614388
5725,-0.081375144
5726,0.015386152
5727,0.0054625613
5728,-0.04100226
5729,0.014749328
5730,-0.13190949
5731,-0.025159499
5732,-0.006619115
5733,-0.043309674
5734,-0.0028538182
5735,-0.005534665
5736,-0.009004473
5737,-0.046140783
5738,-0.0131134745
5739,-0.10352713
5740,-0.02943136
5741,0.03318415
5742,-0.101497486
5743,0.06776989
5744,-0.12827864
5745,0.09874008
5746,-0.04412487
5747,0.1172672
5748,-0.03097493
5749,0.0066359392
5750,0.067880735
