Episode,Weight
0,0.061403394
1,0.0068930704
2,0.038656168
3,0.06273688
4,-0.06357432
5,0.04150136
6,0.016473992
7,0.029722229
8,0.027738933
9,0.044658743
10,0.040349524
11,0.05090933
12,-0.031803064
13,0.025118262
14,0.050714448
15,0.0104232235
16,-0.024752643
17,0.067927346
18,-0.07478606
19,0.044233873
20,0.023293737
21,-0.0389855
22,-0.0057258233
23,0.019140514
24,0.019167688
25,0.007123619
26,-0.0017483468
27,0.03848419
28,-0.14300917
29,0.021377789
30,-0.004854717
31,0.03370168
32,0.0150625445
33,-0.034841146
34,0.022258399
35,-0.10033347
36,-0.005523397
37,0.04266618
38,0.04261564
39,0.022043748
40,-0.06899461
41,0.042361125
42,0.022147786
43,-0.03193727
44,-0.03077768
45,-0.0410272
46,0.035071936
47,0.010884238
48,0.026617978
49,0.012527447
50,0.04067328
51,-0.019660426
52,0.0064977063
53,0.0061134156
54,0.024880495
55,0.021821508
56,-0.005400386
57,0.03722652
58,0.06905075
59,0.038727224
60,0.02980371
61,-0.019717792
62,0.04030686
63,-0.041361656
64,0.005395436
65,0.012752781
66,0.019905388
67,0.017296093
68,0.008829346
69,0.10310654
70,0.03415693
71,0.04672705
72,0.0038023293
73,0.04977808
74,0.0046683038
75,0.04407519
76,-0.0013487391
77,0.005867567
78,0.03355312
79,-0.02044165
80,-0.002525922
81,0.033607714
82,-0.02030607
83,-0.011814048
84,-0.06443151
85,-0.07261353
86,-0.0058483044
87,-0.0024177998
88,0.017592227
89,-0.06592873
90,0.012544374
91,0.025154559
92,-0.011181772
93,0.010715791
94,0.013120034
95,-0.014511431
96,0.0045733685
97,0.053155936
98,0.01655797
99,0.08269479
100,-0.04578771
101,0.041277632
102,0.01909142
103,0.02316256
104,0.027352395
105,-0.00010762994
106,-0.07692044
107,0.033786155
108,-0.007815558
109,0.0010732308
110,0.0053105615
111,-0.014850285
112,-0.05873614
113,-0.04631535
114,0.023784088
115,-0.010197705
116,-0.029000392
117,0.025963979
118,0.0298412
119,0.07878223
120,-0.04238167
121,0.02986696
122,0.021275345
123,0.011636692
124,0.0716002
125,0.04019327
126,-0.061483867
127,0.042240057
128,0.021747664
129,-0.07539412
130,0.01665426
131,0.0152886445
132,0.03519009
133,0.03345679
134,0.02322938
135,0.039476555
136,-0.07300004
137,0.015810935
138,0.0009821047
139,0.02130326
140,0.061497383
141,-0.07183112
142,0.03152178
143,-0.065919384
144,-0.010366082
145,0.03936021
146,0.030471485
147,0.036175307
148,0.02663078
149,0.0660958
150,0.044518203
151,0.0019842351
152,0.045183342
153,-0.013804166
154,0.08793296
155,0.016066644
156,-0.16273884
157,0.045143742
158,0.051376235
159,0.035505526
160,0.068510555
161,-0.0745174
162,0.011569794
163,0.046977382
164,0.041504946
165,0.03257174
166,0.0062135216
167,0.05222309
168,-0.06911292
169,0.028562963
170,-0.06361207
171,0.06608972
172,-0.075121984
173,0.0076692947
174,0.046690304
175,0.027568128
176,0.031186946
177,-0.08109174
178,-0.08270356
179,0.05232209
180,0.04581544
181,0.017699448
182,0.023405613
183,0.0029355087
184,0.061925698
185,0.028508026
186,0.021419043
187,0.034530845
188,0.053277265
189,0.036599986
190,0.02833257
191,0.06459309
192,-0.027858948
193,0.01888404
194,0.029735297
195,0.042623565
196,-0.056637336
197,0.040413477
198,0.05881477
199,0.022951886
200,0.022169702
201,0.023389578
202,-0.020004114
203,0.035996985
204,-0.021510499
205,0.036637805
206,0.021702124
207,-0.08747444
208,-0.0010868269
209,0.005672768
210,-0.07102663
211,-0.014033167
212,0.07308818
213,0.06642064
214,0.04664667
215,0.031143824
216,0.04190721
217,0.026090315
218,0.014470344
219,0.030203735
220,0.027032016
221,0.0379997
222,0.0029893173
223,-0.0034407396
224,0.024386644
225,0.015937237
226,-0.052056115
227,-0.07577263
228,0.05020735
229,0.050491367
230,0.043258112
231,0.043540876
232,0.010316224
233,-0.075319715
234,0.02781122
235,0.04701431
236,-0.00521868
237,-0.065446295
238,0.032524668
239,0.04932217
240,0.033243094
241,0.034724686
242,0.029871376
243,0.0366048
244,0.017938359
245,0.0051222607
246,0.041464057
247,0.033211377
248,-0.048496854
249,0.04454252
250,0.037414756
251,-0.011823566
252,0.018243203
253,0.032001767
254,-0.019482804
255,0.035332616
256,0.021140143
257,0.0489925
258,0.009593597
259,0.005810564
260,0.045096047
261,0.01519609
262,0.012529226
263,0.008559698
264,-0.05107118
265,0.032057174
266,0.028536461
267,0.030664893
268,0.028825955
269,0.065831356
270,0.025726879
271,0.07048936
272,-0.01950311
273,-0.0622539
274,0.036724795
275,0.026517335
276,0.015456211
277,-0.053158097
278,0.010614139
279,0.01158235
280,0.0037752076
281,0.03649617
282,-0.08688849
283,0.038722564
284,0.11347976
285,0.0130542405
286,0.011130704
287,0.024574932
288,-0.07044051
289,-0.038944136
290,0.020299142
291,0.066815704
292,0.038052976
293,0.0031942688
294,0.02421285
295,0.008443017
296,0.050226323
297,-0.008028032
298,-0.06440866
299,-0.064321995
300,-0.07531982
301,-0.08172165
302,-0.05226959
303,-0.014208699
304,0.039390665
305,0.08138405
306,0.07905394
307,0.021456273
308,0.03313227
309,0.03324573
310,0.03558568
311,0.0120489
312,-0.06797761
313,0.019691149
314,-0.014535165
315,0.03676823
316,-0.07083546
317,0.026130816
318,-0.002676892
319,0.050519843
320,0.066019826
321,0.020942649
322,0.014290463
323,0.024320962
324,0.024331892
325,-0.016738996
326,-0.03898245
327,0.013898319
328,0.031791303
329,0.008662919
330,0.054445352
331,-0.061335668
332,0.063580096
333,0.036716435
334,0.032353807
335,-0.087368935
336,-0.010881043
337,0.00840786
338,0.08626288
339,-0.012259302
340,0.08852
341,-0.016658222
342,0.017671773
343,0.03957603
344,0.013464655
345,0.037078656
346,0.004803586
347,0.016361305
348,0.05204521
349,0.022620356
350,0.013522928
351,-0.007872385
352,0.023518784
353,0.01508872
354,-0.052831557
355,-0.0754228
356,0.038730875
357,0.018740267
358,0.009980312
359,0.030545631
360,-0.023845503
361,-0.06869176
362,0.02235216
363,0.029451083
364,-0.0023967107
365,-0.042843185
366,0.0048416657
367,0.03465165
368,0.03329083
369,0.03254399
370,0.0058421427
371,0.034042392
372,-0.014096552
373,-0.002900889
374,-0.045910824
375,-0.025008103
376,0.035841037
377,-0.004531258
378,0.0073814993
379,0.068346485
380,-0.06008542
381,0.016063027
382,-0.052571356
383,0.04177287
384,0.003061867
385,0.062318243
386,0.0039401846
387,-0.013437571
388,-0.03344517
389,0.035870183
390,-0.012561384
391,-0.031958822
392,-0.072566226
393,-0.02093141
394,0.0015409136
395,0.01636934
396,-0.043293964
397,0.01656649
398,0.0058352314
399,-0.06527773
400,0.09411723
401,-0.06259488
402,0.047216322
403,0.010349716
404,0.011111186
405,0.0466082
406,-0.03282459
407,0.02511414
408,-0.0007832545
409,-0.007088839
410,-0.08695519
411,0.0040595424
412,0.12381494
413,0.026130106
414,-0.04351353
415,0.004255025
416,0.038948514
417,0.064853474
418,0.02148159
419,0.052038763
420,0.036145963
421,-0.015784184
422,-0.0059219585
423,-0.051632572
424,-0.068269104
425,-0.05123407
426,0.06195969
427,-0.006073988
428,-0.07545684
429,0.097527884
430,-0.050377864
431,-0.0075864624
432,0.03136791
433,-0.08105476
434,-0.08273795
435,-0.0022941015
436,0.009770411
437,0.011923126
438,0.01986914
439,0.016046906
440,-0.004005403
441,-0.004228826
442,-0.0150358
443,0.026831597
444,-0.017780697
445,0.0072195614
446,-0.068152644
447,-0.05038559
448,0.07346468
449,-0.042840753
450,0.021799952
451,0.026054928
452,0.062117897
453,-0.039723083
454,-0.04196863
455,0.014595383
456,0.029227166
457,0.01317505
458,0.045832377
459,0.044425126
460,0.0682974
461,0.03485119
462,0.023044465
463,-0.0877234
464,-0.009172691
465,-0.03661152
466,-0.0708193
467,-0.00997494
468,-0.03552826
469,-0.016038671
470,0.013779032
471,-0.0051771286
472,0.007661303
473,0.030183244
474,0.027394304
475,-0.031040905
476,0.01764607
477,-0.045851935
478,-0.07600994
479,-0.0029179938
480,0.0074744974
481,-0.03495563
482,0.0715008
483,-0.074990876
484,-0.10206771
485,-0.043619607
486,-0.044672765
487,-0.017882546
488,-0.003973828
489,0.0655846
490,0.027833449
491,0.034820344
492,-0.011758455
493,-0.073402956
494,-0.0006251843
495,0.018431334
496,0.049682867
497,0.04918382
498,0.013242593
499,0.011669583
500,0.047292966
501,-0.008111647
502,0.046837464
503,-0.026704427
504,0.04566313
505,0.011162371
506,0.018274097
507,0.05595204
508,0.020285355
509,-0.022015378
510,-0.06585348
511,0.041408982
512,0.0020319994
513,-0.06317872
514,-0.0062532485
515,-0.021864584
516,0.04269835
517,-0.011621522
518,0.025588773
519,-0.0723388
520,-0.07286204
521,0.0043415898
522,-0.00115506
523,-0.08594789
524,-0.043414183
525,-0.016992077
526,-0.0056331055
527,0.08087822
528,-0.00023590995
529,-0.062340345
530,0.038327575
531,-0.0079983445
532,-0.0065967664
533,0.0049237697
534,0.0023991107
535,-0.03433377
536,-0.016141145
537,-0.0013570357
538,0.04056633
539,0.021611381
540,0.0662154
541,-0.027346984
542,0.05517173
543,0.018594662
544,-0.06973562
545,-0.07443875
546,0.008416674
547,0.030031601
548,0.021174261
549,-0.021544157
550,0.039546095
551,0.038129885
552,0.044179555
553,-0.054795448
554,0.03896209
555,0.056313507
556,-0.07612089
557,0.06729359
558,-0.058200795
559,-0.021522406
560,-0.028043097
561,-0.08129003
562,-0.08259882
563,-0.017858041
564,0.027268955
565,-0.008065646
566,0.016645776
567,-0.012031451
568,0.020454202
569,-0.022080991
570,0.014056599
571,0.0037632603
572,-0.06706802
573,-0.0038529288
574,0.045862526
575,-0.04991893
576,-0.022594225
577,0.043335274
578,0.018187266
579,0.010516392
580,0.035239853
581,-0.03582401
582,0.062061366
583,-0.0033536868
584,0.022802792
585,-0.006636054
586,0.030487118
587,-0.061326418
588,-0.022305856
589,0.011893917
590,-0.024117911
591,0.07352785
592,-0.008811711
593,-0.020110149
594,-0.07075056
595,-0.0074497596
596,-0.008806443
597,-0.01806563
598,0.0034992257
599,0.009970731
600,0.0028003147
601,0.0009854846
602,-0.02438266
603,0.030861933
604,-0.041990973
605,-0.045632765
606,0.07114677
607,0.0042004082
608,-0.03268911
609,-0.013546101
610,0.019386306
611,-0.07531094
612,0.04824114
613,-0.04183573
614,0.040686917
615,0.00884982
616,-0.026557894
617,0.06337834
618,0.00032802785
619,0.012138581
620,0.0004222053
621,-0.058527518
622,0.012510218
623,0.012274465
624,0.018382061
625,0.012180222
626,-0.02703637
627,-0.01912482
628,-0.0026665526
629,-0.007733011
630,-0.031632192
631,-0.020208701
632,0.03405946
633,0.01678189
634,-0.027521601
635,-0.010673409
636,-0.05996826
637,-0.038240705
638,-0.06606839
639,0.0041967332
640,0.0060509886
641,0.009339905
642,-0.0068167723
643,-0.009893616
644,-0.033221032
645,-0.009686484
646,0.04676983
647,-0.003950364
648,0.056148935
649,-0.0014491497
650,0.020792698
651,-0.015786344
652,-0.033043906
653,0.01033997
654,0.009331436
655,-0.03780538
656,0.0075640874
657,0.038032692
658,0.03792486
659,0.018646192
660,-0.005624565
661,0.0043493174
662,-0.032303583
663,-0.03483228
664,0.021673568
665,0.0006681484
666,0.036268488
667,0.006622308
668,0.045872953
669,-0.026136536
670,0.030494684
671,0.022924213
672,-0.07056466
673,0.047085296
674,-0.029561445
675,0.019855747
676,0.017228402
677,-0.02297627
678,0.0218666
679,-0.025779072
680,0.048948824
681,-0.054471623
682,-0.0032304127
683,0.013763296
684,0.06026461
685,-0.017338548
686,0.011715195
687,-0.0108012585
688,0.02137628
689,-0.081611484
690,-0.08262753
691,-0.018046608
692,-0.007476926
693,0.0015867413
694,-0.0068352534
695,-0.004287783
696,-0.0026657477
697,-0.020900894
698,-0.0155349085
699,0.005829408
700,-0.05591295
701,0.007999907
702,0.035306294
703,-0.05022201
704,-0.026574869
705,-0.042996123
706,-0.020229753
707,-0.009787367
708,-0.043517537
709,-0.03307323
710,-0.040726542
711,-0.01829588
712,-2.5577145e-05
713,-0.025800738
714,-0.020379106
715,-0.0613241
716,-0.0062001073
717,0.034160107
718,-0.018837465
719,-0.087979764
720,-0.0049544973
721,-0.039965488
722,0.083807625
723,-0.0109720845
724,0.0107462965
725,-0.07249095
726,-0.04612303
727,-0.013388979
728,0.007518281
729,0.03268362
730,-0.019668203
731,-0.0015400072
732,0.015851159
733,-0.04626093
734,0.02382675
735,-2.851985e-05
736,-0.007621319
737,-0.022275725
738,0.0030779284
739,-0.07563082
740,0.013127353
741,0.03670344
742,-0.044334754
743,-0.03153585
744,-0.020878285
745,-0.07527263
746,-1.787873e-05
747,0.023295237
748,-0.00012797999
749,-0.056638222
750,0.018248698
751,0.008383827
752,-0.03647371
753,-0.02648341
754,-0.024313105
755,0.030744627
756,0.008659136
757,0.0023770777
758,-0.0069870497
759,-0.014545057
760,0.024562376
761,0.008909295
762,-0.016101833
763,-0.011320556
764,-0.047883574
765,-0.038412973
766,0.06021954
767,-0.030531874
768,-0.021975407
769,-0.07507884
770,0.0054619624
771,-0.016656995
772,-0.005632844
773,-0.002278678
774,0.014420483
775,0.0019130439
776,-0.072882146
777,-0.010599375
778,-0.004897076
779,-0.016673693
780,-0.043203782
781,0.021550573
782,0.016686399
783,-0.058284815
784,0.026701326
785,-0.062316474
786,0.06895622
787,0.013873914
788,0.008525814
789,-0.0011899091
790,-0.032650292
791,-0.034448456
792,0.0026597288
793,0.0033068648
794,-0.044397015
795,-0.017622562
796,0.022430502
797,-0.014052699
798,-0.03552328
799,0.0010472619
800,-0.07000801
801,-0.016789155
802,-0.029812574
803,0.01073216
804,0.0071320264
805,-0.014072952
806,-0.054550186
807,-0.028133502
808,-0.024117444
809,-0.05446393
810,-0.06429236
811,0.013188155
812,-0.07528175
813,-0.006176151
814,-0.055096675
815,-0.02064975
816,-0.022493524
817,-0.0678981
818,-0.08265543
819,-0.0109360125
820,-0.005330359
821,-0.0010724819
822,-0.0066717924
823,0.008825593
824,-0.011379994
825,0.005986149
826,-0.012073688
827,0.008314271
828,-0.070358016
829,0.009763061
830,0.004316093
831,0.0019309646
832,-0.025325703
833,-0.043995287
834,0.020535747
835,-0.012512876
836,-0.015073815
837,-0.033787973
838,-0.038682897
839,-0.007844234
840,0.0060083456
841,-0.0055955853
842,-0.028419293
843,-0.061585527
844,-0.02153167
845,0.008186051
846,-0.019279081
847,-0.027389117
848,-0.0024148568
849,-0.043282244
850,0.00477632
851,-0.0071105785
852,-0.0016706998
853,0.08302985
854,0.00617648
855,-0.030377928
856,-0.0042362423
857,-0.007457602
858,-0.020310469
859,-0.02289105
860,-0.0010715589
861,-0.04545562
862,-0.0026618396
863,-0.017711151
864,-0.010229986
865,-0.022672562
866,-0.005293992
867,-0.075966306
868,0.006953645
869,-0.033443913
870,-0.037875667
871,-0.005436522
872,-0.010387211
873,-0.074647464
874,0.0016994246
875,0.025052285
876,0.0008478205
877,0.08896572
878,0.033476766
879,-0.002355307
880,-0.0049989466
881,-0.0282587
882,0.00031828575
883,-0.011592455
884,0.021335784
885,-0.0025168615
886,0.015931707
887,-0.017242322
888,0.020564444
889,0.016032137
890,-0.016034491
891,-0.008704075
892,-0.04369035
893,-0.038713876
894,-0.035163164
895,-0.017608754
896,-0.008176116
897,-0.031888876
898,0.02297936
899,-0.011221459
900,-0.0036628444
901,-0.0077610253
902,-0.03361274
903,-0.026167061
904,-0.072423674
905,-0.001461438
906,-0.04505977
907,-0.024776177
908,-0.043464515
909,0.007907036
910,0.02163554
911,-0.032665238
912,-0.030362597
913,-0.058870353
914,0.02117565
915,-0.042592157
916,0.049585335
917,0.0044184746
918,-0.03280898
919,-0.0366028
920,-0.05074599
921,-0.039145444
922,-0.04484238
923,0.021755788
924,0.0037855713
925,-0.02351693
926,-0.034750216
927,-0.04191902
928,-0.053901803
929,-0.033304535
930,-0.02928954
931,-0.007648334
932,-0.03453592
933,-0.02066202
934,-0.044407286
935,-0.027430765
936,-0.029973885
937,-0.05370047
938,-0.064488865
939,0.013004495
940,-0.03621134
941,-0.018737856
942,-0.055330086
943,-0.01803304
944,-0.034099992
945,-0.032519795
946,-0.071317844
947,-0.026805839
948,-0.02564752
949,-0.043124262
950,-0.003381492
951,-0.030211495
952,-2.9868417e-05
953,-0.036011133
954,-0.00817896
955,-0.010327649
956,-0.070742674
957,-0.0428508
958,0.0022559613
959,0.0058278004
960,-0.024757367
961,-0.035110414
962,-0.03925938
963,-0.009180152
964,-0.011718789
965,-0.03660899
966,-0.030903237
967,-0.01875457
968,-0.034687087
969,-0.0069009513
970,-0.009128233
971,-0.055436354
972,-0.011294936
973,-0.004188229
974,-0.018191991
975,-0.048932202
976,-0.009557607
977,-0.041401785
978,-0.01837713
979,-0.0036440005
980,0.008269849
981,-0.0351631
982,-0.046290044
983,-0.0039779046
984,-0.040099096
985,-0.0025907697
986,-0.019565938
987,-0.022258926
988,-0.041540116
989,-0.044977225
990,-0.008096864
991,-0.01299489
992,-0.029073715
993,-0.036642645
994,-0.013657855
995,-0.056157395
996,0.0019387559
997,-0.034233507
998,-0.044868033
999,0.025901927
1000,-0.04743118
1001,-0.06892383
1002,0.0065124882
1003,-0.03079452
1004,0.0021467474
1005,-0.03252399
1006,-0.045751262
1007,-0.042111795
1008,-0.023285493
1009,-0.024092766
1010,0.023946159
1011,-0.028984547
1012,0.030455137
1013,-0.017145867
1014,-0.04201187
1015,-0.021282133
1016,-0.04866434
1017,0.007060148
1018,-0.024630852
1019,-0.0043497547
1020,-0.047287133
1021,-0.041142404
1022,-0.042252257
1023,-0.04702448
1024,-0.021577062
1025,-0.042533047
1026,-0.014996266
1027,-0.015544805
1028,-0.034370065
1029,-0.01002628
1030,-0.020272516
1031,0.05612455
1032,-0.02421787
1033,0.061442427
1034,-0.039599787
1035,-0.0072829477
1036,0.0030381808
1037,0.019669434
1038,-0.015076356
1039,-0.026458574
1040,0.009927266
1041,-0.029874086
1042,0.0211453
1043,-0.00026746796
1044,0.0002994767
1045,0.012140752
1046,-0.0048635155
1047,-0.03354828
1048,-0.021652278
1049,-0.029101681
1050,-0.046329178
1051,0.0054897675
1052,-0.0036125202
1053,-0.029503757
1054,-0.03886832
1055,-0.009874345
1056,-0.014665583
1057,-0.036484025
1058,-0.024063142
1059,-0.026047507
1060,-0.032773506
1061,-0.019139957
1062,-0.0259371
1063,-0.030180903
1064,-0.04470043
1065,-0.018693216
1066,-0.06468874
1067,0.0059163156
1068,-0.014489214
1069,-0.009345425
1070,-0.044969052
1071,-0.020881677
1072,-0.03302992
1073,0.023877146
1074,0.033857364
1075,0.008060247
1076,-0.040753197
1077,0.04615064
1078,-0.02786451
1079,-0.023631787
1080,-0.025328878
1081,-0.030217597
1082,-0.013889655
1083,-0.02612906
1084,-0.01572583
1085,-0.012638022
1086,-0.0056410865
1087,-0.0016161222
1088,-0.026737958
1089,-0.040080782
1090,-0.038035538
1091,-0.030542979
1092,-0.050848864
1093,-0.018701911
1094,-0.013329581
1095,-0.02689539
1096,-0.031475253
1097,-0.020810878
1098,-0.028366573
1099,0.00627828
1100,-0.025903624
1101,-0.02697282
1102,-0.023754142
1103,0.014832066
1104,5.539076e-05
1105,-0.023268187
1106,-0.04264558
1107,-0.0021441067
1108,0.022184992
1109,-0.022028573
1110,-0.032628052
1111,-0.029827988
1112,-0.03465725
1113,-0.018369254
1114,-0.03761044
1115,-0.035366967
1116,-0.035759706
1117,-0.036071766
1118,-0.00950486
1119,0.004814336
1120,-0.028611263
1121,-0.03033507
1122,0.03009698
1123,-0.019381236
1124,-0.023565289
1125,-0.02034221
1126,-0.04437489
1127,0.027573334
1128,-0.02480139
1129,-0.026085561
1130,-0.014478595
1131,-0.038757294
1132,0.0014200627
1133,-0.0067323716
1134,0.0030223462
1135,-0.034783483
1136,-0.0497535
1137,-0.044681445
1138,0.07446485
1139,-0.031767234
1140,0.03581409
1141,-0.030175071
1142,0.0036454604
1143,0.009583014
1144,-0.048988085
1145,-0.018345423
1146,-0.03746192
1147,-0.0100302575
1148,-0.009220584
1149,-0.027342942
1150,-0.027117325
1151,-0.04447396
1152,0.008439023
1153,0.004084031
1154,0.0076167407
1155,-0.004145848
1156,0.005739275
1157,0.0010265447
1158,0.008456823
1159,0.01310258
1160,0.013614212
1161,0.010207448
1162,0.012044937
1163,0.013172542
1164,-0.006596304
1165,0.0026453442
1166,0.0037264747
1167,0.017392362
1168,-0.0062786867
1169,0.021788716
1170,-0.01601541
1171,0.014913019
1172,0.0023278482
1173,0.017053848
1174,0.011174145
1175,-0.0042247474
1176,0.02436324
1177,0.017601717
1178,0.008675506
1179,-0.004804447
1180,0.0131498445
1181,0.010482182
1182,0.006952749
1183,0.0033912517
1184,-0.004269814
1185,0.005662169
1186,0.0021675269
1187,0.0039376775
1188,0.0061794636
1189,0.0016544826
1190,-0.02103339
1191,-0.016937507
1192,0.00044934906
1193,-0.0041172104
1194,-0.0010247286
1195,0.013610546
1196,0.0049194703
1197,-0.0042397333
1198,-0.012097435
1199,-0.0012040059
1200,0.008463745
1201,-0.0046173492
1202,-0.0007766861
1203,-0.00028494291
1204,-0.019089632
1205,0.004237637
1206,0.030823871
1207,0.0064509837
1208,0.01055034
1209,0.013681025
1210,-0.0059898677
1211,0.011776798
1212,-0.0052320827
1213,-0.013148652
1214,0.003909798
1215,0.010432657
1216,0.004270051
1217,0.0034441587
1218,0.0078113023
1219,0.010475365
1220,0.0056499443
1221,0.007280991
1222,-0.005014619
1223,-0.003674722
1224,0.001996692
1225,0.024626754
1226,-0.0032521114
1227,0.009803559
1228,0.00028344107
1229,0.01597515
1230,-0.0003222273
1231,0.010318266
1232,-0.0140032135
1233,0.0038393985
1234,-0.008049018
1235,-0.0043909536
1236,0.0021409004
1237,0.021236543
1238,-0.011903793
1239,-0.0005072772
1240,0.0111108655
1241,-0.01409402
1242,-0.008752043
1243,0.0012759977
1244,-0.0010661368
1245,-0.01683235
1246,0.0075551146
1247,0.018710835
1248,0.01945518
1249,0.019511264
1250,-0.003910714
1251,0.03810407
1252,-0.0023508384
1253,0.021272039
1254,0.008403477
1255,0.0052279877
1256,-0.0093494
1257,0.009220602
1258,0.0125156455
1259,0.006281697
1260,-0.012296625
1261,0.029169226
1262,-0.006213179
1263,-0.009973477
1264,-0.027620682
1265,-0.003606041
1266,0.019283377
1267,-0.0009308636
1268,0.024889328
1269,0.021553589
1270,0.016090097
1271,-0.010292263
1272,-8.3297375e-05
1273,0.023612503
1274,-0.007830414
1275,0.025387356
1276,0.004667276
1277,0.01899654
1278,0.01497219
1279,-0.004005202
1280,-0.0025922628
1281,-0.0077337557
1282,-0.013884248
1283,0.005449464
1284,0.0039077112
1285,0.011112371
1286,-0.0026730155
1287,0.0062881336
1288,0.009069644
1289,-0.005239563
1290,-0.008025066
1291,0.0029122117
1292,0.0006087158
1293,0.00017595259
1294,0.0023496633
1295,-0.009181254
1296,-0.00731548
1297,-0.0055655283
1298,0.010976129
1299,0.0018902386
1300,0.010741764
1301,-0.0044687493
1302,-0.0037870856
1303,0.0073462003
1304,-0.0076756086
1305,0.0067865937
1306,-0.0022692054
1307,0.0076839505
1308,0.008014005
1309,-0.007872951
1310,0.011440803
1311,-0.001528802
1312,0.006453164
1313,-0.011503307
1314,0.0061053196
1315,0.0072071855
1316,-0.0023050923
1317,-0.008079658
1318,-0.0033381481
1319,-0.008418074
1320,-0.008078242
1321,-0.00086659356
1322,-0.0015223512
1323,0.015163457
1324,-0.0010930031
1325,0.008408427
1326,0.015523265
1327,0.006982136
1328,-0.0061502825
1329,0.007654124
1330,-0.008617435
1331,0.0028006795
1332,0.005300559
1333,0.0015376931
1334,0.010782203
1335,-0.015758807
1336,-0.003815977
1337,0.016249407
1338,0.011472141
1339,-0.012687128
1340,0.0042143324
1341,0.0015747151
1342,-0.013972727
1343,-0.0017805615
1344,0.0091512
1345,-0.015112338
1346,0.015709946
1347,-0.015245583
1348,0.0053584175
1349,0.010444663
1350,-0.003234162
1351,0.0066991695
1352,0.0017481974
1353,-9.833001e-05
1354,-0.013401796
1355,-0.0130828535
1356,-0.012496245
1357,0.004003731
1358,-0.0013609432
1359,-0.014057591
1360,-0.0029587187
1361,0.008105609
1362,2.2960901e-05
1363,0.0024110356
1364,0.01288048
1365,0.0068260636
1366,-0.014611047
1367,0.014709385
1368,-0.0058788774
1369,0.011910044
1370,-0.017411103
1371,-0.012547776
1372,-0.012495773
1373,-0.009154494
1374,-0.0067624887
1375,-0.011700377
1376,-0.002572161
1377,-0.0017013672
1378,-0.0021752564
1379,0.008868541
1380,-0.011121083
1381,0.0046478314
1382,-0.0046871915
1383,-0.003098036
1384,-0.009788924
1385,-0.0011471907
1386,-0.00021016134
1387,-0.011354277
1388,0.010381389
1389,-0.015218248
1390,-0.0041976017
1391,0.017984165
1392,0.0064547793
1393,-0.005678327
1394,-0.012687122
1395,0.006654676
1396,-0.010529672
1397,0.0038313887
1398,0.018324396
1399,0.011574567
1400,-0.0069823023
1401,-0.0040953956
1402,0.009531287
1403,-0.005144694
1404,0.0051819454
1405,0.007229814
1406,0.00030952052
1407,-0.007991781
1408,0.00035252495
1409,0.002986775
1410,0.006309732
1411,-0.010659691
1412,0.018876867
1413,-0.001501752
1414,-0.0057327277
1415,-0.009155124
1416,0.0009466376
1417,0.012285744
1418,-0.0010346597
1419,-0.018821992
1420,0.011820171
1421,-0.0031646676
1422,-0.0011463962
1423,-0.0051945494
1424,0.009361077
1425,-0.00969797
1426,-0.009168456
1427,-0.0059070615
1428,0.0028859933
1429,0.0009917811
1430,0.015527258
1431,-0.0022555024
1432,0.009356374
1433,0.008062105
1434,-0.006112188
1435,0.0027007884
1436,0.008370276
1437,-0.002367868
1438,-0.007999601
1439,-0.0012289278
1440,-0.0021052698
1441,0.018997889
1442,0.00019648261
1443,-0.0016444059
1444,-0.009016428
1445,0.004933381
1446,0.008900297
1447,-0.004379065
1448,-0.006448751
1449,0.016280906
1450,0.006895128
1451,-0.00798761
1452,-0.002436801
1453,-0.009250187
1454,0.0037249317
1455,-0.0089395745
1456,-0.010459719
1457,0.006051362
1458,-0.009418344
1459,0.011830795
1460,0.0043220646
1461,0.008273649
1462,0.018398752
1463,0.010718109
1464,0.012370978
1465,-0.0036946582
1466,0.0113093555
1467,0.009572099
1468,-0.002987039
1469,0.00045958554
1470,-0.003603415
1471,-0.0040396582
1472,-0.009919294
1473,-0.004534845
1474,-0.0071903626
1475,0.012991713
1476,-0.006289828
1477,-0.012128375
1478,-0.0011080819
1479,0.00030378683
1480,0.0045728157
1481,0.0117252655
1482,-0.009543133
1483,-0.0030381128
1484,0.012169838
1485,0.006402746
1486,-0.0009813412
1487,0.00068043504
1488,0.004077394
1489,0.0026481217
1490,0.007322895
1491,0.011334647
1492,0.008812146
1493,-0.012084946
1494,0.013152331
1495,0.019798191
1496,-0.004967839
1497,0.003602881
1498,-0.016991232
1499,0.0025406177
1500,9.367496e-05
1501,0.009350992
1502,-0.019091435
1503,-0.0031956902
1504,0.0011920176
1505,0.01648886
1506,-0.008494544
1507,-0.0048912494
1508,0.00016643203
1509,-0.009222846
1510,-0.009761281
1511,-0.0021111267
1512,-0.007384098
1513,0.0011310639
1514,0.011503043
1515,0.010883562
1516,0.0024862716
1517,-0.007791541
1518,-0.009640018
1519,0.0052688015
1520,-0.014024773
1521,0.0074573024
1522,0.0053476077
1523,-0.008476591
1524,0.006783689
1525,-0.017779564
1526,0.0034828
1527,0.0010566612
1528,0.008788545
1529,0.018549778
1530,0.005815677
1531,0.012895052
1532,-0.008418728
1533,0.005009813
1534,-0.004604654
1535,-0.0029973045
1536,0.0049285702
1537,0.010658351
1538,-0.0045835753
1539,-0.013712249
1540,0.007347797
1541,-0.005995228
1542,0.010978994
1543,-0.004208531
1544,0.007885405
1545,-0.01031333
1546,0.011074612
1547,0.00031303018
1548,0.0042848806
1549,0.0069419933
1550,0.007892697
1551,0.0014300512
1552,0.008831386
1553,-0.012783265
1554,-0.0004042296
1555,0.00481252
1556,0.018048456
1557,-0.017320855
1558,0.011908118
1559,-0.002902658
1560,0.010649993
1561,-0.0023768595
1562,-0.008123592
1563,0.0072056707
1564,-0.009391422
1565,0.0010088834
1566,-0.0039827265
1567,0.009359604
1568,0.0016199921
1569,0.0012184959
1570,-0.0030409412
1571,0.0072539034
1572,0.0069963895
1573,-0.015653415
1574,-0.007871319
1575,-0.010395763
1576,-0.0097453
1577,0.0055215103
1578,-0.010529601
1579,-0.011406002
1580,0.0050460487
1581,0.011579439
1582,-0.006949551
1583,-0.0075146365
1584,-0.019559521
1585,0.005760651
1586,0.0017433912
1587,-0.012772399
1588,-0.005080954
1589,0.000253345
1590,-0.0054766624
1591,-0.009752013
1592,0.008972913
1593,0.0027478475
1594,0.0014009206
1595,-0.0072239176
1596,-0.018253544
1597,-0.012261643
1598,-0.012978945
1599,0.0007982946
1600,-0.009583468
1601,0.0073638973
1602,-0.007751686
1603,-0.009548161
1604,0.010701047
1605,-0.0086190505
1606,-0.0004815207
1607,-0.014234233
1608,-0.01580171
1609,0.0044590416
1610,-0.00013023424
1611,-0.0016972373
1612,0.0072849584
1613,0.001878009
1614,-0.012915688
1615,-0.011659311
1616,0.012090067
1617,-0.0005550111
1618,0.0051355553
1619,-0.013069452
1620,-0.0017450257
1621,-0.011731437
1622,-0.0008577761
1623,0.011221034
1624,-0.0067201857
1625,0.010416435
1626,-0.010305436
1627,-0.00020019746
1628,-0.0014841409
1629,-0.0077182595
1630,0.0028656432
1631,-0.0069030765
1632,-0.010930939
1633,0.011864513
1634,-0.0053609335
1635,-0.0020177022
1636,0.0036510315
1637,-0.0010525626
1638,-0.006121974
1639,0.0015418397
1640,-0.0039035955
1641,0.010161576
1642,-0.007906556
1643,0.010961469
1644,0.0025239396
1645,-0.0048674284
1646,-0.015717829
1647,-0.0074772188
1648,0.010790027
1649,0.0023677584
1650,0.0030518563
1651,-0.00019468709
1652,-0.010195238
1653,-0.015756479
1654,0.0007650249
1655,0.018529609
1656,0.011545326
1657,0.0019082617
1658,-0.0072820145
1659,-0.0033917653
1660,-0.0056717596
1661,-0.0027244336
1662,-0.010068605
1663,-0.011698239
1664,0.0026771803
1665,-0.001366483
1666,-0.0030461338
1667,-0.01890559
1668,-0.016428607
1669,-0.004217926
1670,-0.0027109187
1671,0.010583363
1672,-0.0005697954
1673,0.007633134
1674,0.015780326
1675,-0.006943917
1676,0.006981308
1677,0.011439706
1678,-0.014118882
1679,-0.011420554
1680,0.005706158
1681,0.007419139
1682,-0.0028711786
1683,-0.0021876795
1684,-0.010886244
1685,0.0020216778
1686,-0.013594272
1687,0.0015259178
1688,-0.019385478
1689,0.0035662346
1690,0.009586455
1691,0.0057303924
1692,0.011279959
1693,-0.008770263
1694,0.010898838
1695,0.00022570117
1696,-0.0017312695
1697,0.011107421
1698,0.0065846723
1699,-0.0073759286
1700,-0.010308934
1701,-0.0013543385
1702,-0.016137846
1703,0.006576336
1704,-0.0061673434
1705,-0.014111493
1706,-0.002163141
1707,0.007423087
1708,0.00357792
1709,-0.0035782896
1710,-0.005806128
1711,-0.0077777305
1712,-0.0114722485
1713,-0.007214753
1714,0.015498216
1715,-0.0067637567
1716,-0.0047986177
1717,0.006168767
1718,0.0037878843
1719,-0.0010009146
1720,-0.008806538
1721,-0.00052181614
1722,-0.010705253
1723,0.000509416
1724,0.01068246
1725,-0.0105579235
1726,-0.0026013278
1727,-0.005333658
1728,0.0035731122
1729,-0.01278814
1730,0.0059174257
1731,-0.018872185
1732,0.01284281
1733,0.0007486709
1734,-0.0071201283
1735,0.006472935
1736,-0.009260579
1737,0.0052706436
1738,0.005443801
1739,0.006308861
1740,-0.007199744
1741,-0.0060576294
1742,-0.005943305
1743,0.01731013
1744,0.010215021
1745,-0.0039521335
1746,0.011672055
1747,0.014737641
1748,0.001092337
1749,-0.0017034432
1750,0.016044464
1751,0.016300157
1752,-0.0038069491
1753,-0.00081120624
1754,-0.0025961564
1755,-0.0026893714
1756,0.0063349972
1757,0.0023093638
1758,0.0030399351
1759,-0.004655106
1760,0.005941745
1761,0.00065517466
1762,-0.0012899111
1763,0.004522992
1764,-0.014339247
1765,0.0077541587
1766,0.0042550997
1767,-0.001953121
1768,-0.0061772703
1769,-0.0071234154
1770,0.00088949164
1771,0.0014188638
1772,-0.012437043
1773,-0.009030819
1774,0.0049319277
1775,0.003255509
1776,0.0050444165
1777,-0.0045768265
1778,-0.0059207347
1779,-0.0021693055
1780,0.0020528275
1781,-0.010437469
1782,0.008681759
1783,-0.012656947
1784,0.012989163
1785,-0.0121171065
1786,-0.0022684196
1787,-0.005737413
1788,-0.014370274
1789,0.0036187645
1790,0.010221996
1791,0.00305765
1792,0.011066894
1793,0.01342347
1794,0.00396837
1795,0.00095827255
1796,-0.008025801
1797,0.008838466
1798,0.006951273
1799,-0.016394839
1800,0.0018118318
1801,0.002443519
1802,0.009445409
1803,-0.010749677
1804,-0.010690966
1805,-0.01768152
1806,0.01538069
1807,-0.0004800127
1808,-0.01210419
1809,0.017444124
1810,0.0019789075
1811,0.012698389
1812,0.0035250976
1813,-0.011502178
1814,-0.005720021
1815,-0.015450504
1816,-0.0050469222
1817,-0.009346798
1818,0.0073368107
1819,-0.0087142745
1820,-0.01659358
1821,0.0057394835
1822,0.013002957
1823,-0.014986581
1824,-0.0011489979
1825,0.0060521034
1826,0.0036956745
1827,-9.398939e-05
1828,-0.008718087
1829,0.0098185055
1830,-0.018834705
1831,0.0065670917
1832,0.0041752155
1833,0.009306693
1834,0.0014883237
1835,0.003241248
1836,-0.0067958725
1837,-0.005219612
1838,-0.008676362
1839,0.014137735
1840,-0.008785437
1841,0.0050660693
1842,-0.0022156653
1843,-0.0055738883
1844,-0.00022341398
1845,-0.005346957
1846,0.010734579
1847,0.00026501494
1848,-0.01892085
1849,-0.005136501
1850,-0.0027299982
1851,0.007328136
1852,0.007009667
1853,0.0103499545
1854,-0.0022957618
1855,0.0047806157
1856,0.0028263067
1857,0.0070028612
1858,0.0009307652
1859,0.017374353
1860,0.004958917
1861,0.008946882
1862,0.00040659768
1863,0.0074871765
1864,-0.0064860233
1865,0.00079184305
1866,-0.01552956
1867,-0.0027153108
1868,-0.0026287362
1869,0.013776792
1870,0.0011759702
1871,0.0023901006
1872,-0.0025411427
1873,-0.007875416
1874,0.013334659
1875,-0.0086397035
1876,0.00037955085
1877,-0.008564351
1878,0.006160963
1879,0.0004699408
1880,0.017442077
1881,-0.00247378
1882,0.015580422
1883,-0.015685873
1884,0.005000344
1885,0.003033621
1886,-0.0112220235
1887,0.013015042
1888,0.016712312
1889,-0.003721739
1890,0.01072426
1891,-0.0045518763
1892,0.016372574
1893,-0.0027024003
1894,0.0052187433
1895,0.00084556703
1896,-0.0015107872
1897,-0.018458854
1898,-0.0022263504
1899,-0.0071299854
1900,0.0020719205
1901,0.00266785
1902,-0.00633619
1903,0.00259655
1904,0.009290543
1905,0.0039440794
1906,-0.0012431687
1907,-0.011022572
1908,0.009768909
1909,0.0047036186
1910,-0.006440861
1911,-0.014730359
1912,0.0086902
1913,-0.00931982
1914,-0.004910335
1915,-0.01280883
1916,0.0034014594
1917,-0.00097333454
1918,-0.0043988107
1919,-0.004117949
1920,-0.0068978197
1921,-0.010559939
1922,-0.0046681636
1923,-0.00027612367
1924,-0.00519303
1925,0.013776202
1926,0.0046361596
1927,-0.0029486902
1928,-0.004896615
1929,0.00031464268
1930,-0.0102427015
1931,0.0018084616
1932,0.0011533466
1933,0.0060819155
1934,-0.008572729
1935,0.0046086516
1936,0.006337451
1937,-0.012374103
1938,0.005171434
1939,0.0057446007
1940,-0.009269258
1941,0.001708758
1942,-0.0046853134
1943,-0.00040827284
1944,-0.019949237
1945,-0.005817048
1946,0.010514425
1947,0.0025349557
1948,0.011004929
1949,0.01982798
1950,-0.00072509854
1951,0.0046736607
1952,-0.0012335511
1953,0.008497826
1954,-0.018753853
1955,0.00075980654
1956,0.015088453
1957,0.010251396
1958,0.010824502
1959,0.0051690442
1960,-0.0025658063
1961,-0.0103778625
1962,-0.016007911
1963,0.0041544423
1964,0.0025233366
1965,0.0042825835
1966,-0.00905396
1967,0.0063779303
1968,-0.005762567
1969,0.0042179925
1970,0.0114822015
1971,0.007620135
1972,-0.016692331
1973,-0.0016364771
1974,0.0029733193
1975,0.0063376343
1976,0.0015470881
1977,-0.006302288
1978,-0.003817587
1979,0.0061114137
1980,-0.0027985403
1981,0.0041775177
1982,0.0028814424
1983,-0.0026875841
1984,-0.004625051
1985,0.0030472684
1986,-0.0036830679
1987,-0.0011571447
1988,0.018508404
1989,0.012208015
1990,0.006877782
1991,-0.016409488
1992,-0.011288538
1993,0.0057553807
1994,0.005332361
1995,0.011925522
1996,0.008878851
1997,0.0006848596
1998,-0.009852759
1999,-0.0027175366
2000,-0.011821312
2001,0.00027905867
2002,0.009312463
2003,0.00049207435
2004,0.01004871
2005,-0.0011934536
2006,0.0036201435
2007,-0.0059619914
2008,-0.008189858
2009,-0.0044860938
2010,-0.003599449
2011,-0.00245248
2012,0.0029591387
2013,-0.014834889
2014,0.010160957
2015,-0.010816455
2016,0.018835483
2017,-0.0043870187
2018,-0.0015161019
2019,-0.00074531726
2020,0.008857284
2021,-0.003649205
2022,-0.0039722905
2023,-0.001947904
2024,-0.0014698748
2025,0.0017072533
2026,0.0072651254
2027,-0.010868306
2028,-0.0084926495
2029,-0.0064284364
2030,0.009703795
2031,-0.014192692
2032,0.0060188845
2033,0.01218965
2034,0.004245887
2035,0.0059368
2036,-0.0012084477
2037,-0.0031924513
2038,-0.004223837
2039,0.0020486603
2040,0.017185329
2041,0.016075136
2042,0.0038318743
2043,5.7122626e-05
2044,-0.00561485
2045,0.0038224491
2046,0.0017790534
2047,-0.0013576527
2048,0.066856936
2049,-0.018288663
2050,0.050831705
2051,0.070605345
2052,0.061564624
2053,0.04443148
2054,0.024432106
2055,0.011042941
2056,-0.030983001
2057,-0.04349239
2058,0.027088875
2059,0.01590699
2060,-0.06316583
2061,-0.04023487
2062,0.046691496
2063,-0.022186747
2064,-0.011741974
2065,0.023311688
2066,0.07342923
2067,0.041070268
2068,0.038960345
2069,0.023205344
2070,0.012815528
2071,0.015909065
2072,0.020492673
2073,0.01761145
2074,-0.0037163189
2075,0.036959752
2076,-0.12797505
2077,0.041892286
2078,-0.00688138
2079,0.0343076
2080,-0.02788363
2081,0.025849478
2082,0.0033056203
2083,-0.07337457
2084,0.028999679
2085,0.043217104
2086,0.016690074
2087,0.014267629
2088,0.06175393
2089,0.014310236
2090,-0.040065177
2091,0.027453057
2092,-0.02405946
2093,-0.08211804
2094,-0.048045617
2095,0.04648023
2096,0.030604592
2097,-0.07651623
2098,-0.04816713
2099,0.03957433
2100,0.034799743
2101,0.0024450156
2102,0.052172367
2103,0.02114701
2104,0.009807512
2105,0.021038994
2106,0.05419529
2107,0.041020706
2108,0.016778728
2109,-0.020931378
2110,0.053446844
2111,0.02098231
2112,0.060196336
2113,-0.030066827
2114,0.006077962
2115,0.028469324
2116,-0.018558832
2117,0.07959721
2118,0.046231166
2119,0.045687042
2120,0.016863283
2121,0.039003246
2122,0.02675413
2123,0.029322958
2124,0.038452312
2125,0.023701137
2126,0.032032058
2127,0.004992601
2128,-0.004174864
2129,0.008253571
2130,0.0104201585
2131,-0.0015705836
2132,-0.09088817
2133,0.06898423
2134,-0.008887372
2135,0.031548303
2136,0.015480256
2137,-0.042589176
2138,0.04297296
2139,0.03837431
2140,-0.054576024
2141,-0.02607126
2142,0.042448442
2143,-0.0075000576
2144,0.022052517
2145,0.04575684
2146,0.01340878
2147,-0.07469408
2148,-0.002372341
2149,0.05128478
2150,-0.024672344
2151,0.013524904
2152,0.02004365
2153,-0.009616969
2154,0.075531214
2155,0.045816347
2156,-0.0026836302
2157,-0.011503976
2158,-0.007813413
2159,0.0297795
2160,-0.052424036
2161,-0.03892367
2162,0.040622026
2163,-0.0009577739
2164,0.049355414
2165,0.051188022
2166,0.015979772
2167,0.07548388
2168,0.021725792
2169,0.030743532
2170,0.035892174
2171,0.04469838
2172,-0.07409576
2173,0.03461963
2174,0.00997978
2175,0.023078153
2176,0.020603327
2177,-0.06390275
2178,0.03716778
2179,0.02079878
2180,0.031124108
2181,0.002793036
2182,0.023702776
2183,0.018008344
2184,0.028030666
2185,0.041815937
2186,0.038208928
2187,-0.021434274
2188,0.028987393
2189,0.07095186
2190,0.029553127
2191,-0.08288456
2192,0.009820492
2193,0.06135145
2194,-0.065068915
2195,0.03257207
2196,0.03356777
2197,0.052232955
2198,0.020423189
2199,0.026311047
2200,0.043825928
2201,0.026030384
2202,0.086237594
2203,0.04432961
2204,0.16220067
2205,0.022199806
2206,0.040566094
2207,0.037198566
2208,0.064657696
2209,-0.049522873
2210,0.015717465
2211,0.06443282
2212,0.022436723
2213,0.018759888
2214,0.026940826
2215,0.050092317
2216,-0.05234115
2217,0.052985076
2218,-0.06754029
2219,0.06357193
2220,-0.04808646
2221,-0.0045874817
2222,0.049248435
2223,0.02011321
2224,0.030049415
2225,-0.07153622
2226,-0.0774248
2227,0.01788179
2228,0.023044992
2229,0.034584522
2230,0.041851353
2231,0.014245071
2232,0.067438185
2233,0.028446719
2234,0.012944041
2235,0.039794166
2236,0.06954775
2237,0.022378948
2238,0.0019574326
2239,0.037586324
2240,-0.07472142
2241,0.03483954
2242,0.02218205
2243,0.043689165
2244,-0.06424452
2245,0.035159845
2246,0.029605346
2247,0.043404885
2248,0.026575027
2249,0.024305912
2250,-0.057920713
2251,0.05997029
2252,-0.07002844
2253,0.049458325
2254,0.022811256
2255,-0.049986467
2256,-0.0023194342
2257,0.027518457
2258,-0.08756654
2259,-0.0034379498
2260,0.020299207
2261,0.014104289
2262,0.0075776773
2263,0.050864127
2264,0.03180262
2265,0.028709678
2266,0.03614667
2267,0.04003768
2268,0.02643782
2269,0.04452005
2270,-0.01640196
2271,-0.0078893835
2272,0.038816627
2273,0.02136719
2274,0.04909756
2275,0.053497147
2276,0.003823922
2277,0.038626026
2278,0.03862467
2279,0.044606462
2280,0.042712726
2281,-0.06927614
2282,-0.0021203998
2283,0.042271726
2284,-0.004687215
2285,-0.033482842
2286,0.034845278
2287,0.034587584
2288,0.0047555277
2289,0.042537987
2290,0.039905388
2291,0.04469803
2292,-0.03181476
2293,0.0408208
2294,0.024390684
2295,0.023616463
2296,-0.04914315
2297,0.041754555
2298,0.023823243
2299,-0.0729594
2300,0.058842648
2301,0.03669311
2302,-0.003922619
2303,0.042431206
2304,-0.009714331
2305,0.03916809
2306,-0.0011821754
2307,-0.007347454
2308,0.029743219
2309,0.00069962
2310,0.004294733
2311,-0.007026521
2312,-0.04635766
2313,0.012861045
2314,0.030569084
2315,-0.031057121
2316,0.041695714
2317,-0.06770159
2318,-0.008077508
2319,0.06400662
2320,0.017072769
2321,-0.042651933
2322,-0.063531265
2323,0.022332141
2324,-0.012434939
2325,-0.06658894
2326,-0.026863959
2327,0.013637633
2328,0.036706943
2329,-2.4256791e-05
2330,-0.08909192
2331,0.0016568152
2332,-0.11429465
2333,0.0066679744
2334,0.019620853
2335,0.028242012
2336,-0.0696436
2337,-0.06624252
2338,0.012401338
2339,0.0942189
2340,0.026462918
2341,0.0008140482
2342,0.008402381
2343,0.01207678
2344,0.06745565
2345,-0.022738075
2346,-0.067433566
2347,-0.067392245
2348,-0.061877023
2349,0.079998
2350,-0.0032607594
2351,-0.018311033
2352,0.0146742845
2353,0.08024545
2354,0.08129833
2355,-0.05339341
2356,0.038388364
2357,0.021181414
2358,0.001100009
2359,0.0010351292
2360,-0.06226657
2361,-0.020950863
2362,-0.021807313
2363,0.03564489
2364,-0.047691982
2365,0.037211202
2366,0.0032790224
2367,0.047859788
2368,0.023002867
2369,0.024786958
2370,0.03603969
2371,0.007902847
2372,0.04135448
2373,-0.04239372
2374,-0.0633672
2375,0.016524835
2376,0.030305348
2377,0.010916119
2378,0.017679757
2379,-0.037381414
2380,0.020230781
2381,0.0032894388
2382,0.0052900426
2383,-0.07490073
2384,-0.010173252
2385,-0.007857357
2386,0.07015301
2387,-0.010374346
2388,0.061242413
2389,-0.07636685
2390,0.03455403
2391,0.025233261
2392,0.023485241
2393,0.045343775
2394,-0.01564378
2395,0.01340059
2396,0.021214522
2397,0.033417325
2398,0.0009246019
2399,0.0010912188
2400,-0.01160132
2401,0.031326044
2402,0.05082279
2403,0.0657466
2404,-0.043840807
2405,0.015179835
2406,0.03031617
2407,-0.015062937
2408,-0.0014415823
2409,-0.06964999
2410,-0.014889667
2411,0.0299154
2412,-0.013131062
2413,-0.041554555
2414,0.0057164957
2415,0.031599384
2416,0.05577938
2417,0.035594497
2418,-0.012961212
2419,0.014583358
2420,-0.038595047
2421,0.0018815681
2422,0.045166492
2423,-0.029692566
2424,0.035857674
2425,0.012199437
2426,0.020777507
2427,0.009792612
2428,-0.022768212
2429,0.0012426116
2430,-0.051348373
2431,0.034372892
2432,-0.025822608
2433,0.07280379
2434,0.00044546317
2435,-0.017806238
2436,-0.046113882
2437,0.00793831
2438,0.01236086
2439,0.03206027
2440,-0.057339396
2441,0.019458236
2442,-0.008434494
2443,-0.015018601
2444,-0.06339104
2445,-0.013945565
2446,-0.015647108
2447,-0.08335923
2448,-0.095556624
2449,-0.039132304
2450,-0.069936015
2451,-0.011513165
2452,-0.012652474
2453,-0.033058748
2454,0.031898428
2455,0.032392774
2456,0.00039641355
2457,0.0047519254
2458,-0.08866422
2459,-0.0061611915
2460,-0.02422073
2461,0.02145106
2462,-0.05636347
2463,0.005793095
2464,0.06770587
2465,0.07152913
2466,0.01937398
2467,0.024386361
2468,0.029799787
2469,-0.034417734
2470,0.02435289
2471,-0.053873766
2472,-0.051503073
2473,-0.026961772
2474,0.060836103
2475,-0.06709592
2476,-0.062038876
2477,-0.09905837
2478,-0.048186373
2479,0.009429912
2480,0.019490803
2481,-0.08262929
2482,-0.080022514
2483,-0.052955862
2484,0.024589526
2485,-0.011105088
2486,0.0028038057
2487,-0.0005334655
2488,-0.06272426
2489,0.0061904797
2490,-0.023887256
2491,-0.013092148
2492,-0.05414712
2493,-0.0059122248
2494,0.06704989
2495,-0.0667781
2496,0.024549693
2497,-0.045380257
2498,0.014476305
2499,0.008885755
2500,0.05494585
2501,-0.03893161
2502,-0.06335994
2503,0.0060473885
2504,-0.008197335
2505,-0.015526417
2506,0.014893595
2507,0.05235948
2508,0.016110608
2509,0.029296255
2510,0.015175295
2511,-0.07490581
2512,-0.009106969
2513,0.03488658
2514,-0.08811949
2515,-0.0021179789
2516,0.03413027
2517,-0.08458636
2518,0.045502
2519,0.012375019
2520,0.009529529
2521,0.0126506025
2522,0.018940609
2523,-0.033269774
2524,0.04052532
2525,-0.04069237
2526,0.074523844
2527,-0.007543895
2528,0.007998954
2529,-0.016279731
2530,-0.07244948
2531,0.0586597
2532,0.100578055
2533,-0.052395027
2534,-0.044708338
2535,0.016394459
2536,0.007897984
2537,0.07336329
2538,-0.006961256
2539,0.032017972
2540,-0.008272525
2541,-0.03148481
2542,0.02483455
2543,0.024223555
2544,0.046903443
2545,0.025860125
2546,-0.0141969975
2547,-0.0094236825
2548,-0.049560033
2549,-0.0062124976
2550,-0.04871624
2551,-0.030491324
2552,0.041812595
2553,0.012930186
2554,0.013387685
2555,0.0043222453
2556,0.046691455
2557,-0.03251522
2558,-0.0622001
2559,0.02525045
2560,-0.0047475123
2561,-0.06383912
2562,0.004470998
2563,-0.01608044
2564,0.011066809
2565,-0.036891736
2566,-0.025615668
2567,0.07175281
2568,-0.056706123
2569,-0.003799551
2570,-0.0027726276
2571,0.085534334
2572,-0.06269163
2573,0.016728701
2574,-0.032795202
2575,0.058710385
2576,0.04127142
2577,-0.041289933
2578,-0.070306055
2579,0.0089534
2580,-0.006689498
2581,-0.062298957
2582,-0.0027616557
2583,-0.027119718
2584,0.025622243
2585,-0.014207405
2586,0.027921237
2587,-0.022565769
2588,0.0036084333
2589,-0.04802125
2590,0.03376554
2591,-0.0113675585
2592,-0.070420265
2593,-0.06666225
2594,0.023075098
2595,0.019915454
2596,0.028387658
2597,-0.030254949
2598,0.025699852
2599,0.026463749
2600,0.03534123
2601,-0.026091786
2602,0.060066532
2603,-0.014469681
2604,-0.062439155
2605,-0.06592508
2606,-0.04277057
2607,-0.033564355
2608,-0.042737406
2609,-0.08307444
2610,-0.080569
2611,-0.05065273
2612,0.0036746133
2613,0.009398196
2614,-0.0018712943
2615,0.010682527
2616,-0.025657931
2617,0.021683328
2618,0.010125065
2619,0.009586392
2620,-0.054135796
2621,0.003313405
2622,-0.0469935
2623,-0.0667574
2624,-0.07422502
2625,0.04187797
2626,0.014518136
2627,0.0031732717
2628,0.036548655
2629,-0.0411879
2630,0.03763882
2631,0.0021329022
2632,-0.0026440257
2633,0.007303625
2634,0.017893607
2635,-0.046400897
2636,-0.069271795
2637,0.021663846
2638,-0.024881424
2639,0.08610967
2640,-0.013626563
2641,0.0100801615
2642,-0.0875091
2643,-0.010935451
2644,0.008872703
2645,-0.0838776
2646,0.008319497
2647,-0.010697889
2648,-0.003853538
2649,0.049759354
2650,-0.028690543
2651,0.02141689
2652,-0.05477204
2653,-0.039519977
2654,-0.072625704
2655,-0.005547576
2656,-0.029590992
2657,-0.019446857
2658,-0.018272812
2659,0.06769098
2660,0.015767602
2661,-0.052126825
2662,0.043322634
2663,-0.009538878
2664,-0.011565219
2665,0.07213813
2666,-0.030212231
2667,0.005762052
2668,-0.0046398034
2669,-0.08416277
2670,0.015918864
2671,0.030564
2672,0.027784124
2673,0.023052927
2674,0.028049087
2675,0.032606855
2676,0.0007537884
2677,-0.006058587
2678,0.0324291
2679,-0.03000329
2680,0.044897478
2681,-0.01776677
2682,-0.0412202
2683,-0.07129663
2684,-0.022091925
2685,-0.008931096
2686,-0.062090855
2687,0.028734423
2688,-0.029383898
2689,0.014360883
2690,-0.015968958
2691,-0.019560141
2692,-0.04605738
2693,-0.043137737
2694,-0.04818363
2695,0.0022743114
2696,0.07106674
2697,-0.0015269222
2698,-0.02220716
2699,0.014689304
2700,-0.062714174
2701,-0.015164895
2702,-0.014113017
2703,-0.08303299
2704,0.03762686
2705,0.05096962
2706,-0.049734633
2707,-0.019187707
2708,0.0050386796
2709,-0.06685039
2710,-0.048040085
2711,-0.027207261
2712,0.019601598
2713,-0.0043702577
2714,0.042456318
2715,-0.006976073
2716,-0.048459917
2717,-0.048537534
2718,0.03348709
2719,0.007917106
2720,-0.062234983
2721,0.033985246
2722,-0.0062042284
2723,-0.036079876
2724,0.022470847
2725,-0.03330646
2726,0.0446768
2727,-0.048136536
2728,0.023799771
2729,-0.029408447
2730,0.06399107
2731,-0.061481476
2732,0.07396059
2733,0.015204656
2734,0.057254706
2735,-0.03400236
2736,0.005198286
2737,-0.08308247
2738,-0.08003392
2739,-0.052868266
2740,-0.0045341984
2741,-0.004083206
2742,-0.030294284
2743,-0.028027749
2744,0.022438563
2745,-0.039316453
2746,-0.022586117
2747,0.007075097
2748,-0.04941784
2749,-0.044555534
2750,-0.043882776
2751,-0.06525894
2752,-0.06762095
2753,-0.045806613
2754,0.022148682
2755,-0.04709226
2756,-0.06422664
2757,-0.041395146
2758,-0.063330695
2759,-0.04236649
2760,0.028137675
2761,0.022605138
2762,-0.05856706
2763,-0.046829898
2764,-0.02295637
2765,0.017305948
2766,-0.036640402
2767,-0.050227217
2768,-0.0050788186
2769,-0.035229087
2770,0.03055479
2771,-0.0031275963
2772,-0.0101573
2773,-0.0692335
2774,-0.04965115
2775,-0.041824542
2776,0.015516156
2777,0.067266814
2778,-0.028972005
2779,-0.032394625
2780,0.01438839
2781,-0.03871517
2782,-0.027921392
2783,-0.0057482044
2784,-0.013586216
2785,-0.018806618
2786,-0.008880869
2787,0.059226252
2788,0.020794805
2789,0.013758817
2790,-0.038923763
2791,0.027573336
2792,-0.012323137
2793,-0.06969783
2794,-0.02990067
2795,-0.0093822405
2796,-0.013481236
2797,-0.07800352
2798,0.041329566
2799,0.012113879
2800,-0.05605629
2801,-0.05401949
2802,0.022828003
2803,0.027689844
2804,-0.009922382
2805,-0.004487327
2806,0.0035617575
2807,-0.035289094
2808,0.04825614
2809,-0.012860798
2810,-0.02763928
2811,-0.06990557
2812,-0.026248364
2813,-0.03196543
2814,0.064146936
2815,-0.04492829
2816,-0.016746396
2817,-0.063938916
2818,-0.006955419
2819,-0.015724154
2820,-0.046477966
2821,-0.04331478
2822,-0.015634151
2823,-0.025004093
2824,-0.057451807
2825,0.008743681
2826,0.004729971
2827,0.017267969
2828,-0.06368521
2829,-0.02479208
2830,-0.022025906
2831,-0.0266564
2832,-0.02654123
2833,-0.040437438
2834,-0.02218797
2835,-0.013140493
2836,-0.018288374
2837,-0.06687372
2838,-0.04762782
2839,-0.026977949
2840,-0.04711407
2841,-0.008331405
2842,-0.056121927
2843,0.019435791
2844,-0.04964436
2845,-0.0510012
2846,-0.056165855
2847,-0.040940177
2848,-0.06466431
2849,-0.0658569
2850,-0.028305436
2851,-0.0104769245
2852,-0.045089766
2853,-0.033450942
2854,0.053549785
2855,-0.05339932
2856,-0.052412257
2857,-0.029758096
2858,-0.044720564
2859,-0.06657822
2860,-0.03513143
2861,0.02971538
2862,-0.037555046
2863,-0.034777556
2864,-0.04310853
2865,-0.08290935
2866,-0.08066554
2867,-0.053559683
2868,-0.048491012
2869,-0.034094427
2870,-0.03814684
2871,-0.028044196
2872,-0.062642984
2873,-0.042607706
2874,-0.021721134
2875,-0.040722102
2876,-0.054396205
2877,-0.04398869
2878,-0.04054186
2879,-0.0667409
2880,-0.07445573
2881,-0.045315173
2882,-0.033395812
2883,-0.046017602
2884,-0.06475625
2885,-0.04114966
2886,-0.063299686
2887,-0.021385856
2888,-0.03562947
2889,4.595419e-05
2890,-0.056283142
2891,-0.046657655
2892,-0.06935682
2893,-0.039363768
2894,-0.037503753
2895,-0.06513077
2896,-0.0024650218
2897,0.008986353
2898,-0.08773367
2899,-0.000873443
2900,0.0024500776
2901,0.033389434
2902,-0.05025963
2903,-0.041797187
2904,-0.04687007
2905,-0.042600896
2906,-0.028012631
2907,-0.03305481
2908,-0.023660854
2909,-0.039893307
2910,-0.0065418403
2911,0.014019915
2912,-0.031400405
2913,-0.017425856
2914,0.00465429
2915,0.07429104
2916,0.00944493
2917,-0.05262206
2918,-0.044714782
2919,-0.045472544
2920,-0.011034286
2921,-0.043698315
2922,-0.030239346
2923,-0.04847297
2924,-0.0051602577
2925,0.081541546
2926,-0.039636716
2927,-0.051246826
2928,-0.055119358
2929,-0.05218807
2930,-0.0029299494
2931,-0.041192766
2932,-0.049774293
2933,-0.008393152
2934,-0.043449435
2935,-0.03365473
2936,0.0008217246
2937,-0.046388697
2938,-0.030162867
2939,-0.06871803
2940,-0.01975441
2941,-0.027141402
2942,-0.06215882
2943,-0.045168996
2944,-0.023985356
2945,-0.061277803
2946,-0.023381492
2947,-0.0160436
2948,-0.04104582
2949,-0.03736454
2950,-0.013922873
2951,-0.033936646
2952,-0.008504968
2953,-0.008700444
2954,-0.0063329977
2955,-0.02524393
2956,-0.014884185
2957,0.008247718
2958,-0.033965554
2959,-0.055529393
2960,-0.033744607
2961,-0.03712297
2962,-0.05055155
2963,-0.037792623
2964,-0.05003606
2965,-0.056136988
2966,-0.046835672
2967,-0.026616253
2968,-0.0136331385
2969,-0.03357993
2970,-0.037877426
2971,-0.04039851
2972,-0.063142754
2973,-0.026414363
2974,-0.05621333
2975,-0.027805284
2976,-0.0059992913
2977,-0.051013228
2978,-0.024412775
2979,-0.02567683
2980,-0.044923004
2981,-0.020840185
2982,-0.041179225
2983,-0.038715288
2984,-0.049216915
2985,-0.02989813
2986,-0.016613858
2987,-0.017322771
2988,0.0048928005
2989,-0.032725897
2990,-0.012286586
2991,-0.034861725
2992,-0.04196608
2993,-0.031909816
2994,-0.034886178
2995,-0.027618457
2996,-0.04765876
2997,-0.035453238
2998,-0.03930836
2999,-0.028397238
3000,-0.035700433
3001,-0.031611297
3002,-0.017300738
3003,-0.038826536
3004,-0.03193129
3005,-0.04406981
3006,-0.008260666
3007,-0.035317183
3008,-0.042580813
3009,-0.038015705
3010,-0.035917614
3011,-0.047812544
3012,-0.047001537
3013,-0.0169146
3014,-0.02669762
3015,-0.0241779
3016,-0.03472823
3017,-0.023470078
3018,-0.05622004
3019,-0.010468009
3020,-0.056641873
3021,-0.040061176
3022,-0.035467118
3023,-0.029955093
3024,-0.001243321
3025,-0.018614277
3026,-0.064117834
3027,0.000632739
3028,-0.04274817
3029,-0.03362796
3030,-0.031381708
3031,-0.01912831
3032,-0.042200916
3033,-0.04628863
3034,-0.028104916
3035,-0.032249894
3036,-0.054080892
3037,-0.023041353
3038,-0.026319837
3039,-0.0075131226
3040,-0.030246845
3041,-0.0201336
3042,0.003926389
3043,0.050141625
3044,-0.020580234
3045,-0.034855276
3046,-0.027481997
3047,-0.04695174
3048,-0.0061171567
3049,-0.041284025
3050,-0.029042628
3051,-0.04798864
3052,-0.005831366
3053,-0.03302593
3054,-0.038983885
3055,-0.05110237
3056,-0.04690937
3057,-0.049753275
3058,-0.033750355
3059,-0.04120315
3060,-0.028028294
3061,-0.006266589
3062,0.0016096643
3063,-0.0028389061
3064,-0.048651956
3065,-0.034251127
3066,-0.019845558
3067,-0.05622451
3068,-0.0070091365
3069,-0.03260277
3070,-0.035627294
3071,-0.044321787
3072,-0.01293243
3073,0.0101637095
3074,-0.013164092
3075,-0.00684585
3076,-0.021713793
3077,-0.01701608
3078,-0.002960274
3079,-0.006794948
3080,0.041608896
3081,-0.017346151
3082,-0.015579153
3083,0.0034329428
3084,0.022276526
3085,-0.0076658595
3086,-0.01861287
3087,0.01305367
3088,-0.0036279487
3089,0.0072872327
3090,-0.027870078
3091,-0.017205738
3092,-0.017294357
3093,-0.017679425
3094,-0.020211695
3095,-0.014271701
3096,-0.007385753
3097,-0.01079425
3098,0.0031436451
3099,-0.010986871
3100,0.007833237
3101,-0.01940983
3102,-0.02212621
3103,-0.019964183
3104,0.010520762
3105,0.010147771
3106,-0.022198386
3107,-0.015196252
3108,-0.031306636
3109,-0.0035331917
3110,-0.0073205754
3111,-0.013767007
3112,0.0031222643
3113,0.0009224709
3114,-0.0011829268
3115,-0.017541379
3116,0.027720794
3117,0.023759212
3118,-0.029939465
3119,-0.00024726102
3120,-0.0125408145
3121,0.030956535
3122,0.0417755
3123,-0.0076307645
3124,-0.025215814
3125,0.0005780435
3126,-0.023242816
3127,-0.015341966
3128,-0.012943983
3129,-0.013615356
3130,-0.005973764
3131,-0.015258323
3132,0.0024496836
3133,-0.016346755
3134,0.0058773262
3135,0.013799213
3136,-0.001962367
3137,-0.020404188
3138,-0.01087422
3139,-0.026177542
3140,-0.008330136
3141,0.0006186143
3142,-0.0047136997
3143,-0.01778718
3144,-0.02502585
3145,-0.015277961
3146,-0.0145103615
3147,0.0036331387
3148,-0.005553472
3149,-0.020904083
3150,-0.01750591
3151,0.024923895
3152,-0.0070325546
3153,-0.012090325
3154,0.009725598
3155,9.538932e-05
3156,-0.014730451
3157,-0.0012278741
3158,-0.014729845
3159,-0.013925341
3160,-0.012302462
3161,-0.0064908843
3162,-0.015082361
3163,-0.020350708
3164,-0.016041042
3165,0.00020779081
3166,0.0027496493
3167,0.0010171167
3168,-0.009655106
3169,0.00035393078
3170,0.00680599
3171,0.03472424
3172,-0.016849974
3173,0.0013302595
3174,-0.021599595
3175,-0.017275838
3176,-0.00807748
3177,0.02156287
3178,-0.018534489
3179,-0.00043766177
3180,-0.0118945
3181,0.023899406
3182,-0.0052390937
3183,-0.0067060683
3184,-0.032882474
3185,-0.032194093
3186,-0.019941514
3187,-0.020622881
3188,-0.008187661
3189,-0.0068748686
3190,0.006265635
3191,0.011367764
3192,-0.016988339
3193,-0.018964643
3194,-0.016325455
3195,-0.009309876
3196,0.008310737
3197,-0.009739076
3198,0.039081074
3199,-0.02303111
3200,0.013798982
3201,0.0022641642
3202,0.010325962
3203,-0.009911312
3204,0.0021126452
3205,0.002482721
3206,-0.017543348
3207,-0.011351735
3208,0.0027984637
3209,-0.007401508
3210,0.011073017
3211,-0.004567117
3212,-0.00431636
3213,0.008869665
3214,0.007899658
3215,0.0054340265
3216,-0.00563016
3217,-0.003375012
3218,0.016908102
3219,0.0058144117
3220,-0.016476141
3221,0.0055427486
3222,0.0035797434
3223,0.019958647
3224,-0.0033308682
3225,-0.007164811
3226,-0.008146176
3227,0.0012477956
3228,-0.01430488
3229,-0.004087457
3230,0.0100516
3231,0.019094393
3232,0.014929008
3233,-0.0014673813
3234,0.009335031
3235,0.012240511
3236,-0.004745067
3237,-0.012942876
3238,0.01957952
3239,-0.0032320227
3240,0.02098625
3241,-0.0075058583
3242,0.012878448
3243,-0.010099452
3244,-0.0007741009
3245,-0.018622356
3246,0.0031388327
3247,0.015219684
3248,0.002945635
3249,-0.002498189
3250,-0.01373423
3251,0.017806211
3252,0.006668243
3253,0.014622461
3254,0.009433329
3255,-0.0025534627
3256,0.020061016
3257,-0.0030496418
3258,0.010743662
3259,0.009327975
3260,0.008780456
3261,0.008191898
3262,0.012532148
3263,0.00571994
3264,-0.013049412
3265,0.007955436
3266,0.012537069
3267,0.0020122551
3268,0.015061968
3269,0.018422475
3270,0.011396233
3271,0.0010529467
3272,0.017783718
3273,-0.0026071242
3274,0.0020388318
3275,0.0066783126
3276,0.010328313
3277,0.0005321043
3278,-0.010581023
3279,0.005103441
3280,-0.0038797518
3281,-0.014678327
3282,-0.008192847
3283,0.005874583
3284,0.019788608
3285,0.008256862
3286,0.011767249
3287,-0.0020038774
3288,0.0183936
3289,0.015162799
3290,0.013268227
3291,0.019149182
3292,-0.0037656
3293,0.0016882429
3294,0.01628388
3295,-0.013544319
3296,0.010873073
3297,0.007473908
3298,0.012557815
3299,-0.013596489
3300,0.014694316
3301,0.0002612534
3302,0.007188365
3303,0.012847444
3304,-0.0017716009
3305,0.0026255166
3306,-0.0012988128
3307,0.012426633
3308,0.0037846877
3309,0.014550613
3310,0.006352924
3311,0.0107127465
3312,-0.01060352
3313,-0.002379326
3314,0.0021541573
3315,0.020742556
3316,0.005091371
3317,-0.0049698823
3318,0.009884844
3319,-0.014142195
3320,-0.00032336637
3321,0.017620793
3322,-0.016488291
3323,0.0127785
3324,0.009602209
3325,0.0012561895
3326,0.004111118
3327,0.0063150856
3328,0.01233448
3329,-0.0074705617
3330,-0.0034203266
3331,-0.0054044556
3332,0.00085823593
3333,0.0034436318
3334,-0.005660551
3335,-0.0049271714
3336,-0.009899612
3337,0.014796941
3338,0.011447025
3339,-0.007852428
3340,0.005078201
3341,-0.01865579
3342,-0.012568546
3343,2.635681e-05
3344,0.0032972263
3345,-0.00021197669
3346,0.0010844105
3347,0.0048964256
3348,0.014806017
3349,-0.0050035194
3350,0.002507148
3351,-0.012347755
3352,-0.0019776425
3353,-0.0065312865
3354,0.0014789986
3355,0.0039110384
3356,0.005395049
3357,-0.006723696
3358,-0.0043502054
3359,-0.013010498
3360,-0.018372394
3361,0.008368138
3362,0.008719931
3363,-0.0036838143
3364,-0.014788676
3365,-0.0061970106
3366,-0.011433418
3367,0.005113543
3368,0.008079279
3369,0.0011849621
3370,0.0039987755
3371,-0.012523342
3372,0.0010348646
3373,-0.0064243996
3374,-0.0028831325
3375,-0.007865694
3376,0.011018472
3377,0.006972202
3378,0.006600781
3379,0.015115343
3380,0.015213841
3381,-0.0052266917
3382,0.00091815076
3383,-0.0012232673
3384,-0.006183989
3385,-0.00016349343
3386,0.0076649105
3387,-0.009986866
3388,-0.01021188
3389,-0.0077970177
3390,-0.0019374044
3391,0.009290659
3392,-0.012665051
3393,0.00044289377
3394,-0.00993926
3395,-0.013790191
3396,-0.013874145
3397,-0.012241628
3398,-0.015157364
3399,-0.017149363
3400,0.006966563
3401,-0.009884333
3402,0.019214038
3403,-0.008965255
3404,-0.011527611
3405,0.005536308
3406,0.01361366
3407,0.0001318897
3408,0.004870376
3409,0.013906894
3410,0.0058248965
3411,-0.004491759
3412,0.004864714
3413,0.0074370974
3414,-0.0032957783
3415,0.015431716
3416,-0.0051052705
3417,-0.00431237
3418,-0.004153824
3419,-0.0069450806
3420,-0.0078187855
3421,-0.016609706
3422,0.0030247464
3423,9.868066e-05
3424,-0.003487188
3425,-0.01132167
3426,0.0025202872
3427,0.0044688024
3428,0.0072235293
3429,0.008606356
3430,-0.0021507298
3431,0.013749502
3432,0.0071299677
3433,0.00042562527
3434,-0.004769471
3435,0.0033486013
3436,-0.016177652
3437,-0.011904723
3438,-0.0018747601
3439,0.010917976
3440,-0.0027058949
3441,0.007986605
3442,-0.013676525
3443,0.018659504
3444,-0.0030867893
3445,0.0056871125
3446,-0.005347355
3447,-0.016151408
3448,0.013704117
3449,-0.009804354
3450,-0.0012711177
3451,-0.018930333
3452,-0.00955244
3453,-0.0009044423
3454,0.005938124
3455,-0.018331267
3456,-0.001332172
3457,-0.0008471551
3458,0.008504138
3459,-0.015971225
3460,-0.0050704265
3461,0.01808943
3462,0.00080574176
3463,0.00048669058
3464,0.007473031
3465,0.0020701757
3466,-0.0032879915
3467,0.0011803809
3468,-0.010402237
3469,0.0027031123
3470,-0.00066236756
3471,0.006644401
3472,-0.0080063995
3473,0.008137077
3474,-0.0069834194
3475,0.015002253
3476,-0.014721703
3477,0.017077196
3478,0.0072904807
3479,-0.0011830444
3480,0.0026205266
3481,0.009211261
3482,-0.010308789
3483,0.0070024976
3484,0.0028690451
3485,-0.016993629
3486,0.0021730214
3487,0.0028647103
3488,0.008768058
3489,-0.00091332686
3490,-0.0020966136
3491,0.0009314643
3492,0.0013595907
3493,0.007919653
3494,-0.0003103947
3495,-0.016844412
3496,0.0041304324
3497,-0.007898836
3498,0.010691161
3499,0.0074672024
3500,-0.0022914775
3501,0.002682993
3502,-0.0040891063
3503,0.009091332
3504,-0.004328865
3505,-0.018271394
3506,-0.0081821075
3507,0.019205604
3508,-0.013131299
3509,-0.0039933803
3510,-0.017024472
3511,-0.001662434
3512,-0.011722303
3513,0.011053026
3514,-0.0034969312
3515,0.0035451406
3516,-0.014104396
3517,-0.0019486988
3518,0.004263119
3519,-0.008194297
3520,-0.012864053
3521,0.018926412
3522,-0.008329958
3523,0.018246422
3524,0.002186944
3525,0.00022590108
3526,0.00090737507
3527,-0.001286062
3528,-0.011400308
3529,0.001315009
3530,0.0067336517
3531,-0.004924726
3532,0.0020699424
3533,-0.013738189
3534,0.008573368
3535,0.007940395
3536,-0.008273082
3537,0.010770476
3538,0.012032415
3539,-0.001201013
3540,-0.0062031704
3541,0.011252099
3542,-0.014607289
3543,-0.0013236473
3544,-0.009541229
3545,0.014068708
3546,-0.0028811793
3547,-0.0040742382
3548,0.0076518967
3549,0.00058459904
3550,0.006799692
3551,0.010075656
3552,-0.008497948
3553,1.9863715e-05
3554,-0.009530953
3555,-0.015506764
3556,0.0001299927
3557,0.0006432849
3558,-0.014766534
3559,-0.0021216294
3560,0.014569853
3561,0.0031429003
3562,0.011245383
3563,5.87257e-05
3564,-0.00050130486
3565,0.014334089
3566,0.0049854335
3567,-0.016815454
3568,0.0054222667
3569,-0.0043722433
3570,0.019971242
3571,-0.011126354
3572,-0.009350793
3573,-0.005480463
3574,-0.0039002502
3575,-0.012313085
3576,-0.0048615346
3577,-0.0067279357
3578,-0.00040778067
3579,0.0062670186
3580,-0.0016903691
3581,-0.0040563396
3582,0.0049981494
3583,-0.0037015434
3584,0.013228631
3585,-0.008527355
3586,0.0055188513
3587,0.011455781
3588,0.005159676
3589,-0.003468071
3590,0.0027416071
3591,-0.0028845966
3592,-0.011851836
3593,0.0031719464
3594,0.0046834084
3595,-0.011175736
3596,0.011047816
3597,0.012169315
3598,-0.00024346738
3599,-0.00027563842
3600,0.0007848434
3601,-0.0003813496
3602,0.00037182364
3603,-0.002373101
3604,0.0055113016
3605,0.017853597
3606,-0.011026293
3607,-0.010983281
3608,0.0038281619
3609,0.00040413003
3610,0.004096215
3611,0.01008389
3612,0.0052470528
3613,0.0055240043
3614,-0.0046315375
3615,0.00082401535
3616,0.0052597555
3617,-0.0044935523
3618,-0.0024839612
3619,-0.0014540934
3620,0.005182646
3621,-0.0017403108
3622,-0.005843353
3623,0.0014021851
3624,0.0034215038
3625,-0.0046939794
3626,-0.010217574
3627,0.017495513
3628,0.016483285
3629,-0.0051293364
3630,-0.0031863644
3631,0.0028517412
3632,0.009087722
3633,0.01615984
3634,-0.01947839
3635,-0.010439853
3636,-0.0044132215
3637,0.008124108
3638,-0.007984893
3639,-0.0007245958
3640,0.012389577
3641,-0.002583224
3642,0.008535682
3643,0.005041504
3644,0.013206373
3645,-0.014910072
3646,-0.00047760125
3647,-0.012322963
3648,-0.0096294815
3649,-0.0074295043
3650,-0.010115773
3651,0.009607443
3652,0.009775279
3653,-0.016898183
3654,0.0012058655
3655,0.0052332613
3656,0.0040785144
3657,-0.0109554995
3658,0.004323664
3659,0.00074688485
3660,-0.011486693
3661,0.014986924
3662,0.012947238
3663,0.0021532178
3664,-0.004917602
3665,-0.0006853077
3666,0.01988421
3667,0.014159315
3668,0.011373137
3669,-0.0071763634
3670,0.0014895931
3671,0.0028734019
3672,0.004518696
3673,-0.0034363312
3674,0.011760198
3675,0.008624042
3676,-0.002423
3677,-0.0050531607
3678,-0.0047962856
3679,0.0013050684
3680,0.0059406296
3681,-0.007831784
3682,0.017542802
3683,-0.0012576681
3684,-0.0042643654
3685,-0.010190033
3686,-0.00457455
3687,-0.0003440882
3688,-0.0012164486
3689,-0.005118982
3690,0.004430509
3691,0.012396586
3692,-0.014521608
3693,0.004033461
3694,0.0051843286
3695,0.010267281
3696,-0.001031284
3697,-0.007642287
3698,-0.004110124
3699,0.0049518556
3700,0.0014656546
3701,-0.017930549
3702,-0.014429051
3703,-0.0076965545
3704,0.0034423186
3705,0.014496129
3706,-0.010033184
3707,-0.010056133
3708,0.0056692646
3709,0.0021280253
3710,0.00809556
3711,-0.005104095
3712,0.0020252177
3713,0.0047466285
3714,-0.0013246991
3715,0.007584167
3716,0.010757082
3717,0.009341399
3718,-0.010319302
3719,-0.00072921667
3720,0.005214313
3721,0.011408718
3722,-0.014190935
3723,0.008648078
3724,0.015239096
3725,0.014700388
3726,0.000514653
3727,-0.01221299
3728,0.01455286
3729,0.013473682
3730,0.0070573827
3731,0.014162246
3732,-0.0068717077
3733,0.017217949
3734,-0.0080091795
3735,0.004850584
3736,-0.012563365
3737,0.0141208
3738,0.011979026
3739,0.012143575
3740,-0.008607131
3741,-0.0004894187
3742,0.0035581593
3743,0.015268215
3744,-0.019074636
3745,-9.4957526e-05
3746,-0.006988454
3747,-0.002816436
3748,-0.012339954
3749,-0.0149394795
3750,-0.01634157
3751,-0.005321829
3752,-0.0078016436
3753,0.0085108
3754,0.00034506706
3755,-0.012198157
3756,-0.0026613749
3757,0.007866331
3758,-0.009145752
3759,0.011726798
3760,-0.009792767
3761,0.014718912
3762,-0.0019204488
3763,-0.005701896
3764,0.009309553
3765,0.00578869
3766,-0.012911488
3767,0.0014320047
3768,-0.005066344
3769,-0.0071654716
3770,0.012448264
3771,0.010942712
3772,0.009264902
3773,0.009904872
3774,-0.004512778
3775,0.0027981587
3776,0.0021881792
3777,0.0027888825
3778,-0.00387081
3779,-0.007449719
3780,-0.016357068
3781,0.000726485
3782,-0.004489221
3783,-0.013664726
3784,-0.006644639
3785,0.0024528285
3786,0.0044168904
3787,0.014558456
3788,0.0074730753
3789,-0.005494284
3790,0.0048628943
3791,-0.017519034
3792,0.008240201
3793,-0.0062624887
3794,-0.008094785
3795,-0.011775044
3796,0.0026767978
3797,-0.013588771
3798,0.001727514
3799,0.0037261404
3800,-0.002888767
3801,0.0029350992
3802,0.0074007823
3803,-0.009734656
3804,-0.005525195
3805,-0.00024869916
3806,0.002561051
3807,0.014166754
3808,-0.003982942
3809,-0.008488885
3810,0.0011641998
3811,-0.01356407
3812,0.010008243
3813,0.0005621991
3814,-0.0011873596
3815,0.00471698
3816,-0.012531872
3817,0.003022501
3818,-0.003321747
3819,0.0010650144
3820,-0.009502372
3821,0.00086412363
3822,-0.0020063317
3823,-0.00072855625
3824,0.010639709
3825,0.017707428
3826,0.0010173309
3827,0.0020712016
3828,0.012424371
3829,0.004882018
3830,0.002856213
3831,-0.012949811
3832,-0.0073435074
3833,-0.0009576104
3834,-0.007315786
3835,0.012522187
3836,-0.015265649
3837,0.007915422
3838,-0.012943439
3839,-0.010517205
3840,0.0076034083
3841,-0.007599076
3842,-0.0070822677
3843,0.0027025323
3844,0.0074618077
3845,0.005606808
3846,-0.003816608
3847,-0.011020381
3848,0.004091706
3849,0.0026484104
3850,0.0039136517
3851,-0.011681704
3852,0.004002944
3853,0.005632169
3854,0.014639731
3855,0.0034486991
3856,0.004090796
3857,0.0046691843
3858,-0.01180514
3859,0.017621184
3860,-0.0109202685
3861,0.002847952
3862,-0.0024093457
3863,-0.01403463
3864,0.007810608
3865,-0.009369436
3866,0.0043618376
3867,0.014528845
3868,0.009850913
3869,0.011331005
3870,-0.017553609
3871,-0.010893351
3872,-0.004778137
3873,0.0026821839
3874,0.0031241544
3875,0.0031376742
3876,-0.005607726
3877,0.0046533314
3878,-0.0003007778
3879,-0.013419911
3880,-0.0027014776
3881,0.00039739342
3882,-0.0063542477
3883,-0.015647588
3884,0.012850527
3885,-0.009455135
3886,-0.0044351174
3887,0.003576458
3888,-0.0052778227
3889,0.0025273955
3890,-0.016360424
3891,-0.0053726444
3892,0.0032787968
3893,0.0025528956
3894,0.0022203946
3895,0.008074319
3896,0.0040384694
3897,0.0061014965
3898,-0.011212371
3899,0.019253274
3900,0.005637697
3901,0.010885384
3902,0.007074055
3903,0.0057987995
3904,0.0014020898
3905,-0.012495681
3906,0.0080827875
3907,0.008879694
3908,0.0020495947
3909,0.0057400167
3910,-0.010191002
3911,-0.0071208845
3912,-0.003980365
3913,-0.018201679
3914,0.008907895
3915,0.006723177
3916,0.001246499
3917,-0.0015656193
3918,0.008632088
3919,-0.01299837
3920,-0.011466789
3921,0.0090564955
3922,-0.0025610528
3923,-0.01014271
3924,0.01773425
3925,0.008978028
3926,-0.013704268
3927,-0.0045458768
3928,0.01695534
3929,-0.016422804
3930,0.002578564
3931,0.00955233
3932,-0.00024239812
3933,0.00213621
3934,0.0055606
3935,0.0001284414
3936,-0.00350753
3937,-0.0014429626
3938,-0.0020936634
3939,-0.008267456
3940,-0.006254179
3941,0.004792357
3942,-0.0022041935
3943,0.0108301975
3944,-0.0062017483
3945,0.0037493035
3946,0.015407233
3947,0.0043884176
3948,0.0087158885
3949,-0.008393603
3950,0.0071052364
3951,0.00038998033
3952,-0.0015990736
3953,-0.017602367
3954,-0.009684336
3955,-0.0005944481
3956,-0.0043495297
3957,-6.584959e-06
3958,-0.0023406297
3959,-0.005595882
3960,0.004218239
3961,0.0011681129
3962,0.0006697135
3963,-0.0022196309
3964,0.014766203
3965,-0.009477464
3966,-0.004220765
3967,0.005709746
3968,-0.019317463
3969,0.0003132343
3970,0.0065540164
3971,-0.008605762
3972,0.0028703918
3973,-0.009822628
3974,-0.0026642394
3975,-0.018658383
3976,0.010479966
3977,-0.0011640971
3978,-0.006660353
3979,-0.00022952116
3980,0.011847514
3981,0.010673473
3982,-0.00095473713
3983,-0.006994804
3984,0.009444373
3985,0.007290228
3986,0.000986417
3987,-0.0065308707
3988,0.007770132
3989,0.0015857646
3990,-0.0018851444
3991,0.007673083
3992,-0.0075042197
3993,0.011323994
3994,0.002976864
3995,-0.0024107988
3996,0.008730218
3997,0.0067111435
3998,0.0077484213
3999,-0.0036565387
4000,0.012979548
4001,-0.016754603
4002,0.0039113383
4003,-0.016351692
4004,0.011691146
4005,-0.0087394165
4006,0.007361174
4007,-0.0059538567
4008,0.0088341
4009,-0.0012952915
4010,0.008776627
4011,0.008665499
4012,-0.012661365
4013,0.008156263
4014,0.0156162195
4015,-0.005970704
4016,0.0023460656
4017,-0.00929862
4018,0.0009897554
4019,-0.0055688964
4020,-0.0044247624
4021,0.00613269
4022,0.01391377
4023,0.003850886
4024,-0.010258667
4025,0.0034633288
4026,0.014985425
4027,-0.0005486872
4028,-0.0069403956
4029,-0.0047833263
4030,-0.01367721
4031,0.00086458464
4032,-0.016225073
4033,0.004829411
4034,-0.0019589593
4035,-0.011149408
4036,0.01613444
4037,0.005259246
4038,0.008720009
4039,0.014230362
4040,-0.0014825886
4041,0.01693197
4042,-0.0037851068
4043,-0.0066339914
4044,0.0050973734
4045,-0.0034792684
4046,0.007120406
4047,0.015324602
4048,-0.005321606
4049,-0.0003606987
4050,-0.0048362357
4051,0.0024951533
4052,-0.017993046
4053,-0.0075074
4054,0.0063830838
4055,0.0119395675
4056,0.0021012675
4057,0.0048982585
4058,-0.015376736
4059,-0.0149624925
4060,0.01235721
4061,-0.0035602169
4062,0.012364175
4063,-0.018275507
4064,-0.01980041
4065,-0.0006351253
4066,0.0037451147
4067,-0.008688162
4068,0.0069996472
4069,-0.004593901
4070,-0.0021803207
4071,0.017681435
4072,-0.003727956
4073,0.009173308
4074,-0.004244167
4075,0.009183046
4076,-0.012463648
4077,0.009585468
4078,0.014269949
4079,-0.003282929
4080,0.0008293273
4081,-0.0021034994
4082,0.008304552
4083,-0.00026104297
4084,-0.00089332357
4085,0.009293941
4086,-0.00207948
4087,-0.016857998
4088,-0.00071462017
4089,0.00015780603
4090,-0.010722258
4091,-0.017960045
4092,0.009306827
4093,0.006354021
4094,0.002884996
4095,-0.002000635
