Sno,Weight
0,-0.03122452
1,-0.023011263
2,0.015900012
3,-0.0052926345
4,-0.0019125739
5,-0.008462914
6,-0.017088704
7,0.026870618
8,0.022235397
9,0.00748804
10,-0.046221167
11,0.018190486
12,-0.061908238
13,-0.0038459266
14,0.036249146
15,0.011631282
16,0.019490588
17,-0.044719797
18,0.06936787
19,-0.04206838
20,0.028938103
21,0.0059717763
22,0.023132121
23,0.061980125
24,0.035054322
25,-0.038581815
26,0.0011491274
27,0.03926074
28,0.0048913187
29,0.04354828
30,0.023019835
31,-0.016167426
32,-0.046860058
33,0.04310074
34,0.0028932337
35,0.030945454
36,0.017563576
37,-0.0065384596
38,0.017912706
39,0.024500446
40,0.038683143
41,0.028810069
42,-0.046193816
43,-0.030014358
44,-0.042076863
45,-0.06448868
46,0.021926185
47,0.022744589
48,-0.03825451
49,-0.0682002
50,-0.065648735
51,-0.012255426
52,0.01976695
53,0.04218997
54,0.019261152
55,0.03220354
56,0.01042744
57,0.027015062
58,0.019123921
59,0.05558488
60,0.015912434
61,0.047048893
62,-0.05426662
63,0.029376525
64,0.03775607
65,0.048757575
66,0.040289167
67,0.012894577
68,0.071477875
69,-0.039469454
70,-0.0077158906
71,-0.017511373
72,-0.15037787
73,0.040182196
74,-0.073754035
75,0.032841556
76,0.03840673
77,0.00774171
78,0.034505274
79,-0.04938752
80,-0.0184395
81,-0.0006359962
82,0.039351974
83,-0.0638074
84,0.039099634
85,0.021362647
86,0.0020055482
87,0.030123811
88,-0.049205452
89,0.017656827
90,-0.016186269
91,0.028790772
92,-0.05465754
93,-0.016334578
94,0.047558427
95,0.043257505
96,-0.021304436
97,0.029115468
98,0.009260909
99,0.011285378
100,0.01262116
101,0.005934418
102,-0.0021648537
103,-0.04482801
104,-0.050263252
105,-0.0011985998
106,0.08067149
107,0.002978454
108,0.015799101
109,-0.07357011
110,-0.001361952
111,0.02771584
112,-0.059643663
113,0.013281434
114,-0.060276378
115,0.046881855
116,0.0174391
117,-0.011954954
118,0.041018825
119,0.032601874
120,0.027056705
121,-0.058331043
122,-0.007538705
123,0.033866193
124,0.052104715
125,0.041914046
126,-0.0066974256
127,-0.046426807
128,0.026572179
129,-0.06380727
130,0.049607832
131,0.021909202
132,0.03599027
133,0.03950199
134,0.046954896
135,0.026837688
136,0.050276205
137,0.03564689
138,0.013730485
139,0.045114
140,-0.035872225
141,0.047430605
142,0.040435404
143,0.013951259
144,0.04189781
145,0.04370134
146,0.045843843
147,-0.065378666
148,0.04357377
149,0.036331948
150,0.031694517
151,-0.093158595
152,0.027592957
153,-0.02500867
154,0.045200184
155,-0.010617821
156,-0.086935855
157,-0.079293124
158,0.048989274
159,0.025557853
160,0.03154562
161,0.017360473
162,0.032784052
163,0.0021153872
164,0.007551045
165,-0.0262431
166,0.046673484
167,0.046214845
168,0.031926982
169,0.04215942
170,0.06361256
171,-0.033718634
172,-0.03862274
173,0.043047987
174,0.028467687
175,0.021516867
176,0.030255517
177,-0.06777142
178,0.07232604
179,-0.0050517567
180,0.032450903
181,0.042317946
182,-0.021650176
183,0.04293367
184,-0.07811943
185,0.022381369
186,0.044660382
187,-0.09643626
188,0.010677978
189,0.042016488
190,-0.04903912
191,0.04837093
192,0.0029929231
193,0.050717168
194,0.0754792
195,-0.07599068
196,-0.07195774
197,0.032691725
198,0.048734907
199,0.063654825
200,-0.041852027
201,-0.0030067302
202,0.023288708
203,0.08152287
204,0.040702805
205,0.013112376
206,0.019312136
207,0.049611565
208,0.067409486
209,-0.06719605
210,0.032978225
211,0.028398532
212,0.0155171575
213,0.03952426
214,0.05728849
215,0.066224165
216,0.10568167
217,0.0486433
218,0.025508013
219,0.0471549
220,0.057202373
221,0.06274533
222,-0.08988404
223,0.029492345
224,-0.020879636
225,0.033257384
226,0.04391987
227,0.049367968
228,0.041917123
229,0.020760896
230,0.038703244
231,0.04009812
232,0.051238444
233,0.0014569256
234,-0.09773403
235,-0.002562365
236,0.028221043
237,0.04363989
238,0.045215193
239,0.035195958
240,-0.05928981
241,0.053261276
242,0.05680149
243,0.03580252
244,0.09682652
245,0.08432115
246,0.02214464
247,-0.07398531
248,0.0064731343
249,-0.05846796
250,-0.090437405
251,0.04170036
252,0.051658146
253,0.00016776365
254,-0.079817265
255,0.04954437
256,0.02875451
257,-0.065559305
258,-0.0024439401
259,0.0350628
260,0.06424088
261,0.03702354
262,0.035588227
263,0.022884265
264,0.038889643
265,0.043420523
266,0.034345686
267,-0.0001871885
268,-0.05414421
269,0.032294255
270,0.015373781
271,0.026832698
272,-0.0030633127
273,0.05107072
274,-0.07750455
275,-0.046960566
276,0.0002526159
277,0.032231826
278,0.04791856
279,-0.07708033
280,-0.0023861232
281,-0.04940555
282,-0.013788841
283,0.008255843
284,0.078382276
285,-0.07948224
286,0.037026964
287,0.045661803
288,0.03220862
289,0.011193496
290,0.029338026
291,0.047400862
292,-0.037247617
293,-0.017451316
294,0.023887685
295,0.020672528
296,0.0007871955
297,0.039430432
298,0.053412847
299,-0.14010729
300,-0.053409625
301,0.044023808
302,0.036134444
303,-0.0069134976
304,0.046299227
305,0.05821666
306,-0.065453134
307,-0.0026490632
308,0.021115767
309,-0.072291225
310,0.052903425
311,0.016095683
312,0.08944237
313,0.0025005913
314,0.019356262
315,-0.09615579
316,0.046260636
317,-0.0020062102
318,0.0807818
319,0.014354781
320,0.008865918
321,-0.08376131
322,-0.083203256
323,0.04656994
324,-0.04704578
325,0.028094599
326,0.047976706
327,-0.052846212
328,0.08046364
329,0.021557065
330,0.092380576
331,-0.079463415
332,0.011948462
333,0.027427146
334,0.02268976
335,0.03815595
336,-0.0652452
337,0.0551675
338,0.019580666
339,0.03264037
340,0.03588822
341,0.035387326
342,0.054112658
343,-0.013379163
344,0.049773075
345,0.05141087
346,0.009217612
347,-0.069593854
348,0.054408893
349,-0.059280567
350,-0.08987138
351,0.020602832
352,0.034119338
353,0.021408303
354,0.045556646
355,-0.05588067
356,0.03272509
357,0.009827099
358,0.036729533
359,0.037210066
360,0.037890173
361,0.0034588147
362,0.011247589
363,0.016043274
364,0.020117244
365,0.050849847
366,0.032836422
367,0.0077692615
368,0.005134571
369,0.040853042
370,0.052706044
371,0.013945393
372,-0.07856533
373,-0.08084027
374,0.011537402
375,0.052598834
376,0.03580538
377,0.070245996
378,-0.091006
379,-0.05807393
380,0.038045254
381,0.0034975826
382,0.07713349
383,0.024148783
384,0.03896245
385,0.09460204
386,0.018068451
387,0.020246424
388,0.00793034
389,0.056740228
390,0.03011661
391,0.027824655
392,0.036331978
393,-0.05747674
394,0.029311694
395,0.022796549
396,-0.07127209
397,0.042964697
398,-0.02954091
399,0.021780023
400,-0.031265784
401,0.039192848
402,-0.0684545
403,-0.065848686
404,-0.045857042
405,-0.056614965
406,-0.05164582
407,0.016602887
408,-0.017533341
409,-0.076725364
410,-0.058607265
411,0.033560567
412,-0.08826883
413,-0.07017362
414,0.00050121825
415,0.018170796
416,0.02819557
417,-0.052312676
418,-0.043734685
419,0.03254466
420,0.030583402
421,-0.047352824
422,-0.039462723
423,-0.017609883
424,0.020933183
425,0.02406541
426,0.039396007
427,0.11105856
428,-0.05366648
429,0.015506629
430,0.047103222
431,-0.008954541
432,0.055115633
433,-0.06808055
434,0.054786965
435,-0.0042163613
436,0.007827822
437,-0.071694106
438,-0.04954044
439,0.010045586
440,-0.041297145
441,-0.011215944
442,0.026019976
443,0.0045715044
444,0.03881039
445,-0.011873563
446,0.08479916
447,0.010996898
448,0.04374084
449,-0.0838112
450,-0.0015433311
451,0.0630639
452,-0.049506973
453,0.045318447
454,0.04727181
455,0.046026386
456,0.0072188093
457,-0.0051639103
458,0.045429353
459,-0.0059416974
460,0.00028352047
461,0.02522485
462,0.012560028
463,0.023085834
464,-0.07528193
465,0.06384882
466,-0.019079108
467,-0.012355906
468,0.05482531
469,0.0009685537
470,-0.061076112
471,-0.058592007
472,0.025468709
473,0.017705582
474,0.02702857
475,0.010342678
476,-0.043923613
477,0.043429554
478,0.03024555
479,0.013553571
480,-0.03687131
481,-0.004365648
482,-0.05850244
483,-0.0129226865
484,0.022782052
485,0.01782572
486,-0.06965608
487,0.03977968
488,-0.049540598
489,-0.083649226
490,-0.020646885
491,0.04155007
492,0.028067416
493,-0.038358744
494,0.021659698
495,-0.04692195
496,0.067815594
497,-0.063218966
498,-0.060385685
499,0.025043258
500,-0.07852331
501,-0.080965884
502,-0.04716712
503,-0.07416714
504,0.047364134
505,0.053749684
506,0.0683717
507,0.026594844
508,-0.0397562
509,0.0006975953
510,-0.07994349
511,-0.04623732
512,-0.043084584
513,-0.064568385
514,0.0051620933
515,-0.04002319
516,0.0043115215
517,0.05192178
518,-0.04703112
519,0.006772582
520,0.03505721
521,-0.05750046
522,-0.04446431
523,0.048858177
524,-0.062330075
525,-0.032069463
526,0.003332896
527,-0.052549426
528,-0.035779048
529,0.026956437
530,-0.037264176
531,0.07783368
532,0.017039465
533,-0.060237084
534,-0.026712982
535,-0.093578115
536,-0.013801235
537,-0.07692915
538,-0.058412798
539,-0.053392213
540,-0.087902986
541,0.05777222
542,-0.02767245
543,-0.024406878
544,0.039076198
545,-0.053758923
546,-0.045037843
547,0.025219096
548,-0.043965753
549,-0.05252337
550,-0.004695473
551,-0.03539968
552,0.011490245
553,-0.06354675
554,0.04309368
555,0.08295412
556,0.06876259
557,0.022219706
558,0.03169678
559,-0.03831958
560,-0.038708743
561,0.066591784
562,-0.065634795
563,-0.0032277238
564,-0.0023939174
565,-0.0087899165
566,0.022969019
567,-0.047686726
568,-0.024673577
569,-0.013672811
570,0.027538842
571,-0.096455514
572,0.0220206
573,0.010796996
574,-0.04002201
575,0.018529784
576,-0.044869013
577,0.06006747
578,-0.056863036
579,0.058865868
580,-0.012804943
581,-0.03713632
582,-0.034999825
583,0.035897076
584,0.126754
585,-0.00934838
586,-0.044802066
587,-0.08498153
588,-0.040346153
589,0.032145828
590,0.03088049
591,-0.03740566
592,0.0059770797
593,0.06798866
594,-0.025301112
595,-0.026004342
596,-0.009974412
597,-0.007451455
598,-0.06065653
599,-0.0026902084
600,0.001739737
601,0.004905478
602,0.023567295
603,-0.06976631
604,-0.054265678
605,0.040892113
606,0.03175624
607,-0.02899201
608,0.05970188
609,-0.002088486
610,0.0664006
611,-0.048019487
612,0.0012185395
613,-0.023839705
614,-0.06965377
615,-0.044882197
616,0.020727895
617,-0.08375912
618,-0.110994786
619,0.035880998
620,-0.04478929
621,0.028643595
622,0.016227331
623,-0.046999313
624,-0.013821006
625,-0.06341786
626,-0.055895105
627,-0.024127485
628,0.017730162
629,-0.08095344
630,-0.01589221
631,-0.07397994
632,-0.023250641
633,0.049706135
634,-0.09023753
635,0.0110679325
636,-0.03493073
637,-0.03942332
638,-0.079609334
639,0.054179702
640,-0.043030065
641,-0.06534586
642,0.012931172
643,0.008578269
644,0.01079551
645,-0.054749977
646,-0.046454523
647,-0.022700218
648,-0.009383164
649,-0.057888646
650,-0.04632584
651,0.019601235
652,0.0658819
653,-0.05563268
654,-0.016265478
655,-0.033443324
656,-0.034864485
657,0.0032638763
658,-0.013162985
659,-0.06576626
660,0.036523167
661,0.046796486
662,-0.0102592325
663,-0.07293635
664,-0.0091987
665,0.07639428
666,0.008591734
667,-0.053243276
668,-0.08388808
669,-0.07969606
670,-0.029868985
671,0.050645687
672,-0.039416566
673,-0.054325435
674,-0.044757172
675,-0.0027052746
676,0.015099499
677,-0.053071152
678,-0.013005261
679,-0.07210689
680,-9.938995e-05
681,-0.025081778
682,0.05067629
683,0.039918404
684,-0.053971924
685,0.019816976
686,-0.025149854
687,0.0424889
688,-0.033674568
689,-0.06694636
690,-0.065394394
691,-0.00023774063
692,0.010062692
693,-0.03229128
694,5.9136706e-05
695,-0.0023515252
696,-0.027335422
697,-0.011443083
698,-0.05128169
699,0.009106309
700,-0.013468808
701,-0.012126176
702,-0.03836634
703,0.024802437
704,-0.006661835
705,0.05446055
706,0.002382671
707,-0.075810686
708,-0.07190008
709,-0.04841595
710,-0.035134867
711,-0.0346348
712,-0.0077407644
713,-0.010059898
714,0.041646704
715,0.02115423
716,-0.040247593
717,-0.018951302
718,-1.0499658e-05
719,-0.04905441
720,-0.049354523
721,-0.06723184
722,-0.025666641
723,-0.0058788005
724,-0.02952986
725,-0.014290896
726,-0.061152354
727,-0.058926314
728,-0.04903689
729,0.015785355
730,0.045879968
731,-0.031457797
732,0.070576005
733,-0.059299946
734,-0.077035874
735,-0.020826783
736,0.05351228
737,-0.002423115
738,-0.042388964
739,0.0358858
740,0.00046300417
741,-0.02938582
742,-0.0695244
743,-0.04449418
744,-0.049554713
745,0.07268715
746,-0.08783019
747,-0.016365042
748,-0.046697054
749,-0.012263314
750,0.021836154
751,-0.0483108
752,-0.023012383
753,-0.06340693
754,-0.06038692
755,-0.008290979
756,-0.06745189
757,-0.080925815
758,-0.011579148
759,-0.01791379
760,-0.02671157
761,0.052419618
762,0.06963983
763,-0.058046572
764,-0.0091680195
765,-0.04065701
766,-0.007684841
767,-0.0311443
768,-0.042812273
769,-0.06470226
770,0.011824081
771,-0.03959117
772,-0.051142335
773,-0.03131788
774,-0.046219237
775,-0.03360985
776,-0.008829953
777,-0.05790774
778,-0.04638653
779,0.040740266
780,0.07926367
781,-0.055904206
782,-0.012636514
783,-0.03399572
784,-0.036004756
785,0.004200337
786,0.00818496
787,-0.027827147
788,0.0160363
789,-0.06061747
790,-0.030022245
791,-0.035610866
792,-0.009242622
793,-0.076994464
794,-0.0009089082
795,-0.05520482
796,-0.08806581
797,-0.049177986
798,0.0021488043
799,-0.049713783
800,-0.038980525
801,-0.05263515
802,-0.04473771
803,0.05636259
804,0.020614658
805,-0.04785844
806,-0.0016548077
807,-0.03263913
808,0.021610158
809,0.0022657737
810,-0.00032665962
811,0.049281627
812,-0.0533842
813,0.025470603
814,-0.014107599
815,-0.051993974
816,-0.03852061
817,-0.024852019
818,-0.0042039515
819,-0.0015533494
820,0.010533222
821,-0.047612943
822,0.00028239144
823,0.024291087
824,-0.045984723
825,0.00047171203
826,-0.051364653
827,-0.07449593
828,0.007209036
829,0.0024206706
830,-0.05388128
831,-0.051930737
832,-0.003605709
833,-0.0774447
834,-0.03449481
835,-0.07584579
836,-0.008970839
837,-0.048201654
838,-0.03510432
839,-0.05245063
840,-0.028107498
841,-0.005707571
842,0.013677727
843,0.008478426
844,-0.039959345
845,0.00038226525
846,-0.041045275
847,-0.049289815
848,-0.07429927
849,-0.067237556
850,-0.044447463
851,-0.033563104
852,-0.0051052314
853,-0.01499257
854,-0.060874704
855,-0.058721635
856,-0.048960224
857,0.012610716
858,0.012656175
859,-0.05308833
860,-0.05505401
861,-0.032419108
862,-0.08921193
863,0.0022102362
864,0.057870016
865,0.004999595
866,-0.037500028
867,-0.011232624
868,0.018284716
869,0.018761441
870,0.06926747
871,-0.04491881
872,-0.036277805
873,-0.016826846
874,-0.082887195
875,-0.010630897
876,-0.045883458
877,-0.0356985
878,0.02029618
879,-0.047482684
880,0.106998056
881,-0.06329666
882,-0.06029
883,-0.0034222924
884,-0.07820312
885,0.06513154
886,-0.016107336
887,-0.07371718
888,-0.018762153
889,-0.058102075
890,-0.091003455
891,-0.057914857
892,-0.006194478
893,-0.043551352
894,0.08003694
895,-0.04630147
896,-0.04189273
897,-0.018443491
898,-0.023718534
899,-0.033684094
900,0.008701106
901,0.08091983
902,-0.046217605
903,0.008623273
904,-0.007171052
905,-0.057218768
906,-0.04514792
907,-0.13227825
908,-0.010804797
909,-0.046502005
910,-0.02388123
911,-0.0037808279
912,-0.034850687
913,-0.04466681
914,-0.1250854
915,-0.065380074
916,-0.045973547
917,-0.060429357
918,0.0017724016
919,-0.05455863
920,-0.040076777
921,-0.04924992
922,-0.04082221
923,-0.0545453
924,-0.036848955
925,-0.020306602
926,-0.046627592
927,-0.026793001
928,-0.038686708
929,-0.054106973
930,-0.021119483
931,-0.036496997
932,0.013223318
933,-0.07910339
934,-0.03916424
935,0.047731154
936,-0.13440222
937,-0.0013798494
938,-0.051582005
939,0.035609104
940,-0.053471446
941,0.037537638
942,-0.04015958
943,-0.051860712
944,-0.03852249
945,-0.066646956
946,-0.06546029
947,0.0008457332
948,-0.047231447
949,-0.028820701
950,-0.0171916
951,0.0194904
952,-0.04274752
953,-0.044036396
954,-0.05162952
955,-0.049438678
956,-0.038733963
957,-0.04536706
958,-0.004217045
959,-0.04645223
960,-0.004101444
961,-0.07642154
962,-0.036607023
963,-0.07611852
964,-0.07196813
965,-0.048067596
966,-0.03528392
967,-0.02970239
968,-0.028051816
969,-0.04146713
970,-0.07376414
971,-0.0356483
972,-0.016739344
973,-0.042216163
974,-0.02434134
975,-0.004833027
976,-0.01910742
977,-0.06723854
978,-0.042019185
979,0.061176244
980,0.096173964
981,-0.0134093575
982,-0.061141025
983,-0.05871204
984,-0.019540058
985,-0.04892494
986,-0.045251824
987,-0.043440882
988,0.00922348
989,-0.05081379
990,-0.08991254
991,-0.047594987
992,-0.03027736
993,0.006042499
994,-0.05832427
995,-0.055013552
996,-0.03837645
997,-0.045942105
998,-0.0676349
999,-0.04443768
1000,-0.020754345
1001,-0.084042914
1002,0.07751721
1003,0.06706674
1004,-0.032851916
1005,0.0074990145
1006,-0.049963187
1007,-0.047742438
1008,0.006692089
1009,-0.027576597
1010,-0.06028287
1011,-0.023966918
1012,-0.06376404
1013,-0.04230691
1014,-0.0005295772
1015,-0.01814683
1016,-0.041988757
1017,-0.058089275
1018,-0.071211934
1019,-0.048660994
1020,-0.050538216
1021,0.028064523
1022,-0.059048273
1023,-0.046433803
1024,-0.04107399
1025,-0.031055469
1026,-0.011384764
1027,-0.039760645
1028,0.08779946
1029,0.03808759
1030,-0.046507295
1031,0.030492175
1032,-0.029109068
1033,-0.03175048
1034,-0.04621864
1035,0.048856247
1036,-0.10267648
1037,-0.035488613
1038,-0.053581834
1039,0.00170973
1040,-0.03534563
1041,-0.044526532
1042,-0.018338857
1043,-0.065129206
1044,-0.040250346
1045,-0.060210932
1046,0.021667402
1047,-0.029010622
1048,-0.009344563
1049,-0.048452653
1050,-0.032923326
1051,-0.020578021
1052,-0.038140114
1053,-0.04951262
1054,-0.046068314
1055,-0.034603927
1056,-0.038907122
1057,-0.053719163
1058,-0.006965391
1059,-0.026468476
1060,0.019918906
1061,0.07376924
1062,-0.03855236
1063,-0.017819459
1064,0.0012304484
1065,-0.052765753
1066,-0.053978432
1067,0.004402243
1068,-0.05341926
1069,-0.048896905
1070,-0.027863057
1071,-0.05190317
1072,-0.038281024
1073,-0.04041475
1074,-0.042455778
1075,-9.0468224e-05
1076,-0.02935081
1077,-0.01553299
1078,-0.017576259
1079,-0.007205682
1080,-0.05311436
1081,-0.049759317
1082,-0.0514044
1083,-0.089906715
1084,-0.039373275
1085,-0.04510149
1086,-0.0025089968
1087,-0.026286118
1088,0.013366291
1089,-0.075052716
1090,-0.053334296
1091,-0.075837635
1092,-0.04558944
1093,-0.04812263
1094,-0.035226706
1095,-0.022880984
1096,-0.03381451
1097,-0.041003685
1098,-0.045331758
1099,-0.00052820344
1100,-0.040239107
1101,-0.0036460408
1102,-0.043689817
1103,0.048207063
1104,-0.0007492169
1105,-0.067113325
1106,-0.0447383
1107,0.015443565
1108,-0.026542857
1109,-0.047984056
1110,-0.0610618
1111,-0.05868214
1112,0.01934204
1113,-0.05026462
1114,-0.04495175
1115,-0.023263715
1116,-0.01721953
1117,-0.056393836
1118,-0.09005775
1119,-0.049784314
1120,-0.04224521
1121,0.015626607
1122,-0.058527894
1123,-0.048251756
1124,-0.03737788
1125,-0.059108213
1126,-0.069887586
1127,-0.044428293
1128,-0.02118264
1129,-0.0453235
1130,0.03541284
1131,0.00049144146
1132,-0.0245774
1133,0.009556988
1134,-0.04001542
1135,-0.043633983
1136,-0.023616625
1137,-0.03419395
1138,-0.060223646
1139,0.009371625
1140,-0.040624432
1141,-0.0462299
1142,0.007072047
1143,-0.043339442
1144,-0.041305654
1145,-0.058075096
1146,-0.09052497
1147,-0.0582126
1148,-0.016318236
1149,-0.020269714
1150,-0.059278026
1151,-0.046377234
1152,-0.031841062
1153,-0.0062067276
1154,-0.045538966
1155,-0.03891839
1156,0.05267098
1157,-0.030348776
1158,-0.03568
1159,-0.06095811
1160,0.07359913
1161,-0.021302653
1162,-0.04509559
1163,-0.037023693
1164,-0.023475155
1165,-0.031697948
1166,-0.054110024
1167,-0.02738468
1168,-0.030061934
1169,-0.044476014
1170,-0.022544624
1171,-0.03500158
1172,-0.039390698
1173,-0.058793094
1174,0.009187426
1175,0.0037719193
1176,0.11037556
1177,-0.04148155
1178,0.05262968
1179,-0.041066065
1180,-0.01837554
1181,-0.045085493
1182,-0.008889126
1183,-0.041558933
1184,-0.040250603
1185,-0.038132265
1186,0.00013678487
1187,0.06984299
1188,-0.004609428
1189,-0.052525777
1190,-0.0384278
1191,-0.026057187
1192,0.024735617
1193,-0.11261001
1194,-0.052079555
1195,-0.01654433
1196,-0.030002093
1197,0.019466322
1198,-0.030671056
1199,-0.05181471
1200,-0.03819399
1201,-0.06468003
1202,-0.0019083961
1203,0.0011925376
1204,-0.006311527
1205,-0.012094779
1206,0.000776266
1207,-0.02521641
1208,-0.011570133
1209,-0.039769575
1210,-0.05144413
1211,-0.059563268
1212,-0.03830734
1213,-0.022704061
1214,-0.023728516
1215,-0.021456541
1216,-0.04034278
1217,-0.06627862
1218,0.067542456
1219,-0.06464926
1220,-0.041930947
1221,-0.048086494
1222,-0.035102636
1223,-0.03235514
1224,-0.03404641
1225,-0.0355895
1226,-0.03788393
1227,-0.03856132
1228,-0.040305745
1229,-0.013920577
1230,-0.043416627
1231,-0.034680177
1232,-0.0040349094
1233,-0.052896168
1234,-0.042583738
1235,-0.020398999
1236,-0.014930021
1237,-0.0056883423
1238,-0.024371032
1239,-0.025789127
1240,-0.049030673
1241,-0.04869064
1242,-0.0453655
1243,-0.004569404
1244,-0.025987977
1245,-0.054055646
1246,-0.06513277
1247,-0.029632954
1248,0.045429196
1249,-0.02088729
1250,-0.058568664
1251,-0.04767657
1252,-0.025952145
1253,-0.0109715
1254,-0.054594185
1255,-0.044747744
1256,-0.036425397
1257,-0.025916751
1258,0.011664889
1259,0.029710967
1260,-0.035691388
1261,-0.039928693
1262,-0.007947579
1263,-0.017564086
1264,0.0015124377
1265,-0.026354171
1266,-0.015220136
1267,-0.035406973
1268,-0.04019089
1269,-0.031010991
1270,-0.016410034
1271,0.014868406
1272,-0.008533217
1273,-0.058128458
1274,-0.07019962
1275,-0.049279395
1276,0.04477193
1277,-0.029187677
1278,-0.07451174
1279,-0.046330303
1280,-0.031214789
1281,-0.0027215576
1282,-0.005297428
1283,-0.02153536
1284,-0.005484382
1285,0.002936151
1286,-0.025305638
1287,0.05178159
1288,0.05266179
1289,-0.008091064
1290,-0.0461053
1291,-0.023157755
1292,-0.0052375197
1293,-0.021555003
1294,-0.042236
1295,-0.013333759
1296,-0.031121217
1297,0.0063748416
1298,-0.016841931
1299,-0.030317215
1300,-0.03822999
1301,-0.051819853
1302,-0.010277573
1303,-0.0072713117
1304,0.013165182
1305,-0.040925458
1306,0.03443619
1307,-0.043581963
1308,0.0038412502
1309,-0.029420657
1310,-0.0087308325
1311,-0.04162652
1312,-0.029421115
1313,-0.014880571
1314,-0.0076923086
1315,-0.030327883
1316,-0.009768208
1317,-0.036576085
1318,0.03161661
1319,-0.010620145
1320,0.020118717
1321,0.03807265
1322,-0.033712234
1323,0.01294301
1324,-0.039684683
1325,0.0054475856
1326,-0.03255825
1327,-0.05128994
1328,-0.03712821
1329,-0.06458069
1330,-0.011633688
1331,0.00242666
1332,0.014200871
1333,0.02979613
1334,-0.0234052
1335,-0.009309599
1336,-0.02559274
1337,-0.033846196
1338,-0.04018306
1339,-0.056755926
1340,0.009962483
1341,0.014727807
1342,-0.025137648
1343,0.006047169
1344,-0.037068058
1345,-0.044725575
1346,-0.0177185
1347,-0.04201741
1348,-0.037663672
1349,-0.040335752
1350,-0.03489932
1351,-0.025458176
1352,-0.0323396
1353,0.0401368
1354,-0.03789628
1355,-0.036947858
1356,-0.008264923
1357,-0.007675783
1358,-0.031992376
1359,-0.027305273
1360,0.0001264645
1361,-0.044458702
1362,-0.014534106
1363,-0.008125609
1364,0.003605394
1365,0.0052773515
1366,-0.033208206
1367,-0.0014903866
1368,-0.02061495
1369,0.027694644
1370,-0.037360895
1371,-0.020679576
1372,-0.041874755
1373,-0.044248767
1374,-0.05410524
1375,0.057787992
1376,0.005298135
1377,0.03832583
1378,-0.057904486
1379,-0.04125201
1380,0.021644736
1381,0.0061100414
1382,-0.041003216
1383,-0.044634778
1384,-0.028797364
1385,-0.046243835
1386,-0.01260689
1387,-0.018690085
1388,-0.018590257
1389,-0.012138772
1390,0.018173246
1391,-0.025082078
1392,-0.025297668
1393,-0.021334693
1394,-0.016841484
1395,0.03724359
1396,-0.027688554
1397,-0.01584579
1398,-0.011848799
1399,0.02039327
1400,0.00016391074
1401,-0.058285452
1402,-0.049336474
1403,-0.043634135
1404,0.04116296
1405,-0.020746274
1406,-0.03404731
1407,-0.046562046
1408,-0.0026614415
1409,0.0031766833
1410,0.0013754637
1411,-0.01434694
1412,-0.005847098
1413,-0.0017047317
1414,-0.012904804
1415,0.0048876978
1416,-0.011620194
1417,-0.006833999
1418,0.010006823
1419,0.0048329015
1420,0.015309297
1421,-0.008816414
1422,0.014564815
1423,-0.01595372
1424,-0.015348548
1425,0.0051933313
1426,0.0018116795
1427,-0.0025828714
1428,-0.0010957482
1429,0.00091845397
1430,-0.014883568
1431,0.004296635
1432,0.015052211
1433,-0.0005780119
1434,0.02547651
1435,-0.009779764
1436,0.0047149383
1437,-0.0023286105
1438,0.019037763
1439,0.0057100933
1440,0.0072413413
1441,0.011314551
1442,-0.00022946123
1443,0.010385983
1444,0.0026747205
1445,-0.0052995104
1446,0.01176487
1447,-0.012690601
1448,0.0050895587
1449,0.01638876
1450,0.007343719
1451,-0.00072035345
1452,0.017305924
1453,0.0073658847
1454,-0.000783635
1455,-0.0005144426
1456,-0.013311088
1457,0.0034772968
1458,0.003735563
1459,-0.0048894635
1460,-0.0081524765
1461,-0.007313819
1462,0.01902282
1463,0.0064452346
1464,0.0054759025
1465,-0.0030370075
1466,0.008347531
1467,-0.0053264736
1468,0.003916004
1469,-0.009557231
1470,0.00030290993
1471,0.0070343344
1472,0.0074459114
1473,0.008267351
1474,0.009250735
1475,-0.0103361765
1476,-0.010482762
1477,-0.012102463
1478,-3.70005e-05
1479,-0.00051463436
1480,0.0021558653
1481,0.013718827
1482,-0.000279331
1483,-0.003909689
1484,-0.006410756
1485,-0.011151946
1486,-0.0060021468
1487,-0.020994207
1488,-0.0068948525
1489,-0.010257695
1490,0.00642272
1491,-0.0035733033
1492,0.016810453
1493,0.018625474
1494,-0.016814394
1495,-0.004287758
1496,0.014242743
1497,-0.0069250558
1498,-0.0071020676
1499,-0.01009722
1500,0.0076888236
1501,0.011543834
1502,-0.005611861
1503,-0.00503649
1504,-0.005982737
1505,-0.0004616504
1506,0.009820773
1507,-0.014197163
1508,-0.0030356036
1509,0.0019119636
1510,-0.0092296805
1511,-0.017777031
1512,-0.017250348
1513,0.00727801
1514,-0.0043179775
1515,0.00058290205
1516,0.0007478745
1517,0.002403421
1518,0.016570758
1519,0.0014355772
1520,-0.0077762264
1521,0.0020742877
1522,0.0012226771
1523,0.015928702
1524,-0.020701654
1525,0.0026918119
1526,-0.016782159
1527,0.0037664522
1528,0.015938738
1529,-0.018127965
1530,-0.0052145515
1531,-0.0062062363
1532,-0.009589143
1533,-0.0069429553
1534,-0.014823845
1535,0.0050513106
1536,-0.0053118095
1537,0.007076766
1538,0.0042981254
1539,0.0023171275
1540,0.00024149203
1541,-0.004946842
1542,-0.008275237
1543,0.01021669
1544,-0.009582409
1545,-0.0007337699
1546,0.007664991
1547,0.006552248
1548,-0.002963353
1549,-0.014535212
1550,0.008454914
1551,0.008877558
1552,0.003818422
1553,-0.005437223
1554,0.0105094435
1555,-0.0007154612
1556,-0.012845435
1557,0.012853887
1558,-0.0063028787
1559,0.008223487
1560,-0.0037361614
1561,0.0021370074
1562,0.0008836594
1563,-0.002908266
1564,-0.011490055
1565,-0.011044652
1566,-0.013897374
1567,0.0043945597
1568,-0.0016624865
1569,-0.005162187
1570,0.0003542625
1571,-0.007441468
1572,0.008430487
1573,-0.0009351217
1574,-0.0033248942
1575,0.003151532
1576,0.007861213
1577,0.0044054277
1578,0.0011178552
1579,0.0024693857
1580,-0.014072035
1581,0.0026039602
1582,0.0023257153
1583,0.0028339964
1584,0.017475894
1585,-0.008832486
1586,0.011125662
1587,0.0017620192
1588,-0.003549534
1589,-0.0023563507
1590,0.0067925653
1591,-0.002059958
1592,0.010248448
1593,-0.0034989547
1594,0.005626524
1595,0.002091596
1596,0.00023145908
1597,0.00024875376
1598,0.012525088
1599,-0.0073073697
1600,-0.004027697
1601,-0.018766506
1602,0.0003051936
1603,-0.010494566
1604,0.0070852395
1605,-0.007887754
1606,-0.002602769
1607,-0.0068773087
1608,0.018193109
1609,0.0056399503
1610,-0.012577155
1611,0.010227822
1612,-0.019094007
1613,0.011375699
1614,0.0042648856
1615,-0.010975921
1616,0.0070028924
1617,0.0019916743
1618,0.012069698
1619,-0.016956609
1620,0.01400637
1621,0.0076911533
1622,0.005730765
1623,-0.0011479545
1624,0.0008751338
1625,0.0016684865
1626,-0.005524504
1627,-0.0032776764
1628,0.013445284
1629,-0.00038044236
1630,-0.000380409
1631,-0.0025167603
1632,-0.00035718206
1633,5.184229e-05
1634,-0.0018131591
1635,0.00054501166
1636,-0.015592785
1637,-0.003414904
1638,-0.0051041786
1639,0.0034310569
1640,-0.0016094922
1641,0.0029970172
1642,0.009124169
1643,-0.0022739773
1644,-0.004507869
1645,0.0012630455
1646,-0.0045753145
1647,-0.00087927014
1648,0.0013168398
1649,0.011776584
1650,-0.014353984
1651,-0.014815502
1652,0.0071521853
1653,0.016456407
1654,0.00066154357
1655,-0.018697726
1656,0.0029756736
1657,-0.0027127278
1658,0.00978333
1659,-0.009129475
1660,0.0042908406
1661,-0.0018876235
1662,-0.019865764
1663,-0.00069914863
1664,-0.017650481
1665,0.0014311865
1666,0.015285353
1667,-0.006214924
1668,-0.014354289
1669,0.007848273
1670,0.0075633
1671,-0.0022181554
1672,0.010679855
1673,0.015355295
1674,0.002257129
1675,0.004591998
1676,0.010424876
1677,-0.012234501
1678,-0.0024512412
1679,0.0026921101
1680,-0.0050244187
1681,-0.00401444
1682,-0.016932156
1683,-0.012033638
1684,-0.015709091
1685,0.0066984384
1686,-0.006926942
1687,0.0064078635
1688,-0.014211465
1689,-0.013867934
1690,0.014829912
1691,-0.01367821
1692,0.01840376
1693,0.00769238
1694,0.007607343
1695,-0.0032394
1696,-0.00020934531
1697,-0.008082594
1698,0.0051663825
1699,-0.00021022881
1700,0.0055592773
1701,0.0020532338
1702,-0.0054091476
1703,0.009231692
1704,0.011610354
1705,0.0038084784
1706,-0.0002149894
1707,0.011792306
1708,0.0029901722
1709,0.0029318146
1710,0.0077954233
1711,0.00068508595
1712,0.0010865966
1713,-0.0069400906
1714,0.0122398995
1715,-0.005943139
1716,-0.00947055
1717,0.010009853
1718,0.0021644782
1719,-0.005720661
1720,-0.016682168
1721,-0.012957563
1722,-0.008287446
1723,-0.0078093694
1724,0.0052119773
1725,-0.00017867058
1726,-0.00043197058
1727,0.014633935
1728,-0.0007109991
1729,-0.0062506846
1730,-0.007234104
1731,0.0032333543
1732,-0.009274084
1733,-0.005907493
1734,-0.013367265
1735,0.010323629
1736,0.00069192785
1737,-0.0043610292
1738,0.012373967
1739,-0.00032993578
1740,-0.019491034
1741,0.017461926
1742,-0.0076667434
1743,0.010929806
1744,0.0055771046
1745,-1.2124515e-07
1746,0.004420554
1747,0.009492997
1748,-0.011824504
1749,-0.0008716235
1750,0.0023118295
1751,-0.013069516
1752,0.002854785
1753,0.011903399
1754,0.009741153
1755,0.0014801235
1756,0.018109886
1757,0.0073007625
1758,-0.0031150605
1759,-0.0032162457
1760,0.006556835
1761,0.00021540215
1762,0.008325341
1763,-0.008095306
1764,-0.010875811
1765,0.004307672
1766,0.013222125
1767,-0.006597271
1768,-0.003599411
1769,-0.0060350862
1770,0.013549947
1771,0.0031809031
1772,-0.0064508454
1773,0.012540196
1774,-0.0010837034
1775,-0.0056064473
1776,0.013495275
1777,0.0009780123
1778,-0.012931863
1779,-0.00020031878
1780,-0.0069823894
1781,0.0012800943
1782,-0.006651092
1783,0.0020658793
1784,0.008846146
1785,0.010573053
1786,-0.0063778893
1787,0.0051497337
1788,-0.0070344475
1789,0.004946597
1790,0.019085484
1791,0.0074972007
1792,0.004075311
1793,-0.01642849
1794,-0.0032938633
1795,-0.00012034222
1796,0.0014190027
1797,0.00080790906
1798,0.016737768
1799,-0.0026582223
1800,-0.0016413603
1801,0.013638748
1802,0.001231664
1803,-0.00611931
1804,-0.004312448
1805,0.0065936106
1806,-0.0036128089
1807,0.0035735373
1808,0.004884428
1809,-0.0027573174
1810,-0.0027223225
1811,0.017527472
1812,-0.0026003947
1813,0.008905649
1814,-0.01742812
1815,0.00616773
1816,0.015640667
1817,0.013959882
1818,0.0093694925
1819,0.007518285
1820,-0.010266474
1821,0.004272769
1822,0.0071218624
1823,0.0095577
1824,-0.0069228653
1825,0.0135190245
1826,-0.015870191
1827,-0.0023782626
1828,0.007224526
1829,-0.0007419615
1830,0.015953826
1831,-0.007076178
1832,-0.0029935879
1833,-0.0025775558
1834,-0.005574304
1835,-0.00584796
1836,0.012600114
1837,0.014287166
1838,-0.0044770944
1839,0.002504844
1840,-0.011745543
1841,-0.010859849
1842,0.014448645
1843,-0.0004249286
1844,0.0024953925
1845,-0.009801749
1846,0.0060732374
1847,0.01031417
1848,-0.00077795784
1849,0.0041880063
1850,-0.00061342155
1851,-0.005378884
1852,-9.603653e-06
1853,0.00043694914
1854,0.0071612117
1855,-0.01494431
1856,-0.0024613268
1857,0.0008636423
1858,-0.0022320754
1859,-0.008393413
1860,-0.0035469877
1861,-0.013864439
1862,-0.016216736
1863,-0.011622463
1864,-0.008427081
1865,-0.008092799
1866,-0.010670042
1867,-0.011546797
1868,-0.00564182
1869,0.0027112039
1870,0.012497171
1871,0.0076953527
1872,-0.0009354499
1873,0.0016664718
1874,-0.0039173076
1875,-0.011138995
1876,-0.0025830525
1877,0.007364859
1878,-0.004173001
1879,0.0033596084
1880,0.0033392708
1881,0.0046596057
1882,0.0052989405
1883,-0.004453815
1884,0.003037334
1885,0.0028957836
1886,-0.007154927
1887,0.015767956
1888,0.0012060928
1889,0.014891501
1890,-0.009485422
1891,0.0012377815
1892,0.0043904725
1893,0.007649293
1894,-0.008344602
1895,-0.0119250845
1896,-0.008730979
1897,0.0042540478
1898,0.0011463175
1899,0.0084887855
1900,-0.008179468
1901,0.0090662865
1902,-0.0076444056
1903,0.0053988714
1904,-0.0029944421
1905,-0.0042826086
1906,-0.0062339674
1907,-0.01851667
1908,-0.0027568808
1909,0.013585733
1910,-0.004963389
1911,-0.0041838293
1912,-0.00023339424
1913,-0.01902936
1914,0.018885238
1915,0.012904268
1916,0.0055407803
1917,0.0071479585
1918,-0.0058675995
1919,0.014623422
1920,0.015291174
1921,-0.00056030555
1922,-0.010512707
1923,-0.008913744
1924,-0.013939422
1925,-0.009829261
1926,0.002820985
1927,-1.5262014e-05
1928,-0.004196539
1929,-0.004853653
1930,0.0035910783
1931,0.0036372726
1932,0.011647648
1933,0.00941388
1934,-0.005144246
1935,0.0002058021
1936,0.018494789
1937,0.003412739
1938,0.014746931
1939,0.0072760866
1940,0.00811206
1941,-0.0044280095
1942,-0.011403801
1943,0.008530597
1944,0.0059141493
1945,0.0037958324
1946,0.0019138501
1947,-0.014776763
1948,0.010301362
1949,0.0149668595
1950,0.001655708
1951,0.009972155
1952,-0.003126089
1953,4.728511e-05
1954,0.0014866617
1955,-0.004705325
1956,0.005495573
1957,0.005210174
1958,-0.006528053
1959,0.0085692
1960,0.0029789263
1961,0.009678633
1962,0.0013611085
1963,-0.0012934327
1964,0.0023081522
1965,-0.018155744
1966,2.6741325e-05
1967,0.012289837
1968,-0.0028539156
1969,0.00047856808
1970,0.009909492
1971,-0.0092569655
1972,-0.009799917
1973,0.012071147
1974,-0.008834268
1975,-0.0015992983
1976,0.00043021128
1977,0.012914029
1978,0.00544338
1979,0.016332401
1980,-0.018511662
1981,0.0011765313
1982,0.012575192
1983,-0.0028197279
1984,0.0012709318
1985,-0.002989612
1986,0.0004158092
1987,0.007921742
1988,0.007920688
1989,-0.014076318
1990,-0.0104936045
1991,0.008078302
1992,-0.017103693
1993,0.003749964
1994,-0.0036910826
1995,0.0060652737
1996,0.0023833371
1997,0.010599962
1998,0.0034451166
1999,0.0137408385
2000,0.0008301464
2001,-0.008292756
2002,-0.0045515713
2003,0.0038460258
2004,-0.013138896
2005,0.0068090265
2006,0.01888901
2007,0.015671851
2008,0.0065002185
2009,0.005517174
2010,0.001634642
2011,0.0062436257
2012,-0.007961774
2013,-0.009480534
2014,-0.0011105322
2015,0.012685944
2016,-0.00057209464
2017,-0.005671114
2018,0.0008667259
2019,0.0083057145
2020,0.011227462
2021,-0.0010709456
2022,0.0071272687
2023,0.016988806
2024,-0.0026681651
2025,-0.015695274
2026,0.0009089279
2027,0.007402295
2028,-0.010141668
2029,-7.8744815e-05
2030,-0.0030763757
2031,0.009610618
2032,-0.007432148
2033,-0.004845047
2034,-0.003715843
2035,-0.010199538
2036,0.017743353
2037,-0.0046194037
2038,0.0030391444
2039,-0.0030490076
2040,0.0029407504
2041,-0.0059855054
2042,-0.0075712237
2043,-0.0050762724
2044,0.004305797
2045,-0.0073925476
2046,0.0015391265
2047,-0.01986526
2048,-0.039672107
2049,0.01989443
2050,0.033726983
2051,0.02512601
2052,-0.004847868
2053,0.02556577
2054,-0.006801463
2055,0.02937733
2056,0.0020620779
2057,-0.0125886705
2058,-0.020418514
2059,0.042981643
2060,-0.030917717
2061,-0.05054436
2062,0.028783947
2063,0.033479244
2064,0.024881037
2065,-0.00011933323
2066,-0.07013546
2067,0.003848512
2068,0.021848662
2069,-0.017723693
2070,0.037125614
2071,-0.06250103
2072,0.033133112
2073,-0.017089708
2074,0.017098853
2075,0.0060439594
2076,-0.021351732
2077,-0.059453387
2078,0.02246898
2079,0.01446423
2080,0.038383484
2081,-0.0031440689
2082,0.0017295207
2083,0.018229492
2084,0.04189388
2085,-0.007442106
2086,0.027558364
2087,0.04542662
2088,0.012323405
2089,0.029549956
2090,-0.06556161
2091,-0.1114754
2092,0.019022264
2093,0.06420447
2094,0.013634454
2095,0.0058698263
2096,-0.031338062
2097,0.052517153
2098,0.0606488
2099,-0.007822252
2100,0.014146595
2101,0.018362416
2102,0.048367437
2103,0.051475383
2104,-0.012958645
2105,0.020623976
2106,-0.017829372
2107,-0.05657831
2108,0.027112124
2109,0.037109543
2110,0.0519873
2111,0.003206474
2112,0.027116654
2113,-0.060776476
2114,-0.077414334
2115,-0.06489035
2116,-0.07230465
2117,-0.045987017
2118,-0.051658258
2119,0.01683815
2120,-0.12728764
2121,0.025819734
2122,-0.09330892
2123,-0.0885892
2124,0.018270114
2125,0.022722809
2126,0.01874623
2127,0.048674718
2128,0.01776226
2129,-0.06906575
2130,0.023527194
2131,0.063052766
2132,0.03850619
2133,0.009969506
2134,-0.012010411
2135,-0.067832425
2136,-0.10745885
2137,0.047249585
2138,0.017394556
2139,-0.029637126
2140,0.053596206
2141,0.015371436
2142,-0.04869078
2143,0.036832303
2144,0.015852142
2145,0.033794437
2146,-0.05692735
2147,0.04625221
2148,0.009104104
2149,-0.023431638
2150,-0.0010749844
2151,-0.005445771
2152,0.049072266
2153,-0.012511774
2154,-0.085014254
2155,0.016617594
2156,0.023512002
2157,0.07266027
2158,-0.020696104
2159,0.0057692435
2160,0.057969652
2161,-0.013905729
2162,0.038774543
2163,0.051285632
2164,-0.018122684
2165,0.011267366
2166,0.043607518
2167,-0.042510327
2168,0.039675586
2169,0.032380197
2170,-1.2787699e-05
2171,0.0056658364
2172,0.049052633
2173,0.034856785
2174,-0.008777088
2175,0.011529658
2176,0.01571827
2177,-0.09628462
2178,0.022888642
2179,0.03152294
2180,0.010675828
2181,0.051471025
2182,0.04493086
2183,0.04782828
2184,0.030156014
2185,0.056179497
2186,0.036633383
2187,0.034466226
2188,-0.004771945
2189,0.05376354
2190,0.03308977
2191,0.04493596
2192,0.028551947
2193,0.04117007
2194,0.035162404
2195,-0.08042992
2196,0.034026247
2197,0.04304299
2198,0.048941012
2199,0.012481405
2200,0.01013033
2201,-0.07697657
2202,0.02082025
2203,0.04988202
2204,-0.07918993
2205,-0.059481896
2206,0.044798445
2207,0.044960435
2208,0.027369266
2209,0.050836027
2210,0.04282734
2211,0.06283737
2212,-0.031212969
2213,-0.021798765
2214,0.034434345
2215,0.016218768
2216,0.017226178
2217,0.041931327
2218,0.04255673
2219,0.029329758
2220,-0.071625225
2221,0.023991844
2222,0.056439564
2223,-0.0012905151
2224,0.033734586
2225,-0.06865469
2226,0.063449785
2227,-0.0075134216
2228,0.048923716
2229,0.06415338
2230,-0.001520613
2231,0.014185296
2232,-0.090534724
2233,0.027530182
2234,0.015380196
2235,-0.008354014
2236,0.021714998
2237,0.024947574
2238,-0.08561151
2239,0.04944848
2240,0.008834185
2241,0.08247209
2242,-0.07727519
2243,-0.062253952
2244,0.026899112
2245,0.033287928
2246,0.01771803
2247,0.050854042
2248,0.0454585
2249,0.009420858
2250,0.01888851
2251,0.023757774
2252,0.02239423
2253,0.047964863
2254,0.034323357
2255,0.021369716
2256,0.071439736
2257,-0.06934371
2258,0.039203264
2259,0.011920014
2260,0.05243443
2261,0.042359285
2262,0.059317343
2263,0.03349724
2264,-0.013634356
2265,0.047280658
2266,-0.004908559
2267,0.06902747
2268,0.03306103
2269,0.05823666
2270,-0.03308412
2271,0.042763986
2272,0.031734306
2273,0.016490975
2274,0.044008315
2275,0.045875963
2276,0.03507339
2277,0.050692275
2278,0.062634096
2279,0.034106176
2280,0.02417124
2281,-0.0027472754
2282,-0.012379491
2283,0.038856283
2284,0.039948825
2285,0.028688628
2286,0.06414135
2287,0.044414893
2288,-0.028775465
2289,0.062478367
2290,0.05755917
2291,-0.003828439
2292,0.076524995
2293,0.08002484
2294,0.044788737
2295,-0.059180893
2296,0.026274715
2297,-0.07110333
2298,-0.0712259
2299,0.057476718
2300,0.019261245
2301,0.024814595
2302,-0.08250408
2303,0.030601522
2304,0.014494102
2305,-0.09627867
2306,0.02742632
2307,0.022446046
2308,0.041145664
2309,0.0027257248
2310,0.040647525
2311,0.019750394
2312,0.04923707
2313,0.03464995
2314,-0.01420698
2315,0.018923812
2316,-0.066986896
2317,0.031150907
2318,0.052490406
2319,0.008375581
2320,0.02365085
2321,0.030727804
2322,0.07802025
2323,-0.080562554
2324,0.013143184
2325,0.03245422
2326,-0.0021848755
2327,-0.015160631
2328,0.032413978
2329,-0.0513919
2330,-0.006815608
2331,-0.040778633
2332,0.086826
2333,-0.059585176
2334,0.00640203
2335,0.03568486
2336,0.018901955
2337,0.03996047
2338,-0.017146798
2339,0.033622928
2340,-0.029158378
2341,-0.030255461
2342,0.017794427
2343,0.0029744254
2344,0.0048596896
2345,0.03534263
2346,0.049868774
2347,0.13952136
2348,-0.07159899
2349,-0.0054031187
2350,0.024540722
2351,0.010970337
2352,0.03217209
2353,0.06430162
2354,-0.07278277
2355,-0.012815382
2356,0.049317162
2357,-0.049498875
2358,-0.0560066
2359,0.015832646
2360,0.07577937
2361,0.029540833
2362,0.04940588
2363,-0.00914141
2364,0.034987636
2365,0.0170483
2366,0.043708548
2367,0.037049852
2368,0.030177275
2369,-0.060927466
2370,0.06457165
2371,0.07534311
2372,0.010120969
2373,0.03329166
2374,0.034666527
2375,-0.0641558
2376,-0.08170096
2377,0.0097123645
2378,0.026023416
2379,0.0828594
2380,0.037983842
2381,-0.009165587
2382,0.03935393
2383,0.026910203
2384,-0.041361656
2385,0.06430858
2386,0.0017084386
2387,-0.031495977
2388,0.028232837
2389,0.03715309
2390,0.0556681
2391,0.058080982
2392,0.041163202
2393,0.035844106
2394,0.024425207
2395,-0.048421983
2396,0.013054393
2397,-0.06439481
2398,-0.03754092
2399,0.0122335395
2400,0.0031493928
2401,0.016761146
2402,0.03620528
2403,-0.050010983
2404,0.030412085
2405,0.058591783
2406,0.031218939
2407,0.042223614
2408,0.016653404
2409,-0.03559315
2410,0.08770197
2411,0.006704819
2412,0.024415994
2413,0.0074060312
2414,0.03995908
2415,0.034480926
2416,-0.06911622
2417,0.047177356
2418,0.027775919
2419,-0.004025199
2420,-0.10014914
2421,-0.08556778
2422,-0.0015390144
2423,0.07332569
2424,0.024266804
2425,0.055564653
2426,-0.071066074
2427,-0.04320636
2428,0.011641716
2429,0.02972673
2430,0.073532954
2431,0.018514618
2432,0.042551633
2433,0.062772825
2434,-0.019070419
2435,0.015756985
2436,0.04994196
2437,-0.08099078
2438,0.0027577179
2439,-0.0074354396
2440,0.049245685
2441,-0.045470376
2442,0.04587752
2443,-0.049761325
2444,-0.0798312
2445,0.010093471
2446,-0.04087881
2447,-0.0060776845
2448,-0.046033673
2449,0.04046886
2450,0.0071607586
2451,-0.08037368
2452,-0.044697
2453,-0.047715932
2454,-0.05084281
2455,0.08968261
2456,-0.038444266
2457,-0.076850876
2458,0.031514782
2459,0.01000881
2460,-0.078817256
2461,-0.059493426
2462,-0.0042670295
2463,0.008679864
2464,0.015868373
2465,-0.04455361
2466,-0.03739019
2467,-0.037172414
2468,0.03648985
2469,-0.051709577
2470,-0.050209522
2471,-0.00770469
2472,0.015327269
2473,-0.023966936
2474,0.049306877
2475,-0.111652866
2476,-0.07125854
2477,-0.016178384
2478,0.03171232
2479,-0.025444046
2480,0.03502389
2481,-0.06913562
2482,0.05393731
2483,-0.0044602584
2484,0.011801379
2485,-0.04908923
2486,-0.04326072
2487,-0.007129155
2488,-0.09061993
2489,-0.013343803
2490,0.03871855
2491,0.07221879
2492,0.03482874
2493,0.007013203
2494,0.041045927
2495,0.01498205
2496,-0.044393025
2497,-0.060584266
2498,0.0813565
2499,0.06612473
2500,0.0073894197
2501,0.046141744
2502,0.021756018
2503,0.016959855
2504,0.05750209
2505,-0.0059161605
2506,0.073222004
2507,0.080959156
2508,0.007929516
2509,0.002289605
2510,0.0037556856
2511,0.018621866
2512,-0.068567336
2513,0.06530053
2514,0.0014693894
2515,-0.05077698
2516,0.014644654
2517,0.023762964
2518,-0.05897528
2519,0.042854797
2520,0.039240196
2521,0.020297019
2522,0.030997818
2523,0.021397628
2524,-0.07109444
2525,0.04594869
2526,0.076565586
2527,0.02826434
2528,0.042890474
2529,-0.0068270434
2530,-0.06604275
2531,0.0072461204
2532,0.03739566
2533,-0.014417208
2534,-0.041136235
2535,0.032436755
2536,-0.051973127
2537,-0.07309685
2538,0.10199411
2539,-0.0017900052
2540,0.005562735
2541,-0.052735828
2542,0.024278872
2543,-0.039726462
2544,0.017368559
2545,-0.054158323
2546,-0.05869062
2547,0.023257283
2548,-0.0994445
2549,-0.08534354
2550,-0.007743006
2551,-0.05945317
2552,-0.04813274
2553,0.058048144
2554,0.06949071
2555,0.04432068
2556,0.03459382
2557,0.0110842595
2558,-0.08247788
2559,-0.054819208
2560,-0.015645497
2561,-0.0962819
2562,-0.005049925
2563,-0.03611735
2564,0.050136495
2565,-0.05144073
2566,-0.048798136
2567,-0.010811085
2568,-0.0006114787
2569,-0.030439608
2570,-0.037001096
2571,-0.04989031
2572,0.07047341
2573,0.0026124516
2574,0.008136867
2575,-0.031843856
2576,-0.046016756
2577,0.04276082
2578,-0.009381599
2579,0.0637089
2580,0.040055618
2581,-0.029845234
2582,0.027034316
2583,-0.062416032
2584,0.008936466
2585,-0.03282405
2586,0.058038518
2587,-0.040811352
2588,-0.07881662
2589,0.0780705
2590,0.020262226
2591,-0.05131445
2592,0.029044995
2593,-0.044350263
2594,-0.038106456
2595,-0.05389786
2596,-0.031100407
2597,-0.048601195
2598,0.00057232345
2599,0.015511373
2600,-0.011663038
2601,0.01991101
2602,0.043306768
2603,0.017627558
2604,0.049425438
2605,-0.0277657
2606,0.018930707
2607,-0.049646437
2608,-0.058005974
2609,0.05233035
2610,-0.072871275
2611,-0.0045602727
2612,0.0009892802
2613,-0.03935567
2614,0.016042963
2615,-0.04890414
2616,-0.09059041
2617,-0.022716329
2618,0.04839214
2619,-0.056844246
2620,0.00976896
2621,-0.011055076
2622,-0.084127806
2623,0.016906258
2624,0.0071723526
2625,0.041520678
2626,0.07553266
2627,0.05729399
2628,0.053336266
2629,-0.047760077
2630,-0.051899187
2631,0.01099614
2632,0.14991286
2633,-0.041912023
2634,0.052865416
2635,-0.081806764
2636,-0.041777052
2637,-0.017834278
2638,-0.014813061
2639,-0.050586257
2640,-0.025882712
2641,0.03631578
2642,0.0017289761
2643,-0.061736643
2644,0.024352783
2645,0.008589028
2646,-0.05859478
2647,0.00017690979
2648,0.04799409
2649,0.015022136
2650,0.043267477
2651,-0.048588768
2652,-0.07127482
2653,0.010473834
2654,0.08745427
2655,-0.03948972
2656,-0.059766322
2657,-0.021518607
2658,0.056843057
2659,-0.050052546
2660,-0.0032752112
2661,0.020833677
2662,-0.05901919
2663,-0.04324033
2664,0.03178941
2665,-0.0732436
2666,0.029103342
2667,0.01432357
2668,-0.03441095
2669,-0.003283623
2670,0.014624891
2671,-0.04061146
2672,-0.06803089
2673,-0.053998012
2674,-0.06296843
2675,-0.0035489541
2676,0.034928456
2677,-0.08554836
2678,0.014066052
2679,-0.059651542
2680,0.0206488
2681,0.054792166
2682,-0.07126083
2683,0.035948012
2684,0.006148724
2685,-0.00827014
2686,-0.08247314
2687,0.04447278
2688,-0.033322986
2689,-0.09670708
2690,-0.020342696
2691,-0.035988472
2692,-0.014949682
2693,0.054174308
2694,-0.048014216
2695,0.009327756
2696,0.0020569954
2697,-0.04129497
2698,-0.03595573
2699,-0.04099977
2700,-0.03670753
2701,-0.051811904
2702,-0.003378543
2703,-0.031939913
2704,-0.042498015
2705,-0.0037526777
2706,-0.0029747458
2707,-0.07947146
2708,0.045301482
2709,0.059722256
2710,-0.018758776
2711,-0.029032098
2712,0.0065190564
2713,0.073487185
2714,-0.013632181
2715,0.042678148
2716,-0.07904754
2717,-0.011452681
2718,-0.0026148926
2719,0.02431842
2720,-0.03957465
2721,-0.030596664
2722,-0.037417814
2723,-0.027805312
2724,-0.025230177
2725,-0.06204645
2726,-0.009261377
2727,-0.012919594
2728,-0.033302408
2729,-0.021684336
2730,0.04459999
2731,-0.052287858
2732,-0.07139945
2733,-0.028887339
2734,0.007807407
2735,0.05126111
2736,-0.059228096
2737,-0.06870123
2738,-0.072782375
2739,-0.010299002
2740,-0.017689578
2741,-0.049123365
2742,-0.00254491
2743,-0.019862615
2744,-0.014972443
2745,-0.037291184
2746,-0.027557615
2747,0.09529107
2748,0.01392521
2749,0.00032931124
2750,-0.0854808
2751,-0.027129536
2752,-0.007386591
2753,0.07013162
2754,0.011489907
2755,-0.06498777
2756,0.0075227707
2757,-0.04789793
2758,-0.051841132
2759,-0.06416488
2760,0.027531683
2761,0.008895477
2762,0.04439536
2763,-0.05178501
2764,-0.034041185
2765,-0.034542043
2766,0.0148271145
2767,-0.027205274
2768,-0.06859284
2769,-0.069083214
2770,0.01716279
2771,-0.042030513
2772,0.0031876396
2773,-0.0047407537
2774,-0.058936723
2775,0.0013277078
2776,-0.002371496
2777,-0.017934904
2778,0.035544813
2779,-0.03020639
2780,0.046309534
2781,-0.06484078
2782,-0.048745267
2783,0.0003214726
2784,-0.060028493
2785,-0.016621081
2786,-0.06691849
2787,0.01551156
2788,-0.0024960386
2789,0.033602923
2790,-0.042163275
2791,-0.042483523
2792,-0.051799614
2793,0.08341956
2794,0.008155257
2795,-0.039454658
2796,-0.033559214
2797,-0.05251567
2798,0.030092875
2799,-0.04037702
2800,-0.1076245
2801,-0.054216024
2802,-0.058740675
2803,-0.023980372
2804,-0.09887794
2805,-0.08495177
2806,0.0076714945
2807,-0.0020594539
2808,0.018072218
2809,0.041793395
2810,0.089470245
2811,-0.043341633
2812,0.007982636
2813,-0.005280439
2814,-0.082577944
2815,-0.054802004
2816,-0.03961727
2817,-0.046059348
2818,-0.024735201
2819,-0.036224164
2820,0.04683762
2821,0.0072466605
2822,-0.04844084
2823,-0.014377377
2824,0.0066955443
2825,-0.04525569
2826,-0.03647317
2827,-0.050116472
2828,-0.07965912
2829,0.0004823837
2830,0.015905347
2831,-0.031636454
2832,-0.04578995
2833,-0.0043046726
2834,0.0052702283
2835,-0.073009774
2836,-0.0065222466
2837,-0.04763471
2838,-0.050741933
2839,0.038632743
2840,0.007190486
2841,-0.07670932
2842,-0.03911825
2843,0.041977856
2844,-0.07916414
2845,-0.0014954257
2846,-0.0044136164
2847,-0.051168956
2848,-0.03931339
2849,-0.044640213
2850,-0.03774451
2851,-0.054723676
2852,-0.023474505
2853,-0.07377559
2854,0.0042778193
2855,-0.008468001
2856,-0.04105588
2857,0.00012437748
2858,-0.006392069
2859,-0.06646099
2860,-0.071151614
2861,-0.026958017
2862,0.00060262275
2863,-0.039110687
2864,-0.059397046
2865,-0.068725795
2866,-0.07279903
2867,-0.0062063285
2868,-0.011533365
2869,-0.049373247
2870,-0.0068437215
2871,-0.018650638
2872,-0.074056275
2873,-0.0030400911
2874,0.036415882
2875,0.009240856
2876,-0.013552988
2877,-0.007139884
2878,-0.0614426
2879,-0.050755635
2880,0.0032001473
2881,-0.060745504
2882,-0.0064964825
2883,-0.06477521
2884,0.0709696
2885,-0.047573835
2886,-0.051928315
2887,-0.06429635
2888,0.025641585
2889,0.005438619
2890,0.012871227
2891,-0.030790478
2892,-0.020357959
2893,-0.033849567
2894,-0.034700118
2895,-0.050616123
2896,-0.06861048
2897,-0.06909296
2898,-0.0070458488
2899,0.011225959
2900,0.022469573
2901,0.011092827
2902,-0.059010584
2903,0.01489125
2904,0.014153488
2905,-0.0154259335
2906,0.01956541
2907,-0.019849697
2908,-0.05432059
2909,-0.06444272
2910,-0.0261265
2911,-0.0024377857
2912,-0.060059685
2913,-0.005643488
2914,-0.023300337
2915,-0.04994981
2916,-0.013558897
2917,-0.028031208
2918,0.06860343
2919,-0.04306274
2920,-0.051809333
2921,-0.07317517
2922,0.07162668
2923,-0.06505642
2924,-0.03462023
2925,-0.05272918
2926,-0.006244648
2927,-0.040306825
2928,0.019612327
2929,-0.054266967
2930,-0.06287336
2931,-0.009879352
2932,-0.05682207
2933,0.076322936
2934,0.015224165
2935,-0.019015055
2936,0.016061487
2937,-0.07154125
2938,-0.069714345
2939,-0.03372365
2940,0.005335376
2941,0.04329063
2942,0.05866111
2943,-0.029649174
2944,-0.0393757
2945,-0.04146035
2946,-0.050872378
2947,-0.035761267
2948,-0.009766861
2949,0.030184167
2950,-0.047830585
2951,-0.048984386
2952,0.006896323
2953,-0.03977267
2954,-0.036928352
2955,0.13171202
2956,0.0082952175
2957,-0.05132717
2958,-0.048969842
2959,-0.031073444
2960,-0.04603293
2961,-0.05144042
2962,0.124323435
2963,-0.029465238
2964,-0.017181901
2965,-0.048023794
2966,-0.050688792
2967,0.02146301
2968,-0.008486794
2969,-0.046224233
2970,-0.057704743
2971,0.0268691
2972,-0.030343086
2973,-0.0030444944
2974,-0.05268261
2975,-0.051109094
2976,-0.0411192
2977,-0.037156127
2978,-0.037523445
2979,-0.056348726
2980,-0.029679867
2981,-0.07418717
2982,0.0038869109
2983,0.07180674
2984,0.13395362
2985,-0.0025214676
2986,-0.048015118
2987,-0.043616954
2988,-0.07000461
2989,-0.045934863
2990,-0.048579425
2991,-0.043592934
2992,-0.045145728
2993,-0.06877934
2994,-0.048868794
2995,-0.01058861
2996,-0.039211344
2997,-0.03417731
2998,-0.035861336
2999,-0.027513921
3000,-0.033154212
3001,-0.033559933
3002,-0.047120716
3003,0.02450985
3004,-0.042636316
3005,-0.003601123
3006,-0.07342185
3007,-0.021938166
3008,-0.013753878
3009,-0.06094707
3010,-0.03981733
3011,-0.0649242
3012,0.0131454
3013,-0.047540493
3014,-0.051520303
3015,-0.051792406
3016,0.0059772725
3017,-0.004618066
3018,-0.011813454
3019,-0.049789384
3020,-0.015651796
3021,-0.03525451
3022,-0.037934918
3023,0.003160023
3024,-0.040884744
3025,-0.069355935
3026,-0.030422872
3027,-0.061793495
3028,-0.097301885
3029,0.013378438
3030,-0.058906965
3031,0.041309867
3032,0.018689308
3033,-0.052087422
3034,-0.046708643
3035,0.007446946
3036,-0.07095017
3037,-0.045815475
3038,-0.048172314
3039,-0.026244307
3040,-0.05886076
3041,-0.04441128
3042,-0.06396282
3043,-0.04999534
3044,-0.010416654
3045,-0.028330728
3046,-0.07071173
3047,-0.042975973
3048,-0.051713645
3049,-0.040660787
3050,0.110581435
3051,-0.06758831
3052,-0.0340335
3053,-0.05254168
3054,-0.04592592
3055,-0.04025431
3056,-0.10789025
3057,-0.05445359
3058,-0.05978997
3059,0.0018039495
3060,-0.033096846
3061,-0.01743819
3062,-0.016862305
3063,0.017353874
3064,-0.017149303
3065,-0.06328008
3066,-0.07142253
3067,-0.023403166
3068,0.005370377
3069,-0.028783463
3070,-0.08271881
3071,-0.052457638
3072,-0.04183868
3073,-0.012683162
3074,-0.050969254
3075,-0.036424067
3076,-0.08891812
3077,0.04778985
3078,-0.04786615
3079,-0.030415861
3080,0.028794866
3081,-0.045339517
3082,-0.037222404
3083,-0.049972955
3084,0.10148597
3085,-0.05189605
3086,-0.046829466
3087,-0.018828487
3088,-0.04137951
3089,-0.05182254
3090,0.024400648
3091,-0.044201154
3092,-0.04203238
3093,-0.04766067
3094,-0.049255434
3095,0.024050616
3096,0.0060174186
3097,-0.047639355
3098,0.010303369
3099,0.011486549
3100,-0.014952204
3101,-0.027387802
3102,-0.050236173
3103,-0.051170785
3104,-0.040118497
3105,-0.04383696
3106,-0.037484944
3107,-0.003813337
3108,-0.030561643
3109,0.07839535
3110,-0.023051813
3111,-0.023505256
3112,0.007838983
3113,0.052156486
3114,-0.05272116
3115,-0.0031529015
3116,-0.03373612
3117,0.04326292
3118,-0.04827023
3119,-0.043394215
3120,-0.05863395
3121,-0.06898004
3122,-0.053085804
3123,-0.012831983
3124,-0.038998585
3125,0.01836873
3126,-0.048834596
3127,0.008166613
3128,-0.004603478
3129,-0.03273984
3130,-0.047418054
3131,0.027603034
3132,-0.046573486
3133,0.04261421
3134,-0.08566769
3135,-0.04257353
3136,-0.01935741
3137,-0.060567398
3138,-0.063501805
3139,-0.06418827
3140,0.023480125
3141,-0.048058312
3142,-0.05182508
3143,-0.046422064
3144,0.007545216
3145,0.0011379686
3146,-0.03521121
3147,-0.05725419
3148,0.0074326233
3149,-0.037506334
3150,-0.037710194
3151,-0.05068758
3152,-0.012925413
3153,-0.069109246
3154,-0.04092333
3155,-0.01549557
3156,0.02646028
3157,-0.026151052
3158,-0.05839573
3159,0.045286704
3160,-0.019614143
3161,-0.052917786
3162,-0.046428096
3163,0.022241214
3164,-0.0710965
3165,-0.04574553
3166,-0.014160145
3167,0.018395789
3168,0.0048042107
3169,-0.02730497
3170,-0.06658559
3171,-0.050332855
3172,-0.016023664
3173,-0.027582467
3174,-0.07065079
3175,-0.04246013
3176,-0.05182493
3177,-0.049799915
3178,0.06117801
3179,0.015006971
3180,-0.034348965
3181,-0.0526623
3182,-0.045652006
3183,-0.040356454
3184,-0.10462472
3185,-0.020596158
3186,-0.05851971
3187,-0.009664512
3188,-0.010118633
3189,-0.02577758
3190,-0.011552548
3191,0.042979218
3192,-0.047872294
3193,-0.06889817
3194,-0.071143255
3195,-0.019971227
3196,0.012939257
3197,0.015703289
3198,-0.07546278
3199,-0.053866353
3200,-0.039445292
3201,-0.0076239575
3202,-0.013218516
3203,-0.024510637
3204,0.041921504
3205,0.038066953
3206,-0.0479178
3207,0.059104968
3208,0.08117151
3209,-0.044979557
3210,-0.036917213
3211,0.03625037
3212,0.029582543
3213,-0.05395287
3214,-0.04692407
3215,-0.031263765
3216,-0.025294418
3217,-0.032675624
3218,0.0028048938
3219,-0.036761858
3220,-0.044626005
3221,-0.047588814
3222,-0.049641974
3223,-0.013020787
3224,-0.11067193
3225,-0.03078856
3226,-0.05824096
3227,-0.006370226
3228,0.015858974
3229,-0.059472945
3230,-0.03373643
3231,-0.051047597
3232,-0.040247228
3233,-0.014137567
3234,-0.0367622
3235,0.07666475
3236,-0.0021096983
3237,-0.04877681
3238,-0.047236312
3239,0.0064230324
3240,-0.025897447
3241,0.11206678
3242,-0.056901705
3243,-0.049930897
3244,-0.054555926
3245,-0.020185294
3246,-0.048467867
3247,-0.037083045
3248,-0.04383904
3249,-0.045801543
3250,-0.039036527
3251,-0.003027189
3252,-0.03858696
3253,-0.009781711
3254,-0.021513367
3255,-0.032372244
3256,-0.018660335
3257,-0.041204393
3258,-0.046058003
3259,0.0038467601
3260,-0.046576794
3261,0.006055498
3262,-0.018061914
3263,-0.05065763
3264,0.036921334
3265,-0.05293273
3266,0.054854147
3267,-0.06471883
3268,0.012110231
3269,-0.046958733
3270,-0.05086063
3271,-0.0536927
3272,-0.025689928
3273,-0.010054987
3274,-0.055085257
3275,0.033582147
3276,-0.020522622
3277,-0.034315124
3278,-0.03655106
3279,-0.05062934
3280,-0.012191522
3281,-0.0688883
3282,-0.0415853
3283,-0.030882223
3284,0.013858
3285,-0.018263932
3286,-0.05532417
3287,0.017268574
3288,-0.013380199
3289,-0.040500414
3290,-0.046768688
3291,-0.009237913
3292,-0.07135892
3293,-0.05106188
3294,-0.048063446
3295,-0.02326253
3296,-0.059942726
3297,-0.038564015
3298,-0.060472634
3299,-0.05019632
3300,-0.019231515
3301,-0.027599087
3302,-0.07067061
3303,-0.041629877
3304,-0.051777545
3305,-0.0073083006
3306,0.011414295
3307,-0.029597787
3308,-0.03306814
3309,-0.05250468
3310,-0.023942858
3311,-0.0130468225
3312,-0.06900849
3313,-0.01698515
3314,-0.008556358
3315,0.030183295
3316,-0.0030043195
3317,-0.03470698
3318,-0.042123035
3319,-0.015508256
3320,-0.033907007
3321,-0.07154866
3322,-0.05135453
3323,-0.03172163
3324,-0.046170916
3325,-0.033938248
3326,-0.058721006
3327,-0.04473007
3328,-0.039426584
3329,-0.007324314
3330,0.045778655
3331,-0.022513242
3332,0.029864134
3333,0.0052035237
3334,-0.04775622
3335,0.07627602
3336,0.0013744566
3337,-0.020969156
3338,-0.021119554
3339,0.03157293
3340,0.00091403996
3341,-0.04404094
3342,-0.03146912
3343,-0.022010768
3344,-0.038007874
3345,-0.03268816
3346,0.027709873
3347,-0.03348986
3348,-0.018420964
3349,-0.039071035
3350,0.02199738
3351,-0.020363027
3352,0.038881175
3353,-0.01592824
3354,0.015121519
3355,0.007396277
3356,0.007796231
3357,-0.022274524
3358,0.011574842
3359,-0.05112107
3360,-0.040252134
3361,-0.030164672
3362,0.0058346693
3363,-0.008647492
3364,-0.021015896
3365,-0.03324211
3366,-0.01318261
3367,0.026663406
3368,0.0109490175
3369,0.009795984
3370,-0.04437392
3371,0.021042049
3372,-0.047015134
3373,0.010046686
3374,-0.016370285
3375,-0.040178664
3376,-0.039448787
3377,-0.04012387
3378,-0.024120346
3379,-0.008185762
3380,-0.022329602
3381,0.0061612395
3382,0.02947634
3383,-0.0061188666
3384,0.0030051344
3385,-0.033320922
3386,-0.034186825
3387,-0.017914278
3388,-0.016171185
3389,-0.005445031
3390,0.00041809332
3391,-0.0067265765
3392,0.04410036
3393,-0.032066867
3394,-0.003165833
3395,-0.036059175
3396,-0.00040925512
3397,-0.039691683
3398,-0.05153027
3399,-0.040213976
3400,0.0008035835
3401,-0.029401345
3402,-0.04343958
3403,-0.032150824
3404,-0.015365032
3405,-0.012463706
3406,-0.014076221
3407,-0.021035528
3408,-0.019984603
3409,-0.046665937
3410,-0.03380491
3411,-0.01563212
3412,0.042807467
3413,-0.026108798
3414,-0.035923563
3415,-0.007315461
3416,-0.029389663
3417,-0.013958668
3418,-0.046608124
3419,-0.015502592
3420,-0.045191936
3421,-0.033494174
3422,-0.010605222
3423,-0.004262323
3424,0.007094818
3425,0.042394556
3426,-0.06633733
3427,-0.03739842
3428,0.0060381284
3429,0.002954397
3430,-0.042356208
3431,-0.04191194
3432,-0.051939905
3433,-0.037613854
3434,-0.0045586005
3435,0.016743273
3436,-0.025017377
3437,-0.043220695
3438,0.004978395
3439,-0.039088313
3440,-0.020288292
3441,-0.029056909
3442,-0.026369603
3443,0.012562516
3444,-0.013257973
3445,-0.048034187
3446,-0.019840168
3447,-0.025006462
3448,0.0032830427
3449,-0.05265356
3450,-0.03572799
3451,-0.029172681
3452,0.03156153
3453,-0.036676053
3454,-0.038611893
3455,-0.054230325
3456,-0.017130733
3457,0.01178765
3458,0.0059886496
3459,0.014612859
3460,0.022861594
3461,-0.0029344405
3462,-0.002400515
3463,0.008730309
3464,0.018672189
3465,0.008986013
3466,0.012907852
3467,0.0034356592
3468,-0.007013028
3469,-0.0057417965
3470,0.014263243
3471,-0.004116379
3472,-0.0056587174
3473,-0.013810241
3474,0.009813215
3475,-0.009532713
3476,0.008698868
3477,-0.007960493
3478,0.013035328
3479,-0.00093810086
3480,0.0056320345
3481,-0.016069701
3482,-0.009530565
3483,-0.006488228
3484,-0.020651769
3485,-0.0054745604
3486,-0.011288324
3487,-0.003420296
3488,-0.012580868
3489,-0.0046914145
3490,0.009393657
3491,0.011636974
3492,0.012948332
3493,-0.00088025903
3494,0.009682116
3495,0.0018288849
3496,0.000831653
3497,-0.007142036
3498,-0.008290794
3499,-0.00080604234
3500,-0.01813505
3501,0.0038790968
3502,0.0016836851
3503,0.0016261686
3504,0.000454501
3505,-0.00397538
3506,0.005477231
3507,-0.0013355722
3508,0.008603795
3509,0.0020545563
3510,-0.0033454057
3511,0.00212094
3512,0.0010065462
3513,0.012882816
3514,-0.0024401506
3515,0.00023484207
3516,-0.011918106
3517,-0.01506641
3518,0.01455843
3519,-0.0013607715
3520,-3.0377842e-05
3521,-0.019188577
3522,-0.005262385
3523,-0.0031438037
3524,0.002336786
3525,-0.002416219
3526,-0.009407783
3527,-0.015560928
3528,-0.0010832798
3529,0.017035821
3530,0.011614988
3531,0.022727707
3532,-0.012327362
3533,0.007241008
3534,-0.0117120175
3535,0.0028005263
3536,-0.007568852
3537,-0.018694023
3538,0.008239529
3539,0.005927644
3540,0.0118814865
3541,-0.00028289732
3542,0.011425789
3543,0.004504512
3544,0.014054783
3545,0.015726557
3546,-0.013381014
3547,-0.0079499
3548,0.0015215367
3549,-0.007496021
3550,0.001772926
3551,0.004852619
3552,-0.0066515957
3553,0.024354232
3554,0.007416602
3555,-0.0038583772
3556,0.01748236
3557,0.022246327
3558,-0.00455346
3559,-0.021129677
3560,-0.009479047
3561,-0.0088731935
3562,-0.011754491
3563,0.020304695
3564,-0.011616031
3565,-0.0013573748
3566,0.010945509
3567,-0.009668533
3568,-0.01742249
3569,0.00033816457
3570,0.010736527
3571,-0.0063779308
3572,-0.009406064
3573,-0.010348905
3574,-0.008942865
3575,-0.0030821755
3576,0.008415373
3577,-0.008378854
3578,-0.0041184723
3579,0.0037433913
3580,-0.0005627272
3581,-0.019961024
3582,-0.0050070956
3583,0.0009271019
3584,0.010766849
3585,-0.017755924
3586,0.009854963
3587,-0.002391927
3588,-0.01534627
3589,-0.012591469
3590,-0.015992431
3591,-0.002559577
3592,0.00837154
3593,0.0070132
3594,-0.003472634
3595,-0.00213943
3596,-0.0060113636
3597,-0.007198517
3598,-0.013136044
3599,-0.0029858043
3600,0.0037467994
3601,0.010351088
3602,0.013508633
3603,0.0076071033
3604,-0.006615456
3605,-0.0035424207
3606,0.00013554034
3607,-0.009500022
3608,-0.011534987
3609,-0.016316745
3610,-0.0086573865
3611,0.008024764
3612,0.0037850828
3613,0.0028564383
3614,-0.0050234804
3615,0.013558257
3616,0.0040245997
3617,0.00022852897
3618,0.013738706
3619,0.011728956
3620,-0.0070529263
3621,0.0017602072
3622,-0.00941369
3623,0.004834984
3624,-0.009718796
3625,0.009224793
3626,-0.012743031
3627,-0.009779513
3628,0.007572062
3629,0.004982662
3630,-0.009543795
3631,0.0014931215
3632,0.019847194
3633,-0.0002175392
3634,0.014146614
3635,0.008103245
3636,-0.008500263
3637,-0.0047456613
3638,-0.012115736
3639,-0.0038335233
3640,0.0105555905
3641,0.0013325238
3642,-0.0031766393
3643,-0.008280977
3644,0.0052755834
3645,-0.008669333
3646,-0.016150571
3647,0.0029815105
3648,-0.017599106
3649,0.0093092825
3650,-0.0011610484
3651,0.009222944
3652,-0.0115035875
3653,-0.010633356
3654,-0.008084976
3655,-0.004583057
3656,-0.0016112479
3657,0.008109974
3658,0.00847052
3659,0.006723949
3660,-0.0043501635
3661,0.009816589
3662,-0.016811525
3663,-0.00053993484
3664,-0.008809927
3665,0.002213637
3666,-0.008043144
3667,0.004693317
3668,-0.011949723
3669,0.014008914
3670,0.0070077595
3671,0.0025283732
3672,0.0074989027
3673,0.0047504227
3674,0.00025300862
3675,0.015581455
3676,-0.0018341081
3677,-0.012846015
3678,-0.006849202
3679,-0.010503469
3680,0.008021897
3681,-0.015168225
3682,0.00528068
3683,-0.003750917
3684,-0.0022585278
3685,0.006641563
3686,-0.00069333985
3687,0.0023420735
3688,0.0073695593
3689,-0.0052047884
3690,-0.015330235
3691,-0.012058595
3692,-0.008172368
3693,0.012968261
3694,0.0044933925
3695,-0.007120692
3696,-0.009128692
3697,0.008697252
3698,0.009701893
3699,-0.011977461
3700,0.0021498767
3701,0.0012596236
3702,0.0019789438
3703,-0.00045496164
3704,0.0021158678
3705,0.016863406
3706,-0.01324787
3707,-0.00820073
3708,-0.008442507
3709,-0.0005420184
3710,-0.006936926
3711,-0.018904608
3712,0.0010614892
3713,0.003544466
3714,-0.0051189642
3715,0.011725249
3716,0.003860677
3717,0.0010069973
3718,-0.00016009364
3719,0.0030869877
3720,-0.0175872
3721,-0.0073703476
3722,0.0022359032
3723,0.0021521733
3724,0.005029909
3725,-0.0023854182
3726,0.016381012
3727,0.0033071009
3728,-0.0020337866
3729,-0.018434681
3730,0.0043815677
3731,-0.0047100065
3732,-0.009517634
3733,-0.019272387
3734,0.0013313495
3735,0.0020674902
3736,-0.0061883526
3737,-0.007404909
3738,0.0072408575
3739,0.011762093
3740,-0.008731367
3741,-0.0012667475
3742,-0.007741627
3743,-0.007222761
3744,0.0013185492
3745,0.014591551
3746,-0.0016171586
3747,0.017930685
3748,0.009317732
3749,0.0017321033
3750,-0.014375488
3751,0.0032916153
3752,-0.01012801
3753,-0.0052248924
3754,-0.006297936
3755,-0.014503651
3756,-0.010154231
3757,0.0015501236
3758,-0.011278957
3759,0.0009183204
3760,0.0047772764
3761,-0.009977027
3762,0.01804858
3763,-5.899458e-05
3764,-0.010557836
3765,-0.0038651074
3766,0.012962226
3767,-0.017864931
3768,-0.018885026
3769,0.010634797
3770,0.008743709
3771,0.004643215
3772,-0.016609354
3773,-0.0055134427
3774,0.0047481125
3775,0.0060265497
3776,0.009079511
3777,0.00093099184
3778,0.0063314782
3779,-0.005854419
3780,0.004375741
3781,-0.005078227
3782,0.0028463139
3783,0.0069397
3784,0.0062310714
3785,-0.012484425
3786,-0.0066302842
3787,0.0031359515
3788,-0.0072314637
3789,-0.017639713
3790,-0.009188144
3791,0.005973469
3792,0.00018890215
3793,-0.0016866076
3794,0.0074968976
3795,-0.0012390792
3796,0.0025456413
3797,-0.0112199085
3798,0.006863539
3799,0.0010719206
3800,-0.0017775524
3801,-0.012088186
3802,-0.017757956
3803,-0.00063533615
3804,0.0023842591
3805,0.008942027
3806,0.006030056
3807,-0.0044626114
3808,0.010601265
3809,0.00235205
3810,-0.01394677
3811,-0.0017651533
3812,-0.00843921
3813,0.0019224916
3814,0.0023872852
3815,0.0016781881
3816,0.006147687
3817,-0.008491258
3818,-0.007801729
3819,7.135773e-05
3820,0.014571584
3821,0.0065483516
3822,-0.016552178
3823,0.0033800874
3824,-0.01419354
3825,0.0009116289
3826,-0.013458558
3827,0.006091365
3828,0.0019061898
3829,0.0066534667
3830,-0.0017339361
3831,-0.0043711024
3832,0.0018944608
3833,0.0054572467
3834,-0.015519048
3835,-0.016243163
3836,-0.000521708
3837,0.009554111
3838,0.0053905547
3839,-0.018643051
3840,0.009908013
3841,0.006836872
3842,-0.003190236
3843,-0.008000111
3844,-0.006656711
3845,-0.006791352
3846,-0.013896376
3847,-0.005977953
3848,-0.0075755
3849,-0.0147072
3850,0.017418766
3851,-0.0064349547
3852,-0.0012983553
3853,0.0042980006
3854,-0.00260744
3855,-0.00039613672
3856,-0.0004751158
3857,-0.0066611595
3858,0.0046781814
3859,0.003638585
3860,-0.0040936065
3861,0.007722944
3862,-0.00027919645
3863,0.011189582
3864,0.0046342383
3865,-0.012508861
3866,-0.016230322
3867,-0.0025599778
3868,0.0023426854
3869,0.0023049556
3870,-0.00794601
3871,-0.009852636
3872,-0.007467141
3873,0.00033527627
3874,-0.01855533
3875,0.010452833
3876,-1.4836605e-05
3877,0.018953446
3878,0.017172975
3879,0.0059920005
3880,0.00035446754
3881,0.0098079955
3882,-0.004861254
3883,-0.0035481846
3884,-0.0090442505
3885,-0.011744752
3886,-0.010335609
3887,0.005022941
3888,-0.0003002287
3889,-0.0002531363
3890,-0.0064536748
3891,-0.0013746076
3892,0.010257778
3893,0.0036238083
3894,0.0055711083
3895,-0.0012793988
3896,0.006147768
3897,-0.005957775
3898,-0.018630352
3899,-0.0017659811
3900,-0.019665081
3901,0.0007327328
3902,-0.0024533635
3903,0.015303984
3904,-0.0024346055
3905,0.00978433
3906,-0.005077464
3907,0.004289168
3908,-0.007411338
3909,0.009906769
3910,0.002784383
3911,0.01841363
3912,0.012232466
3913,0.0068100127
3914,0.006893826
3915,0.011989072
3916,0.008026514
3917,-0.004305182
3918,0.009891324
3919,-0.003762998
3920,-0.008616252
3921,0.0025591902
3922,0.0027708423
3923,0.002235066
3924,0.014238866
3925,-0.011343407
3926,-0.002947896
3927,-0.0041606915
3928,-0.007633204
3929,0.0029482748
3930,-0.0009312429
3931,0.0008505211
3932,-0.0008398972
3933,0.0032793763
3934,0.015358666
3935,-0.0030569301
3936,0.011532343
3937,-0.0040783547
3938,-0.0005324243
3939,-0.015881754
3940,0.006399937
3941,-0.015731333
3942,0.011284274
3943,-0.001331791
3944,-0.018509652
3945,-0.0032085162
3946,-0.0006225955
3947,0.0021760406
3948,0.0021278644
3949,-0.009841208
3950,0.01847
3951,-0.002146864
3952,0.008658715
3953,0.0027756314
3954,0.0005722772
3955,-0.009210571
3956,-0.0035850394
3957,-0.0059932517
3958,-0.0010702267
3959,-0.0060584894
3960,-0.008064513
3961,0.005070314
3962,-0.015344315
3963,-0.004905752
3964,0.0145019
3965,-0.0037122464
3966,0.012949587
3967,0.018309405
3968,-0.0026530235
3969,0.00040282003
3970,0.006111708
3971,-0.013851315
3972,-0.009521014
3973,0.013174888
3974,-0.0053378176
3975,-0.009389707
3976,0.0037045495
3977,-0.0018921766
3978,0.0006290448
3979,-0.011276203
3980,-0.0034940387
3981,-0.0013435773
3982,0.0037917285
3983,-0.014491228
3984,0.003298967
3985,0.0047040978
3986,-0.018191468
3987,0.0026099733
3988,-0.0007391581
3989,-0.013034499
3990,0.0050108423
3991,0.007548273
3992,-0.0027560787
3993,-0.012143711
3994,0.0060649198
3995,-0.015257359
3996,0.009392549
3997,0.0019139291
3998,0.001974147
3999,0.015243219
4000,-0.0021164953
4001,-0.0026754453
4002,-0.011926639
4003,-0.0025476923
4004,0.011114271
4005,-0.0010189586
4006,0.005627098
4007,0.00044124832
4008,0.009867578
4009,0.017162668
4010,-0.0020574357
4011,-0.0031855598
4012,-0.00406933
4013,-0.0009741571
4014,-0.0018394054
4015,0.0030891146
4016,-0.005676905
4017,0.014086507
4018,-0.01441768
4019,-0.010340526
4020,0.009076254
4021,-0.009049605
4022,-0.01105264
4023,0.010656392
4024,0.0035974109
4025,0.00074624765
4026,-0.01570546
4027,-0.0021611378
4028,0.0028031436
4029,0.0022117456
4030,0.008554098
4031,-0.007915433
4032,-0.0073125265
4033,-0.004886737
4034,0.0013755533
4035,0.010966909
4036,-0.008746012
4037,-0.002384192
4038,0.0127162
4039,0.01548877
4040,0.00033025193
4041,0.01026344
4042,0.003948185
4043,-0.01255307
4044,0.007996354
4045,-0.0011265612
4046,0.015207372
4047,0.0019092303
4048,0.0025553312
4049,-0.0050904434
4050,0.015020129
4051,-0.011201401
4052,0.008577836
4053,-0.0040490683
4054,0.0051440923
4055,0.0067370906
4056,0.013143493
4057,0.004107244
4058,-0.019196767
4059,0.009967974
4060,0.0035147488
4061,-0.012341142
4062,0.00240877
4063,-0.0021422373
4064,0.01839857
4065,-0.010735639
4066,0.0042499145
4067,0.0010733213
4068,0.0039777886
4069,-0.015692737
4070,0.008014019
4071,0.0038492195
4072,-0.00891335
4073,0.0035659089
4074,-0.014990238
4075,-0.004972266
4076,-0.009345169
4077,-0.0074135247
4078,-0.005688843
4079,0.010622836
4080,-0.009204058
4081,0.0006144656
4082,0.0020952336
4083,-0.011119247
4084,-0.01492431
4085,0.005591254
4086,-0.0048191515
4087,0.005992347
4088,-0.011717451
4089,-0.009124406
4090,-0.0030953032
4091,0.015825462
4092,0.01191941
4093,-0.013024994
4094,-0.009945604
4095,0.0023150102
