Sno,Weight
0,-0.09341287
1,-0.008466427
2,0.033151362
3,-0.094971746
4,-0.036675863
5,0.018992672
6,0.0021303105
7,-0.008043579
8,-0.07017139
9,-0.028112682
10,-0.050773222
11,0.01556118
12,-0.09338563
13,0.038097408
14,-0.017442347
15,-0.010988669
16,-0.14493032
17,0.018035926
18,0.039746337
19,-0.010660933
20,0.04185717
21,-0.14372832
22,-0.064207666
23,-0.0034350026
24,0.026535615
25,0.038683638
26,-0.03860135
27,-0.12492236
28,0.03259763
29,0.025935888
30,-0.017206656
31,0.030884635
32,-0.04797516
33,0.024364527
34,0.018709539
35,0.022309693
36,0.006592914
37,-0.0433253
38,0.03375266
39,0.019401915
40,0.04347452
41,0.08029337
42,-0.14023378
43,0.004156248
44,-0.14858162
45,0.027885076
46,-0.02875197
47,-0.013429191
48,0.004855094
49,-0.008561081
50,-0.004271451
51,-0.011306884
52,0.018030189
53,-0.021488523
54,-0.05044701
55,-0.021365138
56,-0.010437237
57,0.049630787
58,-0.09730406
59,0.054748155
60,-0.04132299
61,-0.08336156
62,0.07774929
63,0.046249967
64,0.0044665807
65,0.013052024
66,-0.025428755
67,0.061273854
68,-0.020900382
69,0.014266742
70,-0.11737184
71,-0.010627552
72,0.017224427
73,0.006493098
74,0.049636282
75,0.037254993
76,0.041188184
77,-0.11092442
78,-0.10313885
79,0.006380391
80,0.007856938
81,0.009308279
82,0.069107406
83,-0.0986101
84,0.035900917
85,-0.0058688773
86,-0.10788139
87,-0.024919
88,-0.025968645
89,-0.033606265
90,-0.006841016
91,0.11054388
92,0.08445102
93,-0.03880801
94,0.08863213
95,-0.035719458
96,0.013650994
97,-0.09270962
98,-0.045262154
99,-0.14260544
100,-0.090267755
101,-0.008111323
102,-0.09046615
103,-0.23393716
104,-0.0026700555
105,0.023415808
106,-0.07663161
107,-0.004795594
108,-0.09738847
109,-0.03468789
110,0.008370547
111,-0.021912435
112,0.03689882
113,-0.02438513
114,0.053036835
115,-0.08270861
116,0.003056125
117,-0.097074874
118,-0.0515065
119,-0.051897988
120,0.010578672
121,0.030362051
122,0.043144062
123,0.036386546
124,-0.029501524
125,-0.01462432
126,-0.114174984
127,0.019430552
128,-0.08143881
129,-0.08595772
130,-0.05939758
131,0.03598754
132,-0.055336952
133,-0.01835396
134,-0.019970909
135,-0.001547506
136,-0.16243623
137,-0.12721522
138,-0.11602443
139,0.018526485
140,-0.10261054
141,-0.023063617
142,0.0071889176
143,-0.0023427138
144,-0.10637085
145,-0.0040050913
146,0.03755661
147,-0.052143224
148,-0.042120356
149,-0.004177593
150,-0.04230469
151,-0.106002085
152,-0.14347382
153,0.058749825
154,-0.063616805
155,-0.11035555
156,-0.0057147597
157,-0.015825393
158,-0.019670296
159,-0.020233093
160,-0.026916271
161,0.020925172
162,-0.10640812
163,-0.113299266
164,0.04559886
165,-0.045803927
166,0.046214372
167,-0.05058322
168,0.047791846
169,-0.098097876
170,-0.10544866
171,0.0028556292
172,-0.117558755
173,-0.044985443
174,-0.089361936
175,0.025937274
176,0.04161725
177,0.005074169
178,-0.005973756
179,-0.022242758
180,0.039318055
181,0.08373351
182,-0.12589337
183,-0.074143715
184,0.07000645
185,-0.16914944
186,-0.1391973
187,-0.011981198
188,-0.06269277
189,-0.024471873
190,0.07228332
191,-0.017413368
192,-0.008801807
193,0.06642507
194,-0.042590246
195,-0.10290364
196,-0.08606386
197,-0.0037529105
198,-0.14991657
199,0.026458401
200,-0.028237764
201,-0.14951
202,-0.02978775
203,0.04567051
204,0.080560215
205,0.06273337
206,-0.069469094
207,0.009993006
208,-0.008135663
209,-0.015048506
210,-0.023430666
211,-0.08524252
212,-0.03587167
213,-0.02067679
214,-0.028391093
215,0.03790066
216,-0.05941915
217,-0.023599774
218,-0.0035312618
219,0.07461158
220,0.013533757
221,-0.12336531
222,0.02928935
223,-0.10818808
224,0.015764175
225,-0.11361594
226,-0.048419822
227,-0.09470415
228,-0.12687702
229,-0.111146875
230,-0.051012482
231,-0.115013346
232,-0.03758465
233,-0.024458917
234,-0.037516657
235,-0.011941511
236,-0.10470809
237,-0.07757919
238,0.02327476
239,-0.017609822
240,-0.21253827
241,0.017630553
242,0.074981414
243,-0.26737452
244,-0.050307613
245,-0.2633426
246,-0.032201838
247,-0.15815917
248,0.0077691176
249,-0.034589536
250,0.062677376
251,0.034618407
252,0.008519842
253,-0.1609944
254,-0.05828579
255,-0.09805029
256,0.03685156
257,-0.13124809
258,-0.013814085
259,-0.09307888
260,0.03464064
261,-0.088812225
262,0.038385555
263,-0.0021031462
264,0.053275477
265,-0.09220798
266,0.04890652
267,-0.008632101
268,-0.07936137
269,-0.016886376
270,-0.03166694
271,-0.049835708
272,0.009944196
273,-0.03855195
274,-0.07150438
275,-0.056616936
276,0.035926897
277,-0.021556163
278,-0.24490674
279,0.015391262
280,-0.0017742937
281,0.010827636
282,-0.019406026
283,-0.1102157
284,-0.056147795
285,-0.078260526
286,-0.0028645312
287,-0.18550852
288,-0.007839227
289,-0.033740345
290,-0.011873015
291,0.048187565
292,0.011730546
293,-0.12142142
294,0.03023645
295,-0.01804051
296,-0.05943932
297,-0.016697004
298,-0.038749576
299,-0.0030286198
300,-0.028445039
301,-0.03597821
302,-0.04419484
303,-0.002721575
304,0.016981859
305,-0.07669184
306,0.03304205
307,-0.054636993
308,-0.06364667
309,0.05032598
310,0.0076744896
311,0.029284595
312,-0.08464678
313,0.0034805613
314,0.052249808
315,-0.072344534
316,-0.054908548
317,0.049735263
318,0.016892973
319,-0.12642212
320,0.02443479
321,0.06469201
322,0.0069674784
323,0.027323619
324,0.01623572
325,0.0074122925
326,0.008800009
327,0.024972972
328,-0.034313824
329,-0.043773793
330,0.041764904
331,-0.12248337
332,-0.042867415
333,-0.1492591
334,-0.028977294
335,0.04760517
336,-0.04087796
337,-0.015738009
338,-0.04596641
339,-0.021484584
340,0.035591673
341,-0.032408472
342,0.03148773
343,0.01569196
344,-0.14840907
345,-0.06192326
346,-0.014327162
347,-0.042037386
348,-0.104752705
349,0.07982387
350,0.04048689
351,0.0043941564
352,-0.031439554
353,-0.06948075
354,-0.15701911
355,0.007615059
356,0.016322643
357,-0.00078647566
358,0.017202482
359,0.01970936
360,-0.02881826
361,-0.033485852
362,-0.038361594
363,-0.008055939
364,-0.030350605
365,0.032299533
366,0.0065258597
367,-0.0029922884
368,0.010063034
369,-0.011013721
370,-0.039695088
371,-0.01318437
372,-0.06015617
373,-0.05123431
374,0.01712521
375,-0.05237503
376,-0.024018098
377,0.012497811
378,-0.03908649
379,0.011764344
380,-0.020812904
381,-0.01600854
382,0.034154274
383,0.025970723
384,0.015159218
385,-0.026168775
386,0.057538588
387,-0.03335156
388,-0.025497053
389,-0.084482744
390,0.033035308
391,-0.013870039
392,0.015599682
393,0.005802629
394,0.08647763
395,-0.0076004285
396,-0.00058353564
397,0.082470216
398,-0.07050892
399,-0.06939152
400,-0.016772896
401,0.048556466
402,-0.053883504
403,-0.02921907
404,0.099368304
405,0.0021142424
406,0.07204117
407,0.035973143
408,-0.0113454815
409,-0.083641686
410,-0.004977534
411,-0.049977005
412,-0.049149223
413,-0.041114125
414,0.0014029215
415,0.028347224
416,-0.0846008
417,-0.027126864
418,-0.082986444
419,0.19608389
420,-0.028706267
421,0.058854915
422,-0.16383314
423,0.0065182047
424,0.07665516
425,-0.045749214
426,-0.019213157
427,-0.009217009
428,-0.019280296
429,0.1304225
430,0.10781534
431,-0.00499301
432,-0.026592594
433,0.04198408
434,-0.06135159
435,-0.045492735
436,-0.052760787
437,0.032436755
438,0.08940422
439,-0.2079085
440,-0.010738504
441,-0.035935074
442,-0.057336755
443,0.14771222
444,-0.18195389
445,0.017317554
446,-0.02884867
447,-0.056615617
448,0.026230399
449,-0.15476523
450,-0.2893272
451,0.036504857
452,0.08361826
453,-0.006000285
454,-0.01833284
455,0.03626202
456,0.0017521735
457,0.0073401327
458,0.14932412
459,0.025864322
460,-0.043447025
461,-0.05498595
462,0.03445585
463,0.10682394
464,0.024881877
465,-0.006077192
466,-0.07180759
467,0.008524697
468,-0.060339145
469,-0.029714301
470,0.09678553
471,0.055843774
472,0.0390814
473,0.012022676
474,5.5399505e-05
475,-0.0066953283
476,-0.008334479
477,0.031145776
478,0.07194653
479,-0.067527175
480,-0.0084955245
481,-0.07086721
482,-0.051293794
483,-0.012247262
484,-0.04010721
485,-0.055087242
486,-0.033468314
487,0.014629863
488,-0.02619207
489,-0.042567004
490,0.094743066
491,0.00022480855
492,-0.0076345294
493,0.17080571
494,0.017373106
495,0.007084957
496,-0.03723528
497,-0.010781511
498,-0.03415491
499,-0.09792365
500,-0.08011271
501,0.100232854
502,0.14248325
503,-0.07656208
504,-0.024139414
505,0.043350577
506,0.15840374
507,-0.091129415
508,-0.08226546
509,0.05194555
510,0.044811137
511,0.09714325
512,0.015069564
513,-0.06245195
514,0.006520924
515,0.018537238
516,0.029900616
517,-0.0017035485
518,-0.0017789544
519,-0.00097294874
520,-0.013041998
521,-0.009896816
522,-0.018646656
523,-0.032151088
524,0.012361105
525,0.037908483
526,0.074421525
527,-0.03167836
528,0.015654659
529,0.063438326
530,0.038511585
531,0.061448887
532,0.03200784
533,0.051437285
534,-0.065504916
535,0.06222992
536,-0.05899725
537,-0.006352308
538,0.004219582
539,0.032121103
540,-0.08707756
541,0.0023299514
542,-0.009137584
543,-0.010216144
544,-0.0510671
545,-0.03426037
546,0.05849745
547,0.046606977
548,-0.0051784744
549,0.04076446
550,-0.0059864833
551,-0.12542766
552,0.030197524
553,-0.0008756914
554,0.044886846
555,-0.008199045
556,0.011255007
557,0.03243581
558,-0.044406734
559,0.06811767
560,-0.08947187
561,0.0004574308
562,-0.066581964
563,0.010969167
564,0.016012276
565,-0.019917168
566,-0.053218786
567,0.024915572
568,-0.0019179567
569,0.02099139
570,-0.013040149
571,0.05141756
572,-0.039721873
573,0.0012676974
574,-0.062430438
575,-0.0033687935
576,-0.060607065
577,0.0008210248
578,0.071117744
579,0.059541553
580,-0.032924116
581,3.2828148e-06
582,0.02758028
583,0.074512914
584,-0.017833097
585,0.046467576
586,0.038523164
587,0.02895913
588,0.05037886
589,0.16002038
590,0.055184837
591,0.02049382
592,-0.027030442
593,0.008071697
594,0.024696639
595,-0.039428268
596,0.046375755
597,0.03303355
598,-0.011764085
599,-0.037491307
600,0.012313912
601,-0.11231326
602,-0.019009905
603,0.0557707
604,0.0027543115
605,-0.052428044
606,-0.0031566496
607,0.052165225
608,-0.042052362
609,-0.0029302132
610,-0.03350089
611,0.07947635
612,-0.009042884
613,0.0048809596
614,-0.021831797
615,0.051238846
616,0.008062115
617,-0.083713315
618,0.057158694
619,0.0030084662
620,0.06826461
621,-0.0047387155
622,-0.04085627
623,0.014506017
624,-0.0138498545
625,-0.001688913
626,0.04720792
627,-0.033441953
628,0.0021927296
629,-0.039830826
630,0.04087712
631,-0.046927013
632,-0.04415267
633,-0.026943386
634,0.022798857
635,-0.024882363
636,0.015912801
637,0.03944113
638,0.00075791543
639,0.016996808
640,0.0023987584
641,-0.017510444
642,-0.052562937
643,0.006915406
644,0.016312577
645,-0.077564955
646,-0.06600304
647,-0.0015959152
648,0.052061208
649,-0.0059349793
650,0.04649267
651,-0.04136957
652,-0.027514385
653,-0.18053396
654,-0.0032206168
655,-0.0375453
656,0.041894928
657,0.008227925
658,-0.1808153
659,0.022895748
660,-0.17836429
661,0.02625625
662,-0.037122782
663,0.060908154
664,-0.0022614873
665,-0.03946458
666,-0.021431241
667,0.007864986
668,-0.028580332
669,-0.020089703
670,0.00497414
671,-0.021560933
672,0.012663996
673,-0.011521158
674,0.03546076
675,-0.07721949
676,-0.004000242
677,-0.0021005347
678,-0.003321887
679,-0.083147064
680,0.053758528
681,-0.064871475
682,-0.017116496
683,-0.011568639
684,0.016578857
685,-0.07226114
686,0.044697773
687,-0.031212073
688,-0.010072644
689,-0.025935376
690,-0.05941229
691,0.015669035
692,0.012766935
693,-0.0026070315
694,0.008036324
695,0.039703872
696,-0.01370478
697,-0.08285828
698,0.015227718
699,-0.21775872
700,-0.00043421888
701,0.028759735
702,-0.07810735
703,-0.03617599
704,-0.07770219
705,-0.0026627078
706,-0.010387822
707,-0.002484593
708,-0.037398778
709,-0.002206549
710,0.022963544
711,-0.019412069
712,-0.017263342
713,0.027247202
714,-0.16872974
715,0.04009509
716,-0.17770554
717,-0.022306385
718,0.026809528
719,9.74545e-05
720,0.032945517
721,-0.0061447294
722,-0.10004508
723,-0.026857192
724,-0.012452294
725,-0.023715124
726,0.09588181
727,0.119915746
728,0.0041599106
729,-0.0512646
730,-0.0033568232
731,-0.1439577
732,-0.015098875
733,-0.04079365
734,0.01302686
735,0.03389529
736,-0.0033607327
737,-0.0015258379
738,-0.050032526
739,0.0034266058
740,-0.06278449
741,-0.03331866
742,-0.015384958
743,0.0574791
744,-0.091814965
745,0.025939811
746,0.040303953
747,-0.003541176
748,-0.00094582123
749,-0.041354135
750,-0.13940875
751,0.008288302
752,-0.008458455
753,-0.0275959
754,-0.033019897
755,0.0097610345
756,0.025126152
757,0.032381758
758,0.04532658
759,-0.015433196
760,-0.035385925
761,-0.0362386
762,0.1335052
763,-0.0828694
764,0.0054462287
765,0.034191485
766,0.049131732
767,-0.0093453415
768,-0.009096611
769,-0.16974291
770,-0.023912134
771,-0.077273615
772,-0.058598753
773,0.042533975
774,-0.026519878
775,-4.200184e-05
776,-0.033231534
777,0.01419713
778,0.022654107
779,-0.00782691
780,-0.108613186
781,0.032148812
782,-0.0561316
783,-0.020866975
784,0.0035587943
785,0.0007704871
786,0.025671456
787,0.028134294
788,0.039020803
789,-0.06713486
790,-0.12832673
791,0.040051267
792,-0.11297112
793,0.0860865
794,-0.067633785
795,-0.13326755
796,-0.018748926
797,0.013027614
798,-0.028328223
799,0.02752284
800,-0.016781818
801,-0.05810801
802,-0.04917189
803,-0.010994799
804,-0.014711454
805,-0.059384536
806,0.019453915
807,-0.056864902
808,-0.026531883
809,0.056695838
810,-0.01268781
811,-0.010491831
812,-0.02823004
813,0.011799903
814,0.016855389
815,-0.012158467
816,-0.0029416962
817,0.013410659
818,-0.06587322
819,-0.020072263
820,-0.10527939
821,-0.0526609
822,-0.024676653
823,-0.07117631
824,0.040410515
825,0.060195904
826,-0.08929761
827,0.0037078678
828,-0.10375438
829,0.023813222
830,0.000413591
831,-0.045567315
832,-0.0045088697
833,0.024788296
834,-0.03918148
835,0.040351924
836,-0.059235863
837,-0.008799317
838,-0.0021188597
839,-0.08021114
840,-0.020530893
841,0.021076107
842,0.0897862
843,0.022556849
844,0.074637674
845,-0.09539386
846,-0.16201343
847,0.057738066
848,0.023483811
849,0.013966884
850,0.09846129
851,-0.09639281
852,0.15092725
853,0.0104281325
854,0.008804422
855,0.025730789
856,-0.07163254
857,-0.034380827
858,0.009052289
859,0.06268518
860,0.0028588227
861,0.028646383
862,0.012811326
863,-0.046323232
864,0.004501332
865,-0.0791492
866,-0.045092598
867,0.025292177
868,0.0068099876
869,-0.07387941
870,-0.10655054
871,-0.013902486
872,-0.05157375
873,0.00084153895
874,-0.020413103
875,-0.0016144598
876,-0.014542924
877,-0.028565405
878,0.04508655
879,-0.00505973
880,0.10256496
881,-0.021282867
882,-0.015152469
883,-0.07391399
884,0.008010772
885,0.00372203
886,-0.04624742
887,-0.1188849
888,-0.08194431
889,-0.019199854
890,-0.04942417
891,-0.04720263
892,-0.031134196
893,-0.05446994
894,-0.030808993
895,0.049217463
896,0.075447686
897,-0.023458263
898,0.047254607
899,-0.04558386
900,-0.082201354
901,-0.082594864
902,0.06324338
903,-0.0032934344
904,-0.24722062
905,-0.013359729
906,0.088475876
907,-0.11218314
908,0.16031565
909,-0.0030173124
910,-0.01152065
911,-0.07930301
912,0.057548847
913,0.035791036
914,-0.06138147
915,0.04805146
916,-0.039372977
917,-0.17426349
918,0.0034664518
919,-0.11585429
920,-0.017726334
921,-0.043261416
922,-0.16026781
923,-0.036105476
924,-0.061645802
925,-0.114662185
926,0.0036448692
927,0.0112953
928,-0.023737635
929,0.015697075
930,-0.00900234
931,-0.12910527
932,-0.0364402
933,0.054043725
934,-0.06197796
935,-0.12961821
936,0.01942339
937,-0.0061209816
938,-0.24864551
939,-0.010424957
940,-0.19645335
941,-0.0016982674
942,0.0066168853
943,-0.013307202
944,-0.04176126
945,-0.13503128
946,-0.049979657
947,-0.03422136
948,-0.20096232
949,-0.07650715
950,0.14054082
951,0.030460563
952,-0.0066301394
953,0.022295065
954,0.021776969
955,0.03617365
956,-0.0034833378
957,0.031266898
958,-0.003291539
959,-0.08763816
960,-0.070193775
961,-0.042025484
962,-0.018869055
963,0.058060206
964,0.0020492452
965,0.004291893
966,-0.25030693
967,0.049621165
968,-0.07688774
969,-0.053272873
970,0.051977396
971,0.038358852
972,0.0130329
973,0.058776196
974,-0.00097496837
975,0.12319854
976,-0.08649044
977,-0.019685095
978,-0.102739155
979,0.018500475
980,0.020673055
981,-0.028089393
982,0.07985185
983,-0.038195964
984,0.031747967
985,-0.15877691
986,0.014595458
987,-0.08908897
988,-0.032875232
989,0.056923743
990,-0.0025285343
991,-0.01545354
992,-0.068811186
993,-0.04107499
994,-0.10708789
995,-0.2172184
996,-0.044517383
997,-0.039239556
998,0.007922038
999,-0.14094146
1000,0.03861393
1001,-0.19558097
1002,0.100803256
1003,-0.007447328
1004,-0.011517724
1005,-0.00078361697
1006,0.07822105
1007,0.0003947839
1008,-0.15181462
1009,-0.0038534019
1010,-0.086897224
1011,-0.20994714
1012,-0.027704235
1013,0.067978255
1014,0.121537134
1015,-0.009814239
1016,-0.008056569
1017,0.026561415
1018,0.025189018
1019,-0.15226813
1020,-0.00093095197
1021,-0.24284427
1022,0.016283868
1023,0.07927215
1024,0.058188118
1025,0.016061947
1026,0.021934438
1027,0.06446822
1028,-0.010231005
1029,-0.030064693
1030,0.015265864
1031,-0.0042225905
1032,0.024365889
1033,-0.013119108
1034,0.004154185
1035,-0.06381495
1036,-0.006496492
1037,0.056136996
1038,-0.13368918
1039,0.04187389
1040,0.05754611
1041,-0.008260105
1042,0.04484014
1043,-0.013803529
1044,-0.0030578708
1045,0.10209153
1046,0.002966461
1047,-0.0029296824
1048,0.052215666
1049,-0.057681948
1050,-0.06006645
1051,0.024324503
1052,-0.046835653
1053,-0.06475284
1054,-0.0054593515
1055,-0.05921817
1056,0.018096851
1057,-0.019000454
1058,-0.056675214
1059,-0.035017397
1060,-0.03263315
1061,0.028738445
1062,0.021424687
1063,-0.13419142
1064,0.043492153
1065,-0.02802787
1066,0.06014986
1067,0.008816314
1068,0.080554195
1069,0.0064394195
1070,-0.040162697
1071,0.0052054124
1072,-0.10907069
1073,-0.07065026
1074,0.00088042114
1075,0.009297421
1076,-0.08618243
1077,0.03908648
1078,0.003254273
1079,0.08350169
1080,-0.0031936327
1081,-0.006227355
1082,0.021321623
1083,0.03320795
1084,0.027898116
1085,-0.00847078
1086,-0.10518784
1087,-0.072341196
1088,0.006251853
1089,-0.049813934
1090,0.023400353
1091,-0.06758067
1092,0.031840015
1093,-0.001822921
1094,0.07205515
1095,0.06611934
1096,-0.061739955
1097,-0.07605873
1098,0.0251808
1099,0.038719937
1100,0.110931076
1101,-0.114290856
1102,0.043861955
1103,-0.014543899
1104,-0.061138727
1105,-0.009143626
1106,-0.09589746
1107,-0.034484748
1108,-0.077758245
1109,0.0010024348
1110,0.023739753
1111,0.0066132494
1112,-0.089812644
1113,-0.19857885
1114,-0.0189965
1115,-0.08038276
1116,0.0005627611
1117,-0.0033943322
1118,-0.013641591
1119,0.052262146
1120,-0.0794511
1121,0.05222987
1122,-0.01792653
1123,0.059774272
1124,-0.0318438
1125,0.02271667
1126,0.0056628156
1127,0.057144113
1128,-0.06974275
1129,0.03448172
1130,0.062249232
1131,0.004426889
1132,0.106646396
1133,0.005620632
1134,0.009068248
1135,-0.008075857
1136,-0.058372464
1137,0.007246681
1138,-0.06381279
1139,-0.014865099
1140,0.002380719
1141,0.05050532
1142,0.045932565
1143,0.036158588
1144,-0.034192204
1145,-0.17955457
1146,0.034835376
1147,-0.1813483
1148,0.040235303
1149,-0.025901591
1150,0.011958767
1151,0.057898294
1152,0.11480929
1153,-0.14063
1154,0.076393984
1155,-0.024536736
1156,0.034624048
1157,-0.05828954
1158,-0.25836217
1159,0.009816763
1160,0.054514352
1161,0.03344303
1162,0.063355595
1163,-0.013053292
1164,-0.029020933
1165,0.09648864
1166,-0.07336755
1167,0.022445206
1168,0.082363136
1169,-0.08257179
1170,-0.08944977
1171,0.028535435
1172,0.082525
1173,-0.05313985
1174,-0.05508797
1175,0.021449087
1176,0.034649916
1177,-0.023734722
1178,-0.030272381
1179,0.026340732
1180,-0.050660018
1181,0.008086199
1182,0.0021635953
1183,-0.045852702
1184,-0.01812251
1185,-0.055540614
1186,-0.08397174
1187,0.1534139
1188,-0.049889408
1189,-0.038025506
1190,-0.18894535
1191,-0.1876807
1192,-0.19005655
1193,-0.117922276
1194,0.017693674
1195,-0.0036949215
1196,0.04874245
1197,0.14268349
1198,-0.024972934
1199,0.0044782953
1200,-0.09404574
1201,-0.06812192
1202,-0.0658837
1203,0.005657183
1204,-0.032320715
1205,-0.36189446
1206,-0.0024910432
1207,-0.018037401
1208,-0.032424025
1209,-0.034973547
1210,-0.044416845
1211,0.09333059
1212,-0.060436156
1213,-0.013066111
1214,-0.08339615
1215,-0.012709239
1216,-0.10412286
1217,-0.12869468
1218,0.021500804
1219,-0.005282589
1220,0.2215402
1221,-0.0038183392
1222,0.01880334
1223,-0.1947568
1224,-0.030694462
1225,0.06963406
1226,0.13709447
1227,-0.20205022
1228,-0.08603532
1229,-0.040780485
1230,0.00117754
1231,0.004453003
1232,-0.05027815
1233,0.008358423
1234,-0.04699398
1235,-0.100198485
1236,0.0036672428
1237,0.026410617
1238,0.11104344
1239,-0.12381258
1240,-0.047652774
1241,0.017366042
1242,-0.0065900018
1243,-0.11812161
1244,-0.3083567
1245,0.06816732
1246,-0.032206465
1247,-0.014248609
1248,-0.080791295
1249,-0.022789622
1250,0.010873869
1251,0.02082
1252,0.03842155
1253,-0.05261638
1254,-0.03320408
1255,0.04242653
1256,-0.050916523
1257,-0.03930709
1258,0.030496895
1259,0.006338831
1260,0.047275115
1261,0.16497777
1262,0.0513816
1263,-0.010572218
1264,0.005144182
1265,-0.008393587
1266,-0.021489056
1267,0.10313852
1268,-0.005187368
1269,-0.11036315
1270,0.074020974
1271,-0.085159995
1272,-0.027301095
1273,-0.013446849
1274,-0.1497276
1275,-0.1461499
1276,-0.0034182067
1277,0.10861287
1278,0.04708783
1279,0.115465194
1280,-0.040444225
1281,-0.11855185
1282,0.024618039
1283,-0.029608406
1284,-0.0112614585
1285,-0.09861303
1286,-0.06889484
1287,0.0074663623
1288,0.011344372
1289,-0.03768139
1290,0.01244742
1291,-0.06558153
1292,-0.029480629
1293,0.13056515
1294,-0.0057251668
1295,-0.048408102
1296,0.0013086643
1297,0.0046102144
1298,-0.039781973
1299,-0.0099235
1300,-0.07323572
1301,-0.024106301
1302,-0.035831805
1303,0.075671725
1304,-0.041661188
1305,-0.0080511235
1306,-0.029270882
1307,-0.013564965
1308,-0.0639411
1309,0.04700891
1310,-0.010909279
1311,-0.06526864
1312,0.003474027
1313,-0.10017021
1314,0.009926917
1315,0.010190937
1316,-0.0004569804
1317,-0.015289512
1318,-0.10814016
1319,-0.0044260267
1320,0.027877742
1321,-0.07606848
1322,-0.0019871846
1323,0.0026236773
1324,0.011902686
1325,0.03231757
1326,0.08136499
1327,0.0033449926
1328,-0.04619187
1329,-0.033334736
1330,-0.09025998
1331,-0.05313758
1332,0.007840173
1333,-0.055289935
1334,-0.029356707
1335,-0.12363367
1336,0.092928395
1337,-0.07341275
1338,-0.08622731
1339,0.045820955
1340,-0.06516802
1341,-0.0039475225
1342,0.015858373
1343,0.005372713
1344,-0.053173464
1345,-0.054529443
1346,-0.004405506
1347,-0.025434641
1348,-0.022096043
1349,0.006084351
1350,0.0071342317
1351,-0.048518952
1352,-0.06306381
1353,0.05142747
1354,0.042566556
1355,-0.0025576325
1356,-0.116111405
1357,-0.13306572
1358,-0.034219515
1359,0.014031228
1360,-0.064816944
1361,0.0070061767
1362,0.10863176
1363,-0.0980922
1364,-0.04816197
1365,0.015576859
1366,-0.0723476
1367,-0.063460946
1368,0.030781
1369,-0.057447236
1370,-0.0057368316
1371,0.065021574
1372,0.06878687
1373,-0.13709174
1374,-0.08214067
1375,-0.088886395
1376,-0.051875483
1377,-0.035930224
1378,-0.07074773
1379,-0.020766208
1380,-0.058903467
1381,-0.024668442
1382,-0.042205542
1383,0.021208642
1384,-0.090738826
1385,-0.10245884
1386,-0.022382382
1387,-0.0061539253
1388,-0.056422416
1389,-0.007666562
1390,-0.0122463675
1391,-0.009215534
1392,0.04300433
1393,0.008680911
1394,0.05436674
1395,0.035867862
1396,-0.0023245371
1397,-0.050500743
1398,0.023298122
1399,-0.09008188
1400,-0.067788385
1401,-0.0003519746
1402,0.030139646
1403,-0.050877154
1404,-0.07236517
1405,0.028453413
1406,0.01162889
1407,0.1076512
1408,-0.12841381
1409,-0.037454784
1410,0.0976817
1411,-0.029085698
1412,-0.15729082
1413,-0.0377662
1414,0.09457122
1415,-0.0072345487
1416,-0.10274588
1417,-0.03714133
1418,0.038622044
1419,0.01210282
1420,-0.15977888
1421,0.2022935
1422,0.018329658
1423,-0.0910066
1424,-0.13053656
1425,0.02000711
1426,-0.084820464
1427,0.023521252
1428,0.049563114
1429,-0.30631974
1430,0.058944505
1431,-0.0050230394
1432,0.03078947
1433,0.04823161
1434,-0.049516283
1435,-0.027412942
1436,0.011969043
1437,0.0078062564
1438,-0.012371634
1439,-0.038664967
1440,0.02808112
1441,0.0056264605
1442,0.09030034
1443,0.017751008
1444,0.047429077
1445,0.052326553
1446,0.17131989
1447,0.006375857
1448,-0.09464563
1449,-0.054295897
1450,-0.20979919
1451,-0.020512216
1452,-0.13177624
1453,0.10477104
1454,0.108548485
1455,-0.021403732
1456,0.0517353
1457,0.008671711
1458,0.0741459
1459,0.013470143
1460,0.032189265
1461,0.045505513
1462,0.04385443
1463,-0.056759387
1464,0.15883651
1465,0.0019224453
1466,-0.0718545
1467,0.19101734
1468,-0.040133208
1469,-0.315247
1470,0.008816562
1471,-0.0066273953
1472,0.009662252
1473,0.15939271
1474,-0.0049192626
1475,0.07562708
1476,-0.017707314
1477,-0.012187589
1478,-0.14385535
1479,-0.03988419
1480,0.020368923
1481,0.059168115
1482,0.102774434
1483,-0.0540273
1484,-0.11320458
1485,-0.20418806
1486,-0.07171991
1487,0.061853547
1488,-0.03904299
1489,-0.008765457
1490,0.01448225
1491,0.03183022
1492,0.026486726
1493,-0.019869182
1494,-0.03750056
1495,-0.17578754
1496,0.09329854
1497,0.04770621
1498,-0.016469248
1499,0.093033694
1500,-0.0034556536
1501,-0.097525485
1502,0.108254544
1503,-0.079359576
1504,-0.00019420328
1505,-0.089850985
1506,-0.06840604
1507,-0.2521725
1508,-0.0051224655
1509,-0.010633522
1510,-0.006175571
1511,-0.26246354
1512,0.074027486
1513,-0.07389565
1514,-0.17500234
1515,-0.0040341183
1516,-0.26671135
1517,0.021870676
1518,-0.020732608
1519,-0.0067846505
1520,0.037234973
1521,0.016493654
1522,0.049619082
1523,-0.06511669
1524,0.06616142
1525,-0.05071463
1526,0.08618072
1527,-0.09628971
1528,-0.055716712
1529,-0.0012940859
1530,-0.032547034
1531,0.03864872
1532,0.0029519252
1533,-0.0042344695
1534,-0.019869901
1535,0.09067391
1536,0.018371861
1537,0.09689703
1538,-0.08167909
1539,0.0013241302
1540,-0.01729229
1541,-0.011763682
1542,-0.09510259
1543,0.0028860671
1544,0.017412124
1545,-0.033387065
1546,-0.09597006
1547,0.07855393
1548,-0.014045784
1549,-0.14361328
1550,-0.09832469
1551,0.01634281
1552,0.06764375
1553,0.01757826
1554,-0.0035179916
1555,-0.031535905
1556,-0.09656259
1557,-0.02261764
1558,-0.062249098
1559,0.05766437
1560,0.0881651
1561,0.044952113
1562,0.044564284
1563,-0.06760219
1564,0.07415908
1565,0.02032829
1566,-0.011942623
1567,0.07325295
1568,0.02928868
1569,0.07476191
1570,-0.119739465
1571,0.00238126
1572,-0.062092863
1573,-0.09338156
1574,-0.08493066
1575,0.07603668
1576,0.054720946
1577,-0.01798084
1578,0.029716086
1579,0.0035897368
1580,0.010833919
1581,-0.15593648
1582,-0.049036384
1583,-0.027106367
1584,0.08651485
1585,0.060178503
1586,0.06504247
1587,-0.013020403
1588,-0.011478519
1589,0.03995129
1590,-0.09432299
1591,0.06850574
1592,-0.09297485
1593,0.008714005
1594,0.040148247
1595,-0.21366094
1596,0.046340004
1597,-0.005784995
1598,0.05108443
1599,0.0072767404
1600,0.06489944
1601,-0.08117411
1602,-0.031149104
1603,-0.12877253
1604,-0.099812776
1605,0.0007754227
1606,0.04867437
1607,0.049387965
1608,0.08750087
1609,-0.086208954
1610,-0.12440845
1611,0.048991937
1612,-0.012253656
1613,-0.048614852
1614,0.0800339
1615,-0.07903323
1616,0.06415983
1617,-0.012692518
1618,0.113586
1619,-0.04639843
1620,-0.035295304
1621,0.00627182
1622,-0.04795785
1623,0.05453713
1624,-0.025153486
1625,0.047580052
1626,-0.001555892
1627,0.04792446
1628,0.067218006
1629,-0.05768462
1630,0.03928623
1631,0.00087099965
1632,0.075176015
1633,0.03502662
1634,0.0024083927
1635,0.049774215
1636,-0.12903939
1637,-0.044220608
1638,-0.0029613683
1639,0.0051194793
1640,0.04643581
1641,0.07020358
1642,-0.06608584
1643,-0.013643116
1644,0.040934943
1645,-0.07824282
1646,0.02526877
1647,-0.014845128
1648,-0.011166076
1649,-0.02058055
1650,-0.0002569674
1651,0.00041400443
1652,-0.036243018
1653,0.080848984
1654,-0.26727158
1655,0.060674604
1656,0.07487221
1657,0.00424094
1658,-0.041778915
1659,0.0792431
1660,0.03314279
1661,-0.026727661
1662,-0.08720581
1663,-0.13100979
1664,0.0693253
1665,-0.11494174
1666,0.07216667
1667,-0.022779876
1668,0.0440503
1669,0.033919882
1670,0.051891085
1671,-0.008643375
1672,0.015086403
1673,-0.034450572
1674,0.03242927
1675,-0.05794614
1676,-0.14544727
1677,-0.057700023
1678,-0.08030923
1679,0.016360417
1680,0.0012896085
1681,-0.016555563
1682,-0.03941994
1683,-0.05165225
1684,0.0934452
1685,0.016978953
1686,0.009011504
1687,-0.06276548
1688,0.022258533
1689,0.051919863
1690,-0.073349215
1691,-0.025413737
1692,-0.07027767
1693,-0.017106615
1694,-0.01845394
1695,-0.072282955
1696,-0.03184587
1697,-0.04766835
1698,0.015780732
1699,0.045512076
1700,-0.01268852
1701,0.056050237
1702,0.02127037
1703,-0.011156274
1704,-0.031074759
1705,-0.008535432
1706,-0.015218944
1707,-0.01568838
1708,-0.009551562
1709,0.041260153
1710,-0.032647524
1711,0.00016505603
1712,0.024300383
1713,-0.12223411
1714,-0.033037905
1715,0.0029775153
1716,-0.0016379515
1717,0.04545304
1718,0.010538793
1719,0.02122154
1720,0.0314408
1721,-0.006258423
1722,-0.05968617
1723,0.025364297
1724,-0.103903845
1725,-0.09267744
1726,0.021239765
1727,0.06602407
1728,-0.03988759
1729,-0.018146481
1730,0.0077024847
1731,-0.009335608
1732,0.08168259
1733,-0.0054720733
1734,-0.008771721
1735,-0.010006826
1736,-0.11648945
1737,-0.06760912
1738,0.011095601
1739,-0.06432168
1740,-0.019303016
1741,-0.017690733
1742,-0.05283797
1743,-0.01694768
1744,-0.08085893
1745,-0.010497052
1746,-0.017909495
1747,-0.03721918
1748,-0.08382013
1749,0.00056128844
1750,-0.008978715
1751,-0.1367314
1752,-0.032221764
1753,-0.018417241
1754,-0.019462762
1755,-0.04722507
1756,-0.02871657
1757,0.050231084
1758,0.022728346
1759,-0.048540704
1760,-0.02138424
1761,-0.0887654
1762,-0.033335883
1763,0.02010932
1764,0.0028578043
1765,0.0065047676
1766,-0.045928523
1767,0.0053896946
1768,-0.0453513
1769,-0.04604979
1770,0.042544007
1771,-0.004427062
1772,0.0021041688
1773,0.049350806
1774,-0.02634944
1775,0.0025277168
1776,-0.05352295
1777,-0.011536037
1778,0.017439444
1779,-0.027660102
1780,-0.013183913
1781,-0.011733973
1782,0.058794633
1783,-0.14832777
1784,-0.017578643
1785,0.016871741
1786,0.022795778
1787,0.04147805
1788,-0.020917615
1789,0.061060447
1790,-0.034948222
1791,-0.040037822
1792,0.0052605816
1793,-0.04176076
1794,-0.124413855
1795,-0.044789534
1796,-0.0975612
1797,-0.033053495
1798,-0.05790581
1799,-0.0048237965
1800,-0.017352654
1801,0.0021772634
1802,-0.14822885
1803,0.03908732
1804,0.0331182
1805,-0.22272438
1806,-0.0465483
1807,0.0080606425
1808,0.029220754
1809,0.030898293
1810,0.07012906
1811,0.032246567
1812,-0.018109532
1813,-0.024479622
1814,-0.05579444
1815,-0.025820252
1816,0.016166491
1817,-0.13238044
1818,-0.0034801573
1819,-0.08280275
1820,-0.035849966
1821,-0.08248813
1822,0.006804822
1823,-0.0098921
1824,0.0120793395
1825,-0.006490203
1826,0.11687514
1827,-0.14003433
1828,-0.070558324
1829,-0.025912719
1830,0.04595182
1831,-0.028904887
1832,0.019009382
1833,0.075337574
1834,-0.0030615735
1835,0.011034927
1836,-0.0073147556
1837,-0.09916044
1838,-0.066317886
1839,0.015337508
1840,0.0036784348
1841,0.022556761
1842,0.049756296
1843,0.0057592033
1844,-0.1523335
1845,-0.037679423
1846,-0.0689679
1847,0.0271949
1848,-0.12634446
1849,0.044270013
1850,0.023287486
1851,-0.17260878
1852,0.049680676
1853,-0.012681694
1854,-0.073216714
1855,-0.145997
1856,0.036159534
1857,-0.0038405333
1858,0.0008824974
1859,-0.05634915
1860,-0.18713252
1861,-0.00036759028
1862,-0.020663448
1863,0.071856126
1864,0.019530062
1865,-0.023841213
1866,-0.22228579
1867,-0.019630754
1868,0.040187515
1869,0.0038073594
1870,-0.04981838
1871,0.03316612
1872,0.025990678
1873,-0.010127458
1874,-0.020656457
1875,-0.09633312
1876,-0.05347395
1877,0.021397157
1878,-0.05942189
1879,0.039666716
1880,0.012454192
1881,-0.083492875
1882,0.006704704
1883,-0.047236145
1884,0.04079008
1885,-0.022066718
1886,0.07220583
1887,-0.010238562
1888,0.020961333
1889,0.021399358
1890,0.016619718
1891,0.008067887
1892,-0.024079079
1893,-0.06199396
1894,0.06655622
1895,-0.017540455
1896,0.029074728
1897,-0.040412944
1898,0.07257409
1899,-0.00562038
1900,-0.014706645
1901,-0.12211076
1902,-0.004040831
1903,0.010754539
1904,-0.100222014
1905,-0.018572696
1906,-0.01872646
1907,-0.05308415
1908,-0.016961927
1909,-0.095908776
1910,-0.0011671694
1911,-0.03459241
1912,-0.034501735
1913,-0.09397081
1914,0.07700331
1915,-0.08403244
1916,-0.032470003
1917,-0.10967046
1918,-0.06050078
1919,-0.18973045
1920,-0.08275195
1921,-0.036571547
1922,-0.061650276
1923,-0.04556009
1924,-0.11933387
1925,-0.01507692
1926,-0.10584095
1927,0.0026381826
1928,-0.05046843
1929,-0.0054529165
1930,-0.2734622
1931,0.037863124
1932,-0.008119894
1933,-0.05539642
1934,-0.0554576
1935,0.033186726
1936,-0.012396366
1937,0.041535504
1938,0.10089501
1939,0.036284354
1940,-0.03833535
1941,-0.011711783
1942,-0.093943425
1943,0.032154292
1944,0.017173521
1945,-0.004543048
1946,0.0016305489
1947,-0.036075484
1948,0.007972665
1949,-0.0043766797
1950,-0.019498836
1951,-0.082726076
1952,0.03923762
1953,-0.02208319
1954,0.11251586
1955,-0.009491835
1956,-0.009332823
1957,-0.050342806
1958,0.0005256654
1959,-0.021187294
1960,0.07716027
1961,-0.010859175
1962,-0.0023532603
1963,0.004634596
1964,-0.0112696905
1965,-0.12363987
1966,-0.104672134
1967,-0.01763169
1968,0.033358727
1969,0.07237675
1970,0.019017994
1971,-0.045103762
1972,-0.0048596663
1973,0.0059709135
1974,-0.06760331
1975,-0.14717594
1976,-0.19441624
1977,0.03032019
1978,-0.092523664
1979,-0.13110843
1980,0.015189581
1981,-0.032278556
1982,0.018419169
1983,0.009892067
1984,0.040826753
1985,-0.0005110977
1986,0.0057035023
1987,-0.08044248
1988,-0.070156276
1989,-0.0068512545
1990,-0.022800766
1991,0.04325673
1992,0.044779867
1993,-0.0059144557
1994,-0.06506765
1995,-0.0021218585
1996,0.021502394
1997,0.074382745
1998,-0.023956968
1999,-0.004486608
2000,0.050099947
2001,0.0058643864
2002,-0.0012244288
2003,-0.08914823
2004,0.06956983
2005,-0.017818443
2006,-0.09461573
2007,0.07025928
2008,-0.06917106
2009,-0.06558567
2010,0.0003441999
2011,0.07171033
2012,0.07527412
2013,-0.066595666
2014,0.065067984
2015,-0.07664954
2016,0.035476595
2017,-0.034311265
2018,0.03263926
2019,0.030274918
2020,-0.04264491
2021,-0.15321434
2022,-0.021348603
2023,-0.008285092
2024,-0.01936327
2025,-0.04195179
2026,-0.00797405
2027,-0.015216286
2028,-0.029287687
2029,-0.024217691
2030,-0.0167304
2031,-0.015051241
2032,-0.10113466
2033,-0.01961124
2034,0.060185507
2035,-0.114359766
2036,-0.05273687
2037,-0.09456256
2038,-0.04651608
2039,-0.05486981
2040,0.011084054
2041,-0.002532692
2042,0.07252353
2043,-0.04288329
2044,-0.098243095
2045,0.024642505
2046,-0.14244519
2047,-0.07440793
2048,-0.046664305
2049,-0.04804446
2050,0.008199898
2051,-0.073769756
2052,-0.12021848
2053,0.02261996
2054,-0.13448924
2055,0.0028373473
2056,-0.12358698
2057,0.0023075386
2058,0.013536373
2059,-0.0202311
2060,-0.124582216
2061,-0.06436336
2062,-0.06368151
2063,-0.0041284566
2064,-0.1065333
2065,0.0292475
2066,0.018759651
2067,0.005829868
2068,-0.005185437
2069,-0.14621823
2070,0.07652518
2071,-0.10459599
2072,-0.008524691
2073,-0.055105034
2074,-0.07023232
2075,-0.02609846
2076,-0.069175765
2077,-0.057561938
2078,-0.0065995
2079,-0.022223782
2080,0.004449192
2081,-0.028229004
2082,0.07476886
2083,-0.2252824
2084,-0.046552353
2085,-0.045039434
2086,-0.1183942
2087,-0.0891759
2088,0.017761888
2089,0.03624372
2090,-0.1132769
2091,0.0088926945
2092,-0.07111559
2093,-0.059939664
2094,-0.003142052
2095,-0.012825598
2096,-0.044708874
2097,-0.047649782
2098,-0.040484875
2099,-0.034935936
2100,-0.020144567
2101,-0.1626543
2102,0.002920287
2103,-0.07501423
2104,0.01096822
2105,0.068448395
2106,-0.03484342
2107,-0.025478564
2108,-0.046312127
2109,-0.024798313
2110,-0.10050573
2111,-0.01228797
2112,-0.09325725
2113,-0.090242684
2114,-0.00040186953
2115,-0.0818916
2116,-0.11130537
2117,-0.00091118034
2118,-0.100067995
2119,-0.041468862
2120,-0.025310151
2121,-0.034905095
2122,-0.03273586
2123,0.049608316
2124,0.080903485
2125,0.038779065
2126,-0.07033384
2127,0.056022987
2128,-0.045388583
2129,-0.015525912
2130,-0.07277002
2131,-0.15034758
2132,0.05791271
2133,0.021275166
2134,0.02014421
2135,-0.108505115
2136,0.018262915
2137,-0.13171965
2138,-0.019007228
2139,-0.034011982
2140,-0.012923868
2141,-0.01770042
2142,0.109422565
2143,-0.1240728
2144,-0.05373861
2145,-0.096280105
2146,-0.05329449
2147,-0.13225304
2148,-0.027403463
2149,-0.00369974
2150,-0.012496275
2151,-0.14310302
2152,-0.05519393
2153,-0.0070904945
2154,-0.0396752
2155,-0.002520716
2156,-0.14416237
2157,-0.022705598
2158,0.071648315
2159,-0.0019099703
2160,-0.07152453
2161,-0.010523203
2162,-0.037271652
2163,-0.18563671
2164,-0.096769854
2165,-0.022174967
2166,0.07741576
2167,-0.11181074
2168,-0.0173371
2169,-0.038955644
2170,-0.017712489
2171,-0.15580511
2172,-0.08334261
2173,-0.197088
2174,-0.06959424
2175,-0.029969733
2176,0.016948601
2177,-0.017767845
2178,0.03141952
2179,0.013062384
2180,0.04582146
2181,-0.03397939
2182,-0.011965661
2183,-0.005673325
2184,0.020051505
2185,-0.006190927
2186,-0.00956253
2187,-0.04209771
2188,0.04663473
2189,0.014750116
2190,-0.0439045
2191,-0.018581724
2192,0.022368021
2193,0.0025560616
2194,0.066380695
2195,-0.049906548
2196,-0.0023861208
2197,-0.06775093
2198,-0.02228735
2199,0.008562791
2200,0.06800495
2201,-0.06412051
2202,-0.019047167
2203,0.034956932
2204,-0.111966975
2205,0.04008553
2206,0.0049560037
2207,-0.027173482
2208,-0.049715694
2209,-0.048074894
2210,-0.0011921983
2211,0.015818045
2212,-0.013466518
2213,0.008728836
2214,0.013184575
2215,-0.06574623
2216,-0.050383866
2217,0.012632948
2218,-0.046335604
2219,0.009661546
2220,0.029210903
2221,0.040142015
2222,-0.018513592
2223,-0.017278435
2224,-0.022027472
2225,-0.043696824
2226,-0.017776234
2227,0.02400039
2228,0.061209664
2229,0.028812498
2230,-0.018449303
2231,0.08812388
2232,0.011149588
2233,0.0053320453
2234,0.013100854
2235,0.047169525
2236,0.0026989472
2237,-0.02947144
2238,-0.049322914
2239,-0.06721314
2240,0.0027358935
2241,-0.03468769
2242,0.03586343
2243,-0.06118185
2244,0.0736781
2245,-0.009666408
2246,0.0041208155
2247,0.08895933
2248,-0.07645132
2249,-0.09694785
2250,-0.028328802
2251,-0.03348795
2252,0.05467029
2253,-0.03827375
2254,0.044507317
2255,-0.031985674
2256,-0.052973535
2257,-0.0024549786
2258,0.03878343
2259,-0.029677222
2260,-0.045650132
2261,-0.0036048412
2262,0.003685496
2263,-0.034367494
2264,-0.051997103
2265,-0.04400272
2266,-0.0052751014
2267,-0.017757373
2268,0.049255382
2269,-0.02013546
2270,-0.06265285
2271,0.061752494
2272,-0.049032047
2273,-0.0067570796
2274,0.048003945
2275,0.0006469813
2276,0.053852685
2277,0.03252349
2278,0.028474752
2279,-0.017014017
2280,-0.045437206
2281,0.070644744
2282,0.024981353
2283,-0.013908769
2284,0.041563462
2285,0.020621508
2286,-0.00346813
2287,0.008734809
2288,-0.04386267
2289,-0.056284968
2290,0.06754123
2291,0.12897603
2292,0.010771504
2293,0.028437585
2294,0.0067653256
2295,0.038215335
2296,-0.03043074
2297,-0.0078049675
2298,-0.01704298
2299,-0.030619055
2300,0.023793975
2301,0.077721745
2302,-0.07135134
2303,0.0071593923
2304,0.09201209
2305,-0.07199419
2306,0.066463515
2307,-0.018929863
2308,0.03353198
2309,-0.046206944
2310,-0.033479583
2311,-0.019729033
2312,-0.011359084
2313,-0.030465713
2314,0.044585556
2315,-0.05934205
2316,-0.015855115
2317,0.059064925
2318,-0.13952568
2319,-0.06241142
2320,0.062980264
2321,0.018423734
2322,0.0204584
2323,0.06595645
2324,-0.002051996
2325,-0.0025794692
2326,-0.039738555
2327,0.04631187
2328,-0.048638083
2329,-0.019319607
2330,0.035309087
2331,0.0087688835
2332,-0.06962234
2333,0.02356867
2334,-0.0022166416
2335,-0.06490323
2336,-0.026062163
2337,-0.046569444
2338,-0.027007427
2339,-0.02605006
2340,-0.028996907
2341,-0.023656035
2342,0.00048801553
2343,-0.06533444
2344,0.039117657
2345,-0.0663147
2346,0.03866486
2347,-0.012994871
2348,0.06927026
2349,0.10027401
2350,-0.0764414
2351,0.03870493
2352,-0.054115698
2353,-0.019551227
2354,-0.053207736
2355,-0.032103077
2356,0.030340537
2357,-0.0070866505
2358,-0.014215521
2359,0.020932538
2360,1.6181642e-05
2361,-0.041882508
2362,0.049245514
2363,0.11008822
2364,-0.047893062
2365,0.11858153
2366,-0.06336299
2367,0.001662161
2368,-0.08578455
2369,-0.09773431
2370,0.02630955
2371,-0.025138594
2372,0.03643648
2373,-0.0064168377
2374,0.04781837
2375,-0.057661004
2376,-0.067645594
2377,-0.07165913
2378,0.0843892
2379,0.066067
2380,0.1435212
2381,-0.07755796
2382,0.0002902893
2383,0.024623394
2384,-0.07854116
2385,0.002010568
2386,-0.023891894
2387,-0.0402356
2388,-0.011775293
2389,0.0030015165
2390,0.042745143
2391,-0.033731267
2392,-0.08927107
2393,-0.07166925
2394,-0.011644548
2395,-0.05893651
2396,-0.0025896071
2397,0.030499898
2398,0.010368689
2399,0.044825215
2400,-0.06681203
2401,-0.027758384
2402,-0.03373355
2403,0.025331855
2404,0.034052067
2405,0.044966694
2406,0.014846768
2407,0.08376943
2408,0.025995297
2409,-0.0051352005
2410,0.09494697
2411,-0.0006138735
2412,0.09747865
2413,0.04194458
2414,0.04656998
2415,0.0058034663
2416,-0.07873919
2417,0.0064222426
2418,-0.17994373
2419,-0.016080664
2420,0.0023656082
2421,0.009324717
2422,0.011542438
2423,-0.031953998
2424,-0.02591013
2425,-0.19143297
2426,-0.022621721
2427,-0.104710616
2428,0.057068937
2429,-0.030996853
2430,-0.08254848
2431,0.09044433
2432,-0.028576663
2433,-0.18907298
2434,0.021378517
2435,-0.058834393
2436,-0.037753053
2437,-0.04771294
2438,0.057491943
2439,0.0021100831
2440,-0.04030524
2441,-0.026682628
2442,-0.007622069
2443,-0.034326196
2444,-0.11698246
2445,0.059560232
2446,0.009933366
2447,0.023572216
2448,-0.08571702
2449,0.034036767
2450,0.061233953
2451,-0.046027742
2452,-0.016114831
2453,-0.08817474
2454,-0.0019214719
2455,-0.029070454
2456,-0.027531454
2457,-0.007392029
2458,-0.06242372
2459,-0.057090744
2460,-0.07390465
2461,0.061264057
2462,-0.0012154104
2463,0.019739429
2464,-0.033086825
2465,-0.063715786
2466,-0.032694824
2467,-0.027519448
2468,0.013156572
2469,-0.03904918
2470,0.01265913
2471,-0.014461209
2472,-0.010972161
2473,-0.006014403
2474,-0.14420198
2475,-0.010625871
2476,-0.10723621
2477,0.030095935
2478,0.04941951
2479,-0.04987553
2480,-0.006038744
2481,-0.08682571
2482,-0.0013799956
2483,-0.026043558
2484,0.06674186
2485,0.049910862
2486,-0.007455406
2487,-0.07694255
2488,0.07612747
2489,-0.049904518
2490,-0.11139874
2491,0.10135542
2492,-0.1223996
2493,-0.115968734
2494,-0.014839083
2495,0.02563159
2496,0.00034590962
2497,0.05074886
2498,-0.0127536375
2499,-0.016042707
2500,-0.01620681
2501,-0.023136944
2502,-0.06798983
2503,0.026689196
2504,-0.08197556
2505,-0.015424087
2506,0.0041755335
2507,-0.03289623
2508,0.11371037
2509,-0.09863388
2510,-0.12325395
2511,-0.01062858
2512,-0.1034516
2513,-0.015734479
2514,0.056417197
2515,-0.111698404
2516,-0.007185055
2517,-0.008961827
2518,-0.05053991
2519,-0.09163198
2520,0.047412284
2521,-0.058953162
2522,-0.0050688046
2523,0.1287626
2524,0.028259406
2525,-0.14098638
2526,-0.01950667
2527,-0.078490295
2528,-0.107129596
2529,-0.11074846
2530,0.013687602
2531,-0.07183903
2532,-0.049451623
2533,-0.07757147
2534,-0.13783579
2535,-0.13904816
2536,-0.02589344
2537,-0.05679838
2538,-0.059060056
2539,-0.008793453
2540,-0.075605206
2541,-0.024711091
2542,0.0049339933
2543,0.008504264
2544,-0.033402808
2545,1.4064275e-05
2546,0.08800716
2547,0.011366817
2548,-0.000103734674
2549,-0.098509535
2550,-0.05205199
2551,-0.1302778
2552,-0.060067117
2553,-0.02530879
2554,0.02264495
2555,0.0039827507
2556,-0.07696334
2557,0.0015151863
2558,-0.06976401
2559,-0.075046875
2560,-0.048834495
2561,0.002167232
2562,0.016765976
2563,-0.05704375
2564,-0.031330235
2565,-0.0876125
2566,-0.21331096
2567,-0.017283918
2568,-0.26318735
2569,-0.004390994
2570,-0.0064995713
2571,-0.020213667
2572,-0.10676026
2573,0.0012920445
2574,-0.06324738
2575,0.039841257
2576,-0.07348527
2577,0.0036205787
2578,-0.048967335
2579,-0.09496964
2580,-0.024876524
2581,-0.37388462
2582,0.071295984
2583,-0.0028022788
2584,-0.09257618
2585,-0.045701288
2586,-0.085665874
2587,0.0017946807
2588,-0.057699285
2589,-0.12373225
2590,-0.029244537
2591,0.045675684
2592,-0.03724574
2593,0.019898023
2594,0.04964147
2595,-0.19771875
2596,-0.015444059
2597,-0.16370489
2598,-0.110506594
2599,-0.110666595
2600,-0.032608114
2601,0.03333011
2602,-0.22336988
2603,0.0030426916
2604,-0.14095308
2605,-0.065244704
2606,-0.033120308
2607,-0.011252535
2608,-0.04811231
2609,-0.007583643
2610,-0.053299997
2611,-0.031913664
2612,-0.09121912
2613,-0.2474552
2614,0.034839842
2615,-0.16420154
2616,0.016441965
2617,-0.0023995817
2618,-0.09696298
2619,-0.11824844
2620,-0.028643651
2621,-0.013445494
2622,-0.06572547
2623,-0.43692958
2624,-0.042633176
2625,-0.13296506
2626,-0.046222456
2627,-0.06567197
2628,-0.04629918
2629,0.0009200075
2630,-0.11354871
2631,-0.22432823
2632,-0.04408914
2633,-0.01881754
2634,-0.022525065
2635,0.011373351
2636,-0.016038138
2637,0.048539504
2638,-0.016455602
2639,0.028148778
2640,-0.01640337
2641,0.006670182
2642,-0.08658482
2643,-0.12667382
2644,-0.01869615
2645,-0.0030009134
2646,0.038428515
2647,-0.13664012
2648,-0.014964844
2649,-0.11922252
2650,-0.006519266
2651,-0.055727158
2652,-0.06392975
2653,-0.059238907
2654,0.14975987
2655,-0.12702261
2656,-0.06084992
2657,-0.15287459
2658,-0.005718374
2659,-0.11893969
2660,-0.07112314
2661,-0.0041965465
2662,-0.038220335
2663,-0.07427574
2664,0.0055228034
2665,-0.028742002
2666,-0.07921928
2667,-0.0012524007
2668,-0.11487046
2669,-0.05480534
2670,0.05492959
2671,-0.006544901
2672,0.01680645
2673,-0.0006287366
2674,0.014919995
2675,-0.24655487
2676,-0.08203886
2677,-0.1048348
2678,-0.04332393
2679,-0.08175869
2680,-0.0025150082
2681,-0.04161198
2682,-0.05338358
2683,-0.16071421
2684,-0.07658524
2685,-0.24419153
2686,0.058207665
2687,-0.059454102
2688,0.03796876
2689,-0.029773004
2690,0.04642002
2691,0.01096906
2692,-0.11133943
2693,-0.0829145
2694,-0.007628853
2695,0.015042686
2696,-0.08393614
2697,-0.060731243
2698,0.05817621
2699,0.03487868
2700,-0.10500105
2701,0.04123091
2702,-0.06588196
2703,-0.016240487
2704,0.010056553
2705,-0.020936046
2706,-0.06488169
2707,-0.024591735
2708,0.0144104045
2709,-0.11125491
2710,0.04710401
2711,-0.09673419
2712,0.0027084064
2713,0.070055895
2714,-0.030807698
2715,-0.0189418
2716,-0.03480908
2717,0.020155318
2718,-0.001496279
2719,0.047147132
2720,-0.030022664
2721,-0.028878946
2722,-0.007552981
2723,-0.015838394
2724,0.017932838
2725,-0.05020671
2726,0.031236826
2727,-0.0067316964
2728,-0.0219898
2729,-0.053484503
2730,-0.084488206
2731,-0.008167624
2732,-0.026171606
2733,0.05303233
2734,-0.06640089
2735,-0.041032147
2736,0.022323906
2737,0.011940647
2738,-0.017051734
2739,-0.018684627
2740,0.039361376
2741,0.03027993
2742,0.041247368
2743,-0.021261314
2744,0.045972995
2745,-0.024291268
2746,0.018098503
2747,0.080573454
2748,-0.06387571
2749,0.043610662
2750,0.0014395729
2751,-0.0061990274
2752,0.027838519
2753,-0.021956151
2754,-0.0717857
2755,-0.02183095
2756,0.05088374
2757,-0.00835198
2758,-0.0693052
2759,0.03207398
2760,-0.012568004
2761,-0.06465279
2762,-0.0014538747
2763,-0.055288345
2764,-0.16998631
2765,0.096170075
2766,-0.0005103325
2767,0.038241826
2768,0.029402088
2769,-0.0149097415
2770,-0.004058842
2771,0.008692384
2772,-0.006808188
2773,-0.03597866
2774,0.07345902
2775,0.009419429
2776,-0.076726146
2777,-0.017131766
2778,-0.014378915
2779,-0.08733856
2780,-0.03073271
2781,0.030696029
2782,0.07054865
2783,-0.057773028
2784,0.008166237
2785,-0.058030896
2786,-0.07271485
2787,-0.074410416
2788,-0.008239083
2789,0.02676765
2790,0.0030404336
2791,-0.036526285
2792,-0.025122132
2793,0.04636842
2794,-0.010384084
2795,-0.014519984
2796,-0.03418985
2797,0.04598872
2798,0.03470584
2799,-0.01853259
2800,-0.037878986
2801,-0.031988993
2802,0.011593609
2803,-0.10155016
2804,0.009871231
2805,0.03949376
2806,0.09158253
2807,-0.057023145
2808,-0.028017323
2809,-0.02527644
2810,0.023717374
2811,0.03554434
2812,-0.011492023
2813,-0.036460564
2814,-0.09683471
2815,0.08732065
2816,0.015536545
2817,-0.06014633
2818,-0.0072523667
2819,-0.09039032
2820,0.014219776
2821,-0.010415303
2822,-0.044972956
2823,-0.020141743
2824,-0.013319526
2825,0.010587967
2826,-0.024654083
2827,0.01691715
2828,-0.07177476
2829,-0.06457952
2830,-0.009428023
2831,-0.042779937
2832,0.03902955
2833,-0.0023885278
2834,-0.027885264
2835,-0.08105456
2836,-0.03289038
2837,0.0036036072
2838,0.010233656
2839,0.004752838
2840,0.0064557213
2841,-0.08042669
2842,-0.009171456
2843,-0.1164087
2844,0.030711563
2845,-0.047371376
2846,0.0063342196
2847,-0.008050391
2848,-0.00074340875
2849,0.003748267
2850,-0.03047133
2851,-0.12979712
2852,-0.024083676
2853,-0.027763993
2854,0.04174289
2855,-0.03996176
2856,0.018908408
2857,0.019670445
2858,0.027200341
2859,-0.016125636
2860,0.030193353
2861,-0.01455772
2862,0.016554413
2863,-0.024505388
2864,0.005932452
2865,-0.012951479
2866,0.021210166
2867,-0.044359546
2868,-0.031857174
2869,-0.008636728
2870,-0.0405747
2871,-0.020775987
2872,0.007813261
2873,-0.006876755
2874,-0.023837175
2875,-0.06709743
2876,-0.06815008
2877,0.033594333
2878,-0.061744623
2879,-0.069977686
2880,0.016242182
2881,0.06916089
2882,-0.013768838
2883,0.08697092
2884,-0.037675746
2885,-0.0077249035
2886,0.03808041
2887,0.04982139
2888,0.013077849
2889,-0.012649794
2890,-0.05992611
2891,-0.010134569
2892,0.015290181
2893,-0.19945417
2894,-0.053875756
2895,-0.03277119
2896,-0.0057747113
2897,0.00481328
2898,-0.06051309
2899,-0.15600339
2900,-0.014319813
2901,-0.037496105
2902,0.0373243
2903,0.023452906
2904,-0.04134566
2905,-0.10737892
2906,-0.0004426399
2907,-0.07380015
2908,-0.028922176
2909,-0.03784522
2910,-0.05231622
2911,0.004136527
2912,-0.00083064113
2913,-0.034821916
2914,-0.055955023
2915,0.012543902
2916,-0.017485866
2917,-0.0021474208
2918,-0.0869628
2919,0.0763867
2920,0.008973115
2921,-0.016943667
2922,0.012926402
2923,0.0037786483
2924,0.017588334
2925,-0.048738115
2926,0.026906231
2927,0.0073295096
2928,0.06490646
2929,-0.016489245
2930,-0.023580419
2931,0.022108855
2932,0.022089183
2933,-0.030030556
2934,-0.03888697
2935,-0.05536903
2936,-0.0036567457
2937,-0.019848695
2938,0.019012976
2939,-0.10228585
2940,-0.014608735
2941,-0.077256404
2942,0.047511175
2943,-0.026932608
2944,0.06898737
2945,-0.089212306
2946,0.060082853
2947,-0.14912547
2948,0.020756947
2949,0.027905209
2950,0.023290925
2951,-0.0017097329
2952,0.016844282
2953,-0.028118506
2954,0.04751661
2955,-0.090208285
2956,-0.12194294
2957,-0.05684324
2958,-0.063966356
2959,-0.010351799
2960,0.024339302
2961,-0.05952127
2962,-0.027171489
2963,0.032483537
2964,0.07268818
2965,0.009295359
2966,-0.08049511
2967,0.021238353
2968,-0.038153507
2969,0.0031065387
2970,-0.024925988
2971,-0.08523618
2972,-0.06738047
2973,-0.055975195
2974,-0.014643859
2975,-0.06420071
2976,0.050198436
2977,-0.05855596
2978,-0.0057214173
2979,0.029976198
2980,-0.014027165
2981,0.014929755
2982,0.0073435456
2983,-0.0040988605
2984,-0.040694192
2985,0.017648492
2986,0.016066333
2987,-0.005596086
2988,0.021198548
2989,0.059626102
2990,-0.0058264765
2991,-0.06332183
2992,0.028564688
2993,-0.12301205
2994,-0.026279397
2995,0.0783788
2996,-0.028408993
2997,0.017097875
2998,0.021750733
2999,0.022966944
3000,-0.05631649
3001,0.018774895
3002,0.00947225
3003,-0.01580044
3004,-0.07871335
3005,0.03646073
3006,0.024348348
3007,-0.01706861
3008,-0.03107747
3009,0.023867277
3010,-0.03618749
3011,-0.0648563
3012,0.05452153
3013,-0.020446796
3014,0.019104471
3015,-0.029827157
3016,-0.11526193
3017,-0.006322538
3018,0.017164558
3019,-0.06956954
3020,-0.021980068
3021,-0.10393486
3022,-0.108662084
3023,0.07259589
3024,-0.07580245
3025,-0.012161357
3026,0.00023386782
3027,-0.03280944
3028,-0.044236302
3029,0.007883833
3030,0.028758537
3031,-0.15840267
3032,-0.023047417
3033,-0.030870447
3034,-0.00042724932
3035,-0.06629658
3036,-0.0038774412
3037,0.057389867
3038,0.019846832
3039,-0.038163815
3040,-0.0131269405
3041,-0.08115848
3042,-0.032224618
3043,0.011141182
3044,-0.026449382
3045,-0.034143932
3046,-0.024179304
3047,0.023903077
3048,-0.028320042
3049,-0.0039659054
3050,0.03765708
3051,0.005899456
3052,0.0143090505
3053,0.040819973
3054,0.009007554
3055,-0.0018022035
3056,-0.05223221
3057,-0.026147896
3058,-0.019000327
3059,-0.049213525
3060,-0.014621554
3061,-0.004646828
3062,0.08074564
3063,-0.094823934
3064,-0.015210381
3065,-0.10763925
3066,0.039572075
3067,0.02897422
3068,-0.034866016
3069,0.060971938
3070,0.008319956
3071,-0.009420747
3072,0.061002426
3073,-0.0571594
3074,0.02294566
3075,-0.02339177
3076,0.13714734
3077,-0.0038525285
3078,0.14980619
3079,-0.0007270169
3080,0.055192832
3081,-0.07258702
3082,0.117825285
3083,-0.049465023
3084,-0.039634675
3085,-0.0040710117
3086,0.0011350786
3087,-0.055335704
3088,0.027837954
3089,-0.024868634
3090,-0.2392826
3091,0.00072202174
3092,0.02746658
3093,0.02206531
3094,0.10695896
3095,0.028615808
3096,0.0145871965
3097,0.054932155
3098,0.020681847
3099,0.0036618914
3100,-0.07079066
3101,0.0120809125
3102,-0.0072982856
3103,-0.037913036
3104,-0.055997863
3105,-0.004441382
3106,0.009336078
3107,0.043182537
3108,-0.01699722
3109,0.114078015
3110,-0.017471194
3111,-0.0036358547
3112,-0.02710813
3113,-0.018558117
3114,0.030918576
3115,-0.0038421298
3116,0.063349485
3117,0.06629332
3118,0.14667776
3119,-0.054971058
3120,-0.03863192
3121,-0.05339617
3122,-0.06048603
3123,-0.01102967
3124,-0.012514127
3125,-0.01025397
3126,0.020059574
3127,0.060618117
3128,-0.012879585
3129,-0.0109505365
3130,0.058568466
3131,0.0055627013
3132,-0.0119438665
3133,-0.040087882
3134,-0.051762886
3135,-0.025044428
3136,-0.03162758
3137,0.017774815
3138,0.024877835
3139,-0.067465514
3140,-0.0076009026
3141,-0.0018195723
3142,0.06197898
3143,-0.073592596
3144,-0.08229649
3145,-0.01886895
3146,0.03390191
3147,-0.042560775
3148,-0.15097526
3149,-0.022601614
3150,-0.014787967
3151,0.060538176
3152,-0.050221413
3153,-0.01327648
3154,0.006301502
3155,0.099538565
3156,-0.01525537
3157,-0.039964978
3158,0.012093878
3159,-0.01613341
3160,0.073033236
3161,0.017052151
3162,0.001354658
3163,-0.019614892
3164,-0.085233845
3165,0.0012469428
3166,-0.05319546
3167,0.028237717
3168,-0.06268202
3169,-0.003991903
3170,-0.08956839
3171,0.041892733
3172,-0.09774118
3173,0.036002703
3174,0.024560824
3175,0.028424887
3176,-0.036620516
3177,0.0804926
3178,0.06908222
3179,0.010068649
3180,0.05214417
3181,0.003537406
3182,0.0008697983
3183,-0.015407761
3184,0.027784925
3185,-0.040326517
3186,-0.03585938
3187,0.050039425
3188,0.0075818333
3189,0.0521128
3190,0.023190562
3191,0.011705782
3192,0.00085977966
3193,0.015754495
3194,-0.009499188
3195,-0.06399038
3196,0.04229265
3197,0.039709646
3198,0.103739984
3199,0.02394578
3200,0.062965825
3201,-0.026704853
3202,0.10982
3203,-0.024186894
3204,0.09129486
3205,-0.1298966
3206,-0.18755975
3207,-0.0034420763
3208,0.032824516
3209,0.015126016
3210,0.03775642
3211,-0.056613293
3212,-0.084524915
3213,0.09569396
3214,0.10185442
3215,0.03346238
3216,0.041793592
3217,-0.026876867
3218,0.02681486
3219,0.027766207
3220,0.041772366
3221,-0.10717441
3222,0.046582565
3223,0.020490285
3224,0.073677324
3225,-0.010453673
3226,-0.059966892
3227,-0.011665123
3228,-0.10773125
3229,0.032698803
3230,-0.0059026615
3231,-0.031106967
3232,-0.0020957843
3233,-0.045784656
3234,-0.06571829
3235,-0.07734772
3236,0.010220767
3237,-0.0603177
3238,-0.097676985
3239,-0.062143728
3240,-0.0075929654
3241,-0.115275964
3242,-0.029261256
3243,-0.008890788
3244,-0.005700323
3245,0.060625885
3246,0.01701309
3247,-0.010880094
3248,-0.048228305
3249,-0.023351593
3250,-0.038420405
3251,-0.007967397
3252,0.014512839
3253,-0.076073
3254,0.023681091
3255,-0.06828426
3256,0.052507352
3257,-0.103557914
3258,0.034068618
3259,0.11891479
3260,-0.0011142448
3261,-0.021746218
3262,-0.06414244
3263,0.025022902
3264,-0.043044876
3265,-0.051167477
3266,-0.099877305
3267,0.003918531
3268,0.14688358
3269,0.0040727383
3270,0.003774947
3271,-0.13331461
3272,-0.047514457
3273,0.081134975
3274,0.08271909
3275,0.039924134
3276,0.09338862
3277,0.03552149
3278,-0.050975453
3279,-0.10629366
3280,-0.08957969
3281,-0.0003387275
3282,-0.05429029
3283,-0.09034186
3284,0.04107827
3285,0.011251619
3286,0.030659098
3287,-0.071025945
3288,-0.019000301
3289,-0.111453645
3290,-0.0018843396
3291,-0.081753716
3292,-0.023238603
3293,-0.005800714
3294,-0.0394056
3295,-0.05991201
3296,-0.10020499
3297,-0.0673474
3298,-0.014374339
3299,0.0030434115
3300,-0.030979358
3301,0.050493196
3302,0.016522462
3303,-0.00019307763
3304,-0.027317591
3305,0.05408442
3306,0.015653782
3307,-0.0037372333
3308,-0.009850705
3309,-0.009822344
3310,0.03330134
3311,-0.009591781
3312,-0.005711178
3313,0.026216948
3314,-0.06238057
3315,0.09240418
3316,0.052922677
3317,0.016950492
3318,-0.050536416
3319,-0.08632567
3320,-0.0406529
3321,-0.03325503
3322,-0.07459429
3323,-0.1314602
3324,-0.053071186
3325,0.0029877992
3326,-0.029265411
3327,0.0943313
3328,-0.027093692
3329,-0.06895983
3330,-0.05345822
3331,-0.17155296
3332,0.020902866
3333,0.049448
3334,-0.026784893
3335,-0.0026205098
3336,-0.0092838295
3337,-0.020023502
3338,0.0023116444
3339,-0.036407
3340,-0.07741712
3341,-0.039054576
3342,-0.16321899
3343,-0.03078637
3344,-0.10782643
3345,-0.0027008243
3346,0.04058273
3347,0.005306567
3348,0.03688437
3349,0.014918882
3350,-0.007135471
3351,0.0047006807
3352,-0.0009068521
3353,-0.010271248
3354,-0.05666343
3355,-0.016159212
3356,-0.013665526
3357,-0.028192516
3358,-0.0062464573
3359,-0.014198071
3360,0.085180216
3361,-0.017922148
3362,0.0014554493
3363,0.022075573
3364,-0.13201834
3365,0.057632983
3366,-0.03155575
3367,-0.041073613
3368,-0.024962839
3369,0.0696165
3370,0.040536974
3371,0.0017460055
3372,-0.00010123195
3373,-0.09198787
3374,-0.1110674
3375,-0.012468292
3376,0.017089754
3377,-0.013102538
3378,-0.018190583
3379,0.028936947
3380,-0.052532427
3381,-0.0010975692
3382,0.024797445
3383,-0.037871063
3384,-0.07028359
3385,0.050195817
3386,-0.0012361748
3387,-0.090578176
3388,-0.07026318
3389,-0.061812446
3390,-0.0295471
3391,0.019255782
3392,-0.017983004
3393,-0.13239758
3394,-0.037203413
3395,0.013453683
3396,-0.12603407
3397,0.0025739672
3398,0.043471627
3399,-0.011202574
3400,-0.01572211
3401,-0.024807665
3402,-0.043488707
3403,0.037892655
3404,0.06315594
3405,-0.05583316
3406,-0.052643083
3407,-0.07959478
3408,-0.009800882
3409,0.007723487
3410,0.010785698
3411,-0.08470319
3412,0.05473336
3413,0.04980379
3414,-0.022621572
3415,-0.116123565
3416,-0.011588202
3417,-0.019452881
3418,-0.014963371
3419,-0.04879378
3420,-0.047770202
3421,-0.00797292
3422,-0.02573559
3423,-0.020294596
3424,0.015244111
3425,-0.08725147
3426,-0.09788555
3427,0.055155795
3428,0.008731358
3429,0.018031925
3430,0.047092363
3431,-0.010068166
3432,-0.022986826
3433,-0.027533248
3434,-0.12680927
3435,-0.009354613
3436,-0.021698024
3437,-0.09384406
3438,0.0007737049
3439,-0.0024906162
3440,-0.101308316
3441,-0.006821776
3442,-0.06723352
3443,-0.016227862
3444,-0.03388621
3445,-0.045477353
3446,-0.118626595
3447,-0.094954796
3448,-0.007344305
3449,-0.112531506
3450,-0.034001336
3451,-0.08011952
3452,-0.029583132
3453,0.009249382
3454,-0.003111542
3455,-0.037372205
3456,-0.06192699
3457,0.03329266
3458,-0.13822965
3459,-0.027814442
3460,-0.110211305
3461,-0.015072521
3462,0.00520329
3463,-0.0069721867
3464,0.03061607
3465,-0.0011702022
3466,-0.07770716
3467,0.051220197
3468,-0.0211363
3469,-0.1775662
3470,-0.013440845
3471,0.018898686
3472,-0.010989743
3473,0.050895892
3474,0.0056095263
3475,-0.028538555
3476,-0.08673033
3477,0.0058320975
3478,-0.041344084
3479,0.019456055
3480,0.021212654
3481,0.10684102
3482,0.023326969
3483,-0.054227147
3484,0.040209256
3485,0.063672625
3486,-0.014597076
3487,0.03228601
3488,-0.05305037
3489,0.05564078
3490,-0.19081733
3491,-0.027904725
3492,0.026248144
3493,-0.030882921
3494,-0.06175373
3495,0.04051788
3496,-0.01592198
3497,-0.14440657
3498,0.031837728
3499,0.0019413863
3500,0.009255627
3501,-0.19424978
3502,-0.006554321
3503,0.0041770977
3504,0.021308964
3505,0.023811353
3506,0.044909522
3507,-0.104370505
3508,-0.004148714
3509,0.06710396
3510,-0.014639813
3511,-0.06439561
3512,-0.058361057
3513,-0.09413923
3514,-0.07017203
3515,-0.17355421
3516,0.04364009
3517,-0.008137118
3518,0.008923603
3519,-0.028640931
3520,0.022693455
3521,-0.012741963
3522,-0.02683401
3523,-0.07283936
3524,-0.1440548
3525,-0.011958628
3526,0.027220214
3527,-0.0045044296
3528,0.05334836
3529,-0.0055586626
3530,-0.17078513
3531,0.023068842
3532,-0.046053294
3533,0.017032187
3534,0.048132997
3535,-0.09462005
3536,0.026657104
3537,-0.018624198
3538,0.090972185
3539,0.080911465
3540,-0.10164363
3541,-0.0022595658
3542,-0.15331991
3543,-0.021859644
3544,-0.014466558
3545,0.04297795
3546,-0.025256306
3547,0.0528543
3548,-0.0049272603
3549,-0.068168275
3550,-0.0018830681
3551,-0.08916917
3552,0.030823214
3553,0.018141173
3554,0.016770514
3555,0.005367004
3556,-0.05674176
3557,-0.07333993
3558,-0.05109082
3559,0.0044323537
3560,0.046995796
3561,-0.033773564
3562,-0.047638338
3563,-0.00053243455
3564,-0.05490608
3565,-0.12007019
3566,-0.017526496
3567,-0.012014767
3568,-0.015151738
3569,-0.0135115525
3570,-0.041401032
3571,-0.035915513
3572,-0.0051921597
3573,-0.05434133
3574,-0.13148251
3575,0.00338235
3576,0.054829717
3577,-0.010162642
3578,-0.07872523
3579,0.059503976
3580,-0.026719216
3581,-0.049372807
3582,-0.13031086
3583,-0.17193246
3584,0.051655527
3585,0.011997333
3586,0.007499856
3587,0.041836902
3588,-0.0011906727
3589,-0.00064844167
3590,0.03889211
3591,-0.0123744905
3592,0.0022537569
3593,-0.16258788
3594,0.100315325
3595,-0.07576208
3596,0.022588324
3597,0.017230261
3598,-0.28343362
3599,-0.052522182
3600,0.04611087
3601,0.001018587
3602,0.0440393
3603,-0.014496075
3604,0.029921137
3605,0.061306722
3606,-0.09576786
3607,0.038940206
3608,0.005838161
3609,-0.02377867
3610,-0.020630786
3611,0.014485489
3612,-0.002731264
3613,-0.037526373
3614,-0.017031949
3615,-0.11542369
3616,0.0460079
3617,-0.041820526
3618,-0.05206716
3619,0.0236319
3620,-0.15416862
3621,0.01401296
3622,-0.025280252
3623,-0.16577175
3624,0.019468235
3625,0.0046347133
3626,0.035908975
3627,-0.012100978
3628,0.041363016
3629,-0.029174438
3630,-0.05764679
3631,-0.023170764
3632,-0.09048962
3633,-0.10955791
3634,-0.03997615
3635,0.033553626
3636,-0.089269385
3637,0.07702332
3638,0.039637826
3639,0.074622296
3640,0.0077127875
3641,0.022760632
3642,0.056499477
3643,0.02036846
3644,0.0060791536
3645,0.016886411
3646,-0.10788734
3647,-0.03995282
3648,0.021672927
3649,-0.17126581
3650,-0.004020492
3651,-0.07832687
3652,-0.010229186
3653,-0.009286974
3654,0.012728486
3655,0.056890372
3656,-0.072165914
3657,-0.07570415
3658,0.05168383
3659,0.08594619
3660,0.11558863
3661,-0.09059371
3662,0.027579486
3663,0.008752492
3664,-0.06082922
3665,-0.0030685158
3666,-0.12713924
3667,-0.024773277
3668,-0.0017450205
3669,0.07261104
3670,0.081399605
3671,0.017283084
3672,-0.051987287
3673,-0.2109934
3674,-0.0019502372
3675,-0.049058434
3676,0.0027191853
3677,-0.0047930526
3678,-0.04414115
3679,0.034463275
3680,-0.09409083
3681,0.012378203
3682,-0.09863791
3683,0.036555137
3684,0.012000925
3685,-0.014940792
3686,0.052210882
3687,0.046827506
3688,-0.099986896
3689,0.027373409
3690,0.024413457
3691,-0.013403694
3692,0.03342147
3693,-0.026916021
3694,0.026210582
3695,-0.0073793265
3696,-0.044046115
3697,-0.016656198
3698,-0.046217274
3699,-0.047913726
3700,-0.036493924
3701,0.03646743
3702,0.014769487
3703,0.008451027
3704,-0.02643696
3705,-0.1400013
3706,0.050589316
3707,-0.22833356
3708,0.02150409
3709,-0.0082499925
3710,0.04340277
3711,0.035517007
3712,0.06325552
3713,-0.016696483
3714,0.17183685
3715,-0.034121264
3716,-0.0189134
3717,-0.06306384
3718,0.1142866
3719,-0.005261834
3720,0.06558196
3721,0.0046887184
3722,0.106890626
3723,-0.038813613
3724,0.018321618
3725,0.15435667
3726,-0.019386018
3727,0.032071907
3728,-0.0836026
3729,-0.024751037
3730,0.14174704
3731,0.0064765876
3732,0.2014867
3733,0.01693785
3734,-4.8907415e-05
3735,0.07602808
3736,0.022276826
3737,-0.028348554
3738,-0.052828245
3739,-0.035544787
3740,-0.0060823
3741,-0.14933419
3742,0.015404148
3743,-0.027535262
3744,0.023355924
3745,-0.0141072525
3746,0.14977264
3747,0.17205325
3748,0.022731934
3749,0.09710553
3750,0.08996824
3751,-0.24250677
3752,-0.033385865
3753,-0.11128821
3754,-0.0112069
3755,-0.019232528
3756,-0.015519616
3757,0.20061395
3758,-0.07795018
3759,-0.008864121
3760,-0.040855866
3761,-0.036135342
3762,0.008390319
3763,-0.0432031
3764,-0.13361719
3765,0.045988888
3766,0.043153062
3767,0.057543375
3768,-0.02570425
3769,0.039335076
3770,0.0805157
3771,0.19421704
3772,-0.04345542
3773,-0.037038084
3774,-0.20565604
3775,-0.14044848
3776,0.03635015
3777,0.15278631
3778,0.009522114
3779,0.12525442
3780,0.14115167
3781,-0.010089031
3782,0.025025262
3783,-0.0059248493
3784,0.0033222476
3785,0.12762375
3786,0.19595748
3787,0.017807277
3788,0.2611399
3789,-0.05535733
3790,0.026027402
3791,0.05784991
3792,-0.028734226
3793,0.00045767715
3794,-0.1413091
3795,-0.0760967
3796,0.10717094
3797,-0.04994291
3798,0.16267009
3799,-0.07066512
3800,-0.07325466
3801,-0.14861083
3802,-0.004010259
3803,0.0023584957
3804,0.044346727
3805,0.06293844
3806,0.015280396
3807,0.1159644
3808,-0.03214006
3809,-0.011182971
3810,0.030577464
3811,-0.00065713015
3812,0.017151427
3813,-0.0240381
3814,0.08401281
3815,0.022508165
3816,0.03554321
3817,-0.0027633824
3818,-0.108677275
3819,0.003677244
3820,-0.05186101
3821,0.13743229
3822,0.032182623
3823,-0.0026093824
3824,0.13439478
3825,-0.0025948214
3826,-0.009834505
3827,-0.078237064
3828,-0.01176637
3829,0.031971063
3830,0.044368662
3831,-0.016272055
3832,0.012562918
3833,-0.019949676
3834,-0.030222338
3835,-0.26763177
3836,-0.0087438235
3837,0.031502273
3838,-0.054063465
3839,0.115797505
3840,0.057392962
3841,-0.101373106
3842,-0.037257854
3843,-0.07086242
3844,0.002181656
3845,-0.033005156
3846,-0.07588307
3847,-0.005162651
3848,-0.05357615
3849,-0.076947175
3850,-0.061279748
3851,-0.016088102
3852,-0.07388907
3853,-0.0316236
3854,-0.08568451
3855,0.016250076
3856,0.0489931
3857,-0.012426445
3858,0.024427546
3859,0.012787962
3860,-0.014003893
3861,0.033932045
3862,0.008194673
3863,0.048878584
3864,-0.06642935
3865,-0.045826778
3866,-0.022814667
3867,-0.011854493
3868,-0.015301423
3869,-0.01836804
3870,-0.0047659636
3871,-0.020411035
3872,0.010194726
3873,-0.034412425
3874,0.023588594
3875,-0.038331848
3876,-0.040761545
3877,-0.08421311
3878,-0.0047929785
3879,-0.117160484
3880,0.0046540513
3881,0.019452607
3882,0.01790184
3883,-0.008718007
3884,0.027687293
3885,-0.03160197
3886,0.011733911
3887,0.0037915972
3888,-0.0381202
3889,-0.031526044
3890,-0.022805458
3891,0.0048648836
3892,-0.07152576
3893,-0.044902805
3894,-0.0068578687
3895,0.05460118
3896,-0.012454908
3897,0.015542007
3898,-0.03479492
3899,-0.05430045
3900,-0.023760354
3901,0.008396351
3902,-0.042348865
3903,-0.025091061
3904,-0.047888476
3905,-0.016514482
3906,0.04817611
3907,-0.024905838
3908,-0.09304455
3909,-0.006947866
3910,0.030272573
3911,-0.0054125586
3912,-0.03381725
3913,-0.021117147
3914,-0.055620946
3915,-0.013669738
3916,0.04100767
3917,0.084196396
3918,-0.036267396
3919,0.011006581
3920,-0.056577284
3921,-0.0069557773
3922,-0.0016064396
3923,-0.074080445
3924,-0.0068968814
3925,0.034333613
3926,0.025008656
3927,-0.02344448
3928,0.01795809
3929,-0.04326307
3930,-0.002923994
3931,0.02138396
3932,-0.004324677
3933,-0.017773934
3934,0.057550482
3935,-0.0038414858
3936,-0.034721613
3937,0.028043102
3938,-0.0012005544
3939,0.047742963
3940,-0.08011754
3941,-0.035821125
3942,-0.030768126
3943,0.053843703
3944,-0.08899641
3945,0.024553144
3946,0.040696096
3947,-0.0036239151
3948,0.049870804
3949,-0.07252045
3950,0.027970105
3951,-0.0051103192
3952,-0.022972884
3953,-0.02739443
3954,0.0038015356
3955,-0.065604284
3956,-0.0030988185
3957,-0.07936605
3958,0.013770211
3959,-0.083173394
3960,-0.026518827
3961,-0.0897349
3962,0.02243065
3963,-0.031368915
3964,0.004337155
3965,-0.09668441
3966,0.033498894
3967,-0.045980394
3968,-0.042751964
3969,-0.031205464
3970,0.015453331
3971,-0.08054226
3972,-0.049783736
3973,0.14218737
3974,-0.10619403
3975,-0.010084107
3976,-0.23513055
3977,-0.011103519
3978,-0.0008733166
3979,-0.007765062
3980,-0.084948696
3981,0.078453794
3982,0.4904057
3983,-0.120347716
3984,-0.092547774
3985,0.08792938
3986,0.06558799
3987,0.1097006
3988,-0.007208198
3989,-0.27670616
3990,-0.09875752
3991,-0.09722603
3992,-0.045561418
3993,0.13286212
3994,-0.10912022
3995,-0.049697313
3996,-0.016401226
3997,-0.071194105
3998,-0.005138826
3999,-0.016729856
4000,0.06574595
4001,-0.0077144885
4002,0.024951085
4003,0.034063134
4004,0.20755439
4005,-0.21049811
4006,-0.031588264
4007,-0.040387884
4008,-0.021909187
4009,0.19490449
4010,-0.2927151
4011,-0.011285405
4012,-0.42354167
4013,0.036028232
4014,-0.1030903
4015,0.058320664
4016,-0.008227368
4017,-0.015695602
4018,-0.07486328
4019,0.0763334
4020,-0.02582745
4021,0.03744208
4022,0.07103306
4023,-0.061347082
4024,-0.0794141
4025,0.17812663
4026,-0.064485475
4027,0.12252506
4028,-0.029154144
4029,0.008529631
4030,-0.030072074
4031,-0.03457964
4032,-0.031691182
4033,0.30259347
4034,0.0037934275
4035,0.254231
4036,-0.012117688
4037,-0.0107003385
4038,-0.22851796
4039,-0.0040733367
4040,-0.01690894
4041,0.2770918
4042,0.08019426
4043,0.027080135
4044,0.06493349
4045,-0.07059047
4046,-0.06552148
4047,0.039517593
4048,-0.009428002
4049,-0.024789402
4050,0.14862068
4051,0.113228224
4052,0.17635718
4053,0.049724083
4054,-0.0043049697
4055,-0.06506576
4056,0.26182088
4057,0.206584
4058,-0.0035477015
4059,0.10353705
4060,0.038683504
4061,0.18612386
4062,0.07127873
4063,-0.08627364
4064,-0.03969453
4065,-0.16928196
4066,-0.08530311
4067,-0.12713592
4068,-0.06612516
4069,-0.08252835
4070,0.03878259
4071,-0.27647203
4072,0.049256172
4073,-0.088464595
4074,-0.052029084
4075,-0.0042149546
4076,-0.05744596
4077,0.052903786
4078,0.03629238
4079,0.009423113
4080,0.0055891434
4081,-0.013511457
4082,0.09555274
4083,-0.2531341
4084,0.23918584
4085,-0.13764521
4086,-0.039846886
4087,-0.093637355
4088,-0.01756252
4089,0.18631867
4090,-0.020567477
4091,0.3036255
4092,0.010520606
4093,-0.037550148
4094,-0.09577221
4095,0.114610784
4096,-0.042371605
4097,-0.105647445
4098,0.080181554
4099,-0.0935323
4100,0.05565007
4101,0.016657727
4102,0.039265975
4103,-0.0052048904
4104,-0.18336837
4105,-0.033406876
4106,-0.11026098
4107,-0.019551741
4108,-0.07618709
4109,0.08821169
4110,0.13067321
4111,0.0036191659
4112,0.027452823
4113,-0.048292164
4114,-0.15771103
4115,-0.011460845
4116,0.036121182
4117,-0.127367
4118,-0.04525982
4119,-0.08390973
4120,-0.14408113
4121,-0.066977195
4122,-0.19323242
4123,-0.098264426
4124,-0.02639535
4125,-0.012848447
4126,0.0068660113
4127,0.04560877
4128,0.0036138543
4129,-0.032016687
4130,0.033583082
4131,-0.039908737
4132,-0.024453854
4133,-0.18353048
4134,-0.0018148024
4135,-0.099716015
4136,0.005580387
4137,0.029590495
4138,-0.3308872
4139,0.006833183
4140,-0.2891417
4141,0.01950423
4142,0.052341126
4143,-0.006270272
4144,-0.016428601
4145,-0.035810567
4146,-0.019061878
4147,-0.003722574
4148,-0.14376746
4149,-0.053020317
4150,-0.02735982
4151,-0.08802828
4152,0.0526242
4153,-0.07355251
4154,-0.03594077
4155,-0.14297137
4156,-0.09258408
4157,-0.021536136
4158,-0.06847846
4159,-0.13750671
4160,-0.069616765
4161,0.019409077
4162,-0.047008958
4163,0.06322434
4164,-0.08621328
4165,0.0010712637
4166,-0.07434367
4167,0.017056162
4168,-0.010770356
4169,0.07124639
4170,-0.06984433
4171,-0.027113317
4172,-0.11642315
4173,-0.0594055
4174,-0.090201735
4175,-0.0713697
4176,-0.031014455
4177,-0.017701866
4178,-0.119029425
4179,-0.19383857
4180,-0.11029554
4181,-0.054016814
4182,0.007566121
4183,0.1052402
4184,-0.011677556
4185,-0.103725746
4186,-0.010590011
4187,-0.1156549
4188,-0.16044487
4189,-0.0032038696
4190,0.13154666
4191,-0.06636464
4192,-0.03390348
4193,-0.22158845
4194,-0.046001166
4195,-0.04508614
4196,-0.037108827
4197,-0.05454943
4198,-0.028930523
4199,-0.043573603
4200,-0.017899731
4201,0.011109161
4202,-0.0837192
4203,0.00399516
4204,-0.033855245
4205,-0.054284457
4206,0.050707437
4207,0.0027020867
4208,0.14223917
4209,-0.022271335
4210,0.04186658
4211,-0.16530019
4212,0.05769549
4213,-0.17875604
4214,-0.103518255
4215,-0.08098072
4216,-0.047172163
4217,-0.01805671
4218,0.07861025
4219,-0.07819106
4220,0.010229142
4221,-0.10921358
4222,0.04100632
4223,-0.07924365
4224,0.013476302
4225,-0.0949134
4226,-0.0064099235
4227,-0.05786524
4228,0.011776231
4229,-0.04295631
4230,-0.028697612
4231,-0.0029927192
4232,-0.006751219
4233,0.027401736
4234,-0.100964256
4235,-0.044050805
4236,0.0070966715
4237,0.010044462
4238,-0.03951043
4239,0.009093932
4240,0.06089612
4241,0.11406096
4242,-0.027891118
4243,0.013342967
4244,-0.0038637456
4245,0.039191503
4246,-0.13069172
4247,0.024823818
4248,-0.005237331
4249,-0.005149944
4250,-0.03323513
4251,-0.0063523683
4252,-0.08178064
4253,-0.037802722
4254,-0.009307672
4255,0.01967257
4256,-0.028483532
4257,-0.05749192
4258,0.07768877
4259,0.011099981
4260,-0.03665485
4261,-0.012877905
4262,-0.07036885
4263,-0.118948236
4264,0.0642047
4265,-0.047461025
4266,0.03821769
4267,0.0034916084
4268,0.028551418
4269,-0.06639442
4270,-0.08636032
4271,-0.0047075697
4272,-0.06702962
4273,-0.049927294
4274,-0.04906215
4275,0.002770746
4276,-0.048091646
4277,-0.023372727
4278,-0.03393116
4279,0.009342884
4280,-0.037073832
4281,-0.034915496
4282,-0.0053319964
4283,-0.012480198
4284,-0.07872069
4285,0.011283702
4286,-0.074908905
4287,0.009546094
4288,-0.09683154
4289,-0.095595986
4290,-0.034629628
4291,-0.007848976
4292,0.009827375
4293,-0.001855076
4294,0.025104007
4295,-0.007418079
4296,-0.06601017
4297,-0.043446578
4298,-0.037613954
4299,0.04190494
4300,-0.01879283
4301,0.08729276
4302,-0.0427812
4303,-0.018141812
4304,-0.087083176
4305,0.0004194796
4306,-0.08920738
4307,-0.12421225
4308,-0.05179739
4309,-0.000911909
4310,-0.004472411
4311,0.07866118
4312,-0.056016278
4313,-0.16565534
4314,-0.025731135
4315,-0.010308388
4316,0.007315482
4317,0.012553405
4318,0.02206417
4319,-0.0009879931
4320,-0.08290669
4321,-0.0381779
4322,0.036020804
4323,0.021286696
4324,-0.021443272
4325,-0.050926127
4326,0.011587503
4327,0.026293267
4328,-0.027251963
4329,0.0072587314
4330,-0.031659693
4331,-0.010339009
4332,0.048259635
4333,-0.024864515
4334,0.030963544
4335,-0.0019370696
4336,-0.095438756
4337,-0.02247312
4338,-0.021203704
4339,-0.076096304
4340,0.019019755
4341,-0.046808522
4342,-0.12334447
4343,-0.03794186
4344,-0.045396175
4345,-0.025788156
4346,0.055653475
4347,-0.099667124
4348,-0.04427978
4349,0.0045524137
4350,0.041925963
4351,0.00521219
4352,0.029025443
4353,-0.065683626
4354,-0.02795251
4355,-0.07011093
4356,0.10420575
4357,-0.035021707
4358,0.0913836
4359,0.017534645
4360,0.025501564
4361,-0.020372638
4362,0.048458025
4363,-0.04054455
4364,-0.08158622
4365,0.080886215
4366,-0.025613207
4367,-0.06458466
4368,0.046544313
4369,-0.0014778947
4370,-0.2346103
4371,0.004032072
4372,-0.06671074
4373,0.058226045
4374,-0.02947022
4375,0.042594984
4376,-0.009274242
4377,-0.06231064
4378,-0.041378006
4379,-0.0844016
4380,-0.06078442
4381,0.019280085
4382,-0.0037911083
4383,-0.0019678732
4384,-0.022640403
4385,-0.00943212
4386,0.097080834
4387,0.024609296
4388,-0.033511017
4389,0.08099463
4390,-0.054011114
4391,-0.027413877
4392,0.011160991
4393,-0.05111694
4394,0.039412096
4395,-0.015365631
4396,0.026330939
4397,0.08496835
4398,0.054462567
4399,-0.01997786
4400,-0.043768413
4401,-0.032237474
4402,-0.008107862
4403,0.008152634
4404,-0.06057882
4405,-0.072743036
4406,0.13411269
4407,-0.029785188
4408,-0.05285794
4409,-0.034271207
4410,-0.017141258
4411,0.12568437
4412,-0.101189055
4413,0.0017593801
4414,-0.045415044
4415,-0.031058373
4416,-0.06073997
4417,-0.015426518
4418,-0.045250613
4419,0.0508839
4420,-0.17414005
4421,-0.00738672
4422,0.029266657
4423,0.01662569
4424,-0.03259723
4425,-0.031378277
4426,0.07233469
4427,-0.011435405
4428,-0.10323174
4429,-0.018117385
4430,-0.057527333
4431,0.06115374
4432,-0.050163
4433,-0.009213838
4434,-0.07965219
4435,0.032691743
4436,-0.104127325
4437,-0.040337108
4438,0.070928134
4439,-0.032224227
4440,0.039945718
4441,-0.123638906
4442,-0.025597483
4443,0.032147866
4444,-0.043825787
4445,0.012915426
4446,0.0035930944
4447,-0.008530064
4448,-0.0821665
4449,-0.036068328
4450,-0.083142705
4451,0.04488169
4452,-0.064707585
4453,-0.063307606
4454,-0.054926425
4455,0.046965424
4456,-0.011948106
4457,-0.03993256
4458,0.060210764
4459,-5.0042596e-05
4460,0.062440984
4461,-0.03371823
4462,-0.056033183
4463,-0.012802091
4464,-0.042920887
4465,-0.011832842
4466,-0.08591169
4467,-0.040509995
4468,-0.028345767
4469,0.05505914
4470,0.047816146
4471,-0.025650812
4472,-0.031152165
4473,0.047127727
4474,0.042096257
4475,-0.078940794
4476,0.002978416
4477,-0.045699004
4478,0.063222304
4479,0.04106284
4480,0.005294012
4481,-0.016235685
4482,-0.006929272
4483,-0.12014739
4484,0.032662492
4485,-0.052725594
4486,-0.0430432
4487,0.007459323
4488,-0.012322329
4489,-0.058203336
4490,-0.08232197
4491,0.007736546
4492,-0.053203825
4493,-0.038920615
4494,-0.08800981
4495,-0.050491426
4496,-0.008556384
4497,-0.06788828
4498,0.06706889
4499,-0.09203387
4500,0.008285349
4501,0.03560958
4502,-0.07087152
4503,0.04230759
4504,0.014852203
4505,-0.07938104
4506,0.0016095337
4507,0.0065030516
4508,0.052112415
4509,0.0191738
4510,0.0121549815
4511,0.038533386
4512,0.023856303
4513,-0.00043721127
4514,-0.05687728
4515,-0.014206134
4516,-0.019709755
4517,-0.026235495
4518,-0.030034559
4519,0.0040101055
4520,0.04757157
4521,-0.024855556
4522,0.010087086
4523,0.00084648485
4524,0.001503603
4525,-0.001558388
4526,-0.061967317
4527,-0.03900458
4528,0.033070505
4529,0.03394762
4530,-0.013969649
4531,-0.01570009
4532,-0.006888408
4533,0.03775395
4534,-0.07713231
4535,0.0039585656
4536,-0.08796144
4537,-0.071321875
4538,-0.015157962
4539,0.008049908
4540,-0.038712688
4541,-0.11689813
4542,0.0044141677
4543,-0.021456292
4544,0.056118157
4545,-0.04133985
4546,0.008299787
4547,-0.085175514
4548,-0.057545774
4549,-0.006518521
4550,0.034545973
4551,0.009636927
4552,0.04226028
4553,-0.12022457
4554,-0.0578026
4555,-0.045938067
4556,0.09280603
4557,-0.18819673
4558,0.018166713
4559,-0.16331695
4560,0.029215958
4561,0.00047159125
4562,0.038479555
4563,-0.15740085
4564,-0.032143857
4565,-0.008180201
4566,-0.090792514
4567,0.046118412
4568,-0.09612928
4569,-0.079740286
4570,-0.014944753
4571,0.036194943
4572,0.0531626
4573,-0.064134985
4574,-0.1290688
4575,-0.048799913
4576,0.01927699
4577,-0.053827595
4578,-0.05961017
4579,0.058441885
4580,-0.042767406
4581,0.016893966
4582,0.010635168
4583,0.008920238
4584,-0.020045284
4585,0.019963881
4586,-0.10101682
4587,0.007943705
4588,0.03369068
4589,-0.07933361
4590,0.0021946218
4591,-0.0150303105
4592,-0.08639648
4593,-0.013464561
4594,0.0063800327
4595,0.030160176
4596,-0.0070534707
4597,0.030960033
4598,-0.23673615
4599,-0.09345924
4600,0.030535905
4601,0.020290779
4602,0.03434984
4603,-0.006259651
4604,-0.039294336
4605,0.007021464
4606,-0.062147316
4607,-0.08613974
4608,-0.010202311
4609,-0.024899162
4610,0.008813435
4611,-0.015890045
4612,-0.010173238
4613,-0.042478237
4614,-0.03975757
4615,-0.0061573125
4616,-0.044844832
4617,0.017991291
4618,-0.082004905
4619,-0.0527476
4620,0.03841331
4621,0.028073803
4622,-0.014313502
4623,0.026652982
4624,0.031075738
4625,0.06669076
4626,0.0038237507
4627,-0.03137796
4628,0.004581954
4629,0.060473338
4630,-0.024662547
4631,0.045549825
4632,-0.11359591
4633,-0.0068093017
4634,0.013653073
4635,-0.0279555
4636,-0.04528622
4637,-0.095913835
4638,-0.004892318
4639,0.00027543542
4640,-0.062314257
4641,-0.0050989846
4642,0.036183752
4643,-0.06579371
4644,-0.023656307
4645,-0.08369204
4646,-0.028035399
4647,-0.022189232
4648,0.0793678
4649,0.038342547
4650,0.03786121
4651,-0.0013971769
4652,0.021856144
4653,-0.015426029
4654,0.04975929
4655,0.009466201
4656,-0.0021382223
4657,-0.043952446
4658,-0.026349088
4659,0.010538895
4660,-0.12253935
4661,-0.020087184
4662,-0.041670382
4663,0.039270446
4664,0.008643794
4665,-0.020208118
4666,-0.011956105
4667,0.0071593653
4668,-0.027336897
4669,0.043685656
4670,-0.03569865
4671,-0.077641286
4672,-0.08070418
4673,-0.06887984
4674,0.09980116
4675,-0.022612695
4676,-0.10209602
4677,0.015144281
4678,0.0037735307
4679,0.02743779
4680,-0.0129797775
4681,-0.066321455
4682,0.013245884
4683,0.052837837
4684,0.005862853
4685,0.056922153
4686,-0.011600374
4687,-0.006490982
4688,-0.009343931
4689,0.0022101093
4690,-0.032427862
4691,-0.05345909
4692,0.012731523
4693,0.010784784
4694,0.017448042
4695,0.051023934
4696,0.04923933
4697,-0.096275195
4698,0.01324228
4699,-0.007879701
4700,0.0068815676
4701,0.084949054
4702,0.059136964
4703,0.011786375
4704,-0.043327514
4705,0.02746465
4706,0.010012199
4707,0.052925643
4708,-0.055854585
4709,0.004612047
4710,-0.009955618
4711,0.0485855
4712,-0.011788684
4713,0.025371145
4714,-0.020460105
4715,0.011260696
4716,0.029169874
4717,-0.07492269
4718,0.07864897
4719,-0.017487783
4720,-0.082529165
4721,0.0011378021
4722,0.030100279
4723,-0.11958627
4724,-0.004231934
4725,-0.08127499
4726,-0.04646392
4727,-0.073749326
4728,-0.018645655
4729,-0.025646398
4730,0.04764623
4731,-0.03797647
4732,-0.014552755
4733,-0.12969828
4734,0.052893616
4735,0.025398498
4736,0.0041566337
4737,-0.07313036
4738,0.026471658
4739,-0.04463952
4740,0.0077027236
4741,0.05585357
4742,-0.004788694
4743,-0.007165804
4744,-0.12457648
4745,-0.0046554552
4746,0.006063117
4747,-0.03705856
4748,-0.048109557
4749,0.04596367
4750,0.04751529
4751,-0.08805797
4752,0.016908117
4753,0.0035021314
4754,0.017750798
4755,-0.025401512
4756,-0.0020997608
4757,-0.2343308
4758,-0.023182696
4759,-0.021413416
4760,-0.06775667
4761,0.0515722
4762,-0.033407435
4763,-0.061191972
4764,-0.031510897
4765,-0.016921462
4766,-0.022898525
4767,-0.0069972756
4768,-0.039088152
4769,-0.016352331
4770,0.04834145
4771,0.02325606
4772,0.0031142146
4773,-0.12201594
4774,0.038296703
4775,-0.023180068
4776,-0.046657618
4777,0.097819954
4778,-0.11230829
4779,-0.003768303
4780,-0.18849039
4781,0.025944684
4782,0.026150519
4783,0.0022003856
4784,-0.006414945
4785,-0.022874124
4786,-0.06719408
4787,-0.037861474
4788,-0.066892
4789,-0.055457886
4790,-0.019371638
4791,-0.03150967
4792,0.011286738
4793,0.07955314
4794,-0.059902377
4795,0.0099589825
4796,-0.044681627
4797,-0.0007836354
4798,-0.050321028
4799,0.010517967
4800,-0.044303324
4801,0.088277295
4802,0.0073559713
4803,0.11364609
4804,-0.0051495675
4805,0.008375542
4806,-0.030096432
4807,-0.14239354
4808,-0.028294288
4809,0.042979274
4810,0.0040574647
4811,-0.00057500624
4812,0.046375364
4813,-0.26765123
4814,-0.06360777
4815,-0.05181999
4816,-0.021663174
4817,-0.01507131
4818,0.020289663
4819,-0.10290748
4820,0.095088325
4821,-0.022105547
4822,0.027122453
4823,-0.16367069
4824,0.019688986
4825,-0.03663999
4826,0.0019146032
4827,0.0115955295
4828,0.0041523785
4829,0.025308464
4830,0.047970805
4831,-0.0118716955
4832,-0.031583656
4833,-0.11147902
4834,-0.04984704
4835,0.04974483
4836,0.005165022
4837,-0.0039891307
4838,-0.062033728
4839,-0.12301555
4840,-0.0044690697
4841,0.0065596574
4842,0.009607628
4843,0.006514448
4844,0.055687875
4845,0.02098432
4846,0.022804353
4847,-0.017191023
4848,0.07056747
4849,-0.0008135526
4850,-0.0058870623
4851,-0.07754385
4852,0.059556052
4853,-0.11571453
4854,-0.059194785
4855,-0.014544507
4856,-0.03394088
4857,0.055929486
4858,-0.07564562
4859,-0.005545943
4860,-0.042717848
4861,-0.0062741465
4862,0.022379382
4863,-0.01749902
4864,0.05556059
4865,0.03270622
4866,-0.07788584
4867,0.084717914
4868,0.018243123
4869,0.037393495
4870,-0.10920569
4871,-0.0022778858
4872,0.0235514
4873,-0.06908855
4874,-0.027410297
4875,-0.02130025
4876,0.06054769
4877,-0.05448186
4878,0.06829286
4879,-0.0147125
4880,0.092930086
4881,0.0032060884
4882,-0.03792853
4883,-0.09997298
4884,-0.1502525
4885,0.024921764
4886,-0.098738424
4887,0.03529533
4888,0.060423553
4889,0.07097426
4890,0.014868027
4891,0.031190874
4892,0.014714314
4893,-0.01127826
4894,-0.00015714357
4895,0.020821018
4896,-0.10496146
4897,-0.014437641
4898,-0.009265128
4899,0.065499194
4900,-0.05363642
4901,-0.047773376
4902,-0.0021430268
4903,0.00271951
4904,0.036980726
4905,-0.0009099967
4906,0.046392437
4907,0.00010680546
4908,0.034934234
4909,-0.12748459
4910,-0.016498046
4911,-0.035111465
4912,-0.0029600905
4913,-0.03094915
4914,-0.0041254386
4915,-0.007629406
4916,-0.009290512
4917,0.030263519
4918,-0.041971188
4919,0.08843201
4920,-0.007745057
4921,-0.0015512065
4922,0.037860602
4923,-0.074123174
4924,0.028892765
4925,0.0110382335
4926,-0.0087540755
4927,0.048923235
4928,-0.030408766
4929,0.024287503
4930,0.029165987
4931,0.02092844
4932,-0.08502512
4933,-0.0076531703
4934,0.04528033
4935,-0.029319763
4936,-0.0041710194
4937,0.04367709
4938,-0.08408801
4939,-0.0050068917
4940,-0.026208732
4941,0.02680144
4942,0.069548644
4943,-0.049730167
4944,-0.020868946
4945,0.009598793
4946,-0.011613204
4947,0.015465266
4948,-0.010202593
4949,0.0042847195
4950,0.005849342
4951,-0.013724935
4952,-0.022902004
4953,0.003703508
4954,-0.016764425
4955,-0.042424224
4956,-0.0019692674
4957,-0.008864121
4958,0.022274876
4959,0.054468032
4960,-0.017132498
4961,0.046841435
4962,-7.887808e-05
4963,0.058237046
4964,-0.13465135
4965,0.008672325
4966,0.023450634
4967,0.035149712
4968,-0.038733464
4969,0.047262758
4970,0.02697671
4971,0.005129038
4972,0.0782333
4973,-0.08681864
4974,0.048302963
4975,-0.013122715
4976,0.031631015
4977,-0.029144596
4978,-0.022437626
4979,-0.017830685
4980,0.022708245
4981,0.06556591
4982,-0.075041205
4983,0.0918459
4984,-0.01828333
4985,0.015019718
4986,0.010259193
4987,0.019861886
4988,0.047637887
4989,0.004726858
4990,0.043890264
4991,-0.03331685
4992,-0.025380582
4993,-0.02495339
4994,-0.04467035
4995,0.04438598
4996,-0.028571414
4997,0.05237985
4998,-0.002347053
4999,-0.008178749
5000,0.018029539
5001,0.006790305
5002,-0.015349395
5003,0.0048027434
5004,0.028465817
5005,0.11432502
5006,-0.05972449
5007,0.07203905
5008,-0.047060866
5009,-0.0165614
5010,-0.045181382
5011,0.009159936
5012,-0.01952651
5013,-0.006958253
5014,-0.07230592
5015,-0.14784195
5016,0.01377688
5017,0.003738221
5018,-0.052502383
5019,0.02241636
5020,-0.004717596
5021,0.058701046
5022,0.00029394712
5023,0.023842249
5024,-0.032138944
5025,-0.037501983
5026,-0.1376547
5027,-0.044574574
5028,0.012506842
5029,-0.046864197
5030,0.042330936
5031,-0.05861827
5032,-0.09085334
5033,0.09086167
5034,0.0010310819
5035,0.003924252
5036,-0.021894602
5037,0.026689867
5038,-0.13678776
5039,-0.0031286448
5040,0.028595628
5041,-0.07422064
5042,0.0068360465
5043,-0.044674713
5044,0.14134969
5045,0.029597139
5046,-0.03493383
5047,0.03101184
5048,0.044691592
5049,0.09971884
5050,-0.030366192
5051,0.15878144
5052,-0.008016929
5053,-0.26999786
5054,0.029388761
5055,-0.080822125
5056,0.025197547
5057,0.023701273
5058,0.02043708
5059,0.03827323
5060,0.030940834
5061,-0.014738705
5062,-0.04040595
5063,-0.09837097
5064,-0.014083739
5065,-0.17773046
5066,0.011386725
5067,-0.19385912
5068,0.0058118957
5069,0.07073627
5070,0.025550239
5071,-0.008321975
5072,-0.020288097
5073,-0.005522488
5074,0.014848695
5075,0.015422062
5076,0.10771675
5077,-0.027099
5078,0.0003237219
5079,-0.043819215
5080,-0.015295117
5081,-0.008424854
5082,-0.011783918
5083,0.083043806
5084,-0.08694851
5085,-0.09574933
5086,-0.0071767275
5087,0.021440787
5088,-0.0038091587
5089,0.036217798
5090,0.1054129
5091,-0.0008808444
5092,0.03051347
5093,-0.009010112
5094,0.0402113
5095,-0.24200611
5096,-0.034802128
5097,0.054657865
5098,-0.09013939
5099,-0.0014125057
5100,-0.02999947
5101,0.02739732
5102,0.0019810847
5103,-0.0077339318
5104,0.05240804
5105,0.00018977339
5106,0.14053784
5107,0.04377086
5108,0.022288494
5109,-0.015146837
5110,-0.03527995
5111,0.021593576
5112,-0.002596551
5113,-0.03170673
5114,-0.103492014
5115,-0.002796231
5116,0.030783096
5117,0.007089936
5118,-0.09431673
5119,0.06357848
5120,0.010650786
5121,-0.022449208
5122,0.010561691
5123,0.00088617974
5124,0.08082404
5125,-0.04235525
5126,0.016262554
5127,-0.00059439027
5128,0.039721265
5129,-0.010529832
5130,0.0099049825
5131,-0.01035065
5132,-0.01999508
5133,-0.0029962494
5134,-0.16071782
5135,0.047489017
5136,0.067530416
5137,0.011766475
5138,0.04900995
5139,0.064751
5140,0.006559153
5141,-0.006065135
5142,-0.07607563
5143,0.029640885
5144,0.04512083
5145,-0.08917407
5146,0.01067768
5147,0.027234973
5148,0.01605867
5149,0.027327474
5150,0.0029862854
5151,0.067478806
5152,0.029945025
5153,-0.053563446
5154,-0.002233407
5155,0.03688622
5156,-0.018960435
5157,-0.017186046
5158,-0.01564645
5159,-0.12077184
5160,-0.01948623
5161,-0.046008557
5162,-0.0041412693
5163,-0.018525546
5164,0.034331094
5165,0.0064286143
5166,0.01565909
5167,0.046131134
5168,-0.11698019
5169,-0.0688019
5170,0.031645976
5171,0.061366845
5172,0.016735958
5173,0.019385422
5174,0.027591446
5175,0.029411806
5176,-0.014318387
5177,-0.04430235
5178,0.03065944
5179,0.010207295
5180,-0.013547439
5181,-0.016554216
5182,-0.031692572
5183,-0.0049608257
5184,0.0013583174
5185,-0.07166707
5186,0.031427268
5187,-0.054867562
5188,0.07749901
5189,-0.0141930375
5190,0.038434163
5191,0.032885294
5192,-0.036333237
5193,-0.07066842
5194,0.026251534
5195,-0.005531949
5196,0.09616059
5197,-0.042635597
5198,0.02152842
5199,-0.0057476545
5200,-0.030120715
5201,0.0015972963
5202,0.02715184
5203,-0.039841395
5204,-0.06965799
5205,0.016057912
5206,-0.0011834772
5207,-0.048299063
5208,-0.07386673
5209,-0.10230583
5210,-0.004247604
5211,0.0053972565
5212,0.06421475
5213,-0.056879733
5214,-0.041800022
5215,0.045964602
5216,-0.03293479
5217,-0.022071216
5218,0.06651418
5219,0.04233868
5220,0.011743309
5221,0.015799696
5222,0.0014015272
5223,0.021214422
5224,0.039036963
5225,0.027717186
5226,0.012125593
5227,-0.018683687
5228,0.050835866
5229,0.009472194
5230,-0.03960867
5231,0.0015543344
5232,-0.0044385944
5233,-0.023012469
5234,0.04680287
5235,0.08011781
5236,-0.01732318
5237,0.02226972
5238,-0.04794636
5239,0.015764808
5240,-0.018396378
5241,-0.12820475
5242,0.005906013
5243,-0.008371268
5244,0.03434334
5245,0.06040584
5246,0.015455898
5247,0.0025379374
5248,-0.008446308
5249,-0.043086443
5250,0.019769255
5251,-0.07200075
5252,0.005870707
5253,-0.038982432
5254,-0.045588564
5255,0.00077252777
5256,-0.051249426
5257,0.033501774
5258,-0.051096257
5259,-0.06741729
5260,-0.06583615
5261,0.014380605
5262,-0.03676373
5263,0.020804755
5264,0.027446464
5265,0.07725014
5266,0.028755192
5267,-0.044821884
5268,-0.028206248
5269,-0.00095285557
5270,0.01684643
5271,0.061758902
5272,-0.126708
5273,-0.056719795
5274,-0.03440507
5275,-0.051582187
5276,-0.03560474
5277,-0.07040308
5278,0.0035488773
5279,-0.022854738
5280,-0.018345766
5281,-0.03568153
5282,0.029828623
5283,-0.039889213
5284,-0.0054546553
5285,-0.09941
5286,-0.06828323
5287,-0.0039213365
5288,0.03425812
5289,-0.016978715
5290,0.004591458
5291,-0.0021256811
5292,-0.018632494
5293,0.025566274
5294,0.0742183
5295,-0.009132005
5296,-0.019389875
5297,-0.026853355
5298,-0.0061177923
5299,0.012330736
5300,-0.12501147
5301,-0.014481501
5302,-0.042208534
5303,-0.028818833
5304,-0.041189197
5305,-0.032757547
5306,-0.005130316
5307,0.0014039999
5308,-0.024968801
5309,0.08218012
5310,-0.017356966
5311,-0.106255434
5312,-0.041327275
5313,0.0035347145
5314,0.041617613
5315,-0.057269413
5316,-0.07085167
5317,0.0061745476
5318,0.015264074
5319,0.00039072294
5320,-0.032305174
5321,-0.029384037
5322,0.037472174
5323,-0.00075005204
5324,0.034196295
5325,0.0022744616
5326,-0.044379283
5327,-0.0021273463
5328,-0.038417894
5329,-0.0032134883
5330,0.013383267
5331,-0.045455284
5332,0.008235443
5333,-0.02135049
5334,0.056957886
5335,0.030104015
5336,-0.009789037
5337,-0.05333137
5338,-0.014439524
5339,0.0220296
5340,-0.005319472
5341,0.07432466
5342,0.07208112
5343,-0.03132625
5344,-0.079297416
5345,-0.045880817
5346,0.019864613
5347,0.0494427
5348,-0.064385206
5349,-0.025536183
5350,-0.026427662
5351,0.02126468
5352,-0.03837626
5353,-0.018046191
5354,-0.0021639753
5355,0.010826474
5356,0.022255365
5357,-0.018008413
5358,0.07243123
5359,0.006493926
5360,-0.047466584
5361,-0.007000916
5362,0.08828685
5363,-0.10295947
5364,-0.004065112
5365,-0.093460955
5366,-0.05767766
5367,-0.04009952
5368,-0.005499485
5369,-0.025707982
5370,0.017598683
5371,-0.048797946
5372,0.0047863936
5373,-0.13008538
5374,0.09510291
5375,0.02070163
5376,0.05292393
5377,-0.090956874
5378,-0.039479483
5379,-0.11013553
5380,0.009739416
5381,-0.08958323
5382,-0.12265967
5383,0.0008446239
5384,0.0030418823
5385,0.02219939
5386,0.01304237
5387,-0.056892637
5388,-0.066037826
5389,-0.08092459
5390,-0.0469162
5391,0.021444658
5392,0.047125172
5393,0.0023192375
5394,-0.02187461
5395,-0.037442014
5396,-0.0025786455
5397,0.02496803
5398,-0.054401644
5399,0.03917449
5400,-0.018881597
5401,-0.07377117
5402,-0.020162815
5403,-0.14016178
5404,-0.045205962
5405,-0.08745462
5406,-0.0013782211
5407,0.0037565792
5408,-0.035190314
5409,-0.037789155
5410,0.044305604
5411,-0.11680892
5412,-0.012281612
5413,-0.067125775
5414,-0.030316401
5415,-0.08163519
5416,-0.044944346
5417,-0.058327362
5418,0.029227171
5419,0.008536536
5420,0.058193736
5421,-0.05039389
5422,-0.019162381
5423,-0.034273002
5424,-0.08274499
5425,-0.1058244
5426,-0.015001796
5427,0.0049603744
5428,-0.091732085
5429,-0.012638344
5430,-0.032446586
5431,0.029978137
5432,-0.12278733
5433,-0.07800962
5434,0.04489277
5435,-0.07642322
5436,-0.0625455
5437,0.032291826
5438,-0.07057313
5439,-0.07638866
5440,-0.020545093
5441,-0.038958553
5442,-0.039222453
5443,-0.08971611
5444,-0.09180931
5445,-0.008581349
5446,0.016927844
5447,0.0008923524
5448,-0.076659225
5449,-0.05825125
5450,-0.10163148
5451,-0.018288806
5452,0.005487635
5453,-0.10090404
5454,-0.084726095
5455,-0.017898485
5456,-0.074116275
5457,0.0067714616
5458,-0.038261652
5459,-0.12534522
5460,-0.11467905
5461,-0.03539741
5462,0.055737667
5463,0.043742992
5464,-0.052743524
5465,-0.0938523
5466,-0.011474883
5467,-0.08062757
5468,-0.04438127
5469,0.01627313
5470,0.010004232
5471,0.030284664
5472,-0.11498999
5473,-0.05040179
5474,0.009351068
5475,0.024536822
5476,-0.04511028
5477,-0.041407432
5478,0.012577318
5479,0.03978766
5480,-0.06818294
5481,-0.011605744
5482,0.010890581
5483,-0.012999299
5484,0.041008323
5485,-0.08080624
5486,0.026341394
5487,0.0066077327
5488,-0.020806726
5489,0.00064734207
5490,-0.07973445
5491,-0.02833879
5492,-0.0779542
5493,-0.038482137
5494,-0.03367629
5495,-0.06582852
5496,-0.06458777
5497,-0.06261436
5498,-0.018389013
5499,-0.11236538
5500,-0.015365437
5501,-0.0883276
5502,0.08677765
5503,-0.039752964
5504,-0.018261187
5505,-0.038945742
5506,0.002115708
5507,-0.11082568
5508,0.032969795
5509,-0.045630354
5510,0.011095472
5511,-0.007458203
5512,0.019229755
5513,-0.016883383
5514,-0.040715024
5515,-0.036854755
5516,-0.048076913
5517,-0.059454676
5518,-0.11352098
5519,-0.061400026
5520,-0.016133409
5521,-0.025353251
5522,0.058291465
5523,0.06588788
5524,-0.029338464
5525,-0.06203961
5526,-0.035589043
5527,0.03411987
5528,0.061598413
5529,-0.093665615
5530,-0.034261387
5531,0.02047018
5532,-0.019935196
5533,0.038983893
5534,-0.0007332029
5535,-0.010516318
5536,0.010859691
5537,-0.022261312
5538,0.017529024
5539,-0.051435135
5540,-0.042338
5541,-0.060979865
5542,0.012100218
5543,-0.050182555
5544,0.051197886
5545,-0.00044963995
5546,-0.028912287
5547,-0.00041057644
5548,-0.038468353
5549,-0.029080067
5550,0.031920113
5551,-0.01019713
5552,-0.020215094
5553,-0.028450254
5554,-0.019370837
5555,0.04732743
5556,-0.06167209
5557,-0.00701568
5558,0.02825981
5559,-0.0039192084
5560,-0.089880876
5561,-0.008317992
5562,0.041446008
5563,-0.0588134
5564,-0.02248586
5565,0.04328317
5566,-0.06840107
5567,0.054863922
5568,0.0050682803
5569,-0.03670069
5570,0.040529143
5571,-0.082435034
5572,-0.055304162
5573,-0.014969721
5574,0.006817306
5575,0.05445884
5576,0.0018591544
5577,-0.05468896
5578,-0.026280263
5579,0.034761712
5580,0.10097882
5581,-0.054399632
5582,-0.036070358
5583,-0.040005438
5584,-0.01973003
5585,-0.005353058
5586,0.019753415
5587,-0.054273415
5588,0.000741327
5589,0.024711162
5590,-0.009035938
5591,-0.0059843254
5592,-0.07153336
5593,-0.06352862
5594,-0.004789429
5595,-0.029942054
5596,0.030110134
5597,-0.043273356
5598,0.024705216
5599,-0.004788226
5600,-0.025393883
5601,-0.017704962
5602,-0.06470855
5603,0.01663216
5604,0.008316212
5605,0.006271533
5606,0.014281096
5607,0.07006631
5608,0.01317946
5609,-0.003587778
5610,0.017158713
5611,0.003999566
5612,-0.012674536
5613,-0.08592287
5614,-0.009512352
5615,-0.0069346223
5616,-0.05204319
5617,0.0044214264
5618,0.0016447108
5619,0.018829575
5620,-0.027696589
5621,0.025730068
5622,-0.015865544
5623,-0.04847766
5624,-0.03186019
5625,-0.15515298
5626,0.055108145
5627,-0.045056377
5628,-0.054925136
5629,-0.031064428
5630,-0.032386925
5631,-0.037574243
5632,0.04788938
5633,-0.08171971
5634,0.047577463
5635,-0.088506564
5636,0.092985205
5637,0.025256692
5638,0.050721962
5639,-0.0032798874
5640,0.033535145
5641,0.0022813138
5642,0.022512497
5643,0.0069166045
5644,0.010558637
5645,0.045354664
5646,-0.065237015
5647,-0.07247147
5648,-0.0055238195
5649,-0.00052002113
5650,-0.12751053
5651,-0.033779524
5652,0.050553143
5653,0.0693722
5654,-0.06952644
5655,0.041077234
5656,0.038826924
5657,0.013635272
5658,-0.00995812
5659,0.0072849947
5660,-0.030686246
5661,-0.006371939
5662,-0.0012939833
5663,0.033379536
5664,-0.043986432
5665,-0.08122795
5666,-0.11672627
5667,0.07037089
5668,-0.04280425
5669,0.13925874
5670,-0.020164372
5671,0.0017609427
5672,0.06785146
5673,0.005143826
5674,0.039615285
5675,-0.0037839261
5676,0.04549877
5677,0.08958797
5678,0.030788064
5679,-0.028374465
5680,-0.029233936
5681,0.046905484
5682,-0.08452938
5683,0.012980848
5684,-0.014042887
5685,0.019402442
5686,0.05038834
5687,0.04368913
5688,-9.250321e-05
5689,0.005219302
5690,0.025262333
5691,0.068841815
5692,-0.059811004
5693,-0.027842946
5694,-0.03136
5695,0.017256191
5696,0.008724852
5697,-0.034090195
5698,-0.04071486
5699,0.07448366
5700,0.027833799
5701,0.005957469
5702,0.047817886
5703,0.12836567
5704,-0.023499854
5705,-0.10004868
5706,0.05279298
5707,0.045074463
5708,-0.047175415
5709,-0.015959583
5710,-0.04791145
5711,-0.008975471
5712,0.05126825
5713,-0.004901113
5714,-0.047471065
5715,-0.03946111
5716,-0.04051454
5717,-0.057779938
5718,-0.011012401
5719,0.060545564
5720,-0.034928404
5721,-0.015437413
5722,-0.012252156
5723,-0.016270163
5724,-0.049962696
5725,0.08200046
5726,0.0014883961
5727,0.03551952
5728,0.0072562187
5729,-0.017122375
5730,0.0031728758
5731,0.03708475
5732,0.0025677616
5733,0.028380077
5734,0.020928739
5735,0.05470909
5736,-0.06947999
5737,0.033444986
5738,0.06806451
5739,-0.0058476455
5740,0.022106834
5741,0.0381799
5742,0.009243917
5743,0.008691858
5744,-0.03429211
5745,-0.01852933
5746,-0.011688888
5747,0.017885154
5748,-0.020338232
5749,0.070150875
5750,0.073342495
5751,0.0023903963
5752,-0.088598624
5753,0.015598779
5754,0.13695991
5755,-0.07866195
5756,0.0055281296
5757,0.056238562
5758,0.05120742
5759,0.041690543
5760,-0.02462116
5761,0.004042759
5762,0.008430023
5763,-0.05511609
5764,-0.023838023
5765,-0.024823613
5766,-0.02954635
5767,-0.007056516
5768,-0.012742111
5769,-0.021998564
5770,-0.16187985
5771,0.030969067
5772,-0.05681722
5773,0.003579401
5774,-0.26766548
5775,-0.021226933
5776,0.046996508
5777,0.0306354
5778,0.069983274
5779,-0.051832523
5780,-0.049445104
5781,0.024754055
5782,-0.11278687
5783,0.033754095
5784,0.021852642
5785,0.019211918
5786,0.0115942275
5787,-0.07344101
5788,0.049329195
5789,0.012050264
5790,-0.0088791475
5791,0.0644994
5792,-0.0035688418
5793,0.0048077363
5794,-0.034512162
5795,0.109990485
5796,-0.03874052
5797,-0.031382896
5798,-0.012160855
5799,0.037530057
5800,0.046387024
5801,0.007719051
5802,0.023040071
5803,-0.0007763413
5804,0.0031411161
5805,-0.07646984
5806,-0.0526536
5807,-0.018044684
5808,0.03978776
5809,0.004233583
5810,0.012373266
5811,-0.031466972
5812,0.03863125
5813,0.016525246
5814,0.0049797785
5815,0.025497168
5816,-0.20615123
5817,-0.02120186
5818,0.0022797212
5819,-0.055247467
5820,-0.05201329
5821,-0.011382443
5822,0.048125442
5823,0.015414455
5824,0.017207384
5825,-0.078626804
5826,-0.030678805
5827,0.06018457
5828,0.005815666
5829,0.004345208
5830,0.04649747
5831,0.024620349
5832,0.042359322
5833,0.0127354385
5834,-0.003271554
5835,-0.004816847
5836,0.029496506
5837,-0.018048747
5838,0.0057222177
5839,-0.07235216
5840,0.009473104
5841,-0.01842089
