Sno,Weight
0,-0.0023403517
1,0.0177568
2,0.010195964
3,-0.0025779745
4,0.0035164761
5,0.012709714
6,-0.008605103
7,-0.0068208487
8,-0.010263225
9,-7.331356e-05
10,-0.011803191
11,-0.008411464
12,-0.0059513147
13,-0.006675681
14,0.009321653
15,0.0045452076
16,0.006425782
17,0.0067202556
18,-0.0038218505
19,0.004144764
20,0.005275188
21,-0.0071802353
22,-0.019993365
23,-0.008326278
24,0.0083121415
25,0.00022525762
26,-0.016729072
27,-0.013161874
28,0.0035496296
29,-0.0051015522
30,-0.005176033
31,0.014182611
32,-0.0038115634
33,0.0021562038
34,0.014408844
35,-0.015896648
36,0.017218746
37,-0.0051906477
38,0.0074982084
39,0.010514809
40,-0.0059179943
41,0.005802331
42,0.0036653073
43,-0.00855662
44,-0.017487472
45,0.009543558
46,0.005043948
47,0.011119052
48,0.002262664
49,-0.0022849122
50,-0.00049129355
51,-0.005485539
52,0.0060210596
53,0.005632415
54,-0.0022834293
55,0.0024896432
56,-0.0077210297
57,-0.014933049
58,-0.006725112
59,-0.00996516
60,-0.00350767
61,-0.0050559724
62,0.0010657483
63,0.008012805
64,0.0010680378
65,0.015938168
66,0.0059148357
67,0.0069119106
68,0.0033111358
69,0.0007600002
70,-0.013535615
71,0.004459848
72,0.0014906108
73,0.0066537727
74,-0.006239666
75,0.008740705
76,0.0061495146
77,-0.0009932253
78,0.00775697
79,0.009145626
80,-0.0066147815
81,-0.00736938
82,-0.01098875
83,0.00406174
84,-0.00024315908
85,-0.0024753606
86,-0.0038493637
87,0.009618405
88,-0.0025592758
89,-0.017208356
90,-0.019343404
91,0.005713307
92,-0.007579249
93,-0.0017138348
94,-0.0012613756
95,-0.0110534225
96,-0.0037141277
97,-0.0011326988
98,0.0073461463
99,0.010879543
100,-0.0056728953
101,0.0011282808
102,-0.006438733
103,0.012609297
104,-0.0010409494
105,-9.2030285e-05
106,0.0044200844
107,-0.009657246
108,-0.0027615766
109,-0.015415466
110,-0.009788855
111,0.012934303
112,-0.014010222
113,-0.0027389887
114,0.007162113
115,-0.00491374
116,0.014120451
117,-0.015347497
118,0.012042496
119,0.003926202
120,0.011595439
121,0.016739512
122,0.002827708
123,-0.005641693
124,0.0029019786
125,-0.015899504
126,0.008206807
127,-0.005353955
128,-0.003175983
129,0.013059111
130,0.0036556483
131,-0.0015391338
132,0.0130869225
133,-0.004574501
134,0.0021336814
135,-0.0049257507
136,-0.0037668194
137,-0.014522329
138,-0.011805477
139,0.0040076757
140,0.0023999764
141,0.0003563773
142,-0.01688406
143,-0.01789008
144,-0.005640386
145,-0.00023377444
146,-0.005651124
147,0.0020949864
148,-0.0006019493
149,-0.0063928585
150,0.0021557454
151,-0.008662433
152,0.0071189185
153,0.0079187
154,0.0014192618
155,0.005362053
156,0.016767588
157,0.00096753996
158,-0.0036835505
159,0.0038776523
160,0.006858238
161,0.0037956396
162,0.01738119
163,0.0061805528
164,0.005284594
165,0.0026867888
166,0.00049173896
167,-0.016169354
168,0.013451697
169,0.010359211
170,0.0017803418
171,0.0109762745
172,0.003528409
173,0.0019494343
174,-0.019117065
175,0.0011507693
176,0.00927601
177,-0.006423335
178,0.00556497
179,-0.0016051856
180,0.015960049
181,0.0039033156
182,-0.0029572484
183,0.003757837
184,0.0017696815
185,-0.010570812
186,-0.0057125
187,-0.008034366
188,0.0073578316
189,0.003966314
190,0.006601203
191,-0.009620068
192,-0.006541469
193,0.0061117685
194,-0.007073226
195,0.008280527
196,-0.0045131035
197,0.0017403661
198,-0.00033052175
199,-0.011135842
200,-0.010588054
201,0.0039966367
202,0.014862087
203,0.009309949
204,-0.012899253
205,-0.0030926098
206,0.00836894
207,0.006282246
208,0.012780339
209,-0.0037456944
210,-0.004803962
211,0.0018119495
212,-0.0071101254
213,-0.005896537
214,-0.0018536851
215,0.0005760748
216,-0.009968776
217,-0.005527531
218,-0.002656455
219,0.0030193964
220,-0.01469044
221,-0.003769781
222,0.0036580076
223,0.004777833
224,-0.008036785
225,-0.005131886
226,0.011176851
227,0.009020003
228,0.0015375174
229,-0.002055507
230,-0.0098685175
231,-0.004913104
232,-0.0027896697
233,-0.013242915
234,-0.009690579
235,-0.005499862
236,-0.008008337
237,-0.009618953
238,-0.0049072653
239,-0.006505023
240,0.010525585
241,0.0037424793
242,0.007915029
243,-0.0011021846
244,-0.0013429024
245,0.0029171205
246,0.010052132
247,-0.0031398037
248,-0.012669338
249,0.010100938
250,0.0032174755
251,-0.008061767
252,0.005362744
253,-0.0008022573
254,-0.005717631
255,0.011592952
256,0.014274746
257,0.0039215987
258,-0.0075543094
259,-0.0018920252
260,-0.013210345
261,-0.019920018
262,0.006053063
263,-0.005318868
264,0.0054631066
265,0.002609963
266,-0.0054522436
267,-0.018841475
268,-0.0013168306
269,0.0072065033
270,-0.004925489
271,-0.0014388788
272,0.0021684451
273,-0.00340404
274,0.0024041694
275,-0.0023257956
276,-0.015231059
277,-0.016848577
278,-0.0019919327
279,-0.0022782679
280,-0.0017521387
281,0.0039337217
282,0.004529805
283,0.018334717
284,0.018295432
285,-0.0062566893
286,0.00018182599
287,-0.01648892
288,-0.001808109
289,0.016495425
290,0.013017298
291,0.0026436162
292,0.0075128633
293,-0.008369093
294,0.000102951584
295,0.0047105704
296,-0.0013206819
297,0.006483171
298,0.0070767333
299,-0.0015898022
300,0.004187195
301,0.0045624683
302,0.013212293
303,-0.0050785965
304,-0.004174252
305,0.011420592
306,-0.011160582
307,0.007782084
308,-0.015427251
309,0.0012536261
310,0.006873392
311,-0.009108936
312,-0.012499561
313,0.010139036
314,-0.0014837149
315,0.0064710914
316,0.0057407618
317,0.009039076
318,-0.01793948
319,-0.006426086
320,0.0061493656
321,0.007902581
322,-0.0074411263
323,0.002709796
324,-0.0027341624
325,-0.0051933858
326,0.017528981
327,-0.0008545021
328,-0.01467059
329,-0.013951808
330,-0.0035122244
331,-0.0027446812
332,-0.000684557
333,0.009761635
334,0.005653437
335,0.0092541175
336,-0.0045933244
337,0.0016396489
338,0.009263598
339,0.010280886
340,0.01284606
341,0.0021845566
342,-0.012456094
343,-0.004606571
344,0.00021986366
345,-0.010245099
346,0.004441844
347,0.01102346
348,-0.012442784
349,-0.0064699748
350,-0.00083616714
351,7.20531e-06
352,-0.0008409329
353,-0.006751157
354,0.0051125386
355,0.015154617
356,0.008600096
357,-0.0028871496
358,-0.01644129
359,-0.00019855959
360,-0.007880341
361,-0.00923693
362,0.007096656
363,0.007464392
364,-0.014769889
365,-0.008524435
366,-0.011628638
367,-0.009050347
368,0.0008484298
369,0.0058839684
370,0.010379742
371,-0.019176692
372,-0.0042053885
373,-0.0055965255
374,0.016293004
375,0.00050514564
376,-0.006264878
377,0.016035188
378,-0.0169873
379,0.006664728
380,-0.013464667
381,-0.008812961
382,-0.010711069
383,0.0065549314
384,-0.007797613
385,-0.0046312595
386,-0.014124302
387,-0.0021069408
388,0.0053288145
389,0.0041965176
390,-0.005797806
391,0.0016536979
392,-0.013461662
393,0.008506967
394,0.0016172257
395,0.005882624
396,0.016749922
397,0.001350827
398,0.004616784
399,-0.013946273
400,0.0042688665
401,-0.0035663168
402,-0.000658611
403,0.0013206563
404,-0.0073443474
405,0.010303186
406,-0.007029109
407,0.000420769
408,0.004497113
409,0.013269121
410,-0.016802488
411,0.0016123906
412,-0.0070731416
413,0.006037963
414,-0.014024719
415,-2.2894003e-05
416,0.0011731006
417,0.0010484646
418,0.009693245
419,0.0030643023
420,-0.0068253814
421,-0.004155794
422,0.011573054
423,0.013312775
424,0.0032326032
425,-0.00978431
426,0.0056810197
427,-0.013170982
428,-0.0019282368
429,-0.013724167
430,0.013965391
431,0.009773254
432,0.008649028
433,0.006656342
434,0.014457702
435,0.0025744466
436,0.012558576
437,-0.0053247404
438,-0.008062189
439,-0.0031023182
440,0.0008623146
441,0.0009186228
442,-0.0014579042
443,0.005300152
444,0.0013988148
445,-0.010072593
446,-0.008402162
447,-0.004208542
448,-0.0108870035
449,0.0048150406
450,0.009734186
451,0.0057480526
452,-0.0048344494
453,-0.009501759
454,0.009042798
455,0.005376941
456,-0.0068072504
457,0.019642679
458,-0.0011681144
459,0.009574371
460,-0.0067886664
461,0.0042396463
462,-0.011320348
463,0.014990056
464,-0.0066247843
465,0.0027531488
466,-0.006933948
467,-0.006695
468,-0.001520356
469,-0.015966997
470,-0.00081735884
471,-0.0026023707
472,-0.011209712
473,-0.004132928
474,-0.0033539291
475,-0.0057608453
476,0.008360214
477,-0.016785683
478,0.0018017966
479,0.011358483
480,-0.001264129
481,0.012624893
482,-0.014902661
483,0.007106907
484,-0.0046131797
485,-0.016999777
486,-0.010171313
487,-0.014979974
488,-0.008270498
489,0.004456194
490,-0.007064272
491,-0.0050172787
492,-0.005046579
493,0.010555311
494,-0.010043396
495,0.00014035811
496,0.011537714
497,-0.0055678748
498,-0.005996127
499,0.0016428758
500,-0.003620148
501,-0.0023965258
502,-0.007365191
503,-0.01664082
504,0.01126051
505,-0.00093982596
506,0.016946627
507,-0.016215915
508,-0.0030827376
509,0.0099186255
510,0.009935197
511,-0.01707651
512,-0.004246341
513,0.012872903
514,0.018220058
515,-0.0049646953
516,-0.0039620795
517,-0.00825924
518,0.0007595499
519,-0.0035185923
520,0.00592087
521,0.0068985466
522,-0.00944059
523,0.0051645176
524,-0.018279362
525,-0.012965423
526,0.0077208034
527,0.0010208868
528,0.008774327
529,-0.0022896512
530,0.0153699685
531,-0.0011162082
532,-0.014046369
533,-0.0038125827
534,-0.019989228
535,0.012753553
536,-0.015093808
537,0.012245894
538,0.0107042575
539,0.0016821432
540,-0.007014579
541,0.0007282747
542,-0.0010101122
543,0.0044158166
544,0.0131942555
545,0.017277343
546,-0.0096867345
547,0.018261546
548,-0.005821044
549,0.0049231555
550,-0.002119205
551,-0.0030277437
552,0.004169409
553,0.015936513
554,-0.0049540238
555,0.0039592795
556,-0.003569536
557,0.0026496225
558,0.00020106098
559,-0.0024078146
560,-0.015501667
561,0.008739587
562,0.010716917
563,0.004745279
564,0.012845703
565,-0.003174174
566,-0.00090086344
567,0.002970829
568,-0.0034442425
569,-0.005377731
570,-0.00843158
571,-0.0026202379
572,-0.004861787
573,-0.008050848
574,0.018727183
575,-0.01674446
576,-0.009823414
577,0.0066583753
578,-0.001547096
579,0.0013652227
580,-0.0027270904
581,0.0011558129
582,0.0142767
583,-0.0007884894
584,0.012250509
585,0.0030127587
586,0.019189501
587,-0.012919536
588,-0.017455809
589,-0.007525252
590,-0.0010502946
591,-0.00186968
592,-0.01761317
593,0.0011712757
594,-0.008486462
595,-0.009912965
596,-0.0013694617
597,-0.013611597
598,-0.0062980866
599,0.015811844
600,-0.015100364
601,-0.014409997
602,0.019485218
603,0.015498933
604,-0.003110047
605,0.0027467054
606,-0.01173728
607,-0.010109687
608,-0.007998467
609,-0.0011890238
610,0.0016318465
611,0.0064408705
612,-0.00014850526
613,0.007239711
614,0.009281361
615,0.0016607889
616,-0.005158492
617,0.0012310162
618,-0.00027605175
619,0.014949834
620,0.008491662
621,-0.013132269
622,-0.007583965
623,0.011073864
624,-0.01488862
625,-0.013490602
626,0.00035326337
627,-0.008141757
628,-0.015881507
629,-0.0005704106
630,-0.009649238
631,-0.004733413
632,-0.007803389
633,0.016525159
634,-0.0113320565
635,-0.013443564
636,-0.013062245
637,-0.0052012093
638,0.006147698
639,-0.0025065274
640,-0.0062126075
641,0.008331118
642,-0.0057531544
643,-0.0184585
644,-0.0044068177
645,-0.0009929824
646,-0.004013123
647,0.013692063
648,-0.015406291
649,-0.008463436
650,0.01931291
651,-0.0040069073
652,0.014802874
653,0.005039581
654,0.007930754
655,-0.010444286
656,-0.005941005
657,0.013459857
658,-0.016078075
659,0.011448443
660,-0.0015010167
661,-0.015803978
662,0.011531794
663,-0.012696921
664,-0.008497672
665,0.011264912
666,-0.017792024
667,-0.0005700658
668,-0.0017177116
669,0.012949095
670,0.0063575683
671,-0.003248394
672,-0.0013729756
673,-0.0037103912
674,-0.0063819666
675,-0.007835244
676,-0.013970661
677,0.00498758
678,-0.0007702496
679,-0.014031113
680,0.01165743
681,0.012068459
682,0.018689673
683,-0.0040971874
684,-0.008280611
685,-0.010751709
686,-0.010144708
687,0.012855728
688,-0.0034785762
689,0.018957572
690,-0.0024423988
691,-0.003430425
692,-0.013436559
693,-0.0007529918
694,0.011896199
695,0.0154289575
696,-0.015796859
697,0.019157328
698,-0.015433254
699,-0.011352512
700,-0.0109677585
701,-0.002143712
702,-0.005499298
703,0.0064378013
704,-0.001414091
705,-0.0018288967
706,-0.012457504
707,0.005777611
708,-0.014805298
709,-0.016583923
710,0.005402783
711,-0.0027457708
712,-0.0032700016
713,-0.015329028
714,0.015677758
715,0.00023603936
716,-0.0019096399
717,0.0019655682
718,0.0011541372
719,0.011113123
720,0.0024912572
721,-0.003571922
722,0.017308485
723,0.009685316
724,-0.010431275
725,-0.003849571
726,-0.007668507
727,-0.009848628
728,0.0029668186
729,-0.009539555
730,-0.003886794
731,-0.0083552925
732,-0.0042655254
733,0.004555491
734,-0.0031885863
735,0.007697975
736,-0.0040327837
737,-0.01169014
738,-0.010162114
739,-0.009375402
740,0.008387921
741,-0.0035935265
742,0.011076968
743,0.008162717
744,0.01152006
745,0.0012278892
746,0.00029047867
747,-0.012424472
748,0.00029306207
749,-0.0034366052
750,0.004247666
751,0.00855985
752,-0.007850511
753,0.010950936
754,0.00972974
755,0.013827045
756,0.0032843328
757,-0.0066521647
758,-0.007919848
759,0.013762598
760,0.012376481
761,-0.0018531498
762,0.019604802
763,-0.006477871
764,0.002459966
765,-0.0038132826
766,0.011915507
767,0.0045756954
768,0.005528536
769,0.010094785
770,-0.004049386
771,-0.0022787852
772,0.00863031
773,-0.001586368
774,0.01309938
775,-0.0063909306
776,0.008249232
777,0.014941018
778,0.008232329
779,-0.0021030474
780,-0.008795644
781,-0.0046471623
782,-0.00959412
783,-0.012893971
784,-0.005213444
785,0.008818323
786,0.015268944
787,-0.0064486815
788,0.0063663763
789,0.0036166182
790,0.006156361
791,0.008742908
792,0.018299796
793,-0.011253791
794,0.004736818
795,-0.0010752212
796,0.0010359322
797,0.0032261997
798,0.008405979
799,-0.0047228937
800,-0.0064718938
801,0.008481213
802,0.0015310844
803,0.006525135
804,0.0052327155
805,-0.0059547606
806,-0.009775348
807,0.009261775
808,-0.003047803
809,0.0016098387
810,0.006943189
811,0.00031551076
812,-0.0038539309
813,0.0016396799
814,-0.008735915
815,0.0066077965
816,0.001720047
817,-0.015372076
818,1.9223111e-05
819,0.007924898
820,-0.00509329
821,0.0048742695
822,0.009404454
823,0.00030408724
824,0.01779952
825,-0.008947148
826,0.01239954
827,0.019926546
828,-0.008878217
829,0.00054243184
830,-0.0016151901
831,-0.01905661
832,-0.0114586605
833,0.008127074
834,-0.0077457265
835,0.008194114
836,0.008680513
837,-0.009278762
838,0.00066613517
839,-0.014243266
840,0.007699977
841,-0.01417294
842,0.011492045
843,-0.009431527
844,0.009216096
845,-0.0071774363
846,0.004611614
847,-0.0018587935
848,-0.015444346
849,0.009191296
850,-0.00758599
851,0.013425427
852,0.0124837635
853,0.0060753324
854,0.015049712
855,-0.01937568
856,0.00939895
857,-0.0069758343
858,-0.0014314607
859,-0.018974038
860,0.008833849
861,-0.001142031
862,-0.01657124
863,0.005362946
864,-0.0046463674
865,0.00743014
866,-0.0078669395
867,-0.0040815966
868,-0.014488834
869,0.001039827
870,0.0019926743
871,0.01905467
872,0.006741457
873,-0.0043262844
874,-0.00011514446
875,-0.0062490925
876,-0.011163968
877,0.0060468568
878,-0.0049271267
879,0.012026884
880,-0.015057496
881,-0.0072840173
882,0.01780819
883,0.0018622718
884,-0.0041132034
885,-0.0069210897
886,0.010253104
887,-0.0012078268
888,7.8183975e-06
889,-0.0010387201
890,-0.0033625893
891,0.014921392
892,-0.007478448
893,-0.015945204
894,-0.010329716
895,0.005820897
896,-0.0041956045
897,0.00068970246
898,-0.0067259897
899,0.004319579
900,0.010745984
901,0.007852592
902,0.0019270665
903,-0.0040604104
904,0.003974443
905,0.0091953995
906,-0.01192603
907,0.00041689322
908,0.005260299
909,0.010916919
910,-0.006246521
911,0.01978852
912,-0.0025124687
913,0.0046367953
914,0.0061564613
915,0.01567116
916,-0.0004977376
917,0.010391103
918,0.009414285
919,0.0013000654
920,0.0026684524
921,0.012608206
922,-0.006333668
923,-0.0051745344
924,0.0032472443
925,0.015455083
926,0.0031399634
927,-0.0137032345
928,0.0020545747
929,0.008610409
930,0.0005629125
931,0.0051383195
932,0.0034016792
933,0.011405973
934,0.009652437
935,-0.011952724
936,0.0023738402
937,0.0028616565
938,0.0038059945
939,0.015959935
940,-0.006868249
941,-0.006950635
942,-0.0069932113
943,-0.0017666727
944,0.0023993384
945,-0.0026991628
946,-0.003935823
947,-0.01707414
948,0.009735386
949,-0.017197136
950,0.014463203
951,0.0015786131
952,0.0027785865
953,-0.0026499368
954,-0.008554251
955,-0.006475069
956,0.0086389445
957,-0.0031450244
958,-0.0047732326
959,-0.0026615951
960,-0.0055344496
961,0.011730396
962,0.016399568
963,0.0054196315
964,0.011931695
965,0.0017682987
966,0.013922362
967,0.01022575
968,0.012379423
969,-0.01085744
970,0.006119532
971,-0.001039154
972,-0.0002806908
973,-0.009719314
974,0.011168938
975,0.017239429
976,-0.0056083584
977,0.010860684
978,-0.0054155444
979,-0.0014438307
980,-0.011801095
981,0.012064881
982,-0.014264395
983,-0.00039564507
984,0.000144474
985,0.00485131
986,0.0021841053
987,-0.0012016197
988,-0.005333278
989,0.0077693686
990,-0.009226069
991,0.00022459825
992,-0.013596238
993,0.004230063
994,0.016190076
995,-0.00822631
996,-0.012668171
997,-0.013525466
998,0.008258762
999,0.0044861897
1000,-0.010153023
1001,0.018843729
1002,0.008713797
1003,0.00794806
1004,-0.0007262814
1005,-0.006053558
1006,-1.7726214e-06
1007,-0.0065647094
1008,0.011654655
1009,-0.0037744083
1010,0.0029371234
1011,0.0005175084
1012,0.002502816
1013,0.00803876
1014,0.015060993
1015,0.0024792682
1016,-0.0008582108
1017,0.0111438995
1018,0.003711459
1019,0.003852122
1020,-0.014836143
1021,0.010260652
1022,-0.00861764
1023,-0.0037426057
1024,-0.0047190506
1025,0.005359704
1026,-0.004332222
1027,0.0033856002
1028,-0.010693855
1029,-0.0069716605
1030,-0.0048913374
1031,0.009013311
1032,0.0002705022
1033,-0.003735757
1034,0.00061797246
1035,-0.009133462
1036,0.0044918563
1037,0.0012950909
1038,0.0012944051
1039,0.012332834
1040,0.0038143292
1041,-0.0062228777
1042,0.0112678865
1043,0.00029837032
1044,-0.009830786
1045,0.01316892
1046,-0.009731209
1047,-0.00063149555
1048,-0.0051437784
1049,0.0010946323
1050,-0.005492529
1051,0.009679359
1052,-0.0025231706
1053,-0.01621177
1054,-0.005264444
1055,0.0070062443
1056,0.0022556917
1057,-0.0031727068
1058,-0.0029815738
1059,-0.008179847
1060,-0.007126855
1061,0.0015314509
1062,-0.002622572
1063,0.004429231
1064,-0.004299954
1065,-0.0054819416
1066,-0.0059960186
1067,-0.0038898403
1068,-4.8516697e-05
1069,0.0032146643
1070,-0.019703994
1071,0.017452803
1072,0.006024179
1073,0.0013189233
1074,-0.0028335007
1075,0.007813995
1076,-0.013267036
1077,6.641648e-05
1078,-0.0005201451
1079,0.005495128
1080,0.00017232772
1081,0.002890245
1082,-0.008957017
1083,-0.008037916
1084,0.0078033917
1085,0.0035728586
1086,-0.01997356
1087,0.0018859108
1088,0.013991023
1089,0.004005976
1090,0.0029536781
1091,0.0075221667
1092,0.00012713872
1093,-0.0011890901
1094,0.001404497
1095,0.0024095876
1096,0.0006638904
1097,-0.010176567
1098,-0.002326388
1099,-0.0023321516
1100,0.015907042
1101,0.0042295777
1102,0.010613968
1103,-0.012797345
1104,-0.012853388
1105,0.01905351
1106,-0.0049288096
1107,0.009988879
1108,-0.011169116
1109,0.011916338
1110,-0.001250245
1111,-0.0106419185
1112,0.0020517025
1113,-0.0021836061
1114,0.000745004
1115,0.0050979154
1116,0.010622801
1117,0.006200283
1118,0.004723496
1119,0.018169438
1120,-0.0070925285
1121,-0.011136055
1122,0.009478281
1123,-0.004028302
1124,0.01183719
1125,-0.018796446
1126,0.003522951
1127,0.0047620274
1128,0.00090314384
1129,0.018085409
1130,-0.003761487
1131,-0.00086165493
1132,0.0037104795
1133,0.017257588
1134,-0.012846219
1135,0.0067166057
1136,0.012904979
1137,0.010196717
1138,0.016236586
1139,-0.0027526154
1140,0.007044633
1141,-0.005484271
1142,-0.0072065745
1143,0.008510487
1144,-0.014979026
1145,-0.0053829397
1146,0.004153805
1147,-0.011600676
1148,0.0004362002
1149,-0.015376515
1150,-0.0096222265
1151,0.015746314
1152,-0.004798503
1153,-0.009158509
1154,0.017527372
1155,-0.0016586137
1156,-6.427535e-05
1157,-0.008828383
1158,0.0041601416
1159,-0.015483976
1160,0.00071515073
1161,-0.015924705
1162,0.008883881
1163,0.018250108
1164,-0.005624627
1165,-0.018747669
1166,0.013693364
1167,0.0048144795
1168,-0.015838867
1169,0.0020558436
1170,0.0147359045
1171,0.013839961
1172,0.005037997
1173,-0.0086349435
1174,0.010762658
1175,0.003498354
1176,-0.009457123
1177,-0.0064204754
1178,0.0024352134
1179,-0.0022645222
1180,-0.010106873
1181,0.018285925
1182,-0.001118608
1183,-0.0077217417
1184,0.01302503
1185,0.00016618664
1186,-0.008012778
1187,0.00818469
1188,-0.006882116
1189,0.0025175402
1190,-0.018954787
1191,-0.005905667
1192,0.0024440081
1193,-0.007885965
1194,0.013835887
1195,0.0061000246
1196,0.0048921267
1197,-0.0053518196
1198,0.009566285
1199,0.0014403892
1200,-0.0003980956
1201,0.018677568
1202,-0.0016993909
1203,-0.0014625223
1204,0.014600211
1205,-0.011579049
1206,0.0015118334
1207,-0.0023656243
1208,-0.0073919366
1209,-0.007248589
1210,-0.0026269949
1211,-0.008725851
1212,-0.0052372604
1213,0.0095570525
1214,0.0055654
1215,-0.010734938
1216,0.017627915
1217,0.0017375365
1218,0.0048115146
1219,-0.012716206
1220,0.0015317542
1221,0.011345337
1222,-0.0056018983
1223,-0.006722197
1224,-0.012613814
1225,-0.006307792
1226,-0.0032339653
1227,-0.004822757
1228,-0.0036889766
1229,-0.0029035136
1230,-0.010495819
1231,0.0065365937
1232,0.009821486
1233,-0.008377273
1234,-0.0029574854
1235,-0.0002693048
1236,-0.008764746
1237,-0.0075805928
1238,0.009994654
1239,-0.0074234866
1240,0.0056826905
1241,0.007262625
1242,-0.018199636
1243,0.018706031
1244,0.002545086
1245,-0.005849552
1246,0.0033284805
1247,-0.002650338
1248,0.00997493
1249,-0.0036907508
1250,-0.00421167
1251,-0.00090014277
1252,-0.007859645
1253,0.005915887
1254,0.0010989519
1255,0.008089647
1256,0.0041380567
1257,-0.008438733
1258,0.013895895
1259,-0.0023969177
1260,0.00010121104
1261,0.007709488
1262,0.011446447
1263,0.002915659
1264,-0.006249919
1265,0.00913346
1266,0.005780495
1267,-0.009186107
1268,0.012894416
1269,-0.0045081684
1270,0.0026733181
1271,0.019705646
1272,0.0022641465
1273,-0.007523005
1274,-0.012557314
1275,0.009122798
1276,-0.00035714082
1277,-0.0154571785
1278,-0.0044160797
1279,-0.011848043
1280,0.0068185036
1281,-0.0015537792
1282,-0.010346623
1283,-0.014813566
1284,-0.0062238052
1285,0.0007286049
1286,0.0039948984
1287,0.00029456505
1288,0.0022557748
1289,0.0021022088
1290,-0.008191784
1291,0.0027809031
1292,-0.0036025145
1293,-0.008298821
1294,0.009773511
1295,0.004345188
1296,-0.005790903
1297,0.009953068
1298,0.0039718132
1299,0.019490402
1300,-0.0034298364
1301,-0.005127765
1302,0.007939093
1303,-0.008040782
1304,-0.0013771849
1305,-0.002420802
1306,0.011885175
1307,-0.0013975976
1308,-0.0071249013
1309,0.010708245
1310,0.0001691404
1311,-0.0046626534
1312,-0.011143016
1313,-0.002243489
1314,0.019478269
1315,0.0014574161
1316,-0.005191273
1317,-0.008438218
1318,-0.007858748
1319,-0.004748995
1320,-0.0033388387
1321,0.004703099
1322,0.0015492307
1323,0.0045405375
1324,0.0050828867
1325,0.0045950683
1326,-0.019334584
1327,-0.009495926
1328,0.01429851
1329,0.015074292
1330,-0.014868027
1331,-0.01047897
1332,-0.013358287
1333,0.014494034
1334,0.003977187
1335,-0.009662968
1336,-0.0018469074
1337,0.0023542144
1338,-0.011793045
1339,-0.00079303095
1340,0.009693431
1341,0.018689575
1342,-0.011966792
1343,0.0051579317
1344,-0.0005993672
1345,0.0057672365
1346,-0.0035517788
1347,0.012220356
1348,-0.009680968
1349,0.0041734595
1350,0.004592933
1351,0.0018918796
1352,-0.0062709055
1353,0.011766524
1354,-0.015014309
1355,0.005976888
1356,0.010137996
1357,0.0086600175
1358,-0.006364629
1359,-0.018512707
1360,-0.0038398872
1361,0.0066605415
1362,0.002475877
1363,0.0020144647
1364,-0.007347386
1365,-0.0019246164
1366,0.0079837525
1367,0.0029413588
1368,0.0023090122
1369,0.005315476
1370,-0.0009951184
1371,0.008313986
1372,0.0055033923
1373,-0.0015280371
1374,0.012272933
1375,-0.0022524977
1376,-0.017201543
1377,0.013963407
1378,0.019644527
1379,0.0065918546
1380,-0.0047319434
1381,-0.0044919364
1382,0.0028440543
1383,-0.0051658126
1384,0.0054189777
1385,-0.010310987
1386,0.0048846826
1387,0.01822937
1388,-0.0032142266
1389,-0.004158231
1390,-0.0048517
1391,-0.0031548822
1392,0.0030406024
1393,-0.0016022793
1394,0.0036595585
1395,0.0082867155
1396,-0.007194393
1397,9.85896e-05
1398,-0.011607516
1399,-0.009329366
1400,-0.00088148343
1401,0.0062503754
1402,0.009744697
1403,-0.0020745334
1404,-0.00015920388
1405,0.00027335822
1406,0.013172393
1407,-0.0016454648
1408,0.00039099756
1409,0.0037398513
1410,-0.0030984962
1411,0.013784108
1412,-0.010923511
1413,0.0029325346
1414,0.008850623
1415,-0.01287434
1416,0.0035703934
1417,-0.0068009715
1418,-0.00015920166
1419,0.0068573873
1420,0.0027729631
1421,0.0049480447
1422,-0.003012049
1423,0.009315178
1424,0.001272432
1425,0.005200099
1426,-0.016593989
1427,0.0012658561
1428,-0.015575687
1429,-0.0024920916
1430,0.010041745
1431,0.004183857
1432,0.0004155088
1433,-0.007521698
1434,-0.0030433557
1435,0.013384446
1436,0.0024312283
1437,8.374391e-05
1438,-0.005690773
1439,-0.009612688
1440,0.004534731
1441,0.004255478
1442,-0.0015709058
1443,0.018772557
1444,-0.0019686029
1445,-0.0010124868
1446,0.010567445
1447,0.0037511825
1448,0.01485206
1449,0.0056143636
1450,0.010814199
1451,-0.0008324178
1452,0.0060704295
1453,0.017490283
1454,-0.0032163276
1455,0.0097919665
1456,0.0055638175
1457,-0.0010072807
1458,-0.008921749
1459,-0.0004916973
1460,-0.0035998158
1461,0.0074129216
1462,-0.0062874937
1463,-0.0017841817
1464,0.0070375507
1465,0.0036950521
1466,0.0019375039
1467,0.008316088
1468,0.008959225
1469,-0.015723618
1470,-0.009449014
1471,-0.001357362
1472,0.011320317
1473,-0.0022992229
1474,0.013103945
1475,-0.009270427
1476,-0.0031623945
1477,0.0022684827
1478,0.007704948
1479,-0.0028299582
1480,0.005003922
1481,0.008431694
1482,0.0036420848
1483,0.012999489
1484,0.004531098
1485,-0.014062277
1486,-0.0005197023
1487,-0.00787946
1488,-0.00018934176
1489,-0.014658255
1490,0.002931059
1491,0.014631327
1492,-0.0029188425
1493,-0.010081769
1494,-0.0048741065
1495,-0.0014074293
1496,-0.017713416
1497,-0.0017533117
1498,-0.012888314
1499,-0.0057899947
1500,-0.0029960915
1501,0.0007725788
1502,-0.0021359941
1503,-0.006352041
1504,-0.00445007
1505,-0.0035534427
1506,0.0022558176
1507,-0.007059951
1508,0.011821688
1509,-0.0063215876
1510,0.007970525
1511,-0.0024920353
1512,-0.015638296
1513,-0.016136605
1514,0.0010357619
1515,-0.0013647518
1516,-0.0027119096
1517,0.0042290473
1518,-0.017130498
1519,0.009450969
1520,-0.0073277447
1521,-0.0011041282
1522,-0.015023761
1523,0.0033139396
1524,0.0046019577
1525,0.0032364873
1526,-0.01279027
1527,0.002963067
1528,0.0075369165
1529,-0.004583414
1530,-0.015550546
1531,0.0011906408
1532,-0.0013695902
1533,-0.010350231
1534,-0.011980255
1535,-0.014650003
1536,0.00071216526
1537,-0.016118517
1538,0.0016413473
1539,0.0020635088
1540,0.0019528883
1541,0.0006535951
1542,-0.01354046
1543,-0.00959731
1544,0.017218363
1545,-0.017542703
1546,0.003905773
1547,-0.015973533
1548,-0.0061540264
1549,-0.002005442
1550,0.009488744
1551,0.00786963
1552,0.0034483909
1553,-0.0008044092
1554,-0.0032894604
1555,0.015978651
1556,0.012605137
1557,-0.0065101786
1558,-0.012623939
1559,0.0008753706
1560,0.007856205
1561,0.00027857904
1562,-0.00196971
1563,0.010219401
1564,-0.003524396
1565,0.014086349
1566,-0.015917111
1567,0.00619177
1568,-0.015681935
1569,0.00013306072
1570,-0.0006205759
1571,-0.011381075
1572,0.0026851136
1573,-0.00059263833
1574,0.0020663848
1575,-0.003012984
1576,-0.012571821
1577,0.015336581
1578,-0.004432896
1579,-0.01146406
1580,-0.001621628
1581,0.0056175655
1582,-0.0021453397
1583,-0.00657922
1584,-0.0036724827
1585,-0.0017344801
1586,0.00057209434
1587,0.0019820484
1588,-0.00344507
1589,-0.0022395477
1590,-0.0096702045
1591,-0.0027917335
1592,0.009708863
1593,-0.0074872286
1594,-0.00848236
1595,0.0025739765
1596,0.0038393536
1597,0.0013335592
1598,0.004062605
1599,-0.0051618298
1600,-0.0072923414
1601,0.000602987
1602,0.0048652976
1603,0.007300216
1604,-0.008146557
1605,-0.0071117003
1606,-0.009477264
1607,-0.0058943983
1608,-0.0037172977
1609,0.0064004436
1610,0.0010966645
1611,0.0035051643
1612,0.00018772345
1613,-0.018909678
1614,0.002459981
1615,0.018699389
1616,0.0001605133
1617,0.0026126984
1618,-0.00892116
1619,0.0072216475
1620,0.009324062
1621,0.016875532
1622,0.006087558
1623,-0.0040729432
1624,-0.0105072325
1625,0.004314458
1626,-0.011435068
1627,-0.001272896
1628,-0.0113230245
1629,-0.0022810115
1630,-0.014600916
1631,-0.00088109984
1632,0.0040921746
1633,-0.0050040362
1634,-0.0009527919
1635,-0.0034183583
1636,-0.0108490335
1637,-0.0103489505
1638,0.00048178152
1639,-0.007383045
1640,-0.009343293
1641,-0.008456238
1642,0.013582155
1643,9.41382e-05
1644,0.004640779
1645,-0.0105385175
1646,-0.007825349
1647,0.01468061
1648,-0.007418012
1649,0.00050489116
1650,0.0041971356
1651,-0.019073747
1652,-0.0059280787
1653,0.005116055
1654,-0.012438763
1655,0.0029429463
1656,0.00153234
1657,0.00029370858
1658,0.0096979635
1659,-0.0021655238
1660,0.0034521802
1661,0.0021832082
1662,-0.012114659
1663,0.017145157
1664,0.011942431
1665,-0.013209874
1666,-0.005928326
1667,0.011238121
1668,0.0009360333
1669,0.0072176405
1670,0.0048084636
1671,-0.0046147034
1672,0.0052136118
1673,-0.001498684
1674,0.0057542906
1675,-0.0012737433
1676,-0.01190342
1677,0.0038779
1678,-0.01923448
1679,-0.0048626624
1680,-0.013558378
1681,-8.698375e-06
1682,0.017599087
1683,0.0038333512
1684,0.015751448
1685,-0.014685114
1686,0.0058252867
1687,0.0056482283
1688,0.0027745334
1689,0.009857236
1690,0.010045783
1691,-0.008568993
1692,-0.002836115
1693,-0.01046152
1694,-0.018378185
1695,0.0024396966
1696,-0.0044853254
1697,-0.0006785182
1698,-0.0012317552
1699,-0.01565796
1700,-0.003993306
1701,0.0048440704
1702,0.007616942
1703,0.0013845013
1704,-0.015712231
1705,-0.00837167
1706,0.0022571755
1707,-0.012905614
1708,-0.0029286742
1709,0.013130741
1710,-0.0069081513
1711,0.016321344
1712,0.010505698
1713,-0.016665047
1714,0.0066092554
1715,0.0030782497
1716,-0.005784143
1717,-0.01226027
1718,-0.0040130806
1719,0.0013420902
1720,-0.0010593497
1721,0.019445358
1722,-0.0024862264
1723,-0.0052767927
1724,-0.0037074967
1725,0.01431961
1726,0.00028918864
1727,-0.0014355264
1728,0.0048632687
1729,0.0062625683
1730,-0.004448437
1731,0.006604102
1732,-0.0014589417
1733,0.012252645
1734,0.0063234763
1735,-0.018970007
1736,-0.0070473365
1737,-0.017742595
1738,0.0014907264
1739,0.0024334013
1740,-0.01090914
1741,-0.007229909
1742,-0.009148396
1743,0.00021388066
1744,-0.00072863867
1745,-0.0005510964
1746,0.00085869577
1747,0.013738583
1748,-0.019041438
1749,-0.0040176595
1750,0.002051876
1751,-0.004949673
1752,-0.0006098896
1753,0.0119789485
1754,-0.0013495833
1755,-0.0014760244
1756,-0.004363629
1757,-0.0021928365
1758,-0.0008976222
1759,0.003590287
1760,-0.012485349
1761,0.0020051454
1762,-0.007746866
1763,-0.015773114
1764,0.0051805316
1765,0.0030447447
1766,-0.0002507147
1767,-0.0010688569
1768,0.00022224242
1769,0.009784838
1770,0.019200824
1771,-0.0022431482
1772,-0.004764055
1773,0.017040836
1774,0.0071712704
1775,0.008571379
1776,-0.005510051
1777,-0.0037796155
1778,-0.008152614
1779,0.0030102404
1780,0.0019189186
1781,0.008937741
1782,0.0091597885
1783,-0.0050410046
1784,0.006283727
1785,-0.0008501957
1786,0.01087767
1787,-0.007259119
1788,0.010360016
1789,0.014519871
1790,-0.017310288
1791,-0.005230824
1792,-0.008876077
1793,-0.0023148952
1794,-0.0070798746
1795,0.0038546436
1796,-0.011600988
1797,0.013172091
1798,-0.0046182917
1799,-0.012403853
1800,0.013449599
1801,0.013316669
1802,-0.0015276908
1803,-0.0064289663
1804,-0.008971105
1805,0.0012731538
1806,-0.0015597538
1807,0.008040784
1808,0.019567909
1809,0.0044954577
1810,-0.00043017868
1811,-0.0033949246
1812,0.003337483
1813,-0.0014353017
1814,-0.0014405604
1815,-0.00484024
1816,0.010911753
1817,-0.017911095
1818,-0.0033618675
1819,0.017888997
1820,-0.014392236
1821,-0.013354562
1822,0.0025883506
1823,-0.004091413
1824,-0.00042474957
1825,0.0013443625
1826,0.010065372
1827,-0.00866497
1828,0.00044063095
1829,-0.0043249233
1830,-0.007882215
1831,-0.002662356
1832,-0.0024984938
1833,0.0031930155
1834,0.0009166829
1835,0.016281692
1836,0.006846929
1837,-0.004847115
1838,-0.0069645233
1839,0.01621417
1840,0.010447451
1841,-0.0010227422
1842,0.0072400565
1843,-0.0009929327
1844,-0.0044634286
1845,0.017365951
1846,0.017609574
1847,-0.009051409
1848,0.015533752
1849,0.0031707715
1850,-0.0059568384
1851,0.0044570197
1852,-0.0032970887
1853,-0.0084871035
1854,0.01793701
1855,-0.0030935965
1856,-0.00046870942
1857,-0.00983439
1858,-0.011236276
1859,0.0061524143
1860,0.0020926709
1861,-0.0092297355
1862,-0.011335977
1863,0.0048309052
1864,-0.006159584
1865,0.004382843
1866,-0.010528098
1867,-0.016352072
1868,-0.0040363674
1869,-0.015033301
1870,-0.0040416378
1871,-0.0032974456
1872,0.005047552
1873,0.006288619
1874,-0.016365293
1875,-0.0013514924
1876,-0.0038588701
1877,-0.0045981943
1878,0.00822802
1879,0.0009821984
1880,-0.004638979
1881,0.00517132
1882,0.0055457256
1883,0.00719534
1884,0.015488441
1885,0.014853942
1886,-0.0050136405
1887,-0.013423163
1888,0.0078146
1889,0.008171711
1890,0.0017828444
1891,0.00079343957
1892,0.008448587
1893,0.0031292527
1894,0.0144363
1895,0.010601686
1896,-0.01677339
1897,0.001203504
1898,0.0009563107
1899,-0.004326581
1900,-0.0036001452
1901,-0.0102211125
1902,-0.0019336655
1903,-0.0047772583
1904,0.0108747315
1905,-0.0014723549
1906,-0.0021109881
1907,-0.006957028
1908,0.009159863
1909,0.0070423656
1910,0.006172379
1911,-0.0003940563
1912,-0.014119821
1913,-0.013273318
1914,0.012257567
1915,-0.0118745845
1916,-0.011021812
1917,0.004042604
1918,0.017186245
1919,-0.0036239321
1920,0.0043471246
1921,0.010985983
1922,-0.010747407
1923,0.012867436
1924,0.00972836
1925,-0.011655127
1926,0.0033672208
1927,0.004625938
1928,0.0066316137
1929,-0.012533761
1930,-0.014647873
1931,-0.0049188863
1932,-0.008292756
1933,0.010632092
1934,-0.011020393
1935,0.0043185963
1936,0.002680841
1937,0.00245181
1938,0.004169081
1939,0.00515551
1940,-0.008203284
1941,-0.0059382617
1942,-0.011393279
1943,-0.00096333044
1944,-0.01607525
1945,0.0022531562
1946,0.0059770187
1947,-0.003695213
1948,-0.001050668
1949,-0.0076341373
1950,-0.0030467424
1951,0.00043840395
1952,0.004824041
1953,-0.00022656194
1954,-0.000807962
1955,-0.005221459
1956,0.0017532264
1957,0.0038440258
1958,-0.006465601
1959,-0.00068989093
1960,0.0126817925
1961,-0.0018563548
1962,-0.015523542
1963,6.068749e-05
1964,0.014777045
1965,-0.0019460924
1966,0.002814327
1967,-0.0066691097
1968,0.007822425
1969,-0.013100584
1970,0.019616323
1971,-0.01301866
1972,-0.010703788
1973,0.005389333
1974,-0.0035688712
1975,-0.0025228036
1976,-0.0048737987
1977,-0.0017314533
1978,-0.0060076346
1979,-0.004551182
1980,-0.0071923085
1981,0.0032466787
1982,0.004327818
1983,0.009159365
1984,0.005398467
1985,0.011482817
1986,-0.0029655898
1987,-0.01981596
1988,-0.012557497
1989,-0.0016773051
1990,0.016682392
1991,0.0015306176
1992,0.0041223364
1993,0.00404639
1994,-0.0067400476
1995,3.909279e-06
1996,0.0054094745
1997,0.007284103
1998,-0.0058030635
1999,-0.0097111985
2000,-0.013726988
2001,0.0031916911
2002,-0.0037412168
2003,-0.0094916485
2004,0.0009022549
2005,0.0013026369
2006,0.01440159
2007,-0.007953296
2008,0.0058217
2009,-0.0048242062
2010,-0.0046035955
2011,0.009641412
2012,-0.0057933186
2013,-0.0058281086
2014,-0.007814591
2015,-0.0013998112
2016,0.014559573
2017,-0.01649662
2018,0.004018148
2019,-0.0032236367
2020,0.003383795
2021,-0.017132541
2022,-0.00638481
2023,-0.010302309
2024,-0.0076825456
2025,-0.0051109768
2026,-0.012852505
2027,-0.011263183
2028,-0.011187395
2029,0.0064501595
2030,-0.003625967
2031,0.0021033038
2032,0.008282253
2033,-0.0011431659
2034,-0.009287699
2035,-0.00038758208
2036,0.0005468465
2037,-0.0014054811
2038,-0.016468205
2039,-0.010175384
2040,0.0024156175
2041,-0.004015825
2042,-0.008949622
2043,0.012392772
2044,0.00043566417
2045,0.002345074
2046,-0.0012808577
2047,0.0019736278
2048,-0.012847276
2049,0.013203568
2050,-0.005480189
2051,0.010148632
2052,0.0033976673
2053,-0.005700366
2054,-0.011838348
2055,0.0075782607
2056,-0.008576918
2057,-0.0074084126
2058,-0.009984916
2059,0.0051010065
2060,-0.009146422
2061,0.009680695
2062,0.0061339163
2063,-0.00781609
2064,-0.01055025
2065,0.010254696
2066,-0.010749088
2067,-0.0072448044
2068,-0.0088930465
2069,-0.006860505
2070,0.010757403
2071,0.008890536
2072,-0.001531284
2073,0.010729607
2074,0.008827686
2075,-0.0035231337
2076,-0.00944536
2077,-0.0039905454
2078,0.00992086
2079,-0.0013995423
2080,0.013290096
2081,-0.0013437533
2082,0.013442754
2083,-0.016824909
2084,-0.011395481
2085,0.0035282632
2086,0.0051088748
2087,-0.0068384497
2088,0.00012722248
2089,-0.0064965617
2090,-0.007406845
2091,-0.013337099
2092,0.0026026187
2093,0.004464532
2094,0.01594962
2095,0.008853279
2096,0.010865955
2097,0.0062336707
2098,-0.011443403
2099,0.0029945483
2100,-0.0056060166
2101,0.015026997
2102,0.0012636363
2103,0.0011001625
2104,0.00043736488
2105,-0.005324096
2106,-0.0034264787
2107,-0.01680086
2108,-0.002949111
2109,-0.003991578
2110,-0.0036032982
2111,0.0043371934
2112,-0.0014203853
2113,0.0067301206
2114,-0.0115530975
2115,0.0028344665
2116,0.019837784
2117,0.0030986778
2118,-0.009371068
2119,-0.0028326605
2120,0.00452667
2121,-0.008692603
2122,0.011026088
2123,-0.0017268285
2124,-0.013038287
2125,0.010162578
2126,-0.014458636
2127,-0.004728241
2128,-0.0074377344
2129,0.0041738027
2130,0.0062505016
2131,0.0008631645
2132,-0.002923917
2133,0.008109663
2134,-0.0036476792
2135,0.0040059052
2136,-0.0046642614
2137,-0.0025601638
2138,0.006741772
2139,-0.010573431
2140,-0.013240137
2141,0.016507188
2142,0.0022218635
2143,0.0088836765
2144,-0.0037950922
2145,-0.0009957377
2146,0.0026533708
2147,0.0015283288
2148,0.0011416976
2149,0.0020388644
2150,-0.012137241
2151,-0.0030161566
2152,-0.014276709
2153,0.000622993
2154,-0.012469212
2155,0.00181345
2156,0.00028879847
2157,-0.00082090084
2158,-0.015344613
2159,0.0094125895
2160,0.006675361
2161,0.0028838727
2162,0.00025356517
2163,-0.01371775
2164,0.0038350935
2165,-0.0081524495
2166,-0.009297081
2167,-0.010340273
2168,-0.002938833
2169,-0.003817324
2170,-0.0067211795
2171,-0.010712092
2172,-0.010043399
2173,-0.008601495
2174,0.0051366803
2175,-0.016488805
2176,0.0007796898
2177,-0.009142687
2178,0.009176094
2179,0.0041358443
2180,-0.0016565808
2181,-0.015261011
2182,-0.0021314682
2183,0.0016863964
2184,0.012753394
2185,-0.010844302
2186,0.007852706
2187,-0.002896369
2188,-0.0037275145
2189,-0.0011897025
2190,0.015743844
2191,-0.0055330787
2192,0.009481909
2193,0.014466623
2194,0.009544175
2195,-0.015783811
2196,0.010217384
2197,0.0065692123
2198,-0.0018053342
2199,0.005664705
2200,-0.012210135
2201,0.010104214
2202,-0.007801757
2203,0.01880718
2204,0.0006728931
2205,-0.011913869
2206,0.005765138
2207,0.005845588
2208,0.010494614
2209,-0.013099784
2210,0.018205741
2211,0.0033113318
2212,0.010625057
2213,-0.0013389138
2214,-0.01356872
2215,-0.010586754
2216,0.003569795
2217,-0.008415333
2218,0.010186424
2219,0.00826165
2220,-0.0038642145
2221,-0.0065176426
2222,0.0025657453
2223,0.011839061
2224,-0.007634049
2225,0.009877117
2226,-0.009626644
2227,-0.0043683294
2228,-0.005734054
2229,-0.0073582637
2230,-0.009951087
2231,-0.004523301
2232,-0.0049707284
2233,-0.012700881
2234,-0.0030813133
2235,0.007838571
2236,0.0054354677
2237,0.0055306023
2238,-0.011742382
2239,0.005975606
2240,-0.007926968
2241,0.01672229
2242,-0.003263177
2243,0.01373335
2244,-0.00033169606
2245,0.012232722
2246,-0.0068740677
2247,-0.007935427
2248,0.012003463
2249,0.00062461116
2250,0.002004637
2251,-0.012659879
2252,-0.016287403
2253,-0.007612054
2254,-0.0045572426
2255,0.0019042067
2256,-0.012894777
2257,0.0010661964
2258,0.011859658
2259,-0.0006928916
2260,0.0014670846
2261,0.018720625
2262,0.0045702914
2263,-0.003303451
2264,0.015998255
2265,-0.00046802993
2266,-0.009343862
2267,-0.00020695943
2268,0.00849973
2269,0.0102448305
2270,-0.011571545
2271,-0.007182958
2272,0.00280042
2273,-0.013486301
2274,-0.0057550943
2275,0.005083529
2276,-0.0073741847
2277,-0.0017391974
2278,-0.009771348
2279,0.009123517
2280,-0.0064416146
2281,-0.0131166475
2282,0.0006866102
2283,0.009150416
2284,0.005189292
2285,0.006875415
2286,0.0038635584
2287,0.004357821
2288,-0.0010330114
2289,-0.0120140435
2290,-0.011057633
2291,-0.0055945045
2292,-0.016690314
2293,0.007836084
2294,0.004713336
2295,-0.00853383
2296,-0.006909905
2297,-0.018256022
2298,0.0056888433
2299,-0.001983155
2300,-0.0045757215
2301,0.0009782441
2302,-0.009265108
2303,-0.00028846253
2304,-0.012522114
2305,0.015595486
2306,0.0074014156
2307,0.00434136
2308,-0.014403126
2309,0.00025641333
2310,-0.004870954
2311,-0.019623792
2312,-0.0013066012
2313,0.015964756
2314,-0.008280438
2315,0.0052081477
2316,-0.012451153
2317,0.005317693
2318,-0.011151856
2319,0.016298512
2320,0.0032098554
2321,0.004978419
2322,0.0031150044
2323,0.017696353
2324,-0.007740271
2325,0.014472521
2326,0.015605495
2327,0.00016726184
2328,0.010732748
2329,-0.007748056
2330,0.009564119
2331,0.0024959042
2332,0.009252265
2333,0.0072498815
2334,-0.008910875
2335,0.004235128
2336,0.010062116
2337,0.0011147338
2338,0.0024392467
2339,0.009518653
2340,0.011715667
2341,-0.0029569678
2342,0.017864324
2343,0.0023981056
2344,-0.0032817244
2345,0.0006271175
2346,0.008118183
2347,0.006682748
2348,0.0039266595
2349,0.015813062
2350,0.0024007228
2351,-0.0013362396
2352,-0.009020688
2353,0.0066775014
2354,-0.0032323638
2355,0.007564301
2356,0.018727675
2357,0.0010753684
2358,0.0030323567
2359,0.0061136144
2360,-0.012542435
2361,-0.014630983
2362,0.010451756
2363,0.013784079
2364,0.008558555
2365,-0.01457455
2366,0.011959564
2367,-0.00029455888
2368,0.0065680747
2369,-0.008262344
2370,-0.000104740015
2371,-0.010203295
2372,-0.00899583
2373,0.016210366
2374,-0.015275428
2375,0.0067711286
2376,-0.011313663
2377,-0.015043936
2378,0.013816574
2379,-0.01193028
2380,-0.0136442175
2381,-0.015850974
2382,0.0026205347
2383,0.011261387
2384,0.001957627
2385,4.6769303e-05
2386,-0.009277912
2387,-0.001465501
2388,-0.003431996
2389,0.009713633
2390,-0.0033960883
2391,0.005955278
2392,0.0022284398
2393,-0.014621873
2394,-0.0076979836
2395,-0.0034127482
2396,0.0068151876
2397,0.0009911617
2398,0.008555518
2399,0.013576816
2400,-0.016676959
2401,-0.016891927
2402,0.012543274
2403,-0.00084966153
2404,0.011805305
2405,0.004323268
2406,-0.014660379
2407,0.0069431216
2408,0.003289378
2409,-0.015071782
2410,-0.002081359
2411,0.011566775
2412,-0.002852399
2413,-0.006571632
2414,0.011186308
2415,-0.011016656
2416,-0.007737579
2417,-0.004875552
2418,0.014738498
2419,-0.0007052644
2420,0.019464869
2421,-0.004281329
2422,0.0030136318
2423,0.0043130848
2424,-0.0058062067
2425,0.009221912
2426,-0.003775349
2427,0.0090015335
2428,0.017339954
2429,0.006175592
2430,0.0061046965
2431,-0.01048333
2432,0.010319937
2433,0.0011933884
2434,-0.005379658
2435,-0.008291307
2436,0.006369086
2437,-0.0036859817
2438,-0.0074275625
2439,0.018482013
2440,0.011385918
2441,0.0018626235
2442,0.013037242
2443,0.006797793
2444,-0.0031691617
2445,0.008206743
2446,-0.0066127237
2447,0.0030634545
2448,-0.0044492213
2449,-0.005362737
2450,0.0035776112
2451,-0.0036813014
2452,0.017203178
2453,-0.0026607867
2454,-0.01447713
2455,-0.015691344
2456,0.006386726
2457,0.0063156276
2458,-0.0061880755
2459,-0.009163851
2460,-0.008082991
2461,0.0076991366
2462,0.0013344372
2463,0.0121475
2464,-0.0056411535
2465,-0.012380525
2466,-0.00092187617
2467,-0.004609168
2468,-0.0035387918
2469,-0.002724659
2470,-0.008298482
2471,-0.016200919
2472,0.01263862
2473,0.0027737813
2474,0.010814609
2475,0.003533226
2476,0.013320106
2477,0.010641492
2478,0.0022369672
2479,-0.0064194594
2480,0.004300186
2481,0.0013567277
2482,0.00084913097
2483,0.00012264955
2484,0.004493068
2485,0.016891515
2486,-0.001094827
2487,0.003230244
2488,-0.0022531508
2489,0.002508937
2490,0.01876353
2491,-0.005369458
2492,-0.0150567265
2493,-0.018510647
2494,-0.0033329602
2495,-0.007078056
2496,-0.00010690608
2497,0.009060982
2498,-0.004367414
2499,-0.0003417763
2500,-0.009529381
2501,0.0029739672
2502,-0.011660311
2503,-0.009938976
2504,-0.004247543
2505,0.0026899397
2506,0.010514434
2507,0.005009178
2508,-0.008600357
2509,-0.004395614
2510,0.009659815
2511,0.012200346
2512,-0.007480507
2513,0.010306465
2514,-0.0040828455
2515,1.0521285e-05
2516,0.010576027
2517,-0.004494755
2518,0.0050382507
2519,-0.0033523003
2520,-0.0073563275
2521,0.0028641087
2522,-0.01187443
2523,-0.0016283815
2524,0.014492823
2525,0.014342017
2526,-0.013514961
2527,0.0061951773
2528,-0.0075132847
2529,-0.0005950654
2530,0.010487418
2531,0.011435702
2532,0.015726143
2533,0.0019288126
2534,0.004361652
2535,-0.002632837
2536,-0.0031626816
2537,0.0033923285
2538,0.01413302
2539,-0.0094164405
2540,-0.0042112283
2541,-0.0006787121
2542,-0.0074234474
2543,0.011928249
2544,0.01354001
2545,0.010747201
2546,0.007512553
2547,-0.0065407394
2548,0.006997172
2549,0.012494885
2550,-0.01040809
2551,0.0027013014
2552,-0.0024204403
2553,0.002145761
2554,0.002210126
2555,-0.0013135108
2556,0.006547496
2557,0.0028841638
2558,-0.0016912754
2559,0.0075352327
2560,-0.004745491
2561,-0.008328755
2562,0.0023385948
2563,-0.004250491
2564,-0.0025187118
2565,0.01544513
2566,0.0037114688
2567,-0.010419913
2568,-0.0074979197
2569,-0.010790383
2570,-0.004017365
2571,-0.0044839396
2572,0.019840457
2573,-0.0103782965
2574,0.0074628424
2575,0.00859488
2576,0.0012604316
2577,-0.011861271
2578,-0.0039907116
2579,0.008658324
2580,-0.0010168046
2581,0.00527075
2582,-0.008756057
2583,-0.018300304
2584,-0.010379077
2585,0.0003688238
2586,0.0153558375
2587,0.00578332
2588,-0.009890896
2589,-0.012338954
2590,-0.0112425415
2591,-0.00745094
2592,-0.0098616835
2593,-0.0036802357
2594,-0.0026686923
2595,-0.013260145
2596,-0.00835197
2597,-0.006823529
2598,-0.01619289
2599,-0.007537607
2600,0.0013328526
2601,-0.0078399945
2602,0.0075951554
2603,-0.015126997
2604,-0.013796064
2605,0.0064714113
2606,0.007969439
2607,0.012740223
2608,-0.0011722367
2609,0.008945589
2610,-0.00627461
2611,0.014965632
2612,0.0028151982
2613,-0.012944036
2614,0.008639144
2615,-0.0060713687
2616,0.0107836565
2617,-0.0037031122
2618,0.0024568713
2619,0.013185133
2620,0.010969275
2621,0.002204218
2622,-0.00076978875
2623,0.0056099
2624,0.003781614
2625,0.0022312852
2626,0.0011379734
2627,-0.009293028
2628,0.007158929
2629,-0.007620562
2630,0.004299581
2631,-0.010464808
2632,-0.00035699422
2633,-0.0019121654
2634,-0.0072083394
2635,-0.0016769136
2636,0.0011490942
2637,-0.011917705
2638,-0.014679868
2639,-0.005461407
2640,0.0039739795
2641,-0.0012814023
2642,-0.0012891614
2643,0.006240892
2644,0.0017868951
2645,-0.0011549684
2646,0.007870989
2647,-0.006254674
2648,-0.009978785
2649,0.009000269
2650,-0.0016423587
2651,-0.0029919038
2652,0.0017508415
2653,0.014496868
2654,0.006725206
2655,-0.012672811
2656,0.014716451
2657,-0.01162226
2658,0.001666712
2659,0.008563582
2660,0.01766411
2661,0.009354723
2662,-0.0017339037
2663,0.014387286
2664,0.0018081345
2665,-0.0049395366
2666,0.012356547
2667,0.0050208345
2668,-0.004325083
2669,-0.009753744
2670,-0.002364578
2671,-0.0009917108
2672,-0.0069178375
2673,-0.0023336823
2674,-0.006120951
2675,0.0111317225
2676,-0.012388565
2677,-0.000294606
2678,0.010314939
2679,0.008407489
2680,-0.0039740824
2681,0.005961686
2682,0.005891896
2683,0.00521678
2684,-0.0018199682
2685,0.00844492
2686,0.00017643743
2687,0.010466896
2688,-0.012357742
2689,0.0057816887
2690,-0.0028454913
2691,-0.009721891
2692,0.0077719833
2693,0.013570042
2694,0.0049951808
2695,0.0009823997
2696,-0.013154253
2697,-0.0016017926
2698,-0.005085075
2699,0.00068249984
2700,-0.009146938
2701,0.0009415455
2702,0.00636437
2703,0.001565099
2704,-0.0046280464
2705,-0.0016534412
2706,-0.00014507229
2707,-0.0019449871
2708,-0.0033700005
2709,0.009316471
2710,-0.0005731835
2711,-0.015180981
2712,0.011666815
2713,-0.016414544
2714,-0.010521992
2715,-0.0012770655
2716,0.019770553
2717,-0.008308778
2718,-0.00559737
2719,0.017940406
2720,-0.003235499
2721,-0.013276548
2722,0.00103015
2723,0.0074100816
2724,-0.011275663
2725,-0.004344354
2726,-0.01215191
2727,0.0012367086
2728,-0.0130932545
2729,0.004190083
2730,-0.0037859941
2731,0.00909848
2732,-0.01107751
2733,0.015577515
2734,-0.00033474137
2735,0.0045426
2736,-0.017999455
2737,-0.0022713488
2738,0.00248711
2739,-0.0018849686
2740,-0.0047015683
2741,-0.0011269352
2742,-0.006552733
2743,-0.016086161
2744,-0.00447234
2745,-0.014412547
2746,-0.015241437
2747,0.014744013
2748,-0.0006919246
2749,-0.0034216645
2750,0.0033907946
2751,-0.0083311545
2752,-0.0044041476
2753,-0.010654279
2754,0.0040831706
2755,0.016370108
2756,0.0038693256
2757,0.00027074176
2758,0.0070591
2759,0.006891538
2760,-0.0015748766
2761,0.007781048
2762,-0.011147542
2763,-0.012090459
2764,-0.015556801
2765,-0.016070548
2766,-0.009486681
2767,-0.016278533
2768,0.0011238025
2769,-0.0124655375
2770,0.00010758469
2771,0.0031010776
2772,-0.010960827
2773,0.013305093
2774,-0.0101701
2775,-0.005271791
2776,-0.004945361
2777,0.00528696
2778,0.00052646006
2779,-0.019601233
2780,-0.008963804
2781,-0.011022774
2782,-0.0099936705
2783,0.0042821025
2784,-0.0046241446
2785,-0.0009801748
2786,-0.009172921
2787,0.0006932346
2788,-0.007077809
2789,-0.015395507
2790,0.004504945
2791,-0.011816939
2792,-0.0107196
2793,0.010166528
2794,-0.0039711082
2795,0.001156154
2796,-0.01636195
2797,0.016767124
2798,-0.00042426676
2799,0.013042393
2800,0.0023474777
2801,0.0056815306
2802,0.015048519
2803,-0.0046556997
2804,-0.017014267
2805,-0.009285126
2806,0.015468655
2807,-0.010201762
2808,0.009970953
2809,-0.00792424
2810,-0.0010800222
2811,0.004705025
2812,0.006251565
2813,-0.0006707206
2814,-0.0023013323
2815,-0.0042722574
2816,-0.006640773
2817,-0.0051031755
2818,0.005424812
2819,-0.008320763
2820,-0.0005098901
2821,-0.008165965
2822,-0.016759193
2823,-0.015235992
2824,0.0002698697
2825,0.012056261
2826,-0.0035925978
2827,-0.014964522
2828,-0.013534091
2829,-0.01632195
2830,-0.0068190047
2831,0.00440501
2832,-0.00923711
2833,0.0027492736
2834,0.0018545716
2835,0.009373165
2836,-0.004307631
2837,0.007787832
2838,0.0020182738
2839,-0.0015154553
2840,0.013659888
2841,-0.011568184
2842,0.009730404
2843,-0.0023862019
2844,-0.014924943
2845,-0.00061852706
2846,-0.014184127
2847,0.0032666046
2848,-4.9829796e-05
2849,0.008333258
2850,0.004940323
2851,-0.003962775
2852,-0.014977806
2853,0.0027037817
2854,-0.007934128
2855,0.006394988
2856,-0.0083909845
2857,0.0071933125
2858,-0.012044953
2859,0.011219458
2860,0.00113673
2861,-0.0006727922
2862,-0.0014481497
2863,0.0019721515
2864,-0.014882117
2865,0.017420858
2866,-0.011161221
2867,0.0001560591
2868,0.0074918033
2869,0.008038629
2870,0.015926564
2871,-0.00071488
2872,0.0032297713
2873,-0.0016719798
2874,-0.015650185
2875,0.011740536
2876,-0.008079369
2877,-0.018785933
2878,-0.009936309
2879,-0.010209118
2880,-0.017404309
2881,0.00041649357
2882,-0.0062396983
2883,-0.001351169
2884,-0.0041630086
2885,0.0044297418
2886,9.331402e-05
2887,0.0012506137
2888,-0.0042827725
2889,-0.015059141
2890,0.016295958
2891,-0.0032326637
2892,0.0033540044
2893,0.0026093721
2894,0.00060187327
2895,-0.008975166
2896,-0.003467632
2897,0.01254845
2898,0.018899243
2899,-0.0056322757
2900,-0.0053087883
2901,-0.009736639
2902,0.01837197
2903,-0.008629878
2904,-0.003683129
2905,-0.0048741754
2906,0.012068006
2907,-0.008590676
2908,0.0063377586
2909,0.004963043
2910,-0.016537426
2911,-0.010917179
2912,0.004545565
2913,0.0053352085
2914,-0.007891813
2915,-0.005612935
2916,-0.0060711163
2917,-0.004472914
2918,0.0023330296
2919,-0.001042335
2920,-0.012398324
2921,0.013169051
2922,-0.007844444
2923,-0.0058031883
2924,-0.0005756148
2925,-0.002781501
2926,0.0075174994
2927,0.0038587006
2928,-0.0044959597
2929,-0.01445049
2930,0.00011870814
2931,0.009293638
2932,1.0552681e-05
2933,0.0067990366
2934,-0.009267897
2935,0.00497043
2936,-0.006693912
2937,0.007525726
2938,0.0007129082
2939,-0.0019564338
2940,-0.018625788
2941,-0.0064034294
2942,-0.006013192
2943,-0.008033186
2944,0.007134728
2945,0.0028525803
2946,0.0026696902
2947,-0.0029442157
2948,-0.006789403
2949,-0.0016711308
2950,0.0062679257
2951,-0.000478271
2952,-0.012069078
2953,0.011367222
2954,0.0070693414
2955,0.0007619916
2956,-0.0055828798
2957,-0.008890169
2958,-0.0029875666
2959,-0.008632825
2960,0.013731434
2961,0.00447817
2962,0.00462487
2963,-0.0013699948
2964,0.0062681376
2965,-0.0073802196
2966,0.011245179
2967,0.0064301016
2968,0.013168304
2969,0.000110592904
2970,0.0026240724
2971,0.013258522
2972,-0.010457781
2973,0.0064274482
2974,-0.001427071
2975,-0.016466558
2976,-0.0023185683
2977,0.005423042
2978,0.0016666264
2979,0.0035854713
2980,0.008492939
2981,0.004776185
2982,-0.00035503076
2983,-0.006964138
2984,-0.0044877436
2985,-0.009834945
2986,-0.011626239
2987,0.0026549932
2988,-0.002566564
2989,-0.0028383096
2990,-0.015943768
2991,0.0073881964
2992,-0.0008287368
2993,-0.014563842
2994,0.004073672
2995,-0.0057038595
2996,-0.01352544
2997,-0.012548756
2998,-0.018954683
2999,0.0005636572
3000,-0.009946926
3001,0.0025775917
3002,-0.01235574
3003,0.0042932867
3004,0.0050302413
3005,0.0055781836
3006,-0.003207917
3007,0.0016294394
3008,0.010854219
3009,-0.001349362
3010,0.013262521
3011,-0.005454597
3012,0.0017665148
3013,-0.012473205
3014,-0.01541025
3015,0.0057082805
3016,0.0039791227
3017,0.0047562956
3018,0.008065861
3019,0.010953122
3020,-0.0040870868
3021,-0.0009359932
3022,0.0037431403
3023,-0.0053883446
3024,0.016476503
3025,-0.0059033874
3026,-0.009426549
3027,-0.014517079
3028,0.0016030086
3029,0.007834112
3030,0.008505821
3031,0.002412188
3032,-0.017889278
3033,0.0068791215
3034,-0.0052358406
3035,0.0019921793
3036,0.00013997621
3037,0.005652019
3038,0.0002177328
3039,0.017876992
3040,0.007355533
3041,-0.0017781853
3042,0.007868782
3043,0.0013675279
3044,0.013743657
3045,0.017688405
3046,-0.0060499064
3047,-0.0071548447
3048,-0.0017318719
3049,-0.00097218354
3050,0.005975908
3051,0.013957567
3052,0.009313235
3053,-0.01746459
3054,-0.0049164747
3055,0.008283137
3056,-0.0109518925
3057,-0.008178161
3058,0.00092384237
3059,0.012953343
3060,0.0053451546
3061,-0.0047999704
3062,-0.011172824
3063,-0.0026343907
3064,0.0047749965
3065,0.00035846946
3066,-0.003750518
3067,-0.0059279627
3068,-0.011318511
3069,0.0096479105
3070,-0.0052677784
3071,-0.0067373714
3072,-0.0010799605
3073,-0.0001302429
3074,-0.009298749
3075,-0.013565515
3076,-0.009170202
3077,0.0071533853
3078,-0.016336136
3079,0.0026893003
3080,-0.0022597886
3081,0.0010183151
3082,-0.003631208
3083,-0.0005366797
3084,0.00735385
3085,0.0019445488
3086,0.0012853069
3087,-0.00013312387
3088,0.0018525645
3089,-0.0023380667
3090,-0.00107925
3091,0.012957585
3092,0.002579002
3093,-0.012591185
3094,-0.004483738
3095,-0.012921888
3096,0.016240342
3097,-0.0014073714
3098,-0.005282262
3099,0.0015547819
3100,0.00027345543
3101,0.012348239
3102,-0.0032643245
3103,0.0082305595
3104,-0.0034219828
3105,0.014070779
3106,-0.004546244
3107,0.0034803264
3108,0.0044103097
3109,-0.01044374
3110,-0.017633002
3111,0.0010500582
3112,1.708227e-05
3113,0.007944692
3114,-0.010101478
3115,-0.008686447
3116,-0.0029465496
3117,-0.013549015
3118,0.003189908
3119,-0.011109995
3120,0.015128309
3121,-0.0144585455
3122,0.004235907
3123,0.003537257
3124,0.01304204
3125,-0.015508807
3126,0.011175288
3127,0.017909918
3128,0.008716056
3129,0.019211987
3130,0.0023555667
3131,0.007636815
3132,0.0016818424
3133,0.00535772
3134,-0.00072784646
3135,0.011394092
3136,0.019192085
3137,0.0010658486
3138,0.016565751
3139,-0.019152222
3140,-0.00026642293
3141,-0.003704741
3142,-0.0065580984
3143,0.00037059395
3144,-0.011785979
3145,0.01246979
3146,-0.0077393637
3147,-0.015945464
3148,-0.019540628
3149,-0.013787093
3150,-0.002452963
3151,0.005370721
3152,-0.017913975
3153,-0.00326298
3154,-0.0019164991
3155,0.0010215265
3156,-0.016025977
3157,0.0062419497
3158,-0.009542029
3159,0.003681696
3160,0.012847851
3161,-0.0024614641
3162,-0.0063420786
3163,-0.00826893
3164,0.01631953
3165,-0.0092411805
3166,-0.00093063933
3167,-0.000781727
3168,0.006606616
3169,0.0039986954
3170,0.0070057237
3171,0.010008426
3172,0.0015140377
3173,0.013242278
3174,-0.010847285
3175,0.010600206
3176,0.015451108
3177,0.0020196275
3178,0.002550667
3179,-0.005816327
3180,0.00032323366
3181,0.0021349255
3182,-0.00041922077
3183,-0.0036244977
3184,-0.0104400525
3185,-0.009983318
3186,-0.0039214715
3187,-0.0060847187
3188,0.0055326717
3189,-0.004606578
3190,-4.2696774e-05
3191,0.00075231463
3192,-0.016668925
3193,-0.01245409
3194,-0.0016718307
3195,0.004352867
3196,0.007827355
3197,0.0032544767
3198,-0.01867546
3199,0.0075830906
3200,0.004406272
3201,-0.0035868979
3202,0.007802533
3203,0.0076767905
3204,-0.013876836
3205,-0.014735507
3206,-0.0061627836
3207,0.001030052
3208,-0.0059297564
3209,0.01025253
3210,0.00043663947
3211,-0.010436412
3212,0.012580718
3213,-0.015109919
3214,0.011670359
3215,-6.361075e-05
3216,0.0031807504
3217,0.004478034
3218,0.007664626
3219,-0.013680544
3220,0.0028772363
3221,0.0043338495
3222,-0.0014381546
3223,-0.0048337034
3224,-0.008417531
3225,-0.0011753835
3226,-0.00244165
3227,-0.0070659025
3228,-0.00140456
3229,0.005151132
3230,0.0030815129
3231,0.014475787
3232,0.007350712
3233,0.00085900904
3234,-0.0009699546
3235,0.018848667
3236,0.0010689233
3237,0.008773471
3238,0.0032317
3239,0.012745975
3240,-0.00052895467
3241,0.009759996
3242,-0.004613859
3243,-0.004266204
3244,-0.0052037598
3245,0.00052614766
3246,0.008858689
3247,0.018566538
3248,0.008545391
3249,0.018638026
3250,0.0053838855
3251,0.0077084173
3252,0.0060166614
3253,-0.0180585
3254,-0.002642525
3255,4.8615414e-07
3256,-0.0019882987
3257,-0.0072609014
3258,-0.0017284015
3259,-0.0037044731
3260,0.006457938
3261,0.0026274212
3262,0.012300187
3263,0.014930091
3264,0.0018950315
3265,-0.0007440479
3266,-0.008365897
3267,-0.0011606682
3268,0.0027421163
3269,-0.009223102
3270,0.0015522431
3271,0.007713823
3272,-0.014245261
3273,-0.0071428353
3274,0.0028258024
3275,-0.007696936
3276,0.005990625
3277,-0.007766313
3278,-0.0015299631
3279,-0.008669113
3280,0.0016375637
3281,-0.014901936
3282,0.019020114
3283,0.0048879692
3284,0.003378525
3285,-0.005534134
3286,-0.01714521
3287,-0.005032524
3288,-0.01546028
3289,-0.00405806
3290,-0.004047015
3291,-0.00032679466
3292,0.016842777
3293,-0.0025505994
3294,0.007986068
3295,0.004248326
3296,0.017793689
3297,-0.0104266405
3298,0.0026855737
3299,-0.010648101
3300,-0.005721971
3301,0.008813926
3302,0.0052175163
3303,-0.014862398
3304,-0.008493098
3305,0.001542196
3306,-0.012566269
3307,-0.009695352
3308,0.0015363917
3309,0.011814463
3310,0.0021318696
3311,-0.0028741544
3312,0.0052221073
3313,0.017847568
3314,-0.0027795744
3315,-0.002670568
3316,-0.012002737
3317,-0.008070403
3318,0.0065594055
3319,-0.0021667304
3320,-0.004804259
3321,0.009631898
3322,-0.012721533
3323,0.004594651
3324,-0.00046243356
3325,0.0047159316
3326,0.012906327
3327,0.015376353
3328,-0.0016018468
3329,-0.0032421276
3330,-0.0076281666
3331,0.00079179526
3332,-0.010609905
3333,0.0040538087
3334,0.0055929027
3335,-0.0026108767
3336,0.013808573
3337,-0.013263117
3338,0.00378475
3339,0.008263903
3340,0.01810803
3341,0.011554835
3342,0.008982558
3343,-0.012786528
3344,0.01603782
3345,0.005793698
3346,-0.014477663
3347,0.013088227
3348,0.009995419
3349,-0.0010922627
3350,-0.014902699
3351,-0.016933514
3352,-0.0037244596
3353,0.01702462
3354,-0.012654437
3355,0.0048256284
3356,0.004784852
3357,0.006122097
3358,0.00334715
3359,0.012970284
3360,-0.019079715
3361,-0.004054421
3362,-0.0007589193
3363,0.01732057
3364,0.006137634
3365,0.0036585724
3366,-0.004078454
3367,-0.016537383
3368,0.0058871247
3369,-0.01893138
3370,0.0052239983
3371,-0.016125232
3372,0.0027323118
3373,-0.011892551
3374,-0.01439005
3375,-0.0036534525
3376,-0.014091152
3377,-0.012082383
3378,-0.0056698285
3379,-0.0022869415
3380,-0.018230548
3381,-0.01783362
3382,0.008762204
3383,0.00776015
3384,-0.01240443
3385,-0.014445379
3386,0.013337884
3387,-0.00026382934
3388,-0.019833364
3389,-0.011079771
3390,0.0107627455
3391,0.017348671
3392,0.015155449
3393,-0.0023628164
3394,0.012373648
3395,0.0026155205
3396,-0.012301179
3397,0.017509539
3398,0.0019240071
3399,-0.005545622
3400,-0.008533564
3401,-0.001541049
3402,0.009017597
3403,0.004703532
3404,-0.0015264977
3405,-0.0044516977
3406,0.013365358
3407,-0.005890627
3408,0.004492819
3409,0.014558064
3410,-0.0035665613
3411,-0.0018023717
3412,-0.008701324
3413,-0.0017394808
3414,0.0068130433
3415,-0.0070710545
3416,0.0039983513
3417,-0.01249482
3418,0.0127919065
3419,-0.000764764
3420,-0.0038423436
3421,0.014523718
3422,-0.017057218
3423,0.0028057855
3424,-0.003840784
3425,-0.00050365267
3426,0.0021760215
3427,-0.0043573007
3428,0.01071015
3429,0.0057157506
3430,-0.004452245
3431,-0.006580749
3432,-0.0020018902
3433,0.0042671217
3434,-0.0033267397
3435,0.010214562
3436,0.006079515
3437,-0.006582979
3438,-0.0059583127
3439,-0.01648547
3440,-0.005393539
3441,0.005742985
3442,-0.008862935
3443,-0.013429097
3444,-0.015015532
3445,-0.0039564744
3446,-0.0051371027
3447,-6.0393988e-05
3448,0.001816783
3449,-0.008500499
3450,0.013194364
3451,-0.018742235
3452,-0.014021438
3453,0.006512226
3454,-0.0068515292
3455,0.016963528
3456,-0.0052622333
3457,0.008405852
3458,-0.0012914181
3459,-0.002041217
3460,0.00012088182
3461,0.004305592
3462,-0.0029951013
3463,-0.018418077
3464,-0.008487841
3465,0.019638868
3466,-0.005618131
3467,-0.007411458
3468,-0.0030692774
3469,0.007884589
3470,-0.009484541
3471,0.005828442
3472,-0.0063672666
3473,-0.009099995
3474,-4.4872355e-05
3475,0.014316006
3476,-0.008554995
3477,0.0014821086
3478,-0.01361146
3479,-0.0013696554
3480,0.0066871247
3481,-0.002087011
3482,0.0065817675
3483,-0.016260562
3484,0.011488389
3485,0.016486697
3486,-0.0110941855
3487,-0.017056933
3488,-0.017497355
3489,0.0007712479
3490,-0.016651968
3491,-0.0022062438
3492,-0.003961873
3493,0.0046718214
3494,-0.0010632162
3495,-0.010976251
3496,-0.006224646
3497,-0.003236419
3498,-0.0028742866
3499,-0.003487144
3500,-0.006581514
3501,0.012486914
3502,-0.016116727
3503,-0.015615835
3504,-0.003361447
3505,-0.0061558834
3506,-0.011188798
3507,-0.016085103
3508,0.011624416
3509,0.005758777
3510,-0.014550884
3511,-0.003983138
3512,-0.006273249
3513,0.004087173
3514,0.017452776
3515,0.00078385655
3516,-0.0070502935
3517,0.00926564
3518,-0.0123237055
3519,0.0017331771
3520,-0.0050508375
3521,0.015780305
3522,0.002360974
3523,-0.0073668193
3524,0.0042509544
3525,0.0006426062
3526,0.0026452
3527,-0.015122006
3528,0.011601799
3529,-0.0021905245
3530,0.006248483
3531,0.0004957424
3532,0.0094155
3533,-0.006906656
3534,-0.013970421
3535,0.0021024626
3536,0.0009894677
3537,0.010130014
3538,-0.015614389
3539,-0.0026534423
3540,-0.01018995
3541,0.010863857
3542,0.016498096
3543,0.009899794
3544,0.009042944
3545,-0.0074130273
3546,0.004152218
3547,0.0046947156
3548,0.0059433244
3549,-0.0073970915
3550,-0.0029035266
3551,0.0028975669
3552,-0.0145896375
3553,0.017414993
3554,0.0014770504
3555,-0.002439384
3556,0.0045833807
3557,0.0029955762
3558,-0.0019773021
3559,0.008364996
3560,0.008379244
3561,0.0042839637
3562,-0.0025191372
3563,0.014418758
3564,-0.018303243
3565,-0.007125073
3566,-0.004261236
3567,0.0078054867
3568,0.003938583
3569,-0.0037591904
3570,0.00834704
3571,-0.009260007
3572,-0.00060190604
3573,0.012740035
3574,-0.0026154683
3575,0.003076573
3576,0.0053231884
3577,0.0011460617
3578,0.0066209943
3579,-0.00049438316
3580,0.012241971
3581,0.010774854
3582,-0.01923353
3583,-0.0032535947
3584,-0.0051408582
3585,-0.011989871
3586,-0.013946953
3587,-0.008811398
3588,-0.0018604241
3589,0.012433893
3590,-9.4457966e-05
3591,-0.0001966342
3592,0.01686967
3593,-0.007817223
3594,0.0036638482
3595,-0.0017815543
3596,-0.019998604
3597,-0.00056032266
3598,-0.010618133
3599,-0.009061357
3600,0.004518295
3601,-0.0004434765
3602,0.00014889053
3603,0.003520407
3604,-0.013258612
3605,0.0029197766
3606,0.009062528
3607,0.0086264005
3608,-0.0013830265
3609,0.019714838
3610,-0.01244127
3611,-0.010508999
3612,-0.00065394334
3613,-0.011990695
3614,0.0039691003
3615,-0.004845944
3616,-0.0025469924
3617,0.0024673808
3618,-0.0042674663
3619,0.017847236
3620,-0.012440194
3621,-0.0031541507
3622,0.0042897626
3623,-0.006134742
3624,-0.009764396
3625,-0.0115817925
3626,0.009804728
3627,0.00053361355
3628,-0.009429996
3629,0.015222394
3630,0.016116656
3631,0.013462566
3632,0.0063073626
3633,-0.01895094
3634,-0.015750492
3635,-0.019209772
3636,0.007872407
3637,0.002961257
3638,-0.008777301
3639,0.0073428415
3640,0.01089456
3641,-0.0021036125
3642,-0.010639525
3643,0.012589836
3644,-0.0011365289
3645,0.0038005193
3646,-0.0020617505
3647,-0.01730426
3648,0.005703904
3649,0.0021359401
3650,-0.011779038
3651,0.003765389
3652,0.014017718
3653,0.008069823
3654,0.012609386
3655,-0.0029527247
3656,-0.0016342318
3657,0.013534545
3658,0.007552369
3659,0.010524785
3660,0.005495505
3661,-0.002004669
3662,0.00087103597
3663,0.0066167577
3664,-0.0067059267
3665,-0.0050677853
3666,0.003227584
3667,-0.0019936883
3668,0.012837659
3669,0.015084745
3670,-0.0050350344
3671,0.0051532495
3672,-0.0070337257
3673,0.016546018
3674,0.0069843302
3675,-0.0064562145
3676,-0.00034894436
3677,-0.0033058736
3678,-0.013687238
3679,-0.0028179218
3680,0.0015399874
3681,-6.1171086e-05
3682,0.016007923
3683,0.012452903
3684,-0.010253532
3685,0.011457608
3686,-0.012008549
3687,-0.005574112
3688,-0.014184057
3689,0.012000585
3690,0.0018640247
3691,-0.012902185
3692,0.0002595075
3693,-0.008872355
3694,-0.000121148856
3695,-0.0030027733
3696,0.0026879944
3697,0.0017482184
3698,0.0036238884
3699,0.0015560858
3700,0.0035882972
3701,-0.0065450426
3702,0.0068101706
3703,0.0122545725
3704,0.0032346244
3705,-0.007060457
3706,0.006182082
3707,-0.011776382
3708,0.0015826178
3709,-0.006828014
3710,0.010855486
3711,-0.012539801
3712,-0.011144268
3713,-0.010958446
3714,-0.013778775
3715,-0.003643797
3716,0.012200798
3717,-0.006063605
3718,0.0070532705
3719,0.0039161136
3720,-0.016917078
3721,-0.0045573474
3722,-0.010018353
3723,0.011915832
3724,-0.009157412
3725,0.006550916
3726,-0.005033662
3727,-0.0062976778
3728,0.009317479
3729,-0.0022301173
3730,0.005476542
3731,-0.015605164
3732,-0.0023044192
3733,-0.0059785093
3734,0.018197764
3735,-0.005646824
3736,0.0022791328
3737,-0.0015224196
3738,-0.0024923177
3739,0.002598371
3740,0.007002252
3741,0.00921696
3742,-0.009760365
3743,0.0101255905
3744,-0.0065507307
3745,0.0060876086
3746,0.00030062924
3747,0.005864904
3748,-0.012326286
3749,-0.004505056
3750,-0.00195196
3751,-0.0014556426
3752,-0.013800743
3753,-0.0003113058
3754,-0.012547125
3755,-0.009092427
3756,0.0026008543
3757,-0.013358833
3758,0.00090299855
3759,0.0040738913
3760,0.0068589468
3761,0.0048238216
3762,-0.017005512
3763,0.007968651
3764,0.0017552731
3765,0.002460384
3766,0.0020409268
3767,0.0044934405
3768,-0.009900481
3769,-0.0023145399
3770,-0.0033086643
3771,-0.003282847
3772,-0.015259653
3773,-0.0076623103
3774,-0.0063204565
3775,-0.0071648024
3776,0.0015510777
3777,-0.0062007396
3778,-0.010511384
3779,-0.008629344
3780,0.008778479
3781,-0.013950606
3782,0.010560675
3783,0.0043338574
3784,-0.006560699
3785,-0.0016988721
3786,0.005771218
3787,0.013723682
3788,-0.008505263
3789,-0.0002428989
3790,0.015986105
3791,-0.006998404
3792,-0.0018476635
3793,-0.0025938267
3794,0.0007725529
3795,-0.013328205
3796,0.0023686483
3797,0.01057992
3798,0.0028602853
3799,-0.012999267
3800,-0.01238453
3801,0.018697783
3802,0.012721924
3803,0.0086248
3804,-0.010838824
3805,-0.0010708212
3806,-0.005600915
3807,0.0077576097
3808,-0.019760054
3809,0.012540285
3810,0.016662912
3811,0.0028881303
3812,-0.015390015
3813,0.0015616142
3814,0.011179563
3815,0.0053692386
3816,-0.014087103
3817,-0.0013143445
3818,0.014156542
3819,-0.013398049
3820,-0.0011808263
3821,0.015579659
3822,0.0026738616
3823,0.0030661584
3824,-0.0043014023
3825,-0.0053316173
3826,-0.011503222
3827,0.0046183276
3828,-0.0075373407
3829,0.0024464133
3830,0.0034514063
3831,-0.0029787708
3832,0.010970171
3833,0.003680802
3834,-0.018833986
3835,-0.006100877
3836,0.0057944534
3837,0.0052130916
3838,0.0057072975
3839,-0.0182368
3840,0.0036043022
3841,-0.015104479
3842,0.0034982776
3843,0.009633865
3844,-0.008367485
3845,0.0104081975
3846,-0.0070287935
3847,-0.008565748
3848,-0.011336469
3849,-0.006052446
3850,-0.0085785
3851,-0.0007521025
3852,0.0044837543
3853,0.00085638254
3854,-0.016318103
3855,0.010418737
3856,-0.0037441982
3857,-0.016538734
3858,0.014443265
3859,0.00857804
3860,-0.006592819
3861,0.0060938643
3862,0.008210647
3863,-0.0024542592
3864,0.0041932324
3865,-0.008181463
3866,-0.0028128435
3867,-0.0030266177
3868,-0.008915493
3869,0.0036975893
3870,-0.00050186814
3871,-0.009460158
3872,0.013154066
3873,0.0013618023
3874,-0.0032371422
3875,-0.0008848578
3876,-0.0042229276
3877,-0.0019706301
3878,-0.016706586
3879,0.0030305109
3880,-0.0026288559
3881,0.015304344
3882,-0.009343516
3883,-0.0023979375
3884,0.0063932603
3885,-0.004200778
3886,-0.007200403
3887,0.0015860335
3888,0.008692224
3889,0.00056800025
3890,-0.010907023
3891,-0.018729154
3892,-0.017532803
3893,-0.0061536413
3894,0.011665398
3895,0.010479536
3896,0.0070385714
3897,-0.016163306
3898,0.005010825
3899,0.01320139
3900,-0.0024875803
3901,-0.01458308
3902,0.001279307
3903,0.01430001
3904,0.006325203
3905,0.0016796205
3906,-0.012479717
3907,-0.005856031
3908,-0.0072645447
3909,0.006698165
3910,0.012818404
3911,0.013222727
3912,-0.017046096
3913,-0.011976481
3914,0.011215168
3915,-0.0027279593
3916,-0.017122205
3917,0.0007784281
3918,-0.0015775425
3919,0.016490368
3920,-0.01466008
3921,-0.015208929
3922,0.00054412417
3923,0.0011875952
3924,-0.019503249
3925,-0.0063805846
3926,-0.008271787
3927,0.00043686168
3928,-0.013725216
3929,-0.0070149153
3930,0.0015121303
3931,0.016967554
3932,0.0042631924
3933,0.00040180486
3934,-0.0016145505
3935,-0.008410907
3936,0.015738985
3937,0.00038584284
3938,0.008472718
3939,-0.016583541
3940,-0.002136001
3941,0.0032578204
3942,0.019216986
3943,0.013267782
3944,-0.008650558
3945,1.0839795e-05
3946,0.0038557062
3947,-0.016316624
3948,0.0059416224
3949,0.011718054
3950,0.006359402
3951,0.0081945695
3952,0.0085713
3953,-0.00072670524
3954,0.01958704
3955,-0.011639787
3956,-0.008833904
3957,0.009428041
3958,-0.007453495
3959,-0.015617212
3960,-0.01334254
3961,-0.010187033
3962,0.001533024
3963,-0.01663655
3964,-0.0049029617
3965,-0.0006191725
3966,0.013150145
3967,0.008644692
3968,-9.346853e-05
3969,0.0082124695
3970,-0.00076039665
3971,-0.0065168105
3972,-0.0009834953
3973,-0.0015261711
3974,0.003309723
3975,0.01126335
3976,0.0114833815
3977,0.005926984
3978,0.0073179374
3979,-0.0037946415
3980,0.012931091
3981,-0.0076010055
3982,-0.0007621111
3983,-0.008592607
3984,-0.0090436805
3985,-0.0051538013
3986,-0.0059807594
3987,0.0026992636
3988,-0.0013691501
3989,-0.00408985
3990,-0.016070973
3991,-0.009865316
3992,0.006283762
3993,-0.015675405
3994,0.004126587
3995,-0.0023199574
3996,-0.00021771762
3997,-0.004643748
3998,-0.0055925343
3999,0.003973451
4000,-0.013586805
4001,0.0030806125
4002,-0.0043474897
4003,0.009698341
4004,-0.0033554684
4005,3.412222e-05
4006,0.004243284
4007,0.016588233
4008,-0.0029911625
4009,0.013773677
4010,0.0009245386
4011,-0.012333943
4012,0.0058102794
4013,-0.0054741497
4014,0.005210085
4015,0.017119646
4016,-0.017392986
4017,0.0077137086
4018,-0.0040846285
4019,-0.013180054
4020,0.0030456726
4021,0.018794777
4022,0.00036446896
4023,0.005732345
4024,-0.002260939
4025,0.009704762
4026,-0.0108269015
4027,0.010250666
4028,-0.016046777
4029,-0.0060716984
4030,-0.0059817345
4031,0.015136522
4032,0.006342355
4033,0.011974451
4034,0.008065787
4035,0.002205461
4036,-0.007381326
4037,-0.0059980233
4038,-0.0032394137
4039,0.0015832991
4040,-0.007872502
4041,0.0043740864
4042,-0.006332792
4043,-0.0020787455
4044,0.007933958
4045,0.00018109837
4046,0.015753686
4047,0.002850467
4048,0.013081821
4049,0.0066359937
4050,-0.0014499243
4051,0.014868391
4052,0.013465266
4053,0.00019480013
4054,-0.0062032687
4055,0.000947486
4056,-0.0006630557
4057,-0.00068749936
4058,0.0017492445
4059,-0.014494522
4060,0.00094586017
4061,-0.0045783073
4062,-0.00913514
4063,0.011197734
4064,-0.013557611
4065,-0.003108459
4066,-0.0037781557
4067,0.014968532
4068,-0.0010797502
4069,-0.0027935908
4070,0.008795131
4071,-9.403434e-06
4072,-0.00094091735
4073,0.014068727
4074,-0.012306656
4075,0.019130092
4076,-0.014758823
4077,0.010429098
4078,0.002477488
4079,-0.008572167
4080,-0.003785358
4081,-0.01011358
4082,0.000105273684
4083,0.0013816841
4084,0.014609355
4085,0.0043140007
4086,0.0018958446
4087,-0.010885659
4088,-0.009742251
4089,0.00010001313
4090,-0.009934441
4091,0.008159124
4092,-0.0068625826
4093,-0.007248916
4094,0.0037199147
4095,0.0042430493
4096,-0.014819716
4097,0.003196868
4098,-0.0047784504
4099,-0.006835672
4100,-0.0070698853
4101,0.017024582
4102,0.011460006
4103,0.014483985
4104,-0.013866885
4105,0.009757637
4106,-0.008422139
4107,0.009556144
4108,0.0035339147
4109,-0.0069413353
4110,0.0032872579
4111,0.014258143
4112,0.004909684
4113,0.0023719473
4114,-0.008691907
4115,0.01110635
4116,-0.011677774
4117,-0.0015627119
4118,0.0013277425
4119,0.0110889105
4120,0.010261886
4121,0.005888366
4122,-0.007595791
4123,0.010267285
4124,0.008049696
4125,-0.00019851628
4126,0.0065800995
4127,0.0084010465
4128,-0.006781668
4129,-0.005310253
4130,-0.013268371
4131,-0.004238673
4132,-0.01821731
4133,0.0048226407
4134,0.00074141123
4135,0.0073555373
4136,0.0018945171
4137,-0.014000954
4138,0.0029638272
4139,-0.019385189
4140,0.015976803
4141,-0.006908115
4142,0.003967467
4143,-0.0075879022
4144,0.013633139
4145,-0.019288115
4146,0.0050189486
4147,-0.0098528145
4148,0.0025957518
4149,-0.00019952201
4150,-0.0016474992
4151,0.0073246444
4152,0.0026128402
4153,-0.008998469
4154,-0.012884127
4155,0.007830453
4156,-0.008579593
4157,0.013164726
4158,0.0069751716
4159,0.011550906
4160,0.00545688
4161,0.008882869
4162,0.01109456
4163,-0.0041591492
4164,-0.008787845
4165,0.003782149
4166,0.006002133
4167,0.0007455629
4168,0.013826325
4169,0.00029890233
4170,-0.011250421
4171,0.006630863
4172,-0.0033647371
4173,0.014949481
4174,0.011038915
4175,-0.0019658299
4176,0.010231929
4177,-0.003540258
4178,0.0028410032
4179,0.0100870235
4180,0.001804284
4181,0.0012791924
4182,-0.016342353
4183,0.0070293155
4184,0.0020309314
4185,-0.017228456
4186,-0.013082705
4187,-0.0066006384
4188,-0.0046636066
4189,-0.009657598
4190,-0.00020369834
4191,-0.00070072187
4192,0.0054199263
4193,0.014954494
4194,-0.0043920875
4195,-0.0063153477
4196,0.0035568944
4197,0.01914099
4198,0.013086016
4199,-0.0011570612
4200,0.00194721
4201,-0.002564768
4202,0.006837689
4203,0.0049475823
4204,0.017972881
4205,-0.0033477275
4206,0.014079743
4207,-0.002324573
4208,-0.011138499
4209,-0.013005796
4210,-0.011406246
4211,0.013982042
4212,0.0015657482
4213,0.0021147805
4214,-0.008604904
4215,0.001792992
4216,-0.01581208
4217,-0.010778133
4218,-0.009659794
4219,0.007196997
4220,0.0067084287
4221,0.0032849605
4222,-0.006844022
4223,-0.0019163011
4224,0.017736163
4225,-0.0037805664
4226,0.010434613
4227,0.008227357
4228,-0.0070740203
4229,0.006925295
4230,-0.0061064796
4231,-0.009710967
4232,-0.009265711
4233,-0.0070716906
4234,-0.008018759
4235,-0.01098462
4236,0.0019526603
4237,0.009537047
4238,-0.0063612997
4239,-0.007606168
4240,0.001746741
4241,-0.004414993
4242,-0.00097331306
4243,-0.014025319
4244,0.017573738
4245,0.009892481
4246,0.008790939
4247,-0.00039900685
4248,0.0010946216
4249,-0.0048663043
4250,0.0042613354
4251,-0.013912941
4252,0.0060081887
4253,0.008228135
4254,-0.011583416
4255,-0.00806482
4256,0.008063686
4257,-0.0027359403
4258,-0.013965523
4259,-0.011180148
4260,0.014878576
4261,0.004394659
4262,0.0010927147
4263,-0.013947718
4264,0.0030164784
4265,0.0010909578
4266,0.005617236
4267,-0.008547134
4268,0.0007277788
4269,-0.001388572
4270,-0.0041522193
4271,0.008242782
4272,-0.0054904204
4273,0.006528815
4274,0.0017103158
4275,-0.014432429
4276,0.0022969153
4277,0.0051326104
4278,0.010967019
4279,-0.0043121125
4280,-0.0039955205
4281,-0.0019878154
4282,0.004541258
4283,-0.0051541096
4284,0.0135705145
4285,0.013837481
4286,0.016429275
4287,-0.009765343
4288,0.011498332
4289,0.0010823688
4290,-0.0010232847
4291,0.005589667
4292,-0.005180433
4293,-0.010915199
4294,-0.0018710623
4295,-0.004166592
4296,-0.0078340825
4297,0.007860983
4298,0.0072039627
4299,0.00022690027
4300,-0.015092836
4301,0.0042976444
4302,-0.0040472047
4303,-0.0028836823
4304,-0.002849102
4305,-0.005932072
4306,-0.002215091
4307,-0.0022959867
4308,0.0037112043
4309,0.00015100901
4310,0.011976908
4311,-0.016207976
4312,0.01414296
4313,0.01824746
4314,0.019196939
4315,0.00059957156
4316,0.012497295
4317,-0.011996363
4318,0.00984273
4319,0.0021855647
4320,0.01243051
4321,-0.018889857
4322,0.013188421
4323,0.01172983
4324,0.0108569795
4325,0.006745788
4326,0.0021978526
4327,0.0011823832
4328,-0.0053726085
4329,0.0096822595
4330,-0.0017618252
4331,-0.0038934068
4332,0.00385747
4333,-0.016216556
4334,0.0022378215
4335,0.006135229
4336,0.0015296239
4337,-0.015809719
4338,0.012407941
4339,0.010060763
4340,0.014540639
4341,-0.00014753404
4342,-0.0006629412
4343,0.0011715199
4344,0.00095486484
4345,-0.009832501
4346,-0.0036656787
4347,-0.00039580205
4348,-0.00260435
4349,-0.0013324076
4350,0.019855337
4351,0.0009674725
4352,-0.0035264655
4353,-0.010010006
4354,-0.018340673
4355,-0.008860657
4356,-0.011852152
4357,0.010921975
4358,-0.012683733
4359,0.0059041083
4360,-0.0056360834
4361,-0.0014755977
4362,0.008756901
4363,-0.018653326
4364,-0.00763513
4365,-0.007482071
4366,-0.01199169
4367,-0.004377459
4368,0.0017537945
4369,0.00199855
4370,-0.007183111
4371,0.00554621
4372,-0.0029774131
4373,0.0015312638
4374,-0.004460956
4375,-0.002543868
4376,-0.0018712317
4377,-0.0028291494
4378,0.00035346166
4379,0.009294505
4380,0.0081741195
4381,0.0052913344
4382,-0.01146542
4383,-0.004563883
4384,-0.0058835973
4385,0.019563094
4386,0.007617166
4387,0.003244943
4388,0.0007949409
4389,-0.008034543
4390,0.019571079
4391,0.0022319616
4392,-0.012890681
4393,-0.012074674
4394,0.0077812267
4395,0.0020341834
4396,0.014687802
4397,-0.008966097
4398,0.01349504
4399,0.005062062
4400,-0.016005235
4401,-0.010331353
4402,-0.018123336
4403,-0.018027157
4404,-0.0037163005
4405,-0.0026168632
4406,-0.014242653
4407,0.00046421262
4408,-0.0023610864
4409,-0.009105706
4410,0.008494811
4411,0.0051453705
4412,0.013139247
4413,0.0024409431
4414,0.005501177
4415,0.0084403725
4416,0.0054199044
4417,-0.002218676
4418,-0.011401819
4419,0.009270726
4420,-0.0093529215
4421,0.011758213
4422,-0.0063472246
4423,0.00497827
4424,0.017501095
4425,0.01170373
4426,0.0055778674
4427,-0.005002941
4428,0.0024770019
4429,-0.0074040587
4430,-0.005848964
4431,0.000779447
4432,0.0071702395
4433,-0.001620368
4434,0.006702886
4435,-0.0040998785
4436,0.008295287
4437,-0.0046156812
4438,-0.0043130005
4439,0.01882972
4440,0.0056153764
4441,-0.0030985281
4442,0.0045641563
4443,-0.005119294
4444,-0.0012716771
4445,-0.0006646622
4446,-0.0043528615
4447,-0.013220397
4448,0.0072348192
4449,0.008375791
4450,0.0049604503
4451,-0.00028382448
4452,0.0054193297
4453,0.0032761572
4454,-0.0023991638
4455,0.00410766
4456,0.0010636322
4457,0.004854603
4458,0.003863407
4459,0.0075966027
4460,-0.01037459
4461,-0.0063647125
4462,-0.0011123985
4463,-0.0005893459
4464,0.006908498
4465,0.009295406
4466,0.005313526
4467,0.008011436
4468,0.015626028
4469,-0.018844215
4470,0.0022054282
4471,0.0028904842
4472,0.00407076
4473,0.014415817
4474,0.0002777994
4475,-0.0011440037
4476,-0.0066210493
4477,-0.00052969385
4478,-0.009736925
4479,-0.00049905345
4480,0.01102281
4481,-0.012249158
4482,0.010989593
4483,-0.00850746
4484,-0.009627146
4485,0.008388124
4486,0.014240082
4487,-0.015487965
4488,0.00043886728
4489,-0.006639184
4490,-0.0011761134
4491,-0.002171361
4492,0.0032718491
4493,-0.018132059
4494,-0.0022170455
4495,0.0017795165
4496,0.001991689
4497,-0.014340019
4498,0.0016336369
4499,-0.0050073387
4500,-0.003321497
4501,-0.019124882
4502,-0.008961847
4503,0.0047156876
4504,0.010394534
4505,0.014525158
4506,0.001504207
4507,0.0186126
4508,-0.0046096887
4509,-0.009506215
4510,-0.00022523556
4511,-0.014652184
4512,0.007458975
4513,-0.0032501777
4514,-0.0043075527
4515,0.011896955
4516,-0.005699164
4517,-0.0073589706
4518,0.006727461
4519,-0.005055756
4520,0.0151709495
4521,0.003291857
4522,-0.0032542709
4523,0.010844089
4524,-0.012200127
4525,-0.008343003
4526,-0.0065338314
4527,0.01134292
4528,2.9913253e-05
4529,0.0018216644
4530,-0.0023725703
4531,-0.004791041
4532,0.0017314506
4533,0.006840437
4534,0.008131675
4535,0.002825898
4536,-0.0034815562
4537,-0.010717565
4538,0.002440848
4539,-0.0059192227
4540,-0.019988105
4541,0.006066266
4542,-0.004335721
4543,-0.012818118
4544,0.0033701835
4545,-0.019768847
4546,-0.00912492
4547,-0.014649151
4548,-0.004130364
4549,-0.0028485497
4550,0.009273039
4551,0.0038153138
4552,0.008675593
4553,-0.0009898201
4554,-0.0017548095
4555,0.00054252916
4556,0.0053128228
4557,-0.008996744
4558,0.011758089
4559,0.004629435
4560,-0.00435695
4561,0.0128904935
4562,-0.0006416296
4563,-0.0066074706
4564,-0.014261554
4565,-0.011114257
4566,-0.0016008422
4567,-0.013261637
4568,-0.012496529
4569,0.012121697
4570,-0.012511234
4571,0.016343769
4572,-0.01888114
4573,0.01012665
4574,0.010502134
4575,0.00024159979
4576,-0.010260844
4577,-0.009929972
4578,-0.0072172983
4579,-0.005513201
4580,0.0059716017
4581,0.0111235
4582,0.0029658035
4583,0.008834189
4584,-0.0073587634
4585,0.010931138
4586,0.015090315
4587,0.013728244
4588,-0.0033964035
4589,0.0049040816
4590,-0.007286949
4591,-0.008402339
4592,0.0021975988
4593,2.253553e-05
4594,-0.0005938194
4595,-0.016195085
4596,0.00068189856
4597,-0.01660434
4598,0.015764648
4599,0.0066209375
4600,-0.0033875457
4601,-0.015012993
4602,-0.013118228
4603,-0.0042619547
4604,3.583166e-05
4605,-0.009329983
4606,-0.009209372
4607,-0.0052564954
4608,0.0015535778
4609,0.009010141
4610,0.0013933008
4611,0.00028863127
4612,0.007867294
4613,0.008429605
4614,0.010434548
4615,-0.0071127736
4616,-0.014039505
4617,-0.016460206
4618,-0.0032278185
4619,0.0008000029
4620,0.00082829595
4621,0.006020573
4622,0.0026764798
4623,-0.009776887
4624,-0.012209553
4625,0.007583622
4626,0.001795637
4627,-0.007902135
4628,0.008122878
4629,0.0031927873
4630,-0.011524635
4631,-0.0042712875
4632,0.0029369227
4633,-0.0047140466
4634,0.013083675
4635,-0.0054115113
4636,0.008367853
4637,0.00045472503
4638,-0.012916932
4639,-0.0031573672
4640,0.0043965112
4641,0.017132279
4642,0.010935967
4643,0.0028223707
4644,-0.008287014
4645,0.0007769595
4646,-0.0043807896
4647,0.009833483
4648,0.001236022
4649,0.0020356416
4650,0.0073460746
4651,0.0064715715
4652,0.004581442
4653,0.014091452
4654,0.0053110886
4655,0.008499484
4656,-0.018696388
4657,0.0004696682
4658,0.0078162365
4659,0.014263736
4660,-0.00020377363
4661,0.0052775834
4662,-0.009320942
4663,-0.006349055
4664,0.008027543
4665,0.0087667825
4666,0.011314905
4667,0.007716234
4668,0.014593517
4669,0.01397365
4670,0.0021760652
4671,-0.010351434
4672,-0.009911176
4673,0.0037301555
4674,0.00092161883
4675,-0.0025567338
4676,-0.0038930767
4677,0.00660987
4678,0.0106374
4679,0.003618534
4680,-0.00096127007
4681,-0.0020882762
4682,0.00072931126
4683,0.005885885
4684,-0.009728954
4685,0.0017946613
4686,0.0035464317
4687,-0.00043185777
4688,0.0002968315
4689,0.0009028133
4690,-0.0026903327
4691,0.01225777
4692,0.011927091
4693,0.0042585693
4694,-0.0052357903
4695,-0.0032047823
4696,-0.008754864
4697,0.0063671255
4698,0.0027781657
4699,0.00967139
4700,0.0038993666
4701,-0.0049597914
4702,-0.0008122345
4703,-0.0010843509
4704,-0.014453647
4705,-0.0062142843
4706,-0.005204722
4707,-0.0050238557
4708,0.009948776
4709,-0.0019772646
4710,-0.0073569645
4711,-0.012840553
4712,0.010572674
4713,0.001490883
4714,-0.019852279
4715,-0.012439458
4716,-0.013154083
4717,0.009747594
4718,-0.0012719968
4719,0.013479957
4720,0.0040473538
4721,0.00116065
4722,0.0016934158
4723,0.0008337525
4724,-0.006685426
4725,-0.0018714535
4726,0.0006346104
4727,0.0065871347
4728,-0.0103079835
4729,-0.0024478526
4730,0.009735051
4731,-0.009277595
4732,-0.00040481548
4733,0.010576313
4734,0.00194934
4735,0.008344804
4736,-0.013212615
4737,0.012412129
4738,-0.011533768
4739,0.01260691
4740,-0.0051603145
4741,0.009442061
4742,-0.0006604652
4743,0.0007523405
4744,0.007227363
4745,-0.002834603
4746,-0.0026312468
4747,-0.0035494035
4748,-0.015181723
4749,-0.0025846146
4750,0.008950465
4751,-1.4414941e-05
4752,0.012167811
4753,0.012182683
4754,0.0024200222
4755,-0.012710829
4756,-0.008123058
4757,0.012632449
4758,0.002249435
4759,0.014069476
4760,-0.014370228
4761,-0.002296964
4762,0.006785402
4763,0.0070606447
4764,-0.0019150233
4765,0.013414796
4766,0.008720229
4767,0.01253674
4768,-0.015523616
4769,0.019325327
4770,-0.0038447548
4771,-0.0057575917
4772,-0.0023462255
4773,-0.0032546723
4774,-0.0037649951
4775,0.0043313014
4776,-0.0038134651
4777,0.0035724924
4778,-0.0054543735
4779,-0.0007621411
4780,-0.002177336
4781,0.000101071535
4782,0.013239266
4783,0.0004951058
4784,0.0014785691
4785,-0.005830181
4786,-0.008034869
4787,0.0118249
4788,0.009611348
4789,-0.005361954
4790,-0.018076187
4791,0.013748559
4792,0.017222336
4793,6.195788e-05
4794,0.012305207
4795,0.0035026749
4796,0.0021966184
4797,0.007855983
4798,-0.013753754
4799,0.00506225
4800,-0.006889184
4801,-0.0038668935
4802,0.0038610774
4803,-0.007279717
4804,0.012574927
4805,0.0019870377
4806,-0.011632849
4807,-0.011301502
4808,0.001674141
4809,0.0018056366
4810,-0.012912077
4811,-0.016708806
4812,-0.0015403136
4813,-0.0069926092
4814,0.0033163396
4815,-0.004228756
4816,-0.011426971
4817,-0.016666774
4818,0.01176796
4819,0.008042549
4820,0.0031114896
4821,0.007595765
4822,-0.008941632
4823,0.0042715725
4824,-0.0028201719
4825,-0.01969361
4826,-0.012533322
4827,-0.00043565268
4828,-0.007804977
4829,0.0069836057
4830,0.0011601825
4831,0.004185623
4832,-0.0045667263
4833,-0.0033371565
4834,-0.010066297
4835,0.008621154
4836,-0.0034075242
4837,0.008064773
4838,0.011003714
4839,0.0074984394
4840,0.002940761
4841,-0.0033744562
4842,0.014235038
4843,-0.0003710308
4844,-0.0019176154
4845,-0.004714398
4846,0.016920995
4847,0.0031845944
4848,-0.002373071
4849,0.010510047
4850,0.008953549
4851,0.0043989695
4852,-0.0042244275
4853,-0.0032671932
4854,-0.006747115
4855,0.004501928
4856,0.00087478687
4857,0.0066233543
4858,-0.0073886584
4859,-0.005181112
4860,-0.0006516905
4861,-0.0019487251
4862,-0.01240308
4863,-0.0057617924
4864,0.002518973
4865,0.010962909
4866,0.015299204
4867,-0.015663363
4868,-0.0060186307
4869,0.00991524
4870,-0.004695474
4871,-0.0008950086
4872,-0.0045059253
4873,0.0013143055
4874,-0.00091517245
4875,0.011939393
4876,-0.00200248
4877,-0.0058644605
4878,0.008500012
4879,0.005258272
4880,-0.011079007
4881,-0.0064051733
4882,-0.0028886946
4883,-0.0054606227
4884,0.0013493391
4885,-0.0072620166
4886,0.00040389597
4887,-0.013915566
4888,0.0027427175
4889,-0.0011397781
4890,-0.0094668185
4891,0.010882509
4892,0.011845199
4893,-0.01930271
4894,0.012318755
4895,-0.006072372
4896,0.018818459
4897,-0.0031749061
4898,0.0008041275
4899,0.01294419
4900,-0.0021872649
4901,-0.004208161
4902,0.0023769266
4903,-0.0110415025
4904,0.0093502095
4905,-0.003515601
4906,7.206916e-05
4907,-0.00062708586
4908,-0.01779636
4909,-0.013032494
4910,0.0040834467
4911,0.013986716
4912,0.011549538
4913,0.007081738
4914,0.013545394
4915,-0.0076005226
4916,0.009297388
4917,-0.00035426402
4918,-0.018772267
4919,-0.016979022
4920,0.010259418
4921,-0.015269296
4922,0.010123133
4923,0.0008802713
4924,-0.010907304
4925,0.0017620543
4926,0.0024899382
4927,0.011339221
4928,0.008395023
4929,0.011448427
4930,-0.006539925
4931,0.012845405
4932,0.017432583
4933,0.006324554
4934,0.0024908604
4935,0.008121721
4936,-0.0063241795
4937,0.007823329
4938,-0.004477217
4939,0.0130196605
4940,-0.016097767
4941,-0.0043281903
4942,0.007684505
4943,-0.0068884864
4944,-0.0027976213
4945,-0.007440318
4946,0.0015495935
4947,-0.0028494939
4948,-0.013836198
4949,-0.0028842378
4950,0.017167829
4951,0.0002637895
4952,-0.0068508224
4953,1.0657313e-05
4954,0.01809163
4955,-0.0064213388
4956,-0.0045980443
4957,-0.01011958
4958,-0.0073994673
4959,0.0063712695
4960,0.0029662673
4961,-0.008000021
4962,0.0015901523
4963,5.8218986e-05
4964,0.0053317826
4965,0.0015013206
4966,0.004998227
4967,-0.0078101037
4968,-0.005490455
4969,-0.005782598
4970,0.00032388666
4971,-0.010188974
4972,-0.0027356003
4973,-0.011417767
4974,-0.010411224
4975,-0.00334281
4976,0.019750804
4977,-0.004923463
4978,-0.0005212759
4979,-0.005809925
4980,-0.0016862002
4981,0.016186988
4982,-0.0014350929
4983,0.00048063375
4984,0.0011162699
4985,0.009857284
4986,-0.012690483
4987,-0.0047661774
4988,0.013064163
4989,0.007273618
4990,0.0029619648
4991,0.00698185
4992,-0.011218732
4993,0.010807082
4994,0.015617967
4995,-0.0017228326
4996,-0.008850301
4997,0.009949758
4998,0.0010590649
4999,0.0022394217
5000,0.007353996
5001,-0.016090164
5002,-0.008436947
5003,-0.007800004
5004,-0.009576545
5005,0.0025338558
5006,0.013190147
5007,0.0022696815
5008,-0.0029046806
5009,0.0107130725
5010,-0.0134140495
5011,0.0021839347
5012,0.010871889
5013,0.013896892
5014,0.004830482
5015,0.007899266
5016,0.0046155043
5017,-0.002794033
5018,0.016874194
5019,-0.0013562283
5020,-0.0024047124
5021,-0.0024938968
5022,0.014171535
5023,0.012506627
5024,0.002677346
5025,0.0008790762
5026,0.008733923
5027,-0.013295588
5028,0.01829153
5029,-0.008566165
5030,0.011732078
5031,-0.0023273244
5032,0.0014621186
5033,0.019979097
5034,-0.0053900806
5035,-0.0027269302
5036,0.0008916407
5037,0.0015434702
5038,0.0053776465
5039,-0.008495804
5040,-0.009518138
5041,0.011979108
5042,-0.0023104572
5043,0.004571044
5044,0.013342351
5045,-0.0046375175
5046,-0.0006192549
5047,0.004437591
5048,0.0035614192
5049,0.0054506673
5050,0.01450841
5051,0.009267995
5052,0.0058916113
5053,-0.00044906995
5054,-0.0005684715
5055,-0.0071182083
5056,-0.009651347
5057,-0.002865187
5058,-0.0027328702
5059,-0.010367651
5060,-0.0062701483
5061,0.016329348
5062,0.006571818
5063,-0.0016367474
5064,0.01434207
5065,-0.0039957627
5066,0.012559109
5067,-0.002103863
5068,-0.00525853
5069,-0.014033242
5070,-0.0013894454
5071,0.016712535
5072,-0.013085176
5073,0.00086123904
5074,-0.008972486
5075,0.009660539
5076,-0.011428834
5077,0.012723352
5078,0.013724151
5079,-0.0021590602
5080,0.0091031315
5081,0.0024586236
5082,-0.019820878
5083,0.012586995
5084,0.016471805
5085,0.002312902
5086,0.00950784
5087,0.0026897949
5088,-0.0028529705
5089,0.0050203814
5090,0.0011520494
5091,0.011254256
5092,-0.019930998
5093,-0.011094676
5094,-0.0065059047
5095,-0.01209715
5096,0.00075287756
5097,0.010082965
5098,0.011419824
5099,-0.005535595
5100,0.011503567
5101,-0.016155817
5102,0.015488088
5103,-0.004716241
5104,-0.012823618
5105,0.0046287263
5106,-0.0014984962
5107,-0.010687967
5108,0.0056597823
5109,0.019290183
5110,0.008474224
5111,-0.0063958955
5112,-0.005592197
5113,0.0016404778
5114,-0.0008679325
5115,0.011429093
5116,-0.0037659444
5117,-0.0075960844
5118,0.014369089
5119,-0.0040024226
5120,0.0014296623
5121,-0.004044862
5122,0.01033437
5123,-0.0007104945
5124,-0.0049286177
5125,0.0011128068
5126,0.0079751555
5127,0.016090205
5128,0.0072938553
5129,-0.0013097905
5130,-0.010593308
5131,-0.004816512
5132,-0.004162063
5133,-0.0039946786
5134,0.010160182
5135,0.007924566
5136,-0.01382132
5137,-0.0002829794
5138,0.0060017197
5139,-0.009656634
5140,0.0007370828
5141,-0.015993802
5142,-0.0004827995
5143,-0.0014738594
5144,0.0025689062
5145,0.0043898737
5146,0.016585832
5147,-0.012264956
5148,0.0087969
5149,0.002990605
5150,-0.0135365045
5151,-0.005186619
5152,0.015028905
5153,0.0028909305
5154,-0.003981943
5155,-0.0036662978
5156,-5.0129544e-05
5157,-0.008106475
5158,-0.0007698908
5159,-0.00010904476
5160,0.0036377553
5161,0.008578896
5162,-0.018881088
5163,-0.00029637213
5164,0.0054826974
5165,-0.010386884
5166,-0.003348239
5167,-0.019219398
5168,-0.005577052
5169,-0.013465889
5170,0.00074727513
5171,-0.0027907637
5172,-0.008356879
5173,0.0019185793
5174,-0.0069438815
5175,-0.011805523
5176,0.0026875532
5177,0.0027302748
5178,-0.004091846
5179,-0.0055978736
5180,0.005365429
5181,-0.006968918
5182,-0.0036393907
5183,-0.0086428905
5184,0.0061734705
5185,-0.014441413
5186,0.007665238
5187,-0.013547106
5188,-0.0046898862
5189,-0.012176449
5190,-0.0018006167
5191,0.0060632923
5192,-0.0059941513
5193,-0.0086984215
5194,-0.0012417188
5195,0.00065723585
5196,0.019674458
5197,0.010034835
5198,0.00047608855
5199,-0.015929304
5200,0.006097935
5201,-0.0005634825
5202,-0.008436707
5203,0.014324225
5204,0.0030660385
5205,0.0073434324
5206,0.0034655326
5207,-0.00711691
5208,-0.0039883596
5209,0.0056931204
5210,0.0038909311
5211,-0.005136446
5212,0.014583725
5213,0.010533296
5214,0.008925468
5215,0.010127802
5216,-0.0025218737
5217,0.0021685103
5218,0.0022334307
5219,0.0100602545
5220,0.0058661103
5221,0.0035459334
5222,-0.010054473
5223,0.007500611
5224,0.0046674227
5225,-0.010106818
5226,-0.005027535
5227,0.007452124
5228,0.019771246
5229,0.00048620705
5230,-0.007870619
5231,-0.009514993
5232,0.002506356
5233,0.008104918
5234,0.011319153
5235,-0.009022519
5236,-0.008236305
5237,-0.0066398205
5238,-0.0013839724
5239,0.0056882356
5240,0.012454046
5241,0.0025245915
5242,-0.008099951
5243,-0.0132695995
5244,0.01237638
5245,0.0023453103
5246,0.009120327
5247,0.0019513101
5248,-0.0030673184
5249,-0.0045198947
5250,0.0024384814
5251,0.0141958315
5252,-0.011164735
5253,0.0055319555
5254,0.012346439
5255,0.00083587586
5256,0.007444486
5257,-0.010921847
5258,-0.018863441
5259,-0.0020160894
5260,-0.0038326904
5261,-0.004071075
5262,0.01914831
5263,-0.004656859
5264,0.0035715366
5265,-0.015997738
5266,-0.0023327167
5267,-0.013459736
5268,0.0044895383
5269,0.010927958
5270,-0.006163598
5271,-0.006184253
5272,0.013778058
5273,0.004028209
5274,-0.00090943224
5275,0.00034194218
5276,0.0018846977
5277,-0.018143514
5278,0.004432442
5279,-0.006640918
5280,0.0031522126
5281,-0.00625081
5282,-0.015445398
5283,-0.017296439
5284,0.003560284
5285,-0.005541873
5286,0.0117685925
5287,-0.006297017
5288,0.013247119
5289,0.0042708176
5290,-0.0009808665
5291,-0.0076640844
5292,-0.0009274833
5293,0.0002979755
5294,0.008035331
5295,0.0012484528
5296,0.010374114
5297,0.0020013552
5298,-0.005550264
5299,0.0114991525
5300,0.010191422
5301,0.012929621
5302,-0.00014450027
5303,0.0046255826
5304,0.0012254658
5305,0.0050323014
5306,-0.012746888
5307,-0.00976601
5308,0.007035505
5309,0.006731681
5310,0.0012787746
5311,-0.0030561294
5312,-0.004253673
5313,0.013455045
5314,0.013263092
5315,0.0014895108
5316,-0.0065137283
5317,0.004134815
5318,0.0018858741
5319,0.008122785
5320,0.004161973
5321,0.01081621
5322,0.004075345
5323,0.005272711
5324,0.012692285
5325,0.0029035297
5326,0.015183467
5327,-0.0014414167
5328,0.006118108
5329,0.002281761
5330,-0.004275612
5331,0.008018999
5332,0.019623112
5333,0.0067624166
5334,-0.0092399325
5335,-0.013668486
5336,0.00071404164
5337,0.008573394
5338,-0.013635146
5339,-0.0019527718
5340,0.0016853496
5341,0.017904019
5342,-0.012135815
5343,-0.0024075503
5344,-0.006794038
5345,-0.001150096
5346,0.012419655
5347,-0.012757277
5348,-0.00026183855
5349,-0.00785175
5350,0.010307245
5351,0.014775153
5352,-0.010095444
5353,-0.01073326
5354,0.0031603093
5355,-0.01690266
5356,-0.0076112645
5357,-0.0031319673
5358,-0.01228079
5359,0.0024778503
5360,0.0044330717
5361,-0.0023864422
5362,-0.0029087665
5363,-0.012192254
5364,-0.01518697
5365,-0.004062525
5366,-0.008301336
5367,-0.01636137
5368,0.014585341
5369,0.0025047725
5370,-0.006549708
5371,-0.0009328687
5372,0.014314789
5373,-0.011605048
5374,-0.013934689
5375,0.0064037135
5376,0.011737759
5377,0.002303419
5378,0.011484839
5379,0.0085510425
5380,0.00067836966
5381,-0.0037532572
5382,0.005778898
5383,0.00088832853
5384,-0.009194431
5385,0.011754223
5386,0.0022942615
5387,0.011602838
5388,-0.002329252
5389,-0.0020957855
5390,0.011620548
5391,0.0028273964
5392,0.01843988
5393,0.0013755672
5394,0.0003796223
5395,0.0010166776
5396,0.008739587
5397,-0.0010702142
5398,0.015596209
5399,-0.010394194
5400,0.008276984
5401,0.0053257314
5402,-0.01103747
5403,-0.014963493
5404,-0.012813604
5405,0.012200703
5406,0.01090114
5407,0.0025073306
5408,0.002203794
5409,-0.013491941
5410,-0.0077370154
5411,-0.008887333
5412,0.0008317133
5413,-0.0117381355
5414,0.009655966
5415,-0.0007360347
5416,0.0081351735
5417,0.0012600728
5418,0.011609895
5419,-0.012937859
5420,-0.0054159076
5421,0.008586913
5422,-0.0035674267
5423,-0.009919268
5424,0.012025589
5425,-0.005655855
5426,0.019664027
5427,0.007893895
5428,0.016423019
5429,0.0012819587
5430,-0.0064403075
5431,-0.0039703194
5432,0.013389943
5433,0.0076121544
5434,0.010351226
5435,0.0072376216
5436,0.0035545367
5437,-0.003177096
5438,0.0040303175
5439,0.0034626366
5440,-0.0029528304
5441,-0.010951779
5442,-0.0014176677
5443,-0.01048064
5444,-0.00585066
5445,0.0057697985
5446,0.00041555325
5447,-0.0076135974
5448,0.010064001
5449,-0.001913919
5450,-0.0047436184
5451,-0.010158707
5452,0.0053648655
5453,-0.0024990283
5454,0.0022236898
5455,0.0041975854
5456,-0.003153109
5457,0.011319476
5458,-0.012001082
5459,0.0074651567
5460,0.014045475
5461,0.004409635
5462,-0.009215257
5463,-0.003187146
5464,0.007036472
5465,0.0011959866
5466,0.015442758
5467,0.008504834
5468,-0.009062048
5469,0.015033007
5470,0.004321551
5471,0.01341803
5472,-0.01433373
5473,-0.004289792
5474,0.015995659
5475,0.008842191
5476,0.019596213
5477,-0.0140451295
5478,0.006051943
5479,-0.0037765978
5480,0.0032495135
5481,0.008262033
5482,0.0067706904
5483,-0.002993788
5484,0.0049665887
5485,-0.0025033427
5486,-0.0012856192
5487,-0.00704547
5488,0.009774818
5489,0.0019045599
5490,-0.0032797328
5491,0.016002415
5492,-0.016834268
5493,0.0036234297
5494,-0.013846143
5495,-0.011975111
5496,0.01139885
5497,-0.0067407778
5498,-0.0063606915
5499,-0.010420019
5500,0.002721075
5501,-0.0017760214
5502,0.0023804982
5503,-0.008177322
5504,-0.0014878744
5505,0.01624564
5506,0.000877086
5507,-0.0018347015
5508,-0.0034068746
5509,-0.010285854
5510,-0.006617915
5511,-0.0016616575
5512,-0.0052443463
5513,-0.0019283278
5514,0.01873347
5515,-0.0006858977
5516,-0.0016714227
5517,-0.010577804
5518,0.0048577497
5519,-0.007281724
5520,-0.0020658155
5521,0.0029361027
5522,-0.005838925
5523,-0.0020378719
5524,-0.0026437943
5525,-0.00788618
5526,-0.010867379
5527,0.010284571
5528,-8.145552e-05
5529,0.013644844
5530,0.008973071
5531,-0.0048486697
5532,0.010247769
5533,-0.003380244
5534,-0.0003016755
5535,-0.010732318
5536,-0.0062860516
5537,-0.008656083
5538,-0.0023027363
5539,-0.008526473
5540,-0.0067378962
5541,-0.011741311
5542,0.013941566
5543,-0.019867167
5544,-0.009679344
5545,-0.016416378
5546,0.0061798804
5547,0.011298251
5548,0.004301817
5549,0.005292664
5550,0.0030372557
5551,-0.005195359
5552,0.002382631
5553,0.0005547687
5554,0.0005840183
5555,-0.009668216
5556,-0.018402344
5557,-0.007856421
5558,0.0018250583
5559,-0.0062281676
5560,-0.009679813
5561,-0.012087749
5562,4.6230136e-05
5563,-5.830421e-05
5564,0.017119538
5565,-0.002646705
5566,0.0017457188
5567,-0.0053659203
5568,0.0134522095
5569,0.0049765194
5570,-0.010137114
5571,-0.0062850025
5572,0.0026835904
5573,-0.011306838
5574,-0.012763463
5575,-0.0170334
5576,-0.00877343
5577,0.009889107
5578,0.0052475566
5579,0.0017822749
5580,0.014111752
5581,0.0023434716
5582,0.005475949
5583,0.0031054579
5584,-0.0005420569
5585,0.01162705
5586,-0.0045992117
5587,-0.0072612124
5588,0.004445454
5589,-0.0112397205
5590,0.0024791672
5591,-0.017732661
5592,0.008139816
5593,0.0053511243
5594,-0.0028901473
5595,-0.008607307
5596,0.009144058
5597,-0.005763463
5598,0.017271852
5599,0.005712293
5600,-0.009442563
5601,0.016998515
5602,-0.006656435
5603,0.0061304327
5604,0.012338203
5605,-0.0021253529
5606,-0.00033806966
5607,0.01597066
5608,-0.0015248875
5609,-0.010295134
5610,-0.0013616951
5611,0.0016926042
5612,0.010392454
5613,0.008130022
5614,-0.0052732076
5615,0.0031068926
5616,0.0014562446
5617,-0.005769168
5618,0.004482291
5619,0.012023145
5620,-0.0039509367
5621,-0.014380712
5622,0.013559026
5623,0.0075594895
5624,0.000512885
5625,-0.0022899653
5626,-0.0017559786
5627,0.0067926543
5628,0.010663093
5629,0.0064538643
5630,-0.008973134
5631,0.000764474
5632,-0.00062306155
5633,0.010745528
5634,-0.01563873
5635,0.0065028537
5636,-0.00016591095
5637,-0.005441435
5638,0.0028957613
5639,0.0038117012
5640,0.007228483
