Episode,Weight
0,-0.04454648
1,0.024861721
2,-0.029989975
3,-0.033113156
4,0.07407308
5,-0.1095662
6,0.032238603
7,0.03186068
8,-0.047237568
9,0.05538181
10,0.05039712
11,0.041091274
12,-0.0010771645
13,-0.0037308112
14,0.058167297
15,-0.039119646
16,-0.0060478924
17,-0.030760836
18,0.0041441554
19,0.041400313
20,-0.03546292
21,-0.021000417
22,-0.0058291806
23,0.05826701
24,0.03743982
25,-0.04391436
26,-0.024550742
27,0.041305255
28,0.03731973
29,-0.02507642
30,0.04880761
31,0.011647708
32,-0.0023379147
33,-0.052813537
34,-0.040542953
35,-0.006685213
36,-0.035032783
37,0.047712497
38,0.037246045
39,0.04080976
40,-0.039268754
41,-0.059662435
42,-0.042227823
43,0.09671494
44,-0.029112935
45,0.026298406
46,-0.0096424585
47,0.038510744
48,0.03538821
49,-0.018618984
50,-0.033766463
51,-0.003939388
52,0.03186343
53,0.020067599
54,0.018962089
55,0.043152377
56,-0.05568646
57,0.033596795
58,0.018609934
59,-0.10294071
60,-0.027502984
61,-0.07414144
62,0.023108931
63,-0.011904634
64,0.035300434
65,0.06234431
66,0.024626771
67,0.021629771
68,0.024969095
69,-0.006602956
70,-0.023137843
71,-0.05266955
72,-0.06630848
73,0.018691896
74,0.040518515
75,0.027829014
76,-0.023980936
77,0.060763177
78,-0.03965072
79,-0.07117079
80,0.03279672
81,0.061756
82,-0.032266017
83,0.053734683
84,0.039638776
85,-0.051013973
86,0.038738962
87,0.009207202
88,-0.054649066
89,0.035912775
90,0.046697
91,0.020325422
92,0.027683973
93,0.031753905
94,-0.023556579
95,0.04242115
96,-0.013076906
97,0.049289558
98,0.033577856
99,-0.05388415
100,0.026541574
101,-0.014823075
102,0.025952328
103,-0.019892558
104,-0.044664007
105,-0.014454051
106,-0.13834272
107,0.015994372
108,0.013092072
109,0.027810995
110,-0.003091243
111,-0.0071150204
112,-0.025985064
113,0.042430658
114,0.018227164
115,-0.06268484
116,-0.029371923
117,0.032143127
118,0.04258387
119,-0.046614587
120,-0.035117973
121,0.06709087
122,0.033934303
123,-0.06430941
124,-0.00016405713
125,-0.06088043
126,-0.036254443
127,-0.10013939
128,-0.044736203
129,0.016902303
130,0.0077847885
131,0.0078015057
132,0.018502522
133,-0.10910717
134,0.025260191
135,0.015759746
136,0.03609152
137,0.034000527
138,-0.024060091
139,0.05179659
140,0.031194301
141,0.014407112
142,-0.019343762
143,0.07530444
144,-0.022591287
145,0.05040199
146,0.07833482
147,0.0309743
148,0.011497214
149,-0.06695551
150,0.041137382
151,-0.07275726
152,0.041031893
153,0.04361093
154,-0.03950267
155,0.018253354
156,0.053817477
157,-0.05796879
158,0.011814416
159,0.012084251
160,-0.0027088148
161,0.03333848
162,0.035944
163,-0.005907055
164,-0.061846122
165,-0.073673144
166,0.030129187
167,0.013333331
168,0.09736973
169,-0.008101448
170,-0.035967544
171,0.024968911
172,-0.002582216
173,0.057707395
174,-0.0058237202
175,0.021326188
176,0.043483794
177,-0.07190218
178,0.008094294
179,-0.011025065
180,0.0053599724
181,0.05363014
182,0.057597443
183,0.04311891
184,0.04796861
185,0.056120787
186,0.049815662
187,-0.1032607
188,0.05850757
189,0.02341925
190,0.047144674
191,-0.0001669328
192,0.045439098
193,-0.010874539
194,0.007645195
195,0.06636006
196,-0.0049332003
197,-0.05841619
198,-0.023275796
199,-0.015216634
200,0.014630577
201,0.024577774
202,0.056566473
203,0.037401456
204,-0.0068738754
205,-0.05763834
206,0.021784566
207,0.0032176806
208,0.03211772
209,-0.06481484
210,-0.031804033
211,-0.062376622
212,0.06763186
213,0.041327357
214,0.05773831
215,0.044503644
216,-0.0058195735
217,0.021932987
218,0.042407032
219,0.040607043
220,0.03290585
221,0.014603592
222,0.052636266
223,-0.07729948
224,-0.017470809
225,0.04510491
226,0.047311053
227,0.03008117
228,0.04848045
229,-0.053698868
230,0.050774485
231,0.055413116
232,-0.03468696
233,0.038482748
234,0.1929931
235,0.03166815
236,0.05075974
237,-0.085701615
238,0.074903995
239,0.041641913
240,0.049624555
241,0.028850298
242,0.041901223
243,-0.0014321882
244,0.067688346
245,0.027030962
246,0.036930252
247,0.043977257
248,0.007633596
249,0.019358002
250,-0.010107668
251,0.03029212
252,0.0574642
253,-0.00406665
254,0.017230466
255,-0.09962334
256,-0.04436474
257,-0.0043236283
258,0.044984378
259,0.030866258
260,-0.017264308
261,0.078854896
262,0.046831165
263,-0.024189545
264,0.032841064
265,-0.060394526
266,-0.060486503
267,-0.016371448
268,0.03312945
269,-0.010422526
270,0.0040576556
271,-0.039481808
272,-0.060507547
273,0.0011029062
274,-0.05079369
275,-0.035687275
276,0.01920772
277,0.089640066
278,0.016812138
279,-0.047169745
280,-0.010754226
281,0.02995454
282,0.07649417
283,0.0025622412
284,0.026279457
285,-0.058327083
286,-0.033586368
287,0.012814492
288,-0.009811395
289,0.002869532
290,0.006360247
291,-0.0068156184
292,-0.08025489
293,0.010784428
294,-0.021352166
295,0.021821251
296,-0.026134493
297,-0.009108663
298,-0.056677893
299,-0.011021625
300,0.03306861
301,0.008696994
302,-0.0041594775
303,0.028024552
304,-0.0053840475
305,-0.071830906
306,0.03283854
307,-0.0110104205
308,-0.041775696
309,0.025581714
310,-0.0037555275
311,0.015954275
312,0.016619721
313,-0.050347842
314,0.005965314
315,0.05828916
316,-0.045472715
317,0.034019075
318,-0.022781096
319,0.039113652
320,-0.018866569
321,0.010351727
322,0.008652969
323,-0.03498431
324,0.033467617
325,0.06064774
326,0.045380574
327,-0.051737174
328,0.04215383
329,0.0191666
330,-0.012084817
331,0.041940592
332,0.0016231787
333,-0.05853377
334,0.025131978
335,0.033208832
336,0.010703268
337,-0.016080298
338,0.009382257
339,0.038167726
340,-0.010780051
341,0.06047581
342,0.047326993
343,0.024928795
344,-0.0055902964
345,0.019201107
346,0.0056895395
347,0.035182443
348,0.025466824
349,0.028730618
350,0.04298653
351,-0.05561523
352,-0.013185252
353,0.012657594
354,-0.0067225355
355,-0.06413197
356,-0.0012806642
357,0.057220742
358,0.019497331
359,-0.027050974
360,0.05775206
361,-0.024978785
362,-0.021617984
363,0.036007695
364,-0.012018626
365,0.012108945
366,-0.0769141
367,0.038059406
368,-0.071391486
369,-0.055358995
370,-0.00058282574
371,0.066380985
372,-0.046442017
373,0.006808203
374,0.00986646
375,-0.008129528
376,0.019461963
377,-0.017259458
378,-0.003926142
379,-0.0031739515
380,-0.025396215
381,-0.0034071687
382,0.017628528
383,0.12719654
384,0.0009176276
385,-0.03692355
386,0.02021001
387,0.01864696
388,-0.017415274
389,0.030009018
390,-0.010576783
391,0.015120832
392,0.0052761664
393,-0.024345864
394,-0.030633925
395,-0.020605732
396,0.01282676
397,-0.03183995
398,-0.00832615
399,0.00011667641
400,-0.059552528
401,-0.013107287
402,0.013833506
403,-0.012775493
404,0.046177916
405,-0.044997726
406,0.0076371557
407,-0.07273589
408,0.004488886
409,0.008472353
410,0.06157039
411,-0.017824423
412,0.015737848
413,-0.057668652
414,-0.0074225888
415,0.020456946
416,-0.004287989
417,0.0072546266
418,0.013990852
419,-0.014196506
420,-0.07992312
421,-0.056343406
422,0.022304652
423,0.017758405
424,-0.003960712
425,0.05265783
426,-0.0562774
427,-0.015512884
428,-0.006708434
429,-0.0369287
430,-0.0076344595
431,-0.0029130767
432,0.01875842
433,0.0697218
434,-0.032894794
435,-0.0069675203
436,0.034465358
437,0.013562544
438,-0.0027301782
439,0.0016736662
440,-0.054296687
441,-0.0497418
442,0.030432504
443,0.14662126
444,0.023833757
445,0.023277165
446,0.02113613
447,-0.029172048
448,-0.008772257
449,-0.010834303
450,0.011063003
451,-0.0013377774
452,-0.031140726
453,0.055942897
454,-0.02989223
455,-0.05172787
456,0.02308964
457,-0.003101699
458,-0.013858507
459,0.009569264
460,0.016748993
461,-0.02281532
462,0.036348946
463,0.0175491
464,0.0020759902
465,-0.06515626
466,0.021820083
467,-0.0491348
468,-0.0038793692
469,-0.020450613
470,0.035100065
471,0.02047276
472,0.06395581
473,-0.030991254
474,0.018463397
475,0.021253645
476,-0.021874707
477,-0.0023940182
478,0.015113443
479,0.0043089036
480,-0.0003961448
481,-0.03410976
482,-0.010310818
483,0.04386079
484,-0.009701919
485,0.059150275
486,-0.015173678
487,-0.00846072
488,0.033010036
489,-0.003351596
490,-0.0069538336
491,0.005061644
492,0.008326397
493,-0.054288726
494,-0.07681443
495,0.0097170845
496,0.017468184
497,-0.0014037727
498,0.0025766941
499,-0.009462072
500,-0.046582043
501,-0.006234904
502,-0.017901346
503,0.0024876716
504,0.03057485
505,-0.014503475
506,0.00070244935
507,0.023657558
508,-0.03669438
509,0.0630032
510,0.030301537
511,0.07754664
512,-0.012219153
513,-0.0353633
514,-0.045838505
515,0.030555576
516,-0.021722289
517,0.038438283
518,-0.012653874
519,0.0050806017
520,-0.0063858894
521,-0.0059929327
522,-0.05123069
523,-0.020076524
524,0.020849938
525,0.026822267
526,-0.04295331
527,0.015353866
528,0.04659909
529,-0.006768571
530,-0.05137356
531,0.0070622424
532,0.033217024
533,-0.050722156
534,0.01771937
535,-0.028566755
536,-0.014540194
537,-0.028074857
538,-0.03953292
539,-0.018364597
540,0.021224326
541,0.05476365
542,-0.0403548
543,0.033615343
544,-0.0012756006
545,-0.0108146705
546,0.009730849
547,-0.010123693
548,-0.079903334
549,-0.042534508
550,0.02584008
551,0.017623903
552,-0.009631747
553,0.0346189
554,0.057319336
555,-0.01638381
556,0.0013962465
557,-0.013523329
558,-0.0032238064
559,-0.016097913
560,0.0024114763
561,-0.07224031
562,-0.0019286349
563,-0.012245921
564,-0.041859645
565,-0.025653929
566,0.00041362783
567,-0.020000402
568,0.016480075
569,-0.0077760434
570,0.011137261
571,0.04386792
572,-0.045115314
573,-0.0528496
574,0.007870103
575,0.029427566
576,-0.010521522
577,-0.038209938
578,0.009602271
579,-0.0009783716
580,-0.05098119
581,-0.052180998
582,0.017297767
583,0.05056769
584,0.01629753
585,0.0012800018
586,-0.024437971
587,0.0091491565
588,0.037497204
589,-0.020299282
590,-0.039299976
591,0.040388756
592,-0.019011533
593,-0.06498131
594,0.0392579
595,0.010909242
596,-0.03098162
597,-0.040264215
598,-0.003898461
599,0.009116445
600,0.06578051
601,-0.013440859
602,0.008016397
603,0.00026399968
604,-0.010448177
605,0.0027343926
606,0.014605145
607,0.0028540315
608,-0.007125453
609,-0.027879523
610,-0.004209342
611,0.059983425
612,0.011846679
613,-0.002435778
614,-0.0070716776
615,0.028569834
616,0.034627933
617,-0.009910342
618,-0.039757702
619,0.028366545
620,0.010054797
621,-0.029582437
622,0.018644778
623,0.014103333
624,0.018203514
625,-0.055468746
626,-0.011603169
627,0.0046428135
628,-0.046316486
629,-0.018580353
630,0.014838337
631,-0.0014886508
632,0.008359542
633,-0.019524125
634,0.028232405
635,0.019854177
636,-0.03787729
637,0.0031832536
638,-0.041027594
639,0.030856187
640,0.033145048
641,-0.031858917
642,0.029809354
643,0.02646007
644,-0.033686783
645,-0.016379245
646,-0.01586648
647,-0.0012220967
648,0.010510003
649,0.005309574
650,-0.06071132
651,-0.02071837
652,0.010574571
653,-0.020043492
654,-0.0435031
655,-0.039602723
656,-0.060536683
657,0.0011664204
658,-0.008045728
659,0.0037453675
660,-0.0035752035
661,-0.067193024
662,-0.02792347
663,-0.07282194
664,-0.020015601
665,0.0125099905
666,-0.026289696
667,-0.018114975
668,0.029516807
669,-0.057005864
670,-0.02614828
671,0.022661192
672,-0.0013553561
673,-0.0120480005
674,0.014303752
675,-0.008681422
676,0.06847667
677,-0.051011417
678,-0.0015409365
679,-0.015105101
680,-0.055834204
681,0.022397155
682,-0.05638363
683,-0.016235221
684,-0.016998202
685,-0.03706951
686,-0.002461139
687,-0.020950256
688,-0.0070514935
689,-0.0569586
690,-0.02601432
691,-0.008167847
692,0.026636008
693,-0.023041174
694,-0.0015556971
695,-0.022172602
696,-0.009028931
697,-0.047677133
698,0.0071444986
699,-0.016498141
700,-0.016224952
701,0.020488137
702,0.014698796
703,-0.02493363
704,-0.012936416
705,-0.028851757
706,-0.0024255887
707,-0.007735138
708,-0.048401404
709,-0.056689993
710,-0.008295775
711,-0.052564975
712,0.027950734
713,-0.028331507
714,0.0026642897
715,0.0012772828
716,0.017030122
717,0.022913625
718,0.023960857
719,0.034768328
720,-0.038178474
721,-0.024970379
722,0.01729256
723,0.01010557
724,-0.011066076
725,-0.05118791
726,0.0043568285
727,0.0055721183
728,-0.014401221
729,-0.021030143
730,0.004664091
731,0.012030883
732,-0.017887406
733,-0.01904255
734,-0.0022958494
735,-0.077125
736,0.0018026588
737,-0.025324956
738,-0.0038722693
739,0.004145891
740,0.034106437
741,0.008996419
742,-0.01960424
743,0.014778176
744,-0.041553367
745,-0.014162195
746,-0.055228215
747,0.028281638
748,0.010229915
749,-0.048759155
750,-0.07219763
751,0.017858528
752,-0.00628876
753,-0.04849953
754,-0.011316539
755,0.014322065
756,0.043693826
757,-0.006125156
758,0.0066579413
759,-0.020302363
760,-0.03578466
761,-0.017182648
762,0.024620935
763,0.0014966958
764,-0.038162652
765,-0.0064972793
766,-0.01474388
767,-0.0252842
768,-0.038410988
769,-0.03340356
770,-0.0021105239
771,-0.008365525
772,-0.03372021
773,-0.034690384
774,-0.026493104
775,-0.009375578
776,-0.030012133
777,-0.025875416
778,0.0040819594
779,-0.03526804
780,-0.009991427
781,0.005239283
782,-0.027925191
783,-0.020635271
784,-0.060471993
785,-0.030659974
786,-0.033142623
787,-0.011582714
788,-0.004094059
789,0.025461728
790,-0.015459453
791,-0.045109123
792,-0.02633263
793,-0.014347754
794,-0.039369527
795,-0.02533335
796,-0.005949694
797,-0.03628974
798,-0.019710781
799,-0.02860697
800,-0.00056414993
801,-0.026867501
802,-0.019254116
803,-0.010342259
804,-0.080257945
805,0.00052004005
806,-0.02842322
807,-0.013011194
808,-0.019964304
809,0.00854437
810,-0.040100038
811,-0.0035206128
812,-0.02424991
813,-0.023423223
814,-0.004572732
815,-0.015598234
816,-0.025274562
817,-0.044976603
818,-0.034718655
819,-0.00723468
820,-0.042444583
821,-0.04451672
822,-0.019643666
823,-0.027785435
824,-0.019087622
825,-0.018971693
826,-0.0057289274
827,0.014915404
828,-0.013051752
829,-0.01829902
830,0.0025041432
831,-0.027915685
832,-0.023304807
833,-0.038377583
834,-0.029167127
835,-0.011511239
836,-0.049061984
837,-0.057967156
838,-0.022267459
839,-0.05196064
840,-0.012898698
841,-0.018132705
842,-0.026261242
843,-0.028242454
844,-0.045959458
845,0.029450638
846,-0.021103224
847,0.028433498
848,-0.037844155
849,-0.06473889
850,-0.0077146096
851,-0.062332634
852,-0.027967433
853,-0.00390787
854,-0.015688345
855,-0.021114668
856,-0.007816647
857,-0.012912748
858,-0.03644377
859,-0.020872628
860,-0.029744169
861,-0.03239634
862,-0.016689872
863,-0.0772552
864,-0.0029682338
865,-0.03818481
866,-0.03549597
867,0.0036818653
868,-0.00930867
869,-0.04327067
870,-0.042678777
871,-0.027910884
872,-0.033995047
873,-0.010640175
874,-0.03272561
875,-0.010769711
876,-0.009587503
877,-0.0856831
878,-0.028411292
879,-0.012509557
880,-0.007799763
881,-0.018084168
882,-0.03664956
883,0.041092645
884,-0.00017210077
885,-0.008128338
886,-0.015705258
887,-0.031151945
888,-0.03456109
889,-0.009230195
890,-0.01913331
891,0.0024313075
892,-0.038567383
893,0.007951134
894,-0.042346254
895,0.003462986
896,-0.013668572
897,-0.037860148
898,-0.022886187
899,-0.03255346
900,-0.034316923
901,-0.07156697
902,-0.046629045
903,-0.041508444
904,-0.046334304
905,-0.061124157
906,0.005790505
907,-0.013002222
908,-0.044608496
909,-0.03219335
910,-0.031397093
911,-0.039594885
912,-0.018140297
913,-0.030048663
914,-0.051510476
915,-0.0028536245
916,-0.05467089
917,-0.066765025
918,-0.036707923
919,-0.035844687
920,-0.04810224
921,-0.04343625
922,-0.040171683
923,-0.025734965
924,-0.03978035
925,-0.018543964
926,-0.04058129
927,-0.020389369
928,0.0015537466
929,-0.052069943
930,-0.04340919
931,-0.008574325
932,-0.05689116
933,-0.033790108
934,-0.036086872
935,-0.042097524
936,-0.027067441
937,-0.004728427
938,-0.031168403
939,-0.01607993
940,-0.044052895
941,-0.007201797
942,-0.0019198686
943,-0.039739005
944,-0.03455218
945,-0.04953484
946,-0.034981746
947,-0.0047682296
948,-0.04226837
949,-0.043790095
950,-0.03823853
951,-0.026729241
952,0.0051933345
953,0.00054202595
954,-0.049396932
955,-0.033522967
956,-0.04564628
957,-0.01819016
958,-0.033361856
959,-0.01972436
960,-0.033745434
961,-0.038157675
962,-0.05671212
963,-0.049034428
964,-0.051029075
965,-0.05853824
966,-0.03412735
967,-0.01453922
968,-0.032238815
969,-0.030261002
970,-0.03503031
971,-0.043608762
972,-0.04575714
973,-0.026264472
974,-0.013386702
975,-0.07089545
976,-0.040753465
977,-0.06457596
978,-0.0450983
979,-0.03059655
980,-0.034181606
981,0.008693796
982,-0.04338727
983,-0.048050806
984,-0.006044566
985,-0.038663052
986,-0.017186841
987,-0.055442866
988,-0.04119265
989,-0.049881697
990,-0.04199904
991,-0.040693797
992,-0.0072881724
993,-0.052292075
994,-0.03481853
995,-0.018485332
996,-0.049723387
997,-0.04889621
998,-0.045277167
999,-0.027572012
1000,-0.029598722
1001,-0.03945015
1002,-0.06241874
1003,-0.043880217
1004,-0.044187717
1005,-0.078737214
1006,-0.03324624
1007,-0.03538543
1008,-0.027436359
1009,-0.021552905
1010,-0.020345183
1011,0.011558176
1012,-0.04686956
1013,-0.038018882
1014,-0.039989106
1015,-0.048700158
1016,-0.03515902
1017,-0.03189361
1018,-0.032993942
1019,-0.049493637
1020,-0.03622346
1021,0.010286088
1022,-0.041796513
1023,-0.062492397
1024,-0.014627995
1025,-0.037471656
1026,-0.03665888
1027,-0.03302652
1028,-0.03383639
1029,0.028594965
1030,-0.04627244
1031,-0.017226536
1032,0.0074702604
1033,-0.03711931
1034,-0.031065946
1035,-0.027210679
1036,-0.039076753
1037,-0.016904082
1038,-0.028172838
1039,-0.027301963
1040,-0.01593497
1041,-0.024195027
1042,-0.019212028
1043,-0.01676195
1044,-0.038831603
1045,0.019902484
1046,-0.03505663
1047,-0.064740546
1048,-0.026382245
1049,-0.027260177
1050,-0.026635505
1051,-0.022416573
1052,-0.040561184
1053,-0.017570453
1054,-0.016951945
1055,-0.029043324
1056,0.0023678518
1057,-0.025941486
1058,-0.024339065
1059,-0.0054096673
1060,0.014231256
1061,-0.03429675
1062,-0.013831201
1063,-0.030863514
1064,-0.026800368
1065,-0.008812738
1066,-0.015470202
1067,-0.007838007
1068,-0.029418228
1069,-0.022356577
1070,-0.002042777
1071,-0.017470606
1072,-0.032742586
1073,0.044509787
1074,-0.031115627
1075,-0.0008018676
1076,-0.041547343
1077,-0.027836218
1078,-0.03251556
1079,-0.027952064
1080,-0.01439631
1081,-0.024599295
1082,-0.046881836
1083,-0.055393886
1084,-0.011720547
1085,-0.019855417
1086,-0.023460343
1087,-0.022192508
1088,-0.016893687
1089,-0.038091667
1090,-0.026868291
1091,-0.015875878
1092,-0.023752853
1093,-0.008752423
1094,-0.029973913
1095,-0.022213774
1096,-0.034525108
1097,-0.017727008
1098,-0.025331387
1099,-0.035076402
1100,-0.03190511
1101,-0.029646102
1102,-0.03513296
1103,-0.008733117
1104,-0.025698453
1105,-0.044321526
1106,-0.034689795
1107,-0.033270665
1108,-0.033404447
1109,-0.042889465
1110,-0.028340345
1111,-0.022939732
1112,-0.0056624836
1113,-0.037505925
1114,-0.0394294
1115,-0.03867089
1116,-0.024262382
1117,-0.045291662
1118,-0.041592177
1119,-0.04649665
1120,0.0030509634
1121,-0.034009118
1122,-0.019237552
1123,-0.020860124
1124,-0.02666308
1125,-0.044208247
1126,-0.034817502
1127,-0.011506466
1128,-0.03669583
1129,-0.031966094
1130,0.0266828
1131,-0.024386622
1132,-0.034505617
1133,-0.0361365
1134,-0.03582204
1135,-0.03509373
1136,-0.024250595
1137,-0.030280951
1138,-0.036535047
1139,-0.0030621851
1140,-0.020627921
1141,0.023654956
1142,-0.03207358
1143,-0.028607067
1144,-0.035100035
1145,-0.017205624
1146,-0.019410795
1147,-0.028412685
1148,0.011636904
1149,0.012581356
1150,-0.034060236
1151,-0.06920725
1152,-0.011465592
1153,-0.014249907
1154,-0.000121202
1155,-0.00057397597
1156,-0.008751986
1157,-0.014066372
1158,-0.007033815
1159,-0.0066590793
1160,-0.002307925
1161,-0.0027701599
1162,0.0119930245
1163,0.0054974756
1164,-0.015930643
1165,0.004375995
1166,-0.0132176485
1167,0.008729531
1168,-0.00909056
1169,-0.0042455057
1170,0.02048095
1171,0.012382512
1172,0.0038569535
1173,-0.00065244775
1174,-0.000988745
1175,0.014714633
1176,-0.0012865921
1177,-0.0060733724
1178,0.0028838704
1179,0.006842604
1180,0.013012886
1181,0.0032066675
1182,0.011986581
1183,-0.0101429345
1184,0.014289646
1185,0.0018496102
1186,0.0034458397
1187,0.01120264
1188,-0.00023446268
1189,-0.0024101273
1190,-0.009329984
1191,0.015372468
1192,-0.0013410836
1193,-0.020233916
1194,0.000590391
1195,0.015126703
1196,0.0048559993
1197,0.015868597
1198,-0.006577113
1199,-0.015227388
1200,0.016401308
1201,-0.005576627
1202,-0.0031024164
1203,0.015787762
1204,-0.004194206
1205,0.017118672
1206,0.008223175
1207,0.009558925
1208,0.00306521
1209,-0.014441518
1210,-0.011060327
1211,0.013391224
1212,0.006008984
1213,0.0121029
1214,0.0027182717
1215,-0.0033753333
1216,0.020593738
1217,0.00545116
1218,0.007631497
1219,-0.0073294286
1220,0.02014625
1221,0.0068827514
1222,-0.0038596198
1223,-0.00504246
1224,-0.0019984432
1225,0.016687192
1226,0.0035330218
1227,0.014189651
1228,0.01565438
1229,-0.0043793884
1230,-0.012201852
1231,-0.0012320675
1232,0.0043161293
1233,0.006457867
1234,0.016695878
1235,-0.004047668
1236,0.0053995457
1237,-0.00068091106
1238,0.0145532545
1239,-0.004455462
1240,0.011648699
1241,0.0067127263
1242,0.012359653
1243,-0.0014082396
1244,0.01195108
1245,-0.00095534796
1246,0.012891456
1247,0.0026843613
1248,-0.0064543015
1249,0.016217053
1250,0.013459727
1251,-0.01708702
1252,0.0010373238
1253,-0.0067474646
1254,0.010501228
1255,0.006177805
1256,0.014139144
1257,-0.020084703
1258,0.0033146183
1259,0.0027496917
1260,0.014392698
1261,0.007382835
1262,0.012092004
1263,-0.0061523914
1264,0.013227796
1265,0.012084071
1266,0.008921783
1267,-0.0013369063
1268,-0.006371824
1269,0.0066674617
1270,-0.0018294174
1271,0.0010791462
1272,-0.010072629
1273,-0.0049131964
1274,0.0011552826
1275,-0.00029946404
1276,0.011321999
1277,-0.0034276135
1278,0.0027447343
1279,-0.011661108
1280,0.0068037794
1281,0.00072820514
1282,-0.007288209
1283,0.01549999
1284,-0.013169338
1285,-0.009627423
1286,0.011249372
1287,-0.014016976
1288,0.007843488
1289,0.00852355
1290,-0.005203961
1291,0.011422146
1292,-0.0012685952
1293,-0.0010166202
1294,-0.00486626
1295,-0.014239556
1296,-0.005121383
1297,-0.0014002649
1298,-0.0051619858
1299,0.008151778
1300,-0.0069347043
1301,-0.01733573
1302,0.013341367
1303,0.0043916935
1304,0.0005034631
1305,0.0061855153
1306,0.001283957
1307,-0.0013164805
1308,-0.0056437734
1309,0.00014042959
1310,-0.014728723
1311,0.012638773
1312,0.018684395
1313,0.008111767
1314,0.014231051
1315,0.0020316031
1316,0.0033155566
1317,-0.014928597
1318,-0.0004955304
1319,0.011695871
1320,-0.010295107
1321,0.0058185486
1322,-0.00904477
1323,-0.0003788967
1324,-0.0069437493
1325,-0.002079613
1326,-0.0016234149
1327,-0.00062427367
1328,-0.0052913693
1329,-0.0033789757
1330,-0.012255793
1331,-0.007638257
1332,0.009259754
1333,-0.008844636
1334,-0.0043737227
1335,-0.0077584074
1336,-0.00019089837
1337,-0.00941551
1338,-0.018735727
1339,0.0125025045
1340,0.014777971
1341,-0.00088418636
1342,0.0018336462
1343,-0.009818991
1344,0.0050325696
1345,0.0062202667
1346,0.0050992253
1347,-0.010614493
1348,0.01650543
1349,0.0059661507
1350,0.0010890204
1351,-0.0003860033
1352,-0.00438223
1353,0.0029452008
1354,0.017940566
1355,0.004603272
1356,-0.0005936422
1357,0.00066503015
1358,0.005904856
1359,-0.0042574774
1360,0.0060588764
1361,0.008925929
1362,-0.011407001
1363,-0.0024737788
1364,0.0075162924
1365,-0.0018028184
1366,0.004984807
1367,-0.0054291575
1368,-0.00069556595
1369,0.004670014
1370,0.001242243
1371,-0.0017461102
1372,-0.0032267277
1373,-0.006286511
1374,0.008779437
1375,-0.01423571
1376,0.010775262
1377,0.0028984079
1378,-0.016085358
1379,0.011486155
1380,-0.014849669
1381,0.01918781
1382,0.0012466889
1383,0.007966343
1384,0.013313151
1385,-0.011860894
1386,-0.004353511
1387,0.013344844
1388,0.012947566
1389,-0.015241305
1390,-0.0067281774
1391,-0.011102966
1392,0.00028297602
1393,0.0005082871
1394,-0.012000137
1395,-0.016972128
1396,0.0036562276
1397,-0.0034780225
1398,0.0074391896
1399,-0.011610595
1400,0.011795518
1401,0.005219242
1402,0.0030576857
1403,0.004167095
1404,0.013496408
1405,-0.011929699
1406,0.0065276134
1407,-0.013404542
1408,0.00094795664
1409,0.013487272
1410,0.0031013307
1411,0.0075292704
1412,-0.00056284823
1413,0.0025738683
1414,-0.004796817
1415,0.0061506056
1416,-0.012449721
1417,0.0037274426
1418,-0.005596666
1419,-0.002251931
1420,0.0016450871
1421,0.0084958365
1422,0.0047828695
1423,0.0025666158
1424,0.0026983216
1425,-0.012481478
1426,0.0016007347
1427,0.0056191366
1428,-0.009253952
1429,0.0016578771
1430,-0.008397584
1431,0.005688364
1432,-0.0046285433
1433,0.005658894
1434,0.0037401032
1435,-0.013421328
1436,0.00022595668
1437,-0.0029598512
1438,-0.006358283
1439,0.0061914204
1440,-0.00965732
1441,-0.00067281205
1442,-0.0059853108
1443,0.0106431525
1444,0.0075548175
1445,-0.019210301
1446,0.015027331
1447,-0.0135143325
1448,0.0046576015
1449,0.018732952
1450,0.011405296
1451,0.0031535951
1452,0.0058815596
1453,0.001269308
1454,0.0031465879
1455,-0.004537977
1456,0.003813347
1457,-0.004931983
1458,0.006993833
1459,-0.0023351135
1460,0.014510671
1461,-0.0003205046
1462,-0.008569251
1463,0.0022382927
1464,-0.0018564006
1465,0.0050600856
1466,0.004754892
1467,0.00015719686
1468,0.0076156515
1469,0.0033121216
1470,0.01875167
1471,0.0077996487
1472,-0.015984613
1473,0.005551878
1474,-0.004185518
1475,-0.006591978
1476,0.012595501
1477,-0.009399822
1478,-0.01472794
1479,0.0115062995
1480,-0.00404201
1481,-0.005919201
1482,0.010387571
1483,-0.0045183212
1484,0.0026951956
1485,-0.011026243
1486,-0.013676294
1487,-0.0049370276
1488,0.007283972
1489,-0.0022745037
1490,0.009000037
1491,0.014363493
1492,-0.004292965
1493,-0.008015709
1494,0.017800251
1495,0.0021533407
1496,-1.7250683e-05
1497,-0.000865005
1498,0.012400403
1499,-0.010517774
1500,-0.00884445
1501,-0.0010823855
1502,0.011369784
1503,0.0015848902
1504,0.0016388501
1505,0.005047816
1506,0.0004937578
1507,-0.01731783
1508,0.0022128148
1509,0.0037326796
1510,0.008527469
1511,-0.009604405
1512,-0.004406027
1513,-0.018775083
1514,0.013862085
1515,-0.008635909
1516,0.0044277054
1517,-0.0059930226
1518,-0.008197269
1519,0.0069092344
1520,-0.008602188
1521,0.013083107
1522,0.012907383
1523,0.0047588167
1524,-0.008955383
1525,-0.007966614
1526,0.011440296
1527,0.008807777
1528,0.015551003
1529,-0.006446868
1530,-0.0063518262
1531,-0.008670485
1532,-0.0026124485
1533,0.002935225
1534,0.01666087
1535,-0.014837595
1536,0.00460984
1537,0.01085474
1538,-0.004223336
1539,0.0014620255
1540,0.012079577
1541,-0.012537777
1542,-0.0061764508
1543,0.0015911532
1544,-0.0002478713
1545,0.003598756
1546,0.0024875267
1547,-0.011660595
1548,-0.002983318
1549,0.015046863
1550,-0.01168382
1551,0.008389832
1552,0.0058227694
1553,0.014460426
1554,-0.008503167
1555,-0.010657778
1556,0.0016346171
1557,0.006605213
1558,0.008575218
1559,0.010064587
1560,0.005641523
1561,-0.0031031063
1562,-0.010832429
1563,-0.0044893376
1564,0.0037480209
1565,0.0027240324
1566,0.0062837717
1567,0.006031064
1568,-0.002364939
1569,-0.0052625583
1570,0.015868906
1571,-0.0004048291
1572,0.013270782
1573,-0.0110182855
1574,-0.0017427527
1575,0.0068522147
1576,-0.01053752
1577,0.0025356722
1578,-0.00076951203
1579,-0.017569363
1580,-0.008667047
1581,5.5896595e-05
1582,-0.013429003
1583,-0.0028124154
1584,-0.0061491313
1585,0.004794287
1586,-0.0011215548
1587,-0.0065545035
1588,0.007252662
1589,0.0052809147
1590,0.005984309
1591,-0.0188613
1592,0.009390507
1593,-0.001816334
1594,-0.016750028
1595,-0.0019021597
1596,0.016345233
1597,0.010373739
1598,0.008747714
1599,-0.009072378
1600,0.006807743
1601,-0.0066841696
1602,0.001840501
1603,0.0074056997
1604,-0.0059496807
1605,-0.00241733
1606,0.0023165434
1607,0.01125346
1608,-0.01036598
1609,0.0036477777
1610,-0.005884218
1611,0.011196972
1612,-0.0007526346
1613,0.009362663
1614,-0.008864151
1615,0.01133999
1616,0.016990567
1617,-0.0152035635
1618,-0.0056193513
1619,0.0031296592
1620,-0.0024986388
1621,-0.0035858683
1622,-0.0017953174
1623,-0.014313411
1624,0.0031019556
1625,0.0013685052
1626,-0.010406487
1627,0.005267891
1628,-0.0042857574
1629,0.0043979343
1630,0.0026319467
1631,0.0009817585
1632,0.0048421416
1633,-0.01845803
1634,-0.010039553
1635,0.000811603
1636,0.0021535696
1637,0.0039455323
1638,0.0088402135
1639,0.007474014
1640,0.008117593
1641,-0.0054041315
1642,0.0026870212
1643,-0.0051587033
1644,0.011755599
1645,-0.002581655
1646,0.011844728
1647,0.004839256
1648,0.00076220214
1649,-0.004546771
1650,0.00045270316
1651,-0.01228666
1652,-0.018262828
1653,0.0031275447
1654,-0.0074427254
1655,0.015752463
1656,0.001535898
1657,-0.0075389277
1658,-0.018641923
1659,0.008806931
1660,-0.0035734817
1661,0.0022863215
1662,-0.011833495
1663,0.013183003
1664,-0.008222845
1665,-0.004339848
1666,-0.00090205244
1667,0.011616981
1668,-0.008473443
1669,-0.008941107
1670,0.004278736
1671,-0.0074023767
1672,-0.006928744
1673,0.006216265
1674,-0.003825271
1675,-0.007529637
1676,-0.010474666
1677,-0.01883949
1678,0.0038551046
1679,0.0039727762
1680,-0.0068263146
1681,-0.015777914
1682,0.0074524265
1683,-0.00335067
1684,-0.010737104
1685,-0.01014226
1686,0.007140365
1687,-0.011567794
1688,0.017776718
1689,0.0010549335
1690,-0.006473493
1691,-0.008798058
1692,-0.005194926
1693,-0.005853689
1694,0.0075734216
1695,-0.015498311
1696,0.008429214
1697,0.011389818
1698,-0.01385202
1699,-0.0023166344
1700,0.0087050265
1701,0.0057465252
1702,0.001727812
1703,0.0042278827
1704,-0.008896626
1705,0.009562145
1706,-0.01964202
1707,0.011094009
1708,-0.009912554
1709,-0.006007729
1710,-0.0113435825
1711,2.8700468e-05
1712,-0.004279026
1713,-0.01122279
1714,0.0002483641
1715,-0.008873641
1716,0.008814902
1717,0.0024648851
1718,-0.019441644
1719,0.019087505
1720,0.018891435
1721,-0.0020685487
1722,0.0046484005
1723,0.0073385458
1724,-0.0029484225
1725,0.0018513608
1726,-0.00035077758
1727,0.008123897
1728,-0.017268559
1729,0.008156406
1730,0.002718184
1731,-0.017459765
1732,0.014406053
1733,-0.009154129
1734,0.005212412
1735,-0.0073580337
1736,-0.004681105
1737,-0.0036084077
1738,-0.0063157175
1739,0.008362218
1740,-0.012934983
1741,-0.004784607
1742,-0.013057881
1743,0.010350028
1744,0.015045376
1745,-0.0032467376
1746,-0.008950631
1747,0.00063035556
1748,0.015189882
1749,-0.003068889
1750,0.013970491
1751,-0.008155311
1752,-0.010931719
1753,0.004328333
1754,0.004157717
1755,-0.005843305
1756,-8.617049e-05
1757,-0.016787397
1758,-0.0017476266
1759,-0.0056522046
1760,0.0016679096
1761,-0.0058934693
1762,0.017139928
1763,0.013051061
1764,-0.0015036818
1765,-0.008236993
1766,0.0011968749
1767,-0.0013574113
1768,-0.0067410343
1769,0.009252271
1770,-0.00034096933
1771,0.0019891413
1772,-0.005022399
1773,0.00057698716
1774,-0.00430567
1775,-0.0002686947
1776,2.5447087e-05
1777,0.0008919822
1778,-0.0022230782
1779,-0.009593171
1780,0.00856896
1781,-0.0022279508
1782,-0.00760187
1783,0.002205345
1784,0.0047091814
1785,0.0054198443
1786,0.0039265035
1787,-0.002142641
1788,0.015185494
1789,-0.002303263
1790,-0.011050168
1791,-0.014438272
1792,-0.010295478
1793,-0.012849957
1794,0.019467
1795,0.0069022607
1796,-0.012238166
1797,-0.0030541818
1798,-0.005683884
1799,-0.0059040748
1800,-0.011410462
1801,-0.014094647
1802,0.0005136201
1803,0.0135059105
1804,0.0097377105
1805,-0.0056965384
1806,-0.0032189118
1807,-0.013890608
1808,0.010863085
1809,0.011999361
1810,0.014307823
1811,-0.0070451777
1812,-0.0029858893
1813,0.005792708
1814,-0.004717533
1815,-0.0072580413
1816,0.008018884
1817,-0.0036849293
1818,0.0020364262
1819,-0.013985152
1820,0.0018030247
1821,-0.00087412586
1822,-0.005931981
1823,0.012685142
1824,0.007528208
1825,0.0033806963
1826,0.007844413
1827,0.015005214
1828,0.013969389
1829,-0.0012030139
1830,-0.00523517
1831,0.011679637
1832,-0.010141667
1833,0.0015069586
1834,0.008611419
1835,0.011070986
1836,0.017279387
1837,0.002246826
1838,-0.010726688
1839,-0.015993986
1840,0.0064725047
1841,0.0043719737
1842,-0.0012717347
1843,0.0114127565
1844,0.018015523
1845,-0.0009620154
1846,0.0036482974
1847,-0.013281967
1848,-0.014739401
1849,0.00034413286
1850,0.008411378
1851,0.00052115996
1852,-0.0028584283
1853,0.0030936764
1854,-0.0052078217
1855,-0.0035739955
1856,0.0062863766
1857,0.004040816
1858,0.012729313
1859,-0.009259088
1860,-0.003920887
1861,0.005018262
1862,0.0037431812
1863,0.0008768096
1864,-0.0102974055
1865,-0.011284097
1866,0.008855221
1867,0.010635331
1868,0.0011914037
1869,-0.0050388384
1870,-0.0028707867
1871,0.010377333
1872,0.009692111
1873,0.0031612706
1874,0.0099615585
1875,-0.00010153728
1876,0.00214497
1877,0.005993488
1878,0.0041364515
1879,-0.0041176328
1880,0.013999913
1881,0.0070659798
1882,0.0117306365
1883,0.008104796
1884,0.0032591638
1885,-0.005903951
1886,0.0027930476
1887,-0.00080449803
1888,0.0034515534
1889,0.016431311
1890,-0.011506854
1891,-0.017506428
1892,-0.0027378087
1893,0.0055477605
1894,-0.003974361
1895,0.0018417812
1896,0.0031230222
1897,-0.001364507
1898,6.3184205e-05
1899,-0.0069807204
1900,0.013796905
1901,-0.006458803
1902,-0.0027064744
1903,0.011515929
1904,-0.009636513
1905,0.0042867037
1906,-0.0011273724
1907,-0.015511123
1908,-0.002222376
1909,-0.008159422
1910,-0.008807559
1911,0.0095877
1912,0.0041731177
1913,-0.011402445
1914,-0.0042391927
1915,-0.016179625
1916,0.007948688
1917,-0.0025322707
1918,-0.019016227
1919,-0.0011539467
1920,-0.015739998
1921,0.012768243
1922,-0.011738176
1923,-0.014536289
1924,-0.010959299
1925,-0.0036651127
1926,0.014538795
1927,-0.0004270768
1928,0.00016284148
1929,-0.010806825
1930,0.01845593
1931,0.005540829
1932,-0.0012424745
1933,-0.0073660915
1934,-0.017263666
1935,-0.0029608
1936,-0.012357186
1937,0.013220933
1938,-0.0004635152
1939,-0.016079668
1940,0.0038505988
1941,9.921108e-05
1942,-0.0040126364
1943,-0.011972603
1944,-0.0069667613
1945,-0.012203713
1946,0.009968347
1947,-0.007201193
1948,0.015213538
1949,0.009784286
1950,-0.0044058613
1951,0.0056645027
1952,-0.0040960656
1953,0.018251684
1954,-0.0035824748
1955,-0.0029449745
1956,0.014572422
1957,-0.0034460258
1958,-0.0017451841
1959,0.012695965
1960,-0.015140084
1961,0.010081393
1962,-0.018228037
1963,0.008583455
1964,-0.014665179
1965,0.0012308036
1966,0.0037111826
1967,-0.010702611
1968,0.00451054
1969,0.0054079685
1970,-0.00718235
1971,0.00030702603
1972,-0.0136496
1973,0.0057421722
1974,0.01805128
1975,-0.0028591233
1976,0.0023819353
1977,0.0017776139
1978,0.014768184
1979,-0.012338892
1980,0.0039332416
1981,0.0018534003
1982,0.0003428468
1983,0.011816413
1984,0.015178754
1985,-0.0035351303
1986,0.010188481
1987,-0.015968049
1988,-0.00691232
1989,-0.0080179265
1990,0.0030332853
1991,-0.013009742
1992,0.0042611924
1993,0.014044581
1994,-0.0062154573
1995,-0.0031704488
1996,-0.0019380903
1997,0.0035817614
1998,-0.0037170958
1999,-0.015508703
2000,-0.0020376204
2001,0.017283706
2002,-0.003959127
2003,-0.0027038278
2004,-0.011074964
2005,-0.007348904
2006,0.0009256838
2007,-0.00096721936
2008,0.00077706564
2009,-0.011553409
2010,-0.0025927057
2011,-0.016775014
2012,-0.00021005355
2013,0.0048860186
2014,-0.015290407
2015,-0.005847302
2016,0.010410385
2017,-0.006708238
2018,0.0052009434
2019,0.0061366833
2020,-0.018271957
2021,-0.0064846403
2022,0.010606548
2023,-0.013449026
2024,0.0041663176
2025,-0.008311919
2026,-0.0032698433
2027,0.0008208736
2028,0.0028718838
2029,-0.0030570521
2030,-0.0062285205
2031,-0.0011937912
2032,0.0016065368
2033,0.0025728398
2034,0.005853879
2035,0.0136814425
2036,0.010315258
2037,0.007082563
2038,0.0011636154
2039,-0.011116306
2040,0.00026203608
2041,0.0011159305
2042,0.0020308776
2043,-0.0015044198
2044,-0.0031012201
2045,0.0015563869
2046,-0.0018672206
2047,-0.010133045
2048,-0.034040906
2049,-0.002621779
2050,0.00034325622
2051,-0.02236884
2052,-0.07544783
2053,-0.05130047
2054,0.034395102
2055,0.017647855
2056,0.036910895
2057,-0.05779133
2058,-0.051341124
2059,0.03058928
2060,-0.013419368
2061,-0.031282805
2062,0.0030520333
2063,0.027886078
2064,-0.0484643
2065,-0.05160496
2066,0.0112367375
2067,0.03820585
2068,-0.042965632
2069,0.0044477494
2070,0.005779182
2071,-0.05989393
2072,0.033232808
2073,0.017436855
2074,-0.008052177
2075,0.013845895
2076,0.012379995
2077,-0.055864695
2078,0.039089475
2079,0.022214815
2080,-0.004510166
2081,0.006317848
2082,-0.036678556
2083,-0.004271849
2084,-0.026738342
2085,-0.051050913
2086,0.037512563
2087,0.03272371
2088,-0.09709261
2089,0.054110486
2090,-0.039233208
2091,0.11470233
2092,-0.033288907
2093,0.034820683
2094,-0.002749694
2095,0.039527345
2096,0.03114663
2097,-0.025311343
2098,-0.013173944
2099,-0.004379526
2100,-0.039322477
2101,0.04329529
2102,0.013646726
2103,0.03691376
2104,0.052317094
2105,0.044378404
2106,0.0156992
2107,-0.14795382
2108,0.016120905
2109,0.06759403
2110,0.026506713
2111,0.015110261
2112,0.03274522
2113,-0.06432158
2114,0.0023224554
2115,-0.006258629
2116,-0.012771239
2117,-0.02088848
2118,0.022245819
2119,0.013291494
2120,-0.043486964
2121,0.033267666
2122,0.015156401
2123,0.029753106
2124,-0.03396766
2125,-0.0665501
2126,0.015639866
2127,0.025360469
2128,0.0121410545
2129,-0.06348147
2130,-0.030113392
2131,-0.057443086
2132,0.026811568
2133,0.03532341
2134,0.023789247
2135,0.006261643
2136,0.04836754
2137,0.03504582
2138,0.045266002
2139,0.029747302
2140,0.03882509
2141,0.008278274
2142,-0.016389292
2143,-0.045786414
2144,-0.0077963118
2145,0.0516607
2146,0.033706475
2147,-0.022128282
2148,-0.006719927
2149,-0.06036165
2150,0.029644229
2151,-0.035128187
2152,0.03890946
2153,-0.04211256
2154,-0.19352339
2155,-0.01405279
2156,0.00783262
2157,-0.030680424
2158,-0.0006181261
2159,0.009522194
2160,0.019723365
2161,-0.043811537
2162,0.04317216
2163,0.061161354
2164,0.02715488
2165,0.037359193
2166,0.037497625
2167,-0.018172944
2168,-0.034108687
2169,0.063500255
2170,0.008487155
2171,0.046558093
2172,-0.056254417
2173,0.05850459
2174,-0.034484595
2175,-0.1245267
2176,-0.010149257
2177,0.006955768
2178,0.06106133
2179,0.02936124
2180,0.015927827
2181,0.10861189
2182,0.043838724
2183,0.038719364
2184,-0.011006805
2185,0.05868088
2186,0.022411294
2187,0.019104917
2188,0.037564486
2189,0.031049512
2190,0.041431677
2191,0.036965996
2192,-0.048315845
2193,0.009685282
2194,0.048332956
2195,0.023744995
2196,0.049609017
2197,-0.09103791
2198,0.024766086
2199,0.028103294
2200,0.031924397
2201,0.040307067
2202,-0.07725993
2203,0.017387753
2204,0.033258494
2205,-0.056399263
2206,0.032593917
2207,-0.003713614
2208,-0.009974163
2209,-0.035083666
2210,-0.036903482
2211,-0.0025230818
2212,-0.069575526
2213,-0.012152021
2214,0.032485813
2215,0.040543314
2216,-0.09799778
2217,-0.054049548
2218,-0.05971811
2219,0.015050412
2220,0.030609824
2221,0.019225605
2222,-0.0037753088
2223,0.039158177
2224,0.02470707
2225,-0.07185912
2226,0.032031745
2227,-0.002562106
2228,0.039919782
2229,0.021911083
2230,-0.0022106436
2231,0.018542124
2232,-0.017460668
2233,0.0486151
2234,0.043724865
2235,0.103201546
2236,0.042246927
2237,0.015848234
2238,0.027772924
2239,-0.04126406
2240,0.012613897
2241,0.036600426
2242,0.055415582
2243,0.0044567436
2244,-0.019815912
2245,-0.0613885
2246,-0.042511795
2247,-0.051999032
2248,-0.017389016
2249,0.016990578
2250,0.01912914
2251,0.03419055
2252,0.028987486
2253,0.0006291956
2254,0.03772548
2255,0.07075725
2256,0.024570642
2257,0.015055611
2258,0.032100275
2259,-0.039660823
2260,0.020304853
2261,0.05002324
2262,0.025785161
2263,0.04430047
2264,-0.068320654
2265,0.036376536
2266,0.044393897
2267,0.049820162
2268,0.028516807
2269,0.04294671
2270,0.03447986
2271,-0.005223626
2272,-0.008973704
2273,0.02447262
2274,0.022176905
2275,0.029727615
2276,0.046035398
2277,-0.0049990406
2278,0.02247514
2279,0.0042604352
2280,-0.05913394
2281,-0.03189986
2282,-0.19333993
2283,0.03465921
2284,0.03702485
2285,-0.0022368452
2286,0.075723924
2287,0.031593177
2288,0.069415666
2289,0.054538917
2290,0.02531078
2291,-0.06808808
2292,0.045548733
2293,0.0048598493
2294,0.029810794
2295,0.015239928
2296,0.0075545786
2297,0.015977144
2298,0.015209397
2299,0.06309476
2300,-0.05777594
2301,-0.0660114
2302,-0.027027888
2303,0.09916602
2304,-0.014773743
2305,0.036431473
2306,-0.04573839
2307,0.028469102
2308,0.0330865
2309,-0.0802418
2310,0.022903126
2311,0.023917882
2312,0.044316348
2313,-0.044214442
2314,-0.015183511
2315,0.033156134
2316,0.007865611
2317,0.010407043
2318,0.0035601365
2319,-0.0760411
2320,-0.04873719
2321,0.026792383
2322,-0.0799814
2323,0.034916855
2324,0.03773136
2325,0.06540353
2326,0.032319307
2327,0.00364906
2328,0.046199206
2329,0.00016272425
2330,0.033023015
2331,0.009796447
2332,0.038932707
2333,-0.014566681
2334,-0.0033571308
2335,0.015705591
2336,-0.010702729
2337,0.04694394
2338,0.038187377
2339,0.00313318
2340,-0.06912869
2341,0.07175365
2342,0.020883303
2343,0.004507524
2344,0.05289603
2345,-0.05409672
2346,-0.06039522
2347,-0.026208265
2348,0.018150073
2349,0.022525512
2350,-0.0032397541
2351,-0.0014131467
2352,0.030834105
2353,-0.052737623
2354,0.030416442
2355,-0.0069346623
2356,0.022127291
2357,0.0398561
2358,0.011129362
2359,0.021054184
2360,0.018221503
2361,-0.057853542
2362,0.018626947
2363,-0.05893421
2364,-0.059377503
2365,0.012215495
2366,0.022590544
2367,0.027722724
2368,0.0023246428
2369,0.009219624
2370,-0.012597083
2371,0.04755244
2372,0.049580302
2373,0.05628469
2374,0.02237416
2375,-0.013245333
2376,0.065213315
2377,0.009267723
2378,0.022846604
2379,0.032695852
2380,0.021518487
2381,0.037202567
2382,-1.0353528e-05
2383,-0.006039604
2384,0.036260456
2385,0.0638175
2386,0.013403123
2387,0.061206874
2388,0.032165166
2389,0.012939778
2390,0.040809315
2391,0.031434484
2392,-0.06864732
2393,-0.02021722
2394,0.03319559
2395,0.04369128
2396,0.02624334
2397,0.031841807
2398,0.03727504
2399,-0.031289276
2400,-0.006516658
2401,0.047281034
2402,0.00890095
2403,0.06319882
2404,0.015153935
2405,0.035931163
2406,0.042500447
2407,0.025353368
2408,0.029064085
2409,-0.005926449
2410,0.13700448
2411,0.04294145
2412,0.0335511
2413,0.08403688
2414,-0.07651038
2415,0.015643565
2416,-0.05059644
2417,-0.043971483
2418,0.03424677
2419,-0.00084117934
2420,-0.068244405
2421,-0.022914449
2422,0.024704196
2423,0.045717027
2424,0.028697485
2425,-0.020856801
2426,0.002590809
2427,-0.03195106
2428,0.029960126
2429,-0.035830975
2430,0.03330294
2431,-0.12915556
2432,-0.026706684
2433,0.003000427
2434,-0.01676126
2435,0.0020818848
2436,0.032241035
2437,0.02342483
2438,0.028123176
2439,-0.026903195
2440,-0.033729292
2441,0.042291224
2442,0.000490513
2443,-0.0064891623
2444,0.011735355
2445,-0.021167362
2446,0.016696827
2447,0.038488176
2448,-0.03256962
2449,-0.001770388
2450,0.028749434
2451,-0.0015391274
2452,0.016361792
2453,-0.090834774
2454,0.030784203
2455,0.005190133
2456,0.023879047
2457,-0.015492711
2458,0.038658854
2459,0.017006855
2460,0.032904364
2461,-0.031137805
2462,-0.024387315
2463,0.012164806
2464,-0.007953494
2465,0.018353937
2466,0.03779481
2467,0.0027896184
2468,-0.061021235
2469,-0.02736828
2470,-0.016629564
2471,0.011753469
2472,0.025267523
2473,0.00040962902
2474,-0.034720536
2475,-0.040842827
2476,-0.03359175
2477,-0.02783471
2478,-0.010591606
2479,-0.036667258
2480,0.017165987
2481,0.07094546
2482,-0.03483931
2483,-0.009899219
2484,0.021079423
2485,0.016589126
2486,0.03663782
2487,0.026674582
2488,-0.048626315
2489,-0.028947165
2490,0.022078328
2491,0.015661005
2492,0.040320184
2493,0.003097193
2494,-0.022201495
2495,-0.0399589
2496,0.01851467
2497,0.027424965
2498,-0.02780026
2499,0.019145593
2500,-0.03401392
2501,0.05007998
2502,-0.046568047
2503,-0.03345965
2504,0.03135831
2505,-0.012787553
2506,0.023132358
2507,0.014786632
2508,0.020251868
2509,0.054311387
2510,-0.0041313968
2511,-0.035217054
2512,0.0099627925
2513,-0.005616982
2514,0.010959691
2515,-0.055232067
2516,0.026135392
2517,-0.06207636
2518,0.023818484
2519,0.013975036
2520,-0.004029105
2521,0.01626356
2522,0.016525496
2523,0.019475214
2524,-0.0010792823
2525,0.027544014
2526,0.01874185
2527,0.07568918
2528,-0.019987382
2529,-0.0307296
2530,0.009866442
2531,-0.043377437
2532,0.008733746
2533,0.040176786
2534,-0.002517852
2535,0.00804934
2536,0.032819774
2537,0.03129241
2538,0.02036574
2539,0.010349884
2540,0.020745749
2541,-0.028486542
2542,-0.02965506
2543,0.025556741
2544,0.025176594
2545,0.02115161
2546,0.020269811
2547,-0.06746225
2548,-0.068523206
2549,0.009080695
2550,0.00770194
2551,0.021245562
2552,0.03402459
2553,-0.068157405
2554,0.000329473
2555,-0.032567207
2556,0.026372254
2557,0.00019589215
2558,-0.0034313712
2559,0.051688466
2560,-0.0069161877
2561,-0.0031563363
2562,-0.04634578
2563,0.023593638
2564,0.003488372
2565,0.029472867
2566,-0.0094789835
2567,-0.032726906
2568,-0.040323913
2569,0.008499302
2570,-0.008766847
2571,-0.0066090296
2572,-0.0013366928
2573,-0.008621339
2574,0.012695896
2575,-0.001902092
2576,0.058592744
2577,0.0051779803
2578,-0.079711206
2579,-0.016323652
2580,0.034252644
2581,-0.09050927
2582,0.013958699
2583,0.07186828
2584,-0.02406599
2585,-0.027421432
2586,-0.07779357
2587,-0.041916378
2588,-0.011153449
2589,0.055825587
2590,-0.02447502
2591,0.011983143
2592,-0.0038771508
2593,-0.007815808
2594,0.023682468
2595,-0.0051704193
2596,-0.06884566
2597,-0.03318363
2598,-0.0011976355
2599,0.0043987595
2600,0.0043753013
2601,0.0059782797
2602,0.05530606
2603,-0.029179292
2604,-0.033866912
2605,0.021043314
2606,-0.004058665
2607,-0.029434577
2608,-0.019966645
2609,-0.07223787
2610,-0.0353105
2611,-0.0011012995
2612,0.02529159
2613,-0.022363476
2614,-0.015542487
2615,-0.0146813495
2616,0.011419914
2617,0.012963911
2618,0.022002773
2619,0.05156581
2620,-0.05975657
2621,-0.027761182
2622,0.012029312
2623,0.018835483
2624,0.0046909433
2625,-0.049091954
2626,-0.025492957
2627,0.015891038
2628,-0.034984242
2629,-0.061498083
2630,0.003458261
2631,0.05115648
2632,0.030249862
2633,-0.020561256
2634,-0.017663699
2635,-0.0041075936
2636,-0.0027633973
2637,0.021746086
2638,-0.0398083
2639,-0.041314308
2640,-0.034438275
2641,0.02221987
2642,-0.04152814
2643,0.029784156
2644,-0.0165126
2645,-0.040568758
2646,-0.0053087994
2647,0.019415434
2648,0.0051174127
2649,0.008782212
2650,0.0204027
2651,0.020011727
2652,-0.003421186
2653,0.014736133
2654,0.015184963
2655,0.045154054
2656,-0.008662629
2657,-0.0016521481
2658,-0.016800877
2659,-0.061452515
2660,-0.006198924
2661,0.04185521
2662,0.0011873187
2663,0.004902996
2664,0.02531171
2665,0.0059696427
2666,0.034270685
2667,0.0069060824
2668,0.00825616
2669,0.0063760197
2670,0.04816934
2671,0.010464547
2672,4.4581684e-06
2673,-0.02090216
2674,-0.03291002
2675,-0.05137926
2676,-0.051474452
2677,0.0055266717
2678,0.0038039947
2679,0.0045001623
2680,-0.033901136
2681,-0.025826992
2682,-0.0365692
2683,-0.031888623
2684,0.026317097
2685,-0.06657343
2686,-0.01873096
2687,0.06516446
2688,0.04388266
2689,0.0043872492
2690,0.029170258
2691,0.015157725
2692,0.012178624
2693,0.0063441955
2694,-0.009506041
2695,-0.01734508
2696,-0.037111692
2697,0.019150268
2698,-0.006846414
2699,0.0038485308
2700,0.004021163
2701,-0.028467612
2702,-0.0076481914
2703,-0.033308014
2704,-0.048582293
2705,-0.0036357527
2706,0.0062041823
2707,-0.0017722675
2708,0.00052783615
2709,-0.071199454
2710,-0.0147179
2711,0.01769978
2712,-0.030026123
2713,0.013165052
2714,-0.077539
2715,-0.0038345065
2716,0.0076246806
2717,-0.048127867
2718,-0.01586933
2719,0.02760467
2720,-0.0051984815
2721,-0.00852593
2722,0.01533997
2723,-0.009446546
2724,0.078918874
2725,0.020741688
2726,-0.039206844
2727,-0.0096912235
2728,0.0012335953
2729,0.0077231126
2730,-0.060449407
2731,-0.020123525
2732,-0.03350233
2733,-0.010573665
2734,-0.0036354987
2735,-0.030367
2736,-0.02408773
2737,-0.072448626
2738,-0.030456364
2739,-0.017197907
2740,0.037483484
2741,-0.0025245624
2742,-0.0009077877
2743,-0.017849425
2744,-0.040581726
2745,-0.032464556
2746,-2.9641262e-05
2747,0.01252706
2748,-0.04990983
2749,0.01741191
2750,-0.025688514
2751,-0.040907834
2752,0.0013823478
2753,-0.0010784816
2754,-0.027656453
2755,-0.0014946494
2756,-0.035179157
2757,-0.061476517
2758,-0.038494796
2759,-0.052096542
2760,0.027319474
2761,-0.027398255
2762,0.011066129
2763,-0.015399348
2764,0.013920235
2765,0.019568799
2766,0.020401083
2767,-0.034506097
2768,-0.034558576
2769,0.061362993
2770,-0.018848754
2771,0.029676924
2772,-0.0062476387
2773,-0.061111644
2774,0.012189541
2775,0.01621389
2776,-0.06864155
2777,-0.0067897527
2778,0.0014622251
2779,-0.0023163054
2780,-0.015695738
2781,-0.019989816
2782,-0.01719065
2783,-0.010838863
2784,-0.0042499425
2785,-0.013433532
2786,-0.014212114
2787,-0.05163646
2788,0.008670847
2789,0.014823448
2790,-0.016367797
2791,0.0075870873
2792,-0.059208643
2793,0.0032150182
2794,0.03795189
2795,0.021883484
2796,0.0073859016
2797,-0.013158498
2798,-0.0457509
2799,0.0120288
2800,-0.051268388
2801,-0.02643915
2802,-0.029998813
2803,-0.06269752
2804,0.035524134
2805,-0.007833393
2806,0.0067647067
2807,-0.0054000216
2808,-0.033922747
2809,-0.022216277
2810,-0.036302365
2811,-0.032536823
2812,0.033655915
2813,-0.066601425
2814,0.025831535
2815,-0.020933604
2816,-0.0025457118
2817,-0.008022962
2818,0.0055379984
2819,-0.032292586
2820,0.01659681
2821,-0.0039684293
2822,-0.016974699
2823,-0.017088324
2824,-0.031124173
2825,0.0019158587
2826,0.060118914
2827,0.008293736
2828,-0.030871233
2829,-0.03134617
2830,-0.008255202
2831,-0.017081616
2832,-0.037872583
2833,-0.0024648365
2834,-0.02417238
2835,-0.0071077915
2836,-0.0002530822
2837,0.02606787
2838,-0.018899659
2839,0.043784503
2840,0.005277272
2841,-0.023187371
2842,0.0025982785
2843,-0.01925352
2844,-0.023851074
2845,-0.05598721
2846,-0.013612364
2847,-0.023275686
2848,-0.012321388
2849,-0.0019452447
2850,-0.011002899
2851,0.0029277792
2852,-0.069048904
2853,0.030618358
2854,-0.038894508
2855,-0.03165479
2856,0.0071393317
2857,-0.04356013
2858,-0.060368948
2859,-0.025545722
2860,-0.019554337
2861,-0.010520728
2862,-0.008915686
2863,-0.029382546
2864,-0.0033648647
2865,-0.07215902
2866,-0.010079453
2867,-0.0015405443
2868,0.02062259
2869,-0.007794852
2870,-0.00048492875
2871,-0.018693265
2872,-0.020521875
2873,-0.016721366
2874,-0.012848033
2875,0.020795532
2876,-0.033615924
2877,-0.0355087
2878,-0.011703116
2879,-0.040560488
2880,-0.010858275
2881,-0.017992722
2882,-0.027665492
2883,0.0007870514
2884,-0.034179565
2885,-0.044060174
2886,-0.046127554
2887,-0.052192435
2888,-0.031195058
2889,-0.027372872
2890,0.001128583
2891,-0.028592197
2892,-0.03876256
2893,0.019238137
2894,-0.03982273
2895,-0.039061677
2896,-0.025232123
2897,0.012810419
2898,-0.018194325
2899,-0.038425993
2900,0.0007415259
2901,-0.0035792189
2902,-0.007530171
2903,-0.010588643
2904,-0.06842132
2905,-0.020157065
2906,-0.011012729
2907,-0.006069619
2908,-0.033462066
2909,-0.029905617
2910,-0.01741453
2911,-0.00537818
2912,-0.009791471
2913,-0.022912527
2914,0.0020182184
2915,-0.04666163
2916,0.0059706005
2917,-0.00056908064
2918,-0.022409137
2919,-0.015980752
2920,-0.059085064
2921,0.006708993
2922,0.0292785
2923,-0.030306078
2924,-0.011785684
2925,-0.011359764
2926,-0.023265079
2927,-0.01898512
2928,-0.02215833
2929,-0.017693881
2930,-0.0077503235
2931,-0.010972204
2932,-0.05181283
2933,-0.023737932
2934,-0.01684074
2935,0.0007887662
2936,-0.010137287
2937,-0.019798178
2938,-0.026651898
2939,-0.03214522
2940,0.030416386
2941,-0.024434298
2942,0.00025590576
2943,-0.027673542
2944,-0.034433343
2945,-0.029980857
2946,-0.028507818
2947,-0.046831485
2948,-0.024096303
2949,-0.011448279
2950,-0.01628431
2951,-0.03025417
2952,-0.034225065
2953,-0.0123547595
2954,0.050861716
2955,-0.053165697
2956,-0.017239533
2957,-0.031379513
2958,-0.015288466
2959,-0.025594635
2960,-0.0057805534
2961,0.011337289
2962,-0.020421647
2963,-0.042156834
2964,-0.04755497
2965,-0.027678741
2966,-0.0115012815
2967,0.02592467
2968,-0.014414207
2969,-0.017675508
2970,-0.023548922
2971,-0.028337846
2972,-0.0219068
2973,-0.046285458
2974,-0.02364831
2975,-0.026078735
2976,-0.0035355224
2977,-0.0005233312
2978,-0.041889697
2979,0.0020272278
2980,-0.04517786
2981,-0.012480899
2982,-0.037990842
2983,-0.02994013
2984,0.0064391224
2985,-0.0154993255
2986,-0.021689864
2987,-0.023485621
2988,-0.030361492
2989,0.01505245
2990,-0.0035107126
2991,-0.033846416
2992,-0.020415083
2993,-0.07216802
2994,-0.025753304
2995,-0.0020347165
2996,-0.005455999
2997,-0.01575157
2998,0.0024092593
2999,-0.021841602
3000,-0.049129307
3001,-0.056969076
3002,-0.020847786
3003,-0.0027463855
3004,-0.030843752
3005,-0.035306767
3006,-0.04895284
3007,-0.028068848
3008,-0.03555193
3009,-0.0160184
3010,-0.031651318
3011,-0.00027797403
3012,-0.023314022
3013,-0.025852272
3014,-0.046437927
3015,-0.05263531
3016,-0.024165932
3017,-0.02964416
3018,-0.010330054
3019,-0.04405388
3020,-0.038733047
3021,-0.015966581
3022,-0.03939843
3023,-0.037994288
3024,-0.03428099
3025,0.0134677505
3026,-0.036792506
3027,-0.011706372
3028,-0.012145756
3029,-0.009897148
3030,-0.016378509
3031,-0.021173589
3032,-0.06772735
3033,-0.036765162
3034,-0.017050838
3035,-0.0135416435
3036,-0.04154287
3037,-0.0031625687
3038,-0.0065685706
3039,-0.0057176547
3040,-0.008943377
3041,-0.043591153
3042,-0.033539716
3043,-0.032959115
3044,-0.027321149
3045,-0.00024986968
3046,-0.019955078
3047,-0.018304454
3048,-0.035212543
3049,0.00079103553
3050,-0.0030589243
3051,-0.029573556
3052,-0.011812456
3053,-0.013250438
3054,-0.0079911575
3055,-0.015124666
3056,-0.026591927
3057,-0.012474931
3058,-0.019304324
3059,-0.041417215
3060,-0.048169848
3061,-0.032731373
3062,-0.04311669
3063,-0.014343369
3064,-0.03409628
3065,-0.02294771
3066,-0.025276687
3067,-0.03129858
3068,-0.027115345
3069,-0.06628488
3070,-0.034151897
3071,-0.020425044
3072,-0.033621848
3073,-0.011718392
3074,-0.030962996
3075,-0.032082785
3076,-0.0053322427
3077,-0.0039014027
3078,-0.0024231032
3079,-0.011875879
3080,-0.030006591
3081,-0.006896557
3082,-0.007256119
3083,-0.008927946
3084,-0.023700008
3085,-0.015371641
3086,0.0061609023
3087,-0.01587441
3088,-0.031126622
3089,-0.013847321
3090,-0.022214707
3091,0.0038397557
3092,-0.03528724
3093,-0.009209262
3094,-0.02045593
3095,-0.0027843136
3096,-0.0063065276
3097,-0.014500213
3098,0.0061146184
3099,-0.019107673
3100,-0.030238796
3101,-0.0061209393
3102,-0.015033753
3103,-0.034976304
3104,-0.003631076
3105,-0.023195418
3106,-0.015654922
3107,-0.013237668
3108,-0.028706849
3109,-0.0072626844
3110,-0.03235217
3111,-0.023515409
3112,-0.007058665
3113,-0.03982306
3114,-0.0040762136
3115,-0.021980932
3116,-0.022495514
3117,-0.01567788
3118,0.0017083733
3119,-0.023619138
3120,-0.031196415
3121,0.028627988
3122,-0.0054313224
3123,-0.0026429233
3124,-0.035602465
3125,-0.012900445
3126,-0.01958483
3127,-0.023785599
3128,-0.017683147
3129,-0.021679778
3130,-0.033126865
3131,-0.041972987
3132,-0.018736815
3133,-0.02895513
3134,-0.01576199
3135,-0.033718433
3136,-0.016501138
3137,0.0052252235
3138,-0.016902322
3139,-0.011443393
3140,-0.019144792
3141,0.025261896
3142,0.032737236
3143,-0.0052160616
3144,-0.028891923
3145,-0.025714155
3146,-0.017704982
3147,-0.017775059
3148,-0.026180392
3149,-0.029870959
3150,-0.034039367
3151,-0.022340726
3152,-0.012784721
3153,0.018304296
3154,-0.036385193
3155,-0.015873369
3156,-0.014018767
3157,-0.010825696
3158,-0.032775857
3159,-0.023124332
3160,-0.054130413
3161,-0.011260006
3162,-0.023297885
3163,-0.024777222
3164,-0.015693884
3165,-0.0056669554
3166,-0.018315675
3167,-0.005841124
3168,-0.016481938
3169,-0.024095517
3170,-0.015047419
3171,0.015068658
3172,-0.03503253
3173,-0.013350205
3174,-0.007807379
3175,-0.025461324
3176,-0.03550475
3177,-0.011268065
3178,-0.018569384
3179,-0.029613694
3180,-0.013150147
3181,-0.010816754
3182,-0.01683683
3183,-0.020989995
3184,-0.019766128
3185,0.0004943749
3186,-0.011406199
3187,-0.04891624
3188,-0.044581734
3189,-0.023597933
3190,-0.015938394
3191,0.0062869876
3192,-0.022250392
3193,-0.01622891
3194,-0.008906307
3195,-0.025595833
3196,-0.017366214
3197,-0.025840567
3198,-0.03393937
3199,-0.033534534
3200,-0.0023994173
3201,0.014420481
3202,-0.0043771556
3203,0.006626858
3204,0.011346315
3205,-0.0012400779
3206,0.009016482
3207,0.022130366
3208,0.0282639
3209,0.0029191505
3210,0.00911764
3211,0.010895523
3212,-0.0037134774
3213,-0.0086658085
3214,0.007339718
3215,-0.0055711474
3216,0.023186687
3217,0.0032690405
3218,0.020049699
3219,-0.0053318953
3220,0.0028836841
3221,0.01951855
3222,-0.0034620832
3223,0.0045193015
3224,0.027300857
3225,-0.008661439
3226,0.012946157
3227,-0.016836174
3228,0.0064883744
3229,0.0072798654
3230,0.007531687
3231,0.017273484
3232,-0.0019472891
3233,-0.0022503296
3234,-0.005407821
3235,0.0072277538
3236,0.008768783
3237,-0.0019565797
3238,0.016841156
3239,0.04616746
3240,0.0056052553
3241,0.007875686
3242,0.024207618
3243,0.028836934
3244,0.004705678
3245,0.012776535
3246,-0.0055500953
3247,-0.0050908746
3248,0.0053001503
3249,0.014271245
3250,0.0039186166
3251,-0.019208482
3252,0.0021621091
3253,0.0012672683
3254,0.016376736
3255,-0.003749919
3256,0.011756445
3257,0.013261339
3258,-0.009604671
3259,-0.0015599958
3260,0.0080657685
3261,0.013087843
3262,-0.015797595
3263,0.006551563
3264,0.009557485
3265,-0.0061459136
3266,0.0016671335
3267,0.006140824
3268,-0.00024076336
3269,0.0054186727
3270,-0.009713613
3271,0.029602539
3272,-0.010957792
3273,0.014625262
3274,-0.006707488
3275,0.015388562
3276,0.009457644
3277,-0.0069029657
3278,0.0003041007
3279,0.0039996537
3280,0.025072213
3281,-0.0020649158
3282,0.0052339127
3283,0.0019742178
3284,0.0055349125
3285,-0.006803315
3286,0.0033525836
3287,-0.0020464696
3288,0.007910249
3289,0.00057428045
3290,-0.0026916831
3291,0.0041735456
3292,0.014253362
3293,-0.0008047202
3294,0.008622479
3295,0.021617545
3296,-0.006085267
3297,-0.0051779402
3298,0.0101758195
3299,0.016159317
3300,-0.007927595
3301,0.007463969
3302,0.0054063806
3303,-0.016681263
3304,0.028860986
3305,0.008379084
3306,-0.0107433405
3307,-2.918602e-05
3308,-0.0063507156
3309,-0.0022535343
3310,0.009166924
3311,0.016060958
3312,0.0043955967
3313,-0.0071082227
3314,0.01352906
3315,0.014733553
3316,-0.00088639325
3317,0.031159727
3318,0.022447232
3319,0.0014674099
3320,-0.005074238
3321,0.03746197
3322,-0.007230852
3323,-0.0045328727
3324,-0.0009225595
3325,0.011903398
3326,0.0020101997
3327,0.004744615
3328,-0.00430254
3329,0.012786905
3330,0.0120996805
3331,0.0023624413
3332,-0.0048441114
3333,0.014260769
3334,0.013588277
3335,-0.0013222784
3336,0.0040524662
3337,0.007471256
3338,-0.01909218
3339,0.0055102054
3340,0.0025512485
3341,-0.008798365
3342,-0.01201223
3343,-0.0004160845
3344,-0.00081733486
3345,0.009028255
3346,-0.0028183933
3347,0.016412796
3348,-0.01658437
3349,-0.015794467
3350,-0.016331028
3351,-0.010844517
3352,0.007925972
3353,0.004239414
3354,-0.019631902
3355,0.0042247693
3356,0.00356207
3357,-0.0050413213
3358,0.0029087935
3359,0.007523339
3360,0.012230725
3361,0.0019106246
3362,0.013613732
3363,0.010075987
3364,-0.007390602
3365,-0.009987741
3366,0.000652884
3367,-0.014951736
3368,-0.01825637
3369,-0.0060900436
3370,0.0007267794
3371,-0.0070808665
3372,-0.012708889
3373,0.012046081
3374,-0.00977066
3375,-0.0032007908
3376,0.009291316
3377,-0.0025122282
3378,-0.00914627
3379,0.008855817
3380,0.00633451
3381,0.002539978
3382,0.0025025324
3383,0.011146274
3384,-0.012210818
3385,-0.0063048825
3386,-0.009725198
3387,0.00386952
3388,-0.0004568756
3389,0.0047620777
3390,-0.000107960346
3391,-0.005852266
3392,0.010395935
3393,-0.010863838
3394,0.0085339
3395,0.00092789636
3396,-0.0029067176
3397,0.012103337
3398,0.0005923781
3399,0.008403177
3400,-0.008809024
3401,-0.0013598786
3402,0.0071785655
3403,0.013103123
3404,0.006503778
3405,-0.00975143
3406,-0.004763485
3407,-0.0018342002
3408,0.0053242026
3409,0.0038445785
3410,0.009647684
3411,0.010689935
3412,0.0075762845
3413,-0.0019148844
3414,-0.006864733
3415,0.019459434
3416,-0.013256856
3417,-0.008803942
3418,0.009872263
3419,0.0074288384
3420,0.011995647
3421,0.0062946724
3422,-0.005380094
3423,-0.007836166
3424,-0.002433746
3425,0.011998046
3426,0.0064428193
3427,-0.004181699
3428,-0.0073684487
3429,-0.0119161345
3430,-0.0059657292
3431,-0.009316948
3432,-0.0051144613
3433,-0.00014855762
3434,-0.0018508846
3435,-0.006164441
3436,0.0022460164
3437,-0.0028494555
3438,-0.012613421
3439,-0.0027501255
3440,0.003096652
3441,0.0010298818
3442,0.0068088504
3443,0.0053235907
3444,-0.0006778565
3445,0.0072452417
3446,-0.00045560263
3447,0.007771143
3448,-0.0013006869
3449,0.0030803697
3450,0.010787304
3451,-0.0066439766
3452,0.015603416
3453,-0.0018573656
3454,0.009314543
3455,0.0142895775
3456,0.007221565
3457,0.019829432
3458,0.001449879
3459,0.0043802024
3460,0.012428518
3461,0.000796395
3462,0.0038543993
3463,0.00678626
3464,0.0032491859
3465,0.014710198
3466,-0.0063399095
3467,-0.013012364
3468,0.015985413
3469,-0.006109817
3470,0.009181819
3471,-0.0151365595
3472,-0.005377959
3473,0.00251422
3474,0.001159284
3475,0.00043398436
3476,-0.00087366527
3477,-0.014664077
3478,0.00454029
3479,0.0073763523
3480,-0.005549552
3481,-0.009476689
3482,0.0039369385
3483,0.009542776
3484,0.006942005
3485,0.01797177
3486,-0.004490042
3487,0.0070291385
3488,-0.0051653218
3489,0.0010272062
3490,0.0068530426
3491,-0.00714456
3492,0.008035859
3493,0.004652807
3494,0.0020350192
3495,-0.003312474
3496,-0.0146796545
3497,0.0067700814
3498,0.008963392
3499,0.0009291875
3500,-0.0022241606
3501,-0.00051899964
3502,0.013080582
3503,-0.01030109
3504,0.012519389
3505,-0.009841595
3506,0.0053840685
3507,-0.011519178
3508,-0.0015044645
3509,-0.010814922
3510,-0.008424228
3511,0.0012178206
3512,-0.00061682897
3513,-0.0055997306
3514,0.0014012177
3515,-0.0011566503
3516,-0.000515792
3517,-0.003248003
3518,0.00012266701
3519,-0.0059219035
3520,-0.010864754
3521,-0.010507279
3522,0.0014888379
3523,-0.0039017329
3524,0.008426719
3525,0.013127808
3526,0.0093159415
3527,-0.0063078403
3528,0.010998365
3529,-0.019511992
3530,0.0055991197
3531,-0.007699488
3532,0.005286467
3533,0.009062485
3534,0.0038738083
3535,0.0071244603
3536,0.010584141
3537,0.0037416373
3538,0.015210584
3539,-0.00066786056
3540,-3.532351e-05
3541,0.0058083725
3542,0.0057578944
3543,-0.0026902857
3544,-0.0009300935
3545,0.017328566
3546,-0.01347476
3547,-0.0016494609
3548,0.004754964
3549,0.002713424
3550,-0.006952944
3551,-0.011914311
3552,-0.011423705
3553,0.0024694996
3554,-0.012318097
3555,-0.0001499165
3556,-0.004014484
3557,0.0073311427
3558,0.014047033
3559,-0.0007010557
3560,0.008970168
3561,0.006535586
3562,0.014367901
3563,-0.0060822503
3564,0.0062364736
3565,-0.018809786
3566,0.001353486
3567,-0.0053574275
3568,-0.00096359
3569,-0.012709577
3570,-0.0010772429
3571,0.01158608
3572,-0.003928656
3573,-0.00028302355
3574,0.009300592
3575,0.010152497
3576,-0.0024201465
3577,0.0076002013
3578,-0.006004629
3579,0.012746205
3580,0.0048037884
3581,-0.008319948
3582,-0.00092224975
3583,0.006142683
3584,0.008672698
3585,-0.008879828
3586,-0.0012593867
3587,-0.0008888968
3588,-0.008419418
3589,0.0004320061
3590,-0.005762756
3591,0.00482126
3592,0.008988716
3593,0.0073713404
3594,0.004398757
3595,0.002695058
3596,-0.0014328754
3597,0.011010073
3598,0.013048253
3599,0.008508585
3600,0.014018021
3601,-0.012189803
3602,0.005355339
3603,-0.0037591746
3604,0.0038739669
3605,0.0032459414
3606,0.00017470121
3607,-0.0041422313
3608,-0.0043160273
3609,-0.014310843
3610,-0.005589372
3611,-0.00053322164
3612,0.004776183
3613,0.006321658
3614,-0.0034343048
3615,0.000601519
3616,-0.0023133883
3617,-0.0026982406
3618,-0.011360731
3619,-0.01624567
3620,0.013603625
3621,-0.0037518996
3622,-0.0076343357
3623,0.0018797728
3624,0.0070827287
3625,-0.0035627543
3626,0.0051599187
3627,0.0007539307
3628,-0.004983614
3629,0.014909199
3630,0.008145178
3631,-0.0060880915
3632,0.0071191494
3633,-0.019116493
3634,0.0014357271
3635,-0.0032881545
3636,-0.0067636096
3637,0.0065085315
3638,-0.0042985217
3639,-0.011912113
3640,0.0005405968
3641,0.010415333
3642,-0.011126189
3643,-0.0025556183
3644,-0.0078336885
3645,-0.0055170814
3646,-0.0011501926
3647,-0.0049263453
3648,-0.0012860706
3649,-0.0058618733
3650,0.0015069661
3651,-0.0020259186
3652,0.00044846843
3653,-0.0004144303
3654,0.0018728467
3655,0.0059479657
3656,0.005066808
3657,-0.004851985
3658,-0.005876013
3659,-0.009439972
3660,0.01671751
3661,0.0049014916
3662,0.0035991576
3663,-0.0076930407
3664,-0.0061196885
3665,0.013727009
3666,-0.0015220984
3667,0.008427481
3668,0.003927832
3669,0.0030947092
3670,0.005231247
3671,-0.0027333254
3672,0.014357305
3673,-0.014384728
3674,0.007767488
3675,-0.007939767
3676,0.001716713
3677,0.0008808702
3678,0.00458898
3679,0.01167355
3680,-0.0014550203
3681,0.0069682817
3682,0.010742805
3683,0.010814659
3684,0.012577416
3685,-0.008815184
3686,-0.003974913
3687,-0.006112535
3688,-0.01162979
3689,0.0045340164
3690,0.0045732204
3691,-0.009694612
3692,-0.0032408482
3693,-0.004446733
3694,-0.00885879
3695,-0.011597872
3696,7.188807e-05
3697,-0.008609839
3698,0.0004041946
3699,0.0065450375
3700,0.001797733
3701,0.0041066697
3702,-0.01051143
3703,-0.006700771
3704,-0.003215956
3705,0.0027338793
3706,-0.019233558
3707,-0.0046284646
3708,0.0039363937
3709,0.004941792
3710,-0.0046563447
3711,0.014886788
3712,0.01942514
3713,-0.0026642599
3714,0.004105858
3715,0.0078029707
3716,0.010486654
3717,-0.0036245643
3718,-0.008549109
3719,0.003178155
3720,0.009591497
3721,-0.0004910059
3722,-0.001724909
3723,-0.002448579
3724,0.01600616
3725,0.013308227
3726,-0.009485828
3727,0.0025788185
3728,-0.0025196662
3729,0.0020199842
3730,-0.006395603
3731,0.008374276
3732,-0.0028648318
3733,0.001763355
3734,-0.007920032
3735,0.0034517022
3736,0.0072919503
3737,0.0014291565
3738,-0.005314356
3739,0.014027472
3740,-0.0074818097
3741,0.001256871
3742,0.007369981
3743,0.011728008
3744,-0.0035781392
3745,-0.012772207
3746,0.0014405599
3747,-0.010929342
3748,-0.0039343545
3749,0.004895554
3750,0.017517949
3751,-0.00398959
3752,0.003798802
3753,-0.014110562
3754,0.0024932905
3755,0.007712152
3756,0.0027986441
3757,-0.0043922146
3758,-0.0055415547
3759,-0.0054776776
3760,0.007220068
3761,-0.006126076
3762,0.007155732
3763,-0.010913329
3764,0.0066462285
3765,-0.01785902
3766,0.008651633
3767,-0.00071385794
3768,0.0035228217
3769,0.0017721314
3770,-0.0073865238
3771,0.011315609
3772,0.008175927
3773,0.0041633626
3774,0.0012357171
3775,-0.0022266957
3776,0.00427405
3777,-0.0039499463
3778,-0.0010319181
3779,-0.0021742443
3780,0.0026576298
3781,-0.0014661491
3782,0.012131882
3783,-0.001146095
3784,0.009184227
3785,0.007071399
3786,-0.016411928
3787,-0.008918926
3788,-0.0023036078
3789,0.0152014205
3790,0.0050167358
3791,0.000858542
3792,0.008628732
3793,-0.0043808594
3794,0.0005869342
3795,-0.009021161
3796,-0.010111146
3797,0.011927648
3798,0.0061702398
3799,0.0012937532
3800,0.004578338
3801,0.0035341138
3802,0.006466432
3803,0.0021967827
3804,0.0013604127
3805,-0.010564512
3806,0.0027128311
3807,0.00730571
3808,-0.010932701
3809,0.0027734425
3810,-0.010990429
3811,-0.003209236
3812,-0.003953607
3813,0.011677215
3814,-0.00027741585
3815,-0.0003434344
3816,-0.001887293
3817,0.004480293
3818,0.0020154612
3819,-0.013278486
3820,3.3324726e-05
3821,-0.004060082
3822,0.012140497
3823,0.0012934412
3824,0.0028794506
3825,0.011288096
3826,0.0050346777
3827,-0.00597411
3828,-0.0046208478
3829,0.003850085
3830,-0.015440894
3831,0.0085875755
3832,0.0022903131
3833,0.0038651894
3834,0.013112234
3835,0.0047378326
3836,-0.0066153375
3837,0.016036745
3838,0.00685967
3839,-0.008457222
3840,-0.0029150674
3841,-0.004878142
3842,0.0062878695
3843,-0.0087648025
3844,-0.0018662008
3845,-0.008818864
3846,-0.0025063902
3847,-0.011803299
3848,-0.011771173
3849,0.006081754
3850,-0.0054050926
3851,-0.01241295
3852,0.010023727
3853,-0.009944924
3854,0.014336644
3855,-0.0067938445
3856,-0.002254991
3857,0.010390967
3858,-0.009542131
3859,0.0032867852
3860,-0.006409329
3861,-0.0045231353
3862,0.010687739
3863,0.007995623
3864,0.0021996796
3865,0.0014177429
3866,0.0048925956
3867,0.006546507
3868,0.00508556
3869,-0.002444281
3870,0.0029788048
3871,0.006021378
3872,-0.0017332962
3873,9.025509e-05
3874,-0.0024483618
3875,-0.0013132282
3876,-0.0059222453
3877,-0.017159866
3878,0.0038965202
3879,0.0044638854
3880,-0.004812199
3881,-0.0014004479
3882,-0.0013047621
3883,-0.012712343
3884,-0.00013331017
3885,-0.0064049247
3886,-0.011509385
3887,-0.011946278
3888,-0.004298791
3889,0.0056093573
3890,-0.0013980623
3891,-0.0074726427
3892,-0.00028621024
3893,0.015689781
3894,0.008345913
3895,0.0041548866
3896,0.0033894195
3897,0.0062947427
3898,0.0030556002
3899,0.018735075
3900,-0.007829193
3901,0.012791344
3902,0.00042534748
3903,-0.002435168
3904,-0.005029027
3905,0.005956665
3906,0.0010652619
3907,0.0045324713
3908,0.013238739
3909,-0.012255482
3910,-0.0010982156
3911,-0.0062177465
3912,0.017698348
3913,0.011692073
3914,0.011086553
3915,-0.010500934
3916,-0.0035263626
3917,0.014629958
3918,-0.00085318414
3919,0.014213254
3920,-0.00047325165
3921,0.011650004
3922,-0.0069417306
3923,-0.013409633
3924,0.0077461223
3925,0.0029394615
3926,0.0026122748
3927,0.0037026554
3928,0.00015801446
3929,0.0025641988
3930,-0.0030803639
3931,0.00086203613
3932,0.005290483
3933,-0.0132118715
3934,0.0005838575
3935,0.010873103
3936,0.008190749
3937,0.0053073172
3938,-0.0011221721
3939,-0.0016198383
3940,-0.0056099975
3941,0.013206908
3942,-0.00018978408
3943,-0.0047585345
3944,-0.013543803
3945,-0.0048090094
3946,0.0041153333
3947,0.006465473
3948,0.019546274
3949,-0.0094897915
3950,-0.0055435174
3951,0.009672747
3952,0.005446002
3953,0.0067476043
3954,-0.0019869483
3955,-0.013379859
3956,0.003996175
3957,0.01095878
3958,-0.0047294134
3959,0.0012099383
3960,0.002347936
3961,-0.005110553
3962,-0.0165902
3963,-0.002736715
3964,0.00096886064
3965,-0.016340379
3966,0.007977579
3967,0.016071292
3968,0.0007123863
3969,0.0014515078
3970,0.0123452
3971,0.000554354
3972,0.007609847
3973,-0.015717488
3974,0.005434043
3975,-0.009603023
3976,0.01426395
3977,-0.016467355
3978,-0.0014609835
3979,-0.0012175869
3980,0.0009936859
3981,-0.0014578003
3982,-0.011242754
3983,0.013846434
3984,0.00949228
3985,-0.0038395457
3986,0.00094856403
3987,0.010626224
3988,-0.0016193572
3989,-0.0011814357
3990,-3.2701704e-05
3991,0.0014527414
3992,0.010852767
3993,-6.173115e-05
3994,-0.010504174
3995,-0.0065424675
3996,-0.0075635086
3997,-0.0052463324
3998,0.010181031
3999,0.0033803163
4000,-0.0024245444
4001,-0.008165243
4002,0.004906042
4003,-0.012557635
4004,0.000622553
4005,-0.00912644
4006,0.014573553
4007,-0.008728064
4008,-0.004002264
4009,-0.0033755898
4010,0.010343862
4011,0.01322845
4012,0.013677518
4013,-0.018883152
4014,-0.0013997065
4015,-0.012182108
4016,0.005920898
4017,-0.017784119
4018,0.0044680336
4019,-0.008388519
4020,0.003607024
4021,0.005272712
4022,-0.0016084705
4023,-0.008629411
4024,0.0003115009
4025,-0.012660973
4026,0.0047619473
4027,0.006671255
4028,-0.011541226
4029,-0.0041834125
4030,0.0026099305
4031,0.019658463
4032,0.0015774457
4033,-0.005746512
4034,0.00497004
4035,-0.0043527205
4036,0.011451174
4037,0.0055117398
4038,0.0005380586
4039,0.002347548
4040,0.004371467
4041,-0.0028404717
4042,-0.008238879
4043,-0.0049372977
4044,0.0070105833
4045,0.006331772
4046,0.01071672
4047,0.0012332472
4048,0.0016818392
4049,-0.0118529545
4050,-0.005243149
4051,0.0038312082
4052,0.00847325
4053,0.0063797142
4054,0.0071743727
4055,-0.017291924
4056,0.014362845
4057,0.008290316
4058,-0.018805793
4059,-0.00043239846
4060,-0.004459228
4061,-0.005603316
4062,0.0057312897
4063,0.0019092498
4064,0.0054611736
4065,-0.006570412
4066,-0.0003866483
4067,0.0047114976
4068,-0.0080657
4069,-0.016243376
4070,0.0032525253
4071,0.0073052845
4072,0.017595775
4073,-0.0016351152
4074,-0.0019868077
4075,0.0032814967
4076,0.019389654
4077,0.00095170876
4078,0.0059095356
4079,-0.00754544
4080,0.00026062314
4081,-0.012365933
4082,0.010186456
4083,-0.00652262
4084,0.009761988
4085,0.017875126
4086,0.01198082
4087,-0.007532219
4088,0.013074946
4089,-0.0042457473
4090,0.011439384
4091,-0.007450176
4092,0.002138596
4093,-0.0028672148
4094,0.0039936784
4095,0.0034314964
