Sno,Weight
0,-0.05670977
1,-0.061507717
2,-0.048461005
3,-0.028870258
4,-0.05308079
5,0.053725462
6,-0.009212551
7,0.04165942
8,0.016725551
9,0.035493176
10,-0.06814101
11,-0.016198875
12,-0.08239624
13,0.057457533
14,-0.09160267
15,-0.04254965
16,0.020148745
17,-0.024639513
18,-0.0019058998
19,0.012900894
20,0.0399745
21,-0.043624632
22,0.011086124
23,0.057238437
24,0.06725933
25,0.02050324
26,0.018033955
27,-0.1257702
28,0.0014074922
29,0.015670279
30,0.026844874
31,0.011539056
32,-0.004530559
33,-0.062097006
34,-0.007100573
35,0.004219737
36,-0.007780225
37,0.015118788
38,0.023546493
39,-0.058404926
40,-0.052942358
41,0.030981408
42,0.048613396
43,-0.0115618585
44,-0.017991092
45,-0.075329386
46,-0.059943967
47,0.055651024
48,0.019698866
49,0.017771974
50,-0.06462661
51,-0.0069040675
52,-0.030862134
53,0.003463064
54,-0.0067319633
55,0.07417211
56,-0.052593365
57,-0.046554558
58,0.06408677
59,0.02969292
60,0.0056685144
61,-0.037734922
62,-0.010101292
63,-0.03412529
64,-0.092348665
65,-0.06501765
66,-0.08376175
67,-0.04367194
68,-0.057676353
69,-0.022525769
70,0.03271579
71,0.013320548
72,0.028082011
73,0.02859451
74,-0.0013000433
75,-0.001750643
76,0.06528582
77,-0.0076347557
78,-0.030172367
79,-0.02353829
80,-0.018532822
81,0.017862586
82,0.0036961683
83,-0.03234804
84,-0.043669287
85,-0.008686829
86,-0.0015701388
87,-0.08082489
88,-0.030523652
89,-0.017208846
90,-0.0884235
91,-0.04642218
92,0.0056551713
93,-0.025675373
94,0.055741448
95,-0.123713344
96,-0.018167788
97,0.03277353
98,-0.018468393
99,0.0060569514
100,0.029703042
101,-0.019652534
102,0.0012833676
103,0.03718744
104,-0.040556055
105,-0.0029924833
106,-0.10083044
107,0.037784453
108,0.027631987
109,0.02943018
110,0.0099532325
111,0.03220953
112,0.027978387
113,-0.09195803
114,0.025126584
115,-0.027937664
116,-0.0496401
117,0.007632862
118,-0.05874187
119,-0.040284522
120,0.011048937
121,-0.054024216
122,-0.028037068
123,0.0025132212
124,-0.0064699263
125,0.057023928
126,0.018200196
127,0.034481805
128,0.046936817
129,0.056884497
130,-0.048481654
131,-0.07356598
132,0.038080644
133,-0.006048513
134,0.04978063
135,0.05129328
136,0.023731666
137,-0.0793003
138,-0.028724136
139,-0.09916027
140,0.060871206
141,0.022182846
142,0.013151561
143,-0.072039984
144,0.040582977
145,0.02231494
146,0.041383613
147,0.0425028
148,0.0043880213
149,-0.061564956
150,0.0197548
151,0.021211684
152,0.017274683
153,0.03649228
154,0.022904724
155,0.09349555
156,0.04669834
157,-0.10669931
158,0.060675263
159,0.029586842
160,-0.018690733
161,0.017296381
162,0.05844341
163,0.04748335
164,0.026549408
165,0.027928064
166,0.035237256
167,-0.057639696
168,0.047359243
169,0.019848123
170,0.021155821
171,0.03394381
172,0.059092436
173,-0.1072227
174,0.053814467
175,0.0054700137
176,0.031730033
177,0.022063619
178,0.02183819
179,0.02813461
180,0.0014516948
181,0.053437095
182,0.09897009
183,-0.07550088
184,-0.011418935
185,-0.05455474
186,-0.015978448
187,0.048031665
188,0.02310804
189,0.0076450934
190,-0.038562246
191,0.03224168
192,-0.04485905
193,-0.05103475
194,0.038360916
195,0.030017724
196,-0.08762519
197,0.023965128
198,-0.01615237
199,0.02611387
200,0.032441344
201,0.02477247
202,-0.08638553
203,0.021481523
204,0.053894218
205,0.04543932
206,0.049376134
207,0.020470977
208,-0.09296792
209,0.04458871
210,0.033776324
211,0.042012654
212,0.03318035
213,0.028433638
214,0.03267663
215,0.011830741
216,0.05767034
217,-0.056251816
218,-0.003965681
219,0.039404426
220,0.042974155
221,0.0017095435
222,0.010171159
223,-0.00369924
224,0.044900984
225,0.0023585532
226,0.027016437
227,0.048766885
228,0.06498771
229,0.03525992
230,0.03303832
231,0.043072563
232,0.045517746
233,0.035158344
234,0.08800686
235,0.012585183
236,0.00024407369
237,-0.078163415
238,0.02825189
239,-0.0074602943
240,0.007887465
241,0.034972668
242,-0.07720059
243,0.056562986
244,0.061751585
245,0.051520176
246,0.069141336
247,0.0377792
248,0.024258172
249,0.04840749
250,0.08510113
251,0.0065362
252,0.0086838985
253,-0.12415877
254,-0.045724824
255,0.028745579
256,0.027381832
257,0.010529157
258,0.055095326
259,-0.07350591
260,0.016439548
261,-0.005975984
262,0.053964745
263,0.03915431
264,0.037814174
265,0.06287865
266,0.07602484
267,-0.08423868
268,0.061937403
269,-0.058887642
270,-0.08150972
271,0.07419059
272,0.031692684
273,0.009684398
274,0.04594676
275,-0.004105066
276,0.010890443
277,-0.062019672
278,0.0050361915
279,-0.061006393
280,-0.06854864
281,0.05935827
282,0.01935056
283,-0.05298675
284,0.04206669
285,0.05361104
286,0.028497627
287,0.030975286
288,0.0011166343
289,0.030591598
290,-0.08546433
291,-0.0076965857
292,0.02544785
293,0.01526908
294,0.032619953
295,0.02346923
296,0.043711673
297,0.042818565
298,0.011469313
299,0.018075697
300,-0.05987128
301,0.13344738
302,0.010876026
303,-0.037024047
304,0.0348886
305,0.019374823
306,0.03863561
307,0.033953957
308,0.020535842
309,-0.050137267
310,-0.003965169
311,0.052689597
312,-0.010063358
313,-0.05451029
314,-0.029615372
315,0.023607947
316,0.0262285
317,0.075598426
318,-0.009431919
319,0.029397821
320,-0.09230291
321,0.07164894
322,0.037842095
323,0.023976725
324,-0.08757695
325,0.023462474
326,-0.024037015
327,-0.010829259
328,0.022214254
329,0.00023568755
330,0.07002919
331,0.003212558
332,-0.057859305
333,0.048823915
334,0.048603296
335,0.00483536
336,-0.09279188
337,0.0018492835
338,0.016219597
339,0.037745815
340,0.023369817
341,0.051187847
342,0.024492204
343,-0.080945805
344,-0.05182461
345,0.039790764
346,-5.959482e-07
347,0.045748446
348,0.04926909
349,0.0453622
350,0.0065807304
351,-0.11845604
352,-0.08643735
353,-0.014138134
354,0.036903366
355,0.04243856
356,0.00795209
357,0.025389854
358,0.023036238
359,0.04201403
360,0.04027928
361,0.03558186
362,-0.10061593
363,-5.602477e-05
364,0.00903884
365,-0.08051629
366,0.02119915
367,-0.003147333
368,0.016338682
369,-0.09232403
370,-0.07303453
371,0.024183983
372,-0.06266296
373,-0.044500694
374,0.0062082657
375,0.024848564
376,0.016530976
377,-0.05427909
378,-0.0568587
379,0.039733008
380,-0.04238329
381,-0.060473032
382,0.03289891
383,0.029880162
384,0.02328783
385,-0.044843342
386,0.044826627
387,-0.073553525
388,0.014184364
389,-0.021707997
390,0.009266047
391,-0.04318415
392,-0.05140901
393,0.06705043
394,-0.01704072
395,0.034462042
396,-0.05329796
397,0.011818604
398,0.051111396
399,0.021902509
400,-0.039713874
401,0.04008687
402,-0.05960076
403,-0.0051767062
404,-0.020594819
405,0.044211525
406,-0.0007521034
407,0.017031107
408,-0.081079304
409,-0.0913021
410,-0.025697533
411,-0.12530501
412,-0.03723681
413,-0.10697582
414,0.010185903
415,0.004379186
416,0.02501611
417,0.021128241
418,-0.085468724
419,0.049810212
420,-0.005953909
421,-0.0005364624
422,-0.019791309
423,0.08426597
424,0.04216806
425,0.020657798
426,0.014625054
427,0.0029481766
428,-0.060099233
429,0.05520303
430,-0.018957483
431,0.005338909
432,0.020631967
433,0.021778662
434,0.026201246
435,0.031993322
436,-0.015372651
437,0.05976546
438,0.018163323
439,-0.09853766
440,0.06937781
441,0.044530336
442,-0.028916197
443,0.035314515
444,-0.014300913
445,0.02492652
446,-0.07304261
447,0.028775496
448,-0.08373383
449,0.07348978
450,0.03282581
451,0.030757105
452,-0.08748428
453,0.03723171
454,0.014135978
455,0.0021640016
456,0.019052358
457,-0.03210556
458,-0.08637159
459,-0.041331343
460,-0.06375309
461,0.02260565
462,-0.04343925
463,0.020294357
464,0.07686848
465,-0.03501336
466,-0.07246942
467,0.038323432
468,0.017168524
469,0.028245673
470,0.02521834
471,-0.05388526
472,-0.052113604
473,0.02534696
474,0.043260794
475,0.03059296
476,-0.036102258
477,0.011780612
478,-0.044823464
479,0.0968179
480,0.07470534
481,-0.035644487
482,0.025592055
483,-0.00087694824
484,0.0077056736
485,-0.051444136
486,0.0028260155
487,0.020690622
488,0.03783963
489,0.027212698
490,0.016311925
491,-0.0237242
492,-0.0050235586
493,0.0514538
494,-0.065903194
495,0.009285769
496,0.011093726
497,-0.034732983
498,0.0017081178
499,0.0026141198
500,-0.06274299
501,0.038850155
502,0.024985526
503,0.021544376
504,0.018501889
505,0.06443088
506,-0.056862067
507,0.037601024
508,0.04354573
509,0.0073285815
510,0.07522237
511,-0.01993216
512,0.0050301626
513,0.07501486
514,0.041450303
515,0.061878316
516,-0.015826141
517,0.018226728
518,-0.05218503
519,-0.04243245
520,0.029522303
521,-0.07931034
522,-0.0058990377
523,0.04854247
524,-0.01756261
525,0.029026134
526,-0.005917242
527,-0.028871134
528,-0.03879229
529,-0.005056216
530,-0.059389275
531,0.02590481
532,-0.038643382
533,0.04223766
534,0.006037134
535,0.019740451
536,-0.072605364
537,-0.09100186
538,-0.03608059
539,0.0032568646
540,0.036525186
541,0.050538726
542,0.008995124
543,-0.043333497
544,0.03325527
545,0.01350791
546,-0.08583246
547,0.022968331
548,0.028949922
549,-0.038513564
550,0.0077510076
551,-0.032321595
552,0.0032931769
553,0.011512322
554,0.0037419165
555,0.004224498
556,0.040120292
557,0.031505357
558,0.02455609
559,-0.04544625
560,-0.053659886
561,-0.00094726466
562,0.006910741
563,-0.033869207
564,0.025438556
565,-0.05057841
566,-0.10779582
567,-0.09856095
568,0.0634379
569,0.051681362
570,-0.007737112
571,-0.01953577
572,-0.028056325
573,-0.037497357
574,0.008324284
575,-0.004925239
576,-0.08374193
577,-0.048280094
578,-0.0826337
579,0.042406958
580,0.068373695
581,0.0044717486
582,-0.027807638
583,-0.057625182
584,-0.0013017011
585,0.01941942
586,0.0241996
587,0.06120163
588,-0.057868086
589,-0.043155704
590,0.018936802
591,0.04380496
592,-0.093013756
593,-0.021308225
594,-0.0009607283
595,-0.03530816
596,0.013583356
597,-0.03996788
598,-0.054532308
599,0.07504968
600,0.06833625
601,-0.00040873437
602,-0.083770156
603,-0.0038153834
604,0.0132205365
605,0.021736031
606,-0.02855552
607,-0.030654466
608,-0.086640164
609,-0.03538298
610,-0.03715567
611,-0.005107677
612,0.015444353
613,0.042051423
614,-0.04674319
615,-0.021086862
616,-0.035709035
617,0.0025766832
618,0.014463097
619,-0.024547936
620,0.012816023
621,0.06570718
622,0.042195685
623,-0.0052291597
624,-0.04065216
625,0.10335113
626,0.058709778
627,-0.030572198
628,0.039377492
629,0.012273643
630,0.040495478
631,0.021384899
632,0.0113767665
633,-0.053540874
634,-0.057041503
635,-0.020611681
636,-0.018871332
637,-0.060956944
638,-0.05080333
639,-0.01701045
640,-0.013381487
641,0.04138895
642,-0.048524614
643,0.06910551
644,0.017282343
645,0.016763594
646,-0.051127613
647,0.04864443
648,-0.009909298
649,-0.079338126
650,-0.004822545
651,-0.09428102
652,-0.13189411
653,-0.02320081
654,0.118722275
655,0.10231787
656,0.008096429
657,-0.007110351
658,-0.02590503
659,-0.041481346
660,-0.038730334
661,0.024711901
662,-0.0271062
663,-0.023113476
664,-0.08050158
665,-0.08635244
666,-0.03618992
667,0.019734062
668,-0.036731422
669,-0.106514625
670,0.006004182
671,-0.03387024
672,-0.027649356
673,0.027917743
674,0.0136226285
675,-0.06549103
676,-0.011669531
677,-0.03573714
678,-0.023564104
679,-0.045135237
680,-0.021200681
681,-0.031719275
682,-0.005440703
683,0.0074009513
684,0.027321674
685,-0.052032545
686,-0.021951709
687,-0.021080192
688,-0.05458119
689,-0.00504095
690,-0.0028851875
691,-0.054899763
692,0.0016354703
693,-0.049506266
694,0.010704554
695,0.038205698
696,-0.022367544
697,0.02774511
698,0.002655361
699,-0.020089932
700,-0.028304042
701,-0.03657791
702,-0.071381904
703,-0.09484132
704,0.07941962
705,-0.028336506
706,-0.013554313
707,-0.020600962
708,0.045481417
709,0.007005826
710,-0.014144193
711,0.07379627
712,-0.017933914
713,-0.018602744
714,0.020286785
715,-0.041250706
716,-0.04331962
717,-0.02658552
718,0.0439678
719,-0.0797713
720,0.07832797
721,0.022260735
722,0.041354325
723,-0.035079878
724,-0.019028516
725,-0.0073440666
726,0.013042993
727,0.04118294
728,-0.024520405
729,-0.0025999842
730,-0.09011947
731,-0.03072065
732,0.003937589
733,-0.093668826
734,0.014950992
735,0.028207673
736,-0.086703464
737,0.0025380717
738,0.0043975688
739,0.02304934
740,-0.0034494163
741,-0.0050078286
742,-0.04674904
743,-0.032165416
744,-0.028285846
745,-0.00030731384
746,0.026551206
747,0.018406415
748,-0.00964921
749,-0.08047707
750,-0.06631628
751,-0.034062553
752,-0.0401973
753,0.044296823
754,-0.10486321
755,-0.054691248
756,0.02770002
757,0.018189939
758,0.012493289
759,0.0132287
760,-0.019956041
761,-0.054178607
762,-0.02807256
763,-0.027263233
764,-0.012451732
765,0.007389924
766,-0.046932384
767,-0.031540547
768,-0.016617358
769,-0.0101936925
770,-0.048100274
771,-0.07351511
772,-0.016174398
773,0.0053273016
774,-0.052068934
775,-0.03200594
776,-0.0223261
777,-0.069092
778,0.024299083
779,0.028560622
780,0.016401172
781,-0.03637415
782,0.037386365
783,0.005371932
784,0.0580579
785,-0.05007552
786,-0.026321473
787,-0.026197905
788,0.01936061
789,-0.060781214
790,0.012474949
791,-0.03621837
792,0.026121952
793,-0.034687445
794,-0.03625892
795,0.007195273
796,-0.036471784
797,-0.106982246
798,0.010203582
799,-0.028953224
800,-0.0026016822
801,0.003489325
802,-0.058176797
803,0.0059181135
804,-0.0017034997
805,-0.009446539
806,-0.031210128
807,-0.0578514
808,-0.052854173
809,0.0038031745
810,-0.024469927
811,-0.010782545
812,-0.04309252
813,-0.021606244
814,0.020331718
815,-0.033410855
816,-0.05466838
817,-0.0052816328
818,-0.051410355
819,0.015162757
820,-0.015766853
821,-0.050400663
822,-0.069188185
823,-0.087734856
824,-0.02470131
825,-0.05437818
826,-0.009073337
827,-0.017427389
828,-0.03092781
829,-0.03627508
830,0.078437395
831,-0.016526662
832,0.100463144
833,0.08033363
834,-0.0018923604
835,-0.042155292
836,-0.08781277
837,-0.041702207
838,-0.028759232
839,0.0064558876
840,-0.018458951
841,-0.031850986
842,-0.010047542
843,0.048210252
844,-0.051715173
845,0.036716152
846,0.09886326
847,-0.024660679
848,-0.09279254
849,0.0067428215
850,0.05784425
851,-0.03514265
852,-0.018118467
853,-0.022401208
854,-0.017077567
855,0.043586183
856,-0.02728455
857,-0.0039898576
858,0.012301871
859,-0.013940317
860,0.037734143
861,-0.07941622
862,0.014187903
863,0.072539866
864,-0.08623844
865,-0.03774419
866,-0.008330818
867,-0.044187725
868,0.026603425
869,-0.023026282
870,-0.03073098
871,-0.032423828
872,-0.036995195
873,0.029998424
874,0.015428564
875,-0.03047526
876,-0.023491891
877,-0.074736476
878,-0.066769436
879,-0.035503138
880,-0.04035405
881,-0.06481266
882,0.027411696
883,-0.04254711
884,-0.042118598
885,-0.060967643
886,-0.080277115
887,-0.033073656
888,-0.01519644
889,0.00838002
890,-0.026649961
891,0.025909944
892,-0.02874988
893,-0.085267894
894,-0.030102313
895,-0.032135908
896,-0.011521296
897,0.03700324
898,-0.041779164
899,-0.07352271
900,-0.025461605
901,-0.028857663
902,-0.052018635
903,-0.043139443
904,-0.024037315
905,-0.03245492
906,0.021935476
907,-0.098961815
908,0.09679197
909,-0.03182618
910,0.021811614
911,-0.09771018
912,-0.03706311
913,-0.0459219
914,-0.059688464
915,-0.015231801
916,0.023877649
917,-0.032151632
918,-0.04673738
919,-0.037761785
920,-0.080568284
921,-0.0058225836
922,-0.035582587
923,0.028559316
924,-0.036381528
925,-0.045499124
926,0.012406695
927,-0.046995655
928,0.025788886
929,-0.012988685
930,-0.069977835
931,-0.015574411
932,0.038811937
933,-0.037871942
934,0.041961342
935,-0.009443993
936,-0.01984552
937,-0.016244926
938,0.0067684483
939,-0.04164377
940,-0.05525019
941,0.03691648
942,-0.076031715
943,-0.0072509693
944,-0.05429113
945,0.004985076
946,0.051891856
947,0.026862632
948,-0.021212034
949,-0.05011791
950,-0.050332595
951,-0.076037616
952,0.0055607874
953,-0.05432435
954,-0.03204896
955,-0.033368006
956,-0.031131541
957,-0.0364847
958,-0.053877216
959,-0.020918932
960,-0.09196898
961,-0.06424346
962,0.0069899852
963,-0.030037913
964,-0.048499454
965,-0.041994315
966,-0.029552747
967,-0.028649557
968,-0.015066823
969,0.01627221
970,-0.023816345
971,-0.04130537
972,0.07680837
973,-0.053279623
974,0.07075199
975,0.03923743
976,-0.04233368
977,-0.04037813
978,0.071390264
979,-0.03534666
980,-0.042911615
981,-0.041343972
982,-0.05476321
983,0.008320366
984,-0.048927166
985,-0.009269532
986,-0.025820218
987,-0.04627106
988,-0.031711623
989,-0.050873756
990,0.017886156
991,0.056953516
992,-0.021701235
993,-0.0334329
994,-0.007928115
995,-0.02775999
996,-0.009183704
997,-0.020344459
998,-0.047046456
999,-0.04071362
1000,-0.020554738
1001,-0.032088988
1002,-0.036858834
1003,-0.04341935
1004,-0.0010825738
1005,-0.08115216
1006,-0.06574337
1007,0.0032631026
1008,-0.041295763
1009,0.028207688
1010,-0.104767226
1011,-0.050252426
1012,-0.04479985
1013,-0.05029644
1014,-0.07557898
1015,-0.03617633
1016,0.018573765
1017,-0.042479597
1018,0.09005328
1019,0.008604472
1020,-0.042345226
1021,0.06760487
1022,0.03108586
1023,0.06343825
1024,-0.013824407
1025,-0.06459924
1026,-0.04785788
1027,-0.041025333
1028,-0.024177702
1029,-0.00084665325
1030,-0.038859885
1031,-0.030633397
1032,-0.038328663
1033,-0.05501383
1034,-0.08640429
1035,-0.09654149
1036,0.09844216
1037,-0.018931799
1038,0.018655686
1039,0.019982073
1040,-0.03802477
1041,-0.051006716
1042,-0.05708818
1043,-0.04395232
1044,0.0033437922
1045,-0.061130982
1046,0.007894197
1047,-0.022921152
1048,-0.080540285
1049,-0.011005551
1050,-0.03647361
1051,0.08911854
1052,-0.036673505
1053,-0.040684607
1054,-0.05766775
1055,-0.046530683
1056,-0.016714446
1057,0.0784274
1058,-0.037324958
1059,-0.055549193
1060,0.04032158
1061,-0.036821302
1062,0.0018046421
1063,-0.010636144
1064,-0.019009573
1065,0.03274454
1066,0.011051564
1067,-0.030062601
1068,-0.043453194
1069,0.05635158
1070,0.11138931
1071,-0.04397313
1072,-0.054260638
1073,0.024735132
1074,0.0075560664
1075,-0.05107263
1076,-0.012857611
1077,-0.011884787
1078,-0.035473224
1079,-0.06951874
1080,-0.006200699
1081,-0.054183327
1082,-0.029021155
1083,-0.04147508
1084,-0.031239752
1085,0.07615469
1086,-0.0746671
1087,-0.046433404
1088,-0.04630776
1089,-0.049335565
1090,-0.08365456
1091,-0.016323833
1092,-0.06474422
1093,-0.0417785
1094,-0.025740376
1095,0.024146613
1096,0.042815268
1097,-0.032958955
1098,-0.03966171
1099,-0.041341744
1100,-0.05955941
1101,-0.034530323
1102,0.039787747
1103,-0.022700017
1104,-0.023525847
1105,-0.04081806
1106,0.030846035
1107,-0.034753956
1108,-0.01167717
1109,-0.04270629
1110,-0.054594245
1111,-0.03653235
1112,-0.024513748
1113,0.06737011
1114,0.03052259
1115,-0.024715506
1116,-0.058856156
1117,0.0053274566
1118,0.0044243042
1119,-0.014839811
1120,-0.017844694
1121,-0.04479972
1122,0.014911923
1123,-0.031995557
1124,-0.051538292
1125,-0.051645596
1126,0.0030034075
1127,-0.031029664
1128,-0.03352558
1129,-0.028298527
1130,-0.04010516
1131,-0.037436407
1132,-0.0043294886
1133,-0.04171471
1134,-0.034629162
1135,-0.034741018
1136,-0.041192517
1137,0.011045902
1138,-0.07212465
1139,-0.08814159
1140,-0.04191106
1141,-0.0051541696
1142,-0.05933005
1143,-0.033233147
1144,-0.043781824
1145,-0.054331254
1146,0.01208214
1147,-0.004973111
1148,0.046399835
1149,-0.10988183
1150,0.0062143565
1151,0.043392558
1152,-0.02926434
1153,0.00909646
1154,0.013457227
1155,-0.058004953
1156,-0.015034847
1157,-0.028118314
1158,-0.04488623
1159,-0.04260533
1160,-0.03491632
1161,-0.036303386
1162,-0.014520104
1163,-0.08774249
1164,0.043443087
1165,-0.043058198
1166,-0.0021575498
1167,0.029269278
1168,-0.038834896
1169,-0.007211861
1170,0.0009284859
1171,-0.041931022
1172,-0.028610185
1173,-0.056844313
1174,0.029545825
1175,-0.0239835
1176,-0.021428617
1177,-0.00065832125
1178,-0.036223445
1179,0.055761606
1180,0.013619442
1181,-0.047476813
1182,-0.028877344
1183,-0.046553172
1184,-0.05642193
1185,0.004857097
1186,0.0010760194
1187,0.06239415
1188,-0.031761687
1189,-0.03784894
1190,0.016628431
1191,-0.055218343
1192,-0.052978884
1193,-0.043699555
1194,0.0006078529
1195,-0.031447858
1196,-0.043189954
1197,0.021442227
1198,0.10931854
1199,0.0089789145
1200,-0.026512958
1201,0.052370075
1202,0.00049286534
1203,-0.03846928
1204,-0.032821245
1205,-0.006365433
1206,0.109602846
1207,-0.040624395
1208,-0.009918837
1209,-0.054361574
1210,-0.032044224
1211,-0.037280347
1212,-0.029888548
1213,0.031736355
1214,-0.03912206
1215,0.07091755
1216,-0.056280185
1217,-0.053236153
1218,-0.03744453
1219,-0.04326278
1220,-0.031792767
1221,-0.04194211
1222,-0.028526729
1223,-0.0042033386
1224,0.030624453
1225,0.033029027
1226,-0.035714135
1227,0.035663906
1228,-0.031593036
1229,-0.0554688
1230,0.057424996
1231,0.08463652
1232,-0.028545957
1233,-0.040703278
1234,-0.06551426
1235,-0.031078339
1236,-0.043700375
1237,-0.0303505
1238,-0.027309537
1239,-0.015679622
1240,-0.023455277
1241,-0.07376224
1242,-0.022853442
1243,-0.023047434
1244,-0.058567863
1245,-0.078065984
1246,-0.047690902
1247,-0.004778763
1248,-0.013282435
1249,-0.035255257
1250,-0.018189397
1251,-0.022387058
1252,-0.013620475
1253,-0.051658053
1254,-0.013144759
1255,-0.060140353
1256,-0.032605547
1257,-0.030390644
1258,-0.04090037
1259,-0.004680462
1260,-0.05009393
1261,-0.040029194
1262,-0.06656503
1263,-0.033979375
1264,0.019937277
1265,0.019455833
1266,-0.06233982
1267,0.024665488
1268,-0.04179728
1269,0.030040722
1270,-0.06303764
1271,-0.05852549
1272,-0.045049023
1273,-0.035021596
1274,0.00052658684
1275,-0.042675916
1276,0.03887908
1277,-0.047830045
1278,-0.060611133
1279,0.015376042
1280,-0.00022557976
1281,0.024426725
1282,-0.020998755
1283,-0.03754172
1284,-0.053406503
1285,0.0085204905
1286,-0.018226514
1287,-0.021296129
1288,-0.033868015
1289,-0.017410453
1290,0.0313521
1291,-0.088082
1292,0.042421095
1293,-0.026191166
1294,-0.034343608
1295,0.029907271
1296,0.028722676
1297,-0.048627034
1298,0.0031920916
1299,-0.04171855
1300,-0.006088739
1301,-0.057743385
1302,0.014582956
1303,-0.012379524
1304,-0.019842122
1305,0.00991108
1306,-0.016727852
1307,0.051756386
1308,-0.007312108
1309,-0.034145076
1310,-0.021933101
1311,-0.04693105
1312,-0.020589186
1313,-0.013070661
1314,-0.03103907
1315,0.07312023
1316,-0.02844296
1317,-0.019797793
1318,0.049459003
1319,-0.031183552
1320,-0.05288866
1321,-0.043769576
1322,-0.014609235
1323,-0.045057803
1324,-0.04250472
1325,0.028556557
1326,0.06790978
1327,0.016680172
1328,-0.02196942
1329,-0.00679872
1330,-0.030259635
1331,-0.046930064
1332,-0.020302195
1333,0.002710634
1334,0.11279309
1335,-0.05239809
1336,0.0005630308
1337,-0.0492582
1338,-0.012497107
1339,-0.035418484
1340,0.046927027
1341,0.019967487
1342,-0.026526835
1343,0.08361497
1344,-0.03886461
1345,-0.05054197
1346,-0.062007442
1347,-0.043319255
1348,-0.041405596
1349,-0.03363983
1350,-0.011916223
1351,-0.019810583
1352,-0.04263098
1353,0.022754043
1354,-0.032795385
1355,0.015889026
1356,-0.035797488
1357,-0.045818835
1358,-0.0032319808
1359,0.034459617
1360,-0.022028541
1361,-0.009396354
1362,-0.032936662
1363,-0.008212962
1364,-0.00783059
1365,-0.009935892
1366,-0.011915559
1367,-0.009694714
1368,-0.0062041334
1369,-0.054651063
1370,-0.026850656
1371,-0.045994144
1372,-0.03355251
1373,-0.058146365
1374,-0.0427104
1375,0.0053452644
1376,0.029249113
1377,0.043217175
1378,-0.016660577
1379,-0.0035132025
1380,-0.02505605
1381,-0.040093705
1382,0.0010465527
1383,-0.06449769
1384,-0.03466078
1385,-0.031187821
1386,-0.048340138
1387,-0.020918649
1388,-0.046893142
1389,-0.013407575
1390,-0.055061415
1391,0.036164254
1392,-0.012367491
1393,0.025189536
1394,-0.07379851
1395,0.024854483
1396,-0.041698694
1397,0.019132119
1398,-0.04954362
1399,-0.03191527
1400,-0.044830464
1401,-0.0070492863
1402,-0.016739754
1403,-0.008500854
1404,0.007552703
1405,-0.050524104
1406,-0.030519923
1407,0.021284118
1408,0.022797037
1409,0.010587572
1410,0.0009323779
1411,-0.00974975
1412,0.0020963312
1413,0.005733809
1414,0.012373976
1415,-0.016630221
1416,0.00950896
1417,0.007443688
1418,-0.0022785466
1419,-0.00094894087
1420,0.01765895
1421,-0.008486906
1422,-0.0027561635
1423,-0.0067044096
1424,-0.013717666
1425,-0.011571214
1426,0.0064402195
1427,0.024230894
1428,0.022525446
1429,0.009318828
1430,0.012343987
1431,-0.01089539
1432,-0.009028832
1433,0.026155755
1434,-0.008841663
1435,0.012049979
1436,0.0026803734
1437,0.005584787
1438,0.0051180623
1439,0.001818992
1440,-0.009985482
1441,0.0048176767
1442,-0.0032804147
1443,0.0006065941
1444,-0.0069557563
1445,0.0073089073
1446,0.002070958
1447,-0.01072009
1448,-0.011225379
1449,0.0052687624
1450,-0.0005482893
1451,0.0022923779
1452,-0.014290872
1453,0.006205032
1454,0.003696123
1455,-0.016599348
1456,-0.016167304
1457,0.007972988
1458,-0.011767076
1459,0.0018556888
1460,-0.004100081
1461,-0.0137832
1462,0.0028877042
1463,0.00057669013
1464,-0.004522553
1465,-0.0071839956
1466,0.011836058
1467,-0.012068492
1468,0.016481861
1469,-0.013403277
1470,-0.0023927344
1471,0.021236733
1472,-0.015591749
1473,-0.004355876
1474,-0.003049098
1475,-0.008390925
1476,-0.007939285
1477,0.0071933395
1478,0.004140698
1479,-0.007348875
1480,-0.009418927
1481,-0.0054071876
1482,-0.018557915
1483,0.0016129459
1484,0.0034221993
1485,0.009023861
1486,-0.0034716274
1487,0.025840003
1488,-0.019382054
1489,0.0043901894
1490,0.003958696
1491,0.009600939
1492,0.018913241
1493,-0.0059852214
1494,-0.010773232
1495,-0.0026122837
1496,0.012543757
1497,0.006043869
1498,0.0012427891
1499,-0.0071161026
1500,-0.015123246
1501,9.76467e-05
1502,0.0013691735
1503,0.0027411361
1504,0.0041886196
1505,0.009087864
1506,0.013450659
1507,-0.0016237444
1508,0.00026041665
1509,0.0010648464
1510,0.02175569
1511,0.02035844
1512,0.018462678
1513,0.0033641655
1514,-0.0025785803
1515,-0.013027038
1516,-0.004059449
1517,-0.0024018486
1518,0.0034970671
1519,-0.0052050217
1520,-0.01942966
1521,0.021433048
1522,-0.0033172362
1523,0.018866258
1524,-0.02617881
1525,0.01220837
1526,0.016878292
1527,-1.438491e-05
1528,-0.010186658
1529,-0.01920386
1530,-0.008035378
1531,0.0040884214
1532,-0.01006876
1533,-0.009697638
1534,0.008049515
1535,-0.009364086
1536,0.015200743
1537,0.00661156
1538,0.010741677
1539,0.013028184
1540,0.0011009605
1541,0.004609778
1542,-0.0064572333
1543,-0.01387194
1544,0.011257646
1545,0.00887821
1546,-0.00291068
1547,0.014909903
1548,-0.005951386
1549,-0.018861268
1550,0.007228471
1551,-0.0075688907
1552,0.011058969
1553,-0.0059545347
1554,0.0037892207
1555,-0.00992719
1556,0.016898487
1557,0.0009850599
1558,-0.004477327
1559,-0.0038462463
1560,-0.0016150115
1561,-0.008565002
1562,0.00619972
1563,0.01491809
1564,-0.004652624
1565,0.0066675195
1566,0.0020816277
1567,-0.014134562
1568,0.0027933856
1569,0.007427455
1570,-0.003248828
1571,0.014132624
1572,0.0118183475
1573,-0.018343233
1574,-0.004230641
1575,-0.007587292
1576,0.0079964725
1577,0.002864316
1578,-0.011645599
1579,0.012712643
1580,0.014458461
1581,-0.0023816584
1582,-0.0043421504
1583,-0.008755388
1584,-0.011349321
1585,2.3768698e-05
1586,-0.0062341634
1587,-0.0054688943
1588,0.0014098757
1589,-0.012381329
1590,0.006404239
1591,0.008245105
1592,0.0077388566
1593,-0.0051269853
1594,-0.011104862
1595,-0.0011275363
1596,-0.00039711304
1597,0.009228357
1598,-0.002815867
1599,0.010759482
1600,0.012197982
1601,-0.018081522
1602,0.0059085516
1603,0.004267452
1604,-0.006318911
1605,-0.007104519
1606,0.008815284
1607,-0.0031661114
1608,0.0112558445
1609,-0.0024484773
1610,-0.008540581
1611,-0.0019705615
1612,0.012655469
1613,0.009104383
1614,-0.000629388
1615,0.0076847724
1616,-0.008688682
1617,0.0070791123
1618,0.018404994
1619,-0.0036571634
1620,0.010860147
1621,-0.0047259415
1622,0.0032109336
1623,0.0045128935
1624,0.012155582
1625,0.0033440336
1626,0.011397574
1627,-0.006699541
1628,-0.0042115552
1629,-0.001246114
1630,-0.0060626166
1631,-0.0018814623
1632,0.015521529
1633,-0.0048130616
1634,0.0035499558
1635,0.000154064
1636,0.0075761816
1637,-0.0106663
1638,0.004565413
1639,0.010071078
1640,-0.004813898
1641,-0.017635813
1642,-0.0074049644
1643,-0.01937458
1644,-0.0018232561
1645,0.0067877737
1646,0.007007891
1647,-0.0025837712
1648,0.009079429
1649,-0.0071022944
1650,-0.01525853
1651,0.009071717
1652,0.014614204
1653,-0.003265544
1654,0.001257408
1655,0.0031263577
1656,-0.0077664135
1657,0.0072429418
1658,0.0020730458
1659,0.004691876
1660,-0.015442424
1661,-0.011329798
1662,0.0032618486
1663,-0.007896596
1664,0.0002419609
1665,-0.0048359362
1666,-0.0066275266
1667,-0.0066246274
1668,-0.010341007
1669,0.019929817
1670,0.014777448
1671,-0.011682759
1672,0.015750319
1673,-0.005885487
1674,-0.0038446935
1675,0.004539087
1676,-0.0011663173
1677,0.0120967375
1678,-0.0034084576
1679,-0.008964756
1680,-0.0065232087
1681,0.013433162
1682,0.007527445
1683,0.0018124235
1684,0.00085055816
1685,0.01223529
1686,0.0057278555
1687,-0.0054164473
1688,-0.0062741446
1689,0.008581864
1690,0.014238168
1691,-0.0035880175
1692,-0.009120856
1693,-0.0035902262
1694,-0.011951667
1695,-0.0072842846
1696,-0.0010158153
1697,0.0024741401
1698,0.008944379
1699,0.0076136
1700,-0.00558424
1701,-0.0009469983
1702,-0.0023049815
1703,0.003743518
1704,-0.003411392
1705,0.008223094
1706,0.00591772
1707,0.0055006836
1708,-0.010780518
1709,-0.0030721726
1710,-0.00571365
1711,0.0014789201
1712,0.005853298
1713,-0.0078055505
1714,0.00063979655
1715,-0.007099887
1716,0.0024326236
1717,-0.007126545
1718,-0.00037889846
1719,0.012542958
1720,-0.011032625
1721,-0.0067423657
1722,-0.008628133
1723,0.0025589184
1724,0.010426899
1725,0.009314961
1726,-0.0023339388
1727,0.0042038755
1728,-0.0024211735
1729,0.014013514
1730,0.0003681872
1731,-0.010994032
1732,0.0059185335
1733,-0.016840514
1734,0.0042813034
1735,-0.00037468696
1736,0.015805265
1737,-0.016476683
1738,-0.008314518
1739,-0.006787016
1740,0.005249678
1741,-0.011400518
1742,0.01076521
1743,0.009615397
1744,-0.019502575
1745,0.0060630315
1746,0.0007151504
1747,-0.009655723
1748,-0.0010395657
1749,0.013498755
1750,-0.00815832
1751,0.013461994
1752,0.004041158
1753,0.0051138485
1754,0.0053172987
1755,0.0048254738
1756,-0.011254756
1757,-0.009181232
1758,-0.0049108416
1759,0.018356794
1760,-0.0017544744
1761,0.01604787
1762,0.005171349
1763,-0.0030666122
1764,0.012859941
1765,-0.0067929383
1766,0.01308044
1767,-0.009848845
1768,-0.008200338
1769,0.0016867004
1770,0.0008303478
1771,-0.015253276
1772,0.0042432374
1773,0.0010346421
1774,0.008335326
1775,-0.004636456
1776,0.0012371277
1777,0.010135959
1778,-0.016448956
1779,0.0035051024
1780,-0.000977449
1781,0.0038372837
1782,-0.010503463
1783,-0.0006143735
1784,-0.0046542333
1785,0.0069685797
1786,0.0033073565
1787,-0.0073927925
1788,-0.0060571586
1789,0.001028547
1790,0.012590966
1791,0.0079284245
1792,-0.007677054
1793,-0.0066583185
1794,-0.00024421903
1795,0.00035888227
1796,-0.005182892
1797,-0.012933813
1798,0.00045950906
1799,0.010990126
1800,0.01156034
1801,0.006395907
1802,0.015615084
1803,0.0042079343
1804,0.00081298366
1805,0.0025854728
1806,0.00094173197
1807,0.006086441
1808,0.0031591912
1809,-0.0147983525
1810,0.002570654
1811,-0.004262855
1812,0.013630923
1813,-0.008543418
1814,-0.016557787
1815,-0.0024554043
1816,-0.012294648
1817,0.004606056
1818,-0.00032860495
1819,-0.0022777861
1820,-0.008305654
1821,-0.011288062
1822,-0.014489583
1823,0.0020461548
1824,-0.004302299
1825,-0.0027448838
1826,0.0016794158
1827,0.013841144
1828,0.005832181
1829,-0.006682498
1830,-0.009905755
1831,-0.0030571588
1832,-0.0037342694
1833,0.014778925
1834,0.009392659
1835,0.013244275
1836,-0.0035580548
1837,-0.008375517
1838,0.0021331687
1839,-0.004993318
1840,-0.0020894634
1841,-0.0090008965
1842,0.01429211
1843,0.0037037244
1844,0.0003405822
1845,0.009995415
1846,0.0010225376
1847,-0.004506225
1848,-0.0035382984
1849,0.00853154
1850,0.008514804
1851,0.010386735
1852,-0.0011622453
1853,-0.0049619675
1854,-0.0025841338
1855,0.00085971504
1856,-0.0049676606
1857,-0.0023432288
1858,-0.011209697
1859,-0.0048060818
1860,-0.0025645294
1861,0.009363011
1862,-0.016804485
1863,-0.008213853
1864,0.00525025
1865,0.0069212085
1866,-0.0009825351
1867,-0.018970273
1868,0.003748664
1869,0.009579826
1870,0.0016522086
1871,0.016242675
1872,0.012466121
1873,-0.007876463
1874,-0.0021309175
1875,0.013973447
1876,-0.002303151
1877,-0.002514155
1878,0.019911002
1879,0.006415679
1880,-0.012821292
1881,0.0135260355
1882,0.01571993
1883,0.0006637082
1884,0.014316912
1885,-0.00041069617
1886,-0.004831685
1887,0.0060956576
1888,-0.0038777774
1889,-0.0040007434
1890,0.006239753
1891,-0.012003162
1892,-0.0019635297
1893,0.006979245
1894,0.0035119196
1895,-0.017390765
1896,0.013382194
1897,-0.012556892
1898,0.011783792
1899,-0.0072800415
1900,0.0040227976
1901,0.0044510127
1902,-0.007529213
1903,0.0013510559
1904,-0.0065985583
1905,0.0070940536
1906,-0.01501777
1907,0.0027886746
1908,0.00673742
1909,0.013272996
1910,-0.0038530063
1911,-0.008203734
1912,-0.019390296
1913,0.00012759454
1914,0.0029895636
1915,-0.0041577583
1916,0.00083109975
1917,-0.006894102
1918,0.0020187274
1919,-0.00805015
1920,-1.933638e-05
1921,0.0073281387
1922,-0.0080216145
1923,-0.00012439517
1924,0.011592712
1925,-0.008453074
1926,-0.0043337634
1927,-0.012002426
1928,-0.005515508
1929,0.0046637626
1930,0.018627468
1931,0.01291577
1932,-0.014117975
1933,-0.0076537593
1934,-0.0058513414
1935,-0.004858327
1936,-0.0075660488
1937,-0.01459193
1938,0.0071304915
1939,0.015413993
1940,0.0068151467
1941,-0.009619485
1942,-0.009581257
1943,-9.3255454e-05
1944,0.01638695
1945,0.0086852135
1946,-0.002414796
1947,-0.013025192
1948,0.0042766533
1949,-0.010815995
1950,0.0047021946
1951,-0.006401887
1952,-0.0020780102
1953,-0.0010002463
1954,0.008885747
1955,-0.00310094
1956,-0.009254307
1957,-0.01513747
1958,0.013681501
1959,-0.016165266
1960,0.004512763
1961,-0.0075746286
1962,0.01651238
1963,0.012301526
1964,0.0068300175
1965,0.019150913
1966,-0.0020926492
1967,0.004624165
1968,-0.0041312203
1969,0.0029229885
1970,0.0027919293
1971,-0.013118004
1972,0.013526526
1973,-0.0057822024
1974,-0.017101059
1975,-0.012738075
1976,0.0069692815
1977,-0.01800663
1978,0.0070975404
1979,-0.0010858467
1980,-0.005495363
1981,-0.0029502974
1982,0.012952577
1983,-0.009667494
1984,-0.0070291655
1985,-0.007407502
1986,0.0063686315
1987,-0.0067008412
1988,-0.00093584944
1989,-0.012872419
1990,0.009198742
1991,0.003524195
1992,-0.0064496268
1993,0.006267606
1994,0.0019775175
1995,-0.0043412424
1996,-0.013837776
1997,0.0007285842
1998,-0.012613735
1999,-0.0068990467
2000,-0.0022746357
2001,0.0077770003
2002,0.0030655186
2003,0.004133749
2004,-0.0031262704
2005,-0.007306574
2006,0.002061851
2007,-0.01935613
2008,-0.008064
2009,-0.0027292466
2010,0.0009607953
2011,-0.0073986957
2012,-0.013471764
2013,-0.009628118
2014,-0.0065271948
2015,-0.0020315293
2016,-0.0072661126
2017,0.005562692
2018,0.011289538
2019,0.01034471
2020,-0.0040734583
2021,-0.00065067713
2022,0.01301063
2023,-0.00998788
2024,-0.006362394
2025,-0.0023478637
2026,0.0008457161
2027,-0.0146478135
2028,0.0015062636
2029,-0.007775407
2030,-0.0028411257
2031,0.0029966976
2032,0.0039128307
2033,0.0008853784
2034,0.0026679817
2035,-0.00487985
2036,0.012707039
2037,-0.0019486028
2038,0.001282337
2039,0.00030642402
2040,0.014414309
2041,0.0154129695
2042,0.009892275
2043,0.0011185069
2044,0.0080105765
2045,-0.005041528
2046,-0.008246673
2047,0.001527039
2048,-0.050262637
2049,0.009141263
2050,0.033553936
2051,-0.009514232
2052,0.009218366
2053,0.026736787
2054,-0.016192527
2055,0.04149998
2056,0.020731146
2057,-0.036877893
2058,-0.0017334768
2059,-0.05201965
2060,-0.08539643
2061,-0.058375534
2062,0.037608385
2063,-0.032728173
2064,0.014012036
2065,-0.00047031644
2066,-0.047404543
2067,-0.045644373
2068,0.037656166
2069,-0.04569854
2070,0.041092344
2071,-0.05822347
2072,-0.068302535
2073,-0.022881601
2074,-0.003467058
2075,-0.09622972
2076,0.034938358
2077,-0.05230754
2078,0.04914037
2079,-0.01753334
2080,0.022673676
2081,0.060958993
2082,0.005537025
2083,-0.0061402787
2084,0.020402305
2085,0.010652218
2086,0.036153335
2087,-0.08251291
2088,0.016865475
2089,0.028981736
2090,0.05447533
2091,0.008917583
2092,0.0087272795
2093,-0.033072546
2094,0.06058591
2095,0.04488763
2096,0.008947843
2097,0.043092404
2098,-0.0044851853
2099,0.010858393
2100,-0.0267875
2101,-0.060608234
2102,0.0072574485
2103,-0.07148016
2104,0.051433824
2105,-0.03926046
2106,0.027801933
2107,0.032737058
2108,0.02366279
2109,0.035681162
2110,-0.008420577
2111,-0.031773217
2112,-0.0019294679
2113,0.026066288
2114,-0.04610325
2115,-0.043440264
2116,-0.008335692
2117,-0.038153168
2118,0.021995071
2119,0.026344419
2120,0.04173221
2121,0.03114981
2122,-0.0009167549
2123,0.023034485
2124,-0.078506365
2125,0.012461379
2126,0.055345327
2127,0.03617696
2128,-0.012415997
2129,0.026533477
2130,0.029949712
2131,-0.005177293
2132,-0.01645398
2133,0.0025002018
2134,0.008753799
2135,-0.029331867
2136,0.018491738
2137,-0.027572852
2138,-0.021961
2139,0.009086066
2140,0.0020036444
2141,-0.024267279
2142,0.04310493
2143,0.009597041
2144,0.0020347685
2145,0.014947754
2146,0.025149439
2147,0.018765805
2148,0.02591231
2149,0.0016132664
2150,0.008016051
2151,-0.044920143
2152,-0.0072880057
2153,0.017926525
2154,-0.029556898
2155,0.041818317
2156,-0.03185543
2157,-0.036547206
2158,-0.0049103308
2159,0.017711205
2160,0.01780599
2161,0.015762188
2162,-0.06019721
2163,0.023108495
2164,0.02594355
2165,0.012571663
2166,-0.071379565
2167,-0.02615665
2168,0.018612154
2169,0.025443638
2170,0.023470894
2171,0.022618711
2172,0.0011307474
2173,0.013589291
2174,-0.018466901
2175,0.030489257
2176,0.05538638
2177,0.034037385
2178,-0.05681679
2179,-0.07041414
2180,0.052288085
2181,-0.01579721
2182,0.008836607
2183,0.030638047
2184,0.04368188
2185,-0.068030104
2186,0.027325252
2187,-0.050733194
2188,-0.06218766
2189,0.05752804
2190,-0.014030413
2191,0.071390904
2192,0.036887754
2193,0.028021416
2194,0.025302695
2195,0.022567336
2196,-0.004620281
2197,-0.04586926
2198,-0.023898315
2199,0.059601914
2200,0.07213547
2201,0.051691048
2202,0.0344551
2203,-0.09582571
2204,0.024831377
2205,-0.016372938
2206,0.05202596
2207,0.04500953
2208,-0.0310049
2209,0.024009928
2210,0.08395339
2211,0.06343608
2212,0.02698569
2213,0.0266413
2214,0.040286023
2215,-0.084761016
2216,0.04675774
2217,0.04268226
2218,-0.006926501
2219,0.03970711
2220,0.058678526
2221,0.10643636
2222,0.014521875
2223,0.0074932845
2224,0.045434088
2225,0.041842878
2226,0.06343862
2227,0.027516447
2228,0.053764373
2229,0.048611883
2230,-0.09940625
2231,-0.075099796
2232,-0.065399
2233,-0.055689655
2234,-0.0067726728
2235,0.047279593
2236,0.012657971
2237,-0.07681323
2238,-0.023551809
2239,0.0011801529
2240,0.03326018
2241,-0.0816382
2242,0.035126694
2243,0.03877199
2244,-0.04750688
2245,0.03288834
2246,0.0059940587
2247,-0.0648206
2248,0.035517972
2249,-0.029428193
2250,-0.072487034
2251,0.0008212312
2252,0.057254806
2253,0.054277934
2254,-0.058605924
2255,-0.022920158
2256,-0.080001794
2257,-0.019593023
2258,0.021319568
2259,0.025559925
2260,0.040136248
2261,0.036905315
2262,0.014793808
2263,-0.014219302
2264,0.05052696
2265,0.05604033
2266,-0.0054694363
2267,0.045430426
2268,0.032754585
2269,-0.033835944
2270,-0.021019358
2271,0.0025937431
2272,0.06207262
2273,0.031502444
2274,0.03436134
2275,0.04336112
2276,0.04760445
2277,0.016736874
2278,0.02932991
2279,0.06875302
2280,0.051975362
2281,0.0043114517
2282,-0.08839752
2283,0.020623308
2284,0.045831524
2285,-0.06698749
2286,0.032616448
2287,0.018581914
2288,0.037793424
2289,-0.004905896
2290,-0.060174964
2291,-0.0039563035
2292,0.061222173
2293,0.036632877
2294,0.003997022
2295,0.054241717
2296,0.040651143
2297,0.040602617
2298,0.055381723
2299,0.037821434
2300,0.04092549
2301,0.0015241132
2302,-0.07300592
2303,0.018451747
2304,-0.024932735
2305,0.00027639724
2306,0.046598647
2307,-0.07030738
2308,0.023397092
2309,-0.018898161
2310,0.05033646
2311,0.026704619
2312,0.050102226
2313,0.077392265
2314,-0.074400835
2315,-0.0523682
2316,-0.03899178
2317,-0.058102395
2318,0.091025494
2319,-0.071608566
2320,0.03788828
2321,0.044515632
2322,0.056351166
2323,0.04017279
2324,0.024396086
2325,-0.045722026
2326,0.022325806
2327,-0.058008526
2328,-0.034034904
2329,0.08433341
2330,0.015311463
2331,0.036030427
2332,0.03445604
2333,0.10122788
2334,0.051072065
2335,0.02672474
2336,-0.031680614
2337,-0.021932403
2338,-0.059889305
2339,0.04966284
2340,-0.021699047
2341,0.020067897
2342,-0.044223152
2343,0.03748716
2344,0.051852856
2345,0.009279075
2346,0.028298507
2347,0.029909985
2348,-0.059648134
2349,-0.1343433
2350,-0.0055833315
2351,-0.009133993
2352,0.05131559
2353,-0.035215143
2354,0.04110229
2355,0.02480644
2356,-0.026297057
2357,-0.06022552
2358,0.0025017057
2359,0.09748582
2360,-0.07038114
2361,-0.05566439
2362,-0.000896486
2363,0.028737046
2364,-0.0021049618
2365,-0.014468327
2366,-0.009177262
2367,0.011057012
2368,-0.054966252
2369,0.044620346
2370,0.019457793
2371,0.040458385
2372,-0.06977467
2373,0.039797198
2374,-0.033830587
2375,-0.0098144775
2376,-0.024227938
2377,-0.0214145
2378,0.084942415
2379,0.018045356
2380,-0.078353025
2381,0.03147221
2382,-0.051675368
2383,0.0033620012
2384,-0.08025866
2385,0.014644138
2386,0.028675422
2387,0.02832905
2388,0.039842553
2389,0.019898148
2390,0.03979168
2391,0.07910542
2392,-0.06971489
2393,-0.0018767016
2394,0.025824767
2395,0.020723836
2396,0.030203931
2397,-0.036070734
2398,0.027456457
2399,0.1229678
2400,-0.07610038
2401,0.023747593
2402,0.023572167
2403,0.023149816
2404,0.02642229
2405,0.05059082
2406,0.043768138
2407,0.029036982
2408,0.03189746
2409,0.026992785
2410,0.09844805
2411,0.022021271
2412,0.0018130208
2413,-0.06697347
2414,0.05898457
2415,0.03306449
2416,0.019038573
2417,0.09069548
2418,-0.060241353
2419,0.025394222
2420,-0.06266898
2421,-0.054557543
2422,0.006710867
2423,0.027725633
2424,0.03612009
2425,-0.06560522
2426,-0.09164752
2427,-0.042220168
2428,-0.048968185
2429,-0.011363231
2430,0.042294316
2431,-0.009066048
2432,-0.0020378083
2433,0.050052192
2434,0.036787625
2435,-0.07039308
2436,0.013357398
2437,-0.05442544
2438,0.04440429
2439,-0.05275456
2440,-0.0430835
2441,0.06361172
2442,-0.064209834
2443,0.06387493
2444,0.052959394
2445,0.015080242
2446,-0.052011646
2447,-0.008661812
2448,-0.03026655
2449,0.004492797
2450,-0.047091883
2451,0.018422738
2452,-0.0104558
2453,0.05921739
2454,-0.023136895
2455,0.019168224
2456,-0.05851196
2457,-0.062464368
2458,-0.028135372
2459,0.12502684
2460,-0.04776462
2461,-0.055871088
2462,0.019345604
2463,0.02954133
2464,-0.026422238
2465,-0.030588197
2466,-0.059639305
2467,-0.050397694
2468,-0.041435126
2469,0.0013978962
2470,0.020793984
2471,0.05276075
2472,-0.00740447
2473,-0.034802813
2474,-0.022523787
2475,-0.023901014
2476,-0.059960503
2477,-0.03749196
2478,0.0049814065
2479,0.0022571315
2480,-0.0061325273
2481,-0.030955534
2482,-0.0099346
2483,0.031808525
2484,-0.02676804
2485,0.044249304
2486,0.004057697
2487,-0.054776926
2488,0.00767567
2489,0.053336386
2490,-0.06498483
2491,-0.02649605
2492,-0.023943506
2493,-0.07682899
2494,-0.020558229
2495,0.060848556
2496,-0.101489015
2497,0.048052248
2498,0.082358055
2499,0.017965402
2500,-0.06967118
2501,-0.008899294
2502,-0.026238859
2503,0.005660031
2504,-0.03393721
2505,-0.02652811
2506,-0.059949398
2507,0.027274188
2508,-0.07855714
2509,0.015312609
2510,0.048874564
2511,0.031917866
2512,0.09173626
2513,0.034605183
2514,0.078999
2515,0.021427164
2516,0.012903333
2517,0.035204727
2518,0.052799325
2519,0.035739705
2520,-0.06869256
2521,-0.0041600796
2522,-0.043587722
2523,0.02120176
2524,-0.050921414
2525,0.04497539
2526,-0.027198708
2527,-0.097803734
2528,0.08300393
2529,-0.0037965998
2530,-0.015146014
2531,0.027318183
2532,0.049988195
2533,-0.042974915
2534,-0.03404456
2535,0.020688297
2536,0.017913647
2537,-0.038469624
2538,0.034004837
2539,0.0043954165
2540,-0.029023292
2541,0.07118858
2542,-0.044665102
2543,-0.0075993976
2544,-0.015676487
2545,0.043486826
2546,0.057500973
2547,-0.008062322
2548,-0.06268866
2549,-0.013848396
2550,0.057092898
2551,0.02306113
2552,-0.0255871
2553,0.05272081
2554,-0.09164
2555,-0.04001704
2556,0.004354674
2557,0.06028479
2558,0.06938013
2559,-0.032604218
2560,0.011238537
2561,-0.07650378
2562,0.015284625
2563,0.07311197
2564,-0.04298213
2565,-0.006997926
2566,-0.054981858
2567,-0.052478097
2568,-0.0125937
2569,-0.06796905
2570,-0.03339419
2571,0.09006319
2572,0.015939586
2573,0.013760877
2574,0.01643143
2575,0.028539985
2576,-0.05641583
2577,-0.041101318
2578,-0.04749955
2579,-0.028054407
2580,-0.021971114
2581,0.056357257
2582,-0.0037561601
2583,0.011060228
2584,-0.0454373
2585,-0.062653765
2586,-0.029952398
2587,-0.0041844086
2588,0.015889503
2589,0.104216866
2590,-0.021181624
2591,-0.036259253
2592,-0.03368584
2593,-0.029532664
2594,-0.059795484
2595,-0.016140306
2596,-0.04130556
2597,-0.036837984
2598,-0.0136469025
2599,-0.085035704
2600,0.00034744936
2601,-0.045420058
2602,-0.025046624
2603,-0.018918347
2604,0.041854206
2605,0.026760625
2606,-0.020544391
2607,-0.013034004
2608,-0.038192596
2609,-0.023867609
2610,-0.024379749
2611,0.054719698
2612,-0.0021200222
2613,-0.060259137
2614,0.10756983
2615,-0.055259507
2616,0.0027653046
2617,0.049966753
2618,0.007397717
2619,-0.035534233
2620,-0.021687312
2621,-0.048900776
2622,-0.01154628
2623,0.018832332
2624,-0.10141925
2625,-0.081265844
2626,0.014061342
2627,0.023274973
2628,0.086478844
2629,-0.03820577
2630,0.009901603
2631,0.057367288
2632,-0.04473002
2633,-0.028392952
2634,0.022365402
2635,-0.06210615
2636,-0.038611908
2637,-0.050396502
2638,0.0055913427
2639,-0.043503977
2640,-0.08027257
2641,0.021199707
2642,0.0033429542
2643,-0.045899455
2644,0.022045432
2645,-0.053208455
2646,-0.038292773
2647,-0.075886175
2648,0.022416063
2649,-0.029477434
2650,0.091860995
2651,-0.04678875
2652,0.010645502
2653,0.09352446
2654,-0.0155781
2655,0.037953485
2656,-0.07561358
2657,-0.003906893
2658,-0.041716956
2659,0.025540065
2660,-0.017081052
2661,-0.008243241
2662,-0.038017068
2663,-0.045165446
2664,-0.046517372
2665,-0.04536151
2666,0.029577795
2667,-0.020309875
2668,-0.028610399
2669,0.07555118
2670,0.06507654
2671,0.0045740674
2672,-0.030301927
2673,-0.10416138
2674,0.069609076
2675,0.030037113
2676,0.040285327
2677,-0.054142654
2678,0.078299
2679,0.031380717
2680,-0.033420283
2681,-0.06543249
2682,-0.09172845
2683,-0.035886265
2684,-0.016220959
2685,-0.05107117
2686,-0.07603913
2687,-0.050433557
2688,0.0004899613
2689,-0.047676068
2690,-0.05656611
2691,0.061288804
2692,-0.027072066
2693,-0.01773869
2694,-0.0034560636
2695,0.02246327
2696,-0.042859018
2697,-0.0681611
2698,-0.04011759
2699,-0.032798372
2700,0.13083255
2701,-0.049680226
2702,-0.119326256
2703,-0.103224136
2704,-0.056747604
2705,-0.041159444
2706,-0.047495615
2707,0.004704847
2708,-0.024402205
2709,0.022108655
2710,-0.005381597
2711,-0.05634076
2712,-0.04851783
2713,-0.06258578
2714,-0.02922739
2715,0.02162199
2716,-0.028715482
2717,-0.05571648
2718,-0.06192095
2719,-0.034365762
2720,-0.032570444
2721,-0.03296407
2722,0.057204477
2723,0.06727295
2724,-0.04234771
2725,-0.04039128
2726,0.026337113
2727,0.004763215
2728,0.01571704
2729,-0.046152297
2730,-0.017297607
2731,-0.025375694
2732,0.02229917
2733,0.08480908
2734,-0.03838415
2735,-0.010912063
2736,-0.03820288
2737,-0.025388371
2738,-0.04324824
2739,-0.017234698
2740,0.01843644
2741,-0.05782941
2742,0.0009092859
2743,0.084983
2744,-0.07050007
2745,0.029646525
2746,-0.0028840646
2747,-0.04998734
2748,-0.039029144
2749,-0.073004074
2750,-0.07938136
2751,0.09799021
2752,0.0847544
2753,-0.081435956
2754,-0.009716042
2755,0.022025554
2756,0.06272564
2757,-0.037922196
2758,-0.010884251
2759,-0.07468215
2760,-0.044073503
2761,-0.020169314
2762,-0.0068737827
2763,0.04102411
2764,-0.04361255
2765,-0.034509942
2766,-0.07739843
2767,0.08063374
2768,0.075905696
2769,-0.03538588
2770,-0.07033362
2771,-0.04701156
2772,-0.03830642
2773,-0.053020902
2774,-0.029792404
2775,-0.043595057
2776,-0.06984497
2777,-0.004186587
2778,-0.044469584
2779,-0.04701991
2780,0.031153033
2781,-0.04991575
2782,-0.018463856
2783,-0.024918867
2784,-0.076238126
2785,-0.012755337
2786,-0.042102512
2787,-0.026076518
2788,0.002729154
2789,-0.04308983
2790,-0.038643036
2791,-0.044752475
2792,-0.04667467
2793,-0.0388461
2794,0.03557501
2795,-0.019461717
2796,-0.028769566
2797,-0.06722634
2798,0.00061463664
2799,-0.022070797
2800,-0.009809336
2801,-0.045746513
2802,-0.060115512
2803,0.015984187
2804,0.0195168
2805,-0.053593256
2806,0.057226058
2807,0.024935028
2808,-0.033121794
2809,-0.065585226
2810,-0.09163732
2811,-0.042192657
2812,-0.047831297
2813,0.03692988
2814,-0.075917274
2815,-0.027750237
2816,0.03986564
2817,0.013380322
2818,-0.056690454
2819,-0.07028615
2820,-0.0109096365
2821,-0.019370684
2822,-0.05484086
2823,-0.052200776
2824,-0.03271081
2825,-0.06789239
2826,-0.029108178
2827,0.095412925
2828,-0.011828273
2829,-0.055239543
2830,-0.03701461
2831,-0.02515244
2832,-0.058383815
2833,-0.041065607
2834,-0.029597105
2835,-0.04479842
2836,-0.025388623
2837,-0.04584013
2838,-0.032788165
2839,-0.058219884
2840,0.07960848
2841,-0.062755704
2842,-0.030163592
2843,0.020496454
2844,-0.047776673
2845,-0.056244384
2846,-0.033727687
2847,-0.040005762
2848,-0.034460142
2849,-0.0304355
2850,-0.016187014
2851,-0.007081769
2852,-0.04176414
2853,-0.040303633
2854,0.025615802
2855,-0.040449273
2856,-0.04820973
2857,-0.045603704
2858,-0.021260867
2859,-0.02240428
2860,-0.027292592
2861,0.028557796
2862,-0.016672863
2863,-0.016953276
2864,-0.038249128
2865,-0.05252939
2866,0.00991782
2867,-0.017680947
2868,-0.03566409
2869,-0.06036069
2870,0.086963125
2871,-0.07517591
2872,-0.070397496
2873,-0.055116534
2874,0.008434834
2875,-0.008844524
2876,-0.028458633
2877,-0.05143244
2878,0.073893495
2879,0.028205667
2880,0.0909735
2881,0.06376459
2882,0.020851985
2883,-0.042940028
2884,-0.048069064
2885,-0.03819191
2886,-0.002237003
2887,-0.062493384
2888,-0.029139562
2889,-0.019013537
2890,-0.072358645
2891,-0.04834837
2892,-0.010687763
2893,0.035631526
2894,-0.09930171
2895,0.031596225
2896,-0.08033533
2897,-0.045564514
2898,-0.061459653
2899,-0.046855822
2900,0.0015440001
2901,-0.04155245
2902,-0.038624506
2903,0.004978848
2904,-0.06990799
2905,-0.06363065
2906,-0.037768915
2907,-0.029674346
2908,0.0577803
2909,-0.036719903
2910,-0.018328125
2911,-0.071586475
2912,-0.056989655
2913,0.008117939
2914,-0.041497663
2915,-0.023739962
2916,-0.029588625
2917,-0.042952016
2918,-0.03807353
2919,-0.045056075
2920,-0.047071088
2921,-0.044823978
2922,0.00960095
2923,-0.0056164092
2924,-0.028692964
2925,-0.06710862
2926,-0.044765577
2927,-0.016420135
2928,0.02185012
2929,0.06646619
2930,0.10346366
2931,-0.0138204405
2932,-0.028651236
2933,0.0602533
2934,0.055467736
2935,-0.039835144
2936,-0.030263415
2937,-0.06555988
2938,-0.05015438
2939,-0.03285196
2940,-0.009480967
2941,-0.044744432
2942,-0.07580208
2943,-0.06465702
2944,0.01259397
2945,-0.03276909
2946,-0.056685433
2947,-0.040495984
2948,-0.043524437
2949,-0.017127927
2950,-0.054881573
2951,-0.052221388
2952,-0.04304659
2953,-0.02048808
2954,-0.014837807
2955,0.018790852
2956,-0.09912358
2957,-0.057978075
2958,-0.021349138
2959,0.0986894
2960,-0.011839932
2961,-0.041308265
2962,-0.047101814
2963,0.015591349
2964,-0.022374509
2965,-0.013755596
2966,-0.032663524
2967,-0.058157954
2968,-0.06793808
2969,-0.019643975
2970,-0.030114964
2971,-0.029512493
2972,-0.04782605
2973,-0.05623432
2974,-0.012618726
2975,-0.04035205
2976,-0.03449187
2977,0.012178789
2978,-0.0023304173
2979,0.014653393
2980,-0.041215446
2981,-0.04022718
2982,-0.04315264
2983,-0.020771043
2984,-0.04268651
2985,-0.046746913
2986,-0.03231423
2987,-0.039282665
2988,-0.0600537
2989,-0.03930848
2990,0.07882045
2991,-0.025040362
2992,-0.03823052
2993,-0.0044539752
2994,-0.05361877
2995,-0.043389894
2996,-0.03903113
2997,-0.060212728
2998,0.05015562
2999,-0.041563384
3000,-0.07012149
3001,-0.054984394
3002,-0.016600518
3003,-0.053311042
3004,-0.03434671
3005,0.0074942815
3006,-0.07958702
3007,0.019232422
3008,-0.09305333
3009,-0.077344686
3010,-0.007785289
3011,-0.04288463
3012,-0.069912225
3013,-0.027264545
3014,0.009708075
3015,0.027044335
3016,0.01493746
3017,-0.03748228
3018,-0.03729563
3019,-0.054245975
3020,0.124947675
3021,-0.050364476
3022,-0.07292642
3023,-0.038807463
3024,-0.08002079
3025,0.03996197
3026,-0.0736537
3027,-0.046387386
3028,-0.03814516
3029,-0.015271466
3030,-0.038587768
3031,-0.04815486
3032,-0.058945872
3033,-0.0678267
3034,-0.010883547
3035,-0.046963595
3036,-0.05111428
3037,-0.04708261
3038,-0.05146019
3039,-0.057733305
3040,-0.044196848
3041,-0.052793305
3042,-0.04166038
3043,-0.0043930206
3044,0.007246594
3045,-0.035818122
3046,-0.037443496
3047,-0.044920687
3048,-0.0467013
3049,-0.047247592
3050,0.049320396
3051,-0.038741857
3052,-0.032503672
3053,-0.06656409
3054,-0.044707853
3055,-0.04815701
3056,0.0019198179
3057,-0.027104286
3058,-0.025177782
3059,0.052753385
3060,-0.062812805
3061,-0.053756725
3062,0.031632926
3063,-0.040067088
3064,-0.0331093
3065,-0.047804795
3066,0.041405648
3067,-0.04232308
3068,-0.04907488
3069,0.14624251
3070,-0.018199973
3071,-0.06459058
3072,-0.01679789
3073,0.06349576
3074,-0.056237597
3075,-0.07026845
3076,-0.039899644
3077,0.0007597881
3078,-0.042743716
3079,0.013691216
3080,-0.042722043
3081,-0.067891434
3082,0.0855822
3083,0.07752037
3084,0.10452612
3085,-0.013425525
3086,0.034712993
3087,-0.016693003
3088,-0.004672817
3089,-0.04106614
3090,-0.030398192
3091,-0.009718773
3092,-0.040893428
3093,-0.03613785
3094,-0.032222774
3095,-0.0014677797
3096,-0.01613581
3097,-0.06042137
3098,-0.029612107
3099,0.08682282
3100,-0.047539983
3101,-0.0034759657
3102,-0.06318543
3103,-0.04089171
3104,-0.03239518
3105,-0.07950265
3106,-0.05970695
3107,-0.02464271
3108,-0.04189096
3109,-0.04018243
3110,-0.002002759
3111,-0.007704701
3112,-0.048152905
3113,-0.045444094
3114,-0.0495983
3115,-0.038471557
3116,-0.05999191
3117,-0.0030222975
3118,-0.0039349296
3119,0.0420114
3120,-0.03824675
3121,-0.026749294
3122,-0.00941965
3123,-0.044572897
3124,-0.03928923
3125,-0.0046977066
3126,-0.014365704
3127,0.031505316
3128,-0.0358281
3129,-0.05533242
3130,0.024577957
3131,-0.052798036
3132,-0.031557623
3133,-0.07684793
3134,-0.0054782312
3135,-0.07274769
3136,-0.070349865
3137,-0.081189185
3138,-0.04597757
3139,-0.042572454
3140,-0.027752062
3141,-0.03137454
3142,-0.012071169
3143,-0.024457665
3144,-0.044640556
3145,-0.040824592
3146,-0.059760276
3147,-0.04873309
3148,-0.012171849
3149,-0.0507167
3150,-0.040090002
3151,-0.051289808
3152,-0.04504858
3153,-0.04563361
3154,-0.03148592
3155,-0.04676526
3156,-0.038692776
3157,0.006885355
3158,-0.038544234
3159,-0.017840445
3160,-0.059047338
3161,0.07967947
3162,-0.03460432
3163,-0.047321834
3164,-0.05153479
3165,-0.03732121
3166,-0.0566865
3167,0.015684823
3168,0.005626481
3169,-0.051033407
3170,-0.04161327
3171,-0.050527915
3172,-0.048999898
3173,-0.03207719
3174,-0.035440385
3175,-0.04435043
3176,-0.046583854
3177,-0.046107545
3178,-0.060145326
3179,0.03549884
3180,-0.021554163
3181,-0.059948113
3182,-0.029363789
3183,-0.04521589
3184,-0.00050864543
3185,-0.040896915
3186,-0.0011689173
3187,0.086752586
3188,-0.056052554
3189,-0.0037319735
3190,-0.041916024
3191,-0.040311072
3192,-0.032794807
3193,-0.0651626
3194,-0.09168036
3195,-0.021408852
3196,-0.0072810324
3197,0.0048493403
3198,-0.064287394
3199,-0.04365259
3200,0.021931784
3201,0.04499009
3202,-0.018171439
3203,-0.013720651
3204,-0.04170522
3205,0.013514558
3206,-0.054712817
3207,-0.009403987
3208,-0.019842768
3209,-0.019546391
3210,0.10332071
3211,0.017315311
3212,0.01990006
3213,-0.008592698
3214,0.043424737
3215,-0.030327648
3216,0.026681574
3217,-0.035831798
3218,-0.03782057
3219,-0.006279219
3220,-0.04087034
3221,-0.029732376
3222,-0.026778948
3223,-0.010351373
3224,-0.003338027
3225,-0.00424003
3226,-0.029506829
3227,-0.060298517
3228,-0.0332811
3229,-0.017985359
3230,-0.06246536
3231,-0.03909017
3232,0.053740732
3233,-0.024713205
3234,-0.046893522
3235,-0.055458263
3236,0.011746647
3237,-0.038550757
3238,-0.03983737
3239,0.024064278
3240,-0.048164725
3241,-0.044375964
3242,-0.049757883
3243,-0.038816933
3244,-0.028383577
3245,-0.0050989916
3246,-0.02942072
3247,0.074162
3248,-0.016818296
3249,-0.038542025
3250,0.040201575
3251,0.016999317
3252,0.027001455
3253,0.039600547
3254,0.022486137
3255,-0.0013108318
3256,0.0013265566
3257,-0.037148755
3258,0.018995475
3259,-0.05264803
3260,-0.03792707
3261,0.03408027
3262,-0.011459977
3263,-0.009640522
3264,-0.026884552
3265,-0.047188345
3266,-0.04541577
3267,-0.042882964
3268,-0.02647474
3269,-0.037955776
3270,0.009563569
3271,-0.015667966
3272,-0.038358968
3273,-0.033137992
3274,-0.0175502
3275,0.020399775
3276,0.0009578585
3277,-0.04988789
3278,0.030101234
3279,0.022957966
3280,-0.033237074
3281,-0.02322348
3282,-0.018742552
3283,-0.044714402
3284,-0.03861183
3285,-0.020718684
3286,-0.036941804
3287,-0.022591699
3288,-0.04384946
3289,-0.03958432
3290,0.023343854
3291,-0.047112506
3292,-0.051119458
3293,-0.023172613
3294,0.043951023
3295,0.030003008
3296,-0.005387906
3297,-0.0011761124
3298,-0.039234806
3299,-0.05130466
3300,-0.066033535
3301,-0.04290244
3302,-0.03897753
3303,-0.044980474
3304,-0.04653596
3305,-0.013382402
3306,-0.0020965228
3307,0.004987088
3308,-0.028892025
3309,-0.030300332
3310,0.008945464
3311,-0.038382977
3312,0.006932356
3313,-0.003111168
3314,-0.0074742036
3315,0.004032458
3316,-0.062566176
3317,-0.007260649
3318,0.0030171948
3319,-0.039450876
3320,-0.031826954
3321,-0.03558145
3322,-0.026144806
3323,0.013559159
3324,0.010400699
3325,0.020171702
3326,-0.045085635
3327,-0.010577703
3328,0.0341692
3329,0.020346873
3330,-0.019942611
3331,-0.013828471
3332,-0.022829892
3333,0.0029755041
3334,0.0010311132
3335,0.032631956
3336,-0.01848247
3337,-0.004522389
3338,0.0638144
3339,0.00022567071
3340,-0.009694202
3341,0.009343353
3342,0.008937782
3343,-0.0008128574
3344,0.053340886
3345,-0.030339781
3346,-0.012502411
3347,0.010579788
3348,0.021410739
3349,-0.009187724
3350,0.0030498807
3351,-0.00635988
3352,-0.013102747
3353,-0.014210433
3354,-0.014116539
3355,-0.0084304735
3356,-0.0018118512
3357,-0.025013069
3358,-0.005619067
3359,-0.034108724
3360,0.028088033
3361,0.008701351
3362,-0.010547814
3363,0.00019696662
3364,0.02911294
3365,-0.002685986
3366,-0.018951222
3367,0.003618238
3368,-0.03127435
3369,0.010400027
3370,-0.008717781
3371,-0.03608759
3372,-0.027373368
3373,0.0007272982
3374,0.0034391605
3375,0.039328456
3376,-0.014626839
3377,-0.026211686
3378,0.009137003
3379,0.011806263
3380,0.05597329
3381,0.015320055
3382,0.010061137
3383,0.004065833
3384,-0.021850025
3385,0.0028291761
3386,0.008363451
3387,-0.049425095
3388,-0.03376854
3389,-0.020096915
3390,0.019965762
3391,-0.017660057
3392,-0.012348697
3393,-0.009493719
3394,-0.024588581
3395,-0.031951442
3396,-0.008565225
3397,-0.030162092
3398,-0.030439792
3399,-0.011306655
3400,-0.035933495
3401,0.023313029
3402,-0.011164194
3403,0.0063303392
3404,0.008154916
3405,-0.04067721
3406,0.05007023
3407,0.018526012
3408,0.002773142
3409,0.013686632
3410,0.006470967
3411,-0.018066932
3412,0.030471936
3413,0.00589548
3414,-0.033944298
3415,0.002066095
3416,-0.017331861
3417,-0.0116346665
3418,0.031398974
3419,-0.036732867
3420,-0.009867627
3421,0.016280906
3422,-0.022073112
3423,0.0073138005
3424,0.00795376
3425,-0.018927913
3426,0.01750566
3427,-0.049635433
3428,-0.048826862
3429,-0.037498485
3430,-0.033935707
3431,0.008869519
3432,-0.023743412
3433,0.006477049
3434,0.0049339584
3435,0.0061094654
3436,0.04465556
3437,0.0018358625
3438,0.01665994
3439,0.026263194
3440,-0.0035528983
3441,-0.017292662
3442,0.013269748
3443,0.053329695
3444,-0.016245464
3445,0.023430884
3446,0.024066214
3447,-0.0317738
3448,-1.4549798e-05
3449,0.0069836164
3450,-0.0014791952
3451,-0.001299646
3452,0.023708245
3453,0.025092201
3454,-0.008514084
3455,0.0031414
3456,-0.004810887
3457,-0.004824731
3458,0.015321149
3459,-0.016957324
3460,0.013039879
3461,-0.0005334957
3462,0.004927422
3463,0.009539859
3464,0.008847668
3465,0.005358588
3466,-0.011994338
3467,-0.0013026743
3468,0.018733257
3469,0.0024122228
3470,0.005049433
3471,0.006937168
3472,0.007494804
3473,0.012509028
3474,0.0012240617
3475,3.756398e-05
3476,0.0062375846
3477,-0.004776342
3478,0.0051369825
3479,0.006804731
3480,-0.017605076
3481,-0.016411787
3482,-0.0027836608
3483,-0.006961873
3484,7.205139e-05
3485,0.002546521
3486,0.0025989343
3487,0.009755804
3488,-0.006265916
3489,-0.013373836
3490,0.009237625
3491,0.011621911
3492,0.024933202
3493,0.012756535
3494,-0.00090038613
3495,-0.0014449453
3496,0.002642598
3497,0.010519852
3498,0.0036950847
3499,-0.008056989
3500,-0.0016113245
3501,0.021491991
3502,0.01875778
3503,0.0020775138
3504,-0.0023592536
3505,-0.011866446
3506,-0.009092053
3507,0.010361373
3508,-0.0068236855
3509,0.013499072
3510,0.010896021
3511,-0.0074709137
3512,-0.009166779
3513,-0.012018414
3514,-0.010033799
3515,0.0036207824
3516,0.0030835643
3517,0.009628531
3518,-0.013477078
3519,-0.0040559294
3520,0.0016163087
3521,0.003023862
3522,0.014715966
3523,-0.007392653
3524,0.0014180192
3525,-0.0055275667
3526,-0.00077053136
3527,-0.0048506926
3528,0.0021912968
3529,0.010441427
3530,-0.0007479364
3531,0.014131287
3532,-0.016455302
3533,-0.0023605563
3534,0.0122931935
3535,-0.0033970312
3536,0.008159569
3537,0.010525662
3538,0.0029496523
3539,-0.013482716
3540,0.011210198
3541,0.014316353
3542,0.005350438
3543,0.013438985
3544,0.0031767066
3545,0.016236005
3546,0.0051726536
3547,0.0033544342
3548,-0.015818387
3549,-0.0077955443
3550,0.0037703533
3551,-0.0019324024
3552,0.0070816674
3553,-0.0038715363
3554,0.008164699
3555,-0.013478949
3556,-0.002685014
3557,0.008972513
3558,-0.0030485496
3559,-0.00092868216
3560,-0.0061756517
3561,-0.0048927017
3562,0.01694931
3563,0.014628987
3564,0.012111359
3565,-0.0027597775
3566,0.00322011
3567,0.009698905
3568,0.0014293634
3569,0.004657525
3570,-0.0034446947
3571,-0.0025268397
3572,-0.0021475803
3573,-0.0033739232
3574,0.0012287875
3575,0.00079236494
3576,0.014699154
3577,-0.0017208596
3578,-0.012701147
3579,-0.000594567
3580,0.00542402
3581,-0.015812874
3582,0.00534029
3583,-0.0016098262
3584,0.0045611006
3585,-0.015688896
3586,-0.0013472567
3587,0.014710584
3588,0.008478002
3589,-0.00072701165
3590,-0.0050588488
3591,0.00021944942
3592,-0.006371043
3593,0.0052843676
3594,-0.0014222777
3595,-0.011084118
3596,-0.000989672
3597,0.006027345
3598,0.016421815
3599,-0.006447488
3600,-0.011042383
3601,0.0038955638
3602,-0.001798943
3603,-0.015058529
3604,0.010214777
3605,-0.0001352323
3606,0.0033908673
3607,-0.011140687
3608,-0.005324436
3609,-0.004118335
3610,0.0036208685
3611,0.00355265
3612,0.003120369
3613,0.0040849824
3614,-0.014459661
3615,0.003807792
3616,-0.011662152
3617,0.00052409363
3618,-0.0135863945
3619,-0.01701058
3620,0.015552238
3621,0.00817006
3622,0.0045509576
3623,-0.0011599403
3624,0.0017345352
3625,-0.0036101465
3626,-0.0001453624
3627,0.00083656085
3628,-0.013204998
3629,0.00649471
3630,0.008292129
3631,0.009553118
3632,-0.016297348
3633,0.019170785
3634,0.0013965371
3635,-0.008788637
3636,0.0058646384
3637,0.007911611
3638,-0.018639334
3639,-0.0021659348
3640,0.011655156
3641,0.004418789
3642,-0.0028122964
3643,-0.017634306
3644,0.0072256336
3645,0.0058226287
3646,0.007107556
3647,-0.00217743
3648,-0.005349821
3649,-0.013185255
3650,-0.003105393
3651,-0.011049739
3652,-0.013480323
3653,0.0158967
3654,0.005824424
3655,-0.00010239603
3656,-0.0040621585
3657,0.010093248
3658,0.015028342
3659,-0.004714277
3660,-0.016032547
3661,0.004677708
3662,0.0027538915
3663,0.0037790367
3664,0.0066126315
3665,0.0005181847
3666,0.0071829665
3667,0.0077277306
3668,0.015874611
3669,0.008196493
3670,-0.012698003
3671,0.0072245547
3672,0.0006384216
3673,0.0004019789
3674,-0.006851005
3675,-0.0019060152
3676,-0.0005285194
3677,0.0005219548
3678,0.0030944424
3679,-0.008613489
3680,-0.014716824
3681,-0.0027938602
3682,-0.01992221
3683,-0.014678972
3684,0.009551148
3685,-0.0013220989
3686,-0.0013663572
3687,0.005166348
3688,-0.0041642766
3689,-0.00579989
3690,-0.011981542
3691,0.0033214022
3692,-0.0017839124
3693,0.007223447
3694,0.010304807
3695,-0.008002073
3696,-0.0041913837
3697,-0.013399428
3698,0.011049723
3699,0.011369679
3700,-0.012078242
3701,-0.0002650591
3702,-0.012817509
3703,0.013137124
3704,0.011652151
3705,-0.008608537
3706,-0.009217606
3707,0.0069048796
3708,-0.0146200275
3709,0.012463836
3710,-0.0030748388
3711,-0.010477179
3712,0.00917423
3713,-0.012028857
3714,-0.0049441596
3715,-0.0022811769
3716,0.002284086
3717,-0.0116427215
3718,-0.0037217827
3719,-0.006650681
3720,0.012611955
3721,-0.0052515436
3722,0.012804054
3723,0.013353322
3724,0.00765563
3725,-0.011660853
3726,-0.003273815
3727,-0.0001747619
3728,-0.0069863843
3729,0.004998664
3730,0.004113817
3731,-0.0038485576
3732,0.016188495
3733,0.0017043956
3734,0.015855558
3735,0.009560335
3736,-0.012614289
3737,0.00014728922
3738,0.00090396963
3739,0.014770859
3740,0.0056235027
3741,0.0017847347
3742,0.01456317
3743,0.002477033
3744,-0.0048384853
3745,-0.009894166
3746,-0.004487926
3747,0.013549571
3748,-0.0039046449
3749,0.0076373224
3750,0.015271805
3751,0.0043858183
3752,-0.0031605337
3753,0.0008893867
3754,0.0054433504
3755,0.0010267561
3756,-0.019043308
3757,-0.0031059363
3758,0.009481832
3759,-1.5366373e-05
3760,0.0035816
3761,0.0057262317
3762,0.0033406105
3763,0.007464018
3764,0.0075502438
3765,0.00080125255
3766,0.0016674256
3767,-0.0038599288
3768,0.0067440215
3769,-0.006204597
3770,-0.012250877
3771,0.004093768
3772,-0.011564927
3773,-0.004144132
3774,0.009201011
3775,0.0057314774
3776,0.008636276
3777,-0.0021440976
3778,-0.012048646
3779,0.00030209078
3780,0.005568896
3781,0.014008328
3782,0.003894569
3783,0.0006794624
3784,0.008362575
3785,-0.002932882
3786,-0.00071494584
3787,0.008936768
3788,-0.013206805
3789,-0.0075663193
3790,-0.013523444
3791,-0.011261226
3792,0.007851133
3793,-0.010175582
3794,0.016010124
3795,0.00034061907
3796,0.003337457
3797,0.0019458913
3798,-0.0014406478
3799,0.0017276616
3800,-0.0026843504
3801,-0.009041513
3802,-0.0010677417
3803,-0.004566819
3804,0.0044241208
3805,-0.007974999
3806,-0.002284616
3807,-0.007878724
3808,-0.00069367245
3809,-0.0056130015
3810,0.014086355
3811,0.007370315
3812,0.011395769
3813,0.003256269
3814,-0.004720819
3815,-0.0054082996
3816,0.008595853
3817,-0.010837245
3818,0.0060861222
3819,-0.0029235452
3820,0.003156258
3821,0.0060839662
3822,-0.008796758
3823,-0.006668585
3824,-0.004843987
3825,-0.001977584
3826,-0.00037595685
3827,0.0015505619
3828,-0.002912728
3829,0.010514923
3830,0.0055911224
3831,0.00059329194
3832,-0.002001874
3833,0.0035632236
3834,-0.011130422
3835,0.013442043
3836,0.005951253
3837,-0.0045501385
3838,-0.01039066
3839,-0.006088445
3840,0.016761346
3841,0.0005615837
3842,0.0054750154
3843,-0.0067811618
3844,-0.0070314696
3845,-0.0071536377
3846,-0.0008030624
3847,-0.0012466941
3848,0.0071106367
3849,0.012069491
3850,-0.014333381
3851,0.018343821
3852,0.00045116144
3853,-0.0054382514
3854,-0.019334707
3855,0.011770515
3856,0.0014127867
3857,0.018781984
3858,0.0035400975
3859,-0.00082074053
3860,-0.004315659
3861,-0.009184857
3862,-0.010488838
3863,-0.009394381
3864,0.001263006
3865,0.0005254221
3866,-0.008116522
3867,-0.0040775174
3868,0.0006522165
3869,0.0060925484
3870,-0.002229843
3871,0.004472923
3872,0.012247678
3873,0.0074408916
3874,0.005694741
3875,0.013248531
3876,-0.006359786
3877,0.00952444
3878,-0.004150533
3879,0.005644818
3880,0.016826862
3881,-0.0040057865
3882,0.0015486832
3883,-0.0076976386
3884,0.01749111
3885,0.009597646
3886,0.0018333567
3887,0.009641638
3888,0.013747167
3889,-0.0060375696
3890,-0.007908472
3891,0.008712638
3892,0.0071832347
3893,-0.0037143333
3894,-0.015204905
3895,0.014332585
3896,-0.00662036
3897,0.011134944
3898,0.0065632067
3899,0.012220775
3900,-0.0066290894
3901,-0.0026407822
3902,0.005946437
3903,0.0039963294
3904,0.005830602
3905,0.00415021
3906,0.016330088
3907,-0.0011686009
3908,0.0034317216
3909,0.0063817995
3910,0.012993485
3911,-0.009289427
3912,0.001607525
3913,0.00038310306
3914,-0.0032177696
3915,0.010870026
3916,0.006258465
3917,-0.016729197
3918,0.0053658825
3919,-0.001307192
3920,0.00935742
3921,-0.0041392655
3922,0.0115755
3923,-0.015044994
3924,-0.015064938
3925,0.009713607
3926,0.013199255
3927,0.008222426
3928,-0.00093184423
3929,-0.011051182
3930,-0.012907936
3931,-0.0033629702
3932,0.0050162408
3933,0.016509796
3934,-0.01267493
3935,0.0077394536
3936,-0.010183951
3937,-0.00048339242
3938,0.013089574
3939,-0.010132512
3940,0.0007118865
3941,0.00311757
3942,0.0038482219
3943,-0.0010187424
3944,-0.019268163
3945,-0.0051923124
3946,-0.016218333
3947,0.0059182146
3948,-0.0041785976
3949,0.013865041
3950,-0.007368773
3951,-0.0008660386
3952,-0.007387427
3953,0.0131947845
3954,-0.0108258845
3955,0.008368338
3956,-0.0059744744
3957,0.0047291773
3958,0.011859868
3959,-0.011445383
3960,-0.005206726
3961,0.0074705
3962,0.004610308
3963,-0.0059907967
3964,-0.0012821178
3965,-0.00602983
3966,-0.0007875579
3967,-0.0029204232
3968,-0.00861533
3969,-0.004647871
3970,-0.01225509
3971,0.012307512
3972,-0.0008595253
3973,-0.012022416
3974,0.012231897
3975,-0.013581781
3976,-0.010856479
3977,0.012217761
3978,0.0071889423
3979,-0.0010750256
3980,0.0195405
3981,-0.003779828
3982,-0.009680139
3983,0.013330113
3984,0.0009163187
3985,-0.010195516
3986,0.016212102
3987,-0.002133788
3988,0.0024695355
3989,0.0029606684
3990,-0.014485302
3991,-0.00080715143
3992,0.013006871
3993,0.016775718
3994,0.012137259
3995,0.019529957
3996,-0.009592578
3997,-0.014657131
3998,-0.007917589
3999,-0.004929206
4000,0.00090527296
4001,0.008009746
4002,-0.0019531369
4003,-0.008160246
4004,-0.016074276
4005,-0.0135301845
4006,0.0024358116
4007,0.011793303
4008,-0.004017889
4009,0.013600113
4010,8.578138e-05
4011,0.0024455532
4012,0.012892072
4013,0.007538193
4014,0.012891483
4015,0.011008957
4016,0.009808269
4017,0.008202318
4018,0.012299148
4019,0.0009491713
4020,0.011284655
4021,-0.002137335
4022,-0.004520714
4023,0.0056363186
4024,0.007402906
4025,0.0033151698
4026,-0.0029453288
4027,0.0071296655
4028,-0.0019269113
4029,-0.00077781035
4030,-0.00925132
4031,0.0025882113
4032,0.0074762297
4033,0.004276106
4034,0.019052451
4035,0.006789304
4036,-0.0046407487
4037,-0.015483177
4038,-0.002288352
4039,-0.009323078
4040,-0.011021723
4041,0.008093589
4042,0.0004935251
4043,0.00037290115
4044,0.017509785
4045,-0.000726296
4046,-0.005626681
4047,-0.009080838
4048,0.0077644493
4049,0.008030812
4050,-0.0032050265
4051,-0.017389404
4052,0.0017407277
4053,0.00994181
4054,-0.004635102
4055,-0.004405227
4056,-0.0066402927
4057,0.012331388
4058,-0.009305818
4059,0.0018393202
4060,0.005731365
4061,0.008820577
4062,-0.0058906493
4063,-0.0063568545
4064,-0.012861258
4065,0.011054073
4066,0.0070571783
4067,-0.010378233
4068,0.002337464
4069,0.0016024677
4070,-0.00533409
4071,0.008164703
4072,-0.004689609
4073,-0.003501228
4074,-0.006799847
4075,-0.008436446
4076,0.0045291428
4077,0.004489194
4078,0.007689126
4079,0.0013296522
4080,0.0040478143
4081,0.003804621
4082,0.016424784
4083,-0.0043497123
4084,-0.009571147
4085,-0.008093139
4086,-0.009598426
4087,0.000286667
4088,-0.004104429
4089,-0.011642985
4090,0.011877164
4091,-0.00023180048
4092,-0.015062939
4093,-0.006369161
4094,-0.0145969065
4095,-0.00087028905
