Sno,Weight
0,0.009221283
1,-0.001778838
2,-0.0025456708
3,-0.009098036
4,0.008883781
5,-0.004071639
6,0.0052293143
7,-0.009855536
8,-0.0053728446
9,-0.0057786577
10,-0.008956439
11,0.0061528976
12,-0.001382814
13,-0.0026569501
14,-0.0024804494
15,-0.002186052
16,0.006446938
17,0.0074107647
18,0.0011034869
19,0.0041958494
20,0.0011973755
21,0.0107540535
22,0.001941852
23,-0.01655189
24,-0.013580406
25,-0.000446021
26,-0.001986752
27,0.0019151492
28,0.0010714432
29,0.010997412
30,0.009455535
31,-0.004224001
32,0.008196001
33,-0.01063682
34,-0.017615471
35,0.005679865
36,-0.0060334993
37,-0.00062437274
38,0.016798174
39,-0.0016223483
40,-0.0003726451
41,0.005972901
42,0.0033470932
43,0.0063522467
44,-0.009944249
45,0.0044506574
46,0.0036665536
47,-0.0002542957
48,0.0069818906
49,0.018858666
50,-0.0018374776
51,-0.0034584338
52,0.0015657429
53,-0.011986533
54,0.006276683
55,0.009318232
56,0.0065116175
57,0.016355332
58,-0.0036885473
59,-0.011900691
60,0.01876902
61,-0.0067443755
62,0.003043887
63,0.0052382364
64,-0.0018634115
65,0.0033956887
66,-0.0015890177
67,0.00012093198
68,-0.017429514
69,-0.00980332
70,0.019927546
71,0.004250569
72,-0.014551897
73,0.010506061
74,0.01245166
75,0.016405106
76,0.002081406
77,-0.0116352355
78,0.005476587
79,0.0039066086
80,0.009161679
81,0.00018345533
82,-0.0068769846
83,0.011285664
84,0.015064713
85,-0.010942607
86,-0.012160457
87,0.0100645535
88,0.005513249
89,-0.009911638
90,-0.005098937
91,-0.00062187243
92,-0.003490129
93,-0.004185095
94,0.0015916728
95,0.004275397
96,0.011706728
97,0.008038802
98,-0.0025388983
99,0.00056741794
100,0.0072157425
101,-0.0041395305
102,0.005356874
103,-0.006241599
104,0.01202498
105,0.0037545667
106,-0.011097618
107,0.0021701467
108,0.012294363
109,-0.008789053
110,-0.0007620208
111,0.0008450898
112,-0.0013865619
113,-0.008580819
114,0.010351649
115,0.00409368
116,0.005031398
117,0.0022794309
118,0.005516478
119,0.0061930805
120,0.004521787
121,0.016519785
122,-0.0014329139
123,0.005860724
124,0.016127067
125,0.0066552446
126,-3.850755e-05
127,-0.010439669
128,-0.0057749487
129,0.013458545
130,0.0036539158
131,0.006509793
132,-0.009068138
133,-0.008636646
134,-0.0062792636
135,0.013479326
136,-0.015627397
137,0.009175488
138,-0.018406456
139,0.0075366483
140,0.012054676
141,-0.00935798
142,0.00613437
143,0.011928803
144,0.018103864
145,0.00023001907
146,-0.013285941
147,-0.003982475
148,0.006656863
149,0.0066875042
150,-0.0018359497
151,0.0068855295
152,0.00407888
153,-0.0047959215
154,-0.0061523127
155,-0.004504492
156,-0.008884399
157,-0.013862502
158,-0.006597255
159,-0.009933957
160,0.011434602
161,0.016986309
162,0.010909929
163,-0.004077197
164,-0.0048042904
165,-0.00057204254
166,-0.007882466
167,-0.0008055195
168,0.018727975
169,0.003871077
170,-0.015484466
171,-0.003669165
172,0.006901395
173,-0.008944971
174,0.0040754806
175,0.011525848
176,0.0002965083
177,-0.0015693305
178,-0.0039991084
179,0.0033611597
180,-0.007671443
181,0.016284168
182,0.001499533
183,-0.002494668
184,0.0044253184
185,0.0010039067
186,0.0113353785
187,-0.0023915605
188,0.0050504976
189,0.0120448815
190,-0.012009706
191,0.0073575894
192,0.0074827834
193,-0.0015487064
194,-0.013413378
195,0.0064263972
196,-0.00016655457
197,-0.00031256682
198,-0.013962657
199,-0.0061571766
200,0.017172167
201,0.0018772645
202,-0.005251374
203,0.0031074577
204,-0.0025295778
205,-0.0034751121
206,-0.0006854333
207,-0.008272417
208,0.013222092
209,-0.0072196024
210,-0.00856486
211,-0.015437181
212,0.009679616
213,0.010637412
214,-0.0021847046
215,0.008748612
216,0.00016769124
217,0.0035096724
218,-0.0024980563
219,-0.0015614242
220,0.0028581284
221,-0.004931072
222,0.00079203566
223,0.006460138
224,0.008493383
225,0.000307543
226,-0.005937451
227,-0.0057840366
228,-0.016640479
229,0.012932938
230,0.0056525427
231,0.017171625
232,-0.0005289052
233,-0.0037153082
234,0.014839336
235,-0.004212398
236,-0.008022238
237,-0.008804466
238,-0.0035256117
239,-0.0032219861
240,0.0003403725
241,0.0072964975
242,-0.010657114
243,0.006977056
244,0.01923013
245,-0.005966002
246,-0.007842145
247,0.012302539
248,0.0036666004
249,-0.0014217707
250,0.0077862674
251,-0.0006419407
252,-0.012639425
253,0.005637043
254,-0.015611874
255,-0.000929776
256,0.007917552
257,-0.0028568055
258,-0.0066610845
259,0.009034303
260,0.001280003
261,0.010122546
262,0.0036629227
263,0.016417146
264,0.01536377
265,0.008712502
266,-0.005223443
267,-0.0032535088
268,0.0068014427
269,0.0103293285
270,-0.017752154
271,0.0043080924
272,-0.004187183
273,-0.010832945
274,-0.014199043
275,-0.0029513286
276,-0.0021132452
277,0.012124978
278,0.0035987818
279,0.006331104
280,-0.013073072
281,-0.005974175
282,0.008512448
283,0.008949572
284,0.0044455105
285,0.0016352027
286,0.005749711
287,-0.0012395713
288,0.0063507194
289,-0.0061393967
290,-0.004605896
291,-0.002007304
292,0.011933204
293,0.004264501
294,0.0064019617
295,-0.0063824533
296,0.012449174
297,0.0151376
298,0.0036995183
299,0.010419887
300,0.015843662
301,-0.0089936005
302,-0.00136395
303,0.015649745
304,0.0017042813
305,0.009997135
306,-0.0032082156
307,-0.0048113423
308,-0.00079150836
309,0.007192488
310,-0.00882182
311,0.0192814
312,-0.0005391333
313,0.0011961728
314,-0.0032205172
315,0.00514134
316,0.002906743
317,0.007572624
318,0.0024303356
319,-0.014754631
320,-0.016167115
321,-0.019525433
322,0.004186438
323,0.0010593206
324,-0.0040275697
325,0.0031157783
326,0.012370323
327,-0.00092337356
328,-0.008228956
329,-0.0039777914
330,-0.006558099
331,-0.0077353576
332,-0.0034342988
333,-0.0020224159
334,0.0028891575
335,-0.0020525549
336,0.00886335
337,-0.013895899
338,0.008210727
339,0.012348157
340,-0.0064573917
341,-0.0012764549
342,-0.005548281
343,-0.0021159465
344,0.007177821
345,0.012076793
346,-0.011688976
347,0.0037432516
348,0.009036265
349,0.0014053264
350,-0.0038218459
351,0.0028142843
352,0.0095046
353,0.00094990415
354,-0.0022519238
355,0.007841195
356,0.0076644775
357,-0.0007495503
358,0.0031261395
359,0.0015346322
360,0.012352934
361,0.00865597
362,0.0045456416
363,-0.012306709
364,-0.01699678
365,0.0024879684
366,0.0100997435
367,-0.0016109999
368,0.0017455296
369,-0.0180594
370,0.005046116
371,-0.014320989
372,-0.008008397
373,-0.019632705
374,0.009419438
375,-0.0010359423
376,-0.006936196
377,-0.0012554916
378,-0.011998126
379,0.007585991
380,-0.014717701
381,0.019906158
382,0.009295932
383,-0.01448309
384,0.0011275542
385,0.0064068437
386,-0.01670569
387,0.019208662
388,0.0058129053
389,-0.0058385264
390,0.016465893
391,0.003868692
392,0.0049095554
393,-0.009131343
394,-0.010363845
395,-0.005429583
396,-0.009808353
397,-0.01082853
398,0.019780334
399,-0.0037928857
400,0.008173008
401,-0.007010156
402,0.00032199107
403,0.009473973
404,-0.007303617
405,-0.007318688
406,0.013669522
407,0.005655377
408,-0.013278477
409,0.0022061777
410,0.0048539736
411,0.019528266
412,-0.013146102
413,0.0016862238
414,-0.011777623
415,0.0023187022
416,0.0048032957
417,0.011837437
418,0.0097230915
419,0.01361826
420,-0.0008001267
421,-0.01585942
422,-0.005017651
423,-0.015922079
424,-0.0063943183
425,0.005574586
426,-0.012574919
427,-0.008876585
428,0.01126469
429,-0.018000402
430,0.011589544
431,0.0026783578
432,0.00011061588
433,0.0055294917
434,0.0046246317
435,-0.003816662
436,0.017581424
437,0.00024080982
438,-0.0065047625
439,0.0018821673
440,-0.0036085942
441,-0.0020777646
442,0.0005136457
443,-0.0053095077
444,0.007760223
445,-0.013211015
446,0.015875593
447,0.0075376583
448,-0.0012592206
449,0.012185882
450,0.010482904
451,-0.011802762
452,-0.0040424354
453,0.010107228
454,0.0066781216
455,-0.0012926055
456,0.002282872
457,-0.0047977287
458,-0.004109435
459,-0.010463104
460,0.001491316
461,0.009301563
462,-0.011485425
463,0.0003631186
464,0.0011118304
465,0.0033814088
466,0.009755251
467,-0.0078615565
468,-0.012882328
469,0.00061850756
470,0.017914752
471,0.0031481776
472,-4.599747e-05
473,-0.0022368513
474,-0.003711971
475,0.0027619617
476,-0.016105928
477,0.009548228
478,0.00812305
479,0.009661224
480,0.015869336
481,-0.009217838
482,0.0029285306
483,-0.007861871
484,-0.003309938
485,-0.015866531
486,0.010369384
487,0.0017641268
488,0.008328599
489,0.004350674
490,-0.0009856368
491,0.0022892149
492,0.007282155
493,-0.010196256
494,-0.0054930965
495,0.005957739
496,0.00031445216
497,-0.0010131164
498,-0.0065058307
499,-0.0033654221
500,-0.006040108
501,-0.0022842896
502,-0.0068581565
503,-0.00083332363
504,0.016218292
505,0.006546505
506,-0.01444621
507,0.013595751
508,0.003230657
509,0.0054974174
510,0.012326866
511,0.004173266
512,-0.0067105186
513,0.00073912344
514,0.0029607655
515,-0.0043835538
516,0.002339079
517,-0.0038702732
518,-0.0061546937
519,0.011232654
520,-0.0021617685
521,-0.003933604
522,-0.008928832
523,0.009794213
524,0.0016522196
525,0.0021013732
526,-0.0011534784
527,0.010869554
528,-0.008169337
529,-0.008128014
530,-0.007484891
531,0.014223676
532,-0.004815768
533,0.0019966597
534,-0.015842421
535,0.008115615
536,0.0038498284
537,0.0025529715
538,-0.0038646325
539,-0.0044871266
540,0.0039022362
541,-0.016243432
542,-0.010449706
543,0.013264739
544,0.0009728614
545,-0.0019564657
546,0.004908452
547,-0.0017759678
548,0.0052895625
549,-0.0077947467
550,-0.0036066778
551,0.007776843
552,0.0015648864
553,0.001973912
554,0.00823362
555,-0.0036017732
556,0.0046007014
557,-0.0012212605
558,-0.0008780576
559,-0.01674681
560,0.016622521
561,0.0021920404
562,0.016304052
563,-0.0037865331
564,-0.009593413
565,0.0031157979
566,-0.008114757
567,-0.0010731132
568,0.0009449756
569,-0.0082864575
570,0.007984852
571,0.0045654047
572,0.011273025
573,0.0028685408
574,-0.0060118455
575,0.0044447333
576,0.0013488821
577,-0.0004979311
578,-0.011530847
579,-0.016157586
580,0.0012436943
581,0.0054797432
582,0.010441279
583,0.00046108812
584,-0.00047156718
585,-0.005862639
586,6.6587134e-05
587,-0.004820617
588,0.0082580345
589,0.0045045894
590,-0.004376689
591,-0.011923381
592,-0.0031968046
593,0.008363896
594,-0.018746926
595,-0.004775605
596,0.009431175
597,0.010482541
598,0.019840933
599,0.013524534
600,-0.010783465
601,-0.0016481978
602,0.015710302
603,0.0110115595
604,-0.0056650103
605,0.001724215
606,0.005828908
607,0.0044093546
608,-0.012599962
609,0.00788835
610,0.01179787
611,-0.006322654
612,0.0035615142
613,-0.0048411437
614,0.0034009158
615,-0.014238775
616,0.005222315
617,0.013356256
618,0.007019743
619,0.011919347
620,0.0013806924
621,-0.010595985
622,-0.011848168
623,-0.0011547485
624,0.0012424923
625,-0.015515664
626,-0.009993647
627,0.0045144847
628,-0.002739868
629,-0.01313498
630,-0.015907994
631,-0.010975733
632,0.006775024
633,-0.0087651955
634,0.010151787
635,0.012347884
636,0.0010817681
637,0.01362774
638,0.00021219498
639,-0.005286553
640,-0.008432637
641,0.0025480043
642,-0.0023888312
643,-0.0074422117
644,0.005850466
645,0.00700124
646,0.009436135
647,0.011750814
648,0.006181647
649,0.0030118453
650,-0.0042850445
651,-0.0033898759
652,0.011337813
653,-0.013708665
654,-0.0054984447
655,-0.0102682
656,0.0061355676
657,0.005958601
658,-0.0024864434
659,-0.006562026
660,-0.0074563297
661,-0.01563326
662,-0.0118504865
663,-0.018926762
664,-0.004304703
665,-0.0092924135
666,0.009337002
667,0.0039971657
668,-0.0052719903
669,-0.00436253
670,-0.0035881265
671,-0.014228284
672,-0.0023204463
673,-0.0016608986
674,-0.0095487
675,-0.004533677
676,-0.019269101
677,-0.01935946
678,0.0026767384
679,-0.018118877
680,0.0006146109
681,-0.0055291574
682,0.015348393
683,-0.002931147
684,-0.0012257906
685,0.009271427
686,0.0083841905
687,-0.0029451859
688,0.009335273
689,-0.010773821
690,0.005874201
691,0.0026226235
692,0.015575213
693,-0.007541662
694,0.0045523164
695,0.010431812
696,0.0079334
697,-0.003950638
698,-0.009595291
699,0.012839839
700,-0.006919026
701,-0.0031658916
702,-0.014875572
703,0.010873034
704,0.0047771228
705,0.011516047
706,0.010206731
707,0.004153976
708,0.01180891
709,-0.0022288305
710,0.009968503
711,0.009376498
712,-0.010808473
713,0.015980182
714,-0.0038736728
715,-0.01601741
716,0.009781378
717,0.00092626223
718,0.008711196
719,-0.0028171705
720,0.0045450805
721,0.007294226
722,-0.008347454
723,-0.0005315855
724,-0.016237793
725,-0.003986129
726,-0.005004617
727,0.0030583167
728,-0.014874098
729,-0.013769697
730,0.002887794
731,0.0013798384
732,0.0010628041
733,0.015511113
734,-0.008323855
735,-0.010540429
736,0.008179709
737,-0.01011898
738,0.01831457
739,-0.008852023
740,-0.0023993645
741,0.0071304627
742,-0.003548672
743,0.0041773533
744,0.0007982277
745,-0.011723955
746,0.0093833925
747,0.009538362
748,-0.006327757
749,-0.0029683532
750,-0.011265584
751,0.006659655
752,0.0058951923
753,-0.00091001426
754,0.015520129
755,-0.000996327
756,0.009899852
757,-0.0108684655
758,-0.0011483149
759,-0.0007879894
760,-0.0109283915
761,-0.0062265676
762,-0.0058701825
763,-0.017711133
764,-0.0020372125
765,-0.00025302675
766,0.015017074
767,0.0036270083
768,0.008991079
769,0.0039328127
770,0.007619191
771,-0.01986846
772,-0.006366104
773,-0.01438172
774,-0.0023174786
775,0.0045834994
776,-0.014936116
777,-0.017596217
778,0.0023554934
779,-0.0034733857
780,0.0035028174
781,0.010467075
782,-0.005454522
783,0.0007191838
784,-0.002982428
785,0.00226594
786,-0.008228661
787,-0.009817969
788,-0.0055040843
789,-0.0076864297
790,-0.003188576
791,0.0036440396
792,0.011807858
793,0.0024014825
794,-0.009947414
795,0.0031883316
796,0.0059411954
797,-0.014111699
798,0.0007609235
799,0.010956652
800,-0.00091927254
801,0.008574277
802,0.0026860286
803,-0.0055940337
804,0.0009125426
805,0.0072567365
806,-0.00082412804
807,0.0005252617
808,-0.01126522
809,-0.011710384
810,-0.015171422
811,0.008685826
812,0.0003224355
813,0.005309913
814,-0.0026154185
815,-0.010712688
816,0.0014407979
817,-0.019148039
818,-0.00011397915
819,-0.0059974976
820,-0.0018462486
821,-0.005997208
822,-0.017612556
823,0.0016836735
824,0.013957152
825,-0.00787925
826,-0.009582936
827,-5.3330146e-05
828,-0.016965356
829,0.013024304
830,0.0024878888
831,0.0020216196
832,-0.0048421477
833,0.00020985388
834,-0.0023735433
835,0.0035215963
836,-0.00985399
837,0.004791432
838,0.0030569911
839,0.008951578
840,-0.006700792
841,-0.010918142
842,-0.0030127163
843,0.0033413472
844,-0.0030936704
845,-0.0036097744
846,-0.0061697476
847,-0.008303364
848,-0.0034710327
849,-0.00985401
850,0.013055045
851,-0.007308332
852,8.0597834e-05
853,0.0074091023
854,-0.00233949
855,0.0097764535
856,0.011825781
857,0.013286809
858,-0.0014895902
859,-0.0039843526
860,-0.007430054
861,0.008716299
862,0.007578904
863,0.0016783882
864,-0.019744689
865,-0.0058622085
866,0.010555983
867,-0.0070753023
868,-0.01150196
869,0.006881554
870,-0.0049339733
871,0.012424214
872,0.004341956
873,-0.0057003764
874,-0.013622824
875,0.00444378
876,-0.013858676
877,-0.011933698
878,-0.00024199796
879,0.0010342462
880,-0.0018599269
881,-0.0109033175
882,0.004099125
883,-0.0046060947
884,0.005502449
885,-0.007342246
886,0.0009734432
887,-0.0025468431
888,0.008186936
889,0.010573589
890,-0.011428181
891,-0.006781387
892,-0.004239445
893,0.006681752
894,-0.0016014433
895,0.005604162
896,0.0011225891
897,-0.0012646732
898,-0.007558641
899,-0.0040140394
900,-0.009588143
901,0.0031836533
902,0.0146088535
903,0.0026518763
904,-0.0020340295
905,0.016333902
906,0.0028563535
907,-0.0013708909
908,-0.010861287
909,0.013454282
910,0.008309633
911,0.003593234
912,-0.0006240783
913,0.0073968624
914,0.0004680997
915,-0.0064588035
916,0.010878889
917,0.009065677
918,-0.005479196
919,0.009724095
920,0.013797499
921,0.010676638
922,0.0021594234
923,0.0067476365
924,-0.00024110929
925,0.001599688
926,0.015394215
927,0.0046172542
928,0.009291476
929,-0.013069089
930,-0.009532886
931,0.008726457
932,-0.003917036
933,0.008928728
934,0.0014492226
935,0.0040726685
936,-0.018933449
937,0.012951828
938,-0.0062785577
939,0.011261172
940,0.016560577
941,-3.3507608e-06
942,0.006843744
943,-0.009245552
944,-0.00730876
945,0.017897561
946,-0.0007633871
947,0.0015104463
948,0.0043337326
949,-0.008046515
950,-0.0081338575
951,0.0060437494
952,-0.0019081144
953,-0.0180908
954,-0.0022858437
955,-0.0014175388
956,0.0043591866
957,-0.008723402
958,-0.01788425
959,-0.0056819697
960,-0.0030604845
961,0.012999206
962,-0.002805612
963,-0.0012739616
964,0.010670502
965,0.00067458453
966,0.0053381994
967,-0.0014756743
968,0.0020060407
969,0.014208476
970,0.0014583003
971,0.016819892
972,-0.0051112417
973,-0.006680194
974,0.0024334863
975,0.0037519608
976,0.0064697955
977,-0.0013728591
978,-0.017198186
979,0.011614787
980,-0.013715157
981,-0.0069094375
982,-0.0002855122
983,-0.009894336
984,-0.008196755
985,0.0051125987
986,-0.013025097
987,0.0012443375
988,0.0024386449
989,-0.0126559585
990,-0.0047709784
991,-0.012183613
992,-0.0106730815
993,0.012588386
994,0.0059218723
995,0.0020633268
996,0.002725711
997,-0.00046021194
998,-0.00555858
999,0.0019169315
1000,0.0020646385
1001,-0.01607792
1002,-0.0050037513
1003,0.017057024
1004,-0.003144866
1005,-0.00050177035
1006,-0.009150397
1007,0.005374598
1008,-0.0073995893
1009,-0.0052198363
1010,-0.0016322769
1011,-0.0007445719
1012,0.0018559071
1013,-0.005555978
1014,-0.0042681014
1015,0.0007647406
1016,0.013850295
1017,0.0012255673
1018,0.013066946
1019,-0.0044984906
1020,0.01449942
1021,0.009805896
1022,0.004307646
1023,0.018242469
1024,0.0034369319
1025,0.012303628
1026,-0.016333422
1027,0.0027602403
1028,0.011119368
1029,-0.007638415
1030,-0.011167059
1031,-0.010328492
1032,0.007841742
1033,-0.009444675
1034,-0.003314208
1035,-0.013566014
1036,-0.0029998205
1037,-0.0135298185
1038,-0.0012236149
1039,0.006250281
1040,0.011053137
1041,0.0020264513
1042,-0.013863145
1043,0.0062326686
1044,-0.00065602903
1045,-0.005066767
1046,-0.007507878
1047,-0.00992086
1048,-0.009457125
1049,-0.0053855763
1050,0.0047889305
1051,0.0036729146
1052,-0.003683155
1053,0.015169732
1054,-0.002874986
1055,-0.0009947951
1056,-0.005108029
1057,-0.006900793
1058,-0.01710086
1059,0.006297538
1060,0.018664334
1061,0.00031405056
1062,0.0110986745
1063,0.010068907
1064,-0.0010932987
1065,0.003938078
1066,-0.0056818514
1067,0.008242072
1068,-0.014126729
1069,0.015605171
1070,0.0070242407
1071,0.012715501
1072,0.0039915782
1073,0.005007207
1074,0.0028088759
1075,-0.0013998572
1076,-0.010283107
1077,-0.01270409
1078,-0.014468031
1079,0.005774312
1080,-0.010571309
1081,0.008591726
1082,0.005474716
1083,-0.00030726378
1084,-0.0067001423
1085,-0.0042430423
1086,0.0052242684
1087,0.0075940373
1088,-0.0011331076
1089,0.012379173
1090,-0.0015105378
1091,0.006194152
1092,-0.0070005604
1093,-0.0007802563
1094,0.008016716
1095,0.0007961269
1096,-0.0054319263
1097,0.01764922
1098,-0.0071864254
1099,-0.0069827787
1100,-0.0065491493
1101,0.004571601
1102,-0.002047327
1103,0.010098104
1104,-0.019638482
1105,-0.0077350526
1106,-0.009154294
1107,0.008003917
1108,0.0024392318
1109,-0.019534744
1110,-0.00247725
1111,-0.015235392
1112,-0.010418965
1113,0.006127068
1114,-0.013916463
1115,4.7859383e-05
1116,-0.0062048477
1117,0.0051013795
1118,-0.001523912
1119,0.0055851312
1120,-0.00266279
1121,0.009476511
1122,-0.011133234
1123,0.008466618
1124,-0.0019250382
1125,0.0064191488
1126,-0.0015204849
1127,-0.001076839
1128,-0.012120308
1129,0.0130680045
1130,0.0072911917
1131,-0.0054754443
1132,-0.004409858
1133,-0.013077057
1134,-0.0035344285
1135,-0.011418875
1136,-0.0024389164
1137,-0.010941217
1138,-0.01406801
1139,0.008432025
1140,-0.0012690482
1141,-0.0076921224
1142,0.0013263173
1143,-0.0025021078
1144,-0.015105151
1145,0.01033883
1146,-0.0049554287
1147,0.008391018
1148,0.00447426
1149,-0.0029735218
1150,-0.0070649907
1151,-0.0027492223
1152,0.019438721
1153,0.016000288
1154,0.0016981942
1155,-0.0027095035
1156,-0.0014867109
1157,-0.00024374112
1158,-0.009670539
1159,0.0031844175
1160,-0.008392246
1161,0.012451417
1162,-0.0027697321
1163,0.015102082
1164,0.0056826076
1165,-0.0071108136
1166,-0.002572284
1167,-0.0044873725
1168,0.010422588
1169,-0.008713083
1170,0.012711907
1171,-0.0013968257
1172,0.005365834
1173,-0.011662696
1174,0.0047362144
1175,0.0009291972
1176,0.0009511842
1177,0.013522357
1178,0.0038198214
1179,-0.004049984
1180,0.009442128
1181,0.0112000825
1182,-0.0052746306
1183,0.009657506
1184,-0.006666287
1185,-0.00525729
1186,-0.018401425
1187,0.0075639766
1188,-0.016817244
1189,-0.011006369
1190,0.005954465
1191,-0.007958125
1192,-0.002349679
1193,0.015824424
1194,0.0061227633
1195,-0.009223126
1196,-0.005081815
1197,0.005751557
1198,0.014227072
1199,0.0029986335
1200,0.0008124443
1201,-1.5279202e-05
1202,-0.0088765435
1203,0.0058598416
1204,0.019944673
1205,0.0135629065
1206,0.0076429546
1207,0.0007852533
1208,0.0068583563
1209,0.00021944707
1210,0.0073895343
1211,0.009236369
1212,0.002190159
1213,0.015492282
1214,-0.005259643
1215,-0.007930719
1216,-0.0043137725
1217,0.0013723449
1218,-0.008429278
1219,0.005349025
1220,-0.0016505871
1221,-0.004914016
1222,0.0059316806
1223,-0.0050525204
1224,-0.007916947
1225,0.0020987652
1226,-0.0013447177
1227,0.0023378667
1228,-0.0057878583
1229,0.0014982703
1230,0.0048872475
1231,0.0069245454
1232,0.0009832933
1233,-0.0053901533
1234,-0.011582492
1235,0.006064904
1236,0.004971295
1237,-0.012557762
1238,-0.0025785256
1239,0.0048622023
1240,-0.012301074
1241,-0.0021169933
1242,0.0129499575
1243,-0.009621413
1244,0.003420983
1245,0.0076361126
1246,-0.0044226954
1247,0.002015485
1248,-0.0012798465
1249,-0.014256828
1250,-0.013669497
1251,-0.0014575945
1252,-0.010184461
1253,-0.019047674
1254,-0.008802434
1255,0.006669239
1256,-0.0034311565
1257,0.00026077047
1258,0.005885544
1259,0.00391517
1260,0.0013215117
1261,-0.009557903
1262,-0.003167982
1263,0.002093957
1264,0.003915038
1265,0.00025901076
1266,-0.01684265
1267,-0.007864689
1268,-0.0019683263
1269,0.012029953
1270,-0.010845377
1271,0.004221061
1272,-0.0025124473
1273,-0.013368968
1274,-0.008411681
1275,-0.0019639216
1276,0.011772544
1277,0.017774032
1278,0.009091375
1279,0.00067066035
1280,-0.004800129
1281,0.008616526
1282,0.012174202
1283,0.015151424
1284,0.010378259
1285,0.0047441632
1286,0.0014886261
1287,-0.017655218
1288,-0.0058542197
1289,0.007668476
1290,-0.008846157
1291,0.005772936
1292,0.011461692
1293,0.004831993
1294,0.0046243696
1295,0.004294723
1296,0.011717256
1297,0.00130244
1298,-0.0006541913
1299,0.015599049
1300,0.00044304764
1301,-0.0017643372
1302,-0.013052469
1303,-7.168125e-05
1304,-0.018704005
1305,0.009133028
1306,0.003516469
1307,0.0076340484
1308,0.010952338
1309,0.008301752
1310,-0.008108098
1311,-0.010634095
1312,0.008706282
1313,-0.01225979
1314,0.006259321
1315,-0.00156216
1316,0.012318997
1317,0.008593962
1318,-0.009034565
1319,0.015842156
1320,-0.0018526152
1321,0.009777444
1322,0.00068903406
1323,-0.0034969994
1324,-0.011294616
1325,-0.0028188506
1326,0.0117732305
1327,-0.0009838858
1328,0.0024592706
1329,-0.009230211
1330,-0.013465422
1331,0.018565934
1332,-0.0046668113
1333,-0.0040769256
1334,0.014590795
1335,-0.0024033212
1336,-0.010085063
1337,-0.018034203
1338,0.0046704123
1339,-0.0069349837
1340,0.011298186
1341,-0.0023020222
1342,6.232679e-05
1343,-0.0040711584
1344,0.01684189
1345,-0.0025275252
1346,0.0055185673
1347,-0.012128732
1348,0.004085997
1349,0.018261919
1350,0.014178223
1351,0.014264312
1352,-0.00031738862
1353,-0.0042101326
1354,0.007087648
1355,0.0023676446
1356,-0.0062707076
1357,0.008128193
1358,0.011443836
1359,0.00522654
1360,0.01178323
1361,-0.011860673
1362,0.0025034326
1363,0.006302038
1364,-0.0059947944
1365,-0.004389423
1366,0.004204622
1367,0.009575842
1368,-0.0013978184
1369,-0.0042111897
1370,0.010109033
1371,-0.015749946
1372,0.0037420525
1373,0.004579562
1374,0.0064342148
1375,-0.0046674446
1376,-0.009121119
1377,-0.0077779307
1378,-0.015290764
1379,-0.011900799
1380,0.01667732
1381,0.0035857167
1382,-0.014221224
1383,0.004084533
1384,0.010298101
1385,0.00067385565
1386,-0.0043030106
1387,-0.012199917
1388,0.011302688
1389,-0.01389536
1390,-0.0073372466
1391,0.016091056
1392,-0.00908277
1393,0.011725971
1394,-0.003613248
1395,0.003547952
1396,-0.0068217795
1397,-0.0059021297
1398,-0.0035043834
1399,-0.0125902165
1400,0.009055672
1401,0.01189418
1402,0.0032846874
1403,0.019886283
1404,-0.011874901
1405,-0.012719948
1406,0.0039193374
1407,-0.0025994398
1408,-0.013857394
1409,-0.010125834
1410,0.017623734
1411,0.005732247
1412,0.0048509086
1413,0.014678815
1414,0.01613271
1415,-0.003705863
1416,-0.007984218
1417,-0.00031760547
1418,0.0006516617
1419,0.0070535317
1420,0.002741406
1421,-9.545378e-05
1422,-0.011381426
1423,0.0033104902
1424,-0.009534929
1425,0.011791184
1426,0.002573206
1427,-0.00700692
1428,-0.0011731139
1429,0.000712271
1430,-0.0014190217
1431,0.0018282266
1432,-0.008605361
1433,0.0063485852
1434,-0.010587025
1435,-0.009739602
1436,0.0011051268
1437,0.005377594
1438,-0.0044340836
1439,-0.0015052808
1440,0.0042787865
1441,0.002915598
1442,-0.009332354
1443,-0.01286657
1444,-0.0051612332
1445,0.016348055
1446,-0.00611761
1447,0.0022545008
1448,-0.00279309
1449,0.009852892
1450,0.0009234867
1451,-0.019294882
1452,0.0017682142
1453,-0.0057124677
1454,-0.0030218358
1455,0.005195435
1456,-0.0023575036
1457,0.0014825229
1458,0.0025360372
1459,0.00095400173
1460,0.015114855
1461,0.004398069
1462,-0.012030965
1463,0.002968837
1464,-0.015053775
1465,-0.0037835506
1466,0.010637145
1467,0.016303249
1468,-0.0033436015
1469,0.0054866318
1470,0.0024883996
1471,0.0032350477
1472,-0.007852789
1473,0.012587996
1474,-0.0059841145
1475,0.009439728
1476,-0.015259821
1477,-0.0071737277
1478,-0.014502607
1479,-0.0036325553
1480,5.7847923e-05
1481,0.017652987
1482,0.0018953407
1483,-0.006972599
1484,-0.018768467
1485,0.008477126
1486,0.00823311
1487,-0.003019151
1488,0.0020498117
1489,-0.002264596
1490,0.0064673773
1491,0.014239056
1492,-0.0038816063
1493,-0.015141974
1494,-0.0067334804
1495,-0.00077706465
1496,0.019101629
1497,-0.0077902325
1498,0.01920285
1499,-0.006418175
1500,-0.0002905535
1501,-0.017556615
1502,-0.012165742
1503,-0.01515386
1504,-0.0038636988
1505,0.0024270688
1506,-0.010551214
1507,-0.012645271
1508,0.0032066237
1509,-0.004525237
1510,0.008070243
1511,0.006609866
1512,-0.007816731
1513,-0.008576377
1514,0.009506237
1515,-0.00068590377
1516,-0.0058144787
1517,0.015654339
1518,-0.009628518
1519,-0.0052104895
1520,0.0035952143
1521,-0.0013443409
1522,0.005802138
1523,0.0029089856
1524,-0.004276865
1525,-0.009550927
1526,0.017036732
1527,-0.00045838812
1528,0.008186826
1529,-0.018039467
1530,0.009291288
1531,-0.00066088815
1532,-0.0072875516
1533,-0.0029102983
1534,0.004700046
1535,0.015862895
1536,0.0036793698
1537,-0.0025377204
1538,-0.0062939054
1539,0.0073280013
1540,-0.017800206
1541,0.007204752
1542,-0.01615679
1543,0.0023079661
1544,0.0053548114
1545,0.00012349959
1546,-0.0019855518
1547,-0.0060117124
1548,-0.0008090443
1549,-0.011785205
1550,-0.008943459
1551,-0.00040978772
1552,-0.0037005304
1553,0.0019335619
1554,0.0016155456
1555,-0.013977537
1556,-0.014241884
1557,-0.0057891314
1558,0.0061282846
1559,0.006140709
1560,-0.009664269
1561,0.004296727
1562,-0.0057406146
1563,0.018455109
1564,-0.009680954
1565,-0.0044197557
1566,-0.01029683
1567,-0.002483125
1568,0.0100325765
1569,-0.0098647475
1570,-0.009160986
1571,-0.0008943864
1572,0.01952792
1573,-0.015379288
1574,-0.010863723
1575,0.015633587
1576,0.00769826
1577,-0.008556648
1578,-0.0071020154
1579,0.008067258
1580,-0.007172911
1581,-0.0010490543
1582,0.0053048716
1583,0.005286111
1584,-0.0077987057
1585,0.006371192
1586,0.011490939
1587,-0.006331577
1588,-0.0073456005
1589,-0.011370856
1590,-0.0058114487
1591,-0.015585246
1592,-0.0033140767
1593,-0.009107492
1594,-0.01081792
1595,0.001036123
1596,0.010842341
1597,0.009621877
1598,-0.007904364
1599,-0.0003852497
1600,0.0041058026
1601,0.00924256
1602,-0.004920443
1603,0.015274387
1604,-0.015397009
1605,0.006393425
1606,-0.0088323895
1607,-0.0024146351
1608,0.0068224575
1609,0.018869903
1610,-0.0010893707
1611,-0.00066811865
1612,0.00095994346
1613,0.00073514157
1614,-0.017926088
1615,-0.000112883856
1616,0.014739162
1617,-0.007269083
1618,-0.0014323172
1619,0.011792257
1620,0.017480377
1621,0.001345339
1622,0.011519111
1623,0.007470081
1624,0.002462296
1625,-0.014111739
1626,-0.016744757
1627,-0.015028449
1628,-0.009932262
1629,-0.0024408908
1630,0.0007984397
1631,-0.0012930345
1632,-0.010523124
1633,0.0018029268
1634,0.002906313
1635,0.01088581
1636,-0.01959254
1637,0.007556349
1638,0.003890798
1639,-0.0014983459
1640,0.00969779
1641,0.0034358937
1642,0.012061404
1643,0.013710265
1644,0.0023641856
1645,-0.0053112004
1646,0.0018389483
1647,-0.010403267
1648,0.00038029058
1649,-0.0018348027
1650,0.013062735
1651,0.008382919
1652,-0.013837662
1653,0.003234743
1654,-0.00033775723
1655,-0.0035691066
1656,-0.0041605453
1657,0.009416807
1658,-0.0025721148
1659,-0.0052472674
1660,-0.0072203455
1661,0.0022907096
1662,-0.011313145
1663,0.005860897
1664,-0.0011337431
1665,0.012683984
1666,0.001894551
1667,0.0039259205
1668,-0.01887057
1669,0.011613945
1670,-0.01605709
1671,-0.00806592
1672,0.01133882
1673,0.006374461
1674,-4.4331455e-06
1675,-0.0049316036
1676,0.0043897782
1677,0.0001811599
1678,-0.002408666
1679,0.010146247
1680,0.011484074
1681,0.0047750687
1682,-0.006233065
1683,0.0040140203
1684,-0.0018588316
1685,-0.0069081914
1686,-0.0023614946
1687,0.012845602
1688,-0.008511277
1689,0.009323475
1690,-0.0019841804
1691,-0.012493292
1692,-0.0031274909
1693,-0.019440018
1694,0.001022558
1695,-0.008747747
1696,0.015103689
1697,0.0007868769
1698,-0.0023205876
1699,0.0025461449
1700,-0.008357073
1701,0.0017550515
1702,-0.0035513823
1703,0.0065264083
1704,-0.018535258
1705,0.011857255
1706,0.0046423855
1707,0.00039616678
1708,0.017403737
1709,-0.0076151853
1710,0.018223323
1711,0.0018604946
1712,0.0043782126
1713,0.010083017
1714,0.015255057
1715,-0.00032686457
1716,-0.0033813429
1717,-0.01623553
1718,-0.013285302
1719,0.0036589664
1720,0.008892486
1721,-0.0043988833
1722,-0.005396248
1723,-0.0027044457
1724,0.016345046
1725,-0.0035573996
1726,-0.0035809102
1727,-0.011533918
1728,-0.0076865386
1729,0.004773408
1730,0.0081664575
1731,-0.0038215832
1732,-0.007325881
1733,-0.007714362
1734,0.0014284956
1735,0.0019527742
1736,-0.010052946
1737,-0.005922557
1738,-0.010982856
1739,0.004398298
1740,0.008539885
1741,0.005425089
1742,0.0023951551
1743,-0.0050382605
1744,-0.0077316873
1745,0.0037869527
1746,-0.0026416567
1747,-0.0018987198
1748,0.0070972424
1749,0.012264312
1750,-0.002951599
1751,-0.01582239
1752,0.011239049
1753,0.015951598
1754,0.0009687272
1755,0.009280822
1756,-0.003918368
1757,-0.00072721374
1758,-0.0011568451
1759,0.011425594
1760,-0.003168195
1761,-0.010372725
1762,-0.015303322
1763,0.003400049
1764,0.001006108
1765,0.011606438
1766,0.0060167164
1767,0.00577422
1768,-0.00238754
1769,0.0007891078
1770,-0.011868873
1771,-0.003328498
1772,-0.014627348
1773,-0.009138662
1774,-0.0038560997
1775,-0.01070357
1776,-0.0017389355
1777,0.0010865134
1778,-0.006406622
1779,0.008311626
1780,0.014363129
1781,0.0027195122
1782,-0.013999496
1783,-0.0076523796
1784,0.0012500349
1785,0.0073297108
1786,0.0035104502
1787,0.005750393
1788,0.0042013936
1789,0.0028874346
1790,0.0040249797
1791,-0.0020097967
1792,0.005061196
1793,0.009380292
1794,0.016379317
1795,0.00016883004
1796,0.019851597
1797,-0.0057910937
1798,0.0005049264
1799,-0.0061540096
1800,-0.0020333286
1801,-0.009841426
1802,-0.00917166
1803,-0.0017204611
1804,-0.006705963
1805,0.004347961
1806,0.010057924
1807,-0.0065961597
1808,0.008398705
1809,0.01325927
1810,0.0020666677
1811,0.00010396375
1812,0.0024016802
1813,-0.0127208335
1814,0.01250954
1815,-0.010246524
1816,0.0033427898
1817,-0.00081629516
1818,-0.004707181
1819,0.0044069733
1820,0.009661917
1821,0.0048879245
1822,-0.01587279
1823,-0.010339955
1824,-0.0038090593
1825,-0.0016867679
1826,-0.008162836
1827,-0.006396194
1828,0.007702977
1829,0.01813638
1830,0.0054406137
1831,-0.007881254
1832,-6.10013e-05
1833,0.0034292196
1834,-0.0011765828
1835,-0.0051279794
1836,0.004244021
1837,0.017720345
1838,0.006939831
1839,0.0073537594
1840,-0.014867081
1841,-0.0071462193
1842,-0.004775286
1843,0.00015434787
1844,-0.0068510026
1845,-0.018376714
1846,-0.0111174835
1847,0.0042232517
1848,0.0034920005
1849,0.014933056
1850,0.012641766
1851,0.019607969
1852,-0.012268861
1853,-0.0077611017
1854,-0.008900479
1855,-0.005865876
1856,0.007458817
1857,0.0062643336
1858,-0.007814424
1859,-0.011741493
1860,-0.0019678487
1861,-0.0013108207
1862,0.003849164
1863,0.0016414771
1864,-0.011687104
1865,-0.0004777694
1866,0.002282662
1867,0.004955897
1868,-0.010849382
1869,0.01117198
1870,0.0036495721
1871,0.0011131271
1872,-0.006403579
1873,-0.004660373
1874,-0.0077902293
1875,0.007736572
1876,-0.012729509
1877,-0.005230127
1878,-0.0073128873
1879,-0.0040602027
1880,0.0035986998
1881,0.0086051645
1882,0.0076428168
1883,-0.0012441905
1884,-0.0011471568
1885,0.00056986324
1886,0.0125349695
1887,-0.007640131
1888,-0.014385243
1889,-0.006883497
1890,0.004811639
1891,0.0033091018
1892,0.0176364
1893,-0.009752879
1894,0.00040837884
1895,0.0005851199
1896,0.007146044
1897,0.009236255
1898,0.0030032014
1899,-0.007848593
1900,-0.012049907
1901,-0.0019264516
1902,0.014725032
1903,0.008720785
1904,-0.0048498367
1905,-0.01376922
1906,0.010287801
1907,-0.00013959802
1908,0.009401372
1909,0.0026366694
1910,-0.016018895
1911,0.010931416
1912,0.0037301232
1913,0.004632085
1914,-0.006391551
1915,-0.009661969
1916,0.00084558554
1917,-0.008973704
1918,-0.014893082
1919,0.010292115
1920,-0.009069172
1921,0.0067323577
1922,0.0064480095
1923,0.002171902
1924,0.0109956665
1925,-0.017847026
1926,-0.0065881065
1927,0.010363991
1928,0.0134632215
1929,0.0012637969
1930,-0.0019114398
1931,-0.00757763
1932,0.0057235966
1933,0.014764577
1934,0.0010593066
1935,-0.008590992
1936,-0.002383322
1937,0.00890299
1938,0.0101406835
1939,-0.008771393
1940,0.0071638
1941,0.015371271
1942,-0.002095248
1943,0.0070639485
1944,0.009829605
1945,-0.007999081
1946,0.006526221
1947,-0.008974962
1948,-0.004394189
1949,-0.006893139
1950,0.001718489
1951,-0.0044723866
1952,-0.006772861
1953,0.013121773
1954,-0.015868781
1955,-0.0032138824
1956,0.017156549
1957,0.004491284
1958,-0.0074854973
1959,-0.0063182944
1960,-0.002658184
1961,-0.005320414
1962,-0.013897242
1963,-0.01931438
1964,-0.00062095653
1965,-0.006609829
1966,-0.0062216395
1967,0.00842345
1968,-0.0064284927
1969,0.014242657
1970,-0.013662313
1971,0.0033816027
1972,-0.00058854785
1973,0.00083688763
1974,0.003484569
1975,0.006294989
1976,-0.0055397693
1977,0.0056077866
1978,0.017075162
1979,-0.011090911
1980,-0.016725987
1981,-0.010232509
1982,-0.015867598
1983,0.003753048
1984,-0.0008826677
1985,0.0028045208
1986,-0.008207676
1987,0.016811918
1988,-0.008590508
1989,0.004072138
1990,-0.009118291
1991,-0.001411054
1992,0.00994552
1993,-0.017693458
1994,-0.012361558
1995,-0.009635763
1996,-0.0041883383
1997,0.0004053772
1998,-0.0055209105
1999,-0.010825822
2000,-0.012710044
2001,0.00987366
2002,-0.0011903819
2003,-0.011174679
2004,-0.0029297818
2005,-0.0009789262
2006,0.00054359436
2007,0.0018526539
2008,0.0015816216
2009,-0.0028049338
2010,0.0053536496
2011,0.010435775
2012,0.0015264506
2013,-0.00047922923
2014,-0.011495841
2015,-0.00044600165
2016,0.0006603427
2017,0.0018267996
2018,-0.0036609964
2019,0.0023728977
2020,0.0077177784
2021,-0.0021782143
2022,0.009312085
2023,-0.0070947562
2024,0.006517015
2025,4.3639764e-05
2026,0.0032361543
2027,0.0011321108
2028,-0.011517634
2029,-0.0013343466
2030,0.009088863
2031,-0.002862552
2032,-0.014309387
2033,0.00670094
2034,-0.009076729
2035,6.291037e-05
2036,-0.004803221
2037,0.0064700446
2038,0.015043145
2039,-0.0057475395
2040,-0.005552002
2041,0.009224481
2042,-0.0026898938
2043,-0.013359552
2044,-1.9267261e-05
2045,-0.007914758
2046,-0.006151373
2047,-0.0014673157
2048,0.007948888
2049,-0.0032497155
2050,-0.015965518
2051,0.0005562172
2052,-0.001468694
2053,-0.001497654
2054,-0.0056949607
2055,0.009135026
2056,-0.0020366355
2057,0.0034903225
2058,-0.0054366607
2059,-0.0011876095
2060,0.00011465442
2061,0.003100556
2062,-0.0007825237
2063,0.0056018187
2064,0.0116859805
2065,0.009170789
2066,-0.0010727814
2067,0.005212407
2068,-0.002138381
2069,0.0064206985
2070,0.0078406
2071,0.009204107
2072,-2.1152046e-05
2073,0.006096969
2074,-0.0066120345
2075,0.017965252
2076,0.00483214
2077,-0.0036626193
2078,-0.013558144
2079,-0.0104985805
2080,-0.0009674103
2081,-0.016083298
2082,-0.010650913
2083,-0.006718252
2084,0.014534855
2085,-0.00093434675
2086,0.008719056
2087,0.0016110807
2088,-0.012059947
2089,0.011603437
2090,0.00072466576
2091,-0.0010732654
2092,0.010282976
2093,0.0015000505
2094,-0.0052667363
2095,-0.008310542
2096,-0.00059019076
2097,-0.013678608
2098,-0.013400405
2099,0.00019640804
2100,-0.006230559
2101,0.014630569
2102,-0.004093537
2103,0.012297446
2104,-0.012212203
2105,0.007904849
2106,0.015626347
2107,0.008908874
2108,-0.0029458578
2109,0.0055415784
2110,-0.0052719354
2111,0.004746472
2112,-0.0033137638
2113,0.004570087
2114,0.0026503028
2115,-0.007081746
2116,-0.005624669
2117,0.001638555
2118,0.003976746
2119,-0.0064370553
2120,0.008965474
2121,0.006873843
2122,0.0003612151
2123,-2.9120843e-05
2124,0.004267351
2125,-0.0012076852
2126,-0.010383729
2127,0.0037674706
2128,0.0062497635
2129,-0.0011710328
2130,-0.017228305
2131,-0.0051432387
2132,0.0068049533
2133,0.011910259
2134,0.0003396637
2135,0.0105790375
2136,-0.00025969697
2137,0.015840845
2138,-0.010595095
2139,0.006842753
2140,-0.0095540285
2141,0.0074628475
2142,0.016322177
2143,-0.00027006437
2144,-0.01017853
2145,-0.006014327
2146,0.003341531
2147,-0.019893842
2148,0.011092665
2149,0.014631888
2150,0.002661929
2151,-0.00017986502
2152,0.015202582
2153,0.014535784
2154,-0.00019613227
2155,0.014001458
2156,-0.0064148195
2157,0.0062390836
2158,0.0007594144
2159,0.0046925806
2160,-0.010832145
2161,-0.002144263
2162,-0.0023578056
2163,-0.017624946
2164,0.017490955
2165,-0.014639135
2166,-0.015798602
2167,0.009130432
2168,-0.012030723
2169,-0.0032968794
2170,0.010390896
2171,0.0066047567
2172,0.0056621702
2173,-0.00011865358
2174,0.014193055
2175,0.004339466
2176,-0.0035940912
2177,0.0024553048
2178,-0.0028837207
2179,0.0036206404
2180,0.0017907482
2181,-0.001808147
2182,0.0134204095
2183,-0.018005922
2184,0.011978698
2185,-0.0045778304
2186,-0.0144485
2187,-0.0075597917
2188,0.00740804
2189,-0.006380527
2190,-0.006809993
2191,0.017581072
2192,-0.0013950155
2193,0.0034490232
2194,0.00068242894
2195,0.014894656
2196,0.017977105
2197,-0.018493898
2198,-0.0031668467
2199,0.011361616
2200,0.016548252
2201,0.0031495101
2202,-0.00048766297
2203,0.008574428
2204,-0.0066886097
2205,0.009191365
2206,0.0135752335
2207,0.016973639
2208,0.00936442
2209,-0.0059012636
2210,-0.0020543002
2211,0.0020792328
2212,-0.002492046
2213,-0.007373026
2214,0.0033434094
2215,-0.0042242417
2216,0.004854671
2217,0.005540535
2218,-0.017104657
2219,0.0050371643
2220,0.0032465463
2221,-0.008084842
2222,0.002112085
2223,0.009180649
2224,0.01672446
2225,0.007908535
2226,0.01298648
2227,0.01287486
2228,-0.015471879
2229,-0.012053875
2230,-0.016762555
2231,-0.017866565
2232,-0.008214266
2233,0.015124708
2234,0.005350263
2235,0.0012826353
2236,-0.01925907
2237,0.005918029
2238,-0.016100954
2239,0.010332143
2240,0.008994505
2241,0.011868352
2242,0.0011067266
2243,-0.000877819
2244,-0.0044813147
2245,0.0062266425
2246,0.008635578
2247,-0.011173395
2248,0.0057935715
2249,-0.004354933
2250,-0.002286796
2251,-0.011648382
2252,-0.0021933506
2253,0.010406885
2254,-0.0016792234
2255,0.0015523828
2256,-0.0036297815
2257,0.0037044531
2258,-0.004300432
2259,0.010075612
2260,0.00044254164
2261,0.00032085046
2262,-0.01762944
2263,-0.008778448
2264,-0.008151766
2265,-0.018980272
2266,0.00031515234
2267,-0.00021271239
2268,-0.00065619923
2269,0.012843798
2270,-0.003137533
2271,-0.003297593
2272,0.009642305
2273,0.0023693522
2274,-0.0005330948
2275,0.0027694555
2276,0.007305574
2277,0.004353234
2278,0.006945078
2279,0.016780728
2280,-0.0011073846
2281,-0.006260761
2282,0.012839497
2283,-0.012039355
2284,-0.002244184
2285,-0.0016193031
2286,0.0010677675
2287,-0.0028415301
2288,-0.01242805
2289,-0.007459846
2290,0.019266149
2291,-0.0037580172
2292,0.00079810683
2293,-0.010766903
2294,0.0004555392
2295,0.00151472
2296,0.0028943624
2297,0.000108024025
2298,0.013966709
2299,0.0027560815
2300,0.011945187
2301,0.0015798277
2302,0.0037143957
2303,0.012383347
2304,-0.0037057837
2305,-0.004874798
2306,0.0043273442
2307,-0.0015306092
2308,-0.0083485665
2309,-0.007342634
2310,-0.0053891344
2311,0.00054203294
2312,-0.009369614
2313,-0.01010069
2314,0.0024414975
2315,0.016105311
2316,-0.0009165774
2317,-0.010892491
2318,-0.007124437
2319,-0.0030192183
2320,0.0014307165
2321,-0.0044188127
2322,0.0011018377
2323,0.008458218
2324,-0.00077209447
2325,-0.008843436
2326,-6.238282e-05
2327,0.00539986
2328,0.0012054235
2329,0.016591031
2330,0.012855653
2331,0.01000476
2332,-0.0005957771
2333,0.0053273565
2334,0.014011754
2335,0.009290258
2336,0.0015572557
2337,-0.017774666
2338,0.00460445
2339,0.0025512143
2340,-0.014044309
2341,-0.00029728474
2342,0.017130716
2343,0.013152134
2344,-0.012889207
2345,0.016966814
2346,-0.0064921626
2347,0.01827751
2348,-0.004500384
2349,-6.384719e-05
2350,-0.0007714329
2351,0.0054591405
2352,0.011890549
2353,-0.00043113172
2354,0.010581041
2355,-0.0036829184
2356,-0.014524485
2357,0.0034474467
2358,-0.00023865295
2359,0.00838132
2360,0.004012866
2361,0.0076720403
2362,0.012018342
2363,0.00038339625
2364,-0.0026696334
2365,0.0058002835
2366,0.007493929
2367,0.014228075
2368,0.0127796065
2369,0.0067840735
2370,0.010180845
2371,0.014763521
2372,-0.0006038208
2373,-0.0047613364
2374,0.012466041
2375,-0.0051963027
2376,-0.008691936
2377,-0.007972571
2378,-0.0014764062
2379,-0.007591552
2380,0.007104764
2381,-0.0034050203
2382,-0.0017171714
2383,-0.0053708446
2384,-0.00957357
2385,-0.017136121
2386,0.01771019
2387,-2.798063e-05
2388,0.014422767
2389,0.008236833
2390,-0.0022833245
2391,0.010161047
2392,0.002042876
2393,-0.013457646
2394,-0.004638953
2395,-0.0065493737
2396,-0.011508443
2397,-0.013236281
2398,0.013207992
2399,0.0081036445
2400,0.008080208
2401,-0.00057003094
2402,-0.004629545
2403,-0.0019096318
2404,-0.0058666193
2405,0.007699843
2406,0.010242392
2407,-0.001608904
2408,0.006289039
2409,0.007579645
2410,-0.0007368958
2411,-0.011020196
2412,0.005446408
2413,0.008423712
2414,0.015880823
2415,-0.006698345
2416,-0.004324158
2417,-0.012686604
2418,0.0015120279
2419,-0.004445453
2420,0.008879901
2421,0.0046137213
2422,0.0005712925
2423,0.009932026
2424,0.008466353
2425,0.016720533
2426,-0.01862973
2427,-0.0054965606
2428,-0.004355761
2429,-0.0029215883
2430,-0.019036949
2431,0.00047218698
2432,0.017985115
2433,-0.017217308
2434,-0.014126067
2435,0.0044657327
2436,-0.006942192
2437,0.019343294
2438,0.009797022
2439,0.0150158005
2440,-0.009842505
2441,-0.0015089692
2442,-0.004690025
2443,-0.010691206
2444,0.0033536837
2445,-0.0035500783
2446,-0.00333772
2447,-0.0007759842
2448,0.007187609
2449,-0.009176403
2450,0.011315112
2451,0.012480678
2452,-0.014673408
2453,0.0019575513
2454,0.015342002
2455,-0.010813285
2456,0.0039101266
2457,-0.0058280653
2458,0.0033114688
2459,-0.0057637515
2460,0.005061257
2461,-0.016129803
2462,-0.0077281077
2463,0.005630854
2464,0.008984075
2465,-0.0033224798
2466,-0.0061035226
2467,-0.004604693
2468,0.004442444
2469,0.007925553
2470,0.0004810744
2471,-0.0116611
2472,0.012147217
2473,0.015085591
2474,0.0035699585
2475,-0.018012088
2476,0.006483072
2477,-0.0010718276
2478,0.012315928
2479,0.008820895
2480,0.010729912
2481,0.005931114
2482,-0.009546842
2483,-0.016962413
2484,0.007763016
2485,-0.0074098282
2486,0.009952354
2487,0.01890133
2488,-0.0013440212
2489,-0.006617048
2490,0.0068235868
2491,-0.00024111653
2492,0.010656386
2493,0.007102332
2494,0.004280339
2495,-1.781591e-05
2496,0.008981886
2497,0.0072216173
2498,0.0032495013
2499,0.0010492422
2500,-0.009347517
2501,0.015821135
2502,-0.0101513015
2503,-0.016858337
2504,0.005994152
2505,0.007068686
2506,0.004243025
2507,-0.003365676
2508,-0.0003832579
2509,-0.0061350623
2510,-0.016378446
2511,-0.0052041924
2512,0.008579539
2513,0.0016301575
2514,-0.012184733
2515,-0.0074030072
2516,0.0050273263
2517,-0.0013276051
2518,-0.01702734
2519,-0.0071015004
2520,-0.0059177894
2521,0.008084911
2522,0.004865816
2523,-0.003513144
2524,0.0014909676
2525,-0.0058732163
2526,-0.0012712033
2527,0.010646593
2528,-0.016120562
2529,-0.007865643
2530,-0.00590777
2531,0.0019518872
2532,0.0011299846
2533,0.008032242
2534,0.013102241
2535,-0.008641969
2536,0.008314783
2537,-0.004440901
2538,0.007252052
2539,0.0040510753
2540,0.007488034
2541,-0.005804194
2542,-0.013642688
2543,-0.003807394
2544,-0.0074844467
2545,0.004098922
2546,0.003152006
2547,0.0030964266
2548,-0.0017958342
2549,0.012700963
2550,-0.00052581925
2551,0.013958381
2552,-0.012521444
2553,-0.010555886
2554,-0.017371643
2555,-0.012079699
2556,0.0061187507
2557,-0.004994266
2558,0.00046339407
2559,0.0047104224
2560,0.0046262387
2561,0.012325997
2562,0.0045556715
2563,-0.015436484
2564,0.009251647
2565,0.011491428
2566,-0.004946756
2567,-0.0046578315
2568,-0.0038396574
2569,0.013557409
2570,0.011677345
2571,-0.010569451
2572,0.0069938814
2573,-0.0015294232
2574,-0.0007080577
2575,-0.010563084
2576,-0.007982757
2577,0.002021807
2578,0.0051685995
2579,-0.007290898
2580,0.0035894485
2581,-0.0007441059
2582,0.0056625153
2583,0.0031286972
2584,0.0028428172
2585,0.005013871
2586,-0.0058273994
2587,-0.0011453325
2588,0.0070633856
2589,-0.007531444
2590,-0.002602314
2591,0.0063487864
2592,0.00033101442
2593,0.0009721947
2594,0.0020213106
2595,-0.0041357796
2596,0.003114125
2597,-0.0147699965
2598,0.003074976
2599,0.0012013981
2600,-0.012352619
2601,3.2221422e-05
2602,-0.008001014
2603,-0.003130146
2604,0.0021284842
2605,-0.014360467
2606,0.0037887162
2607,-0.010298353
2608,0.0029708953
2609,0.004336406
2610,0.016053677
2611,0.013157688
2612,0.0023768488
2613,-0.00021715852
2614,-0.019031666
2615,-0.010330043
2616,-0.011796304
2617,-0.0037477044
2618,-0.0034421214
2619,-0.0037975498
2620,0.002972259
2621,0.0152954655
2622,0.0025785277
2623,-0.0035442344
2624,-0.009279576
2625,0.015434594
2626,0.0072764293
2627,-0.0063626347
2628,0.0051787556
2629,0.002366573
2630,-0.0043389197
2631,-0.011909738
2632,-0.019635063
2633,0.0020425278
2634,-0.0063402792
2635,-0.0053319433
2636,-0.015672067
2637,-0.01888205
2638,-0.019552927
2639,-0.0086054895
2640,-0.0008663091
2641,0.0050384784
2642,0.01696241
2643,-0.0043762214
2644,0.0004704327
2645,-0.015668426
2646,-0.010785033
2647,-0.009753104
2648,-0.0060634543
2649,0.0127170915
2650,-0.019269265
2651,-0.0042314706
2652,-0.010352206
2653,0.012253048
2654,0.0093133375
2655,0.015669541
2656,0.00259717
2657,-0.0062061003
2658,0.006628793
2659,-0.0036641953
2660,-0.008149556
2661,0.0016079957
2662,-0.003654297
2663,-0.0041089184
2664,0.0046039843
2665,-0.0037188465
2666,0.0035586131
2667,0.0032626595
2668,-0.007091868
2669,-0.0043891086
2670,0.008738506
2671,0.012828096
2672,-0.0027409457
2673,-0.0011209229
2674,-0.003010358
2675,0.0081464
2676,0.0013207353
2677,0.013955544
2678,0.0012874989
2679,0.009513462
2680,-0.0036185307
2681,-0.0031618204
2682,-0.007836951
2683,-0.0026664478
2684,0.009782987
2685,-0.019961445
2686,0.0048347935
2687,-0.009546163
2688,0.010767101
2689,-0.0022627604
2690,-0.0039820056
2691,0.00474941
2692,0.004815928
2693,-0.009749346
2694,-0.008828815
2695,0.004135939
2696,-0.007187151
2697,-0.011994604
2698,0.009910811
2699,-0.003404948
2700,-0.0072936034
2701,-0.0012899643
2702,-0.007689369
2703,-0.0039415434
2704,0.000589428
2705,-0.0040849866
2706,0.015147635
2707,-0.007915571
2708,-0.014142618
2709,0.017580926
2710,0.0048946664
2711,-0.0012712413
2712,-0.007971305
2713,0.006108234
2714,0.0011377527
2715,0.0006360132
2716,0.0057565193
2717,0.012950064
2718,0.0037826048
2719,0.00034248526
2720,0.008800579
2721,-0.005610544
2722,0.004983255
2723,-0.011617374
2724,0.0053289453
2725,-0.002682409
2726,0.008681987
2727,0.0016863808
2728,-0.016753478
2729,0.0036604314
2730,-0.00087406713
2731,-0.010831606
2732,0.0028145586
2733,-0.007551021
2734,-0.0065013748
2735,-0.012321082
2736,-0.013513128
2737,-0.0078508835
2738,-0.012173624
2739,0.0035660223
2740,0.008392269
2741,0.0006313939
2742,0.0048583364
2743,-0.009247357
2744,-0.010968939
2745,0.011584464
2746,-0.01081745
2747,-0.016696373
2748,0.013311461
2749,-0.0058696964
2750,-0.004202733
2751,0.0033965055
2752,-0.0025837617
2753,-0.008924887
2754,0.007471677
2755,0.0078122304
2756,0.0059634517
2757,0.009422922
2758,0.013225341
2759,0.0018472589
2760,-0.0034848626
2761,0.01899579
2762,-0.011681498
2763,-0.002979937
2764,-0.013579261
2765,0.0046551055
2766,-0.0041672327
2767,0.0014163445
2768,-0.009084406
2769,-0.011137253
2770,-0.005141458
2771,-0.010089602
2772,0.013542426
2773,0.0018105524
2774,0.006159042
2775,-0.003232238
2776,0.0042575407
2777,0.0020387217
2778,-0.006984586
2779,-0.009695069
2780,0.009322704
2781,0.00791912
2782,0.0065950756
2783,-0.014054618
2784,0.0035632772
2785,0.015272663
2786,0.008704964
2787,0.0022217606
2788,0.007728263
2789,-0.016492644
2790,-0.0080316225
2791,0.0057203677
2792,-0.0027960872
2793,-0.017892288
2794,-0.003722559
2795,-2.4762569e-05
2796,-0.005437683
2797,0.011608141
2798,-0.0117882285
2799,-0.013516922
2800,-0.003385592
2801,-0.0115716085
2802,-0.011068516
2803,0.01890296
2804,0.001461293
2805,-0.0065466105
2806,0.0015614264
2807,-0.008427466
2808,-0.008912738
2809,-0.012798979
2810,0.0030702685
2811,-0.011949672
2812,-0.009033016
2813,0.005243128
2814,-0.0054178713
2815,-0.00018677034
2816,-0.0018657242
2817,0.002634946
2818,0.013042987
2819,0.010150627
2820,0.008547548
2821,0.0006555679
2822,-0.0067878678
2823,-0.0012213031
2824,0.013251651
2825,0.01048583
2826,0.0063538263
2827,-0.008151544
2828,-0.0031994244
2829,-0.008523885
2830,0.005599566
2831,-0.005673063
2832,-0.0026893425
2833,-0.0009042362
2834,-0.0033014005
2835,-0.0038699824
2836,-0.00054063863
2837,0.013792426
2838,-0.010491191
2839,-0.004570133
2840,-0.003998731
2841,-0.0017349441
2842,0.0039376947
2843,-0.008415396
2844,-0.009864109
2845,0.01951795
2846,0.014356216
2847,-0.018886702
2848,0.0050587654
2849,0.0065031
2850,-0.0023589681
2851,0.01910489
2852,0.0018763195
2853,-0.001095266
2854,0.014151445
2855,0.010317659
2856,-0.0057871845
2857,-0.0031144915
2858,0.006854415
2859,-0.012322857
2860,-0.0025515526
2861,0.0036503419
2862,-0.007928226
2863,0.01318072
2864,-0.0016928081
2865,0.011992057
2866,0.0006605037
2867,0.003582449
2868,0.012063155
2869,0.0022558672
2870,0.0035607265
2871,0.014070258
2872,0.008196831
2873,0.0007446632
2874,-0.004823889
2875,0.011092121
2876,-0.008729023
2877,-0.012366242
2878,-0.013605075
2879,0.01717844
2880,0.016058689
2881,0.0054460773
2882,-0.0077201216
2883,-0.003575605
2884,-0.00016801782
2885,0.0072863665
2886,-0.009340963
2887,0.0014327244
2888,-0.016835924
2889,0.010232929
2890,0.007739564
2891,0.00041157918
2892,0.005378092
2893,0.0036946365
2894,-0.0033834062
2895,0.011228862
2896,-0.004977564
2897,-0.0069026193
2898,0.00011558741
2899,0.00975783
2900,-0.002369565
2901,0.0005813067
2902,-0.002587191
2903,0.009984459
2904,-0.014287371
2905,-0.009689796
2906,3.844418e-05
2907,-0.0055093328
2908,0.0029965963
2909,0.010192962
2910,0.0041593746
2911,-0.0014636866
2912,0.00076626305
2913,-0.005770464
2914,-0.006503659
2915,0.0075808587
2916,-0.0017847354
2917,-0.00446237
2918,-0.018316882
2919,-0.0076325736
2920,-0.006692379
2921,-0.0010171889
2922,0.0070728264
2923,-0.002589209
2924,-0.0037202074
2925,-0.012263619
2926,0.0028834613
2927,0.008431552
2928,0.009346012
2929,-0.0032359734
2930,-0.0020844638
2931,-0.012117063
2932,-0.009515894
2933,-0.0075945817
2934,0.016695386
2935,0.007627894
2936,0.0033975956
2937,0.0090390695
2938,0.005793595
2939,0.017889466
2940,-0.0059436895
2941,0.007424181
2942,0.005006402
2943,0.004420242
2944,-0.010716382
2945,-0.005166729
2946,-0.013306929
2947,-0.005950968
2948,-0.015566796
2949,0.0046738717
2950,0.019265527
2951,0.004675669
2952,0.013806048
2953,0.010731983
2954,0.006161837
2955,0.01700754
2956,-0.01292405
2957,0.0021115018
2958,-0.010862986
2959,0.0025009173
2960,0.0008122385
2961,0.0023281085
2962,-0.0042335526
2963,0.004339015
2964,0.008920356
2965,0.010556977
2966,-0.01579514
2967,0.018644698
2968,-0.005598932
2969,-0.011076088
2970,0.0020032704
2971,-0.005510228
2972,-0.005253218
2973,-0.0030791068
2974,-0.0049025323
2975,0.014191812
2976,0.018232103
2977,-0.010040039
2978,0.0006982331
2979,0.0017612401
2980,-0.0023663605
2981,-0.01606868
2982,0.0072287237
2983,0.0107935555
2984,-0.0064509218
2985,-0.009773802
2986,-0.00558447
2987,0.016854407
2988,-0.012179118
2989,0.0012106306
2990,0.0013805833
2991,0.008687904
2992,-0.0013585925
2993,-0.0040004393
2994,-0.0026265979
2995,0.0028263917
2996,0.0035500738
2997,-0.0062752725
2998,0.0062212436
2999,0.0139056
3000,0.01880325
3001,0.011609829
3002,0.0018590904
3003,-0.010936551
3004,-0.010340793
3005,-0.004153337
3006,-0.016032575
3007,-0.010283388
3008,-0.013333939
3009,0.007315729
3010,0.0026315737
3011,-0.009329981
3012,-0.007338862
3013,0.0062234653
3014,0.0050990344
3015,-0.0036837906
3016,0.004327922
3017,-0.0037338594
3018,-0.004010543
3019,0.007856377
3020,-0.007656669
3021,-0.019331703
3022,0.004090923
3023,-0.0024377306
3024,0.01733913
3025,-0.0023702525
3026,0.01601306
3027,0.002804183
3028,-0.011313272
3029,-0.002703543
3030,0.015529192
3031,-0.013196729
3032,-0.013121005
3033,0.0020601898
3034,-0.010619236
3035,-0.0016866954
3036,-0.009810275
3037,0.0030171766
3038,-0.002668557
3039,-0.013192032
3040,0.0037350294
3041,-0.015090712
3042,0.005594877
3043,0.0012811273
3044,0.008848696
3045,-0.012620902
3046,-0.012581592
3047,0.014873238
3048,-0.00923171
3049,-0.0049463445
3050,0.005562147
3051,-0.008054028
3052,-0.006394042
3053,-0.00089571544
3054,-0.008539874
3055,-0.0050799246
3056,-0.0062590246
3057,0.0010861927
3058,-0.001686213
3059,0.0012089461
3060,-0.0008205128
3061,-0.0032925059
3062,0.0009271861
3063,-0.0077130045
3064,-0.018356605
3065,-0.0005463905
3066,0.009455
3067,-0.0012965555
3068,0.012672339
3069,0.007640198
3070,0.007833436
3071,0.006529933
3072,-0.01564732
3073,0.016210642
3074,-0.007108465
3075,9.862226e-05
3076,-0.006237672
3077,0.0029325366
3078,0.009974974
3079,0.0045106546
3080,0.007606315
3081,0.0009605776
3082,-0.011661651
3083,0.00052461296
3084,0.0035172417
3085,-0.007991509
3086,-0.0062608025
3087,-0.015211572
3088,0.0016853355
3089,-0.003228971
3090,0.0068439012
3091,-0.0075305807
3092,-0.017216997
3093,-0.014438435
3094,0.0003992174
3095,0.007176744
3096,-0.008426384
3097,0.015402324
3098,0.011416793
3099,-0.0040424154
3100,0.016886538
3101,0.0012619916
3102,-0.0011262632
3103,-0.0007993992
3104,0.0051744487
3105,-0.0053311167
3106,-0.006294246
3107,0.005502956
3108,-0.0020882413
3109,-0.014956424
3110,-0.0037245932
3111,-0.0064960076
3112,-0.008173285
3113,0.0052878037
3114,0.014228063
3115,-0.0013129889
3116,-0.0035246422
3117,-0.012320287
3118,-0.0029300232
3119,-0.006241922
3120,-0.0064205546
3121,-0.004555271
3122,0.004071984
3123,0.010040015
3124,0.0037871602
3125,-0.0030427233
3126,0.008621359
3127,-0.011112164
3128,-0.0014537356
3129,-0.005939292
3130,0.010132906
3131,0.011031946
3132,0.002193119
3133,-0.0037151177
3134,0.0029568563
3135,-0.004297141
3136,-0.015005488
3137,-0.0008085271
3138,0.0054055434
3139,0.0013435171
3140,0.00092607236
3141,0.007348703
3142,-0.0062380983
3143,-0.011126229
3144,0.0039155334
3145,-0.008913861
3146,0.006148035
3147,-0.00835051
3148,0.013451638
3149,-0.01460919
3150,-0.004569977
3151,-0.012887652
3152,0.0057586157
3153,-0.005115987
3154,-0.010260867
3155,0.014277837
3156,0.0048112855
3157,0.0014449247
3158,-0.0031920169
3159,0.0034685018
3160,0.0062983125
3161,-0.00047915397
3162,-0.00032032657
3163,0.004210496
3164,-0.003061904
3165,0.005166681
3166,0.0025920223
3167,0.0047049355
3168,0.018154215
3169,-0.0061145998
3170,-0.007880745
3171,0.0058679036
3172,0.012528622
3173,0.008519795
3174,-0.0026657751
3175,-0.007395236
3176,-0.006678074
3177,-0.00805327
3178,-0.011303154
3179,0.006880645
3180,0.014172633
3181,-0.019186271
3182,0.005252128
3183,-0.009842284
3184,-0.014293098
3185,-0.0015676745
3186,-0.0104851285
3187,0.007250116
3188,-0.018590484
3189,-0.014928149
3190,0.0072911205
3191,0.0018756856
3192,0.013223619
3193,0.0012861736
3194,0.0081737805
3195,-0.00928543
3196,0.002316649
3197,-0.0006925077
3198,-0.00021534563
3199,-0.018872222
3200,-0.0013667117
3201,0.00049030816
3202,-0.014692328
3203,0.006838828
3204,-0.00045554675
3205,-0.0048993784
3206,0.01679986
3207,0.0072381324
3208,-0.005458387
3209,0.014498817
3210,-0.007358413
3211,-0.015544803
3212,0.008350619
3213,0.0016026379
3214,-0.005192842
3215,0.007891027
3216,0.0045710066
3217,0.0043748794
3218,0.010583746
3219,0.0066222856
3220,-0.019170314
3221,0.0012744627
3222,0.011151306
3223,0.0011559607
3224,-0.0048050093
3225,0.009962487
3226,-0.00040071583
3227,0.012324599
3228,-0.018769456
3229,0.014063672
3230,0.001367163
3231,-0.009791683
3232,-0.0044855243
3233,0.018546935
3234,0.0092480015
3235,-0.00077923527
3236,0.0006364202
3237,-0.0023227213
3238,0.015234051
3239,-0.0141664045
3240,0.009551926
3241,0.0070169917
3242,0.00094062905
3243,-0.007621206
3244,-0.0010406426
3245,-0.0073443726
3246,0.0057000853
3247,-0.005371115
3248,0.00064652774
3249,-0.0009191109
3250,-0.0008692142
3251,-0.0094727315
3252,-0.0129262265
3253,-0.0042286953
3254,0.0032437143
3255,-0.0081838295
3256,-0.017901
3257,-0.008739382
3258,-0.0010973606
3259,0.006702583
3260,-0.0105676325
3261,-0.0023176502
3262,-0.016195603
3263,0.0013557154
3264,-0.0028826373
3265,0.0016281904
3266,-0.015511645
3267,-0.010311635
3268,-0.0021322106
3269,0.0030968366
3270,-0.0098916935
3271,0.000685925
3272,-0.016279574
3273,0.011922057
3274,0.0022994396
3275,-0.013381969
3276,0.0073182043
3277,-0.0019993747
3278,0.005784653
3279,0.005252444
3280,0.011739955
3281,-0.009670122
3282,-0.013173638
3283,-0.0028727474
3284,0.007497073
3285,-0.012528467
3286,0.001671957
3287,-0.005219958
3288,0.009727804
3289,-0.0006711977
3290,-0.016492106
3291,0.0067242663
3292,0.0014681122
3293,0.0015601722
3294,0.012774756
3295,-0.0007562758
3296,0.003473536
3297,0.0015100773
3298,0.015902234
3299,0.0035592888
3300,-0.0024869055
3301,0.0054866853
3302,0.017519843
3303,-0.0075920275
3304,0.012128093
3305,-0.0018491438
3306,0.006601125
3307,0.0029975781
3308,-0.00014317724
3309,-0.004186351
3310,-0.008486861
3311,0.002144382
3312,0.004447343
3313,-0.013663045
3314,0.00055255304
3315,0.0059286663
3316,-0.005933065
3317,0.0066397474
3318,0.0038402798
3319,0.012090274
3320,-0.014036003
3321,-0.0020623917
3322,-0.0047330107
3323,-0.010718373
3324,0.012983413
3325,0.011567635
3326,0.008445299
3327,-0.0012775126
3328,0.0029552276
3329,0.0043665688
3330,0.0045372127
3331,-0.0057799867
3332,0.0106908055
3333,-0.009301616
3334,-0.0039707525
3335,-0.0060791285
3336,0.0006677471
3337,0.00034996602
3338,-0.016306438
3339,-0.016643733
3340,-0.005551206
3341,0.005908072
3342,0.003936362
3343,0.0047843065
3344,-0.0066678193
3345,0.0091742985
3346,-0.00732025
3347,-0.0012090454
3348,0.004355953
3349,-0.0114566125
3350,0.011283153
3351,0.011652869
3352,0.0086746635
3353,0.011859225
3354,-0.009945888
3355,-0.0012597106
3356,-0.009923067
3357,-0.0007268957
3358,-0.008943446
3359,0.0023837814
3360,-0.0015417367
3361,-0.013411872
3362,-0.0043179607
3363,0.010077775
3364,0.0067213485
3365,0.0027355377
3366,-0.0030645232
3367,-0.012813684
3368,0.015847055
3369,0.0061186515
3370,-0.016305126
3371,-0.0023643249
3372,0.0059080315
3373,0.003550564
3374,-0.010810427
3375,-0.0018239496
3376,0.0073766187
3377,-0.011660542
3378,0.016281163
3379,0.008480003
3380,-0.003534077
3381,0.0012951856
3382,-0.012821941
3383,0.00091203646
3384,-0.0059397016
3385,0.008328548
3386,-0.0024385832
3387,0.006445911
3388,-0.013215995
3389,0.0041627507
3390,-0.015808742
3391,0.0031895542
3392,0.0018500714
3393,-0.01384665
3394,0.017717293
3395,0.0040134285
3396,-0.008967533
3397,4.191428e-05
3398,0.011469651
3399,0.0071715615
3400,0.0033479026
3401,0.0053214286
3402,-0.0037475366
3403,0.016686384
3404,-0.00670649
3405,0.018778194
3406,-0.0033282393
3407,0.0033472609
3408,-0.01261577
3409,-0.004435704
3410,0.0063388417
3411,6.735625e-05
3412,0.0040137027
3413,-0.017368343
3414,0.007011023
3415,-8.643093e-05
3416,0.0050113006
3417,-0.013987018
3418,-0.010569041
3419,0.0093450695
3420,-0.009828609
3421,-0.00013957289
3422,0.0064250827
3423,-0.010467655
3424,0.009388772
3425,-0.012734627
3426,0.011434531
3427,0.0007470214
3428,0.00019184602
3429,-0.005293606
3430,-0.00074671715
3431,0.008930513
3432,0.0011812251
3433,0.016638823
3434,-0.0027518286
3435,-0.0032431856
3436,0.0074107405
3437,0.003237429
3438,0.0043050153
3439,-0.0024315843
3440,0.0103088
3441,-0.0016528307
3442,0.009915834
3443,-0.008998086
3444,-0.0002906056
3445,0.0018493236
3446,-0.0077838227
3447,-0.005874377
3448,-0.014862959
3449,-0.0016146863
3450,0.010560309
3451,0.0005001637
3452,-0.0072812145
3453,0.017390149
3454,0.00084864243
3455,-0.013206252
3456,-0.013751875
3457,0.0021301624
3458,-0.01399942
3459,0.010289805
3460,-0.007592789
3461,0.011646434
3462,0.0048377425
3463,0.002523388
3464,0.010157738
3465,0.012717249
3466,-0.0130191725
3467,0.015356317
3468,0.010374458
3469,0.004802436
3470,0.0049434435
3471,0.009411278
3472,-0.006668289
3473,-0.01857711
3474,-0.003976149
3475,0.00911031
3476,0.009570018
3477,-0.002339123
3478,0.009378832
3479,-0.015589243
3480,-0.0029272004
3481,-0.008561721
3482,0.0007105032
3483,0.003481534
3484,0.008063628
3485,-0.0050941864
3486,-0.014373631
3487,0.005296471
3488,-0.013191897
3489,-0.00059508363
3490,-0.006048518
3491,-0.0057965717
3492,0.0038044404
3493,0.012031493
3494,-0.008501435
3495,0.007159244
3496,-0.01999145
3497,-0.018955149
3498,0.0068377075
3499,-0.0069644656
3500,-0.005384764
3501,0.011082483
3502,-0.0036298009
3503,-0.008762021
3504,-0.013145
3505,-0.0028470824
3506,-0.0018896902
3507,-0.0001813943
3508,-0.0019560573
3509,-0.008708707
3510,0.002531497
3511,0.001180066
3512,0.016776493
3513,-0.0016409352
3514,-0.009316415
3515,-0.01308666
3516,0.0013987776
3517,0.0028533076
3518,0.0029852556
3519,-0.00071219355
3520,0.015912954
3521,-0.0033063935
3522,-0.006356095
3523,-0.012593319
3524,-0.0012541343
3525,0.008703779
3526,0.005989744
3527,-0.0069172857
3528,-0.0011265601
3529,0.01481102
3530,-0.0022693758
3531,0.010784496
3532,0.011672052
3533,-0.00015653597
3534,-0.018718805
3535,0.01884064
3536,-0.0046120603
3537,-0.011765596
3538,-0.007845612
3539,-0.00796963
3540,0.0005752027
3541,0.0012630504
3542,0.0118873045
3543,0.0013502119
3544,0.006053765
3545,-0.013022181
3546,-0.019110505
3547,-0.009083336
3548,0.013807739
3549,-0.018552184
3550,0.0024130375
3551,-0.0066698533
3552,0.011149872
3553,-0.017342333
3554,0.01711588
3555,0.008069794
3556,0.008011977
3557,0.013985069
3558,-0.0058882837
3559,-0.007952271
3560,0.0022267033
3561,-0.017896723
3562,0.0041555963
3563,-0.0017102329
3564,-0.01738334
3565,0.005463567
3566,0.006111316
3567,-0.0031006746
3568,0.0012356234
3569,-0.004024594
3570,-0.011752105
3571,0.001715212
3572,-0.004123616
3573,0.0033865215
3574,-0.003819545
3575,0.01491136
3576,0.006048084
3577,0.00056598056
3578,0.009321553
3579,-0.013655854
3580,0.0023930853
3581,-0.0035367387
3582,-0.012820126
3583,-0.009719437
3584,-0.0052670753
3585,0.0005446623
3586,0.005674226
3587,-0.012283264
3588,-0.00026663928
3589,0.010286703
3590,-0.01423508
3591,-0.00046521213
3592,-0.0012995925
3593,-0.0061937254
3594,0.0006434785
3595,-0.0007022947
3596,0.005826764
3597,0.0020087129
3598,-0.006299283
3599,-0.010590977
3600,0.0052276687
3601,-0.013376561
3602,0.010370469
3603,-0.0008042588
3604,0.009292832
3605,0.0036794497
3606,0.0064717997
3607,0.006914346
3608,-0.0059696496
3609,0.003230137
3610,-0.0063224193
3611,6.826001e-05
3612,0.0025472008
3613,-0.008105325
3614,0.0070994957
3615,-0.00993904
3616,0.005865251
3617,0.0032369804
3618,0.003913104
3619,0.009003741
3620,-0.0030777736
3621,0.0020700984
3622,-0.009956982
3623,-0.019789502
3624,0.008761458
3625,-0.0016978617
3626,0.009017471
3627,-0.016559936
3628,0.0022349437
3629,-0.0047866944
3630,-0.0055465237
3631,0.009273452
3632,0.002912942
3633,0.0014166071
3634,-0.0062294635
3635,-0.0013135193
3636,0.0062072426
3637,-0.0037488784
3638,-0.0060722386
3639,-0.0050650397
3640,0.005364919
3641,0.0004117998
3642,-0.0030475503
3643,-0.00011547731
3644,0.017005606
3645,-0.0021792017
3646,-0.006365485
3647,-0.008055097
3648,-0.011737138
3649,-0.010364755
3650,0.01891406
3651,-0.00265104
3652,-0.0054523097
3653,0.012866753
3654,0.01750978
3655,-0.0122387
3656,0.004862382
3657,-0.0048714
3658,0.009155975
3659,0.004019707
3660,0.006467145
3661,-0.0025520187
3662,-0.002796517
3663,0.00010603338
3664,0.0054312698
3665,5.853804e-05
3666,-7.8806384e-05
3667,0.00853698
3668,-0.010860874
3669,-0.007914131
3670,0.0056449664
3671,-0.00033114376
3672,-0.005422725
3673,-0.004670064
3674,-0.015561905
3675,0.012881386
3676,-0.00935016
3677,-0.005656792
3678,-0.019805599
3679,0.0025862905
3680,-0.014735288
3681,0.005924125
3682,0.0070838635
3683,0.002166864
3684,-0.002889889
3685,0.0031567062
3686,-0.0023548843
3687,-0.015547671
3688,-0.007539452
3689,-0.0062300083
3690,0.010775189
3691,0.0026235261
3692,0.009856451
3693,-0.009016183
3694,0.0028089168
3695,0.007950659
3696,-0.00406479
3697,-0.002878052
3698,0.0071704923
3699,-0.0026772302
3700,0.005960657
3701,0.013367736
3702,-0.0043455963
3703,0.006732914
3704,0.0015645544
3705,-0.007541003
3706,-0.0075268894
3707,0.008992351
3708,-0.002011162
3709,0.0017092926
3710,-0.006976953
3711,0.004233933
3712,0.015713938
3713,0.0046612113
3714,-0.01512269
3715,0.008347064
3716,-0.0153212985
3717,-0.0017858878
3718,-0.00043362772
3719,0.0021310975
3720,-0.008682973
3721,0.0004276434
3722,0.00827772
3723,-0.016354771
3724,-0.01770716
3725,-0.0022441347
3726,0.01096812
3727,-0.0054192073
3728,-0.0063858037
3729,0.01772972
3730,-0.0042683855
3731,-0.004624654
3732,0.013822229
3733,0.011445752
3734,-0.0036637445
3735,-0.0055201957
3736,-0.0027546876
3737,0.00086680596
3738,0.011265369
3739,-0.010104231
3740,-0.0071501606
3741,0.009190734
3742,-0.00120567
3743,-0.00067026995
3744,-0.0045769042
3745,0.0031480005
3746,0.011560453
3747,-0.0011883298
3748,0.011551801
3749,0.0060470193
3750,-0.0037835327
3751,0.00017143009
3752,-0.00979353
3753,0.015438365
3754,-0.009361154
3755,-0.014858972
3756,-0.0110757025
3757,0.016776865
3758,-0.0042431075
3759,0.015862975
3760,0.005850926
3761,-0.009692845
3762,0.0023057228
3763,-0.0041812332
3764,0.019673811
3765,-0.009354528
3766,-0.0194923
3767,0.004344499
3768,-0.015544454
3769,0.0023480575
3770,-0.015698798
3771,-0.0013788448
3772,0.0020848713
3773,0.0018748641
3774,0.0014002809
3775,-0.0072877947
3776,0.00894491
3777,0.0062612453
3778,0.01235348
3779,-0.0007484207
3780,0.0023437515
3781,0.0026816544
3782,-0.0025676282
3783,0.011596554
3784,-0.008947659
3785,0.008690371
3786,-0.0056064753
3787,0.0019611404
3788,-0.0067375395
3789,0.016760658
3790,-0.0070676184
3791,0.018276354
3792,0.0039969357
3793,0.00733935
3794,0.004228771
3795,-0.00971217
3796,0.0024036781
3797,-0.008708787
3798,0.0018832935
3799,0.0043547684
3800,0.014288756
3801,0.0051047783
3802,-0.0030003618
3803,0.0048162215
3804,0.0060049626
3805,0.0019198528
3806,-0.0008651058
3807,-0.002000351
3808,0.0018662923
3809,-0.002350285
3810,0.010606328
3811,0.016631166
3812,0.00026810393
3813,-0.0062031834
3814,-0.012960874
3815,-0.016011424
3816,0.013911708
3817,-0.016225278
3818,-0.012336658
3819,0.006531488
3820,0.0006224775
3821,-0.0020069564
3822,-0.00840795
3823,0.010730778
3824,0.012259311
3825,0.013403093
3826,-0.017360743
3827,0.013797306
3828,-0.0012390682
3829,-0.005288414
3830,-0.006473005
3831,0.014468983
3832,-0.008298192
3833,-0.0020459762
3834,0.0062754503
3835,0.003366594
3836,-0.0045342175
3837,0.0004346161
3838,-0.012583819
3839,-0.005905631
3840,0.001334132
3841,-0.011935516
3842,0.0005308527
3843,0.012559821
3844,-0.0029067018
3845,0.012134612
3846,0.0009883972
3847,0.014017761
3848,0.003306917
3849,0.016015476
3850,-0.0076211574
3851,-0.010147186
3852,0.0049907225
3853,0.0009327588
3854,-0.014816378
3855,-0.011180061
3856,-0.010389392
3857,-0.0014627018
3858,-0.00010402639
3859,-0.002152139
3860,-0.011047248
3861,-0.00717553
3862,0.005115863
3863,-0.0072033214
3864,-0.0027420544
3865,-0.010100171
3866,-0.0058712885
3867,-0.00042514215
3868,-0.0011249959
3869,0.013109008
3870,-0.009505819
3871,-0.0011271656
3872,0.0067563807
3873,0.018267576
3874,0.005827904
3875,-0.008546784
3876,-0.004291155
3877,0.013916714
3878,0.0019299018
3879,0.0015001254
3880,-0.009984635
3881,-0.0059744315
3882,0.0053591398
3883,-0.0014783321
3884,-0.0019039018
3885,-0.0062732995
3886,-0.0075926417
3887,-0.0025151754
3888,0.0057764137
3889,0.012636796
3890,0.011631033
3891,0.0033144408
3892,-0.015154776
3893,-0.0017608964
3894,0.006697894
3895,0.0076904134
3896,0.015257489
3897,-0.015830414
3898,-0.0039311848
3899,-0.002079443
3900,0.001432256
3901,0.012781365
3902,-0.005726296
3903,0.005554489
3904,-0.008246753
3905,0.0072260755
3906,0.0046743006
3907,-0.012063894
3908,0.012821287
3909,0.0061116195
3910,0.0059725824
3911,-0.006584852
3912,0.005125329
3913,-0.015234875
3914,0.0034142951
3915,-0.004550015
3916,-0.009677667
3917,0.0075981603
3918,-0.013949717
3919,0.014160899
3920,-0.0029611674
3921,-0.0018253156
3922,-0.01358429
3923,-0.010182957
3924,0.000480238
3925,-0.010135778
3926,0.009240046
3927,-0.008963472
3928,0.012048199
3929,0.0025437789
3930,0.003628287
3931,-0.0005404495
3932,0.018132713
3933,-0.0010599361
3934,0.0094992425
3935,0.0020241449
3936,0.0062456415
3937,0.009377856
3938,-0.0103764115
3939,-0.0041332426
3940,0.012857285
3941,0.0148588605
3942,0.0096178185
3943,0.012839037
3944,0.0008922832
3945,0.0053997575
3946,0.015472064
3947,-0.0014912029
3948,0.010150298
3949,0.009290315
3950,-0.0003141313
3951,0.0068618297
3952,-0.002767098
3953,0.00059103465
3954,-0.014069733
3955,0.005959483
3956,0.009380374
3957,-0.006482764
3958,-0.0054919785
3959,-0.004536604
3960,-0.00345279
3961,-0.016880352
3962,0.010370587
3963,0.00558905
3964,0.013589656
3965,-0.0036135826
3966,0.0030724695
3967,0.0037634384
3968,-0.008084597
3969,0.0012911825
3970,-0.008535634
3971,-0.012936899
3972,-0.0070768935
3973,0.010141885
3974,-0.004689588
3975,0.0015179005
3976,-0.007485114
3977,0.010038096
3978,0.014918059
3979,0.01877094
3980,0.0071230517
3981,-0.0006914924
3982,-0.002690132
3983,0.0029985888
3984,0.0022452169
3985,0.00500646
3986,0.008606846
3987,-0.011825972
3988,0.0051994734
3989,0.006589566
3990,0.0019918536
3991,0.0002560064
3992,0.006701131
3993,0.0031187767
3994,0.009356079
3995,-0.011978419
3996,0.018963058
3997,-0.007691641
3998,0.0012528779
3999,-0.004572668
4000,-0.009866603
4001,0.018341234
4002,0.015113505
4003,0.008756443
4004,0.001186382
4005,0.00075147103
4006,0.0009094312
4007,-0.00082444143
4008,0.007832842
4009,-0.003277718
4010,-0.004599798
4011,-0.017434023
4012,0.01964
4013,-0.000111905436
4014,-0.011460162
4015,0.006472908
4016,0.0014538161
4017,0.008929068
4018,-0.00500447
4019,-0.012305911
4020,-0.004549068
4021,-0.017814701
4022,0.0014299336
4023,-0.00089917
4024,-0.0040350356
4025,-0.0048225033
4026,-0.011295502
4027,-0.0090243565
4028,0.007756119
4029,0.005999672
4030,-0.0005856926
4031,-0.017489878
4032,0.0036773363
4033,0.0070817843
4034,0.0075531844
4035,-0.008215829
4036,0.0029649406
4037,-0.0022630382
4038,-0.008124847
4039,-0.0070443647
4040,0.0020734414
4041,0.0036567186
4042,-0.009805408
4043,0.017441034
4044,0.00863887
4045,-0.0011551359
4046,0.0028971778
4047,0.010462256
4048,-0.0004916675
4049,-0.01271818
4050,-0.0032219244
4051,-0.0019512608
4052,-0.0058681285
4053,0.0007912482
4054,0.011805238
4055,0.006787107
4056,-0.0034347712
4057,-0.009275301
4058,-0.0048889816
4059,0.0021251305
4060,0.0052582086
4061,-2.1126305e-05
4062,-0.0023829006
4063,-0.0015728892
4064,-0.010073515
4065,-0.0077519133
4066,-0.0008805869
4067,-0.009830995
4068,0.013176665
4069,-0.005658366
4070,0.0041364357
4071,-0.012039968
4072,-0.004061543
4073,0.010999456
4074,0.006049572
4075,0.0018070977
4076,-0.014016175
4077,0.0045524566
4078,0.003000615
4079,-0.007525012
4080,0.008437905
4081,0.013570716
4082,0.010457349
4083,0.0035523975
4084,-0.018074736
4085,-0.010065539
4086,-0.0010751943
4087,0.005957859
4088,-0.0059086494
4089,0.0024060905
4090,-0.0027973044
4091,0.017946737
4092,0.00250032
4093,0.015478101
4094,-0.010002865
4095,-0.0075956625
