Sno,Weight
0,0.107172005
1,0.040280707
2,0.025058785
3,-0.15233508
4,0.013943631
5,0.024152497
6,0.0075114802
7,0.013189258
8,0.0064349696
9,-0.01558935
10,-0.06948451
11,-0.07481544
12,0.004918028
13,-0.068116225
14,-0.21274388
15,0.04483684
16,-0.08609275
17,-0.03777067
18,0.046196956
19,-0.06407373
20,-0.00896029
21,0.023788722
22,-0.10716025
23,0.09347032
24,-0.029491024
25,-0.028975178
26,-0.014739746
27,0.036770746
28,0.0878568
29,0.019453587
30,-0.018701054
31,0.12616275
32,-0.094176464
33,0.10537188
34,0.009280803
35,-0.020687003
36,-0.046540093
37,-0.1501493
38,0.0122792795
39,-0.027335014
40,-0.10415601
41,0.10588893
42,0.11561562
43,-0.026290402
44,0.06487034
45,0.055728875
46,0.052062273
47,0.00324213
48,0.08446469
49,-0.11566585
50,0.04872053
51,-0.07915692
52,-0.028496461
53,0.0903969
54,0.10846672
55,-0.019228047
56,0.042628348
57,0.029978799
58,-0.06978776
59,0.06607691
60,-0.031489257
61,-0.04846596
62,-0.020183316
63,0.075873464
64,-0.14693034
65,0.07177785
66,-0.0071462844
67,-0.032958735
68,0.0044545005
69,0.06481115
70,0.07280728
71,0.00884703
72,0.16633447
73,-0.03646176
74,0.02802526
75,0.0093565425
76,-0.020827217
77,-0.15951212
78,-0.20941605
79,0.049194477
80,0.067547716
81,0.065366514
82,0.0062846476
83,0.017624408
84,0.0053183455
85,-0.13741148
86,-0.060809795
87,0.06182514
88,-0.054837387
89,0.08340245
90,0.0875461
91,-0.00929211
92,0.0636429
93,-0.005234857
94,-0.021696012
95,0.011487007
96,0.049755417
97,0.02593284
98,0.026356606
99,-0.075046465
100,0.0050158277
101,-0.017092211
102,-0.013299035
103,0.09355348
104,0.05951945
105,-0.11263063
106,-0.22435431
107,-0.044019543
108,0.009432228
109,0.019703995
110,-0.0029387523
111,-0.06540607
112,-0.021912208
113,-0.049465578
114,-0.017267244
115,-0.069019906
116,-0.026175397
117,-0.05633126
118,-0.044821616
119,-0.078944065
120,-0.17603627
121,-0.10542175
122,-0.0942749
123,-0.0077873264
124,-0.01230116
125,-0.09203877
126,0.001995602
127,0.01873801
128,0.09632272
129,0.10274456
130,0.090373784
131,-0.024087675
132,0.0059821177
133,-0.06216222
134,-0.034663275
135,-0.14821273
136,-0.027353058
137,0.04903413
138,-0.07857381
139,-0.040128477
140,0.024682047
141,-0.08401843
142,-0.15377448
143,0.09028483
144,0.060585134
145,-0.20930718
146,0.0925587
147,-0.006931752
148,-0.055343397
149,0.004501079
150,0.039026905
151,0.13511081
152,-0.027212039
153,-0.15304796
154,-0.13221954
155,0.06463457
156,0.09168959
157,-0.06576743
158,-0.004172769
159,0.027160587
160,-0.045503795
161,0.103557505
162,0.013299368
163,0.009647307
164,0.034485612
165,0.0004161122
166,-0.06015246
167,-0.08384969
168,-0.145148
169,0.17369083
170,0.109758355
171,-0.11079734
172,0.11052875
173,0.022385597
174,0.064846426
175,-0.041517336
176,0.16803174
177,0.037553824
178,-0.0062156473
179,-0.028552871
180,-0.18360183
181,0.092269905
182,0.029871572
183,0.022624299
184,0.03723689
185,0.012209655
186,-0.113689415
187,0.042499956
188,-0.07318601
189,-0.12537017
190,0.052277405
191,0.10074356
192,-0.15998903
193,-0.06312194
194,0.04214378
195,-0.02511354
196,-0.11580234
197,0.060887575
198,0.17407797
199,0.03261996
200,-0.060728762
201,-0.062234465
202,-0.094682515
203,-0.048830274
204,0.055438418
205,-0.10384471
206,-0.015467592
207,0.0961828
208,0.163765
209,0.18586719
210,-0.016814014
211,-0.0066847824
212,0.06926102
213,0.035367697
214,-0.036019042
215,-0.07158092
216,-0.09956244
217,0.09256214
218,0.13903815
219,-0.026880503
220,0.09466437
221,0.028811371
222,-0.060639784
223,0.037490655
224,0.09117802
225,-0.019443361
226,0.050071303
227,-0.106914535
228,-0.05682957
229,-0.10681943
230,-0.06660399
231,0.07133738
232,0.10250979
233,-0.12970084
234,0.016942509
235,-0.056339175
236,0.0054380414
237,-0.07779526
238,0.0014395077
239,-0.09098622
240,0.05188586
241,-0.024857983
242,0.05087503
243,-0.09134551
244,-0.24850728
245,-0.102256574
246,-0.07748538
247,-0.053894896
248,0.06751535
249,-0.100097775
250,-0.088228896
251,0.026363466
252,-0.063337274
253,-0.09005483
254,0.00849167
255,0.07138801
256,0.032559216
257,0.030257886
258,-0.05344671
259,0.0016626281
260,-0.054685023
261,-0.33519298
262,0.044933423
263,-0.015630772
264,-0.08750529
265,-0.00039009558
266,-0.037008718
267,-0.026570395
268,0.06416846
269,-0.01383385
270,-0.058025423
271,-0.0094003165
272,-0.03172034
273,-0.16968206
274,0.003548243
275,0.03497338
276,-0.010424578
277,-0.11121226
278,-0.16659811
279,-0.0489896
280,-0.00015233435
281,0.026072888
282,0.018819692
283,-0.0069008474
284,-0.0055689444
285,-0.06303665
286,-0.12722152
287,-0.10020373
288,-0.025538666
289,-0.11405738
290,-0.16220868
291,-0.004649411
292,-0.1612061
293,0.009733457
294,0.026829656
295,-0.021876257
296,0.052133005
297,-0.03347883
298,0.0053483006
299,0.05162282
300,0.054695487
301,-0.05014458
302,0.012014091
303,-0.00019695007
304,-0.02943086
305,-0.029457657
306,0.031175323
307,0.0059533613
308,0.028738962
309,-0.020349648
310,-0.12127671
311,0.03541584
312,0.03925663
313,-0.18744777
314,-0.07244119
315,-0.060192466
316,-0.015707687
317,0.02124197
318,-0.020260349
319,0.030695241
320,-0.13092586
321,0.03485854
322,0.07999251
323,-0.0079703
324,-0.011492321
325,-0.013145072
326,-0.0031198044
327,0.07585354
328,0.024876844
329,-0.007988033
330,0.008884455
331,-0.021970129
332,0.04352856
333,0.003370397
334,-0.053912826
335,-0.0052763717
336,0.000979407
337,-0.030494466
338,0.009670913
339,0.10079738
340,-0.030988587
341,-0.024746232
342,-0.02517458
343,-0.03417277
344,-0.025368536
345,0.0017191578
346,0.031095054
347,-0.039821036
348,0.027641498
349,-0.029171951
350,-0.00916845
351,0.015608481
352,-0.012507524
353,-0.14113586
354,0.052105207
355,-0.029159717
356,-0.060552474
357,-0.05963544
358,0.01250587
359,0.0034167473
360,0.042691194
361,-0.013075106
362,0.06729093
363,-0.030992676
364,-0.008462688
365,-0.084192835
366,-0.015285894
367,-0.014881044
368,0.03336794
369,-0.019498061
370,-0.002768625
371,0.059361935
372,-0.048115443
373,0.008429935
374,0.0047093737
375,-0.053276017
376,-0.00015378746
377,-0.047513172
378,-0.05088522
379,-0.06115586
380,0.018812876
381,-0.023038661
382,-0.0014185854
383,-0.052846055
384,0.036379572
385,-0.014310658
386,-0.016457494
387,0.0010749475
388,0.025866609
389,-0.1298427
390,0.03128384
391,0.00092546537
392,-0.048375115
393,-0.03748164
394,-0.068450294
395,-0.02455923
396,-0.019193249
397,-0.02288262
398,0.031230498
399,-0.027138498
400,-0.009080811
401,-0.006778535
402,-0.0162024
403,0.15104473
404,-0.018646004
405,-0.0018261825
406,0.12274459
407,0.015842142
408,0.019235125
409,0.022430154
410,-0.01170312
411,-0.04055159
412,0.0035363487
413,-0.020076782
414,0.026309809
415,-0.07767236
416,-0.046793867
417,-0.057279672
418,-0.016582394
419,-0.011525939
420,-0.025695182
421,-0.023723114
422,0.08151471
423,-0.028862072
424,-0.13383667
425,-0.011401883
426,0.0068883486
427,0.13123201
428,0.027523985
429,-0.049412034
430,-0.004063892
431,0.0044936026
432,-0.01755788
433,-0.004771372
434,0.024590291
435,-0.11851795
436,-0.00069095363
437,0.0114108985
438,0.01690697
439,0.05085762
440,0.0068417215
441,-0.008338791
442,-0.023096662
443,0.027658891
444,-0.02868152
445,0.008534562
446,-0.051285937
447,0.01797391
448,0.0151541615
449,-0.007168303
450,0.04994892
451,0.011704619
452,-0.05975314
453,-0.046861
454,-0.038735382
455,0.10507139
456,-0.04811135
457,-0.019944068
458,0.021937376
459,-0.010584759
460,-0.0058286083
461,0.040515866
462,0.024884839
463,-0.045326892
464,-0.017020654
465,-0.018370602
466,-9.064446e-05
467,0.07187387
468,0.03714497
469,-0.0708913
470,-0.010084337
471,0.08556301
472,-0.029106144
473,-0.05767226
474,0.0007724848
475,-0.015785798
476,-0.027180992
477,-0.081147194
478,-0.021741759
479,0.01799845
480,-0.00814335
481,-0.051078103
482,0.02250909
483,-0.04909389
484,-0.050567657
485,-0.20840366
486,0.0024606744
487,-0.02791652
488,0.015674876
489,0.021429334
490,-0.013924305
491,-0.070149764
492,-0.007777609
493,0.08906257
494,-0.008226568
495,-0.02151096
496,0.0037053714
497,-0.040680215
498,-0.023813743
499,-0.038605697
500,-0.048149664
501,0.034025088
502,-0.021512123
503,-0.17644872
504,0.024319913
505,-0.13776372
506,-0.17249788
507,-0.024072882
508,-0.005957617
509,-0.0074015385
510,-0.0027050884
511,-0.014464772
512,-0.06444518
513,0.038617156
514,0.0018125424
515,-0.0003121306
516,-0.0026357006
517,0.06460256
518,-0.009851194
519,-0.03743308
520,0.03860183
521,0.09232029
522,-0.003860281
523,-0.02525492
524,0.04419377
525,-0.012232874
526,-0.04890641
527,0.016740762
528,-0.033204857
529,-0.14564957
530,0.0054775043
531,-0.039134644
532,0.034677032
533,0.043934472
534,0.053282686
535,-0.024501624
536,-0.0077315005
537,0.015085203
538,-0.08210833
539,0.023098351
540,0.04464678
541,-0.034793507
542,-0.057741005
543,-0.0153742675
544,-0.010703613
545,-0.019129772
546,0.02832863
547,0.005062374
548,-0.045245487
549,-0.01668794
550,-0.08037753
551,0.02189974
552,-0.00037887602
553,0.052866705
554,0.02591744
555,-0.04252006
556,0.039805073
557,0.0025705423
558,0.022696478
559,-0.04031874
560,0.02341484
561,0.029595364
562,0.019416004
563,-0.04712306
564,-0.0092725465
565,-0.0001819798
566,-0.07303865
567,0.016582608
568,0.028963517
569,0.04371046
570,0.01906357
571,0.040478818
572,0.017180126
573,0.0032048945
574,-0.022848634
575,0.041576296
576,-0.09595369
577,0.019593028
578,0.004342175
579,0.02768578
580,-0.060150087
581,0.014112796
582,0.0036068507
583,-0.02141957
584,-0.006790139
585,0.008196006
586,-0.09425198
587,-0.001776538
588,0.0648389
589,-0.17975055
590,-0.06974063
591,-0.0024918872
592,0.033601724
593,0.011520229
594,-0.027563127
595,0.043507922
596,0.016244328
597,-0.06815555
598,-0.008734445
599,0.0371615
600,-0.009568595
601,0.037947748
602,0.009606279
603,-0.015510387
604,0.0842247
605,-0.0057698213
606,-6.1385574e-05
607,-0.06183398
608,0.041745435
609,0.010773002
610,0.0533434
611,0.045589894
612,0.0058585675
613,-0.07313961
614,-0.006985187
615,0.013073676
616,0.011415031
617,-0.05587002
618,-0.05221819
619,0.023410363
620,0.010221498
621,-0.009176562
622,0.00262938
623,0.037627842
624,0.06268742
625,0.050551526
626,-0.0041424828
627,-0.03712095
628,0.014675256
629,0.031888854
630,0.0068970434
631,-0.027137902
632,-0.052333366
633,-0.07467179
634,0.008957198
635,-0.048251517
636,-0.056639686
637,0.06509517
638,0.016040914
639,0.035445664
640,-0.0382585
641,-0.12420549
642,-0.053279936
643,0.060725097
644,-0.05541389
645,-0.04911842
646,0.030016214
647,0.09488537
648,-0.09802838
649,-0.05992443
650,0.022048634
651,-0.018797928
652,0.043509584
653,-0.011753751
654,-0.026139678
655,-0.0176273
656,-0.025040543
657,0.0011392346
658,-0.12818779
659,-0.04276712
660,-0.01732409
661,0.021666756
662,-0.14805028
663,-0.06473308
664,-0.025267635
665,0.0028099318
666,0.117681995
667,0.047331885
668,-0.052137088
669,0.047332052
670,0.00793577
671,-0.044406332
672,0.025384242
673,-0.09304285
674,0.030872086
675,-0.019034563
676,-0.05493778
677,0.01854092
678,0.017152345
679,-0.034436405
680,-0.001738101
681,-0.03424162
682,-0.07777193
683,0.002876995
684,-0.097317465
685,0.012079823
686,-0.06979338
687,0.006236743
688,-0.08148046
689,0.04720561
690,0.064158775
691,-0.010881923
692,0.11002753
693,-0.16672787
694,-0.016135093
695,-0.17586218
696,0.07084765
697,0.018932525
698,0.0012617763
699,-0.07810384
700,-0.004645399
701,0.004583738
702,-0.07941545
703,-0.04399325
704,-0.00796377
705,-0.059994835
706,-0.089152224
707,0.046354003
708,0.076633945
709,-0.08836351
710,-0.097352445
711,-0.034945533
712,0.050490364
713,0.0067294254
714,0.022388227
715,0.044608075
716,0.009808085
717,0.021836592
718,-0.043664932
719,-0.038829613
720,-0.11344988
721,-0.06277685
722,0.0013504759
723,-0.045546696
724,-0.030589078
725,-0.019063069
726,0.0013844765
727,-0.022580856
728,-0.015387809
729,-0.0018541905
730,-0.15354088
731,-0.10297862
732,-0.07474469
733,-0.046288695
734,-0.023634518
735,0.016352681
736,-0.16314001
737,0.006764763
738,-0.013419816
739,-0.0060645263
740,0.0005763896
741,0.022664202
742,0.029288435
743,-0.14803027
744,-0.09862427
745,0.06387997
746,-0.040016476
747,0.0009921133
748,-0.0040667444
749,0.036735054
750,0.0063715163
751,-0.014168127
752,-0.02105204
753,-0.053023674
754,-0.053747423
755,0.13087879
756,0.09082169
757,-0.007493451
758,0.013907018
759,0.0071888887
760,-0.027627027
761,0.0028970414
762,-0.006412039
763,-0.058622874
764,-0.022197062
765,0.052199274
766,-0.034297932
767,-0.20516127
768,0.0757845
769,0.078423105
770,-0.014304841
771,-0.038229663
772,-0.0714505
773,0.049894337
774,-0.09631902
775,-0.109307714
776,0.029231694
777,-0.011856746
778,-0.085746504
779,-0.08648341
780,0.046449598
781,-0.08446647
782,-0.12291917
783,0.0010278717
784,-0.049379695
785,-0.19241402
786,-0.014520848
787,-0.0059562447
788,-0.09482769
789,-0.00094478665
790,0.08795696
791,-0.009387655
792,-0.0019226306
793,0.01615739
794,-0.048366964
795,-0.049143087
796,0.020470085
797,-0.21103284
798,-0.07613593
799,0.048216984
800,-0.12642324
801,0.07256651
802,0.010430635
803,0.01049742
804,-0.0838313
805,-0.01780391
806,-0.1630769
807,-0.004381747
808,-0.018471586
809,0.033950437
810,-0.0010398122
811,0.052669164
812,0.12988035
813,-0.01736738
814,0.07298663
815,0.00967731
816,0.03830983
817,0.05269547
818,-0.012458029
819,0.0036127674
820,-0.049600624
821,0.027549386
822,-0.012994248
823,-0.026457317
824,-0.04855497
825,0.025247864
826,-0.027121795
827,-0.0010299333
828,-0.013636456
829,-0.00998606
830,-0.019989146
831,0.04433485
832,-0.15756011
833,-0.023057701
834,0.07488202
835,-0.04323472
836,-0.14673951
837,-0.017791891
838,0.036553014
839,0.056049958
840,-0.014562851
841,-0.045681544
842,-0.14216131
843,-0.058349337
844,0.036953524
845,-0.09846814
846,-0.036687702
847,-0.0015452468
848,0.05706602
849,0.04503035
850,0.010831948
851,0.07186398
852,9.194322e-05
853,-0.059471752
854,-0.018922983
855,-0.08870701
856,-0.043837767
857,-0.0032771209
858,0.05816038
859,0.09234856
860,0.052640796
861,-0.041338097
862,-0.029721763
863,0.038728032
864,-0.0019984436
865,0.041890033
866,0.0402068
867,-0.07580045
868,-0.022021959
869,-0.08492779
870,-0.003416672
871,0.0504992
872,0.096065946
873,-0.0033648089
874,-0.12469507
875,-0.058187842
876,0.011565458
877,-0.002894616
878,-0.0022456532
879,-0.08085358
880,0.025605742
881,-0.041433815
882,-0.00046656776
883,-0.031177321
884,-0.10201265
885,-0.020831821
886,-0.018327145
887,-0.06989648
888,-0.17432128
889,-0.244302
890,-0.047239266
891,-0.052418392
892,-0.07938485
893,-0.057108883
894,-0.0055414867
895,0.040612575
896,-0.060041428
897,0.050113
898,0.06390164
899,-0.088283844
900,-0.11280325
901,0.09805335
902,-0.042363398
903,-0.1269059
904,-0.084564246
905,-0.072306186
906,-0.050308198
907,-0.067079075
908,-0.20280583
909,-0.0044917045
910,-0.061992783
911,-0.039686
912,-0.09812598
913,-0.108415596
914,0.09498889
915,0.07616448
916,-0.02163096
917,0.027579935
918,0.11390004
919,-0.051536754
920,0.018154932
921,-0.3170197
922,-0.15160954
923,-0.042745862
924,0.025231289
925,-0.11624041
926,-0.13330884
927,0.010379373
928,-0.066341914
929,-0.071013995
930,0.020434918
931,-0.0013468988
932,-0.18278323
933,-0.023690436
934,0.032344986
935,0.005467238
936,-0.22742358
937,-0.043265913
938,0.019004868
939,0.06828287
940,0.014424836
941,-0.03806678
942,0.05467624
943,-0.007017085
944,0.05702408
945,-0.028618418
946,-0.052646857
947,-0.0058232024
948,-0.0966779
949,0.049851257
950,0.015307862
951,0.0069606765
952,-0.027022813
953,0.030084124
954,-0.08508172
955,-0.037664723
956,-0.02185649
957,-0.22653586
958,-0.04439883
959,-0.03183388
960,-0.052561384
961,-0.107508264
962,0.007347704
963,-0.045841526
964,-0.039271273
965,-0.09114373
966,0.028963799
967,0.12652132
968,-0.033630617
969,-0.045132685
970,-0.054197703
971,-0.068841375
972,-0.04298623
973,-0.092746794
974,-0.0053568883
975,0.06007524
976,0.036617946
977,0.07594048
978,-0.0019071585
979,0.070358
980,-0.103809655
981,-0.05841459
982,-0.087420665
983,-0.046105325
984,-0.04104067
985,-0.085294954
986,-0.06783333
987,0.070035055
988,-0.0061346684
989,-0.04511559
990,0.003266868
991,-0.012041386
992,-0.0642669
993,0.070303224
994,0.0033785105
995,-0.04290973
996,-0.031680718
997,-0.060524743
998,-0.112732776
999,0.0685693
1000,0.05127757
1001,0.089700215
1002,-0.08965151
1003,-0.01142212
1004,0.019611346
1005,-0.03507109
1006,0.002447731
1007,-0.03852347
1008,0.014905035
1009,-0.01993371
1010,-0.0082878005
1011,-0.0738888
1012,0.061259907
1013,-0.039473597
1014,-0.07261658
1015,-0.014925027
1016,-0.045043908
1017,-0.14059006
1018,0.0031294506
1019,-0.13355123
1020,-0.110150255
1021,-0.036143877
1022,0.013866132
1023,0.053298026
1024,-0.049115505
1025,-0.023054529
1026,0.02954649
1027,-0.0041258535
1028,-0.05442938
1029,-0.015873384
1030,0.009299761
1031,0.003290369
1032,-0.020512989
1033,-0.015429838
1034,0.038128305
1035,0.026672538
1036,-0.11992735
1037,0.037789367
1038,-0.0068981
1039,0.013102572
1040,-0.100640744
1041,-0.038894396
1042,0.039084375
1043,0.10591745
1044,-0.019890003
1045,0.029294647
1046,0.032315943
1047,0.016876549
1048,-0.009739797
1049,0.074914515
1050,0.019041667
1051,0.015948735
1052,0.03248406
1053,0.027599877
1054,-0.07382507
1055,-0.022280568
1056,0.049252752
1057,-0.04183692
1058,-0.0010004903
1059,0.00022159648
1060,-0.12065468
1061,0.009567878
1062,0.02274798
1063,0.009839626
1064,-0.12779452
1065,-0.027861597
1066,-0.029229293
1067,-0.021086382
1068,-0.07754087
1069,0.027074497
1070,-0.060729425
1071,0.05066746
1072,-0.0074037747
1073,-0.08525155
1074,0.06195908
1075,0.05807006
1076,0.03793907
1077,-0.012131866
1078,-0.07084072
1079,0.03359027
1080,0.05662245
1081,0.0038188112
1082,-0.013492568
1083,0.03275344
1084,0.009326542
1085,0.011571535
1086,0.0099859005
1087,-0.09905729
1088,-0.028150022
1089,-0.026164684
1090,-0.04325472
1091,0.007828766
1092,-0.02445038
1093,-0.017734185
1094,-0.03990616
1095,-0.02747119
1096,-0.004428641
1097,0.023828223
1098,0.027970947
1099,0.05536461
1100,0.0764074
1101,-0.020310476
1102,0.0343028
1103,-0.015829809
1104,-0.0052700536
1105,-0.06405854
1106,0.001505094
1107,0.0118831545
1108,-0.041810263
1109,-0.005402779
1110,0.043904755
1111,0.024212621
1112,0.0131436335
1113,-0.00056154246
1114,-0.095403045
1115,0.016497122
1116,-0.010023815
1117,0.008268819
1118,0.019041099
1119,-0.035319246
1120,-0.009588044
1121,-0.0052044457
1122,-0.005656826
1123,-0.02073873
1124,-0.0056200973
1125,-0.01221517
1126,0.02509598
1127,-0.0090193525
1128,-0.08104433
1129,0.05032541
1130,-0.043606713
1131,0.008945488
1132,-0.026904857
1133,0.04928011
1134,-0.008944915
1135,-0.008145015
1136,-0.023113165
1137,-0.06357226
1138,0.0070165307
1139,0.008282702
1140,0.0028553184
1141,0.017943168
1142,0.009610479
1143,0.048231505
1144,-0.047103398
1145,-0.026261466
1146,0.067733414
1147,-0.031772744
1148,-0.0080598425
1149,0.0043283664
1150,0.008089678
1151,-0.120936215
1152,0.03236724
1153,-0.056967802
1154,0.008379856
1155,0.018997181
1156,-0.08311714
1157,-0.11446759
1158,0.04951138
1159,0.07281887
1160,0.03344581
1161,-0.046544105
1162,-0.0011778688
1163,-0.018523213
1164,-0.000111034875
1165,-0.002713557
1166,-0.19374913
1167,-0.04417952
1168,-0.14237493
1169,-0.058803074
1170,0.025204634
1171,0.14950392
1172,0.031155432
1173,0.049474362
1174,-0.050709516
1175,-0.10857021
1176,-0.012746471
1177,0.032811105
1178,0.056860246
1179,0.002715743
1180,0.020082632
1181,0.058350325
1182,0.01943042
1183,-0.025551809
1184,-0.026424674
1185,-0.057924844
1186,0.02040635
1187,-0.0072110575
1188,-0.036914527
1189,-0.045460325
1190,0.025689425
1191,0.023707341
1192,0.07324011
1193,-0.059327967
1194,-0.024245638
1195,0.1314565
1196,-0.026213864
1197,-0.029693259
1198,-0.08591047
1199,0.022370482
1200,-0.029325038
1201,-0.06952649
1202,0.057829868
1203,0.0069093043
1204,0.06944891
1205,-0.0054807663
1206,-0.02205634
1207,0.073971875
1208,0.082996674
1209,0.02890186
1210,0.06389861
1211,-0.077593066
1212,0.033422403
1213,0.026761167
1214,0.0008196724
1215,-0.01625624
1216,-0.08454297
1217,0.009378581
1218,-0.07376221
1219,0.034187265
1220,-0.0123347435
1221,-0.06366616
1222,-0.111817874
1223,-0.07449465
1224,0.022434823
1225,-0.020944044
1226,-0.005067237
1227,0.057797108
1228,0.0059590875
1229,-0.105129495
1230,-0.14625534
1231,0.007165831
1232,-0.03539949
1233,-0.09201792
1234,-0.002806462
1235,0.051390532
1236,-0.0489016
1237,-0.20288992
1238,-0.037884906
1239,0.012516831
1240,-0.0076890914
1241,-0.049223185
1242,-0.050663747
1243,0.01703477
1244,-0.07905453
1245,-0.047870364
1246,0.013398412
1247,0.031150592
1248,-0.093878984
1249,0.01930841
1250,0.004651369
1251,-0.014321055
1252,0.029815197
1253,0.012158471
1254,0.018753799
1255,0.03150966
1256,-0.047730215
1257,0.035338137
1258,-0.15340751
1259,0.021785133
1260,-0.0063821296
1261,0.08419281
1262,0.008722902
1263,-0.019296024
1264,0.015515812
1265,-0.029863749
1266,0.009359164
1267,0.042433865
1268,0.0683044
1269,0.01797542
1270,0.012643121
1271,0.021351438
1272,-0.1574082
1273,-0.08818949
1274,0.017965777
1275,-0.12931427
1276,-0.07116152
1277,-0.0025454287
1278,0.005166946
1279,0.029418783
1280,0.10531288
1281,0.03901323
1282,0.107387476
1283,-0.050053827
1284,0.010410341
1285,-0.033236664
1286,0.056247182
1287,0.01977771
1288,-0.090732194
1289,-0.0018237577
1290,-0.0153767215
1291,-0.042992167
1292,0.03925623
1293,-0.036282647
1294,-0.09165565
1295,0.031498536
1296,-0.051376425
1297,-0.039140787
1298,0.11086541
1299,-0.031050108
1300,0.017009936
1301,-0.02000304
1302,0.0029513221
1303,0.035099804
1304,-0.007304974
1305,0.08402234
1306,-0.075284876
1307,0.042881753
1308,0.033093847
1309,0.017570881
1310,-0.02724973
1311,-0.41605613
1312,-0.009018179
1313,0.16402137
1314,-0.028309628
1315,-0.0021231335
1316,-0.04754111
1317,-0.027906688
1318,-0.004616766
1319,-0.09610085
1320,-0.042444423
1321,0.13389729
1322,0.085379645
1323,-0.035011783
1324,0.06787658
1325,0.032789826
1326,0.079981424
1327,-0.032553293
1328,0.049030654
1329,-0.0016210068
1330,0.047338914
1331,-0.26015422
1332,0.070247866
1333,0.08224879
1334,0.08327984
1335,-0.03290221
1336,0.039174452
1337,-0.029710904
1338,-0.12994628
1339,0.03206052
1340,-0.06677729
1341,0.050363433
1342,0.036401164
1343,0.04110696
1344,-0.061545692
1345,0.04539133
1346,0.06650779
1347,-0.004317466
1348,0.05759376
1349,0.08375799
1350,0.055403877
1351,0.019914296
1352,0.10872421
1353,-0.05016845
1354,0.04420783
1355,-0.011297568
1356,0.006069796
1357,-0.21210808
1358,-0.24096788
1359,0.06265111
1360,0.045955203
1361,0.012276704
1362,2.3750212e-05
1363,-0.07482057
1364,-0.003372733
1365,-0.059336443
1366,-0.012528867
1367,0.079493195
1368,-0.09412505
1369,0.039837275
1370,0.1029583
1371,0.017330943
1372,0.053787086
1373,0.053593207
1374,-0.061619837
1375,0.13722989
1376,0.064547494
1377,0.0081690885
1378,0.064392805
1379,-0.06179109
1380,-0.022329172
1381,-0.22681646
1382,0.07507859
1383,0.06559343
1384,0.039055083
1385,-0.039589774
1386,-0.16067648
1387,-0.028510153
1388,0.022391826
1389,-0.018912198
1390,0.014115249
1391,-0.008807505
1392,0.026621703
1393,-0.029333128
1394,0.09587012
1395,0.0156198125
1396,-0.09121828
1397,0.043425217
1398,-0.046500087
1399,-0.18052489
1400,-0.08379708
1401,-0.078237884
1402,-0.16117424
1403,0.020950813
1404,0.012569383
1405,-0.023311898
1406,0.0070099076
1407,0.08317716
1408,0.13091406
1409,0.070048265
1410,0.0071109533
1411,-0.106616005
1412,0.030172352
1413,-0.105127335
1414,0.011020812
1415,-0.11328914
1416,-0.048087746
1417,-0.0038149653
1418,-0.10747726
1419,-0.070558034
1420,0.011222282
1421,-0.09281722
1422,-0.02410288
1423,0.05368086
1424,0.015234012
1425,-0.12173635
1426,0.044942733
1427,0.06348266
1428,-0.038544793
1429,-0.13316427
1430,0.02136962
1431,0.08882174
1432,0.002053802
1433,-0.05900477
1434,-0.08700264
1435,-0.043335605
1436,0.029599715
1437,-0.012398296
1438,-0.16622488
1439,-0.014798135
1440,-0.06842692
1441,0.064935416
1442,-0.12522079
1443,-5.4087814e-05
1444,-0.026160702
1445,-0.07126592
1446,0.031559397
1447,-0.13438606
1448,-0.033780724
1449,0.1058601
1450,0.09356373
1451,0.0041191685
1452,0.16341038
1453,-0.04501071
1454,0.056883704
1455,-0.029657355
1456,0.08638887
1457,-0.038569268
1458,0.038794357
1459,-0.1512731
1460,-0.037558086
1461,0.13594486
1462,0.11375795
1463,-0.04605737
1464,0.03288081
1465,-0.13188136
1466,-0.42050937
1467,0.08357026
1468,-0.13437967
1469,-0.032369178
1470,0.019640071
1471,0.066376604
1472,-0.10188542
1473,0.0565526
1474,0.020584898
1475,-0.09958764
1476,0.017421361
1477,0.020719396
1478,0.08539095
1479,0.07886537
1480,0.03389292
1481,-0.099485956
1482,0.051801834
1483,-0.028367847
1484,-0.024915498
1485,-0.023371104
1486,-0.08299184
1487,-0.054322686
1488,0.105352536
1489,0.09179107
1490,-0.006386118
1491,0.05534761
1492,0.06830369
1493,-0.03105308
1494,-0.083990514
1495,0.11001128
1496,-0.023317963
1497,0.049847472
1498,0.1102098
1499,0.055797465
1500,0.047738675
1501,0.011607151
1502,-0.09237073
1503,0.09243288
1504,0.094855614
1505,-0.12245133
1506,-0.009920616
1507,-0.02999989
1508,-0.05457989
1509,-0.24685301
1510,-0.057390615
1511,0.090576
1512,0.104129225
1513,-0.0031587281
1514,-0.009997313
1515,-0.10292451
1516,-0.02617356
1517,0.00038035435
1518,0.00268323
1519,-0.03580898
1520,-0.0042557805
1521,-0.00013277709
1522,-0.0024737187
1523,-0.010112054
1524,-0.15274651
1525,-0.036213636
1526,-0.067272365
1527,-0.2427237
1528,0.023506869
1529,-0.027156087
1530,-0.19738021
1531,0.031104496
1532,-0.0107731465
1533,-0.10675947
1534,-0.018150028
1535,0.049062245
1536,-0.033957407
1537,0.020969357
1538,0.060295183
1539,0.033544123
1540,0.0068076295
1541,-0.12422156
1542,0.03863264
1543,0.037811283
1544,0.06744744
1545,0.035738997
1546,0.029842725
1547,0.042666137
1548,-0.000864328
1549,0.054873493
1550,0.038848344
1551,0.042643476
1552,0.044484608
1553,-0.15772128
1554,0.031279895
1555,-0.15978374
1556,-0.0061830766
1557,0.016531002
1558,-0.11971567
1559,-0.037322123
1560,-0.039422825
1561,0.039259203
1562,0.005110403
1563,0.04548686
1564,0.03321253
1565,0.014489185
1566,-0.05338099
1567,-0.13323596
1568,0.037433483
1569,0.0076612732
1570,-0.006685407
1571,-0.026166871
1572,0.08177613
1573,-0.03009451
1574,-0.083023585
1575,0.07185441
1576,-0.093925394
1577,-0.04984834
1578,-0.016394092
1579,-0.15723316
1580,0.03980029
1581,0.0725816
1582,0.024339445
1583,0.010030413
1584,-0.017468765
1585,-0.033758648
1586,0.050403718
1587,0.06614286
1588,0.0399985
1589,0.007930788
1590,-0.08516862
1591,-0.08362103
1592,0.08754602
1593,0.030246984
1594,0.0007900057
1595,-0.025988309
1596,0.035725422
1597,0.026000781
1598,-0.037589215
1599,-0.003655835
1600,-0.08889542
1601,-0.010294396
1602,0.020895442
1603,0.0018926647
1604,-0.062776975
1605,0.009054867
1606,-0.002640783
1607,-0.09294069
1608,0.03185849
1609,0.03167517
1610,0.07694666
1611,0.03448893
1612,0.014685302
1613,-0.06423974
1614,0.02564126
1615,0.043756295
1616,0.004019109
1617,0.0068745343
1618,-0.012560598
1619,-0.110407814
1620,-0.036477678
1621,-0.013704398
1622,0.04662493
1623,0.028539276
1624,0.043867394
1625,-0.009068975
1626,0.0076991846
1627,-0.11152708
1628,0.024063768
1629,-0.033490546
1630,0.03739514
1631,-0.023149395
1632,0.014093795
1633,0.005226965
1634,0.059201613
1635,0.064265005
1636,0.050904088
1637,-0.032810297
1638,0.05773141
1639,-0.021943022
1640,0.0057520145
1641,-0.09968339
1642,0.0035905812
1643,0.041936878
1644,0.052250586
1645,-0.093570225
1646,-0.004307608
1647,-0.0059723514
1648,0.012391182
1649,-0.024173373
1650,0.049352355
1651,-0.04620469
1652,-0.048559442
1653,0.0052164965
1654,-0.02006927
1655,0.018205525
1656,0.07923495
1657,-0.05864044
1658,0.0129558155
1659,0.04486668
1660,0.041888505
1661,0.02043381
1662,0.019687066
1663,-0.025258025
1664,-0.07382324
1665,-0.032164376
1666,0.020922722
1667,-0.07396014
1668,-0.10630948
1669,-0.1434305
1670,-0.0015586498
1671,-0.014372464
1672,-0.110386185
1673,-0.047415096
1674,0.008289179
1675,-0.013595252
1676,-0.18977447
1677,0.017763
1678,-0.13559797
1679,-0.1205587
1680,-0.003231121
1681,-0.13416383
1682,-0.015900983
1683,0.07844616
1684,-0.004804091
1685,-0.03357033
1686,-0.10227819
1687,-0.0897379
1688,0.017394671
1689,-0.006315686
1690,-0.029864507
1691,-0.029498307
1692,-0.04294218
1693,-0.018839583
1694,-0.08870498
1695,-0.054793265
1696,0.009539752
1697,-0.032313775
1698,0.008202049
1699,0.00782361
1700,-0.19694054
1701,-0.07309679
1702,0.039729215
1703,0.04019949
1704,-0.16193679
1705,-0.11239181
1706,-0.03390701
1707,0.0062825084
1708,-0.046031337
1709,-0.03687459
1710,-0.013811615
1711,0.021137536
1712,-0.072326474
1713,-0.09095599
1714,0.009879861
1715,-0.005993926
1716,0.038232468
1717,-0.013234188
1718,-0.055260558
1719,0.03481617
1720,0.01992516
1721,-0.0099010905
1722,0.0027598052
1723,-0.049535293
1724,0.014939768
1725,-0.022262689
1726,-0.0145145
1727,-0.094827786
1728,-0.099361256
1729,-0.041371595
1730,-0.022808988
1731,-0.004466902
1732,-0.027882505
1733,-0.044942394
1734,-0.04683232
1735,0.011486722
1736,-0.03462716
1737,0.030835487
1738,-0.06575898
1739,-0.01427602
1740,-0.03141785
1741,-0.0648306
1742,-0.053765904
1743,0.039250474
1744,-0.04032002
1745,-0.050811958
1746,0.01645605
1747,0.07591365
1748,-0.08127954
1749,-0.00899569
1750,-0.069609754
1751,-0.025204994
1752,-0.048240516
1753,-0.041986268
1754,-0.06041505
1755,-0.052164778
1756,0.020961834
1757,-0.019057207
1758,0.020403773
1759,-0.085506566
1760,-0.04940481
1761,-0.024083912
1762,-0.021150198
1763,-0.03339238
1764,-0.010346789
1765,-0.04689261
1766,-0.04480304
1767,-0.02974804
1768,-0.03290547
1769,0.08405228
1770,0.008690047
1771,0.0005899921
1772,0.011416536
1773,0.12208502
1774,-0.0082264505
1775,-0.017973786
1776,-0.005861476
1777,-0.016270699
1778,-0.041550457
1779,0.07255414
1780,-0.09076131
1781,-0.012359642
1782,-0.04723264
1783,0.021114323
1784,0.03196352
1785,-0.0787494
1786,0.019693429
1787,-0.08236362
1788,-0.041796774
1789,-0.0004092747
1790,-0.0105281845
1791,-0.03286265
1792,0.012330149
1793,0.070946455
1794,0.03327784
1795,0.08513935
1796,0.04989433
1797,-0.12163648
1798,0.03336837
1799,-0.0955743
1800,0.008750767
1801,0.105026014
1802,0.0005339798
1803,0.008705729
1804,0.020039719
1805,-0.0042005163
1806,0.058767416
1807,0.06828905
1808,0.04552086
1809,0.012752238
1810,0.013643004
1811,-0.09494241
1812,-0.0043381914
1813,-0.08777127
1814,-0.15800057
1815,0.07533792
1816,0.0069714114
1817,0.030029569
1818,-0.088985465
1819,0.078295775
1820,0.05857133
1821,-0.07847466
1822,0.056829095
1823,-0.042569794
1824,-0.013620082
1825,0.014936329
1826,-0.08906343
1827,-0.017343167
1828,0.04706589
1829,0.0730482
1830,-0.014536083
1831,0.0002683091
1832,0.008516586
1833,0.016389802
1834,0.03856969
1835,-0.030878557
1836,0.05646791
1837,0.0455046
1838,0.048129026
1839,0.015988568
1840,0.057281744
1841,0.05969017
1842,0.017846983
1843,0.044840083
1844,0.002551002
1845,0.08907105
1846,-0.109845445
1847,0.025888167
1848,0.02477259
1849,-0.08906618
1850,0.005791103
1851,0.07876585
1852,-0.0028981073
1853,0.028588183
1854,0.02780981
1855,0.06536644
1856,-0.04376994
1857,0.030094204
1858,0.0018445414
1859,-0.017324869
1860,-0.12918337
1861,0.010389516
1862,0.0574282
1863,-0.06497319
1864,0.0006364374
1865,0.015845064
1866,0.029467396
1867,-0.01680304
1868,0.10749744
1869,0.08367571
1870,0.07022115
1871,0.025539706
1872,0.08343262
1873,0.06426162
1874,0.010978218
1875,-0.16195287
1876,0.04486962
1877,0.033067364
1878,0.021825304
1879,-0.014475386
1880,0.044218913
1881,-0.049370065
1882,0.07127105
1883,-0.04694156
1884,-0.03900103
1885,0.020001503
1886,-0.011085861
1887,-0.09740471
1888,-0.018328838
1889,-0.12843855
1890,0.03901906
1891,0.03461493
1892,-0.0013874654
1893,-0.063280106
1894,0.07957207
1895,0.0007743747
1896,0.089934476
1897,-0.12687352
1898,-0.008810138
1899,-0.015268922
1900,0.0064851427
1901,-0.026418576
1902,0.0006755928
1903,-0.022153743
1904,0.0673912
1905,-0.012977558
1906,0.043262165
1907,-0.049911227
1908,-0.02506074
1909,-0.012436352
1910,-0.010376313
1911,-0.010694928
1912,0.044545017
1913,-0.015100397
1914,-0.021941837
1915,0.050928503
1916,0.06418223
1917,-0.0272053
1918,-0.015666494
1919,0.023344599
1920,-0.05260842
1921,0.086000755
1922,0.049398612
1923,0.06731531
1924,0.10218921
1925,-0.08221169
1926,0.037411634
1927,-0.020794855
1928,0.034024306
1929,0.08238318
1930,-0.047097445
1931,-0.025630591
1932,0.08674388
1933,-0.007891714
1934,0.06183471
1935,0.10427846
1936,0.07877565
1937,0.007141911
1938,-0.013558814
1939,-0.08874335
1940,-0.029972054
1941,-0.047020145
1942,-0.13591735
1943,0.0609579
1944,-0.028343212
1945,0.016160013
1946,-0.07765023
1947,0.085432075
1948,0.07369633
1949,0.017294116
1950,0.07035914
1951,-0.19472311
1952,-0.007292764
1953,0.0444901
1954,-0.043587446
1955,-0.0012960298
1956,0.07931193
1957,0.058413036
1958,-0.07797353
1959,-0.044861276
1960,-0.1675293
1961,0.101779185
1962,0.09459758
1963,-0.118146494
1964,0.0621087
1965,0.094618894
1966,0.060660966
1967,-0.014868727
1968,0.07824031
1969,0.10722938
1970,0.021412998
1971,-0.14450108
1972,0.011332406
1973,0.09450348
1974,-0.04292181
1975,-0.047141273
1976,0.039877873
1977,-0.036527347
1978,-0.03835603
1979,0.10798998
1980,-0.040826574
1981,0.016191406
1982,0.13596143
1983,0.09442706
1984,-0.020251585
1985,0.114097975
1986,0.05463362
1987,0.011551075
1988,-0.04225326
1989,0.072378375
1990,0.018283023
1991,-0.083414406
1992,0.08283582
1993,0.002270267
1994,-0.0044213743
1995,-0.015266547
1996,0.04649889
1997,0.058921166
1998,0.059748095
1999,-0.026202919
2000,0.078909196
2001,0.04256077
2002,-0.0034124425
2003,-0.19052781
2004,0.10798551
2005,-0.013932751
2006,0.019673984
2007,0.06079846
2008,0.0027014436
2009,0.109310664
2010,0.101158865
2011,-0.0750885
2012,0.09842415
2013,0.10719241
2014,-0.040430803
2015,-0.13223743
2016,0.08470908
2017,-0.11246116
2018,0.09924467
2019,-0.0027538321
2020,-0.035378914
2021,-0.19149196
2022,0.07842091
2023,0.023889288
2024,0.07293499
2025,-0.14874884
2026,-0.054347042
2027,-0.075831056
2028,-0.0071401717
2029,-0.09546443
2030,0.00014119757
2031,-0.054170605
2032,0.096870616
2033,-0.044575386
2034,0.065769486
2035,-0.05144427
2036,-0.045200076
2037,0.018475391
2038,-0.027178233
2039,-0.15441006
2040,0.06418022
2041,-0.0100126015
2042,-0.13364919
2043,0.11078466
2044,0.08026958
2045,-0.01712268
2046,0.03369616
2047,0.090641715
2048,-0.023243528
2049,0.03007243
2050,0.072176024
2051,0.054634582
2052,0.0059939176
2053,0.021803062
2054,0.024619957
2055,-0.057873804
2056,-0.07077015
2057,-0.036359403
2058,-0.0840191
2059,-0.10485367
2060,-0.114081256
2061,-0.066089794
2062,-0.10731317
2063,0.10462853
2064,-0.0791219
2065,-0.04292729
2066,0.079245225
2067,-0.065922454
2068,-0.07374317
2069,-0.020730918
2070,-0.03616031
2071,0.090659745
2072,-0.0059211412
2073,-0.09797207
2074,-0.0569482
2075,-0.0035000697
2076,0.043424252
2077,-0.06589432
2078,0.034884404
2079,0.14312564
2080,-0.0779825
2081,0.0016502247
2082,0.0005515512
2083,0.0048524267
2084,-0.016040388
2085,0.05032366
2086,-0.053686343
2087,-0.08877264
2088,-0.1922776
2089,0.05752173
2090,0.01922605
2091,0.016093908
2092,0.04326833
2093,-0.042057578
2094,0.019274043
2095,-0.0056771967
2096,0.083709285
2097,0.10414667
2098,0.016546968
2099,-0.12681617
2100,-0.021034045
2101,0.047396794
2102,0.041430503
2103,0.02676938
2104,0.017668791
2105,-0.019151123
2106,-0.017349696
2107,0.05629602
2108,-0.07956756
2109,-0.034820665
2110,-0.019166993
2111,0.07111756
2112,-0.022649683
2113,-0.00959551
2114,-0.038493037
2115,0.00927515
2116,-0.055998437
2117,0.015597188
2118,0.030815301
2119,0.066765696
2120,-0.05209785
2121,-0.079417065
2122,-0.13595045
2123,-0.079447575
2124,-0.05278028
2125,0.038976647
2126,-0.14216357
2127,0.043775164
2128,0.043132618
2129,0.078637876
2130,0.006764231
2131,0.056310926
2132,0.08392968
2133,-0.1416658
2134,-0.09004738
2135,-0.1903924
2136,-0.01814331
2137,-0.046255495
2138,0.07195279
2139,0.04256449
2140,-0.049052674
2141,-0.006545254
2142,-0.085781194
2143,0.018535307
2144,-0.027484544
2145,-0.028088903
2146,0.048211303
2147,-0.057184044
2148,-0.08295545
2149,-0.04627047
2150,-0.010113755
2151,0.054974385
2152,0.106787704
2153,0.01552277
2154,-0.15151067
2155,-0.10557625
2156,0.0073836246
2157,-0.038347833
2158,-0.0021409497
2159,-0.07327228
2160,0.008933234
2161,-0.019918237
2162,0.0018659496
2163,-0.022693487
2164,0.065057375
2165,-0.032978255
2166,-0.05880258
2167,-0.06911708
2168,-0.14189115
2169,-0.063946195
2170,-0.054063514
2171,-0.023614155
2172,-0.025520202
2173,-0.03763817
2174,-0.0076280725
2175,0.06880706
2176,0.06518006
2177,-0.040218145
2178,-0.06568287
2179,0.06201035
2180,-0.004509287
2181,0.01871652
2182,0.021303728
2183,0.058569986
2184,0.02427174
2185,0.004012451
2186,0.022367489
2187,0.050296184
2188,0.0893101
2189,0.0052795107
2190,-0.007221842
2191,0.0063603558
2192,-0.04218042
2193,0.00014980072
2194,0.021309221
2195,0.010322392
2196,-0.019857204
2197,0.040492844
2198,-0.0074500246
2199,-0.0050457837
2200,0.002182165
2201,0.011196649
2202,0.056473363
2203,0.022956397
2204,0.05912828
2205,0.0938732
2206,0.037510905
2207,0.023917412
2208,0.034417134
2209,0.037962485
2210,0.039033916
2211,-0.0061667264
2212,-0.031163953
2213,0.0050491095
2214,0.056659225
2215,0.015027312
2216,0.020161923
2217,0.07928809
2218,-0.01259026
2219,0.06584692
2220,-0.022536509
2221,0.007691907
2222,-0.0017937773
2223,0.018009169
2224,0.036018997
2225,0.026923224
2226,0.06692769
2227,0.012779264
2228,0.04517627
2229,0.006626091
2230,0.005915501
2231,-0.0060935454
2232,0.056093495
2233,0.044355754
2234,0.030198313
2235,0.0014728062
2236,0.0044878135
2237,-0.05393671
2238,0.006093596
2239,0.038327437
2240,-0.030846661
2241,0.016550297
2242,-0.0075836107
2243,0.024203476
2244,0.03650796
2245,0.060007192
2246,-0.0056796633
2247,0.071394034
2248,0.056638412
2249,0.00065412617
2250,0.031196542
2251,0.035540275
2252,0.030537175
2253,-0.019045817
2254,-0.003955311
2255,-0.016307143
2256,0.04848354
2257,0.00887054
2258,0.0021411255
2259,0.029205276
2260,0.008275902
2261,0.023283092
2262,-0.017316297
2263,0.052567095
2264,-0.022930086
2265,-0.014362661
2266,-0.014752042
2267,-0.01243009
2268,-0.01605385
2269,-0.0069013624
2270,-0.0055278423
2271,0.025847372
2272,0.03239323
2273,0.047971822
2274,-0.01766669
2275,-0.0009596829
2276,-0.0012208737
2277,0.047055017
2278,0.038006444
2279,0.056153957
2280,-0.019694585
2281,-0.020458706
2282,-0.0015815054
2283,0.019958768
2284,-0.011016482
2285,0.10658834
2286,-0.00433598
2287,0.0037927644
2288,-0.040965214
2289,-0.029745884
2290,-0.008458186
2291,0.050013553
2292,0.06836765
2293,0.0111861415
2294,-0.027673196
2295,0.012796189
2296,-0.00613357
2297,-0.0013759658
2298,0.022789473
2299,-0.030985069
2300,-0.024181243
2301,-0.022480596
2302,-0.011073469
2303,-0.043955628
2304,-0.13226354
2305,-0.040801566
2306,0.05010658
2307,-0.12414953
2308,-0.0035151883
2309,0.08609988
2310,-0.0012122215
2311,-0.023320802
2312,-0.037259188
2313,-0.000642712
2314,0.013237665
2315,0.00047905807
2316,-0.20014887
2317,0.040569145
2318,-0.0013424408
2319,-0.11222715
2320,0.012021069
2321,-0.010062969
2322,0.07210371
2323,0.11515479
2324,0.05687448
2325,0.092387095
2326,0.13884494
2327,-0.05357381
2328,-0.0010970914
2329,-0.015515239
2330,-0.10573979
2331,-0.0374311
2332,-0.031793114
2333,-0.018934216
2334,-0.0065634707
2335,-0.028993249
2336,0.02058763
2337,-0.07973213
2338,0.08368705
2339,-0.023174586
2340,-0.01917585
2341,-0.07192001
2342,-0.059057295
2343,0.030407432
2344,-0.25615352
2345,-0.018295798
2346,-0.020428957
2347,0.12743841
2348,-0.03515766
2349,-0.02851285
2350,-0.034224786
2351,-0.00056571275
2352,-0.07623958
2353,-0.16894381
2354,0.057968784
2355,0.06072532
2356,-0.007801556
2357,-0.053256176
2358,-0.07752216
2359,-0.037908144
2360,0.021354396
2361,0.07904926
2362,0.02613166
2363,-0.09804849
2364,0.015387756
2365,0.007734432
2366,-0.00248071
2367,-0.08249642
2368,-0.02191309
2369,-0.12754887
2370,-0.06858233
2371,0.04489721
2372,-0.00817906
2373,-0.15333723
2374,-0.06269516
2375,0.14943375
2376,0.0088598905
2377,-0.002661094
2378,-0.027793823
2379,0.03393626
2380,-0.01843832
2381,-0.025026623
2382,0.006403051
2383,0.018195717
2384,-0.041898437
2385,-0.018338552
2386,0.0005574895
2387,0.07766772
2388,-0.17481644
2389,-0.10642551
2390,0.031990647
2391,-0.12531729
2392,-0.040059004
2393,0.03455357
2394,-0.15428613
2395,-0.025634635
2396,0.004695794
2397,-0.01810893
2398,0.014947576
2399,-0.08086332
2400,0.03468448
2401,0.08098591
2402,0.019048642
2403,0.041816607
2404,0.030160265
2405,0.007344931
2406,-0.07731528
2407,-0.036215305
2408,-0.039582595
2409,-0.0039204354
2410,-0.016990537
2411,0.030428044
2412,0.009567692
2413,0.1052194
2414,0.008524739
2415,0.05862858
2416,0.004338693
2417,0.03640275
2418,-0.009521372
2419,-0.0416822
2420,-0.039121594
2421,0.02861139
2422,0.027374448
2423,0.021837907
2424,-0.07001033
2425,-0.04714912
2426,0.029923528
2427,-0.012626762
2428,-0.0256383
2429,0.048440646
2430,0.0076580904
2431,-0.021648448
2432,0.14604746
2433,0.07200806
2434,0.04513785
2435,-0.13299717
2436,-0.0150276935
2437,-0.0092772255
2438,-0.00958047
2439,-0.07663703
2440,-0.098852515
2441,0.024973195
2442,-0.06805124
2443,-0.041309454
2444,0.055279516
2445,-0.055693362
2446,-0.26837888
2447,0.022262862
2448,-0.05426319
2449,-0.20509578
2450,0.06819571
2451,0.015396803
2452,-0.028458975
2453,-0.057568796
2454,-0.091482095
2455,0.034621783
2456,-0.036571857
2457,-0.009611958
2458,-0.09359803
2459,-0.015648535
2460,0.048793245
2461,-0.0128874285
2462,-0.15082023
2463,-0.034860056
2464,-0.045991734
2465,0.07203467
2466,-0.04800261
2467,0.0047209
2468,-0.13231708
2469,-0.08003129
2470,0.039910562
2471,-0.07544088
2472,-0.019717768
2473,0.12658992
2474,0.06245184
2475,0.019217035
2476,0.075957045
2477,0.04733053
2478,0.07679532
2479,-0.033205856
2480,0.052696742
2481,-0.14484662
2482,0.037886836
2483,-0.212441
2484,-0.032079745
2485,0.068099745
2486,0.16224948
2487,0.004708734
2488,0.029463502
2489,-0.053009816
2490,-0.2610437
2491,0.088466264
2492,-0.08229812
2493,-0.010741473
2494,-0.015000478
2495,0.07011468
2496,-0.18853739
2497,0.071640074
2498,0.07657583
2499,-0.04079856
2500,0.06078426
2501,0.025897237
2502,0.053951792
2503,0.1015357
2504,0.08000851
2505,-0.051927585
2506,0.014344361
2507,-0.022644904
2508,-0.026916757
2509,-0.10941459
2510,-0.20671718
2511,0.041015763
2512,0.09280186
2513,0.04859082
2514,0.010486619
2515,0.041751463
2516,0.026144722
2517,-0.051323183
2518,-0.048877962
2519,0.09786729
2520,-0.07749484
2521,0.034667224
2522,0.076232806
2523,-0.01513909
2524,0.11814512
2525,-0.01412587
2526,-0.019400712
2527,0.056234423
2528,0.1040232
2529,-0.029321749
2530,0.016765853
2531,-0.060829647
2532,-0.021188414
2533,-0.20562246
2534,-0.045463648
2535,0.06494962
2536,0.039276134
2537,-0.06816952
2538,-0.14314692
2539,-0.06561103
2540,0.005027792
2541,0.05910027
2542,-0.00041417804
2543,-0.051503282
2544,-0.030943459
2545,-0.042971168
2546,-0.014083703
2547,-0.028496852
2548,-0.1639496
2549,-0.030369854
2550,-0.06461741
2551,-0.22781359
2552,-0.08325921
2553,-0.10758834
2554,-0.2092943
2555,-0.069874875
2556,-0.099181354
2557,-0.08874052
2558,-0.025785768
2559,-0.030774362
2560,0.06373017
2561,0.03558954
2562,-0.01155937
2563,0.13435791
2564,-0.031632107
2565,-0.050128967
2566,-0.028867338
2567,-0.08437844
2568,-0.09305408
2569,0.0144581515
2570,-0.093035035
2571,-0.101987034
2572,-0.0055729956
2573,-0.10553671
2574,-0.24408947
2575,0.14608702
2576,-0.14944597
2577,-0.05351044
2578,0.061526753
2579,-0.042044554
2580,-0.092908084
2581,-0.08754322
2582,-0.027436908
2583,0.09011399
2584,-0.015445099
2585,-0.1543901
2586,0.016571263
2587,0.0051136804
2588,-0.044014193
2589,-0.014463519
2590,0.031204546
2591,0.14251836
2592,-0.10309582
2593,0.062617384
2594,-0.07745741
2595,0.007661449
2596,-0.06829669
2597,0.080346785
2598,0.028806591
2599,-0.11791498
2600,-0.0980194
2601,0.10476424
2602,-0.0043280544
2603,0.030211968
2604,0.08367694
2605,-0.048897106
2606,0.043829925
2607,-0.008813649
2608,0.07385605
2609,0.18576522
2610,-0.030252293
2611,-0.12579682
2612,0.009225236
2613,-0.0072749946
2614,0.1157661
2615,-0.06792418
2616,-0.058461405
2617,-0.062593445
2618,-0.02406509
2619,0.08035134
2620,-0.09180054
2621,-0.015412148
2622,-0.018569406
2623,0.07297227
2624,-0.050599273
2625,0.055676702
2626,0.009994586
2627,0.02923401
2628,-0.0070392424
2629,0.11936862
2630,0.0921886
2631,0.10831171
2632,-0.07402762
2633,-0.08805603
2634,-0.2498671
2635,-0.10946117
2636,-0.09477554
2637,0.037011076
2638,-0.1829721
2639,-0.050292317
2640,0.061392803
2641,0.12691677
2642,0.011537178
2643,0.009750553
2644,0.1363381
2645,-0.21191731
2646,-0.05541288
2647,-0.23242176
2648,0.008282301
2649,-0.061226364
2650,0.14271848
2651,-0.006149394
2652,-0.004549974
2653,-0.013373044
2654,-0.10862475
2655,0.075850226
2656,-0.08724926
2657,-0.0990713
2658,0.028916905
2659,-0.08896354
2660,-0.08059012
2661,0.001932887
2662,-0.019673128
2663,0.024517918
2664,0.10462898
2665,0.048350606
2666,-0.24263336
2667,-0.09952415
2668,-0.005363162
2669,-0.054757454
2670,0.005379949
2671,-0.09299662
2672,-0.025684204
2673,-0.028365336
2674,-0.017696597
2675,-0.07862704
2676,0.066014834
2677,-0.07121839
2678,-0.050203256
2679,-0.08966415
2680,-0.21126758
2681,-0.05814531
2682,-0.06994547
2683,-0.042635214
2684,-0.03703221
2685,0.024039615
2686,-0.011290914
2687,0.0048395395
2688,0.011922818
2689,0.040012807
2690,-0.0036609627
2691,0.06498743
2692,0.009842498
2693,-0.069258615
2694,0.021061407
2695,-0.03958071
2696,-0.044549476
2697,-0.0653905
2698,-0.0046467367
2699,-0.015811143
2700,-0.024237016
2701,-0.022778604
2702,0.02119766
2703,0.06520515
2704,0.0039732317
2705,-0.023767434
2706,0.058059458
2707,0.061577953
2708,-0.04531128
2709,-0.014430866
2710,0.028778968
2711,0.10510699
2712,0.010636372
2713,-0.09724584
2714,-0.04720833
2715,-0.009802407
2716,0.06253269
2717,-0.04436423
2718,0.0058246558
2719,0.06400261
2720,0.0013991662
2721,0.0050967094
2722,-0.038692214
2723,-0.01642147
2724,-0.044638224
2725,0.034957882
2726,-0.048767917
2727,-0.052110802
2728,-0.01313633
2729,0.051899645
2730,0.028031578
2731,0.009019156
2732,0.029521467
2733,-0.017889483
2734,0.01455906
2735,-0.029043958
2736,0.06870724
2737,0.052070938
2738,0.027162584
2739,-0.060794905
2740,-0.029708069
2741,0.03926361
2742,0.067451514
2743,-0.0849911
2744,0.02838107
2745,-0.03805378
2746,0.012025303
2747,0.04874687
2748,-0.042547967
2749,-0.019434916
2750,-0.056285404
2751,0.08516651
2752,0.0012945737
2753,0.02870816
2754,-0.014821598
2755,0.033168267
2756,-0.018352365
2757,0.0357794
2758,0.07970581
2759,0.019505532
2760,-0.10574942
2761,-0.051117424
2762,-0.026976142
2763,-0.06699535
2764,0.028519912
2765,0.084704876
2766,0.026957188
2767,-0.012760846
2768,0.04557509
2769,0.0946478
2770,-0.02986427
2771,-0.02785885
2772,0.1241844
2773,-0.024504071
2774,-0.0327467
2775,-0.20621854
2776,-0.041183278
2777,-0.05411304
2778,0.005931076
2779,-0.010905018
2780,-0.030091017
2781,-0.027844626
2782,-0.032305744
2783,0.035696313
2784,-0.043393422
2785,-0.05763985
2786,-0.007947886
2787,-0.050996836
2788,-0.04944806
2789,-0.01975767
2790,0.011095282
2791,0.030885959
2792,0.07225683
2793,0.023971856
2794,0.05673653
2795,-0.057118457
2796,-0.018125251
2797,-0.07121986
2798,-0.011021496
2799,-0.051875673
2800,0.057472866
2801,-0.030787768
2802,-0.011393089
2803,-0.049942836
2804,0.10435695
2805,-0.011298086
2806,-0.09261135
2807,-0.016928082
2808,0.03595865
2809,0.017666472
2810,0.02060822
2811,0.0016881522
2812,0.0072726808
2813,0.030793728
2814,-0.01909325
2815,-0.01533614
2816,0.069646515
2817,0.0083482005
2818,0.0018341898
2819,-0.025707468
2820,-0.041949842
2821,-0.009757909
2822,0.030061517
2823,0.062420473
2824,-0.012563451
2825,-0.021960303
2826,-0.07981746
2827,-0.059909113
2828,-0.0149094565
2829,-0.07478309
2830,-0.08758687
2831,-0.069516964
2832,-0.0020152682
2833,-0.04785219
2834,0.03280655
2835,-0.049338106
2836,-0.068778306
2837,0.0137617765
2838,-0.007997253
2839,0.024315778
2840,0.000777086
2841,0.042281047
2842,0.02332406
2843,0.0054855742
2844,0.025984235
2845,0.011490331
2846,0.014950501
2847,0.035924986
2848,-0.08823605
2849,0.07694376
2850,0.020718219
2851,0.015520497
2852,-0.030119173
2853,-0.07775233
2854,0.02653611
2855,-0.017477416
2856,-0.04140103
2857,-0.022671128
2858,-0.0026991046
2859,-0.0044343425
2860,-0.03889792
2861,0.02606447
2862,-0.0041439515
2863,0.027239855
2864,0.03811439
2865,-0.0012074463
2866,0.075808086
2867,-0.011146153
2868,0.031074248
2869,-0.009866437
2870,0.04009611
2871,-0.15230969
2872,0.051768534
2873,0.01679192
2874,0.0049518305
2875,-0.012483289
2876,-0.0050078533
2877,0.030273458
2878,-0.037030283
2879,-0.014431265
2880,-0.13841675
2881,-0.036714274
2882,-0.0053875367
2883,0.008215007
2884,-0.0049912613
2885,-0.019180391
2886,0.0012881575
2887,0.026325872
2888,0.10048146
2889,-0.033912025
2890,0.023987757
2891,-0.0024077913
2892,0.02819284
2893,-0.09549991
2894,-0.1040351
2895,-0.018543482
2896,0.012715998
2897,0.053693846
2898,0.0048986604
2899,-0.02782907
2900,-0.067340955
2901,-0.067401595
2902,-0.0073372778
2903,0.033279072
2904,-0.06200037
2905,-0.035735015
2906,-0.026521338
2907,0.017637663
2908,-0.033569094
2909,-0.047092844
2910,-0.044263676
2911,0.075608656
2912,-0.047923066
2913,0.0131758945
2914,0.0056278366
2915,-0.07559377
2916,-0.046126112
2917,-0.025209703
2918,0.059788324
2919,-0.0016089132
2920,0.008691065
2921,0.0016881604
2922,-0.03841592
2923,-0.063200496
2924,-0.0007619047
2925,-0.055251017
2926,0.016403398
2927,-0.057044525
2928,0.026983833
2929,-0.02874578
2930,-0.01304693
2931,0.0056619653
2932,-0.021423103
2933,0.0073145675
2934,-0.016187752
2935,-0.029554917
2936,-0.05187828
2937,-0.10142504
2938,-0.030419657
2939,-0.019456463
2940,0.007930115
2941,-0.06179497
2942,-0.017288372
2943,-0.057814676
2944,-0.111865245
2945,-0.045502156
2946,0.0015812555
2947,-0.067165956
2948,-0.12135141
2949,-0.11947643
2950,0.0123581495
2951,0.015529215
2952,-0.104651675
2953,-0.085210554
2954,0.011620908
2955,0.015124542
2956,-0.07242301
2957,-0.0071884785
2958,0.018658869
2959,-0.122734204
2960,-0.028962981
2961,-0.045903157
2962,0.008830801
2963,0.10039883
2964,-0.037322395
2965,-0.050583415
2966,-0.06803829
2967,-0.04972984
2968,0.015900403
2969,0.042389322
2970,-0.10558259
2971,-0.05234281
2972,-0.0161759
2973,-0.06319254
2974,-0.09234688
2975,-0.14384624
2976,0.015978433
2977,-0.10550643
2978,0.006002426
2979,0.009917907
2980,-0.18964544
2981,-0.06415108
2982,-0.037673596
2983,0.0052595353
2984,-0.14167134
2985,-0.12151615
2986,-0.040236313
2987,0.030865252
2988,-0.05199039
2989,-0.07309359
2990,-0.036468577
2991,0.007882802
2992,-0.04240408
2993,-0.05884404
2994,0.028830944
2995,0.020848816
2996,0.019635504
2997,-0.01803756
2998,-0.0443354
2999,-0.005383236
3000,0.027123641
3001,-0.006467992
3002,-0.02320645
3003,-0.10216594
3004,-0.0043362733
3005,0.01933701
3006,-0.034017276
3007,-0.08253016
3008,-0.034410708
3009,-0.14476551
3010,-0.08203757
3011,0.005809785
3012,0.01882152
3013,-0.105746984
3014,-0.039978128
3015,0.02338302
3016,-0.009128747
3017,0.011783808
3018,0.00069614325
3019,-0.013954039
3020,-0.050863817
3021,0.0059711505
3022,-0.028618969
3023,0.027974244
3024,-0.0610846
3025,-0.05147836
3026,-0.01556724
3027,0.08663709
3028,-0.09396387
3029,-0.03833466
3030,0.027122442
3031,-0.014172275
3032,-0.10423653
3033,-0.03764629
3034,-0.08443234
3035,-0.12584652
3036,-0.058556315
3037,-0.025047788
3038,-0.015022783
3039,0.017300116
3040,-0.019326242
3041,-0.03700169
3042,-0.009012507
3043,-0.02212913
3044,-0.013016502
3045,-0.03487048
3046,-0.0431389
3047,-0.05947278
3048,-0.038268764
3049,0.043011688
3050,-0.0054912204
3051,0.0013488583
3052,0.032636855
3053,0.09881382
3054,0.0116746165
3055,-0.0025261277
3056,-0.022786021
3057,-0.045720786
3058,-0.034490198
3059,0.072018914
3060,-0.009269337
3061,-0.0067508803
3062,-0.027515473
3063,0.002013319
3064,-0.054926287
3065,-0.03727177
3066,0.017764287
3067,-0.08164685
3068,-0.035405375
3069,-0.007882848
3070,0.025211504
3071,-0.042512357
3072,-0.008184288
3073,-0.08338144
3074,-0.016359828
3075,-0.084832616
3076,-0.07941292
3077,0.038813252
3078,0.03494298
3079,0.0813035
3080,-0.005470681
3081,-0.07128973
3082,0.02403848
3083,0.04853994
3084,-0.08911581
3085,0.00903487
3086,-0.03551758
3087,-0.059289414
3088,-0.20326097
3089,-0.011793938
3090,0.0052282037
3091,0.14987037
3092,-0.0028410458
3093,0.09878582
3094,0.018370824
3095,-0.06097847
3096,0.0048191724
3097,0.08067784
3098,0.0106395725
3099,-0.06332775
3100,-0.029663155
3101,0.036080603
3102,0.02228052
3103,-0.01274504
3104,0.050467793
3105,-0.029885955
3106,0.15907276
3107,-0.004128222
3108,-0.051286064
3109,-0.09909073
3110,0.12682442
3111,0.013186008
3112,0.021519076
3113,-0.055017054
3114,-0.04891302
3115,0.18845028
3116,-0.06789235
3117,-0.02953662
3118,-0.11782218
3119,-0.0052392925
3120,-0.058861725
3121,-0.098992154
3122,0.06739771
3123,0.018928155
3124,0.07933283
3125,-0.041672494
3126,6.209163e-05
3127,0.032984134
3128,0.06904736
3129,0.07752164
3130,0.06467945
3131,-0.042484876
3132,0.006488366
3133,0.04913358
3134,-0.065858975
3135,-0.08761696
3136,-0.039626665
3137,-0.022652118
3138,-0.05958204
3139,0.012245041
3140,-0.017459895
3141,-0.07058504
3142,-0.057490498
3143,0.18358727
3144,-0.032809574
3145,0.0105263945
3146,0.034230415
3147,0.03178634
3148,-0.08209717
3149,0.010702798
3150,-0.06036804
3151,0.022663916
3152,-0.07383909
3153,-0.079380505
3154,-0.018374128
3155,0.13006188
3156,-0.03387739
3157,-0.02986338
3158,0.056097295
3159,0.033370234
3160,-0.06510853
3161,0.0045136544
3162,-0.06519072
3163,-0.06285003
3164,-0.09337401
3165,-0.022941602
3166,-0.026665907
3167,0.0050113336
3168,-0.029065482
3169,0.05960825
3170,-0.098503225
3171,-0.032014944
3172,-0.0054092663
3173,0.033380184
3174,0.0016978681
3175,0.0034463669
3176,-0.084372714
3177,0.18324606
3178,-0.023783255
3179,-0.0016777627
3180,-0.007474292
3181,0.31153592
3182,0.010433274
3183,-0.005510654
3184,-0.08297022
3185,-0.05446528
3186,-0.06592986
3187,0.13640328
3188,0.00846774
3189,0.009871145
3190,-0.050692305
3191,0.041720666
3192,-0.17378128
3193,-0.037815608
3194,0.03520285
3195,-0.05813439
3196,-0.06859134
3197,0.014779608
3198,0.0027165876
3199,-0.10579414
3200,0.03885877
3201,-0.07013681
3202,0.07800606
3203,0.026999382
3204,0.028543547
3205,0.03252267
3206,0.054318246
3207,0.030972624
3208,-0.07853464
3209,-0.10793938
3210,-0.037125904
3211,-0.017715473
3212,-0.036886092
3213,-0.045857776
3214,-0.09761423
3215,-0.0091778375
3216,-0.00803877
3217,-0.05878425
3218,-0.011773823
3219,0.15964948
3220,-0.035121914
3221,0.07961097
3222,0.120802306
3223,-0.078322776
3224,-0.011382863
3225,0.08343361
3226,0.057075154
3227,-0.056046754
3228,-0.12484768
3229,0.047007643
3230,0.04908594
3231,0.16263643
3232,-0.028488576
3233,0.05882843
3234,0.074913144
3235,0.008953752
3236,-0.08115278
3237,0.01225082
3238,0.037476987
3239,-0.058910035
3240,-0.2563303
3241,-0.065885924
3242,-0.201501
3243,0.15569712
3244,-0.098930046
3245,0.007685182
3246,-0.08164559
3247,-0.029284174
3248,-0.09775469
3249,-0.0043480336
3250,0.07100803
3251,-0.045789305
3252,0.049309544
3253,-0.24830781
3254,0.0517394
3255,0.0055110613
3256,0.053231332
3257,0.09068079
3258,0.015712904
3259,-0.052627962
3260,-0.051454816
3261,-0.005528958
3262,0.007918774
3263,-0.104988754
3264,-0.05488418
3265,-0.012830859
3266,-0.087809816
3267,0.016743105
3268,0.067209646
3269,-0.061457112
3270,-0.027670017
3271,0.14802024
3272,0.027784256
3273,-0.00024559692
3274,-0.018623443
3275,0.0013713187
3276,-0.037389413
3277,0.012645647
3278,-0.07426901
3279,0.06564786
3280,-0.07606219
3281,-0.08891429
3282,0.010209533
3283,0.05496405
3284,0.008790945
3285,-0.030551976
3286,-0.017274978
3287,0.014196695
3288,-0.01208596
3289,-0.009367619
3290,-0.14898753
3291,0.115637876
3292,-0.032312613
3293,0.018192677
3294,-0.060377534
3295,0.046355788
3296,-0.011644779
3297,0.09999892
3298,0.003937708
3299,-0.05823303
3300,-0.05531426
3301,0.007043707
3302,-0.0154482825
3303,-0.07780941
3304,-0.10653385
3305,-0.05791454
3306,-0.06370708
3307,-0.056182757
3308,-0.00947086
3309,0.19560264
3310,0.007297036
3311,-0.084771395
3312,-0.04094788
3313,-0.047779933
3314,0.01302138
3315,0.09616331
3316,0.015121931
3317,-0.042253274
3318,-0.08014078
3319,-0.02201371
3320,-0.009133276
3321,-0.07772703
3322,-0.045334462
3323,-0.024148347
3324,-0.02920168
3325,-0.051113293
3326,-0.012575834
3327,-0.19338682
3328,-0.09184645
3329,-0.067166544
3330,0.030710394
3331,0.08729338
3332,-0.0017223
3333,0.03106824
3334,0.012370275
3335,0.010586598
3336,-0.009670848
3337,0.042156987
3338,-0.0065129376
3339,-0.008847003
3340,-0.12875989
3341,0.009425263
3342,-0.1936001
3343,-0.0026341951
3344,-0.03348154
3345,-0.044876732
3346,-0.12383322
3347,0.08692165
3348,0.009882464
3349,0.036924955
3350,0.074007325
3351,-0.037516955
3352,-0.0077953474
3353,0.09140618
3354,-0.021146728
3355,0.014750239
3356,-0.14583252
3357,0.032229297
3358,0.029366411
3359,0.0050670453
3360,0.016319184
3361,-0.09749922
3362,0.021867365
3363,-0.0062272036
3364,-0.015227975
3365,0.01728902
3366,-0.03022468
3367,0.01612808
3368,-0.07436792
3369,-0.038637586
3370,-0.18094452
3371,0.07232671
3372,-0.090502046
3373,-0.005886454
3374,-0.06694492
3375,0.017397376
3376,-0.04225403
3377,0.11277523
3378,0.029930167
3379,-0.051348537
3380,0.044744764
3381,-0.15006745
3382,-0.025576415
3383,-0.19305749
3384,0.014831419
3385,0.033444423
3386,0.057093438
3387,-0.013035567
3388,-0.0008994177
3389,0.01035839
3390,-0.006667765
3391,-0.028032973
3392,-0.058193807
3393,-0.01756604
3394,-0.049558796
3395,0.04012522
3396,-0.023225201
3397,0.028611703
3398,-0.08153293
3399,0.0476102
3400,-0.040338825
3401,-0.007827619
3402,-0.119641185
3403,0.026514629
3404,-0.22264798
3405,-0.053082835
3406,-0.058074456
3407,-0.011581586
3408,-0.07266409
3409,-0.03906743
3410,0.010505206
3411,0.07112798
3412,0.010124475
3413,-0.117457084
3414,0.0075168503
3415,-0.0043929047
3416,-0.005291978
3417,-0.08707332
3418,-0.117295295
3419,0.018587047
3420,-0.040418398
3421,-0.010773648
3422,-0.0072733373
3423,-0.018190926
3424,-0.05622163
3425,-0.0048448723
3426,0.01843741
3427,0.011708112
3428,0.013179208
3429,0.02389167
3430,0.052795038
3431,-0.14124723
3432,-0.12737298
3433,0.07523607
3434,-0.12952326
3435,-0.0052328366
3436,-0.010339297
3437,0.14405355
3438,0.008741925
3439,0.006929971
3440,-0.07135795
3441,0.00076798495
3442,-0.0040937196
3443,0.04642804
3444,0.032285914
3445,0.003409601
3446,0.008729582
3447,-0.014733368
3448,-0.047347747
3449,-0.0829655
3450,0.007082367
3451,-0.010420134
3452,-0.0012641443
3453,0.009054734
3454,-0.006276189
3455,-0.085459426
3456,-0.010917382
3457,0.03347656
3458,0.02458743
3459,0.04840369
3460,0.03454576
3461,-0.15586787
3462,0.060677852
3463,0.010847082
3464,0.07444081
3465,0.021868445
3466,-0.04537945
3467,-0.048566166
3468,0.008652279
3469,-0.020029342
3470,0.004977892
3471,-0.020845832
3472,0.031387243
3473,-0.05284123
3474,0.02841715
3475,-0.07262151
3476,-0.0071894764
3477,-0.05555683
3478,-0.09059525
3479,-0.03263381
3480,-0.06473531
3481,0.044848908
3482,-0.10272299
3483,-0.017078135
3484,0.030683778
3485,-0.0012221681
3486,-0.03713429
3487,-0.031645685
3488,-0.0151159
3489,0.0030069125
3490,-0.09269094
3491,-0.0038851297
3492,0.0785488
3493,0.048180275
3494,-0.03245733
3495,-0.02016084
3496,-0.19070895
3497,0.024755687
3498,-0.018870104
3499,-0.07046053
3500,0.025989491
3501,0.008537981
3502,0.008583188
3503,0.0017218052
3504,0.025050089
3505,-0.00037116875
3506,0.047807276
3507,-0.14022477
3508,0.03750823
3509,0.023359383
3510,0.0020006543
3511,-0.11508839
3512,0.038981475
3513,-0.060890332
3514,-0.05034271
3515,-0.020639652
3516,-0.017389392
3517,0.0057917563
3518,0.05810573
3519,-0.040211312
3520,-0.04494488
3521,0.0026272
3522,0.0027838047
3523,0.010884868
3524,-0.05190139
3525,0.06363169
3526,0.027251275
3527,0.009207222
3528,0.036805768
3529,-0.03221838
3530,0.06846591
3531,-0.013114214
3532,-0.014196396
3533,0.035948694
3534,-0.038169146
3535,0.01574413
3536,0.027759364
3537,0.009561929
3538,0.020716917
3539,-0.07821655
3540,-0.045741603
3541,0.004990846
3542,0.01835074
3543,0.078409135
3544,0.022222089
3545,0.036634207
3546,0.010209082
3547,-0.040209632
3548,0.043916162
3549,0.06626429
3550,-0.015151475
3551,-0.02542366
3552,0.03788289
3553,-0.12036569
3554,0.04541463
3555,0.035158344
3556,0.036455967
3557,-0.15515444
3558,0.05861013
3559,-0.023575174
3560,0.0011457938
3561,-0.03430784
3562,0.0003303305
3563,-0.03601985
3564,0.01478366
3565,-0.13048957
3566,0.012686465
3567,-0.004630679
3568,0.06311779
3569,-0.02126346
3570,0.040242862
3571,-0.013480689
3572,-0.065653734
3573,0.014402873
3574,-0.03362663
3575,-0.10651822
3576,0.018881487
3577,0.030847652
3578,-0.09608439
3579,0.04370702
3580,-0.0114711365
3581,-0.025393613
3582,-0.027615279
3583,0.025197187
3584,-0.055121582
3585,-0.03295778
3586,0.013333463
3587,-0.07798993
3588,-0.08902331
3589,0.0010653877
3590,0.024546228
3591,0.02579125
3592,-0.0016177595
3593,-0.045971647
3594,0.050477035
3595,0.023089638
3596,-0.049165804
3597,0.03487368
3598,-0.025185006
3599,-0.07351427
3600,-0.15589185
3601,-0.009266025
3602,-0.0043043955
3603,0.054700036
3604,0.025960604
3605,0.056475453
3606,0.06856595
3607,-0.047312655
3608,-0.00054177654
3609,0.049500152
3610,-0.032770835
3611,-0.018883102
3612,0.0010240898
3613,0.03368919
3614,-0.13495938
3615,-0.05944752
3616,0.03924386
3617,-0.044209946
3618,0.056989934
3619,-0.015107719
3620,-0.08608142
3621,-0.0412346
3622,0.035453383
3623,0.045879707
3624,-0.10978507
3625,-0.032234676
3626,-0.01686388
3627,-0.023672493
3628,-0.013421823
3629,-0.017390653
3630,-0.008458811
3631,0.03852303
3632,-0.022039074
3633,-0.031735875
3634,0.04237504
3635,0.052131925
3636,0.02197576
3637,-0.031771746
3638,-0.0617114
3639,-0.07216891
3640,0.03461873
3641,0.051171232
3642,0.0009343144
3643,-0.06333471
3644,0.03983058
3645,0.014297752
3646,-0.06895395
3647,-0.055414736
3648,-0.025445625
3649,-0.07102745
3650,-0.051903963
3651,0.054645218
3652,0.00011457058
3653,-0.095065035
3654,-0.05642829
3655,-0.0049982686
3656,0.051483817
3657,0.039446875
3658,0.01333509
3659,0.061856747
3660,-0.016737504
3661,-0.039549533
3662,-0.0021824597
3663,0.0029480672
3664,-0.03681671
3665,-0.012772634
3666,0.022282038
3667,0.051368926
3668,-0.044770494
3669,-0.0067786067
3670,0.03700668
3671,0.0043866434
3672,0.023949208
3673,-0.017079195
3674,-0.014169246
3675,-0.016482737
3676,-0.012022025
3677,-0.011861867
3678,0.027973307
3679,-0.050303694
3680,-0.034563314
3681,-0.015356561
3682,0.032871608
3683,0.021574298
3684,0.044329807
3685,0.016020957
3686,-0.0076264422
3687,-0.007043549
3688,-0.020151053
3689,0.04077624
3690,-0.0795555
3691,0.06674893
3692,0.018111117
3693,-0.01585651
3694,0.0068857563
3695,0.020910902
3696,-0.018726278
3697,-0.026428442
3698,-0.022685817
3699,0.015827911
3700,0.044061787
3701,0.035890147
3702,0.028000541
3703,0.014807768
3704,-0.176893
3705,-0.015148475
3706,0.027604928
3707,-0.061124966
3708,-0.020196483
3709,0.0660513
3710,-0.03749162
3711,-0.0010632069
3712,-0.00090518745
3713,-0.007842812
3714,0.005047161
3715,-0.071382314
3716,-0.02191673
3717,0.060191005
3718,0.0058829198
3719,0.006673736
3720,-0.09758228
3721,-0.03658059
3722,-0.0020456088
3723,-0.020913683
3724,-0.029279433
3725,-0.0044258675
3726,-0.027441477
3727,-0.036087707
3728,-0.09107899
3729,-0.048694503
3730,-0.015545616
3731,0.11790234
3732,0.04730465
3733,0.017777996
3734,0.12123717
3735,0.004366443
3736,0.010084628
3737,0.04459647
3738,0.05233931
3739,-0.02015705
3740,-0.061327938
3741,-0.04508585
3742,-0.21170656
3743,0.0060492232
3744,-0.007835386
3745,-0.0623531
3746,-0.020937722
3747,-0.009243411
3748,-0.11215553
3749,-0.05572721
3750,0.10428856
3751,0.013953934
3752,-0.05934054
3753,0.00010394954
3754,-0.006955364
3755,0.055782914
3756,0.13686192
3757,-0.015881343
3758,0.014633311
3759,-0.010873144
3760,-0.0093570035
3761,-0.032444637
3762,0.00289816
3763,0.1034387
3764,-0.018716412
3765,0.05447684
3766,-0.027970629
3767,-0.056641135
3768,0.024520256
3769,-0.0097286785
3770,0.0293294
3771,-0.026359407
3772,0.01857829
3773,0.017835315
3774,-0.040915955
3775,-0.021842534
3776,-0.03971296
3777,-0.014720134
3778,0.021106428
3779,-0.0017351183
3780,-0.097318634
3781,-0.0906491
3782,-0.05453098
3783,0.04100886
3784,-0.02478971
3785,-0.018443843
3786,-0.0020235488
3787,-0.0024882555
3788,-0.03052417
3789,-0.2572392
3790,-0.080876105
3791,0.016626
3792,-0.008500682
3793,-0.066895045
3794,0.004557278
3795,0.05638743
3796,0.002744637
3797,-0.0929895
3798,-0.0031125732
3799,-0.02435769
3800,-0.03491153
3801,-0.056647588
3802,0.07239987
3803,0.067064546
3804,-0.0462949
3805,-0.055174638
3806,0.028619472
3807,-0.03558691
3808,-0.008910761
3809,0.029713916
3810,-0.023791537
3811,0.033980064
3812,0.02862111
3813,0.044855114
3814,-0.008401719
3815,0.010598746
3816,0.037850488
3817,0.05661473
3818,-0.16765377
3819,0.022887137
3820,0.02009282
3821,0.025469786
3822,0.0017673807
3823,0.050878443
3824,-0.08857263
3825,0.005540294
3826,-0.0026795957
3827,-0.004210967
3828,-0.07845867
3829,0.069454566
3830,0.093633935
3831,0.03741996
3832,-0.14289503
3833,-0.04537359
3834,0.032366462
3835,-0.09133159
3836,-0.061330497
3837,0.036105786
3838,-0.004017566
3839,-0.04259677
3840,0.023082536
3841,0.0922083
3842,0.033931553
3843,-0.009503196
3844,-0.0059028515
3845,0.044718124
3846,-0.026594302
3847,-0.07856128
3848,-0.0009986887
3849,0.049305674
3850,0.016970623
3851,-0.0036722627
3852,0.056070503
3853,0.020764118
3854,-0.01619364
3855,-0.007256737
3856,-0.026328063
3857,-0.07393723
3858,0.013219087
3859,-0.0185106
3860,-0.006276741
3861,-0.008799768
3862,-0.01522417
3863,0.011158572
3864,-0.035153706
3865,0.028134916
3866,-0.12730652
3867,0.023719054
3868,0.024003237
3869,-0.09329721
3870,-0.07516918
3871,-0.008835556
3872,-0.0019874247
3873,0.035455238
3874,0.008008117
3875,0.010617292
3876,-0.024536097
3877,0.021742305
3878,-0.01854677
3879,0.04746677
3880,-0.053908404
3881,0.041341364
3882,0.02261258
3883,-0.070698045
3884,0.03587815
3885,0.016495597
3886,0.06378124
3887,0.006623354
3888,0.05331849
3889,0.018546028
3890,0.024328874
3891,0.06397464
3892,-0.008856657
3893,0.00065956457
3894,-3.201364e-05
3895,0.003663911
3896,0.030616159
3897,-0.004858722
3898,-0.009892188
3899,0.04429355
3900,0.03844429
3901,0.023678854
3902,-0.025226694
3903,0.034763414
3904,-0.05112988
3905,0.009452813
3906,0.042761553
3907,0.014097777
3908,-0.06595668
3909,0.007924768
3910,0.048782278
3911,-0.015368773
3912,0.04746324
3913,0.007575577
3914,-0.027117418
3915,-0.031503428
3916,0.05768065
3917,-0.052647393
3918,0.00317955
3919,0.03387683
3920,0.06362846
3921,0.03915396
3922,-0.014952517
3923,0.0082668
3924,0.033192284
3925,-0.03487958
3926,0.030582532
3927,-0.10588429
3928,-0.060236737
3929,0.032384194
3930,0.044017073
3931,-0.007427459
3932,0.052125365
3933,0.015643638
3934,0.009607732
3935,-0.012532778
3936,0.035019714
3937,0.017011221
3938,0.05710606
3939,-0.029041141
3940,-0.008768797
3941,-0.025443517
3942,0.0149618955
3943,0.012483004
3944,0.047731537
3945,-0.028453672
3946,0.019662693
3947,0.010983934
3948,0.022929782
3949,-0.00014568503
3950,-0.005602043
3951,-0.0276982
3952,0.055564545
3953,-0.0041112886
3954,-0.015360651
3955,-0.09693818
3956,-0.087055765
3957,-0.012325501
3958,-0.03647164
3959,-0.0011552058
3960,-0.04440044
3961,-0.051465906
3962,0.00089513644
3963,-0.005961075
3964,-0.07396257
3965,0.018449891
3966,0.004664754
3967,0.009921552
3968,0.021799132
3969,0.12798716
3970,-0.030074662
3971,-0.061577015
3972,-0.04251402
3973,0.085034914
3974,-0.057858903
3975,-0.014648652
3976,0.006274062
3977,0.052021895
3978,-0.010578583
3979,-0.045992352
3980,-0.11088452
3981,-0.0295752
3982,-0.10869179
3983,0.05987659
3984,0.13352615
3985,-0.07870397
3986,-0.044189423
3987,0.03150774
3988,0.001127345
3989,-0.0055972
3990,0.02054652
3991,0.037699826
3992,-0.012682494
3993,-0.23968273
3994,0.0022093344
3995,-0.0036459572
3996,0.040466953
3997,-0.10548012
3998,-0.0069318824
3999,-0.03359249
4000,-0.021239115
4001,-0.048656825
4002,-0.017855437
4003,-0.003022829
4004,-0.031065043
4005,-0.015567434
4006,-0.009083115
4007,-0.02409244
4008,0.042117286
4009,-0.00057306176
4010,0.0058957115
4011,0.07887953
4012,0.18632784
4013,0.06655469
4014,0.008901612
4015,-0.04220934
4016,0.01062442
4017,0.047551185
4018,-0.09239172
4019,-0.06303751
4020,-0.08303335
4021,0.094381735
4022,0.023811331
4023,0.055084117
4024,-0.057278275
4025,-0.011792804
4026,-0.07130419
4027,0.035014484
4028,-0.020172339
4029,-0.057969768
4030,-0.010782831
4031,0.07108278
4032,-0.080329366
4033,0.036828816
4034,-0.11645163
4035,0.033019625
4036,-0.061230637
4037,0.0089851925
4038,0.007453667
4039,-0.028961668
4040,0.0031890853
4041,-0.051318478
4042,-0.036643837
4043,0.004572094
4044,-0.02371686
4045,-0.099900015
4046,-0.0067901127
4047,-0.022225376
4048,0.0017440532
4049,0.039795853
4050,-0.0068362486
4051,0.075833224
4052,0.0317634
4053,0.026304564
4054,-0.04332663
4055,0.032545354
4056,-0.045381278
4057,-0.0056271385
4058,0.16245937
4059,0.15124659
4060,-0.03312923
4061,-0.031241687
4062,0.02448339
4063,-0.06698065
4064,0.013656676
4065,0.055763226
4066,0.03318131
4067,0.0008343763
4068,0.00017045022
4069,-0.082805134
4070,0.009576819
4071,-0.0105133895
4072,0.15615311
4073,-0.051949948
4074,-0.077859186
4075,0.011311449
4076,-0.005362205
4077,0.047204476
4078,-0.00015249221
4079,0.009238308
4080,-0.05605251
4081,0.042918313
4082,-0.011072861
4083,-0.12038876
4084,-0.16322884
4085,0.02208221
4086,0.023969386
4087,-0.12380327
4088,0.12496572
4089,-0.09493002
4090,-0.08598467
4091,-0.039507255
4092,-0.041045412
4093,-0.0015903435
4094,-0.0057193115
4095,-0.003722026
4096,0.06427052
4097,0.1068839
4098,0.02455071
4099,0.041161045
4100,-0.049240924
4101,-0.007139834
4102,-0.08670537
4103,-0.46989024
4104,-0.08973077
4105,0.15497494
4106,-0.11231268
4107,-0.022896376
4108,0.11917841
4109,-0.1049288
4110,-0.3161848
4111,0.072149575
4112,-0.079517044
4113,-0.03108066
4114,0.13179146
4115,0.11607096
4116,-0.0111928005
4117,-0.12695383
4118,-0.06315527
4119,0.122246064
4120,0.0028330293
4121,-0.18762906
4122,-0.22928031
4123,-0.04246773
4124,0.093623675
4125,-0.23860984
4126,-0.00010695041
4127,-0.0059428043
4128,-0.0350947
4129,0.09012318
4130,-0.10618848
4131,-0.008254498
4132,-0.029871024
4133,-0.07253432
4134,-0.038759764
4135,-0.15912792
4136,0.1388996
4137,0.15547666
4138,0.10210413
4139,0.001113483
4140,0.076552734
4141,-0.15339471
4142,0.0954832
4143,-0.022807613
4144,0.2293537
4145,0.15201032
4146,-0.106878124
4147,-0.17625155
4148,-0.29836652
4149,0.08728397
4150,0.028127082
4151,0.023479654
4152,-0.10201451
4153,-0.15059224
4154,-0.043120705
4155,0.07608436
4156,-0.16533406
4157,-0.070364855
4158,-0.00046217657
4159,0.123444684
4160,-0.08586815
4161,0.026030509
4162,0.06280521
4163,-0.06664448
4164,0.00030132182
4165,0.08942394
4166,0.1783368
4167,0.17500897
4168,0.03714324
4169,-0.0768446
4170,-0.07343831
4171,0.0043275603
4172,-0.10543174
4173,-0.021599308
4174,-0.32694748
4175,0.009726654
4176,0.07188191
4177,0.14918727
4178,0.013881941
4179,0.030314196
4180,0.0316251
4181,-0.06694752
4182,-0.010766439
4183,-0.07938745
4184,-0.04644554
4185,-0.007976462
4186,0.18512589
4187,0.033227082
4188,0.09268486
4189,0.005003293
4190,-0.14771688
4191,-0.017391104
4192,0.02526648
4193,-0.0773311
4194,0.034004737
4195,-0.018882798
4196,-0.11223898
4197,-0.05361777
4198,-0.1192293
4199,0.053496227
4200,0.1065356
4201,-0.032786936
4202,-0.35821432
4203,-0.12380483
4204,0.005025181
4205,-0.07828722
4206,0.0019245155
4207,-0.018746467
4208,-0.00802489
4209,-0.023735434
4210,0.018155484
4211,-0.068813495
4212,-0.039071668
4213,-0.019681284
4214,-0.050823703
4215,-0.15621267
4216,-0.21559793
4217,-0.0939578
4218,-0.1178072
4219,-0.03175221
4220,-0.035791066
4221,-0.094143815
4222,0.011704479
4223,-0.003410993
4224,-0.23365383
4225,0.0449927
4226,0.043187287
4227,-0.004395393
4228,0.040417608
4229,-0.008882921
4230,0.0358828
4231,-0.109356895
4232,-0.028896702
4233,0.029482052
4234,-0.043902118
4235,-0.019977743
4236,0.017926717
4237,-0.04536528
4238,-0.016341172
4239,0.029100753
4240,0.030580517
4241,-0.09176136
4242,0.0043638465
4243,-0.04131359
4244,-0.012845008
4245,-0.03393756
4246,-0.049477804
4247,-0.021079687
4248,-0.047362607
4249,0.035667434
4250,-0.22710116
4251,0.050865825
4252,0.03113027
4253,-0.022125037
4254,-0.013903203
4255,0.014151074
4256,-0.010358517
4257,-0.0008677656
4258,-0.04144266
4259,-0.0030488248
4260,0.014507581
4261,0.030616228
4262,0.03269099
4263,-0.022709405
4264,-0.13629858
4265,0.018925415
4266,0.025567515
4267,-0.13439497
4268,0.05015002
4269,0.024117995
4270,0.08394364
4271,0.0035357098
4272,0.0030071076
4273,0.033349514
4274,0.04340101
4275,-0.010023192
4276,-0.011733521
4277,0.0027937798
4278,-0.071372315
4279,0.04789565
4280,0.06839666
4281,-0.03860434
4282,-0.021152345
4283,0.024673892
4284,-0.018240122
4285,0.041140363
4286,0.1115033
4287,0.04214224
4288,-0.077007174
4289,0.010969891
4290,0.07474682
4291,-0.08360131
4292,-0.091550045
4293,-0.04359442
4294,-0.0002277523
4295,-0.03440889
4296,-0.07473376
4297,-0.023643898
4298,-0.029243281
4299,-0.09386411
4300,0.0005905866
4301,-0.09095494
4302,0.0043948153
4303,0.040359832
4304,0.035366416
4305,0.0254628
4306,-0.00085032114
4307,0.0006986321
4308,-0.012269099
4309,0.024664117
4310,-0.02438593
4311,-0.014069698
4312,-0.04025281
4313,0.11334468
4314,0.0034759662
4315,-0.013534992
4316,0.09909501
4317,0.07184208
4318,-0.033695392
4319,-0.07129715
4320,0.059778497
4321,-0.08026094
4322,0.06961322
4323,-0.043219455
4324,-0.065920316
4325,-0.08273455
4326,0.028647907
4327,0.0175027
4328,0.032167405
4329,-0.024894971
4330,-0.06971833
4331,-0.038301833
4332,-0.0030461133
4333,-0.06858009
4334,0.009936941
4335,-0.038313605
4336,0.057221062
4337,0.0016342595
4338,0.04734422
4339,-0.03160118
4340,0.090463154
4341,-0.011754712
4342,-0.00017313988
4343,-0.005444741
4344,0.07760134
4345,-0.053059176
4346,-2.5929301e-05
4347,0.05343055
4348,-0.024277631
4349,-0.07317816
4350,0.010718313
4351,0.041616376
4352,-0.012551556
4353,-0.08251261
4354,0.0431184
4355,-0.104345985
4356,-0.004934415
4357,0.057042018
4358,-0.03226814
4359,0.015143102
4360,-0.07403848
4361,-0.029425696
4362,0.0016583949
4363,0.016116528
4364,-0.051646154
4365,0.005107574
4366,-0.0861981
4367,-0.091108724
4368,-0.16654326
4369,-0.13315237
4370,0.07011136
4371,0.13990499
4372,-0.0037077668
4373,0.124342844
4374,0.15300356
4375,-0.054458834
4376,-0.011451209
4377,0.04383294
4378,-0.010930255
4379,-0.055910904
4380,-0.03147783
4381,-0.060922854
4382,-0.1552064
4383,-0.05457422
4384,0.020603826
4385,-0.16739197
4386,0.13985208
4387,-0.0040486655
4388,-0.06281528
4389,-0.09301589
4390,-0.016068587
4391,0.023112206
4392,-0.19192275
4393,-0.018724458
4394,-0.00018596297
4395,-0.00030410662
4396,-0.010304611
4397,-0.102486484
4398,-0.064848706
4399,-0.023149377
4400,-0.002126714
4401,-0.016241191
4402,0.049535412
4403,0.040275183
4404,0.04017972
4405,-0.005748628
4406,-0.06712167
4407,0.104277864
4408,0.039259654
4409,0.12896867
4410,0.03195604
4411,-0.07870385
4412,0.007872715
4413,0.0030325009
4414,0.003058228
4415,-0.044781826
4416,-0.1032371
4417,-0.28660598
4418,-0.0862999
4419,-0.023765646
4420,-0.061386127
4421,-0.3062549
4422,-0.041001394
4423,0.06418969
4424,-0.024638554
4425,0.0353053
4426,-0.08078323
4427,0.0055099223
4428,-0.006536108
4429,-0.17899051
4430,-0.06871904
4431,0.065003864
4432,-0.019384816
4433,-0.03746642
4434,-0.007420742
4435,0.08762458
4436,-0.060562637
4437,-0.07124046
4438,0.032176696
4439,-0.026856862
4440,-0.0680216
4441,0.04398587
4442,-0.023151584
4443,-0.12301426
4444,-0.008274196
4445,0.000661625
4446,0.0056331586
4447,0.004461222
4448,0.04580371
4449,0.1625609
4450,-0.008542911
4451,-0.026304103
4452,0.0114564495
4453,0.0059602913
4454,-0.06368394
4455,-0.008475691
4456,-0.043272305
4457,-0.024380585
4458,-0.074488424
4459,0.010853482
4460,-0.012782274
4461,0.11837103
4462,0.00040519855
4463,-0.016589526
4464,-0.057925966
4465,-0.061081927
4466,0.013477068
4467,-0.035263687
4468,-0.14381425
4469,0.011009182
4470,0.005045211
4471,-0.006665922
4472,-0.1169231
4473,-0.11402332
4474,-0.021610575
4475,-0.06889037
4476,-0.18279274
4477,-0.022398481
4478,-0.050381385
4479,-0.08003993
4480,0.03928286
4481,0.0005017118
4482,0.057492524
4483,0.05658537
4484,-0.04130429
4485,-0.000880688
4486,0.053799246
4487,0.035854
4488,-0.006396689
4489,0.044510785
4490,-0.016523305
4491,-0.009676954
4492,0.027407214
4493,-0.014990477
4494,-0.100412205
4495,0.0038537483
4496,-0.028893147
4497,-0.0503848
4498,0.031326264
4499,-0.07834286
4500,0.035542555
4501,0.044774305
4502,-0.048148233
4503,-0.006632998
4504,-0.050496746
4505,0.065801986
4506,-0.011816164
4507,0.08626736
4508,0.06466386
4509,0.01593038
4510,0.026526097
4511,-0.043505825
4512,0.012211561
4513,0.016270781
4514,0.065289885
4515,-0.0028130263
4516,-0.007818533
4517,0.004056778
4518,-0.08897802
4519,0.012450982
4520,0.030673137
4521,0.04529262
4522,0.03903156
4523,-0.110821724
4524,-0.029001413
4525,0.073352605
4526,0.02437467
4527,-0.0026303222
4528,0.009872713
4529,0.06946757
4530,0.07647687
4531,-0.044578787
4532,0.051776245
4533,0.036819313
4534,-0.005578554
4535,-0.008141617
4536,0.053979725
4537,0.04296502
4538,-0.0012283492
4539,0.041736197
4540,0.010778719
4541,0.018175352
4542,0.037460107
4543,0.04521221
4544,-0.12222462
4545,0.04431163
4546,-0.009266708
4547,0.02538314
4548,-0.038295496
4549,0.028082266
4550,0.011243619
4551,-0.0563079
4552,0.077330835
4553,0.0073362533
4554,0.016540015
4555,0.049968
4556,0.013997722
4557,-0.14202334
4558,-0.07659291
4559,0.009887863
4560,0.024286605
4561,0.018085897
4562,0.0040402967
4563,-0.04731152
4564,0.05463445
4565,-0.047650583
4566,-0.006823087
4567,0.0690946
4568,-0.057222333
4569,0.061832394
4570,0.018435763
4571,-0.08910392
4572,0.032799322
4573,0.022750875
4574,0.011858636
4575,-0.03540426
4576,0.06216214
4577,0.02952176
4578,0.059571724
4579,-0.040995568
4580,0.015909614
4581,0.0061988938
4582,0.06730218
4583,-0.020945216
4584,0.044524282
4585,-0.09582545
4586,-0.16557473
4587,-0.003247678
4588,0.0306161
4589,-0.038812116
4590,-0.0032653897
4591,-0.033822805
4592,0.03246853
4593,-0.036385126
4594,0.02781543
4595,-0.032466523
4596,0.017644854
4597,0.026628952
4598,-0.0054018702
4599,-0.06984846
4600,-0.053654917
4601,-0.11868342
4602,-0.05576219
4603,0.031359036
4604,0.015183456
4605,-0.018763945
4606,0.009481994
4607,0.016004128
4608,-0.00796057
4609,0.057058826
4610,0.05886048
4611,0.019974934
4612,-0.041356344
4613,0.026764786
4614,-0.0068413503
4615,-0.057572633
4616,-0.04517531
4617,0.08256681
4618,-0.034714565
4619,-0.04068288
4620,0.048138622
4621,-0.018901132
4622,-0.011981174
4623,0.022961417
4624,-0.108477466
4625,-0.04939192
4626,0.046126932
4627,-0.024254091
4628,-0.00048728473
4629,-0.014903524
4630,0.04000404
4631,0.049868077
4632,-0.01650989
4633,0.0188292
4634,-0.14744082
4635,0.04698543
4636,0.057045914
4637,-0.13106307
4638,-0.0033540174
4639,0.03865138
4640,-0.030517275
4641,0.006382184
4642,-0.017872646
4643,-0.0017769055
4644,-0.03169946
4645,0.015483967
4646,-0.022464735
4647,-0.037513837
4648,-0.23097269
4649,0.09219947
4650,0.05116526
4651,-0.040327765
4652,0.041291136
4653,0.027352277
4654,0.06895165
4655,-0.00077191915
4656,0.0646629
4657,0.10171339
4658,0.0038221423
4659,-0.10096609
4660,-0.012161393
4661,0.09297992
4662,-0.0076355045
4663,0.030490566
4664,0.016190883
4665,0.002165218
4666,0.0043355157
4667,0.047255743
4668,-0.030159546
4669,0.02417204
4670,-0.0062862197
4671,0.051104717
4672,-0.031191414
4673,0.023906542
4674,0.03572479
4675,-0.022575831
4676,-0.16495407
4677,0.030911403
4678,0.019884355
4679,0.0049021575
4680,0.044179514
4681,-0.0117249
4682,-0.119930804
4683,-0.06264139
4684,0.04006515
4685,-0.06272068
4686,-0.067995474
4687,0.024231762
4688,0.052564893
4689,0.077676564
4690,-0.000405325
4691,0.034586564
4692,0.072358795
4693,0.03283687
4694,0.0020517104
4695,-0.03298829
4696,-0.02053519
4697,0.036772132
4698,0.082575165
4699,-0.0029135316
4700,0.057493705
4701,0.0033731572
4702,-0.0055329567
4703,0.029353261
4704,0.015726572
4705,0.0026195087
4706,0.05938425
4707,-0.06601918
4708,-0.03351877
4709,-0.006141974
4710,-0.025681479
4711,0.070477895
4712,0.07331099
4713,-0.045839533
4714,-0.04189429
4715,-0.058751684
4716,0.00015937605
4717,-0.023284826
4718,-0.007551197
4719,-0.029187758
4720,0.047414504
4721,-0.020931443
4722,0.02733043
4723,-0.04518146
4724,-0.018499846
4725,-0.037527535
4726,0.0048896126
4727,-0.059658103
4728,-0.09416629
4729,-0.0576413
4730,-0.088739716
4731,-0.055827715
4732,-0.02020877
4733,-0.045248512
4734,-0.01742899
4735,0.11456135
4736,0.085952215
4737,0.053017333
4738,-0.010512489
4739,-0.117987625
4740,-0.05104321
4741,0.040618584
4742,-0.054880753
4743,-0.1239274
4744,0.0013790308
4745,0.007572785
4746,-0.09478144
4747,-0.038674068
4748,0.041429825
4749,-0.07121198
4750,-0.17558695
4751,-0.05291367
4752,-0.18256155
4753,0.011600942
4754,0.10960469
4755,0.05269515
4756,-0.04179287
4757,-0.01141546
4758,0.045215815
4759,0.0641069
4760,-0.0032752545
4761,-0.08862911
4762,-0.048485756
4763,-0.08794947
4764,0.07528949
4765,-0.12593773
4766,-0.018372092
4767,0.16640253
4768,-0.07562535
4769,0.10230321
4770,-0.0041343085
4771,-0.0057889135
4772,-0.055714913
4773,-0.1686049
4774,-0.103612624
4775,-0.052078616
4776,-0.011627193
4777,0.10635403
4778,-0.036197595
4779,0.018291445
4780,0.009962312
4781,-0.06660088
4782,0.012907346
4783,0.06724205
4784,0.0902975
4785,0.019037304
4786,0.0219934
4787,-0.11380263
4788,-0.14262906
4789,-0.08152633
4790,0.0654694
4791,-0.14213865
4792,0.014170184
4793,0.0075655547
4794,-0.013427651
4795,-0.034345362
4796,-0.059211116
4797,0.007833899
4798,-0.028403023
4799,0.079315774
4800,-0.07493122
4801,0.01938855
4802,0.0048015253
4803,-0.033694413
4804,0.030385192
4805,0.064267464
4806,0.09702527
4807,0.1670067
4808,0.14241767
4809,-0.048005246
4810,-0.044422794
4811,0.0025474778
4812,-0.041697662
4813,-0.025139157
4814,-0.20469378
4815,-0.015952788
4816,0.028408902
4817,0.096160755
4818,-3.2088174e-05
4819,0.012443077
4820,-0.12021326
4821,-0.14367278
4822,0.0026206933
4823,-0.04717592
4824,0.00043567677
4825,-0.01588376
4826,0.024877708
4827,0.09765297
4828,0.08285915
4829,0.00069551915
4830,-0.066926144
4831,0.0767546
4832,0.0050384565
4833,-0.03020202
4834,0.0051488834
4835,-0.037774652
4836,-0.052769434
4837,0.026647065
4838,-0.19930956
4839,0.05972936
4840,0.04938507
4841,-0.009531249
4842,-0.18273784
4843,-0.06941233
4844,-0.007034583
4845,0.070661
4846,-0.008543251
4847,-0.06134172
4848,-0.03451247
4849,-0.07267097
4850,-0.008366554
4851,-0.12117016
4852,0.01736863
4853,-0.04326736
4854,-0.02806393
4855,-0.040469684
4856,-0.2586651
4857,-0.03767968
4858,-0.014551497
4859,-0.064111784
4860,-0.04252075
4861,-0.059448883
4862,0.0065496946
4863,0.007004654
4864,-0.047495585
4865,-0.027817478
4866,-0.0016223248
4867,-0.01887578
4868,-0.0134899905
4869,-0.027342966
4870,0.040453993
4871,0.028412836
4872,-0.034606047
4873,-0.020311182
4874,0.048114266
4875,0.06570347
4876,-0.052970625
4877,0.04119615
4878,0.014825551
4879,-0.050497144
4880,-0.03191292
4881,-0.050741956
4882,0.000758411
4883,-0.07348407
4884,-0.017152464
4885,0.025796488
4886,-0.014896293
4887,-0.02892582
4888,-0.021082437
4889,0.056902494
4890,-0.014382322
4891,0.023572879
4892,0.02728434
4893,0.02918477
4894,-0.06891408
4895,-0.025125274
4896,0.067102574
4897,-0.019810205
4898,0.027815396
4899,0.004741249
4900,-0.042815443
4901,0.013959002
4902,0.026726376
4903,0.092643246
4904,-0.1490968
4905,-0.038310025
4906,-0.0031666292
4907,-0.11681679
4908,-0.021659393
4909,0.027060255
4910,0.007654858
4911,0.042406626
4912,0.021581093
4913,-0.044872686
4914,0.06922349
4915,0.093842305
4916,0.046187375
4917,0.009142284
4918,-0.07550737
4919,0.016193075
4920,0.07401314
4921,0.011435404
4922,0.010383683
4923,-0.022587487
4924,0.0672973
4925,0.031099394
4926,0.015310712
4927,-0.0154707385
4928,-0.03706095
4929,-0.05662219
4930,-0.009360603
4931,-0.013005451
4932,-0.09019066
4933,-0.02195116
4934,0.025108995
4935,-0.08756862
4936,-0.033225834
4937,0.033427354
4938,0.055746563
4939,0.025860492
4940,0.023509104
4941,-0.0037331285
4942,0.022445915
4943,-0.000894776
4944,0.004969732
4945,8.0428086e-05
4946,-0.0070723905
4947,-0.049729723
4948,-0.052009497
4949,0.019679194
4950,0.059875768
4951,0.022666506
4952,-0.08495514
4953,0.024818644
4954,-0.038617376
4955,0.004677191
4956,-0.01855548
4957,-0.0029845017
4958,0.048467524
4959,-0.07685844
4960,0.0028324546
4961,0.02674285
4962,0.011744161
4963,-0.08650987
4964,0.034102127
4965,-0.01766138
4966,0.012611944
4967,0.017786523
4968,-0.039973687
4969,0.03001604
4970,0.032452982
4971,0.04270023
4972,0.009447079
4973,-0.03228739
4974,0.006945415
4975,-0.0010418805
4976,0.021111488
4977,-0.06669263
4978,0.011221647
4979,-0.01799169
4980,0.007867492
4981,-0.012285102
4982,-0.0066672587
4983,0.045339845
4984,0.012295796
4985,-0.013600938
4986,0.06430451
4987,-0.0045769904
4988,-0.03561414
4989,0.012013102
4990,0.006114181
4991,0.018733054
4992,0.07460945
4993,0.10197684
4994,0.06636852
4995,0.0019162046
4996,-0.03925179
4997,-0.118984595
4998,-0.020743402
4999,-0.09618685
5000,0.051143233
5001,0.03296743
5002,-0.0015380954
5003,0.013513829
5004,0.08545483
5005,-0.009964272
5006,0.15952548
5007,0.022846585
5008,-0.036213703
5009,-0.09926333
5010,0.07754314
5011,0.0018031118
5012,-0.01391568
5013,-0.105208874
5014,0.06104485
5015,0.033153176
5016,-0.0062832804
5017,-0.12100175
5018,-0.0939345
5019,-0.044880353
5020,0.066857375
5021,-0.06519554
5022,-0.059916157
5023,0.050405867
5024,0.025204062
5025,0.08644477
5026,-0.077982016
5027,-0.0038140395
5028,-0.041604284
5029,0.026403982
5030,-0.077509746
5031,-0.0518367
5032,-0.0033939865
5033,0.07302132
5034,0.058268428
5035,0.018113261
5036,0.117847726
5037,-0.07244232
5038,0.10326223
5039,-0.087348506
5040,0.09627047
5041,-0.044165157
5042,-0.005438408
5043,0.12727359
5044,-0.14370528
5045,0.11544279
5046,0.022350127
5047,0.13140798
5048,-0.009514858
5049,-0.08176216
5050,-0.06457714
5051,0.007836541
5052,-0.08389163
5053,-0.08497118
5054,-0.017225256
5055,0.12670106
5056,-0.06910572
5057,-0.12948468
5058,0.12563065
5059,-0.08273335
5060,-0.09745508
5061,0.07365605
5062,0.13676804
5063,0.010155898
5064,-0.12776615
5065,0.0008629508
5066,-0.050614994
5067,-0.06196756
5068,0.0640745
5069,0.034151606
5070,0.1583684
5071,0.042556908
5072,0.12237051
5073,0.12060084
5074,-0.008392626
5075,0.02318255
5076,0.031269293
5077,0.07834697
5078,-0.030920235
5079,-0.081164904
5080,-0.20540488
5081,0.046250228
5082,0.089132935
5083,0.13133368
5084,0.06500773
5085,0.00045839162
5086,-0.019449508
5087,0.010546734
5088,0.05836643
5089,-0.039127205
5090,-0.02333733
5091,-0.045883182
5092,-0.05541485
5093,-0.04627672
5094,-0.08173293
5095,0.13520508
5096,0.09215865
5097,0.008922313
5098,0.13852303
5099,-0.055396065
5100,-0.009517332
5101,-0.027986476
5102,-0.011897354
5103,-0.064690575
5104,-0.020773655
5105,-0.048870806
5106,0.0013807341
5107,-0.026468802
5108,-0.23247977
5109,-0.06603827
5110,-0.036846366
5111,0.07632071
5112,0.09982768
5113,-0.0052492525
5114,0.04756599
5115,-0.06318804
5116,-0.079760745
5117,-0.18278006
5118,0.006954959
5119,-0.033389527
5120,0.05049125
5121,-0.096289925
5122,-0.03688046
5123,0.024093404
5124,-0.05746445
5125,0.044445746
5126,0.051294677
5127,0.08887749
5128,-0.000666474
5129,-0.015920347
5130,0.013099944
5131,0.034109507
5132,0.035764426
5133,-0.008145695
5134,-0.010861707
5135,0.0077918395
5136,-0.07992893
5137,0.01238555
5138,0.025321115
5139,-0.0301738
5140,0.03284956
5141,0.1013287
5142,0.008136025
5143,0.024146846
5144,-0.008871639
5145,0.083240844
5146,0.0777715
5147,0.04031348
5148,0.065647975
5149,0.049401622
5150,-0.07968851
5151,-0.0846686
5152,0.04383825
5153,-0.013820289
5154,0.088301875
5155,0.00035942375
5156,-0.14842996
5157,0.023033656
5158,0.040850703
5159,0.014954638
5160,0.027246108
5161,0.034169313
5162,-0.022131946
5163,0.0075236126
5164,-0.12396352
5165,0.06317413
5166,-0.07684735
5167,0.004784445
5168,-0.012976967
5169,0.022197213
5170,0.08335314
5171,0.002130874
5172,0.0988992
5173,-0.0594002
5174,-0.0003742534
5175,-0.0531767
5176,0.071049266
5177,0.092459865
5178,0.016689412
5179,0.0108002415
5180,0.024872359
5181,0.043967597
5182,-0.010367134
5183,0.004293373
5184,-0.02948439
5185,0.01737654
5186,-0.0745634
5187,0.06938648
5188,0.0137130525
5189,0.051794007
5190,-0.026782058
5191,-0.022668684
5192,0.065421574
5193,0.027866961
5194,0.041350573
5195,0.083418705
5196,0.03803401
5197,-0.030099427
5198,0.01733692
5199,0.003983981
5200,-0.025372148
5201,-0.013837885
5202,-0.02695241
5203,0.03748259
5204,-0.039857034
5205,-0.008399689
5206,-0.010781087
5207,0.025717013
5208,-0.0006282895
5209,-0.020169195
5210,-0.043168407
5211,-0.08662854
5212,-0.04386063
5213,0.012553333
5214,0.029920522
5215,0.02260384
5216,0.011501135
5217,0.098387316
5218,-0.011719475
5219,0.06598965
5220,0.050572842
5221,0.023856249
5222,0.07736474
5223,-0.041551333
5224,-0.0785307
5225,0.0056358906
5226,-0.04255067
5227,0.035765212
5228,-0.010068094
5229,-0.009654612
5230,0.0084510315
5231,0.039892163
5232,0.001106442
5233,0.07332039
5234,-0.00716541
5235,0.09218319
5236,0.0889337
5237,0.04846742
5238,0.05930904
5239,0.019388588
5240,-0.08254982
5241,-0.02109247
5242,0.0037044773
5243,-0.08796574
5244,-0.017962815
5245,0.072986364
5246,0.030747894
5247,-0.09803698
5248,0.09345683
5249,0.013555779
5250,0.008491146
5251,0.059220728
5252,-0.00779614
5253,0.006435317
5254,-0.07159483
5255,-0.102188185
5256,-0.041512482
5257,0.07989852
5258,0.0006564921
5259,-0.017516412
5260,0.07044567
5261,0.03234833
5262,-0.0234665
5263,0.081675336
5264,-0.06965197
5265,-0.17197919
5266,0.08378701
5267,0.004563406
5268,-0.006782791
5269,-0.05153696
5270,0.025128718
5271,0.100748144
5272,-0.00823935
5273,0.0069867945
5274,-0.12976809
5275,0.0079367645
5276,0.06776657
5277,-0.2134624
5278,-0.02616214
5279,-0.013363233
5280,-0.012716764
5281,-0.028737763
5282,-0.03783618
5283,-0.00065844116
5284,-0.009519675
5285,-0.0011896794
5286,-0.031823553
5287,0.031218339
5288,-0.015744653
5289,0.11769994
5290,0.089402735
5291,0.007774917
5292,0.023986025
5293,0.002319314
5294,0.0019217754
5295,-0.007828257
5296,0.08893516
5297,0.084588856
5298,0.009810916
5299,-0.085038766
5300,-0.009665749
5301,0.075092465
5302,0.060864627
5303,0.012387474
5304,0.015246849
5305,-0.012241622
5306,-0.0025066668
5307,0.10163775
5308,0.029496456
5309,0.02064496
5310,0.042655442
5311,0.07506697
5312,-0.08842083
5313,-0.0050614593
5314,0.02801039
5315,-0.038407914
5316,-0.0749123
5317,0.030167704
5318,0.015327947
5319,-0.021792397
5320,-0.041788943
5321,0.007090811
5322,-0.08788934
5323,-0.049280234
5324,0.07362888
5325,-0.07312155
5326,0.015409549
5327,-0.022117993
5328,0.07877718
5329,0.047467213
5330,0.0013898113
5331,0.022620765
5332,0.07178693
5333,-0.06890707
5334,0.028246088
5335,-0.053388167
5336,-0.014480198
5337,0.011663688
5338,0.05828403
5339,-0.019718368
5340,0.014979338
5341,0.012530413
5342,0.00057289784
5343,0.11763777
5344,0.019261112
5345,-0.03881596
5346,0.025182497
5347,-0.025774417
5348,-0.048082903
5349,-0.05961236
5350,-0.031117389
5351,0.032621305
5352,0.0699249
5353,0.03727943
5354,0.047545023
5355,-0.0057184254
5356,-0.008950668
5357,-0.017520728
5358,0.009878057
5359,-0.02423828
5360,0.06329531
5361,-0.024073469
5362,0.023476312
5363,-0.051627606
5364,-0.018233098
5365,-0.052299555
5366,-0.034197472
5367,-0.052740604
5368,-0.023879003
5369,-0.06814329
5370,-0.07507653
5371,-0.013175145
5372,0.020979604
5373,0.0061283647
5374,-0.018557124
5375,0.08106437
5376,-0.022850838
5377,0.00926444
5378,-0.023976272
5379,-0.031842824
5380,-0.057867132
5381,-0.013483446
5382,0.00036532237
5383,-0.014462659
5384,-0.041998234
5385,-0.025555177
5386,-0.010941571
5387,0.026230387
5388,0.010164676
5389,-0.0039466247
5390,0.02347217
5391,-0.04036426
5392,-0.07733135
5393,-0.020455196
5394,0.028126063
5395,0.013755554
5396,-0.030181054
5397,-0.048635364
5398,-0.012097352
5399,-0.06181644
5400,-0.026176356
5401,0.03202679
5402,-0.12695886
5403,-0.020352662
5404,0.009786038
5405,-0.04938015
5406,-0.05897473
5407,-0.024082774
5408,0.01448093
5409,-0.11525805
5410,-0.045903318
5411,-0.012102972
5412,-0.09805239
5413,-0.022821745
5414,0.014624052
5415,-0.010701453
5416,-0.020677531
5417,-0.032707818
5418,-0.008597835
5419,-0.021116953
5420,-0.021652892
5421,-0.039795913
5422,0.00016664181
5423,-0.02309254
5424,-0.028279323
5425,-0.021005644
5426,0.05297387
5427,0.05153825
5428,-0.013502313
5429,-0.01511054
5430,-0.038655076
5431,-0.010045643
5432,0.029500114
5433,-0.028027914
5434,0.02972859
5435,-0.057393532
5436,-0.021593083
5437,0.03347817
5438,-0.052277476
5439,-0.012833533
5440,-0.015198489
5441,-0.078883156
5442,0.018481497
5443,-0.017838309
5444,-0.12600493
5445,-0.07481536
5446,-0.010013751
5447,-0.022373198
5448,-0.07148956
5449,0.022228
5450,0.00977311
5451,-0.006265745
5452,0.037862435
5453,-0.030215746
5454,0.046033297
5455,-0.010747672
5456,0.0064853556
5457,0.019771922
5458,0.0002604334
5459,-0.024466088
5460,-0.10805275
5461,-0.060117453
5462,0.001574419
5463,-0.036792506
5464,-0.041185465
5465,-0.012771533
5466,-0.01573181
5467,-0.014184702
5468,-0.027181655
5469,-0.023025542
5470,-0.008272393
5471,0.0034426607
5472,0.017623425
5473,-0.033604845
5474,-0.00635996
5475,-0.0050157476
5476,-0.008669611
5477,-0.001158852
5478,0.023390854
5479,-0.054481816
5480,0.0072656735
5481,0.047567315
5482,-0.03884875
5483,-0.018183941
5484,0.003691323
5485,0.008705044
5486,-0.00949979
5487,-0.039067894
5488,-0.005334358
5489,-0.06106486
5490,-0.031004667
5491,0.016198883
5492,0.025373425
5493,-0.02194863
5494,-0.010069631
5495,-0.010974567
5496,-0.089233354
5497,-0.044131275
5498,0.02442949
5499,-0.04553823
5500,-0.033370823
5501,-0.020922422
5502,-0.01530832
5503,-0.006153162
5504,0.05632877
5505,-0.028394694
5506,-0.0024138107
5507,0.029922087
5508,0.011088527
5509,7.506671e-05
5510,0.02777519
5511,0.06642932
5512,0.024492206
5513,0.043619085
5514,0.009209473
5515,0.03327904
5516,-0.05222046
5517,0.011399122
5518,-0.11687013
5519,-0.017326608
5520,-0.00860316
5521,-0.09336185
5522,-0.107296586
5523,-0.10946282
5524,0.009106776
5525,0.051695388
5526,-0.021065976
5527,-0.0060760593
5528,0.007939222
5529,0.05079575
5530,0.05943791
5531,0.061503515
5532,0.021866579
5533,-0.0012650552
5534,-0.048946608
5535,-0.120910354
5536,0.027550776
5537,-0.07636798
5538,0.033583645
5539,-0.004314915
5540,-0.03985369
5541,0.04553838
5542,-0.080644056
5543,0.023132602
5544,-0.03132813
5545,-0.020994097
5546,-0.0072050528
5547,0.022120023
5548,-0.084219895
5549,0.03840183
5550,-0.035684973
5551,-0.002856793
5552,-0.0065712733
5553,-0.004119088
5554,0.066838615
5555,-0.054473605
5556,0.04216804
5557,-0.08003159
5558,-0.031638995
5559,-0.07211921
5560,0.04963251
5561,0.027815787
5562,-0.002429817
5563,0.006682192
5564,0.018126035
5565,-0.008853327
5566,0.019854952
5567,-0.02561776
5568,-0.0849089
5569,-0.0043799677
5570,-0.05414197
5571,0.030225746
5572,0.06399844
5573,-0.064510874
5574,-0.00988792
5575,-0.10077283
5576,-0.013621429
5577,0.020021068
5578,-0.054073345
5579,0.06314342
5580,0.064928494
5581,-0.13832054
5582,-0.11705756
5583,0.016458273
5584,0.0057023903
5585,0.009483448
5586,-0.031039217
5587,0.017697962
5588,-0.08168002
5589,-0.06339379
5590,-0.052772433
5591,0.042752173
5592,-0.04943209
5593,-0.0007848679
5594,-0.15053599
5595,-0.14660226
5596,-0.018445507
5597,0.015346873
5598,0.04352702
5599,-0.012746302
5600,0.005522354
5601,0.092300765
5602,0.0019692865
5603,0.021059103
5604,0.03343565
5605,-0.01686235
5606,0.06985837
5607,-0.14732002
5608,-0.0131901605
5609,-0.12086624
5610,-0.037250485
5611,0.017045759
5612,0.032486703
5613,0.045072682
5614,-0.0049694004
5615,0.029155096
5616,0.0619353
5617,0.04416074
5618,0.018967876
5619,0.053978104
5620,-0.06300618
5621,0.016637312
5622,0.013207934
5623,-0.069528155
5624,-0.021601718
5625,-0.09789212
5626,-0.056064155
5627,0.0073123453
5628,0.012545722
5629,0.018360935
5630,0.03785199
5631,-0.186086
5632,-0.023947956
5633,-0.058965262
5634,0.041447256
5635,-0.033429638
5636,0.003964713
5637,-0.0033862828
5638,0.05051055
5639,0.057982426
5640,-0.038493626
5641,-0.050134536
5642,-0.04363515
5643,0.030189991
5644,-0.060678642
5645,-0.038868964
5646,0.04724169
5647,-0.055218607
5648,-0.048108637
5649,0.009206396
5650,0.03820472
5651,0.11405648
5652,-0.022555549
5653,0.11336494
5654,0.03786744
5655,-0.0011759904
5656,-0.0013615206
5657,0.07866969
5658,0.006804643
5659,0.018871477
5660,-0.009465164
5661,0.051071927
5662,0.017603777
5663,0.010241955
5664,0.0015435207
5665,-0.027224384
5666,0.14318676
5667,0.0047155553
5668,-0.049150463
5669,-0.038336974
5670,0.075844824
5671,0.007876408
5672,-0.046495896
5673,-0.047658704
5674,0.003346514
5675,0.022046356
5676,-0.039019734
5677,-0.006749411
5678,-0.049104366
5679,0.002329298
5680,-0.012386689
5681,-0.0010493092
5682,0.065352865
5683,0.049947523
5684,0.049461108
5685,0.03330296
5686,-0.025395047
5687,0.10797637
5688,0.08060219
5689,0.12836422
5690,0.041892666
5691,-0.029974869
5692,-0.0021396675
5693,0.040495068
5694,-0.021676034
5695,-0.07171219
5696,-0.061481208
5697,0.0017123335
5698,-0.054424513
5699,-0.011821844
5700,-0.07007924
5701,-0.0637822
5702,-0.044986445
5703,0.018859893
5704,0.02449705
5705,0.0023963111
5706,-0.0042529623
5707,0.020945031
5708,-0.058097113
5709,0.01546621
5710,0.023386275
5711,0.05839104
5712,-0.0068562324
5713,-0.04599226
5714,-0.017886413
5715,0.050283562
5716,-0.013608957
5717,-0.0003056776
5718,0.009409327
5719,0.056927066
5720,-0.05783715
5721,-0.060095515
5722,-0.0015967739
5723,0.022180669
5724,-0.08197764
5725,-0.010646717
5726,-0.035735574
5727,0.011212835
5728,-0.039082687
5729,0.08709287
5730,0.0064313323
5731,-0.049368594
5732,-0.0135738
5733,0.03750679
5734,0.02352255
5735,0.02111357
5736,-0.031860515
5737,-0.0040424606
5738,0.007593678
5739,-0.027468594
5740,-0.00077431026
5741,0.13916844
5742,-0.003769252
5743,-0.050186317
5744,-0.046115104
5745,-0.06580462
5746,-0.03610494
5747,0.023383072
5748,0.0053691585
5749,-0.01575423
5750,-0.015977142
5751,0.054434955
5752,-0.011694111
5753,-0.0071214624
5754,0.06566325
5755,-0.02349348
5756,-0.022417486
5757,-0.0437075
5758,-0.002677539
5759,-0.049207997
5760,-6.253e-05
5761,0.052093614
5762,0.04600976
5763,-0.014363923
5764,0.0022266074
5765,-0.05522115
5766,0.030357748
5767,0.040384058
5768,-0.023226095
5769,0.051773414
5770,-0.039289683
5771,-0.039840937
5772,-0.023921452
5773,-0.041582145
5774,-0.04665976
5775,0.10042835
5776,-0.009078628
5777,-0.07633121
5778,0.033002574
5779,-0.12087724
5780,-0.013273939
5781,-0.023847355
5782,-0.069417626
5783,0.07901402
5784,-0.037860945
5785,0.019192968
5786,-0.030220648
5787,0.07346295
5788,0.025508065
5789,0.007361562
5790,-0.07112859
5791,-0.15553014
5792,-0.051410966
5793,0.046719395
5794,-0.013817928
5795,-0.008734439
5796,-0.018001875
5797,-0.048829425
5798,-0.09694106
5799,-0.004976334
5800,-0.055186287
5801,0.06832513
5802,0.08975575
5803,-0.22833434
5804,0.043323956
5805,0.113533996
5806,0.09046649
5807,0.0393874
5808,0.021026177
5809,-0.011270098
5810,0.07124296
5811,-0.023127327
5812,0.034628347
5813,0.048875775
5814,-0.010636212
5815,-0.117824666
5816,0.06659482
5817,-0.019762913
5818,0.008056214
5819,0.1058415
5820,-0.004916262
5821,0.02161804
5822,0.025143877
5823,0.07229294
5824,-0.12739065
5825,0.1255333
5826,0.04827939
5827,-0.01381534
5828,-0.039037153
5829,0.10323649
5830,0.026192894
5831,-0.15300377
5832,0.060820494
5833,-0.024405658
5834,0.015840227
5835,0.010049147
5836,0.016523747
5837,-0.2542547
5838,-0.020224482
5839,-0.030621622
5840,0.066099055
5841,0.049491044
5842,-0.0004872449
5843,-0.15579334
5844,0.0704944
5845,-0.07786521
5846,-0.015154719
5847,0.025959924
5848,-0.021083364
5849,0.0443524
5850,0.088802926
5851,-0.066047475
5852,0.0982098
5853,0.0017263689
5854,-0.028635273
5855,-0.015526503
5856,0.04355495
5857,-0.047364976
5858,0.04721816
5859,-0.050973676
5860,-0.0238117
5861,-0.027663145
5862,0.055561844
5863,0.02544666
5864,0.07388061
