Sno,Weight
0,0.005246883
1,-0.015369838
2,-0.008045367
3,-0.0023909272
4,0.0044024102
5,0.0045803534
6,-0.001266655
7,0.008988374
8,0.013438785
9,-0.0035053883
10,0.015045435
11,-0.0015637091
12,-0.0170685
13,-0.0047508697
14,-0.003182206
15,-0.0016495326
16,0.005336915
17,-0.0007897135
18,-0.0070359344
19,3.2218682e-05
20,-0.0036628
21,0.012604486
22,0.01092026
23,0.00615288
24,0.008272027
25,-0.016012087
26,-0.0025737074
27,0.006370151
28,0.010669531
29,-0.008833298
30,-0.0022577092
31,-0.0072510634
32,-0.017727664
33,0.01723158
34,-0.010704428
35,0.006513022
36,0.0047894586
37,-0.015938282
38,0.010173435
39,-0.0043809484
40,-0.0015718048
41,0.015335575
42,0.0039623356
43,0.0060955975
44,0.0036512362
45,0.010442993
46,-0.0062127677
47,-0.0026007378
48,0.0020690977
49,0.006849356
50,0.0027506573
51,-0.003821918
52,0.013417315
53,0.0119056245
54,-0.010183709
55,0.016707804
56,-0.0058669094
57,-0.009782749
58,-0.0076073515
59,0.0034019232
60,-0.0037394026
61,-0.0040997486
62,-0.0025607112
63,0.014903119
64,0.0060921893
65,-0.0062078475
66,0.014474461
67,0.0024737685
68,0.005430155
69,-3.8974835e-05
70,-0.0040407605
71,-0.0027782733
72,0.0055084033
73,-0.0031061855
74,-0.0017264651
75,0.0016962566
76,0.0038606047
77,0.0049449266
78,0.008400419
79,0.0035293966
80,0.0036524683
81,-9.721664e-05
82,0.007876781
83,-0.0011376071
84,0.0046763243
85,0.006419477
86,-0.005132591
87,-0.009960903
88,-0.015103921
89,-0.0035984875
90,0.0036723053
91,-0.010165874
92,0.002481623
93,0.0058138417
94,0.018770758
95,0.010980905
96,0.011355042
97,-0.0064454027
98,0.0016548285
99,0.008937402
100,0.012908384
101,-0.0096421875
102,0.0040953835
103,0.0067788125
104,-0.00080227153
105,-0.0054601408
106,-0.016718408
107,0.0014719313
108,-0.015655454
109,0.007252301
110,0.011246245
111,-0.007876208
112,0.005285526
113,0.010706323
114,0.006039502
115,-0.001802916
116,0.0072788363
117,-0.0032700642
118,-0.0009167706
119,-0.0031174906
120,0.0069939913
121,0.012285816
122,0.0034821092
123,0.012190718
124,-0.0051988964
125,0.0053121047
126,0.004457327
127,-0.017474413
128,-0.004109074
129,-0.008917711
130,0.013268519
131,-0.0114628235
132,0.0041513816
133,0.0036405344
134,0.0008221826
135,-0.001300053
136,-0.0075855656
137,-0.019242167
138,-0.0015500613
139,-0.001376018
140,0.010232615
141,-0.0050092707
142,-0.013583572
143,0.008110739
144,-0.0016074479
145,-0.006010912
146,-0.0021484233
147,0.0048432653
148,0.018321496
149,-0.0033904775
150,0.005949356
151,0.0038775632
152,-0.012710835
153,-0.0042390507
154,0.0009911061
155,0.0010656021
156,-0.012810209
157,0.009293861
158,-0.0107260775
159,-0.011677608
160,0.0028123055
161,-0.006663903
162,-0.005358308
163,0.009615547
164,0.010135694
165,-0.00430956
166,-0.011108461
167,0.0060847886
168,-0.012500684
169,-0.009643444
170,0.0002915974
171,0.0064524636
172,0.0021176678
173,0.008225149
174,0.0050650625
175,-0.009413758
176,0.009937736
177,-0.00913449
178,-0.014331801
179,0.0006272034
180,-0.012828911
181,-0.01642369
182,0.01648166
183,-0.00706553
184,-0.0008791108
185,0.01587304
186,-0.013116663
187,7.5908315e-06
188,-0.0035399962
189,0.010084493
190,0.006223886
191,-0.004784625
192,0.00033491603
193,0.011947289
194,-0.0059457733
195,0.017150773
196,-0.009923541
197,-0.0022950738
198,0.01208347
199,0.0012539636
200,1.3493341e-05
201,-0.0073147765
202,0.0033202888
203,0.003148061
204,-0.00013030792
205,0.0071961726
206,-0.004733745
207,0.0040283306
208,0.016106132
209,-0.01276753
210,-0.008202046
211,0.005632348
212,0.006436849
213,-0.00036572563
214,-0.012424206
215,-0.010313055
216,-0.00041057554
217,0.0021099763
218,-0.0024629892
219,0.009753536
220,0.007358394
221,-0.00046609418
222,0.004429098
223,-0.01027951
224,0.009625844
225,-0.014694517
226,-0.012202206
227,0.012725588
228,-0.0066544856
229,0.0034837772
230,-0.0066054394
231,-0.01854088
232,-0.001927792
233,0.005993185
234,-0.0016985849
235,-0.00092621567
236,0.0046086144
237,0.0036977215
238,-0.01893937
239,0.009939817
240,-0.012843988
241,-0.008313049
242,-0.0023084108
243,0.0029565329
244,-0.0016260318
245,-0.008374532
246,-0.001300182
247,-0.001856357
248,0.0020704619
249,0.017334383
250,0.010941088
251,-0.00061322085
252,-0.01784671
253,-0.010753031
254,0.010145389
255,-0.0019500495
256,0.0102270795
257,0.007832579
258,0.0013982133
259,-0.0053539365
260,0.0022258183
261,0.008178906
262,0.0037720746
263,-0.013611853
264,-0.015110408
265,-0.019238444
266,0.0018592736
267,0.013183772
268,0.0030042445
269,-0.0012787625
270,0.008580131
271,-0.0109712565
272,0.0036562763
273,-0.008489194
274,0.0042510065
275,0.0017841198
276,0.011904502
277,0.014398227
278,-0.0043038866
279,0.0031353438
280,-0.0037409156
281,0.019277895
282,0.0094579365
283,-0.011148669
284,-0.0034115382
285,0.007156616
286,-0.0012967401
287,0.010058253
288,-0.0020074006
289,-0.007887833
290,-0.015696289
291,-0.0049480684
292,7.241415e-05
293,0.00095061207
294,-0.008739031
295,-0.006071076
296,-0.011772265
297,-0.001045845
298,-0.007527781
299,-0.0045433594
300,0.012195144
301,0.010344093
302,0.0007192864
303,-0.0129947625
304,0.002509134
305,-0.0023294503
306,0.011081605
307,-0.010778217
308,-0.0071882666
309,0.0068733846
310,-0.0030869094
311,0.0020985622
312,0.014431035
313,0.008217926
314,0.003875717
315,-0.0019274148
316,0.00047408437
317,-0.008107542
318,-0.0016246823
319,0.005100503
320,-0.004255309
321,0.0014780185
322,-0.008523703
323,0.0053205914
324,0.0010892199
325,0.004434941
326,0.018096764
327,-0.0053497558
328,0.00591612
329,0.005248672
330,-0.007774418
331,-0.016447114
332,-0.018041994
333,-0.013407434
334,0.00715924
335,-0.008743596
336,-0.010907009
337,-0.004960381
338,0.017626349
339,0.0043114927
340,0.017933143
341,-0.0020759455
342,0.0055477503
343,-0.005048216
344,0.0008452592
345,-0.009843396
346,0.014217101
347,0.00011139386
348,-0.005618873
349,0.008384869
350,0.00789789
351,-0.015981473
352,-0.009782872
353,-0.007872476
354,0.001359898
355,0.010078764
356,-0.0013608435
357,0.010433991
358,-0.009371001
359,-0.005955183
360,0.008836791
361,-0.0037968347
362,0.00409061
363,0.019732485
364,0.0048084194
365,0.007791473
366,-0.013053034
367,0.006608521
368,-0.0060862387
369,0.0028937268
370,-0.005007533
371,-0.0072055906
372,-0.014721523
373,0.012180291
374,-5.3721848e-05
375,0.0058103628
376,-0.009091612
377,-0.0055894367
378,0.0027841942
379,-0.0022212397
380,0.016485529
381,0.009998473
382,-0.0024240613
383,-0.003596837
384,-0.006675016
385,-0.0011873684
386,0.003938863
387,-0.00835575
388,0.0023329922
389,-0.00903508
390,0.009934416
391,-0.0014952612
392,-0.0012577543
393,-0.011639668
394,-0.006328312
395,0.010430696
396,0.011757488
397,0.010788371
398,0.011515832
399,0.0027800624
400,-0.00619471
401,-0.0006193979
402,0.002843545
403,0.0063982396
404,0.013200433
405,0.010784572
406,-0.002238557
407,-0.011646863
408,0.006714851
409,-0.001556029
410,-0.0069363546
411,0.0015491882
412,0.0014133577
413,0.010656427
414,-0.0010919856
415,0.0047602174
416,-0.00042831252
417,-0.0014003047
418,0.008053115
419,0.013617935
420,0.005047876
421,-0.0019822821
422,0.012693623
423,-7.2100964e-05
424,0.0055738436
425,0.0035204738
426,-0.0044019613
427,-0.0021094882
428,0.013435193
429,0.010045525
430,0.0018555081
431,0.0027337112
432,-0.0132297445
433,0.010705877
434,0.0026205326
435,0.011188267
436,-0.0044417083
437,0.0011759109
438,0.0034761967
439,-0.0037649937
440,-0.0053836317
441,-0.005802003
442,0.00045947908
443,-0.013784115
444,-0.0055049723
445,0.008216638
446,0.009218115
447,-0.008896014
448,0.010542267
449,-0.013212426
450,0.009880973
451,0.0083322
452,-0.0095082475
453,0.0038684194
454,0.015037423
455,-0.0042989785
456,-0.010245217
457,-0.008998142
458,-0.015421995
459,-0.0042505846
460,-0.0037282752
461,0.007142233
462,-0.0080358945
463,0.0013688814
464,0.0008669309
465,-0.0024617533
466,-0.0032273233
467,0.009137446
468,-0.00039919824
469,-0.0054631676
470,-0.0064317966
471,0.011416416
472,-0.012453898
473,0.0065388046
474,0.019638456
475,-0.002256639
476,-0.0013469141
477,0.013335498
478,-0.0015460824
479,0.013111643
480,0.00446241
481,0.007422954
482,-0.007188761
483,-0.012387347
484,0.010004808
485,0.0016443321
486,0.0074893166
487,0.0041668597
488,-0.016918471
489,0.0013612267
490,-0.0065427343
491,0.0036815763
492,0.0035294485
493,0.003850854
494,0.0072040567
495,-0.004964266
496,-0.0012358357
497,-0.008515722
498,0.0022831585
499,0.0065881223
500,0.015687332
501,0.0036462974
502,-0.011282865
503,0.0012540753
504,0.0030854996
505,-0.002718789
506,-0.0048675197
507,0.0028477171
508,0.012250812
509,-0.012074587
510,-0.007852899
511,-0.0115762055
512,-0.008223133
513,0.01105085
514,-0.0076877344
515,-0.0068379
516,0.009373267
517,0.013806309
518,-0.007689351
519,0.0036237224
520,0.009200873
521,-0.004047947
522,0.0029661627
523,-0.008066581
524,-0.008630965
525,-0.017420836
526,-0.0019413895
527,-0.0075770463
528,0.004017947
529,-0.015030404
530,-0.0005923453
531,-0.01345575
532,0.0048316303
533,-0.0012304522
534,-0.002847761
535,0.017848311
536,0.009255041
537,-0.0062466655
538,-0.00181585
539,-0.006346212
540,-0.0036859445
541,0.0060569947
542,-0.0069358046
543,0.0010720509
544,-0.01627848
545,0.01480302
546,-0.0035666153
547,0.002753701
548,0.016505508
549,-0.013885317
550,-0.010269675
551,-0.003398735
552,-0.0010562212
553,-0.010406777
554,0.011208489
555,0.0011395428
556,-0.018039994
557,0.017116623
558,-0.0039957184
559,0.010107026
560,-0.009834376
561,-0.001897234
562,-0.011117143
563,0.004723655
564,-0.008952162
565,-0.012912851
566,-0.011469211
567,-0.0034696467
568,0.013080643
569,0.012466415
570,-0.009205248
571,0.00048407062
572,0.0036052435
573,0.009141983
574,-0.006489868
575,-0.00027544532
576,-0.0052128914
577,-0.009603953
578,-0.0072679985
579,0.0062675914
580,-0.006774339
581,0.0027975813
582,0.015371418
583,-0.00039724613
584,0.004755784
585,-0.0030244312
586,-0.0037719507
587,-0.0033412417
588,0.015067529
589,-0.012435747
590,0.0061071324
591,0.0016113942
592,0.0043672244
593,-0.008496311
594,-0.0033345611
595,-0.013432769
596,0.00524685
597,-0.005332606
598,-0.00048842933
599,-0.008015051
600,0.012660164
601,-0.0075474414
602,-0.012909323
603,0.00025988612
604,-0.00094767625
605,-0.010390283
606,-0.012894286
607,0.011250708
608,-0.00013427541
609,0.0047129155
610,-0.008439471
611,-0.015568879
612,-0.017748851
613,0.010832865
614,-0.011272644
615,0.012829532
616,0.0012368227
617,0.0027762803
618,0.0024036001
619,0.0009802959
620,-0.005423346
621,0.009057797
622,-0.0069880965
623,-0.0040985625
624,-0.016479125
625,-6.530627e-05
626,-0.0001416417
627,-0.0013145836
628,0.0035850725
629,-0.014409714
630,0.003674875
631,-0.00055586745
632,-0.013888414
633,0.01684429
634,0.0066855056
635,0.00064324297
636,0.012525952
637,-0.019743064
638,-0.011883497
639,0.0025473256
640,0.013977109
641,0.001212809
642,-0.013774585
643,-0.0034606666
644,0.017475113
645,0.01064261
646,0.009887106
647,-0.011476977
648,-0.0025303448
649,-0.0018187711
650,0.0008240684
651,-0.0009121672
652,-0.0056360876
653,0.0026685996
654,-0.005422954
655,-0.012163989
656,0.007164356
657,-0.015922556
658,-0.0038234876
659,-0.010793379
660,0.004152402
661,0.00028575462
662,-0.002110399
663,-0.0006145036
664,6.361648e-05
665,0.0024183607
666,-0.0064888555
667,0.013975198
668,-0.000815056
669,-0.012046011
670,0.001407417
671,-0.0026887932
672,-0.0076351813
673,-0.01517995
674,-0.005816229
675,-0.0026122495
676,0.017922292
677,-0.01141298
678,-0.018242938
679,-0.0020354951
680,0.0069130133
681,0.005047891
682,0.002846809
683,0.0081974035
684,0.0044610533
685,-0.0044720564
686,-0.008866285
687,-0.004442379
688,-0.0019573634
689,0.0072814487
690,0.017035844
691,0.011941972
692,0.0036061716
693,0.0011608871
694,0.002881899
695,-0.002911263
696,-0.003012778
697,0.0037069735
698,0.0026718068
699,-0.012928751
700,-0.0018784199
701,0.011886718
702,0.011197711
703,-0.0024093722
704,-0.0017357009
705,0.013583617
706,-0.0069232364
707,0.015453758
708,-0.019804116
709,-0.008269653
710,-0.0011161481
711,0.013424895
712,0.001447504
713,-0.0022474078
714,0.00043759152
715,-0.0016541819
716,-2.6075788e-05
717,0.00088936277
718,-0.009734813
719,-0.009333028
720,-0.011411737
721,0.0061008665
722,0.007863836
723,0.0009203057
724,0.0028105294
725,0.019436104
726,0.004049024
727,-0.001937935
728,0.004076717
729,0.003400329
730,0.005222846
731,0.013443611
732,-0.0046308045
733,0.01877651
734,-0.0051164534
735,-0.0069637285
736,0.007315032
737,0.0013057594
738,-0.010709435
739,-0.00792212
740,0.00781887
741,0.0041872314
742,0.008676443
743,0.00082600984
744,0.011947219
745,0.002952
746,-0.006751623
747,-0.0102705555
748,-0.0020845707
749,-0.0005452337
750,0.004154527
751,-0.006700874
752,0.0039664186
753,-0.0052396306
754,0.0054932083
755,-0.0043929243
756,-0.015310604
757,0.0008578568
758,-0.008900554
759,0.011619
760,-0.0047616167
761,0.004202645
762,-0.008715368
763,-0.008167783
764,-0.005170541
765,-0.012535302
766,-0.007965208
767,0.005810695
768,0.009522054
769,-0.0006748323
770,-0.01823323
771,-0.0043342425
772,0.0016666463
773,0.0051078396
774,0.010101064
775,0.017425368
776,0.015096651
777,0.005366087
778,-0.0024109778
779,-0.002466274
780,-0.0042656614
781,-0.006307778
782,-0.0035209358
783,-0.00081496994
784,-0.0040767626
785,-0.00070413854
786,-0.012390359
787,-0.0091776345
788,0.009762573
789,-0.011763873
790,-0.010814124
791,-0.0063951113
792,-0.011716218
793,-0.0020028779
794,-0.005155277
795,-0.019595956
796,0.019964594
797,0.011727679
798,-0.0060327784
799,0.010001371
800,-0.006587104
801,-0.0024448857
802,0.011051719
803,-0.0059975935
804,0.008671281
805,-0.005019621
806,0.0045987694
807,-0.0039628344
808,0.0048884973
809,-0.006548412
810,-0.0073286765
811,-0.004510994
812,-0.0031267211
813,-0.003902372
814,0.008482115
815,-0.004357189
816,0.003298244
817,-0.0071585556
818,0.009223123
819,0.0046091247
820,0.014392008
821,0.003645465
822,-0.0050985767
823,0.01547087
824,0.010409593
825,0.0038081936
826,0.0019097946
827,0.0074096755
828,-0.013581906
829,-0.012035519
830,0.012275629
831,0.009537462
832,-0.006307859
833,-0.0045916736
834,-0.0074850293
835,-0.009212448
836,0.0031116265
837,0.0055092573
838,0.011768991
839,-0.0066335304
840,0.0084975865
841,-0.0032284667
842,-0.00044560354
843,-0.0059221564
844,-0.00805805
845,-0.0062723896
846,-0.0019534973
847,0.015370456
848,0.0016990826
849,0.0031432852
850,-0.0025297382
851,0.01714219
852,-0.012689149
853,0.015579731
854,0.0010701643
855,0.008685469
856,-0.01411451
857,0.0051520583
858,-0.016566604
859,-0.011841518
860,-0.0008038495
861,0.009554879
862,-0.013156956
863,0.00085168023
864,-0.002446197
865,0.0084236255
866,-0.008989153
867,-0.0075776386
868,0.013883722
869,-0.0014296826
870,-0.0010134247
871,-0.0057385266
872,-0.0023838673
873,-0.012596496
874,-0.00064065726
875,0.0063084336
876,-0.010198074
877,0.0032142326
878,0.0051825573
879,0.012613854
880,0.0035576336
881,0.002435465
882,-0.013486991
883,-0.0065363203
884,-0.018643754
885,-0.012696851
886,-0.00476231
887,0.00024700415
888,0.0059527936
889,0.00036784724
890,-0.006286226
891,-0.012937948
892,0.008222784
893,-0.006075096
894,-0.006855632
895,0.0108208
896,0.001928205
897,-0.0025020035
898,0.0030613795
899,0.0030938394
900,-0.004745312
901,0.009137555
902,-0.010214784
903,0.0017864549
904,0.009687041
905,-0.005223571
906,0.0025489843
907,-0.0054943073
908,0.009753052
909,0.0029784564
910,0.012888216
911,0.009523228
912,0.0055195373
913,-0.0072509088
914,-0.0047658505
915,0.014174296
916,-0.00528202
917,-0.0010510356
918,-0.00056295167
919,0.00827663
920,0.008188849
921,0.018229604
922,-0.012795735
923,-0.0015701022
924,-0.011492004
925,0.008956436
926,-0.014797454
927,-0.0092500625
928,-0.0038470528
929,0.006516699
930,0.016645838
931,0.0023866026
932,-0.009038876
933,0.0017963982
934,0.0011069896
935,0.0058785416
936,0.011637529
937,0.008064346
938,0.010768898
939,0.008411834
940,0.0069442093
941,0.0022762916
942,-0.001769835
943,-0.0011207837
944,0.0071455734
945,0.00474527
946,-0.016729994
947,0.0009668957
948,0.0029754115
949,0.004262499
950,0.0031246922
951,0.014286345
952,0.004632362
953,0.006912534
954,0.006542404
955,-0.003636816
956,-0.0112455245
957,-0.0031963813
958,-0.0028313554
959,-0.016303454
960,0.005203707
961,-0.0025525044
962,-0.012954444
963,0.001997798
964,-0.012870231
965,-0.009499475
966,0.0016218574
967,0.012428914
968,-0.0063860407
969,-0.009982612
970,-0.0016813489
971,-0.013715766
972,-0.0051510185
973,0.015538951
974,0.010155507
975,0.007980707
976,-0.0038019856
977,0.0055528935
978,0.014063701
979,-0.0029963027
980,0.005802019
981,0.010511277
982,0.008646991
983,-0.004392697
984,-0.013480818
985,0.014162802
986,-0.008208135
987,-0.0092773335
988,0.0043666884
989,-0.0021399374
990,-0.010831277
991,-0.0029985013
992,-0.010362572
993,-0.0028777504
994,0.0013547328
995,-0.016657256
996,0.01417946
997,0.005261194
998,0.003983808
999,0.0044775573
1000,0.0049108295
1001,0.000555378
1002,-0.0119592175
1003,0.007958482
1004,0.013286652
1005,0.00040715054
1006,0.007921315
1007,0.014677229
1008,0.010858231
1009,-0.011792448
1010,0.009261254
1011,0.004669949
1012,-0.011090949
1013,0.0031254366
1014,0.013470072
1015,-0.009853213
1016,-0.007050833
1017,-0.008087563
1018,-0.00052421226
1019,-0.014959778
1020,0.007493167
1021,-0.010868562
1022,-0.009917665
1023,-0.011601018
1024,0.0037954743
1025,0.0022321183
1026,0.00034663914
1027,-0.010153062
1028,-0.0052077733
1029,-0.003750465
1030,-0.0031028548
1031,-0.0021008882
1032,-0.003948252
1033,0.009007774
1034,0.004827051
1035,0.000673601
1036,0.0055234684
1037,0.019596
1038,-0.0114700375
1039,0.011495392
1040,0.013499722
1041,0.009294159
1042,-0.008874894
1043,-0.0007730438
1044,-0.0044934466
1045,0.011178071
1046,0.012439346
1047,0.0095126275
1048,0.009807425
1049,0.009365071
1050,-0.0022807915
1051,0.0050513395
1052,-0.00898928
1053,-0.01450491
1054,-0.004141864
1055,-0.0025554853
1056,-0.007264246
1057,-0.017537942
1058,0.008133329
1059,0.0050704363
1060,-0.00020141396
1061,-0.009752236
1062,-0.0054280725
1063,-0.0026451168
1064,0.018388104
1065,-0.01994257
1066,-0.017479364
1067,0.015290549
1068,-0.0021597852
1069,-0.0026439384
1070,0.0034435645
1071,-0.0054191425
1072,0.007969101
1073,-0.003776105
1074,-0.0035344006
1075,-0.010285221
1076,0.0044795265
1077,-0.00157562
1078,-0.015088624
1079,-0.006520187
1080,0.0028000593
1081,0.0022925413
1082,0.009142462
1083,-0.005525106
1084,-0.0029492928
1085,-0.015350467
1086,-0.0023477843
1087,-0.0030463496
1088,-0.004246699
1089,0.008741766
1090,0.0016968631
1091,0.0052196793
1092,-0.0033284912
1093,0.010953353
1094,-0.015095904
1095,-0.005212946
1096,-0.010357015
1097,-0.014732193
1098,-0.012470905
1099,0.019547436
1100,0.013936834
1101,0.00023966227
1102,0.015133143
1103,-0.0020683792
1104,-0.019519698
1105,0.0005094251
1106,-0.0057050544
1107,0.002372824
1108,0.014412662
1109,-0.009250672
1110,0.0021269096
1111,-0.013458402
1112,-0.010010499
1113,0.0010305471
1114,-0.006738887
1115,-0.008267882
1116,-0.005501199
1117,-0.0049008685
1118,0.017497653
1119,0.016407086
1120,0.014553096
1121,0.012372242
1122,0.0006231674
1123,-0.0049596154
1124,0.0010295655
1125,-0.010099933
1126,-0.0009426412
1127,-0.013467358
1128,-0.018383272
1129,-0.0015241528
1130,0.008685952
1131,0.012535897
1132,0.0008365126
1133,-0.0016148922
1134,0.017612293
1135,0.004725152
1136,0.017813057
1137,0.0009820835
1138,0.01318832
1139,0.012275489
1140,0.0014468558
1141,-0.0034771005
1142,-0.009905966
1143,-0.004314146
1144,0.008335843
1145,0.00035835014
1146,0.0032606055
1147,0.00026650692
1148,-0.00078175147
1149,0.0025231373
1150,0.00095737056
1151,-0.013593965
1152,0.01334761
1153,-0.012436491
1154,0.015571051
1155,-0.010238268
1156,-0.003834783
1157,0.0019248752
1158,0.0069370805
1159,0.00897291
1160,0.007067996
1161,-0.008628699
1162,0.005210742
1163,0.00093587005
1164,0.008426584
1165,0.003430063
1166,0.012861745
1167,0.007574369
1168,3.020185e-05
1169,0.0010731994
1170,-0.012686083
1171,0.0040331073
1172,-0.00076361134
1173,-0.00016845592
1174,-0.0105845
1175,-0.0022302452
1176,0.013019158
1177,-0.006779685
1178,-0.0069748405
1179,-0.0038332404
1180,-0.016552279
1181,-0.002025362
1182,-0.0035104388
1183,0.012325975
1184,0.0064025414
1185,0.009847662
1186,-0.0022918163
1187,0.00212495
1188,-0.0062761568
1189,-0.00030903358
1190,0.00206005
1191,-0.0005083881
1192,-0.0016440736
1193,-0.0017400397
1194,-0.01511106
1195,-0.007871405
1196,0.00783955
1197,0.016199008
1198,0.00056443556
1199,0.014717014
1200,-0.0069746138
1201,-0.0050837593
1202,-0.00783546
1203,-0.0048198164
1204,-0.0031401715
1205,0.0042124228
1206,0.012266345
1207,-0.0042275977
1208,0.009416038
1209,-0.012491375
1210,-0.007683557
1211,-0.0038940313
1212,0.0059368573
1213,0.019192887
1214,-0.0011937136
1215,0.0035406863
1216,-0.0144912135
1217,0.014248179
1218,-0.015578148
1219,-0.006569226
1220,-0.004849489
1221,0.007594526
1222,0.00016563977
1223,-0.008291012
1224,0.0047371816
1225,-0.0010144756
1226,-0.0012057329
1227,0.0041053896
1228,-0.0024224345
1229,0.00500741
1230,-0.008934153
1231,-0.006130182
1232,-0.0005908484
1233,0.003928368
1234,-0.013536441
1235,-0.0023926995
1236,0.0068204347
1237,-0.013681261
1238,0.0025381558
1239,-0.0106166955
1240,-0.011719414
1241,0.009906681
1242,0.010490568
1243,-0.009385674
1244,-0.00060469535
1245,0.011300211
1246,0.00072652765
1247,0.00922207
1248,0.011701579
1249,0.0035732377
1250,0.0069094966
1251,0.009430878
1252,0.00846647
1253,-0.013953311
1254,0.005142101
1255,0.0007047339
1256,-0.006016394
1257,0.011687901
1258,-0.010322323
1259,0.0039973296
1260,-0.0053074947
1261,0.0010987244
1262,-0.004064558
1263,0.013654311
1264,-0.00096466136
1265,-0.0029641052
1266,0.014279754
1267,-0.0036858795
1268,-0.0026339833
1269,0.0029292472
1270,0.0030773578
1271,0.0004186227
1272,-0.008615345
1273,0.0118703805
1274,-0.0053427606
1275,0.003574803
1276,-0.009331975
1277,-0.0028900458
1278,0.0031930269
1279,-0.002411516
1280,-0.0020705156
1281,0.008529906
1282,0.008481691
1283,-0.0061346986
1284,-0.0032818913
1285,-0.004864152
1286,0.008148642
1287,-0.003876032
1288,-0.013581042
1289,-0.010019413
1290,-0.008196387
1291,-0.0069358563
1292,0.00700758
1293,0.01545019
1294,0.010179481
1295,0.011902248
1296,-0.004136873
1297,0.00937844
1298,-0.015364895
1299,0.013900656
1300,0.0150546115
1301,0.004528117
1302,0.010784422
1303,-0.00019378873
1304,0.009347989
1305,-0.012443698
1306,-0.0058698854
1307,-0.002637101
1308,-0.005910947
1309,0.008492171
1310,-0.0026285169
1311,0.0029890472
1312,0.015265768
1313,0.002800732
1314,0.00757386
1315,0.010601991
1316,-0.0025637075
1317,-0.0028726151
1318,0.013857765
1319,-0.008593146
1320,0.0003675688
1321,-0.006184687
1322,0.01551787
1323,0.00050478824
1324,-0.010280712
1325,0.0115471445
1326,0.006765649
1327,-0.010439222
1328,-0.010744186
1329,-0.011731162
1330,0.010530742
1331,0.0011569468
1332,-0.003848068
1333,0.005583232
1334,-0.01726732
1335,0.0072375434
1336,0.0024029543
1337,0.007864421
1338,-0.012639038
1339,-0.00073452934
1340,0.015678145
1341,-0.0078027677
1342,0.0066656964
1343,-0.0015117951
1344,-0.01198377
1345,-0.0055632573
1346,-0.010906584
1347,0.005448251
1348,0.008007569
1349,-0.0052606063
1350,-0.008593567
1351,-0.015005174
1352,0.017232466
1353,-0.013001559
1354,-0.010183846
1355,-0.0027043105
1356,0.015906155
1357,0.014139558
1358,0.004949921
1359,-0.004601944
1360,-0.004013429
1361,-0.013565515
1362,-0.00915867
1363,-0.016066592
1364,0.014672633
1365,-0.0059526097
1366,0.013285602
1367,0.00468255
1368,0.0057294657
1369,0.005332019
1370,-0.009798257
1371,-0.005900179
1372,0.0009306221
1373,0.004711744
1374,-0.00935997
1375,-0.0017067229
1376,0.0060109696
1377,0.013467412
1378,-0.008414677
1379,-0.017656406
1380,0.0070392457
1381,-0.0066796397
1382,-0.012947029
1383,0.0024203039
1384,-0.00036019238
1385,-0.015299015
1386,-0.0069955164
1387,-0.005727832
1388,0.0045716623
1389,-0.0091794375
1390,0.0025535002
1391,0.0035746566
1392,0.006054964
1393,0.009236821
1394,0.012939105
1395,0.0011203213
1396,-0.010410814
1397,-0.0013960784
1398,-0.005080755
1399,-0.0061899535
1400,-0.0047848457
1401,0.0055122706
1402,0.010473011
1403,0.012140063
1404,-0.013119602
1405,-0.0018169853
1406,0.007192318
1407,0.005506516
1408,-0.007616993
1409,-0.0035103778
1410,-0.00662353
1411,0.0018778461
1412,0.002577236
1413,0.0012789645
1414,-0.006730323
1415,-0.015609691
1416,0.0068707233
1417,-0.0024785865
1418,0.0055326847
1419,-0.0045845415
1420,-0.001600472
1421,0.004249739
1422,0.009721793
1423,0.005524336
1424,-0.0054665385
1425,-0.0011403844
1426,-0.009403484
1427,-0.011016954
1428,-0.00011828286
1429,-0.0036812543
1430,-0.009897991
1431,-0.004937476
1432,-0.006467975
1433,0.005082007
1434,0.003193763
1435,0.002629095
1436,-0.0010789011
1437,-0.0023634543
1438,0.0017125875
1439,0.006498595
1440,-0.001959704
1441,0.0104170395
1442,0.0069363145
1443,0.01369475
1444,0.0043146918
1445,-0.0033062254
1446,0.007584138
1447,-0.009300566
1448,0.0044691283
1449,0.006526831
1450,-0.004230402
1451,-0.009976399
1452,-0.008928782
1453,0.016539518
1454,0.011453033
1455,0.011603817
1456,-2.4082105e-05
1457,0.004016278
1458,-0.01220011
1459,0.002438525
1460,0.004270403
1461,-0.009462541
1462,0.0025618465
1463,0.011120742
1464,-0.0072177085
1465,0.0030768444
1466,0.006550623
1467,-0.0037575527
1468,0.010395127
1469,-0.008608388
1470,0.0063314233
1471,8.43285e-05
1472,-0.0154432915
1473,0.007876918
1474,-0.018182658
1475,-0.010146287
1476,0.010457674
1477,-0.011186759
1478,0.00062133354
1479,-0.0061797914
1480,0.014605289
1481,0.0071545676
1482,-0.010995491
1483,0.0042799884
1484,-0.0008262421
1485,-0.0068302103
1486,-0.0033957993
1487,0.014604732
1488,-0.01352644
1489,-0.006972302
1490,0.0019806088
1491,-0.00877353
1492,-0.00041434856
1493,0.00066484243
1494,-0.008453701
1495,0.00853872
1496,-0.010179611
1497,-0.0044226325
1498,-0.0072155776
1499,-0.008244563
1500,-0.008787487
1501,0.0034824377
1502,-0.0012988998
1503,0.006288036
1504,-0.014707648
1505,-0.0029320747
1506,0.015166939
1507,-0.0023231965
1508,-0.0033755146
1509,0.00024097184
1510,0.0013876442
1511,-0.0051881783
1512,-0.015363446
1513,-0.0011628196
1514,-0.008119582
1515,-0.0006924283
1516,0.0026468134
1517,0.00038943105
1518,0.0014261312
1519,-0.0059547406
1520,0.0038668548
1521,-0.010778595
1522,0.007156079
1523,0.0019272508
1524,0.0042740367
1525,0.010039483
1526,0.001976806
1527,-0.010310537
1528,0.010628458
1529,-0.010718027
1530,-0.018630246
1531,0.009434575
1532,-0.0058349213
1533,-0.007124386
1534,0.0009996062
1535,0.0009541639
1536,-0.016538266
1537,-0.009690676
1538,-0.010700192
1539,0.0028747367
1540,-0.010798157
1541,-0.012054852
1542,-0.00014910886
1543,-0.0070142583
1544,0.0023539301
1545,-0.0015060471
1546,0.0023713561
1547,-0.01069479
1548,0.0042068604
1549,-0.00097444054
1550,-0.019187106
1551,0.0021016374
1552,-0.007679734
1553,0.006523952
1554,-0.013798949
1555,0.0071392152
1556,0.008314324
1557,0.017181417
1558,-0.008112994
1559,-0.0069802157
1560,-0.0060154675
1561,0.0052702497
1562,0.010872799
1563,0.007836939
1564,0.004215975
1565,-0.01891578
1566,-0.0015465847
1567,-0.010712681
1568,-0.0155572975
1569,-0.00024578845
1570,-0.0014571678
1571,0.016291065
1572,-0.008003883
1573,-0.0033447829
1574,-0.002834537
1575,0.0015935133
1576,-0.0056249425
1577,0.002565478
1578,0.007944862
1579,-0.011442088
1580,-0.0046163662
1581,-0.009768321
1582,0.018831374
1583,0.007310783
1584,-0.0061612627
1585,0.0064428886
1586,0.0088931415
1587,0.0018952166
1588,-0.0070817173
1589,-0.003866195
1590,0.0017740169
1591,0.0038364178
1592,0.0024331056
1593,-0.015426793
1594,0.008661527
1595,0.007068629
1596,0.00901798
1597,-0.0050954353
1598,0.0109298825
1599,0.008272569
1600,-0.0030806805
1601,0.015163226
1602,-0.01397243
1603,-0.0053548897
1604,-0.013740518
1605,0.011951911
1606,-0.0049189683
1607,-0.01010616
1608,0.0027329465
1609,-0.007816504
1610,-0.0147258565
1611,0.0021565584
1612,0.009409596
1613,0.005470819
1614,-0.007095653
1615,-0.013057351
1616,-0.0018423996
1617,0.018625233
1618,-0.0030343418
1619,-0.007774319
1620,-0.006145616
1621,-0.003360132
1622,0.0019522136
1623,-0.009072357
1624,-0.0032295315
1625,0.008398369
1626,-0.007137668
1627,-0.0031342676
1628,0.0017579081
1629,0.014442812
1630,0.00085779204
1631,0.00777521
1632,-0.008262494
1633,-0.00416051
1634,-0.0064899963
1635,-0.0028315664
1636,-0.0004432524
1637,0.0115327705
1638,-0.009541197
1639,-0.008001749
1640,0.013053913
1641,0.010537043
1642,0.004049928
1643,0.00020043185
1644,0.0016064064
1645,0.002804799
1646,0.011782474
1647,0.011003406
1648,0.00075651635
1649,-0.0018033462
1650,-0.008628185
1651,-0.0003897803
1652,-0.011221247
1653,0.01509602
1654,0.012500262
1655,-0.0050713997
1656,-0.00882036
1657,-0.0028988114
1658,0.0017778848
1659,-0.0009266045
1660,-0.01916964
1661,0.0040961867
1662,-0.013129062
1663,0.007558621
1664,0.0020839663
1665,0.004503992
1666,-0.0060296366
1667,-0.016955175
1668,-0.009269154
1669,-0.0052317427
1670,-0.010454672
1671,0.00025711753
1672,0.0076085753
1673,0.013062937
1674,0.0019773298
1675,-0.0067332215
1676,0.006142032
1677,-0.00084334565
1678,-0.004322964
1679,0.008179135
1680,-0.0008242703
1681,0.017993387
1682,-0.0047904095
1683,-0.006501094
1684,-0.011189369
1685,0.019518899
1686,0.009505552
1687,-0.0070562935
1688,0.0011598758
1689,0.008859851
1690,-0.005612163
1691,0.0022289716
1692,-0.007203484
1693,-0.007162766
1694,0.01925293
1695,0.0011872277
1696,0.0041488
1697,0.005658082
1698,-0.015008697
1699,-0.009549699
1700,0.015732624
1701,-0.0048774467
1702,-0.011046704
1703,-0.0142183695
1704,-0.00017511431
1705,0.009773645
1706,0.013900997
1707,0.00015779126
1708,-0.011078215
1709,-0.00012867163
1710,-0.0112174805
1711,-0.005117986
1712,-0.0019285352
1713,-0.012147449
1714,0.018177602
1715,-0.009169674
1716,0.007912936
1717,0.010212218
1718,0.016458144
1719,0.0037081547
1720,0.012240594
1721,0.0015132896
1722,-0.0037116858
1723,0.0047476757
1724,0.0043959953
1725,-0.018236533
1726,-0.0009918716
1727,-0.0011955638
1728,0.004630973
1729,-0.000499998
1730,-0.008421804
1731,-0.008793032
1732,0.007063476
1733,0.00015524148
1734,0.0034532766
1735,-0.0047600246
1736,0.016256357
1737,-0.009472347
1738,-0.0047669252
1739,0.018409051
1740,0.0030619015
1741,-0.015087932
1742,0.00040164514
1743,0.003969702
1744,0.012108212
1745,-0.012430037
1746,0.004397689
1747,0.010324892
1748,0.0049088276
1749,-0.00028717078
1750,-0.0037296256
1751,-0.008071822
1752,-0.00040746905
1753,0.012192042
1754,0.0020329661
1755,0.010358533
1756,-0.0030116092
1757,0.006768817
1758,-0.012849513
1759,-0.0126091605
1760,0.008589245
1761,-0.0017338156
1762,0.0028613957
1763,0.008613284
1764,0.002212917
1765,-0.01003013
1766,-0.002484772
1767,-0.007365725
1768,-0.007705763
1769,0.0051284125
1770,0.012384101
1771,-0.0155518195
1772,-0.002332716
1773,-0.0003280407
1774,-0.0007714246
1775,0.0028075373
1776,-0.002191178
1777,0.0028325708
1778,-0.006169848
1779,0.008695996
1780,3.374807e-05
1781,-0.0027751492
1782,-0.007129376
1783,0.009721875
1784,-0.008369759
1785,-0.005933835
1786,-0.0026788362
1787,-0.010819119
1788,-0.007077872
1789,0.014653536
1790,-0.014069507
1791,0.018384375
1792,0.0031157592
1793,-0.0004480521
1794,0.01709243
1795,-0.004037945
1796,-0.018889312
1797,0.008381727
1798,-0.010330738
1799,-0.013125889
1800,0.017232584
1801,-0.0057084435
1802,-0.011165875
1803,0.01448084
1804,-0.004654324
1805,-0.0076022875
1806,0.0057296935
1807,-0.013678314
1808,-0.0052251653
1809,0.0016435294
1810,0.0032488327
1811,-0.016928947
1812,-0.007293
1813,-0.0032297214
1814,0.006231379
1815,0.0072860722
1816,0.008941407
1817,0.002479418
1818,0.0086900955
1819,-0.017510222
1820,0.0007345717
1821,-0.005414146
1822,-0.0065509086
1823,0.013200786
1824,-0.00028642465
1825,-0.0022226607
1826,0.003536825
1827,-0.0013069676
1828,0.0025236174
1829,0.010915505
1830,-0.017025508
1831,0.006329271
1832,0.01403025
1833,0.0019503459
1834,-0.009243793
1835,-0.008877599
1836,0.00026937693
1837,-0.01144058
1838,0.017479775
1839,-0.0060072164
1840,-0.005719377
1841,-0.0058608004
1842,-0.004540474
1843,0.0020749972
1844,-0.010730667
1845,-0.00061429443
1846,0.002706294
1847,-0.008479035
1848,0.00047617435
1849,-0.0021447618
1850,0.012775809
1851,0.018286169
1852,0.0020261458
1853,-0.003454693
1854,-0.0059132925
1855,0.014878347
1856,0.013181368
1857,-0.009023744
1858,-0.0019140792
1859,0.0010749754
1860,0.008875195
1861,0.00626006
1862,0.00587619
1863,0.0057200883
1864,-0.013445093
1865,0.005848274
1866,-0.0058976226
1867,-0.0006322836
1868,0.0003221448
1869,-0.008718929
1870,-0.019905362
1871,-0.019441025
1872,0.015014263
1873,0.014730549
1874,0.0071745706
1875,-0.005031098
1876,-0.0046433327
1877,0.0037697514
1878,0.0056930613
1879,-0.012174748
1880,0.013051532
1881,0.00031781476
1882,0.00017513662
1883,-0.0064862147
1884,0.001864776
1885,0.010091959
1886,-0.003839591
1887,0.0048542605
1888,-0.013448451
1889,-0.0070602247
1890,-0.011572588
1891,-0.005146565
1892,-0.0015685136
1893,0.001940972
1894,-0.008950529
1895,0.003731015
1896,0.011147743
1897,0.0017129483
1898,-0.011620893
1899,-0.0056508635
1900,0.005336625
1901,0.0012146685
1902,0.005727918
1903,-0.00083489885
1904,-0.008493407
1905,-0.012631267
1906,0.017722618
1907,0.001827149
1908,-0.00047825306
1909,-0.0078103254
1910,-0.010128745
1911,-0.010176228
1912,0.0033567494
1913,0.0077074673
1914,-0.014963116
1915,0.012300572
1916,0.007862885
1917,0.0067831557
1918,-0.009805333
1919,-0.009213295
1920,-0.010163984
1921,0.015808867
1922,-0.002910636
1923,-0.018672114
1924,0.0063335137
1925,-0.0074638817
1926,-0.00087716605
1927,0.001730101
1928,-0.01458896
1929,0.0025004789
1930,-0.006310412
1931,-0.011279787
1932,0.0040068203
1933,-0.0015294395
1934,0.015234098
1935,-0.010900482
1936,-0.008786725
1937,-0.017427681
1938,0.013187248
1939,-0.0063929674
1940,-0.013355727
1941,-0.004024718
1942,0.0015109932
1943,0.011270286
1944,-0.0069041243
1945,0.0032672312
1946,-0.009709609
1947,0.0032634793
1948,-0.0023698637
1949,-0.016838161
1950,0.0018628422
1951,-0.00702048
1952,-0.0050750426
1953,0.014459944
1954,0.0031476286
1955,0.002112265
1956,0.003447698
1957,-0.014005636
1958,0.016579015
1959,-0.013285701
1960,-0.0022076254
1961,-0.0035265593
1962,0.0046972972
1963,-0.012776124
1964,-0.000812243
1965,0.0025163316
1966,-0.0060670213
1967,-0.005969661
1968,-0.018789995
1969,-0.010936342
1970,-0.0049460465
1971,-0.0024170284
1972,-0.0035133304
1973,0.008559253
1974,0.0035056663
1975,0.008716675
1976,0.0035458214
1977,-0.012459851
1978,0.002879935
1979,-0.0019692339
1980,0.009225211
1981,0.013172743
1982,-0.014981662
1983,-0.019378172
1984,-0.004467788
1985,0.0010580429
1986,-0.008877641
1987,-0.018861799
1988,0.0025460485
1989,0.007857782
1990,-0.005489889
1991,0.007786331
1992,0.006796838
1993,-0.01419325
1994,0.0020524426
1995,0.0058110417
1996,-0.0017823896
1997,0.010439481
1998,0.0038026278
1999,-0.008874361
2000,-0.0031838652
2001,0.013753313
2002,-0.0048490977
2003,0.011193814
2004,0.0023925954
2005,0.014218025
2006,0.007971653
2007,-0.0038097033
2008,0.0027474384
2009,-0.00504342
2010,0.008101699
2011,-0.006786584
2012,0.015098368
2013,-0.0107107675
2014,0.004684967
2015,-0.015214624
2016,0.019579202
2017,-0.010909436
2018,-0.0029559736
2019,-0.009398209
2020,-0.007082228
2021,-0.01445277
2022,0.0058394703
2023,0.0075684413
2024,-0.003973763
2025,0.01271323
2026,0.008167616
2027,0.002812636
2028,-0.009046941
2029,0.012837538
2030,-0.009411935
2031,0.010303504
2032,-0.006263044
2033,0.01774679
2034,-0.006885574
2035,0.00040312333
2036,0.0018389972
2037,-0.012489332
2038,-0.011036511
2039,-0.0069765877
2040,0.011646012
2041,-0.0011367477
2042,0.0051970505
2043,-0.009937803
2044,0.006941755
2045,0.015275677
2046,0.00016552336
2047,0.007687235
2048,0.011522666
2049,-0.0128236385
2050,0.010086239
2051,0.016249776
2052,-0.0080325315
2053,-0.0053333603
2054,-0.007920434
2055,0.0040129293
2056,-0.014175232
2057,0.012033664
2058,-0.0002544807
2059,-0.000871865
2060,0.0067452216
2061,0.009052552
2062,-0.0028672426
2063,-0.00024458457
2064,0.0009630763
2065,0.0066392007
2066,0.010861276
2067,0.00670735
2068,0.013245726
2069,0.013905895
2070,0.00027664087
2071,0.009081219
2072,0.00029729164
2073,0.007245414
2074,0.0012290347
2075,-0.007026074
2076,0.0035253929
2077,-0.009437533
2078,-0.019766416
2079,0.019205088
2080,-0.008190798
2081,-0.010227058
2082,-0.0008458994
2083,0.00039638218
2084,-0.013130304
2085,-0.0035931312
2086,0.0049306997
2087,-0.017169416
2088,-0.005889605
2089,0.0047192336
2090,0.012282218
2091,-0.01190441
2092,-0.0043038153
2093,0.012697352
2094,-0.0012704635
2095,-0.0046131248
2096,-0.01162507
2097,-0.0093554435
2098,-0.0014777426
2099,0.001707154
2100,-0.004869699
2101,0.005128261
2102,0.0024059147
2103,-0.001029467
2104,0.0034343859
2105,-0.013741289
2106,-0.0090455795
2107,-2.4781955e-05
2108,0.005683341
2109,-0.01103486
2110,0.0017250088
2111,-0.0020042248
2112,0.004653526
2113,0.0075620282
2114,-0.0070527587
2115,-0.0061898422
2116,-0.010326509
2117,-0.009623333
2118,-0.003077775
2119,-0.0047219996
2120,0.0033781799
2121,-0.004531781
2122,0.002990666
2123,-0.0003621036
2124,0.002095194
2125,0.006179215
2126,-0.009776152
2127,0.0077675832
2128,-0.0033595825
2129,-0.0127318315
2130,0.013404341
2131,0.0062737567
2132,-0.0011122867
2133,-0.005141206
2134,0.0005442295
2135,0.012697909
2136,-0.0137611
2137,-0.012286327
2138,0.013835812
2139,-0.014888808
2140,-0.0061746547
2141,0.0063609304
2142,-0.0067026676
2143,0.0017301586
2144,-0.005108983
2145,-0.00071133027
2146,0.015322642
2147,-0.004922118
2148,0.0033593397
2149,0.0130671365
2150,0.010854963
2151,-0.0056910287
2152,0.009427532
2153,-0.005500305
2154,0.0056325677
2155,-0.010248666
2156,0.0022329537
2157,-0.0008931904
2158,0.00034984012
2159,0.0028042144
2160,-0.0019801734
2161,-0.0071384367
2162,-0.0027198668
2163,-0.015492776
2164,0.014303679
2165,0.006888254
2166,0.017973127
2167,-0.012246295
2168,-0.0009357673
2169,-0.0032201153
2170,-0.006879999
2171,-0.012211366
2172,-0.0051805917
2173,0.012146324
2174,-0.004857237
2175,-0.0043257917
2176,0.002931466
2177,0.0048721572
2178,0.011436735
2179,-0.0032252707
2180,-0.0060066623
2181,-0.007801568
2182,-0.003743169
2183,-0.00094330584
2184,-0.0061654476
2185,0.0040658377
2186,-0.00068740867
2187,0.0035300408
2188,0.0116066
2189,0.0061296276
2190,-0.015509866
2191,0.0060861926
2192,0.010993495
2193,-0.0010468244
2194,0.014537059
2195,-0.0046529835
2196,-0.0029291448
2197,-0.012473322
2198,0.009097644
2199,-0.004828621
2200,0.017530937
2201,-0.0017676649
2202,-0.008091479
2203,0.0039844387
2204,0.0076652267
2205,0.011649184
2206,0.01161346
2207,0.012631988
2208,0.0074024415
2209,0.0011155299
2210,0.0109547125
2211,-0.0049767797
2212,-0.0054159067
2213,-0.0024681776
2214,0.008820843
2215,-0.013547745
2216,-0.012903535
2217,-0.0016386631
2218,0.0066152234
2219,-0.013492367
2220,-0.0028797912
2221,0.003487746
2222,-0.0023389729
2223,-0.014004784
2224,0.017284285
2225,-0.017591424
2226,-0.0059234924
2227,0.0016049661
2228,0.014798019
2229,-0.0037686492
2230,-0.005692495
2231,-0.015208267
2232,-0.0045917477
2233,0.0090254955
2234,-0.014275207
2235,-0.0049739196
2236,0.0046701757
2237,-6.553297e-05
2238,0.006374138
2239,0.013005515
2240,-0.0020268958
2241,-0.005076534
2242,-0.0039735762
2243,-0.013362133
2244,-7.319107e-05
2245,-0.0047997143
2246,-0.00064808514
2247,0.00047233832
2248,-0.00810794
2249,0.0003968561
2250,-0.0037448609
2251,-0.01642594
2252,0.013522592
2253,0.002276887
2254,0.004608382
2255,0.01028135
2256,0.0075564315
2257,0.014530675
2258,-0.016576838
2259,-0.010862947
2260,0.0061801765
2261,-0.01968655
2262,-0.014180754
2263,0.0026313425
2264,0.00634508
2265,-0.0095624
2266,-0.0036343287
2267,-0.011743914
2268,-0.0009769651
2269,-0.0005567742
2270,0.011577631
2271,0.004654514
2272,0.00055085256
2273,-0.009511416
2274,-0.009437676
2275,0.01126929
2276,-0.0036251233
2277,-0.0057448163
2278,0.012782443
2279,0.0039497837
2280,-0.006164381
2281,0.0004582266
2282,-0.0073673045
2283,0.0126017425
2284,0.01648552
2285,-0.00451321
2286,-0.0063273637
2287,0.0064475643
2288,-7.1962175e-05
2289,-0.00042519462
2290,-0.0046596904
2291,0.003394054
2292,0.0027640306
2293,0.013145449
2294,-0.0058251563
2295,0.008654253
2296,-0.0047029657
2297,-0.0017520353
2298,-0.010428419
2299,0.004772095
2300,0.0033283574
2301,0.012024844
2302,-0.0029399663
2303,0.0011109494
2304,0.01162339
2305,-0.008554507
2306,-0.00056582695
2307,0.005639951
2308,-0.0062074205
2309,0.00087682303
2310,-0.010628224
2311,0.004173971
2312,0.007904694
2313,-0.003166807
2314,-0.0020677706
2315,-0.019516774
2316,0.00067735673
2317,0.0027830726
2318,0.0018869014
2319,-0.0006549798
2320,0.00641856
2321,0.002003322
2322,0.00456932
2323,0.0016751772
2324,0.0054583563
2325,-0.0012711366
2326,-0.0059267073
2327,-0.0015881027
2328,-0.009287914
2329,-0.0009857484
2330,-0.003457892
2331,-0.008199361
2332,0.0073901406
2333,-0.006926636
2334,-0.003506322
2335,-0.0061952793
2336,-0.004334872
2337,0.011956768
2338,0.004330037
2339,0.0031700854
2340,7.5646705e-05
2341,-0.007829441
2342,-0.0068532606
2343,0.005535881
2344,-0.013032014
2345,-0.0036393842
2346,-0.005619407
2347,0.0041996194
2348,0.010615624
2349,0.00781187
2350,-0.009571728
2351,-0.006446622
2352,0.008568044
2353,0.012726518
2354,0.0041961204
2355,-0.007074143
2356,-0.00077921135
2357,0.0042339307
2358,0.014297916
2359,0.0022592265
2360,-0.0059285667
2361,0.013542606
2362,-8.409094e-05
2363,-0.0027169948
2364,-0.0017216785
2365,-0.0070149247
2366,0.0107164765
2367,0.0021592823
2368,-0.005101991
2369,0.0038573628
2370,-0.015536087
2371,-0.0048279054
2372,-0.013270524
2373,0.004760305
2374,-0.007428025
2375,-0.0066661895
2376,0.004252237
2377,0.012697462
2378,-0.012452334
2379,0.0076153395
2380,-0.0055365204
2381,0.0049654054
2382,-0.009012091
2383,0.00964441
2384,0.0049966853
2385,-0.0059724404
2386,-0.010465937
2387,-0.008832116
2388,0.0024760282
2389,0.00021491929
2390,0.0011795597
2391,0.0011913013
2392,0.013496425
2393,0.018218283
2394,0.011705952
2395,0.008637763
2396,0.00084229483
2397,0.0050234725
2398,0.0070578596
2399,-0.01824681
2400,-0.002368303
2401,-0.011569876
2402,0.012200729
2403,-0.009124804
2404,0.0066341925
2405,-0.008198889
2406,-0.004000066
2407,-0.002953166
2408,-0.007895884
2409,0.0027562212
2410,-0.00906334
2411,0.0067662117
2412,-0.002801615
2413,0.010027646
2414,-0.0029605858
2415,-0.0006888347
2416,-0.007698443
2417,-0.0049018613
2418,0.009495791
2419,0.0019022168
2420,0.011337343
2421,0.011989691
2422,0.00021364434
2423,0.01125769
2424,0.0037703696
2425,-0.004026957
2426,-0.0015884645
2427,0.0053731436
2428,-0.0028079168
2429,0.013916946
2430,0.011563259
2431,0.015349209
2432,0.018554818
2433,-0.004938677
2434,-0.0025400147
2435,-0.003217163
2436,-0.0039233984
2437,-0.0029202697
2438,-0.008015596
2439,0.0080093695
2440,-0.009348822
2441,0.004984698
2442,0.0048718858
2443,-0.009920887
2444,-0.0049241274
2445,-0.002409185
2446,0.0014451889
2447,-0.013682593
2448,-0.005395054
2449,-0.007209919
2450,0.01626778
2451,0.002241742
2452,-0.0017786054
2453,-0.0011262095
2454,-0.008173242
2455,-0.00569965
2456,-0.005428798
2457,0.018673532
2458,-0.0009675884
2459,-0.008079171
2460,-0.0070144776
2461,-0.008098803
2462,0.004872734
2463,-0.017275168
2464,-0.016445732
2465,-0.012544639
2466,-0.002891139
2467,0.002845553
2468,-0.0035344327
2469,0.012444035
2470,0.012088665
2471,0.005153314
2472,0.01499501
2473,-0.013462591
2474,-0.002690747
2475,-0.0075862585
2476,-0.015977053
2477,-0.0019943572
2478,0.0090521
2479,-0.0013718233
2480,0.011844899
2481,-0.00012323636
2482,-0.0020555733
2483,-0.0018796081
2484,0.0011971212
2485,0.0116178775
2486,0.016715715
2487,0.011331516
2488,0.0040458166
2489,0.005758151
2490,0.012076627
2491,-0.0076822964
2492,-0.009622435
2493,0.0039271647
2494,0.009236482
2495,-0.0128516285
2496,-0.0011228577
2497,0.0020978595
2498,0.010610365
2499,-0.0042476184
2500,0.00755238
2501,-0.0075594056
2502,0.0048830793
2503,-0.00083659263
2504,0.0073212567
2505,-0.0134862745
2506,0.0058917557
2507,0.0083001
2508,0.00069383543
2509,-0.002972897
2510,0.009707549
2511,-0.0019906955
2512,-0.0014919576
2513,-0.0019372659
2514,-0.004798806
2515,0.0072413674
2516,-0.0035461485
2517,0.016087467
2518,0.009134231
2519,-0.000734917
2520,-0.0022073877
2521,-0.0054144
2522,-0.0035745795
2523,-0.0014291761
2524,0.0024644353
2525,0.006846515
2526,0.0024036744
2527,-0.00024407043
2528,-0.0042720516
2529,0.015301573
2530,0.0018023889
2531,0.00010299186
2532,-0.0041454104
2533,-0.0016850139
2534,-0.00025534604
2535,-0.004728179
2536,-0.0017687517
2537,0.007157123
2538,-0.0022429377
2539,-0.0018718601
2540,-0.012724924
2541,0.014291748
2542,0.0035832962
2543,-0.015613632
2544,0.011166486
2545,-0.012425313
2546,0.0062526884
2547,0.00799731
2548,0.009486546
2549,-0.0075301123
2550,0.003961223
2551,0.0041176025
2552,0.004869886
2553,-0.004543612
2554,-0.0011387421
2555,-0.0017615254
2556,0.010816703
2557,0.012302934
2558,0.0070417137
2559,-0.009781546
2560,0.0013927622
2561,-0.0035331633
2562,-0.01489629
2563,0.003217146
2564,-0.019995885
2565,0.015653165
2566,-0.012274987
2567,0.01414037
2568,0.003053943
2569,-0.0019131923
2570,-0.0037920484
2571,0.017818762
2572,0.013090002
2573,-0.0015035128
2574,0.0037714676
2575,-0.0039386214
2576,-0.0011365497
2577,-0.00025448884
2578,-0.0026012312
2579,-0.004699891
2580,0.0005893682
2581,0.0035123108
2582,-0.0077050654
2583,-0.012740641
2584,-0.017543947
2585,-0.011879396
2586,-0.014037667
2587,-0.0021566893
2588,-0.013545009
2589,-0.00759537
2590,0.00054290815
2591,-0.0061482387
2592,0.0015426177
2593,0.0008141035
2594,0.011387295
2595,-0.00035714637
2596,0.0006132956
2597,-0.002494192
2598,0.011432524
2599,-0.01577828
2600,0.015318326
2601,0.004322789
2602,0.013843237
2603,0.00692691
2604,0.015281732
2605,0.0013001504
2606,-0.016200375
2607,-0.0071799136
2608,0.015288876
2609,-0.011692479
2610,0.0005352443
2611,-0.002108829
2612,-0.00965416
2613,-0.005061705
2614,0.0074829813
2615,-0.0033828912
2616,0.0018684734
2617,0.009936216
2618,-0.012837703
2619,-0.01036945
2620,0.018246403
2621,0.0001669138
2622,-0.0059384163
2623,0.0050160335
2624,0.019093888
2625,-0.005927941
2626,-0.004318614
2627,0.008979788
2628,-0.007713589
2629,-0.008882582
2630,-0.0070769037
2631,-0.01192454
2632,0.010241857
2633,0.006713985
2634,0.012995182
2635,0.0041401396
2636,-0.004727661
2637,0.0044049113
2638,0.0008039022
2639,-0.00916842
2640,0.0059931017
2641,0.0048903376
2642,-0.007714549
2643,-0.010935266
2644,0.01005403
2645,-0.011715344
2646,-0.0052839858
2647,-0.0022488656
2648,-0.0033517168
2649,0.010030355
2650,0.008397988
2651,0.0011493214
2652,-0.0043745926
2653,0.006560191
2654,-0.012181398
2655,0.0016350358
2656,0.018261239
2657,0.014441182
2658,-0.006001967
2659,-0.0020149527
2660,0.0015439062
2661,0.005941837
2662,0.009323663
2663,0.0027071738
2664,0.0004956845
2665,-0.011317947
2666,0.0044334834
2667,0.010787388
2668,-0.0002970121
2669,-0.009737602
2670,-0.005190933
2671,-0.009345017
2672,0.01145204
2673,-0.012729616
2674,-0.010732117
2675,-0.012809419
2676,0.0031489036
2677,0.0008138217
2678,0.0014383096
2679,-0.0015443476
2680,0.017593322
2681,-0.017435849
2682,-0.01093051
2683,0.005947197
2684,0.009943278
2685,-0.003696093
2686,0.014597755
2687,0.015908362
2688,-0.0038169175
2689,0.0061508967
2690,0.008442135
2691,-0.00996911
2692,0.0023603293
2693,-0.0077087735
2694,0.0032623806
2695,0.007419619
2696,0.019619938
2697,-0.013416905
2698,-0.00022902818
2699,-0.005920969
2700,0.010284965
2701,0.012607716
2702,0.008908531
2703,-0.017060002
2704,0.012753345
2705,-0.014070879
2706,0.017090466
2707,-0.01589152
2708,0.0067611374
2709,-0.010172351
2710,0.005703572
2711,0.007860457
2712,-0.0008284077
2713,0.0045893546
2714,0.014078067
2715,-0.0101970835
2716,-0.0049875285
2717,-0.008054367
2718,-0.019214466
2719,-0.0061016525
2720,-0.016405633
2721,-0.0067510954
2722,-9.656231e-05
2723,0.007004678
2724,-0.009764711
2725,0.0047522876
2726,0.009771466
2727,0.016278423
2728,0.0061187437
2729,-0.0036301087
2730,-0.0029867564
2731,-0.014966504
2732,0.007123793
2733,-0.0078112655
2734,0.014300383
2735,-0.01218788
2736,0.010091764
2737,0.012925959
2738,-0.0038122737
2739,-0.0054799994
2740,0.013328352
2741,0.0040931264
2742,0.017283747
2743,0.00729523
2744,0.0021312456
2745,-0.011218796
2746,0.012173342
2747,0.006986866
2748,-0.000992753
2749,-0.0069246464
2750,0.018284135
2751,-0.01118197
2752,0.0084998235
2753,-0.009181947
2754,0.003476886
2755,-0.0031270313
2756,0.008616523
2757,0.0054437565
2758,-0.010162085
2759,0.014402674
2760,0.0052960347
2761,0.00602739
2762,0.00015389884
2763,0.005129768
2764,0.0081274025
2765,-0.0035443096
2766,0.01196579
2767,-0.01778618
2768,0.009962917
2769,-0.0045986697
2770,0.01789938
2771,0.006342398
2772,-0.00014153295
2773,0.00010642881
2774,0.007972475
2775,0.005452009
2776,-0.0021394927
2777,0.0074041313
2778,-0.004365721
2779,0.0015533316
2780,-0.0027479401
2781,0.004696688
2782,0.0029102047
2783,0.014381195
2784,0.004056523
2785,0.003364193
2786,0.012240969
2787,-0.012141025
2788,0.008287572
2789,0.00036603727
2790,-0.00038000155
2791,0.0067867786
2792,-0.008649366
2793,0.0019133672
2794,0.017713547
2795,-0.017946096
2796,-0.0072230473
2797,-0.012932271
2798,0.004555118
2799,-0.003855732
2800,0.004059326
2801,-0.014865706
2802,0.0037625511
2803,-0.0013563391
2804,0.0052827406
2805,-0.0048449617
2806,0.0022755445
2807,0.0023355673
2808,-0.0042968737
2809,-0.005471127
2810,-0.0034839015
2811,-0.0011219445
2812,-0.018226035
2813,0.01575591
2814,-0.010480532
2815,0.009704227
2816,-0.0085490355
2817,-0.0015201495
2818,0.0073832762
2819,0.011022311
2820,0.016399104
2821,0.007298792
2822,0.0036007725
2823,0.004056573
2824,0.010617327
2825,0.008307175
2826,0.010846943
2827,0.01289753
2828,0.00033949752
2829,0.011185768
2830,0.0030836987
2831,0.007671458
2832,-0.014826119
2833,-0.0048537385
2834,-0.0029834239
2835,0.013079262
2836,0.0156100895
2837,0.0034304867
2838,-0.0001855752
2839,-0.0019431699
2840,0.008983623
2841,-0.017665368
2842,0.008651031
2843,0.012547546
2844,-0.0011629784
2845,0.008542268
2846,-0.00550512
2847,-0.014311146
2848,0.0046737054
2849,0.0056958855
2850,0.004016688
2851,0.006130554
2852,-0.0091818
2853,0.014991095
2854,0.0036821167
2855,0.0036135432
2856,0.0072818073
2857,-0.0035452256
2858,0.013130302
2859,-0.0029819496
2860,-0.0038742935
2861,-0.0047324286
2862,0.008207949
2863,0.009164431
2864,-0.006253631
2865,-0.006916191
2866,-0.004399245
2867,-0.0012807712
2868,-0.007116805
2869,-0.0051062633
2870,0.000893842
2871,-0.0053765043
2872,-0.008977507
2873,0.018142194
2874,-0.0058336956
2875,-0.015573293
2876,-0.007419334
2877,-0.01770063
2878,-0.016342452
2879,-0.008900036
2880,-0.0031762903
2881,-0.001173797
2882,0.0020286427
2883,0.0010549182
2884,0.008200231
2885,-0.00815256
2886,-0.0018658525
2887,0.014496885
2888,0.0065759807
2889,0.0024430414
2890,-0.0037235867
2891,-0.009007818
2892,0.011485323
2893,-0.017681701
2894,-0.005871133
2895,0.001317819
2896,0.010456378
2897,-0.0059131673
2898,-0.002912439
2899,0.0023260708
2900,0.014199901
2901,-0.0062790075
2902,-0.0018954962
2903,0.014692303
2904,0.003976496
2905,0.009077617
2906,0.008579453
2907,0.0010643869
2908,-0.0053328048
2909,0.008633619
2910,0.0075920713
2911,0.0023791206
2912,-0.010154916
2913,0.0023170698
2914,0.008522902
2915,0.0062524253
2916,0.0020492508
2917,0.00051815796
2918,-0.003972752
2919,-0.01795769
2920,0.015887208
2921,0.00047809604
2922,0.008582277
2923,0.00825319
2924,-0.0040610456
2925,0.008993909
2926,-0.005473641
2927,-0.008866604
2928,-0.013696372
2929,0.0114392
2930,0.0055456623
2931,-0.008147654
2932,-0.00297603
2933,0.00033466038
2934,0.0029662992
2935,3.265246e-05
2936,-0.0035412267
2937,-0.0023417913
2938,0.005436656
2939,-0.01021887
2940,-0.009549472
2941,0.0055963434
2942,-0.008351935
2943,-0.013540116
2944,0.009250936
2945,-0.004216296
2946,0.0029339714
2947,0.0044411966
2948,0.0031823833
2949,-0.009565033
2950,0.0023801292
2951,0.0043563466
2952,-0.01590417
2953,0.007739825
2954,0.014603569
2955,0.019447226
2956,0.00331826
2957,-0.006781089
2958,-0.009765892
2959,-0.007958986
2960,0.004358192
2961,0.015075622
2962,0.009211638
2963,-0.0043139844
2964,-0.007910398
2965,-0.0016521505
2966,-0.009368816
2967,0.0076170955
2968,0.0048391162
2969,0.014020347
2970,-0.0047094026
2971,0.007139489
2972,-0.012914217
2973,0.0048200623
2974,0.0061856047
2975,-0.0031805641
2976,-0.0066515952
2977,0.015322125
2978,0.009328063
2979,-0.0075740214
2980,-0.0038598606
2981,0.005287136
2982,-0.0024669163
2983,-0.00090474443
2984,-0.009911748
2985,0.0145838875
2986,4.8501065e-06
2987,0.003183394
2988,-0.00943112
2989,-0.0057915305
2990,0.016852584
2991,0.019414147
2992,0.0024089136
2993,-4.096073e-05
2994,0.0020962313
2995,0.008331868
2996,0.00891555
2997,0.0110173
2998,-0.017175851
2999,-0.015902016
3000,-0.0034577714
3001,-0.0020598788
3002,-0.0018263358
3003,0.009020564
3004,0.0019685756
3005,-0.002984081
3006,-0.015552776
3007,0.0040325355
3008,0.00048041932
3009,-0.0051877843
3010,0.0047208164
3011,0.0039592735
3012,-0.0028531987
3013,-0.0017075045
3014,-0.01193522
3015,-0.009307033
3016,-0.0031407326
3017,-0.0014302863
3018,0.0060603204
3019,0.0044268593
3020,0.0019287885
3021,-0.009808032
3022,-0.003765877
3023,0.0041226065
3024,-0.0017470056
3025,-0.0004206221
3026,0.012429672
3027,-0.0012126487
3028,-0.0070885317
3029,-0.0117117865
3030,-0.0010298163
3031,-0.001365486
3032,0.012069281
3033,0.0040944437
3034,0.0034268529
3035,-0.006027872
3036,-0.008666177
3037,-0.0012891409
3038,0.0010878504
3039,-0.014733969
3040,0.005690705
3041,0.0114863375
3042,0.014115374
3043,-0.011299604
3044,-0.0036033378
3045,0.009172106
3046,-0.0006758874
3047,0.0054055746
3048,-0.0045777345
3049,-0.009276951
3050,-0.005100416
3051,0.007359872
3052,-0.003472693
3053,-0.0092565
3054,0.0056208437
3055,-0.01295939
3056,-0.012547536
3057,0.015392689
3058,0.0083316425
3059,0.0049117794
3060,0.0051035807
3061,-0.007852267
3062,0.0141080925
3063,0.00590165
3064,0.0005856048
3065,0.0055774585
3066,-0.00019947597
3067,-0.007804719
3068,-0.013341938
3069,0.0011897521
3070,0.0059415703
3071,0.010161
3072,0.0065132333
3073,0.004484515
3074,0.0019143552
3075,-0.00059945055
3076,-0.0067509464
3077,-0.0017799491
3078,-0.009969331
3079,-0.011087024
3080,-0.005482637
3081,0.01258013
3082,-0.006319084
3083,0.005398342
3084,-0.0042922874
3085,0.009956697
3086,-0.006738994
3087,0.0032487381
3088,-0.010411997
3089,-0.0027338455
3090,-0.0006297749
3091,-0.018347032
3092,0.0040625217
3093,0.006538358
3094,0.003894453
3095,0.006339621
3096,0.0044461046
3097,0.0019455176
3098,0.008140382
3099,-0.0039010602
3100,-0.0040914547
3101,0.0048822565
3102,0.009673964
3103,0.008086223
3104,-0.001701004
3105,0.0071781953
3106,-0.009811031
3107,-0.002806841
3108,0.006455268
3109,0.0022645788
3110,0.004317985
3111,-0.0056976164
3112,-0.0057097585
3113,0.010194906
3114,-0.005801126
3115,0.016899996
3116,0.015850216
3117,0.008940672
3118,-0.006556375
3119,-0.0036959476
3120,-0.00062325096
3121,-0.004891491
3122,0.010734191
3123,-0.004394579
3124,-0.0040198816
3125,-0.01823432
3126,0.009960751
3127,0.00723975
3128,0.010381805
3129,-0.009488799
3130,-0.0037513047
3131,-0.004600215
3132,-0.0077482346
3133,0.01594104
3134,0.00022990609
3135,-0.0039495844
3136,-0.01690297
3137,1.8053714e-05
3138,0.007226899
3139,0.005567888
3140,-0.0033605269
3141,-0.00604737
3142,0.009729389
3143,-0.0045512747
3144,-0.014526715
3145,0.0086807655
3146,0.019774962
3147,0.016546523
3148,0.015829258
3149,-0.006660122
3150,-0.009193404
3151,0.011801544
3152,0.0072986623
3153,-0.0047217193
3154,0.00022921985
3155,-0.007648093
3156,0.0113883335
3157,-0.00989597
3158,-0.0020380572
3159,0.0018005988
3160,0.008149637
3161,-0.009622276
3162,0.008900177
3163,0.011620924
3164,0.00022621025
3165,0.006829747
3166,0.0008717933
3167,-0.019870441
3168,0.007753531
3169,-0.003456585
3170,-0.007856144
3171,0.0018222951
3172,-0.011312392
3173,-0.001145133
3174,-0.0085871555
3175,-0.016470136
3176,-0.011216205
3177,0.011292484
3178,-0.0003861679
3179,-0.0057991827
3180,0.003244562
3181,-0.0006697707
3182,-0.0044512907
3183,-0.002487975
3184,0.008758245
3185,-0.001102897
3186,-0.0063655004
3187,0.0047067716
3188,0.0033874663
3189,0.0018508821
3190,-0.005183896
3191,0.012065313
3192,0.014022853
3193,0.008485108
3194,-0.0003346462
3195,0.0060704956
3196,-0.014491137
3197,-0.007799033
3198,-0.0056734737
3199,0.0043150447
3200,-0.004453937
3201,0.006342726
3202,0.003871116
3203,0.0136207305
3204,-0.004417171
3205,-0.015746567
3206,0.0011199598
3207,0.012803314
3208,0.010179167
3209,0.0025913964
3210,-0.012289442
3211,0.010014422
3212,0.0126159
3213,-0.016153809
3214,0.0008004817
3215,-0.01713185
3216,0.004328543
3217,0.006139524
3218,0.005220744
3219,-0.0057601235
3220,0.008045361
3221,0.0042961147
3222,-0.003235056
3223,-0.004892878
3224,-0.009765966
3225,0.0031974616
3226,-0.011964449
3227,0.0028540862
3228,0.014718972
3229,0.01267026
3230,0.0033032342
3231,-0.009485538
3232,-0.0008555001
3233,0.0027204892
3234,-0.0052379025
3235,-0.0063113193
3236,-0.005039075
3237,0.0018028899
3238,0.004426158
3239,-0.004943674
3240,0.0090370625
3241,-0.0052029784
3242,-0.006797927
3243,0.0047043534
3244,-0.0038790097
3245,0.008730131
3246,0.002067926
3247,-0.005029136
3248,-0.010131201
3249,0.008436519
3250,0.009246589
3251,-0.013991919
3252,-0.014897521
3253,-0.0017982095
3254,0.003015207
3255,0.007910581
3256,-0.011754575
3257,0.014892109
3258,-0.002029022
3259,-0.008260438
3260,-0.0024301363
3261,-0.0075635915
3262,-0.0073452825
3263,-0.007919332
3264,0.007677996
3265,-0.012000184
3266,-0.01321436
3267,-0.0025209053
3268,-0.013775059
3269,-0.013927594
3270,-0.0022411984
3271,0.0018087543
3272,0.0012609519
3273,0.0113792345
3274,-0.019906072
3275,-0.0146074435
3276,-0.0011832706
3277,-0.0069728056
3278,0.012746883
3279,0.007513259
3280,0.0016076062
3281,-0.0042984663
3282,-0.0007710965
3283,-0.0037063027
3284,-0.0032118163
3285,0.004729475
3286,-0.0058802585
3287,-0.00678319
3288,-0.019788684
3289,-0.0054082344
3290,-0.005297856
3291,-0.018317837
3292,0.0088461405
3293,0.016525172
3294,-0.0056549953
3295,-0.0038655552
3296,-0.004425138
3297,0.0047990666
3298,0.0027215108
3299,-0.01183752
3300,-0.0019089574
3301,0.0019626627
3302,-0.0026446101
3303,-0.0044148923
3304,-0.00568742
3305,0.008033619
3306,-0.007788345
3307,0.0001572016
3308,-0.0084862495
3309,0.010107182
3310,-0.016453965
3311,-0.0052103098
3312,0.001131095
3313,-0.006429102
3314,0.0016320115
3315,0.012462784
3316,-0.012435284
3317,-0.007104457
3318,-0.00905828
3319,-0.007804775
3320,-0.005825973
3321,0.0026892223
3322,-0.0037717132
3323,-0.01196285
3324,-0.004331273
3325,-0.005094973
3326,-0.0019069142
3327,0.019606387
3328,-0.014656384
3329,-0.010129479
3330,-0.0043419204
3331,-0.012831395
3332,0.008836206
3333,-0.003257268
3334,-0.0019389594
3335,0.0138624525
3336,-0.0050162785
3337,0.00189582
3338,-0.0030356322
3339,-0.012218316
3340,0.0068321107
3341,0.0029630186
3342,0.012966847
3343,0.0020322679
3344,-0.014314787
3345,-0.015562579
3346,0.001954616
3347,0.0009049048
3348,-0.001299895
3349,0.00047120338
3350,-0.004058687
3351,-0.0011599938
3352,0.0055857664
3353,0.0051287366
3354,-0.017971097
3355,-5.0413026e-05
3356,0.009804728
3357,-0.011828266
3358,-0.017409137
3359,-0.008068456
3360,0.007727916
3361,0.0051942705
3362,-0.0062611513
3363,0.002692478
3364,0.00029761175
3365,-0.012150053
3366,-0.007602522
3367,0.013106046
3368,0.0057692127
3369,0.008871333
3370,0.009792971
3371,-0.006881638
3372,-0.0058749616
3373,0.00915046
3374,0.010809723
3375,0.00663208
3376,-0.003926355
3377,0.0070927045
3378,0.005060975
3379,-0.016785223
3380,-0.0029487822
3381,-0.013167452
3382,0.010285066
3383,0.016702894
3384,0.0025922267
3385,-0.012754621
3386,-0.0060073817
3387,-0.010968189
3388,0.002656366
3389,0.004122181
3390,0.01830278
3391,-0.012351778
3392,-0.018751102
3393,-0.0012944796
3394,0.005872272
3395,0.003052892
3396,0.002559135
3397,0.0044390354
3398,-0.0027087415
3399,-0.01651894
3400,-0.008883311
3401,0.0081672855
3402,0.006021672
3403,-0.005033869
3404,-0.001506799
3405,0.002333475
3406,0.016071497
3407,0.005984152
3408,0.00056960754
3409,0.014972519
3410,-0.004000751
3411,0.0014087262
3412,0.008885808
3413,-0.016202033
3414,-0.007712491
3415,-0.0027991643
3416,-0.0013824261
3417,-0.0024159087
3418,0.0008172753
3419,-0.0015989954
3420,0.011601307
3421,0.018825991
3422,0.014280924
3423,-0.0028137858
3424,0.010531729
3425,-0.011421417
3426,-0.012421294
3427,-0.019263599
3428,-0.00025265847
3429,0.015889648
3430,0.00500293
3431,-0.0031190696
3432,0.002986098
3433,-0.007899237
3434,0.0004602719
3435,0.0017746687
3436,0.008783291
3437,-0.00497788
3438,-0.014427773
3439,-0.009109825
3440,-0.0060043014
3441,-0.012676252
3442,0.0026453682
3443,-0.0012322114
3444,0.01998413
3445,-0.0040172758
3446,0.0032254683
3447,0.006581243
3448,0.004285705
3449,0.0069627534
3450,-0.0058049415
3451,0.008816714
3452,0.011087108
3453,0.015886275
3454,-0.008891233
3455,-0.014997587
3456,0.009352068
3457,-0.008562794
3458,-0.011754046
3459,0.012604531
3460,0.011470187
3461,0.0011404197
3462,-0.007833603
3463,0.0040749502
3464,-0.006744513
3465,-0.007220033
3466,0.00059211784
3467,-0.009919115
3468,0.018905127
3469,0.0027454086
3470,-0.009275694
3471,-0.0031589058
3472,0.008585506
3473,0.0065945713
3474,-0.008066808
3475,0.0034248345
3476,-0.0042478973
3477,-0.005259555
3478,0.0003947681
3479,-0.0011591791
3480,0.0009995884
3481,0.011217202
3482,0.002218072
3483,0.013946748
3484,0.005262867
3485,-0.007165079
3486,0.0035632576
3487,-0.0038682807
3488,0.0040761568
3489,0.0066074813
3490,-0.017355725
3491,0.0064188475
3492,0.0057811863
3493,0.013496758
3494,0.010974592
3495,0.0054553095
3496,0.005883632
3497,0.0023245437
3498,0.0025087597
3499,-0.013828968
3500,0.005598156
3501,-1.2241686e-06
3502,0.00030690964
3503,0.004126922
3504,-0.003053173
3505,-0.0088142045
3506,-0.0016415173
3507,0.0015478873
3508,0.005739189
3509,-0.0018649916
3510,-0.00535259
3511,-0.011173627
3512,-0.0066213594
3513,-0.0032779898
3514,0.015951432
3515,0.005402402
3516,0.0008107664
3517,-0.004937667
3518,-0.015603778
3519,-0.0056203306
3520,-0.0060230903
3521,-0.012360063
3522,-0.0070574665
3523,0.012952737
3524,-0.0036630528
3525,0.008923198
3526,0.011129364
3527,-0.0024114407
3528,0.0006861366
3529,0.004998733
3530,0.007342203
3531,0.007179068
3532,0.017769152
3533,0.0050264704
3534,0.0012505401
3535,0.0018793384
3536,0.00037893243
3537,0.0088473465
3538,-0.012760104
3539,0.00593508
3540,0.0018340624
3541,-0.0007891453
3542,-0.0068060234
3543,0.0065265386
3544,-0.013151966
3545,-0.009414796
3546,-0.008145321
3547,-0.0056612217
3548,-0.0051125926
3549,0.009063527
3550,-3.3816475e-05
3551,-0.0070475983
3552,-0.005255781
3553,0.016899928
3554,0.002887383
3555,-0.00023224186
3556,0.012887866
3557,-0.010138836
3558,0.0009755664
3559,-0.0173373
3560,-0.009583773
3561,0.018025061
3562,5.006835e-05
3563,-0.006096809
3564,0.0090281
3565,-0.0015889284
3566,-0.019281143
3567,-0.0051397285
3568,0.011486034
3569,0.0010666042
3570,-0.008795267
3571,-0.00056781597
3572,0.0064305463
3573,-0.0013008002
3574,-0.0017602614
3575,-0.019430552
3576,-0.0059533194
3577,0.0009451893
3578,0.01901271
3579,-0.015891861
3580,0.014731158
3581,-0.0021341154
3582,0.0050284257
3583,-0.010224661
3584,0.0012657596
3585,-0.006047623
3586,0.006279109
3587,0.0045560193
3588,-0.011970771
3589,0.007887876
3590,0.0024137886
3591,0.00783086
3592,0.0058550625
3593,0.0068275183
3594,0.007860306
3595,0.014204787
3596,-0.0025377518
3597,-0.005958317
3598,-0.010331064
3599,0.002388873
3600,0.009318799
3601,0.01336454
3602,-0.0112783145
3603,-0.009231276
3604,-0.013166634
3605,0.010673768
3606,0.0053971526
3607,-0.012848786
3608,-0.017363684
3609,0.005756947
3610,0.006863512
3611,0.010918475
3612,-0.017857572
3613,0.0007368938
3614,-0.013537705
3615,0.00017689136
3616,0.012812033
3617,0.010496269
3618,0.002438542
3619,0.005270332
3620,0.002819777
3621,0.004263011
3622,0.008480645
3623,-0.015667593
3624,-0.00037747092
3625,0.010216104
3626,0.0052841376
3627,0.010052405
3628,0.00422178
3629,0.005828756
3630,-0.011189175
3631,-0.0072757527
3632,-0.014749708
3633,-0.005669636
3634,-0.007462758
3635,0.009426762
3636,0.019286474
3637,0.0064579304
3638,0.0076293712
3639,0.0063896244
3640,-0.009546522
3641,0.008354374
3642,-0.012775334
3643,0.0062757228
3644,-0.009521261
3645,0.014596933
3646,-0.003075121
3647,-0.015624753
3648,-0.0021712587
3649,-0.006412645
3650,0.0012789397
3651,-0.00013776778
3652,0.002187273
3653,0.00571525
3654,0.009041947
3655,0.012909949
3656,-0.011951222
3657,-0.00014722407
3658,-0.004719737
3659,-0.0012967277
3660,0.0013247412
3661,0.0055636507
3662,0.012438593
3663,0.012212349
3664,0.008730468
3665,-0.0071120667
3666,-0.00949609
3667,-0.0051714634
3668,0.009056508
3669,0.0039635277
3670,0.00048328366
3671,0.015729211
3672,-0.013816708
3673,-0.011364249
3674,-0.00806055
3675,0.006772698
3676,-0.011206623
3677,-0.0062143705
3678,0.0023230442
3679,-0.0077532167
3680,0.003803974
3681,0.012484556
3682,0.0009689231
3683,-0.0086087305
3684,0.012373302
3685,0.00749785
3686,0.009130576
3687,-0.006823163
3688,-0.0035797767
3689,-0.007212101
3690,0.005849406
3691,0.002714378
3692,0.0078068874
3693,-0.012753016
3694,-0.00031559655
3695,0.012773609
3696,0.0044858945
3697,-0.0074985474
3698,0.0007523208
3699,-0.012847934
3700,-0.0036717409
3701,0.01303855
3702,0.009788523
3703,0.007578912
3704,0.002256
3705,-0.013463366
3706,0.0029237072
3707,-0.0029678808
3708,-0.012702828
3709,-0.013857969
3710,0.0052692746
3711,0.0017801004
3712,-0.0121143935
3713,0.0032434785
3714,0.014772305
3715,0.004610917
3716,0.010225341
3717,0.0010364176
3718,0.0090887835
3719,-0.008839216
3720,0.005112009
3721,0.012618995
3722,0.010364606
3723,-0.012047991
3724,0.0019910408
3725,0.004146009
3726,-0.0016985724
3727,-0.011895233
3728,-0.018512279
3729,0.0036769002
3730,-0.018559149
3731,0.0073311534
3732,-0.0054923804
3733,-0.0037733961
3734,-0.004344804
3735,-0.012096193
3736,0.01339302
3737,-0.0027605933
3738,0.00012449657
3739,-0.013191335
3740,-0.0051933387
3741,-0.009761154
3742,-0.0023080336
3743,0.0013008642
3744,0.00067549053
3745,0.0047376505
3746,0.00687576
3747,-0.0026364997
3748,-0.0076104263
3749,0.0077292505
3750,0.011298348
3751,-0.0023876873
3752,-0.005621362
3753,-0.00967046
3754,0.0011394827
3755,-0.0045626983
3756,-0.0015300208
3757,0.016079478
3758,0.01278688
3759,0.0028831433
3760,-0.01623676
3761,-0.015896183
3762,0.012240102
3763,0.011953147
3764,0.00294743
3765,-0.008881064
3766,-0.006952511
3767,0.006569956
3768,0.001390631
3769,-0.00054200686
3770,-0.009516056
3771,0.011736586
3772,-0.00048206808
3773,-0.010797349
3774,0.0020485946
3775,-0.011896683
3776,-0.0021418459
3777,0.0031319628
3778,-0.0022455486
3779,-0.00079570204
3780,0.016347187
3781,0.007960253
3782,-0.011079356
3783,-0.009143465
3784,-0.0043550734
3785,0.0010668852
3786,-0.008979607
3787,0.006260353
3788,-0.00662737
3789,-0.0020862578
3790,-0.005685566
3791,0.00878423
3792,-0.017081281
3793,-0.0017887581
3794,-0.009418372
3795,0.0075943987
3796,-0.008256123
3797,0.0029639644
3798,-0.015046047
3799,0.0028582707
3800,0.0036370757
3801,-0.010904927
3802,-0.0024887118
3803,-0.0009070373
3804,-0.016414937
3805,-0.0062287957
3806,0.019653678
3807,-0.00702101
3808,-0.012593644
3809,0.008481673
3810,0.014567006
3811,0.014514967
3812,-0.0041117067
3813,-0.012331104
3814,-0.0042711357
3815,0.005517724
3816,-0.0124587435
3817,0.003527333
3818,0.008630556
3819,0.0064301724
3820,-0.0073659807
3821,0.00902493
3822,0.0006304282
3823,0.0043627815
3824,0.012885436
3825,0.0033134045
3826,-0.013773908
3827,-0.0053920704
3828,-0.0011030252
3829,-0.0031867544
3830,0.0072529423
3831,-0.0061920676
3832,0.0057369876
3833,-0.004479609
3834,-0.0059373765
3835,-0.012505773
3836,0.0057088993
3837,-0.000456677
3838,-0.012130223
3839,-0.010177365
3840,0.0025570428
3841,0.019721966
3842,0.015660176
3843,-0.007576436
3844,0.008761846
3845,0.008774128
3846,-0.007986831
3847,0.0050960723
3848,-0.013902946
3849,-0.008423984
3850,0.013735875
3851,0.012745167
3852,-0.005119314
3853,0.011760177
3854,0.013385696
3855,0.018261904
3856,0.009279553
3857,0.007371852
3858,0.0051031173
3859,-0.008745417
3860,-0.0018886329
3861,-0.00055057625
3862,0.0025199752
3863,0.004994421
3864,0.0056269835
3865,-0.005783726
3866,-0.014142077
3867,-0.004186614
3868,-0.014633073
3869,0.0048844535
3870,-0.0022828912
3871,0.0023211436
3872,0.0024076512
3873,-0.0014659731
3874,-0.0016002706
3875,0.010267863
3876,0.007996038
3877,-0.0028611426
3878,-0.0005452368
3879,0.0017371492
3880,-0.0139156915
3881,0.0077754366
3882,-0.018659286
3883,0.014995763
3884,-0.016675206
3885,-0.0046120454
3886,-0.005681918
3887,0.005918861
3888,0.002705787
3889,-0.0065921694
3890,-9.4656214e-05
3891,0.01970951
3892,-0.009891987
3893,-0.005959153
3894,-0.003315881
3895,0.0017312262
3896,-0.012545006
3897,0.013251334
3898,-0.0039412887
3899,0.009488509
3900,0.0090352995
3901,-0.004394494
3902,0.006587371
3903,0.0016708148
3904,0.011507948
3905,0.0051179333
3906,-0.0028452917
3907,0.010579566
3908,-0.01397615
3909,0.017593361
3910,0.006854089
3911,0.005242273
3912,-0.0005697649
3913,-0.0024894795
3914,-0.0031989205
3915,0.0006879342
3916,0.012898007
3917,-0.0028023678
3918,0.0054467735
3919,-0.0030050003
3920,0.014540082
3921,-0.006469493
3922,-0.0058808695
3923,-0.008309726
3924,-0.0012885709
3925,0.009707921
3926,-0.0055482946
3927,0.0023598378
3928,-0.009518183
3929,0.0089945225
3930,-0.0019941481
3931,0.005882059
3932,-0.0010951475
3933,0.017121194
3934,-0.014477349
3935,-0.0007025994
3936,-0.0009531584
3937,0.0151366955
3938,0.0036070375
3939,-0.007924711
3940,-0.003097376
3941,0.0013258385
3942,0.013591069
3943,-0.00882554
3944,-0.00089755387
3945,0.0084263375
3946,0.003586368
3947,-0.014194604
3948,0.008474151
3949,-0.00984287
3950,-0.009903973
3951,-0.0036186245
3952,0.0023625088
3953,0.007649636
3954,0.008477938
3955,-0.003928954
3956,-0.016040904
3957,0.002911202
3958,-0.00655867
3959,0.0033759465
3960,0.00237691
3961,0.0011991262
3962,-0.0095676165
3963,0.009085956
3964,-0.0081094885
3965,-0.0064854524
3966,0.0078226365
3967,0.001478545
3968,-0.0018975624
3969,-0.004399851
3970,0.0076482296
3971,-0.003335776
3972,0.013247771
3973,-0.0028684598
3974,0.010362989
3975,0.00062205695
3976,-0.004511363
3977,-0.0007677888
3978,-0.002610691
3979,0.006811241
3980,0.012738246
3981,-0.003918797
3982,0.0026828
3983,-0.0046840073
3984,-0.007889914
3985,0.0016475349
3986,-0.0028771306
3987,-0.014550597
3988,0.0128530925
3989,-0.0040534586
3990,0.016801765
3991,0.0016042205
3992,-0.012820987
3993,-0.0006271109
3994,-0.01469585
3995,0.005390968
3996,0.009603072
3997,-0.01767908
3998,0.0063003413
3999,-0.009217065
4000,0.003295061
4001,-0.011328254
4002,-0.0023570466
4003,-0.004480626
4004,-0.00079118676
4005,0.015338977
4006,-0.0029226455
4007,0.013651407
4008,0.017596385
4009,0.013095142
4010,0.0013491714
4011,0.007727626
4012,-0.010560092
4013,-0.0051843813
4014,-0.008338762
4015,0.0022978536
4016,-0.0047500017
4017,0.00056617375
4018,0.011712663
4019,-0.006772188
4020,0.016272599
4021,-0.0042809867
4022,-0.009555993
4023,0.0042415694
4024,0.010927001
4025,-0.005305565
4026,-0.009052348
4027,-0.0018354402
4028,-0.006853955
4029,0.01093163
4030,-0.0031125182
4031,0.0064891693
4032,-0.0103770895
4033,-0.004246246
4034,0.003325116
4035,0.018919045
4036,-0.0146991
4037,-0.018432498
4038,0.007119871
4039,-0.007246788
4040,0.0038029568
4041,0.005859714
4042,-0.003349463
4043,-0.00011784431
4044,0.019653838
4045,0.00083199795
4046,0.018570794
4047,0.0026219774
4048,-0.0038940771
4049,-0.012284586
4050,0.0007876434
4051,-0.0018884542
4052,0.0094159115
4053,0.013605
4054,-0.00279293
4055,-0.0069425814
4056,0.008186098
4057,-0.0041947993
4058,0.0029417055
4059,-0.005179043
4060,0.004848242
4061,0.010010265
4062,-0.0105724605
4063,-0.0069623683
4064,0.002982354
4065,-0.00081344123
4066,0.010057827
4067,0.0003380623
4068,0.0051838807
4069,-0.009789922
4070,0.0013473798
4071,-0.009985776
4072,-0.012533019
4073,1.7104072e-05
4074,0.01767455
4075,0.015585227
4076,-0.0016416126
4077,0.01650129
4078,0.0029672226
4079,-0.0038664937
4080,0.005990205
4081,-0.016466426
4082,0.01143138
4083,0.0055613657
4084,0.008704277
4085,-0.0010546119
4086,0.0058398615
4087,0.0006023326
4088,-0.011449588
4089,0.008735264
4090,0.002185487
4091,-0.008157722
4092,-0.0032893056
4093,-0.00931411
4094,0.009564447
4095,-0.008081127
