Sno,Weight
0,0.02233861
1,0.005285653
2,0.034060936
3,0.040404797
4,0.0067464006
5,-0.10788072
6,0.0476794
7,0.019578408
8,-0.047980428
9,-0.066550896
10,-0.068633325
11,0.001274817
12,0.037144136
13,-0.009678685
14,0.049691923
15,0.044990186
16,0.06772312
17,-0.06677746
18,-0.027797632
19,-0.03328011
20,0.04580817
21,0.0053478074
22,-0.002506297
23,0.009468651
24,-0.05075829
25,-0.06767572
26,0.03673612
27,0.018693887
28,0.015109453
29,0.014305698
30,0.027844278
31,0.06526659
32,-0.005691615
33,0.027010463
34,-0.024151864
35,0.022154136
36,0.010190664
37,-0.02561647
38,-5.968147e-05
39,-0.05079346
40,-0.024563378
41,0.014321431
42,0.023741985
43,0.0013646687
44,-0.020354852
45,0.024183474
46,0.023109395
47,-0.06327465
48,0.01730509
49,0.04704016
50,0.03230967
51,0.009344667
52,-0.069740504
53,-0.032871023
54,-0.029254332
55,0.028843224
56,0.052109193
57,0.009920159
58,0.0073414277
59,0.04293332
60,0.0051319855
61,-0.005855878
62,0.04594399
63,0.0010921082
64,-0.017247317
65,-0.00023309755
66,-0.040835425
67,-0.05545185
68,0.009839765
69,0.007581196
70,-0.060966287
71,0.032102052
72,-0.06001509
73,-0.025151478
74,-0.0610906
75,0.023139056
76,-0.020035477
77,-0.010932672
78,-0.040334135
79,0.01012876
80,0.0434037
81,0.029196318
82,0.044486947
83,0.070097685
84,0.0114650605
85,-0.023692409
86,0.040744133
87,-0.0664682
88,-0.013179678
89,0.025688501
90,0.038454752
91,0.008083229
92,-0.049678084
93,-0.059790224
94,0.06648869
95,0.02170247
96,0.061634574
97,-0.0063571823
98,0.036695275
99,0.0073724226
100,0.0031522347
101,0.03856057
102,0.039342053
103,-0.026101101
104,-0.06732073
105,0.056878284
106,-0.029646927
107,-0.028155034
108,-0.08182642
109,0.042100362
110,-0.069259584
111,0.04160513
112,-0.053251173
113,0.021333076
114,0.021819191
115,0.022031264
116,-0.058644637
117,0.006613457
118,0.04921284
119,-0.11920245
120,0.00736461
121,-0.06733822
122,-0.02356175
123,-0.01632193
124,0.042194024
125,0.034834333
126,-0.010297719
127,0.042418763
128,-0.06837149
129,-0.07481301
130,0.03986441
131,0.02383131
132,0.02066628
133,0.11376303
134,0.028492719
135,0.08762716
136,0.017353503
137,0.036894795
138,0.045520954
139,-0.0877556
140,0.047562942
141,-0.00932765
142,0.020786868
143,0.01593547
144,0.021642119
145,-0.066771895
146,0.039937783
147,-0.033211704
148,-0.07712076
149,0.058259513
150,0.036354575
151,0.051863644
152,0.03994275
153,0.058036525
154,-0.07603155
155,0.024751486
156,0.038576197
157,-0.011859529
158,0.039568167
159,-0.072681874
160,-0.0841706
161,0.030053979
162,0.03673936
163,0.011278512
164,0.027275251
165,-0.0698963
166,0.0542435
167,-0.05312961
168,0.044473123
169,0.05960328
170,0.04425605
171,0.051614434
172,0.017518917
173,0.029013382
174,-0.014810253
175,-0.044045854
176,0.03710804
177,0.01187915
178,0.064530484
179,-0.07352866
180,0.06493705
181,-0.048057605
182,0.03376877
183,0.08497212
184,0.024641983
185,-0.008604047
186,0.055154763
187,-0.021538794
188,-0.043595195
189,-0.082124874
190,-0.07576512
191,0.015625201
192,0.06139855
193,0.04906882
194,0.046975493
195,-0.07038977
196,0.016590197
197,0.016736371
198,-0.019970182
199,-0.051572066
200,0.05915307
201,0.06928268
202,0.03587929
203,0.050123267
204,-0.009322852
205,0.049913403
206,-0.073720716
207,0.03248766
208,0.0072406204
209,0.043156255
210,0.033785503
211,4.2639724e-05
212,0.046826184
213,-0.08371678
214,0.048861835
215,0.07678645
216,0.022865497
217,0.035446525
218,-0.0077308617
219,0.055789106
220,0.05035934
221,0.036004994
222,-0.101219885
223,0.030803593
224,0.04538523
225,0.057058677
226,-0.08275581
227,0.039897956
228,0.066527456
229,0.008687346
230,0.041300926
231,0.011334808
232,-0.06731663
233,-0.029355576
234,-0.07043826
235,-0.0082926005
236,0.018277172
237,0.045973685
238,0.021474103
239,0.021376511
240,-0.14050469
241,0.051637873
242,-0.065911464
243,0.032035593
244,-0.06783496
245,0.058576033
246,-0.052539404
247,0.052269038
248,0.048034858
249,-0.023523789
250,0.035105716
251,0.08600745
252,0.042739753
253,0.025076453
254,0.04077662
255,0.022772381
256,0.03898885
257,0.067930885
258,-0.029759984
259,0.011626427
260,0.039246976
261,-0.05958149
262,0.021927694
263,-0.0819227
264,0.024195023
265,-0.031593915
266,0.05794207
267,0.08810859
268,0.030912617
269,-0.044056967
270,-0.015687289
271,0.015971277
272,-0.067410685
273,0.042728834
274,0.030477066
275,0.079930626
276,-0.077487886
277,-0.0741856
278,0.009824613
279,0.008948445
280,0.07911136
281,-0.093476914
282,0.030134004
283,0.036157764
284,0.04695421
285,0.02613106
286,0.02648193
287,-0.004839294
288,-0.08427786
289,0.01973682
290,0.08870629
291,0.041794036
292,0.005429029
293,-0.063163094
294,0.030237375
295,0.05913777
296,0.04584996
297,0.044206996
298,0.009360457
299,-0.10342311
300,0.055156853
301,0.028452052
302,-0.015075869
303,-0.0634533
304,0.026427455
305,-0.013177676
306,-0.05299391
307,0.06706285
308,-0.06999669
309,-0.07969792
310,0.03605574
311,-0.067200854
312,-0.013584111
313,0.018505666
314,-0.083321124
315,-0.029157395
316,0.047693375
317,0.06539174
318,0.05758465
319,0.021024225
320,0.06291216
321,0.0015528756
322,0.034785632
323,0.07167353
324,0.015410032
325,0.04349406
326,0.038934566
327,0.030218912
328,0.07781593
329,-0.060144648
330,0.03658744
331,0.007467303
332,-0.082585424
333,0.060032878
334,0.06959508
335,0.020851022
336,0.0025333837
337,-0.06702426
338,0.026740646
339,0.0077893287
340,0.023893261
341,-0.083783396
342,-0.015126673
343,-0.041121997
344,0.04716415
345,0.005515112
346,0.0073056365
347,0.04275774
348,0.045472115
349,0.041282233
350,-0.061138336
351,-0.011568537
352,-0.08508567
353,0.051491797
354,-0.08239935
355,0.06575632
356,0.06288072
357,-0.031773806
358,0.052011408
359,-0.056367055
360,0.02608676
361,0.002168104
362,-0.070620656
363,-0.06574705
364,0.029141262
365,0.024242343
366,-0.0053471015
367,0.008456982
368,0.12925269
369,0.030962337
370,0.0486467
371,-0.009704017
372,0.03532287
373,0.038904075
374,-0.024448939
375,-0.020423457
376,0.011203838
377,-0.022427805
378,-0.05369853
379,-0.09972471
380,0.016111199
381,0.0458385
382,0.0417809
383,0.025965115
384,0.036677934
385,-0.074861966
386,-0.03338605
387,-0.007586878
388,-0.010510095
389,-0.10776693
390,-0.048926365
391,-0.055491008
392,0.019634347
393,-0.019396735
394,0.056836363
395,0.080071956
396,-0.0067334766
397,-0.0024066009
398,-0.0421408
399,0.013780066
400,0.017588004
401,0.04250755
402,-0.02010905
403,0.061555397
404,0.008237785
405,0.007694276
406,0.0026274116
407,-0.05028442
408,0.06531371
409,0.03910174
410,0.06392688
411,0.02851429
412,-0.0340958
413,-0.041609198
414,-0.051207338
415,-0.047841627
416,0.075577945
417,-0.046560906
418,-0.03353129
419,0.038105182
420,-0.041356094
421,0.055801917
422,-0.01305361
423,-0.05288211
424,0.03498758
425,-0.07189508
426,-0.047600724
427,0.0028822531
428,0.030014755
429,0.022635581
430,-0.047398206
431,0.050575692
432,0.027551742
433,-0.050910775
434,0.03275069
435,-0.0736109
436,0.06383193
437,0.01745754
438,0.04715831
439,0.047753204
440,-0.044766296
441,-0.011037459
442,0.040996447
443,-0.0023430183
444,-0.03044574
445,-0.020698307
446,0.026006099
447,0.023777382
448,-0.052295834
449,-0.020538485
450,0.043023825
451,0.052106418
452,-0.015422167
453,0.019780913
454,0.020104159
455,0.018931562
456,0.032562558
457,0.044994447
458,0.027614782
459,-0.04843436
460,-0.06894896
461,0.040830903
462,-0.073219076
463,0.02450029
464,-0.050325803
465,0.035194602
466,-0.04788318
467,-0.052721962
468,-0.042978883
469,0.06419302
470,-0.042066354
471,0.045330096
472,-0.00959687
473,-0.0076137837
474,-0.022565534
475,0.00067553285
476,0.02132103
477,-0.034220085
478,-0.013164821
479,0.03438021
480,-0.08481008
481,-0.05155864
482,0.03251889
483,0.080071166
484,0.045522027
485,-0.0436137
486,-0.060263332
487,-0.056386676
488,0.04124305
489,0.013576205
490,0.064032465
491,-0.06581014
492,0.051898465
493,-0.05531019
494,-0.007039895
495,-0.0011947298
496,0.091209665
497,0.029071327
498,0.048182487
499,-0.042053748
500,0.051437903
501,-0.066673495
502,-0.018199427
503,0.06427327
504,-0.041725725
505,-0.06744319
506,0.02238368
507,-0.09983791
508,-0.0533709
509,-0.04209126
510,0.02601484
511,-0.054745637
512,-0.068697035
513,0.050695658
514,-0.03017279
515,-0.033684313
516,0.019103663
517,0.050673883
518,-0.04900734
519,-0.074742615
520,0.08683232
521,0.041299902
522,-0.068265714
523,-0.087597385
524,0.0114202015
525,0.039991215
526,-0.0031140065
527,-0.0015705382
528,0.020754667
529,0.028754786
530,-0.052086778
531,-0.03324319
532,0.012149862
533,0.045314535
534,-0.035063192
535,-0.082209416
536,0.017063404
537,0.067725465
538,-0.0322027
539,-0.030216554
540,0.019788003
541,-0.005294145
542,-0.02352842
543,-0.074133694
544,-0.07023571
545,0.0053831334
546,-0.009173829
547,-0.04023628
548,-0.04136959
549,-0.06979328
550,0.02916797
551,0.05473562
552,0.024509102
553,-0.07211549
554,-0.01194867
555,-0.03880139
556,-0.014998742
557,-0.037642185
558,0.02668432
559,0.07689076
560,-0.08937789
561,0.011445727
562,0.034847993
563,0.046773568
564,-0.032669984
565,0.050521374
566,-0.007831768
567,-0.03825885
568,0.012042121
569,-0.029687224
570,0.0045484486
571,-0.020575978
572,-0.008835521
573,0.030688109
574,0.008780244
575,0.031733688
576,-0.05226357
577,-0.04107136
578,0.041716788
579,0.03199191
580,-0.0573756
581,-0.04278307
582,0.053875137
583,-0.044554222
584,-0.055256575
585,-0.05981689
586,0.036811747
587,-0.04861556
588,0.074551344
589,-0.003433089
590,0.02455317
591,-0.032766763
592,-0.052576613
593,0.049316026
594,-0.024900422
595,-0.050172556
596,0.046566635
597,-0.08376897
598,0.06253495
599,-0.060639888
600,-0.030340549
601,-0.017034292
602,-0.03071509
603,-0.0013206402
604,-0.027172927
605,-0.059947807
606,-0.100814834
607,0.020834032
608,-0.050972067
609,-0.04819452
610,0.048629183
611,0.00033425493
612,0.02479499
613,0.025479635
614,-0.0601975
615,0.09426888
616,0.060968913
617,0.014209887
618,0.08293248
619,-0.066154875
620,0.011824889
621,0.042615924
622,-0.009469354
623,-0.041727062
624,-0.0017416897
625,-0.017980639
626,0.051871754
627,-0.023082424
628,0.06483117
629,-0.066757016
630,-0.0531424
631,0.10253527
632,-0.041775122
633,-0.06697888
634,0.053767584
635,-0.09943798
636,-0.0074539217
637,-0.007276247
638,-0.056596722
639,-0.054626953
640,0.027780063
641,-0.07473609
642,-0.03353232
643,-0.026943874
644,-0.029287048
645,0.0150845535
646,0.02489551
647,-0.06658288
648,0.012704813
649,0.047582414
650,-0.056185782
651,-0.087499745
652,-0.008751906
653,0.029136183
654,-0.041662086
655,-0.014566239
656,-0.048263248
657,0.041134488
658,-0.05463632
659,-0.033603203
660,-0.07734434
661,-0.05985125
662,0.03760742
663,-0.059964314
664,-0.039726645
665,-0.04194757
666,-0.030922927
667,-0.020078763
668,0.035017334
669,-0.037272777
670,0.028656205
671,-0.09056945
672,-0.08450761
673,0.04047524
674,-0.000501247
675,0.00403646
676,-0.042079587
677,0.06480438
678,0.026247032
679,0.061513815
680,0.0295569
681,-0.07209062
682,-0.024626255
683,-0.04822097
684,0.0319124
685,-0.004242143
686,0.07271805
687,0.042558793
688,0.020591497
689,-0.015929013
690,-0.05304475
691,-0.0727693
692,-0.036182404
693,0.06401536
694,0.011146737
695,-0.065171145
696,0.0134896
697,-0.028441884
698,-0.0238943
699,-0.020273209
700,0.026278218
701,-0.045428798
702,-0.031074144
703,-0.019400463
704,-0.052300088
705,-0.04102247
706,-0.04089721
707,0.008093527
708,-0.05704897
709,-0.042414293
710,-0.019988226
711,-0.02062236
712,-0.042455688
713,-0.06005934
714,-0.060757734
715,-0.04875979
716,-0.06600893
717,-0.0022171673
718,0.043183107
719,-0.030559674
720,0.009870517
721,-0.007430941
722,-0.047639485
723,-0.05299624
724,-0.025244115
725,0.063086584
726,-0.016990017
727,-0.056963302
728,-0.026348336
729,0.0043473653
730,0.0013257316
731,-0.05273858
732,-0.024438245
733,-0.05964743
734,-0.012488465
735,-0.0371556
736,0.038288623
737,-0.051824924
738,0.022805361
739,0.006656093
740,-0.00112055
741,-0.046221714
742,-0.060028713
743,-0.03805281
744,0.059271462
745,0.021880839
746,-0.07049521
747,0.06684865
748,0.015792873
749,0.037812214
750,0.049169734
751,-0.041294143
752,-0.03228186
753,-0.013513544
754,-0.06599174
755,-0.02043701
756,0.0052256533
757,-0.06679444
758,-0.023190588
759,-0.060639594
760,-0.029778764
761,0.07087434
762,-0.05377874
763,-0.07724972
764,0.0014698223
765,0.011802263
766,0.029893422
767,-0.054380365
768,-0.040780284
769,-0.057366826
770,-0.008211544
771,-0.027295444
772,-0.030267607
773,-0.05428622
774,-0.050337855
775,-0.07761691
776,-0.052790847
777,0.037712205
778,-0.056423627
779,-0.08757161
780,-0.00693814
781,0.049044337
782,-0.041816197
783,-0.004649422
784,-0.0413097
785,0.00018219872
786,-0.038588718
787,-0.00031503433
788,-0.07746035
789,-0.053906135
790,-0.037342247
791,-0.011858942
792,0.011130045
793,-0.04899779
794,-0.058195136
795,-0.018665167
796,0.011757611
797,-0.034484126
798,-0.023972584
799,-0.0724145
800,-0.0249169
801,0.019146223
802,0.0020452081
803,0.03111882
804,-0.04230873
805,-0.02279606
806,0.025159918
807,-0.0505315
808,-0.019154489
809,-0.06444089
810,-0.06641624
811,0.035456102
812,-0.051439833
813,-0.022211483
814,0.06555517
815,-0.03887438
816,-0.08807056
817,0.013570867
818,-0.053015046
819,-0.05692928
820,-0.035759248
821,0.0724493
822,0.051622357
823,-0.06520326
824,0.00671162
825,-0.02760339
826,0.0107463
827,-0.0042308057
828,-0.017490067
829,-0.017245412
830,-0.075735904
831,-0.03837208
832,-0.052327164
833,-0.041221146
834,-0.041058667
835,-0.02054656
836,0.046075195
837,-0.042688675
838,-0.00030916976
839,0.012310324
840,-0.014720751
841,-0.059987642
842,-0.06078755
843,-0.049262013
844,-0.0790775
845,0.014826692
846,-0.02862416
847,-0.041395113
848,0.015718874
849,-0.033958618
850,-0.04774222
851,-0.052934352
852,-0.041038554
853,-0.083710715
854,-0.042495243
855,-0.009449872
856,-0.033259794
857,-0.037999053
858,-0.030366529
859,-0.028534835
860,-0.048757274
861,0.06789531
862,-0.053067498
863,0.014021945
864,-0.04463754
865,0.071588285
866,-0.082447976
867,0.0019742062
868,-0.01075851
869,-0.048126947
870,-0.032918494
871,0.050947927
872,0.00804619
873,0.016732734
874,0.03917141
875,-0.06578903
876,-0.028366042
877,-0.050785676
878,0.07601002
879,0.016825182
880,-0.029664703
881,0.0055977157
882,-0.06623686
883,-0.029855061
884,-0.02477538
885,-0.06690927
886,0.05948643
887,-0.0399687
888,-0.016885733
889,-0.067443274
890,-0.0055808634
891,-0.07926883
892,-0.038059767
893,0.014275227
894,-0.05692656
895,-0.05385285
896,-0.053175047
897,-0.013233182
898,-0.029813783
899,-0.035981204
900,0.060629528
901,0.0009044977
902,-0.05071865
903,-0.01973334
904,-0.049092058
905,-0.050249588
906,-0.037978645
907,-0.08767329
908,-0.010310485
909,0.031863734
910,-0.04171696
911,-0.0062857233
912,-0.054659206
913,-0.0008267447
914,0.05756979
915,0.030275777
916,-0.07713693
917,-0.073750675
918,-0.0410354
919,-0.07373944
920,-0.04426895
921,-0.056675747
922,-0.06228844
923,-0.040311985
924,-0.07951312
925,-0.041662257
926,-0.05122558
927,0.058486152
928,-0.017040133
929,-0.05244555
930,-0.012180782
931,-0.00018778039
932,-0.04171549
933,-0.060046673
934,-0.026870161
935,-0.05334158
936,0.07331115
937,-0.07212056
938,-0.036127415
939,0.07841646
940,-0.037959415
941,0.011274
942,-0.037652113
943,-0.038899027
944,-0.06768354
945,0.000980767
946,-0.05325636
947,-0.035473302
948,-0.025856663
949,-0.0015586847
950,-0.037121065
951,-0.007944534
952,-0.04462335
953,-0.032405384
954,-0.005874052
955,0.042803667
956,-0.043803852
957,-0.030829135
958,-0.0639916
959,-0.03764797
960,-0.0520426
961,-0.041240163
962,-0.04064841
963,-0.027402755
964,-0.05741889
965,-0.0424331
966,-0.09414115
967,-0.051439002
968,-0.09484953
969,-0.06003544
970,-0.061099842
971,-0.048513353
972,-0.077891886
973,-0.046334803
974,-0.024407528
975,-0.04196096
976,-0.05247256
977,-0.04026216
978,0.0169328
979,-0.04348354
980,-0.039845634
981,-0.06964303
982,-0.043879643
983,0.022582674
984,-0.032940112
985,-0.03843055
986,-0.03030013
987,-0.052781858
988,-0.049855582
989,-0.059725534
990,-0.0437093
991,0.023022946
992,-0.047134988
993,-0.02164545
994,-0.05490444
995,0.014822914
996,0.08509009
997,-0.04736415
998,-0.05987861
999,-0.01433716
1000,-0.013229924
1001,-0.061812427
1002,-0.07049556
1003,-0.03156156
1004,0.077815115
1005,-0.05523048
1006,0.02408183
1007,-0.003929338
1008,-0.0051137186
1009,0.012732705
1010,-0.06608142
1011,-0.03184312
1012,-0.008192335
1013,-0.023227537
1014,-0.053319514
1015,-0.0073396885
1016,-0.041669536
1017,-0.066933885
1018,-0.019370902
1019,-0.048500784
1020,-0.037040073
1021,-0.042794973
1022,-0.057007533
1023,-0.05478964
1024,-0.03768408
1025,-0.074660756
1026,-0.03578734
1027,-0.033555157
1028,-0.0067805876
1029,-0.0027927957
1030,-0.050695922
1031,0.0031061473
1032,0.012271931
1033,-0.06686768
1034,-0.04406772
1035,-0.051243298
1036,-0.051410243
1037,0.05145922
1038,-0.014068543
1039,-0.008660711
1040,-0.067210026
1041,-0.06690768
1042,0.028687067
1043,0.0329722
1044,-0.07551575
1045,-0.07393213
1046,-0.03638201
1047,-0.08123899
1048,-0.050203536
1049,0.013544968
1050,0.038456827
1051,-0.007840812
1052,0.055568747
1053,-0.04170278
1054,-0.004367625
1055,-0.05839888
1056,-0.01978854
1057,-0.009373186
1058,-0.034326807
1059,-0.047014635
1060,-0.042003844
1061,-0.06122424
1062,-0.05272252
1063,-0.050533768
1064,-0.065820925
1065,-0.07202713
1066,-0.014114154
1067,-0.07779178
1068,-0.05049617
1069,-0.014097104
1070,-0.105183944
1071,-0.03693066
1072,-0.07819444
1073,-0.010364579
1074,-0.013317902
1075,-0.073167466
1076,-0.03450729
1077,-0.049964517
1078,0.010053689
1079,-0.022968838
1080,-0.016543468
1081,-0.032332987
1082,0.0036361564
1083,0.037908845
1084,-0.043868933
1085,-0.014793884
1086,-0.059247226
1087,-0.036839593
1088,-0.05203772
1089,-0.041324183
1090,-0.040905356
1091,-0.01498266
1092,-0.0571059
1093,-0.042503573
1094,-0.023075515
1095,0.038021654
1096,0.07059037
1097,-0.06001274
1098,-0.06076155
1099,-0.048654497
1100,-0.082180075
1101,-0.046436183
1102,-0.020683805
1103,-0.019157492
1104,-0.042950258
1105,-0.04816968
1106,-0.01859653
1107,-0.043954954
1108,-0.043898974
1109,-0.08371574
1110,-0.042257365
1111,-0.013669989
1112,-0.026527796
1113,-0.046421666
1114,-0.028394803
1115,-0.043328248
1116,-0.03968073
1117,-0.05994876
1118,-0.051807526
1119,-0.043575335
1120,-0.08481298
1121,-0.051826213
1122,-0.082462564
1123,0.0024468992
1124,-0.010748374
1125,-0.046146292
1126,-0.06010716
1127,-0.009796963
1128,-0.045664556
1129,0.0054605524
1130,-0.055441298
1131,-0.032568205
1132,0.0062535387
1133,-0.055070978
1134,-0.014271661
1135,-0.02535127
1136,0.0035867263
1137,-0.0445629
1138,-0.065977685
1139,-0.04181721
1140,0.0013858121
1141,-0.06536518
1142,0.037956405
1143,0.022074379
1144,-0.042072065
1145,-0.025153574
1146,-0.03698996
1147,0.08077094
1148,-0.008384934
1149,0.0074131447
1150,-0.056970745
1151,-0.05438755
1152,-0.03657079
1153,-0.027958304
1154,-0.0034681796
1155,-0.033312183
1156,-0.029677408
1157,0.01698992
1158,-0.049999174
1159,0.020179618
1160,-0.010671339
1161,-0.063019596
1162,-0.058763925
1163,-0.011293233
1164,-0.0017486857
1165,0.032440603
1166,-0.031742577
1167,-0.025834523
1168,-0.044391315
1169,-0.03690246
1170,0.0139041925
1171,0.0023956697
1172,-0.045434956
1173,-0.07406394
1174,-0.03587003
1175,0.006275464
1176,-0.039504286
1177,-0.06402279
1178,0.010700322
1179,-0.041258425
1180,-0.010442703
1181,0.03783601
1182,-0.0010279707
1183,-0.03633053
1184,-0.029932728
1185,-0.027637295
1186,0.027035058
1187,-0.041894704
1188,-0.01552526
1189,-0.055586483
1190,-0.038650487
1191,-0.050544336
1192,-0.024776066
1193,-0.04966488
1194,0.05604216
1195,0.051252183
1196,-0.050269164
1197,-0.022431701
1198,0.059249517
1199,-0.037300408
1200,-0.034354553
1201,0.06650262
1202,-0.053018354
1203,-0.024339765
1204,-0.029892504
1205,-0.017484177
1206,-0.03236334
1207,-0.006205093
1208,0.0032462457
1209,-0.03646503
1210,-0.012389338
1211,0.07872811
1212,-0.03345941
1213,-0.025123503
1214,-0.032891087
1215,-0.038208928
1216,-0.052418835
1217,-0.04106022
1218,-0.04061701
1219,-0.03193544
1220,-0.05713555
1221,-0.04248154
1222,0.025125021
1223,0.008496817
1224,0.0762307
1225,-0.041521102
1226,-0.05641142
1227,-0.020594379
1228,-0.057751004
1229,-0.04641104
1230,-0.021054324
1231,-0.02699763
1232,-0.019664874
1233,-0.037948646
1234,-0.016907673
1235,-0.048560053
1236,-0.0423972
1237,-0.08393429
1238,-0.0084512485
1239,-0.03161668
1240,0.023722606
1241,-0.04053796
1242,-0.003298455
1243,-0.05254051
1244,-0.048891883
1245,-0.020579588
1246,-0.008329772
1247,-0.043428134
1248,-0.044707652
1249,-0.051697344
1250,-0.051283944
1251,0.009082769
1252,0.030045675
1253,-0.019007469
1254,-0.047576394
1255,-0.037872683
1256,-0.06737547
1257,0.020374563
1258,-0.027467942
1259,-0.037610363
1260,0.031369142
1261,-0.05545111
1262,-0.005405018
1263,-0.03700959
1264,-0.010107605
1265,-0.044048186
1266,-0.066158764
1267,-0.03482708
1268,-0.058590718
1269,-0.05550781
1270,-0.03792301
1271,-0.0678128
1272,-0.009848217
1273,-0.040108077
1274,-0.05386619
1275,-0.016581345
1276,-0.03060091
1277,-0.031568944
1278,-0.04820145
1279,-0.022989685
1280,-0.046497606
1281,-0.02935103
1282,-0.008537847
1283,-0.023588045
1284,-0.021877734
1285,-0.01482596
1286,-0.050331514
1287,-0.0011287912
1288,0.008733075
1289,-0.0070164585
1290,-0.052889664
1291,-0.046332587
1292,0.023441631
1293,0.02142948
1294,-0.03147168
1295,0.010848559
1296,-0.031478975
1297,-0.05143697
1298,0.024927804
1299,-0.015345809
1300,-0.021764211
1301,-0.035863034
1302,-0.035008237
1303,0.026206505
1304,0.0048765466
1305,-0.06703892
1306,0.0059803063
1307,-0.018191712
1308,-0.009184059
1309,-0.038550444
1310,0.0108344
1311,-0.022731047
1312,-0.03536494
1313,0.037644647
1314,-0.0019701354
1315,-0.006861979
1316,-0.015315756
1317,-0.049103215
1318,0.012051544
1319,-0.042142604
1320,-0.013828299
1321,-0.020169772
1322,0.03228508
1323,0.04589757
1324,-0.038452696
1325,-0.016692042
1326,-0.0036306842
1327,-0.037638944
1328,-0.02958582
1329,0.04639383
1330,-0.030632174
1331,-0.014846129
1332,-0.030149968
1333,-0.040249452
1334,0.002649975
1335,-0.020579392
1336,-0.01733535
1337,-0.033612706
1338,0.04512615
1339,0.0012999647
1340,-0.014702104
1341,-0.023128154
1342,-0.038695183
1343,-0.03353528
1344,-0.029947836
1345,-0.035281837
1346,-0.040182997
1347,-0.009471218
1348,-0.03454001
1349,-0.04223937
1350,0.003202298
1351,0.06291829
1352,0.009730709
1353,-0.029675072
1354,-0.051393237
1355,-0.009006945
1356,-0.033326056
1357,0.0049579362
1358,-0.026505753
1359,-0.026102787
1360,-0.010253213
1361,-0.028161442
1362,-0.010107826
1363,-0.0065957787
1364,-0.025733862
1365,-0.046218097
1366,-0.022277372
1367,-0.02246586
1368,0.03199461
1369,-0.011604135
1370,-0.025500478
1371,-0.039204523
1372,-0.030352049
1373,-0.017874874
1374,-0.025471171
1375,-0.014183214
1376,-0.032610543
1377,-0.051718
1378,-0.05400533
1379,0.032127015
1380,-0.006264422
1381,-0.013323466
1382,-0.050185613
1383,-0.008008274
1384,-0.05972464
1385,-0.0016907381
1386,-0.037692577
1387,-0.030839285
1388,0.00056858896
1389,-0.05542705
1390,-0.008391504
1391,0.0036190203
1392,-0.0024553877
1393,-0.0034315083
1394,-0.061598506
1395,-0.024208969
1396,-0.058484707
1397,-0.014256171
1398,-0.015051188
1399,-0.03431721
1400,-0.013545453
1401,-0.03500456
1402,-0.036590125
1403,-0.017825188
1404,0.023591753
1405,0.033956584
1406,-0.051952135
1407,-0.03660131
1408,-0.019946864
1409,-0.003993691
1410,-0.001276315
1411,-0.0029307995
1412,0.0045517213
1413,-0.011526096
1414,0.0025604183
1415,-0.011751976
1416,0.0066157063
1417,-0.006861758
1418,0.0015205408
1419,0.0028474035
1420,0.0003850687
1421,-0.015107403
1422,-0.009497657
1423,0.008984248
1424,-0.0017550595
1425,0.0017441566
1426,0.0024512035
1427,0.013550397
1428,-0.0074273897
1429,0.008233935
1430,0.00078382227
1431,0.029307403
1432,0.017242767
1433,-0.013235622
1434,-0.0080602905
1435,-0.0007593924
1436,0.0091861505
1437,0.014185328
1438,-0.007824802
1439,-0.013771474
1440,0.012908085
1441,-0.0011719572
1442,0.0025917857
1443,0.0017093013
1444,-0.003482382
1445,0.0027784798
1446,-0.011473016
1447,-0.006973385
1448,-0.0022933234
1449,-0.002844102
1450,-0.0008287447
1451,-0.0006133103
1452,0.012121219
1453,-0.006376112
1454,-0.0059230896
1455,-0.017923538
1456,0.0013096372
1457,-0.0072850212
1458,0.0054029175
1459,0.007173094
1460,-0.0035611491
1461,0.0041111587
1462,-0.014317986
1463,-0.0018702445
1464,0.00812984
1465,0.011744219
1466,-0.004313164
1467,-0.007815129
1468,-0.0043497845
1469,0.006850169
1470,0.0075506456
1471,0.010707397
1472,0.014187697
1473,-0.0060278713
1474,0.011847014
1475,0.0029247229
1476,-0.017053159
1477,0.0052617695
1478,-0.007372467
1479,-0.020014873
1480,0.01605918
1481,0.005205418
1482,0.0034927938
1483,0.010976107
1484,0.008044475
1485,-0.0067319744
1486,0.010369939
1487,0.0023884103
1488,-0.006091092
1489,0.01003239
1490,-0.01757598
1491,-0.014375968
1492,0.014516007
1493,-0.02051814
1494,-0.0021061196
1495,0.0016811828
1496,0.02892839
1497,0.0011875237
1498,-0.009505961
1499,-0.008653394
1500,0.009104597
1501,0.004312955
1502,0.009842051
1503,-0.007925148
1504,0.0054735327
1505,0.0037172886
1506,-0.017445741
1507,-0.003943719
1508,0.0057804887
1509,0.009142021
1510,0.0010850141
1511,0.00074892
1512,0.005633464
1513,-0.0058055613
1514,-0.008631281
1515,0.00059025956
1516,0.0053937286
1517,0.009939884
1518,-0.0045247376
1519,0.0026696331
1520,-0.012384244
1521,0.025638174
1522,0.0041241874
1523,-0.0010316859
1524,0.0048777843
1525,0.0038943824
1526,-0.009074171
1527,0.0007779722
1528,-0.0023110681
1529,-0.0039087827
1530,0.000101220416
1531,0.010001464
1532,-0.006054825
1533,0.004151661
1534,-0.025567528
1535,-0.01294602
1536,0.0029637786
1537,0.002282422
1538,-0.008528211
1539,-0.010384518
1540,0.01397042
1541,0.012330278
1542,0.018969854
1543,0.003174785
1544,-0.013236074
1545,0.010281269
1546,0.009495022
1547,-0.010992129
1548,-0.0011344346
1549,0.0021685357
1550,-0.002642197
1551,0.01305719
1552,0.0023363258
1553,0.01116702
1554,0.00076201855
1555,-0.010178512
1556,-0.013200724
1557,0.0062624495
1558,0.013469266
1559,-0.0061441544
1560,0.0023018306
1561,0.0076798447
1562,0.009440535
1563,-0.009406331
1564,-0.016680103
1565,-0.016655924
1566,-0.005223479
1567,0.002771418
1568,-0.0011492531
1569,0.0003917126
1570,0.004196548
1571,0.011416603
1572,-0.0038653284
1573,0.0030990022
1574,0.008350172
1575,-0.00023292984
1576,-0.0062129283
1577,-0.0028179272
1578,-0.001892166
1579,-0.006823272
1580,0.0067604375
1581,-0.0007108369
1582,-0.006990461
1583,-0.010547227
1584,-0.009009653
1585,0.015198873
1586,0.010026201
1587,-0.0004653163
1588,-0.012390652
1589,0.013568963
1590,-0.0065062074
1591,-0.004719743
1592,-0.005458581
1593,-0.012118762
1594,0.008488416
1595,0.0045934585
1596,-0.0039623966
1597,0.0052671563
1598,0.0030650818
1599,5.4342613e-06
1600,-0.0075065335
1601,-0.012178758
1602,0.009426687
1603,-0.011511306
1604,0.010499817
1605,0.0034607877
1606,-0.0076669115
1607,0.0072192214
1608,0.014098484
1609,0.003113273
1610,0.014183494
1611,-0.0025164923
1612,-0.0007665949
1613,0.014799244
1614,0.0074388483
1615,0.005221285
1616,0.0053073466
1617,-0.0013304353
1618,0.0035654323
1619,0.0006350614
1620,-0.008016467
1621,-0.014306926
1622,0.005903464
1623,0.0050829384
1624,0.0073746904
1625,0.008530076
1626,-0.004627286
1627,-0.0075299526
1628,0.009962925
1629,0.012728898
1630,0.011232867
1631,-0.004861079
1632,0.019967377
1633,-0.011180297
1634,0.017766131
1635,-0.0030603774
1636,-0.013697145
1637,-0.004649639
1638,0.0066214968
1639,0.005210681
1640,-0.0011390322
1641,0.0020542734
1642,0.0070171184
1643,0.005996472
1644,-0.015053213
1645,-0.005947258
1646,-0.0004742481
1647,0.0043716445
1648,0.008453802
1649,-0.0019118121
1650,0.004104183
1651,-0.0011527601
1652,-0.0014612002
1653,0.011595237
1654,0.011425079
1655,0.0010959796
1656,0.009435092
1657,-0.0052009844
1658,0.00907146
1659,-0.0027710714
1660,7.938708e-06
1661,0.0017783439
1662,-0.004109539
1663,-0.0007031885
1664,0.002900475
1665,-0.0061824014
1666,0.012035357
1667,0.0047624917
1668,0.0050498485
1669,0.0033016219
1670,0.0027352502
1671,-0.01619125
1672,0.008420049
1673,0.0058201486
1674,-0.000584529
1675,-0.0042175567
1676,-0.005248566
1677,-0.0038598098
1678,0.0026867427
1679,0.0016714545
1680,0.0053217737
1681,-0.00018546804
1682,0.0037368697
1683,0.010977218
1684,-0.007838572
1685,-0.01069035
1686,-0.001882797
1687,0.0026894743
1688,-0.00076492556
1689,-0.0019057187
1690,-0.009642095
1691,0.014828156
1692,-0.009171724
1693,-0.0048561753
1694,0.003870429
1695,-0.002929346
1696,0.00366982
1697,-0.00868274
1698,-0.0024069587
1699,-0.0054241978
1700,-0.00947609
1701,-0.012132719
1702,0.0012851267
1703,-0.012907835
1704,0.004472346
1705,0.0050022556
1706,0.00014880794
1707,0.0126552805
1708,0.0056221834
1709,0.013602797
1710,-0.00028299747
1711,-0.00857137
1712,-0.006430639
1713,0.0007351131
1714,-0.005742802
1715,0.013994957
1716,-0.017519094
1717,0.0004405699
1718,0.006986277
1719,-0.018382093
1720,0.010069748
1721,-0.008231727
1722,-0.007765054
1723,-0.0036418682
1724,0.0049014813
1725,-0.0025959243
1726,0.011380137
1727,0.009272486
1728,0.010973098
1729,0.017191812
1730,0.0077651
1731,0.012147482
1732,-0.015697503
1733,-0.0053223213
1734,-0.0029777028
1735,-0.008114817
1736,0.016798934
1737,-0.005641639
1738,-0.009137502
1739,0.010935156
1740,-0.012402556
1741,0.01562908
1742,-0.005798156
1743,-0.002683431
1744,0.00654105
1745,-0.006883834
1746,-0.01613813
1747,-0.0069688642
1748,-0.007175744
1749,-0.009518388
1750,-0.0011073686
1751,0.0076430235
1752,-0.0040448327
1753,0.00088357285
1754,0.0077706543
1755,-0.006110734
1756,-0.0041168053
1757,0.006634256
1758,0.0009567858
1759,-0.0027806982
1760,0.005343167
1761,-0.004691671
1762,-0.00808332
1763,-0.013204725
1764,-0.012297083
1765,0.0017058388
1766,0.016119642
1767,0.012354668
1768,0.0009990806
1769,0.0031079808
1770,0.0018047985
1771,-0.0007224124
1772,0.015920214
1773,0.010572454
1774,-0.010263648
1775,-0.009902752
1776,-0.004059173
1777,0.012562647
1778,-0.005108776
1779,0.008815182
1780,-0.0026054867
1781,0.005327778
1782,-0.017885188
1783,0.006726482
1784,0.0104091475
1785,-0.010874329
1786,0.0033433218
1787,-0.0075990413
1788,0.017055888
1789,0.010128239
1790,-0.0079515055
1791,0.008909187
1792,-0.007054416
1793,0.0006736986
1794,0.0023243465
1795,0.008472982
1796,0.0005084193
1797,-0.006887134
1798,0.0052895914
1799,-0.0015895828
1800,0.013553297
1801,-0.016715337
1802,-0.008828799
1803,-0.0039049347
1804,-0.009202712
1805,-0.005497147
1806,0.017516837
1807,-0.015975725
1808,-0.0012162839
1809,-0.011784154
1810,0.008755005
1811,-0.010944087
1812,0.009123916
1813,-0.009542335
1814,0.013586839
1815,-0.012096317
1816,0.0011900231
1817,0.00070962816
1818,0.017408812
1819,0.0034712842
1820,0.0029893753
1821,0.0010860517
1822,-0.0072023934
1823,-0.015127068
1824,-0.012429676
1825,-0.0065161553
1826,-0.0022048445
1827,0.008496554
1828,-0.0072462945
1829,-0.002207352
1830,0.002846782
1831,-0.010366414
1832,-0.011759372
1833,-0.0133289285
1834,0.003710226
1835,0.00029895484
1836,0.014213564
1837,0.0054046977
1838,-0.0017806407
1839,-0.0039234143
1840,0.002346746
1841,0.00022513334
1842,0.008908052
1843,0.0080574555
1844,-0.006248571
1845,0.011170167
1846,-0.00320998
1847,0.0039425865
1848,-0.0047192243
1849,-0.003244622
1850,0.00096307095
1851,-0.008485281
1852,-0.003401041
1853,0.014543969
1854,-0.0008801228
1855,0.0023187255
1856,0.005175787
1857,-0.004010031
1858,0.0015145296
1859,0.0010787073
1860,0.0003416634
1861,-0.0006594092
1862,0.011751798
1863,-0.00741501
1864,-0.011514145
1865,0.004956175
1866,-0.013430476
1867,0.0015320433
1868,0.00060125446
1869,0.0054374556
1870,-0.019026034
1871,-0.0046360837
1872,0.0074154013
1873,0.016242344
1874,0.010958549
1875,-0.008643757
1876,0.0008629153
1877,0.0012639245
1878,0.011283651
1879,-0.005726613
1880,-0.0072464882
1881,0.0045218333
1882,-0.0120343035
1883,-0.0066677458
1884,0.0057174996
1885,-0.012210543
1886,-0.0065198434
1887,-0.00016037708
1888,0.018502558
1889,0.015431294
1890,-0.0035884422
1891,0.011681181
1892,0.0003164114
1893,0.013025426
1894,-0.013774029
1895,-0.011924502
1896,0.0055173505
1897,0.0072388807
1898,-0.0076894984
1899,-0.011315386
1900,-0.0033653637
1901,0.010167361
1902,-0.00017924793
1903,-0.012562072
1904,0.0068765283
1905,-0.0061156903
1906,0.0069746026
1907,-0.009098526
1908,0.008821796
1909,0.017376367
1910,-0.008878844
1911,-0.0006893366
1912,-0.0023241225
1913,0.012994881
1914,0.00040929636
1915,-0.019196345
1916,0.0026383211
1917,-0.018280357
1918,0.0065849256
1919,-0.007978513
1920,0.0010519301
1921,-0.011721558
1922,0.0015364923
1923,-0.016502941
1924,0.01905152
1925,0.012345768
1926,-0.012066254
1927,0.005534998
1928,0.015215637
1929,-0.005816395
1930,-0.014878188
1931,0.0141057605
1932,-0.00022861517
1933,0.0027939917
1934,-0.0039866706
1935,-0.001488672
1936,-0.0049499497
1937,-0.005324288
1938,-0.0040057553
1939,0.0077733784
1940,-0.0119932
1941,-0.009473557
1942,-0.006058253
1943,0.009395135
1944,-0.012642189
1945,-0.016289467
1946,-0.007291111
1947,-0.008033152
1948,0.0014208319
1949,0.007981476
1950,-0.00047861112
1951,0.014077801
1952,0.0059699807
1953,-0.0016688523
1954,-0.0051158736
1955,0.008062643
1956,0.0021630279
1957,-0.0037516542
1958,0.010770708
1959,-0.003654205
1960,-0.0015853482
1961,-0.013845254
1962,-0.0010165928
1963,0.0067608296
1964,-0.0063592074
1965,0.010309596
1966,0.0070783636
1967,-0.006425168
1968,-0.0046543507
1969,0.007111118
1970,0.0020590103
1971,-0.0007482767
1972,0.0003452267
1973,0.004176101
1974,-0.0024398793
1975,-0.010082211
1976,0.007955647
1977,-0.0025214388
1978,0.0073398505
1979,-0.00226191
1980,-0.004699177
1981,-0.0017460958
1982,-0.0056064473
1983,0.0071135745
1984,0.010268041
1985,-0.0010976769
1986,-0.0052277516
1987,-0.0155699905
1988,0.008146945
1989,0.0018080603
1990,0.0023693996
1991,-0.0030053349
1992,0.0009044489
1993,0.0040033087
1994,0.0015113257
1995,0.009846894
1996,-0.008279758
1997,-0.0183174
1998,0.0036092363
1999,-0.004591434
2000,0.007845906
2001,-0.0028765863
2002,0.005238584
2003,-0.0076717716
2004,0.010704366
2005,0.0063955216
2006,0.008507745
2007,0.01258768
2008,0.007871078
2009,0.00088157086
2010,-0.0038904275
2011,0.014629647
2012,0.00036411048
2013,0.0038066327
2014,0.003317785
2015,0.0069769174
2016,0.003787912
2017,0.012731059
2018,-0.003999672
2019,0.003952348
2020,-0.011580991
2021,0.0027709848
2022,0.010116204
2023,-0.0037238523
2024,0.00720908
2025,-0.0063803457
2026,0.014940537
2027,-0.01347826
2028,-0.0059381714
2029,-0.008000047
2030,0.015141736
2031,-0.0071051046
2032,0.0068657356
2033,-0.009617847
2034,0.010031505
2035,0.010540592
2036,-0.018025525
2037,-0.008539205
2038,-0.0078375125
2039,-0.00813518
2040,0.004453377
2041,0.00706627
2042,0.0005023484
2043,-0.0052599185
2044,-0.004878519
2045,-0.012055082
2046,-0.0040307087
2047,0.011457295
2048,-0.0068428116
2049,-0.013695538
2050,0.029117199
2051,0.026314018
2052,0.028421374
2053,0.009464423
2054,0.038022622
2055,-0.02250123
2056,-0.08786913
2057,-0.020656714
2058,-0.05878865
2059,-0.0051920605
2060,0.022419428
2061,0.007065988
2062,0.0050062626
2063,0.05006525
2064,-0.06872567
2065,-0.028721752
2066,0.024507964
2067,0.032631896
2068,-0.047059335
2069,-0.009633588
2070,-0.0046549765
2071,-0.009811365
2072,-0.08018614
2073,-0.06790113
2074,-0.026794652
2075,0.03081407
2076,0.012354134
2077,0.018601699
2078,0.050302383
2079,-0.06629581
2080,-0.026729973
2081,0.052115973
2082,0.0100834165
2083,0.024409147
2084,0.01271822
2085,-0.042725112
2086,0.009920901
2087,0.037603635
2088,-0.046495385
2089,-0.016480135
2090,0.031128285
2091,-0.0033316258
2092,-0.056140255
2093,0.04494807
2094,0.013135841
2095,0.0049358266
2096,0.0057423385
2097,0.02590862
2098,0.05183671
2099,-0.016851228
2100,-0.0661805
2101,-0.07328143
2102,0.016228868
2103,0.035746463
2104,0.043989137
2105,0.012208431
2106,-0.05776227
2107,0.029205618
2108,-0.04849655
2109,-0.0030464625
2110,-0.058424193
2111,0.004498216
2112,0.007774292
2113,-0.004065488
2114,0.0063531483
2115,-0.0072801057
2116,0.013710878
2117,-0.014208619
2118,-0.0066146743
2119,-0.03737305
2120,0.05464272
2121,0.023243072
2122,-0.042251907
2123,0.009368437
2124,-0.008398429
2125,0.007885616
2126,0.03426854
2127,0.009909642
2128,0.051865105
2129,-0.05051389
2130,0.046720553
2131,-0.07147607
2132,0.026632467
2133,-0.0228309
2134,0.017242396
2135,0.06476716
2136,-0.0069544837
2137,0.025990147
2138,0.022921
2139,-0.046075445
2140,0.02270568
2141,0.028491655
2142,0.014110681
2143,0.042675976
2144,-0.06310218
2145,0.004058495
2146,-0.049658574
2147,-0.08110672
2148,0.027272705
2149,0.019263247
2150,-0.053318296
2151,0.024420466
2152,-0.06261007
2153,0.060896065
2154,0.009667073
2155,-0.042374067
2156,0.08030992
2157,-0.04688452
2158,0.06773486
2159,0.040563904
2160,-0.06458634
2161,0.020701256
2162,-0.048320465
2163,-1.8869549e-05
2164,-0.065370515
2165,-0.008803027
2166,0.021737624
2167,-0.10347435
2168,0.04078737
2169,-0.0065548234
2170,-0.01698383
2171,0.014416377
2172,0.032545943
2173,0.04119732
2174,-0.013732954
2175,-0.043253794
2176,-0.039977785
2177,-0.07275936
2178,-0.013974014
2179,0.015089549
2180,0.012103465
2181,-0.114132166
2182,0.025797231
2183,0.0793406
2184,0.04848446
2185,0.06603223
2186,0.0039372705
2187,-0.08844235
2188,0.0429318
2189,0.043241587
2190,0.039556593
2191,0.01740814
2192,0.065791704
2193,-0.046460886
2194,0.016021948
2195,-0.080963045
2196,-0.011261645
2197,0.072295584
2198,0.017305685
2199,0.019548997
2200,0.057004593
2201,-0.06789517
2202,0.07546666
2203,0.03771208
2204,0.04436912
2205,-0.015688606
2206,0.027041098
2207,0.006043437
2208,-0.076600924
2209,0.035913985
2210,0.02301989
2211,0.037044384
2212,0.039447833
2213,-0.05705567
2214,0.051794544
2215,-0.06249583
2216,0.02231673
2217,0.061036248
2218,0.04517642
2219,-0.0540253
2220,0.04878149
2221,0.041783422
2222,0.021581693
2223,-0.07924769
2224,0.023358805
2225,0.026190713
2226,0.039873708
2227,-0.07046471
2228,0.06842418
2229,-0.07340987
2230,0.030578902
2231,0.06271374
2232,-0.006165512
2233,-0.01889373
2234,0.014924321
2235,-0.042619687
2236,0.042715494
2237,-0.06692607
2238,-0.059734154
2239,0.031188054
2240,0.050553434
2241,0.039608415
2242,0.02237037
2243,0.066953585
2244,-0.0005871738
2245,0.025905624
2246,0.017515106
2247,0.046952788
2248,0.017955223
2249,0.058802046
2250,0.059678882
2251,0.046607643
2252,0.0027286913
2253,0.03413514
2254,-0.07089408
2255,0.047119416
2256,-0.0050811586
2257,0.06593176
2258,0.039985605
2259,0.04959885
2260,0.038288724
2261,-0.06506583
2262,0.03648673
2263,0.03398988
2264,0.022460325
2265,0.033414003
2266,-0.018580372
2267,0.03618851
2268,0.045963217
2269,0.03062145
2270,0.0039622057
2271,0.006896237
2272,0.08401007
2273,0.04999188
2274,-0.049635783
2275,0.043253135
2276,0.05644097
2277,0.043129258
2278,0.058701843
2279,-0.048246693
2280,-0.06245722
2281,-0.05775093
2282,-0.06963443
2283,-0.001232792
2284,-0.074156426
2285,0.05434063
2286,-0.0771629
2287,0.005362469
2288,0.14006193
2289,0.04099508
2290,-0.05351134
2291,0.008646544
2292,-0.06538061
2293,0.052687313
2294,-0.049750604
2295,-0.05278263
2296,0.0118351625
2297,-0.074209444
2298,0.036099248
2299,0.09730127
2300,0.05278518
2301,0.03579684
2302,0.016189199
2303,0.05295359
2304,0.066300005
2305,0.07372464
2306,0.026778072
2307,0.015007066
2308,-0.013341274
2309,0.058782004
2310,0.02532757
2311,-0.090631045
2312,0.037223216
2313,0.038932826
2314,0.052513096
2315,0.0865307
2316,0.049050536
2317,0.01241212
2318,0.021575099
2319,0.0014341137
2320,-0.025249518
2321,0.03397221
2322,-0.042941906
2323,0.030630492
2324,-0.015429054
2325,-0.06020838
2326,0.033484604
2327,-0.018959003
2328,0.05702949
2329,0.09261648
2330,-0.038285796
2331,0.015358311
2332,0.019145103
2333,0.028505102
2334,0.00741794
2335,0.071757056
2336,-0.07237636
2337,-0.034489423
2338,0.077829786
2339,0.038618542
2340,0.016850378
2341,-0.06581562
2342,0.041150935
2343,0.04774599
2344,0.06389657
2345,0.07094888
2346,0.0047685485
2347,0.10279208
2348,0.043929767
2349,0.025178798
2350,0.0088770995
2351,-0.07932477
2352,0.009944558
2353,0.045395616
2354,-0.06783299
2355,0.0717552
2356,-0.06621247
2357,-0.07337483
2358,0.020605784
2359,-0.08662601
2360,-0.017953577
2361,0.009780505
2362,0.08211928
2363,0.054979384
2364,0.00306665
2365,0.08028349
2366,0.074651964
2367,0.015260016
2368,0.047637284
2369,-0.015812201
2370,0.03933432
2371,-0.073917486
2372,0.014357845
2373,0.036531303
2374,-0.0031236701
2375,0.027061976
2376,-0.057181273
2377,-0.07118137
2378,-0.00013845076
2379,0.044631224
2380,-0.044165894
2381,0.042667206
2382,0.069030486
2383,0.023442876
2384,-0.016686512
2385,-0.050594572
2386,0.009386984
2387,0.051764585
2388,0.012971762
2389,-0.06534696
2390,0.041945286
2391,-0.07848192
2392,-0.021679258
2393,0.03628077
2394,0.016866205
2395,0.03972065
2396,-0.0022638366
2397,0.023361696
2398,0.017363904
2399,0.012731214
2400,-0.04918079
2401,0.045061857
2402,-0.049604885
2403,0.06185567
2404,0.035944693
2405,-0.039629553
2406,0.053997196
2407,-0.09317087
2408,0.03745333
2409,-0.027534626
2410,-0.084836885
2411,-0.052235525
2412,-0.055189963
2413,0.045947053
2414,-0.050348036
2415,0.0067600794
2416,-0.13012479
2417,0.043556176
2418,0.06486559
2419,0.015993189
2420,0.056846514
2421,0.06564794
2422,-0.02613032
2423,0.018620657
2424,0.0069173337
2425,-0.013397643
2426,0.052732054
2427,-0.08780293
2428,-0.0034859888
2429,-0.048716757
2430,0.05469228
2431,0.045994066
2432,0.035156123
2433,-0.07267825
2434,-0.014507666
2435,-0.030165367
2436,-0.04378153
2437,0.106318064
2438,-0.048624493
2439,-0.06922068
2440,-0.034074027
2441,0.017091254
2442,0.065553375
2443,0.07856981
2444,0.004149127
2445,-0.047147695
2446,-0.0017812673
2447,0.0035507819
2448,0.027800499
2449,0.065462366
2450,-0.04536408
2451,0.021639474
2452,0.07705303
2453,0.030518577
2454,0.00019796641
2455,0.0176466
2456,0.029313965
2457,0.02460645
2458,-0.06514855
2459,0.019125069
2460,0.023201328
2461,-0.022088952
2462,-0.03083543
2463,0.0011101662
2464,0.08114542
2465,-0.04096259
2466,-0.09081325
2467,0.029966023
2468,-0.028722107
2469,0.06885023
2470,0.0094375685
2471,-0.06256368
2472,0.072438166
2473,-0.061145145
2474,-0.031142628
2475,-0.0031072255
2476,-0.012754246
2477,-0.00012539298
2478,0.046942875
2479,0.034102682
2480,-0.03055141
2481,-0.053514905
2482,0.0155882565
2483,-0.07081991
2484,0.028363885
2485,0.00901145
2486,-0.0096501075
2487,0.03924772
2488,-0.052948
2489,0.036424764
2490,0.0030317132
2491,-7.07389e-05
2492,-0.023827216
2493,-0.066891745
2494,0.05732207
2495,0.032978524
2496,-0.06448428
2497,0.0015982349
2498,0.03057421
2499,-0.055786952
2500,-0.033813108
2501,0.041653045
2502,0.004809935
2503,0.035098847
2504,-0.024203468
2505,0.055550832
2506,0.049345743
2507,-0.051476073
2508,-0.06527982
2509,0.044740178
2510,-0.070842475
2511,0.011199705
2512,-0.04403819
2513,0.00038008182
2514,-0.04531434
2515,-0.010704768
2516,-0.049604572
2517,0.075285
2518,0.03137814
2519,0.032160364
2520,-0.013109491
2521,0.010377725
2522,0.0011305418
2523,0.05171573
2524,-0.009823358
2525,-0.042984463
2526,0.099578105
2527,-0.012097504
2528,-0.06284761
2529,-0.0609764
2530,0.053647164
2531,0.067685686
2532,0.047620013
2533,-0.038652573
2534,-0.05328748
2535,-0.09554092
2536,0.04298724
2537,-0.023263982
2538,0.06223636
2539,-0.068768606
2540,-0.019714283
2541,-0.0469053
2542,-0.051339183
2543,0.015360818
2544,0.025608532
2545,0.022323888
2546,0.062365554
2547,0.041705474
2548,0.057937566
2549,-0.06009353
2550,-0.023948755
2551,0.11813969
2552,-0.04954158
2553,-0.059310555
2554,-0.038009536
2555,-0.08747701
2556,-0.018429656
2557,-0.049145833
2558,0.026530834
2559,-0.04344217
2560,-0.040076956
2561,0.06662914
2562,-0.006666987
2563,-0.041400183
2564,-0.061508436
2565,-0.052404176
2566,-0.048685636
2567,-0.062575646
2568,-0.08788346
2569,-0.04467438
2570,-0.059087817
2571,-0.08897261
2572,0.0037482807
2573,-0.052087866
2574,-0.0070756185
2575,-0.045860596
2576,0.04708052
2577,0.02509105
2578,-0.038960546
2579,-0.08096715
2580,0.07460923
2581,0.05203381
2582,-0.039894752
2583,0.01402276
2584,0.027986625
2585,0.04580462
2586,0.03042008
2587,-0.04071392
2588,-0.022397589
2589,-0.03916339
2590,-0.042571254
2591,-0.0013422442
2592,-0.07677604
2593,0.011912287
2594,-0.00049228326
2595,-0.016396284
2596,-0.028666196
2597,-0.06500835
2598,0.024883918
2599,0.043377247
2600,0.021268295
2601,-0.047581133
2602,0.010596433
2603,0.03913829
2604,0.02021776
2605,-0.03425344
2606,-0.027459126
2607,0.06272365
2608,0.08908092
2609,-0.06863284
2610,0.04370377
2611,0.061814487
2612,-0.06610775
2613,0.07912615
2614,-0.050078377
2615,-0.048760913
2616,-0.0108348755
2617,-0.02535532
2618,0.009653143
2619,0.02021664
2620,-0.048634496
2621,0.0151763735
2622,0.028782045
2623,-0.00010260342
2624,-0.06439204
2625,-0.011795494
2626,0.034248725
2627,-0.009657922
2628,-0.046871416
2629,-0.044798285
2630,0.04399825
2631,-0.028554346
2632,0.049257495
2633,-0.04613988
2634,0.053923845
2635,-0.024024064
2636,0.08113467
2637,0.021806473
2638,0.016861847
2639,-0.03589122
2640,-0.04411082
2641,0.032078646
2642,-0.045332126
2643,-0.020533992
2644,0.028022839
2645,-0.065122865
2646,-0.06403477
2647,-0.07854456
2648,-0.024662757
2649,-0.024435792
2650,-0.03907286
2651,0.027197517
2652,-0.05139181
2653,-0.068516806
2654,0.012142537
2655,0.023614075
2656,-0.06283714
2657,-0.07249446
2658,0.07989848
2659,0.0044895923
2660,-0.0022413915
2661,-0.039656077
2662,-0.053276777
2663,0.05572893
2664,0.06680289
2665,-0.019136878
2666,0.069262005
2667,-0.06863508
2668,-0.052401893
2669,0.044566058
2670,-0.07689425
2671,-0.04258145
2672,0.031114869
2673,0.02111999
2674,0.063225165
2675,-0.02254615
2676,0.0516334
2677,-0.059770346
2678,-0.060268838
2679,0.089800276
2680,-0.011314332
2681,-0.07414715
2682,-0.054586247
2683,-0.08751543
2684,-0.04517339
2685,0.0016172174
2686,-0.045977633
2687,-0.043379754
2688,0.040516064
2689,-0.05103091
2690,0.0041350294
2691,-0.016626505
2692,-0.06230718
2693,-0.05173167
2694,0.04771888
2695,-0.09080463
2696,0.046884462
2697,-0.05058707
2698,-0.05903856
2699,-0.088948414
2700,-0.00881195
2701,-0.052095924
2702,-0.008063058
2703,-0.010880737
2704,-0.04313006
2705,0.026733004
2706,0.039782774
2707,-0.0648107
2708,-0.015488775
2709,-0.014609842
2710,0.03945285
2711,0.025126517
2712,0.039293073
2713,-0.06801344
2714,-0.02680206
2715,-0.040746585
2716,-0.015875237
2717,-0.02742643
2718,0.015362118
2719,-0.04829794
2720,-0.06839673
2721,-0.039684944
2722,-0.036949717
2723,-0.043389432
2724,-0.030522833
2725,0.05827212
2726,0.02467025
2727,0.049563788
2728,-0.0026468644
2729,-0.061385904
2730,0.008686176
2731,-0.0410941
2732,0.010001546
2733,0.020951787
2734,-0.07328685
2735,0.037067093
2736,-0.017299587
2737,-0.04520933
2738,-0.052331045
2739,-0.04984798
2740,-0.06612817
2741,0.03756114
2742,-0.0523138
2743,-0.08632685
2744,-0.016304454
2745,-0.023979738
2746,-0.019716062
2747,0.001879487
2748,0.01737018
2749,-0.03315882
2750,-0.030989205
2751,-0.033046994
2752,-0.064649604
2753,-0.003743529
2754,-0.042547487
2755,-0.07353084
2756,-0.046921067
2757,-0.04440191
2758,0.015880933
2759,-0.014084111
2760,0.017989
2761,-0.071001135
2762,-0.04210827
2763,-0.05146474
2764,-0.07571655
2765,0.0021741237
2766,0.022663591
2767,-0.038835034
2768,0.007936554
2769,0.036717553
2770,-0.045351274
2771,-0.0011309871
2772,-0.048495542
2773,0.08314209
2774,-0.008995507
2775,-0.078337
2776,-0.009886018
2777,-0.008246448
2778,0.029933834
2779,-0.009281766
2780,-0.010956186
2781,-0.06841645
2782,0.053480964
2783,-0.04003884
2784,0.03580014
2785,-0.072465956
2786,0.049019013
2787,-0.009295037
2788,0.0006476189
2789,0.018583426
2790,-0.047140896
2791,-0.06149319
2792,0.042436007
2793,-0.014325155
2794,-0.0845968
2795,0.06366444
2796,-0.025739597
2797,0.04912599
2798,-0.004739585
2799,-0.042414986
2800,-0.00086837856
2801,-0.019328386
2802,-0.053166177
2803,-0.034599606
2804,-0.06541183
2805,-0.059939776
2806,-0.060664844
2807,-0.10345206
2808,0.0126247415
2809,0.065028906
2810,0.026746511
2811,-0.08771434
2812,0.009038357
2813,-0.01606856
2814,0.031732574
2815,-0.043203555
2816,-0.040127482
2817,-0.037209194
2818,-0.0030620864
2819,-0.024937516
2820,0.017792253
2821,-0.018538935
2822,-0.029880516
2823,-0.09034368
2824,0.052060187
2825,-0.048260696
2826,-0.05918464
2827,-0.088947155
2828,0.006301119
2829,-0.033154625
2830,0.020327846
2831,-0.0032567913
2832,-0.017823039
2833,-0.001803488
2834,0.054735366
2835,-0.033909246
2836,0.005994519
2837,-0.035162233
2838,-0.038835604
2839,-0.008390079
2840,0.0012280414
2841,-0.06794344
2842,0.0051252805
2843,0.015444313
2844,0.058225907
2845,-0.039177388
2846,-0.026881246
2847,0.0028233032
2848,0.0026920405
2849,-0.038502373
2850,-0.005063923
2851,-0.011315122
2852,-0.030406078
2853,-0.06577413
2854,0.017262291
2855,-0.06251765
2856,0.030219734
2857,-0.02318365
2858,-0.05197372
2859,-0.03559315
2860,-0.0525963
2861,-0.037831403
2862,-0.07332693
2863,-0.054258503
2864,-0.019841788
2865,-0.016219184
2866,-0.036459297
2867,-0.04356114
2868,-0.066339895
2869,0.047681306
2870,-0.05240024
2871,-0.08659366
2872,-0.019550156
2873,-0.025935646
2874,-0.0015413902
2875,-0.05899023
2876,-0.024777627
2877,-0.019393202
2878,-0.03330085
2879,-0.029674338
2880,-0.06427329
2881,-0.050249
2882,-0.050542783
2883,-0.07355087
2884,0.056308746
2885,-0.04441533
2886,-0.0254984
2887,0.01272859
2888,0.0149699785
2889,-0.07119742
2890,-0.041913223
2891,-0.051410366
2892,-0.0759518
2893,-0.014768849
2894,-0.045177788
2895,-0.03877873
2896,-0.010821697
2897,-0.05019756
2898,0.021565314
2899,0.03738915
2900,-0.04974147
2901,-0.036712356
2902,0.010601443
2903,-0.052012607
2904,-0.0047913496
2905,-0.0036735942
2906,-0.0016235
2907,-0.008091304
2908,-0.05147862
2909,0.05884508
2910,0.011290385
2911,-0.040181935
2912,-8.266399e-05
2913,0.04575768
2914,-0.03480613
2915,-0.0066970903
2916,0.012290422
2917,-0.005726824
2918,-0.024134457
2919,0.014157722
2920,-0.062310625
2921,-0.023418764
2922,0.055958476
2923,-0.06860767
2924,-0.028290663
2925,-0.046618853
2926,0.00422771
2927,-0.023494817
2928,-0.00487106
2929,-0.018187622
2930,-0.053664114
2931,0.008069599
2932,-0.06541258
2933,-0.060115654
2934,0.052000392
2935,-0.1033407
2936,-0.04934283
2937,-0.07439344
2938,0.014294631
2939,-0.08736481
2940,0.0016566494
2941,-0.021354556
2942,-0.045812838
2943,-0.024064593
2944,-0.03248409
2945,-0.029361872
2946,-0.04455181
2947,-0.04116092
2948,-0.061822288
2949,-0.06827996
2950,-0.04865795
2951,-0.090429164
2952,-0.007390568
2953,-0.050815854
2954,-0.05876732
2955,-0.04019958
2956,0.004766239
2957,-0.05214987
2958,0.02839905
2959,0.0014127025
2960,-0.015085308
2961,-0.046265237
2962,-0.058258243
2963,-0.08067826
2964,-0.012607805
2965,-0.060159303
2966,-0.039939143
2967,-0.015871076
2968,-0.011599168
2969,-0.044805985
2970,0.059148457
2971,-0.040927093
2972,0.0791666
2973,-0.038846686
2974,0.022490535
2975,0.12831323
2976,-0.01721031
2977,-0.041560907
2978,-0.03498776
2979,-0.04347836
2980,-0.030590113
2981,-0.057307705
2982,-0.026621101
2983,-0.06250695
2984,-0.0738175
2985,-0.05086866
2986,-0.038882453
2987,-0.07976237
2988,-0.046504606
2989,-0.03879636
2990,0.034967314
2991,-0.07932681
2992,0.03422548
2993,-0.014266117
2994,-0.06684102
2995,-0.049334094
2996,-0.017122822
2997,0.016957423
2998,-0.05222989
2999,-0.08589939
3000,-0.024351718
3001,-0.025874669
3002,-0.015183197
3003,-0.04195576
3004,-0.04830904
3005,-0.031131629
3006,-0.017000899
3007,-0.033055257
3008,-0.064246304
3009,-0.050238643
3010,-0.04939536
3011,-0.029907191
3012,-0.046941094
3013,-0.04496243
3014,0.093382046
3015,0.050337613
3016,0.0942193
3017,-0.047710065
3018,-0.042245932
3019,-0.027346049
3020,-0.07553968
3021,-0.024390848
3022,-0.029148163
3023,-0.038535886
3024,-0.044422615
3025,-0.050189853
3026,-0.0455765
3027,0.033902094
3028,-0.049784146
3029,-0.06511656
3030,0.02282894
3031,-0.025856383
3032,0.01677174
3033,-0.008253605
3034,-0.03955751
3035,-0.03970789
3036,-0.051230077
3037,-0.06863123
3038,0.048040066
3039,-0.04011768
3040,-0.021757554
3041,-0.07221949
3042,-0.025258224
3043,-0.016961558
3044,-0.08570231
3045,0.007403245
3046,-0.053192895
3047,-0.05214808
3048,-0.027184796
3049,-0.01693143
3050,-0.0847151
3051,-0.046256322
3052,-0.079795
3053,-0.046899103
3054,-0.05050115
3055,-0.018372286
3056,-0.006864698
3057,-0.0127578955
3058,-0.05310526
3059,-0.041917335
3060,-0.013171117
3061,-0.042917714
3062,-0.039664168
3063,-0.022568393
3064,-0.04959667
3065,-0.07438005
3066,-0.04168419
3067,-0.048752956
3068,-0.021284297
3069,-0.049656507
3070,-0.045256346
3071,0.027047947
3072,-0.040413067
3073,-0.050915875
3074,-0.04705178
3075,-0.041935407
3076,-0.028036902
3077,-0.0023865632
3078,-0.026382415
3079,-0.048907932
3080,-0.025408158
3081,-0.049694702
3082,-0.0591833
3083,-0.030152539
3084,-0.008191125
3085,-0.051974464
3086,0.0033756031
3087,0.0010263466
3088,-0.03763306
3089,-0.04720921
3090,-0.027744893
3091,-0.044517525
3092,-0.020590773
3093,-0.059691407
3094,-0.04011624
3095,0.08132928
3096,-0.037650984
3097,-0.048287038
3098,-0.037444964
3099,-0.038251676
3100,-0.056102127
3101,-0.039363343
3102,0.0050649615
3103,-0.001228516
3104,0.016815294
3105,-0.040925667
3106,-0.028864093
3107,-0.0434665
3108,-0.02868113
3109,-0.066089876
3110,-0.055092994
3111,-0.062328372
3112,0.022615276
3113,-0.057545356
3114,0.0064999918
3115,0.074808404
3116,-0.0558205
3117,-0.039938208
3118,0.10475025
3119,-0.04597185
3120,-0.030856606
3121,0.0088237
3122,-0.066731445
3123,-0.023580477
3124,-0.05507233
3125,-0.07331717
3126,-0.015249989
3127,-0.062227733
3128,-0.052742276
3129,-0.025389904
3130,-0.0050634965
3131,-0.036823165
3132,-0.047082864
3133,-0.030926714
3134,-0.0600218
3135,-0.033130433
3136,-0.0634637
3137,-0.05046313
3138,-0.050745495
3139,0.00836566
3140,-0.04717891
3141,-0.044764187
3142,-0.049021706
3143,-0.03740592
3144,-0.07185752
3145,-0.071092024
3146,-0.041320167
3147,-0.024293203
3148,-0.0023952164
3149,-0.012715761
3150,-0.023178214
3151,-0.03929429
3152,-0.04410203
3153,-0.050218884
3154,-0.017157737
3155,0.020645155
3156,-0.04937967
3157,-0.06516902
3158,0.016747745
3159,-0.045439914
3160,-0.032187447
3161,-0.015093541
3162,-0.031006355
3163,-0.048333943
3164,-0.051700387
3165,-0.06833078
3166,0.04592169
3167,-0.040359125
3168,-0.0628412
3169,-0.072515026
3170,-0.04977285
3171,-0.01829928
3172,0.009065219
3173,-0.016688155
3174,-0.026868487
3175,-0.047117006
3176,-0.062076665
3177,-0.028468907
3178,-0.04410345
3179,-0.047573768
3180,-0.0066272803
3181,-0.04693899
3182,-0.05979772
3183,-0.033187017
3184,-0.0025607895
3185,-0.025262935
3186,-0.053277936
3187,-0.04061034
3188,-0.065343276
3189,-0.046108633
3190,0.040103868
3191,-0.037266552
3192,-0.020799361
3193,-0.02578909
3194,-0.049380906
3195,0.07493939
3196,-0.007742217
3197,-0.05012576
3198,-0.04588744
3199,0.024866547
3200,-0.040177923
3201,-0.04118226
3202,-0.044190183
3203,-0.041719243
3204,-0.06071524
3205,0.06701853
3206,-0.027792944
3207,-0.03205905
3208,-0.023657536
3209,-0.050525986
3210,-0.05891346
3211,-0.0336795
3212,-0.029685145
3213,-0.05188081
3214,-0.031119335
3215,-0.04036637
3216,-0.017720262
3217,-0.043751124
3218,-0.031912964
3219,-0.0022965595
3220,-0.008285466
3221,-0.060146254
3222,-0.037891496
3223,-0.0075051542
3224,-0.04191888
3225,-0.049060438
3226,-0.013604128
3227,-0.032871097
3228,-0.028164824
3229,0.04092558
3230,-0.0058941348
3231,-0.018845713
3232,-0.0017915817
3233,-0.033134103
3234,0.064069
3235,-0.023981543
3236,-0.028411735
3237,-0.051477857
3238,-0.027301932
3239,-0.058414895
3240,-0.04413848
3241,-0.0073451702
3242,0.06529343
3243,0.02002795
3244,-0.040162906
3245,-0.036852535
3246,0.06970087
3247,-0.05317858
3248,0.013857459
3249,0.08288587
3250,-0.060703624
3251,-0.018047228
3252,-0.022579832
3253,-0.07326607
3254,-0.016899064
3255,-0.014928195
3256,-0.05244119
3257,-0.023372978
3258,-0.0076753437
3259,0.020603547
3260,-0.048313685
3261,-0.0290837
3262,-0.015809821
3263,-0.03310056
3264,-0.035595417
3265,-0.013160608
3266,-0.051147055
3267,0.0030694203
3268,-0.047002025
3269,-0.04443905
3270,0.016927002
3271,-0.0015596419
3272,0.050993085
3273,-0.051090825
3274,-0.041790728
3275,-0.010712984
3276,-0.031870373
3277,-0.019432161
3278,-0.038037438
3279,-0.037128452
3280,-0.013620782
3281,-0.05016449
3282,-0.020429032
3283,-0.07117415
3284,-0.048719227
3285,-0.05486701
3286,-0.02319196
3287,-0.044735562
3288,-0.024828574
3289,-0.037748963
3290,-0.03953395
3291,-0.0067693363
3292,-0.029472552
3293,-0.055062454
3294,-0.017601144
3295,-0.03688411
3296,-0.039272297
3297,-0.061502274
3298,-0.04970749
3299,0.047629643
3300,0.008930469
3301,-0.039430115
3302,-0.017814264
3303,-0.0639481
3304,-0.06205238
3305,-0.057732157
3306,-0.0433246
3307,-0.045516383
3308,-0.02204074
3309,-0.041674767
3310,-0.06282248
3311,-0.03196187
3312,-0.0043889056
3313,-0.052538656
3314,-0.05302945
3315,-0.036094356
3316,-0.06529893
3317,-0.04767587
3318,-0.028841585
3319,-0.0553372
3320,-0.002090541
3321,-0.05360998
3322,-0.026774175
3323,-0.06117637
3324,-0.0019597628
3325,0.02944251
3326,-0.04525703
3327,0.005639348
3328,-0.03779259
3329,-0.036453944
3330,-0.02515415
3331,-0.039467808
3332,-0.017624278
3333,0.029599484
3334,-0.025730543
3335,0.03711743
3336,0.008059926
3337,-0.05078924
3338,-0.058700193
3339,-0.04220982
3340,-0.02366011
3341,0.04249232
3342,0.020553809
3343,-0.008838708
3344,-0.02218025
3345,-0.043948576
3346,-0.014689398
3347,-0.008818184
3348,-0.012311864
3349,-0.047284577
3350,-0.021547347
3351,0.03383979
3352,0.027954603
3353,-0.042201165
3354,0.028197812
3355,-0.03182452
3356,0.009828558
3357,-0.032424916
3358,0.01826987
3359,-0.014664849
3360,-0.037452124
3361,-0.0056444253
3362,-0.016737126
3363,-0.00059472385
3364,-0.001913746
3365,-0.06554615
3366,-0.012318495
3367,-0.06247812
3368,0.011161185
3369,-0.01544336
3370,0.048032228
3371,-0.013007886
3372,-0.036927372
3373,-0.030099858
3374,0.035754874
3375,-0.05251407
3376,0.012251137
3377,0.046072017
3378,-0.0374868
3379,-0.037330337
3380,-0.017451528
3381,-0.044949643
3382,0.032176264
3383,-0.021015283
3384,0.0113967415
3385,-0.013662989
3386,0.05600473
3387,0.006261041
3388,-0.028497424
3389,-0.04417525
3390,-0.02303267
3391,-0.03330353
3392,-0.020777252
3393,-0.019060673
3394,-0.048874065
3395,-0.011275125
3396,-0.04695016
3397,-0.04417084
3398,0.0071217497
3399,0.008900533
3400,0.0099946605
3401,-0.025474861
3402,-0.040037528
3403,-0.00025300265
3404,-0.050329845
3405,0.0019402509
3406,-0.034415014
3407,-0.034586336
3408,-0.004316881
3409,-0.050515812
3410,-0.009983916
3411,0.017866395
3412,-0.04813914
3413,-0.05021611
3414,0.003920578
3415,0.0037844803
3416,-0.016443402
3417,-0.030128587
3418,-0.007413001
3419,-0.03156949
3420,-0.051225033
3421,-0.038512435
3422,0.023999501
3423,-0.02397066
3424,-0.0375831
3425,-0.046246704
3426,-0.049414985
3427,0.038298506
3428,0.015626715
3429,-0.01592658
3430,-0.027406277
3431,-0.030804265
3432,-0.048053097
3433,0.0033843813
3434,-0.058294546
3435,-0.022193672
3436,-0.030553035
3437,-0.04316079
3438,-0.02461045
3439,-0.022306906
3440,0.0072713904
3441,-0.029686743
3442,-0.053158503
3443,0.009750412
3444,-0.044982582
3445,-0.036871184
3446,-0.019304018
3447,-0.031349685
3448,0.010613079
3449,-0.02376082
3450,-0.002150955
3451,-0.019955058
3452,-0.014322819
3453,0.020457657
3454,-0.044188455
3455,-0.0038803925
3456,-0.007487586
3457,0.005906283
3458,-0.0008091406
3459,-0.011583451
3460,-0.0056765988
3461,0.0040164026
3462,0.004322058
3463,-0.004168083
3464,0.003229699
3465,-0.006678548
3466,-0.008982505
3467,0.011165441
3468,0.0021177898
3469,0.012359868
3470,0.0048431726
3471,-0.010642012
3472,-0.0021134021
3473,-0.010580488
3474,0.018593725
3475,-0.0035176233
3476,-0.00070611585
3477,-0.009242062
3478,-0.012349378
3479,-0.00067763566
3480,0.002410606
3481,-0.011703297
3482,0.0038736344
3483,-0.0043894164
3484,-0.0019159486
3485,-0.0068256203
3486,0.0020712984
3487,-0.011382132
3488,0.015094583
3489,0.015468052
3490,0.002519319
3491,0.0033742571
3492,-0.0075233066
3493,0.0058319387
3494,-0.010763397
3495,0.008178375
3496,-0.012601215
3497,-0.008270443
3498,0.0006375154
3499,-0.01918299
3500,0.00091320823
3501,-0.0026567222
3502,0.0029247848
3503,-0.006773858
3504,-0.014393472
3505,-0.0038786829
3506,0.003585654
3507,-0.006511421
3508,0.008353852
3509,0.009596002
3510,0.007313121
3511,-0.004945351
3512,-0.008423465
3513,-0.007566358
3514,0.0013414831
3515,0.023399234
3516,-0.0138151385
3517,-0.017456967
3518,-0.0030391128
3519,-0.01579511
3520,0.008940622
3521,-0.010420249
3522,-0.00086359057
3523,-0.012145673
3524,0.004713482
3525,-0.014997897
3526,-0.013416915
3527,0.018122837
3528,-0.008494778
3529,0.010821147
3530,-0.008586614
3531,0.009788724
3532,-0.0058964905
3533,0.0030999435
3534,0.001084324
3535,0.013307892
3536,-0.00068791513
3537,0.010311657
3538,-0.00039904081
3539,0.0056457995
3540,0.0010533797
3541,0.0072270744
3542,-0.004501811
3543,0.0077955234
3544,0.0033785491
3545,0.011695164
3546,0.011071568
3547,0.0017321843
3548,-0.0060769334
3549,-0.0067720865
3550,0.0019434833
3551,-0.009282275
3552,-0.0065820143
3553,-0.008539831
3554,0.0038100851
3555,0.015400635
3556,0.0074081807
3557,-0.0058824043
3558,-0.0015909608
3559,0.00081373664
3560,-0.0029543948
3561,0.013412683
3562,0.0053334325
3563,0.018039724
3564,-0.0124874255
3565,-0.0023937547
3566,-0.025987994
3567,0.0021750685
3568,0.0010700679
3569,0.023358779
3570,0.005280172
3571,-0.007303408
3572,-0.0052972925
3573,0.010187556
3574,-0.016943015
3575,-0.0079868
3576,-0.0022713298
3577,-0.0068616658
3578,0.008085761
3579,0.005418418
3580,0.009301427
3581,0.0067145415
3582,0.0007975685
3583,0.014357144
3584,0.0015163865
3585,-8.280445e-05
3586,-0.012460177
3587,-0.0093714725
3588,-0.0026599178
3589,-0.0124514615
3590,0.007449696
3591,0.00094510545
3592,0.0021817626
3593,-0.011957971
3594,-0.0063413084
3595,0.016737407
3596,0.0025768955
3597,0.012051297
3598,-0.0020826356
3599,-0.0026697265
3600,0.0028328057
3601,-0.00017586465
3602,0.0033245452
3603,-0.0021286097
3604,0.011402846
3605,0.0075013246
3606,0.0006235436
3607,0.011131561
3608,0.005848368
3609,0.0065465826
3610,0.003499045
3611,-0.0029699036
3612,-0.00947697
3613,-0.012159966
3614,-0.008252329
3615,0.016564589
3616,0.018053008
3617,0.0049185646
3618,-0.007037103
3619,-0.002181407
3620,0.005562602
3621,-0.0022787044
3622,-0.0053252033
3623,-0.003108818
3624,0.0022598042
3625,-0.0005326627
3626,-0.0072019785
3627,-0.004442389
3628,-0.009259872
3629,0.0039434717
3630,-0.0013054707
3631,-0.005919459
3632,0.0008244512
3633,0.0012900548
3634,0.010582236
3635,0.013542577
3636,0.0009432841
3637,-0.007690622
3638,-0.0012743118
3639,-0.0009628102
3640,-0.0060135787
3641,0.00047881063
3642,0.013837889
3643,0.008852386
3644,-0.0069362544
3645,0.018264102
3646,-0.009015059
3647,0.014558172
3648,0.004090348
3649,0.014617525
3650,-0.0045643607
3651,-0.002496306
3652,-0.0021065793
3653,0.009770656
3654,0.012961062
3655,0.005031902
3656,0.00025831256
3657,0.012617899
3658,-0.017622871
3659,-0.017494304
3660,0.011316033
3661,-0.011682728
3662,0.0012425897
3663,0.016654251
3664,0.0072554615
3665,0.004708934
3666,-0.014745619
3667,-0.0018210666
3668,-0.014421699
3669,0.008743823
3670,0.0073432396
3671,0.009038246
3672,0.0013920548
3673,0.0073460396
3674,0.016943399
3675,0.0053170095
3676,-0.0034746476
3677,0.016893134
3678,0.004200313
3679,0.009470412
3680,-0.007929425
3681,0.0086564915
3682,-0.0031578715
3683,0.000510363
3684,0.017134031
3685,-0.016224591
3686,0.004275811
3687,0.0038078427
3688,-0.016142147
3689,-0.0010350995
3690,-0.005504149
3691,-0.012988346
3692,0.0062474017
3693,0.00390165
3694,-0.00864929
3695,-0.005916691
3696,-0.013376017
3697,-0.008406012
3698,-0.0028376584
3699,0.006198309
3700,0.009683517
3701,-0.0006545778
3702,-0.00467668
3703,0.0057464004
3704,-0.0028987487
3705,0.0024305603
3706,0.0044495566
3707,0.0030569115
3708,-0.015311803
3709,0.0016936692
3710,-0.008493598
3711,0.0087366905
3712,-0.008746038
3713,0.0093483245
3714,-0.008092569
3715,-0.0069873855
3716,-0.0073597482
3717,-0.008494526
3718,0.010037431
3719,0.0059070056
3720,0.0071376837
3721,-0.019659447
3722,0.0006655287
3723,-0.0059510944
3724,-0.013581793
3725,0.010497862
3726,-0.0054182974
3727,0.0007404768
3728,0.0042356136
3729,0.0059011863
3730,0.013695061
3731,-0.007500687
3732,-0.009376357
3733,0.010639689
3734,0.01719486
3735,-0.00033605043
3736,-0.005039818
3737,0.014217751
3738,0.0061045685
3739,-0.002080906
3740,0.014001153
3741,0.00071120396
3742,-0.0076645846
3743,0.014456704
3744,-0.005710625
3745,-0.0024695154
3746,0.0045115883
3747,0.0096209515
3748,-0.0029608712
3749,-0.00038889318
3750,0.0006280295
3751,-0.0068169683
3752,-0.0043475763
3753,-0.009814003
3754,-0.006862344
3755,0.012851296
3756,-0.016012706
3757,-0.0046701124
3758,0.006786194
3759,0.0010558116
3760,-0.0057831192
3761,0.012146371
3762,0.0027849274
3763,-0.0028610872
3764,0.00947488
3765,-0.01616936
3766,-0.008655709
3767,-0.0058234744
3768,-0.001897481
3769,0.006782835
3770,-0.00069089845
3771,0.0043262155
3772,-0.0039294846
3773,0.0031589787
3774,-0.0051312405
3775,-0.004681484
3776,-0.006466748
3777,0.0023768968
3778,0.00504065
3779,0.002350111
3780,-0.002424914
3781,-0.019951537
3782,-0.0044636447
3783,0.004356817
3784,-0.005531566
3785,-0.016197858
3786,0.00012392104
3787,-0.014771664
3788,-0.006942633
3789,-0.014028918
3790,0.0018454647
3791,0.0054957
3792,0.0102300765
3793,-0.012559709
3794,-0.00073517725
3795,0.0028064111
3796,0.00044822643
3797,-0.004348708
3798,-0.0076674544
3799,-0.006965544
3800,-0.0024276662
3801,-0.00041446055
3802,0.0018425797
3803,-0.006655395
3804,-0.0056635756
3805,0.011341947
3806,-0.007305858
3807,-0.00032097375
3808,0.006926047
3809,0.0012415217
3810,-0.0032430328
3811,0.006036529
3812,-0.005248792
3813,-0.012585806
3814,0.0046536336
3815,-0.00011146429
3816,-0.012778726
3817,0.0032648724
3818,0.002036969
3819,-0.0003000588
3820,-0.01960325
3821,0.010444203
3822,0.0028566408
3823,0.009457282
3824,0.004668303
3825,-5.9064685e-05
3826,0.0053022676
3827,-0.013333505
3828,0.005256919
3829,0.0115957195
3830,-0.0159069
3831,-0.0055123516
3832,0.017700486
3833,0.011479498
3834,-0.0015285326
3835,-0.016419452
3836,-0.015373196
3837,-0.0077062487
3838,-0.0035133462
3839,-0.0005040903
3840,-0.01067002
3841,-0.0023508668
3842,-0.009031094
3843,-0.017117806
3844,0.011427343
3845,-0.0016456152
3846,-2.0850608e-05
3847,-0.0070959865
3848,-0.0093168495
3849,-0.0038738584
3850,0.004228295
3851,-0.005162457
3852,-0.01299913
3853,0.011097499
3854,-0.004632442
3855,0.002372258
3856,0.014575032
3857,0.006845594
3858,-0.010325602
3859,0.003028345
3860,0.009283939
3861,-0.00021895363
3862,-0.0019436065
3863,0.01841763
3864,-0.008871061
3865,0.0013905463
3866,0.017534412
3867,0.0011030266
3868,0.004442548
3869,0.010107241
3870,0.00033526527
3871,-0.00046202898
3872,-0.004477563
3873,-0.011416812
3874,-0.00609257
3875,0.001023549
3876,0.008827852
3877,-0.009770391
3878,0.0011107429
3879,0.0023317274
3880,0.00012194642
3881,0.0034193445
3882,-0.001305603
3883,-0.006916947
3884,0.0064726197
3885,0.0035571998
3886,0.009124564
3887,-0.00370162
3888,0.0026790476
3889,0.013113301
3890,-0.0016494959
3891,-0.0050528985
3892,-0.004302889
3893,-0.002917684
3894,-0.0058497465
3895,-0.0084438035
3896,-0.008250635
3897,-0.0022886365
3898,-0.00017670728
3899,0.014627354
3900,0.013752818
3901,-0.0031612036
3902,-0.00061896973
3903,-0.0026446595
3904,-0.0039790417
3905,0.01020782
3906,0.011751703
3907,0.008886835
3908,-0.013699477
3909,0.003470954
3910,0.004364978
3911,-0.011144726
3912,-0.012762608
3913,-0.0059362226
3914,-0.019026441
3915,-0.0010002026
3916,-0.005241956
3917,0.007128999
3918,0.0026663376
3919,-0.0041384925
3920,-0.0063025407
3921,0.0037728124
3922,0.00057412015
3923,-0.0028131597
3924,-0.009724584
3925,0.012956756
3926,0.0040357597
3927,0.004472663
3928,0.0020597973
3929,0.015163329
3930,0.0087451665
3931,-0.00520156
3932,-0.008850029
3933,0.008151105
3934,-0.0052646194
3935,-0.009772126
3936,0.007787918
3937,0.0055629225
3938,0.0009347355
3939,-0.0070022685
3940,0.007362516
3941,0.011843001
3942,-0.00980687
3943,-0.0041990387
3944,0.0068013887
3945,-0.00092485454
3946,-0.004696854
3947,0.0015687448
3948,-0.00021741494
3949,-0.003708201
3950,-0.0060849464
3951,0.009024872
3952,-0.0032127437
3953,-0.0080654
3954,-0.011676532
3955,0.012696813
3956,-0.002689482
3957,-0.005261836
3958,-0.011404209
3959,0.0024384256
3960,0.0032449227
3961,-0.010244188
3962,0.0015386015
3963,-0.0057106516
3964,0.00942895
3965,-0.008265113
3966,-0.011453507
3967,0.0006368385
3968,0.0016057438
3969,-0.0024939491
3970,-0.011815477
3971,0.014762833
3972,-0.016559692
3973,0.011623932
3974,0.0022608505
3975,-0.0065184482
3976,0.003220628
3977,0.0032981047
3978,-0.0070104883
3979,0.007504146
3980,0.004615283
3981,-0.0008783478
3982,-0.010950626
3983,-0.0105867535
3984,-0.019134985
3985,-0.0010979307
3986,-0.013718118
3987,-0.0064425683
3988,-0.014178136
3989,0.0046234387
3990,-0.005429379
3991,-0.013276553
3992,-0.005880043
3993,-0.00044453205
3994,-0.013790563
3995,-0.0008738942
3996,-0.004595382
3997,-0.0068188407
3998,-0.0021637755
3999,-0.011727908
4000,0.016223483
4001,-0.009288945
4002,-0.0026964655
4003,0.0042583416
4004,0.015442803
4005,-0.010563273
4006,0.0052370257
4007,0.01553223
4008,-0.0009182697
4009,0.0100428015
4010,-0.004377247
4011,-0.007653807
4012,0.01791402
4013,-0.0048125056
4014,0.013925954
4015,0.009775856
4016,0.015588201
4017,0.0080026155
4018,-0.0017471795
4019,0.014458759
4020,-0.012688267
4021,0.0061509847
4022,-0.013075017
4023,-0.0007369731
4024,0.016567241
4025,0.005086607
4026,-0.0012271962
4027,-0.013463583
4028,-0.009715768
4029,0.018971018
4030,0.00055323675
4031,-0.012074513
4032,-0.0017115677
4033,-0.003670693
4034,-0.001166423
4035,0.008805347
4036,-0.007987589
4037,-0.001605693
4038,0.007200818
4039,-0.01297569
4040,-0.014873209
4041,0.014382009
4042,-0.0016314408
4043,0.0057170913
4044,0.0016753026
4045,0.004221799
4046,0.0052116094
4047,-0.0026038645
4048,0.0009519927
4049,0.011598347
4050,-0.005770055
4051,-0.009558955
4052,0.0027529919
4053,0.009763992
4054,-0.009431172
4055,-0.0018523561
4056,0.0044439933
4057,0.0063087814
4058,-0.005644166
4059,0.006269275
4060,-0.015413047
4061,0.007833737
4062,-0.0038351647
4063,0.010892235
4064,-0.001970032
4065,-0.0064039943
4066,-0.0004894929
4067,-0.007637484
4068,-0.0018371781
4069,0.013741425
4070,-0.006291301
4071,-0.0026778104
4072,0.003798953
4073,-0.000902051
4074,0.0030584547
4075,0.008078699
4076,-0.014383079
4077,0.003107313
4078,0.0056071985
4079,0.00089320744
4080,0.011754964
4081,-0.013990867
4082,-0.013801549
4083,0.003535753
4084,0.005334846
4085,-0.0075371526
4086,-0.007540472
4087,0.007645275
4088,-0.007437723
4089,0.0019925465
4090,-0.0018108436
4091,-0.010224666
4092,0.005214143
4093,0.0012901116
4094,-0.0025774175
4095,0.015212426
