Sno,Weight
0,0.0075325137
1,-0.02052348
2,0.013062298
3,0.04163577
4,0.052615184
5,0.045736447
6,0.02245495
7,0.043622714
8,0.04578523
9,-0.02375609
10,-0.0526422
11,0.026088754
12,0.021518575
13,-0.049887165
14,-0.034991644
15,-0.045074046
16,-0.015828367
17,0.034622576
18,0.03737278
19,0.032034643
20,0.032989044
21,-0.0027294168
22,0.016682785
23,-0.004701837
24,0.060198423
25,0.0035310097
26,-0.09545868
27,-0.056977984
28,-0.025212038
29,-0.07098905
30,0.006369523
31,-0.02660034
32,-0.018422088
33,-0.0066570337
34,0.024784962
35,0.045567352
36,-0.0079652285
37,0.023584055
38,-0.010667855
39,-0.06575797
40,0.005649192
41,0.021588447
42,-0.016419107
43,0.036402367
44,0.02666492
45,0.03663595
46,0.0069985287
47,-0.068964444
48,0.04360295
49,-0.0146503905
50,-0.007459931
51,0.02390867
52,0.010779878
53,0.016827751
54,0.010338959
55,0.011998884
56,0.02586216
57,-0.036579724
58,0.046263006
59,0.047295757
60,0.02056268
61,-0.06545856
62,-0.07010472
63,-0.02606186
64,-0.047666475
65,-0.011209529
66,0.008603439
67,-0.02040157
68,0.017375482
69,-0.04470591
70,0.0102609685
71,0.02768052
72,-0.0019691251
73,-0.049246218
74,0.06338662
75,-0.05359571
76,-0.0035530203
77,0.0097696725
78,0.0052275457
79,-0.015454246
80,0.024388555
81,-0.05097379
82,-0.030864852
83,0.026329834
84,0.038736902
85,0.011000498
86,-0.09840846
87,-0.002565411
88,-0.060531758
89,0.040391784
90,-0.017736422
91,0.049103454
92,0.03495088
93,-0.03696741
94,0.019777667
95,0.06950689
96,0.033446897
97,-0.034763467
98,0.029997269
99,0.0029214958
100,0.015481501
101,-0.049530808
102,0.005675198
103,0.018383723
104,0.021224279
105,-0.0097334245
106,-0.038864825
107,0.033364117
108,-0.029816693
109,0.026944837
110,0.0017934438
111,0.016590267
112,-0.06985745
113,0.0025369267
114,-0.0037009642
115,0.06498204
116,-0.047388382
117,-0.02750916
118,-0.010870754
119,0.057939764
120,0.01601028
121,-0.057948727
122,0.021873409
123,-0.022809884
124,0.06402082
125,0.0053046867
126,-0.026828531
127,0.04634555
128,0.055151425
129,0.06789121
130,-0.048619002
131,0.017363252
132,0.01964989
133,0.027153166
134,-0.036746055
135,0.049343355
136,0.054372035
137,0.028710786
138,-0.052975766
139,0.021106448
140,0.04467541
141,0.04654872
142,-0.042826246
143,0.04403413
144,0.060132574
145,0.04848076
146,0.046005365
147,0.041303817
148,-0.047500905
149,0.00999885
150,0.030518552
151,-0.052632663
152,0.024403691
153,0.018932046
154,0.023293355
155,0.05719763
156,-0.0048174676
157,-0.07093646
158,0.030887548
159,0.032203477
160,0.05310874
161,0.03266311
162,0.027408611
163,-0.0017467373
164,0.04189652
165,0.061307315
166,-0.06349049
167,0.017620033
168,0.040473916
169,-0.010829118
170,0.066060975
171,0.01757148
172,0.054957043
173,0.050745405
174,0.055204563
175,-0.07174064
176,0.031378467
177,0.1324102
178,0.056673948
179,0.021265958
180,0.021498753
181,-0.08148534
182,0.053438377
183,0.061650626
184,-0.084462315
185,-0.05590258
186,0.017879046
187,0.030993866
188,0.03663077
189,-0.035459932
190,0.07735079
191,-0.0011693792
192,0.022519764
193,-0.010673917
194,0.04609804
195,-0.073222235
196,0.027893793
197,0.06466548
198,0.04889273
199,0.030816326
200,0.017941492
201,-0.044237092
202,0.028114123
203,0.068052754
204,0.037239168
205,0.038607724
206,0.047158513
207,-0.012111717
208,0.041142803
209,0.029019985
210,0.05530736
211,0.021718446
212,0.055528313
213,0.029560506
214,-0.09834531
215,0.035514046
216,0.042983342
217,0.025330516
218,0.03957466
219,-0.01533037
220,0.039076567
221,0.036399204
222,0.009868839
223,-0.015327846
224,0.043715242
225,0.038383916
226,-0.07744004
227,0.06753914
228,0.042235438
229,0.027351504
230,-0.04544877
231,-0.00026374366
232,0.04076868
233,0.026580265
234,0.039719615
235,0.011565263
236,0.017506042
237,0.04868261
238,0.048434176
239,-0.072758384
240,-0.06981564
241,0.07187363
242,0.0058969744
243,-0.031500146
244,-0.044402003
245,-0.04925938
246,0.042236023
247,-0.011602849
248,0.02854367
249,-0.058018167
250,0.054399073
251,-0.109807685
252,-0.05014299
253,0.04924474
254,-0.006793184
255,0.047573444
256,-0.05046981
257,0.014451064
258,0.03355557
259,0.04665456
260,-0.058385555
261,0.030356776
262,0.040956084
263,0.02399296
264,0.016771453
265,0.037524212
266,-0.044457152
267,0.03897785
268,-0.016850183
269,0.021661934
270,0.056499064
271,0.0332332
272,-0.04647306
273,0.033363592
274,0.014006656
275,0.002341102
276,-0.023866491
277,0.07446467
278,0.004969256
279,0.06403295
280,-0.0043840776
281,0.011262142
282,0.019606238
283,0.05469218
284,-0.009009481
285,-0.07092764
286,0.021423103
287,0.059526704
288,0.021799915
289,0.028779557
290,0.021910435
291,-0.041737664
292,0.030792538
293,0.017115852
294,0.073674805
295,-0.05809512
296,0.015139705
297,0.02569363
298,0.02447904
299,-0.044524413
300,0.0125360945
301,-0.02458341
302,0.075123906
303,0.07528242
304,-0.006855445
305,-0.07796218
306,-0.057371516
307,-0.029009413
308,0.0681132
309,0.05551064
310,0.038382143
311,0.017677393
312,-0.09108246
313,0.0059046946
314,0.0022709868
315,-0.05610236
316,0.035489615
317,-0.011648735
318,-0.06998237
319,-0.0010418126
320,0.08321117
321,0.08633488
322,-0.064444706
323,-0.04127374
324,-0.034638166
325,-0.04399976
326,0.027752925
327,0.03509643
328,0.0016052363
329,-0.043651804
330,-0.023429617
331,-0.053209044
332,0.030527558
333,-0.04224691
334,0.025609355
335,0.01351748
336,-0.0074144024
337,0.011762214
338,0.040678944
339,0.030607514
340,0.025477465
341,-0.02513154
342,0.067563124
343,0.03125721
344,0.035394616
345,0.05031725
346,0.045353625
347,-0.056027498
348,0.0041914117
349,-0.045456756
350,-0.014259316
351,-0.04921668
352,0.03841728
353,0.018005818
354,0.0597181
355,-0.055206534
356,0.05095952
357,0.06970685
358,0.024793819
359,0.038248155
360,0.0074720103
361,0.01450666
362,-0.0339985
363,-0.0033260055
364,0.025984017
365,0.02923204
366,0.051885948
367,0.07381033
368,0.0941324
369,0.0086134635
370,-0.030623125
371,0.0049361764
372,-0.047247093
373,0.057862297
374,0.01863526
375,-0.040407542
376,0.0067571313
377,-0.0143014025
378,-0.02472697
379,0.09762896
380,-0.065760076
381,0.003295886
382,0.04406813
383,0.029081581
384,0.008820215
385,-0.015373079
386,0.04289116
387,-0.04626956
388,-0.028562654
389,0.03187476
390,-0.05510255
391,-0.0028420629
392,-0.02750315
393,-0.04619789
394,0.07433043
395,0.04471855
396,-0.016406825
397,0.022735765
398,0.061512507
399,0.04557831
400,0.038127888
401,-0.05112965
402,-0.046534218
403,-0.048290044
404,0.06342575
405,-0.08722458
406,-0.0058220727
407,0.0687849
408,-0.04331205
409,-0.02367025
410,0.016541626
411,-0.05670424
412,0.061077897
413,0.044721987
414,0.018036298
415,0.08218398
416,-0.045259427
417,-0.047332786
418,-0.011050226
419,-0.018162096
420,-0.06362458
421,-0.008670988
422,0.082399055
423,-0.031127768
424,0.020134974
425,0.11139756
426,0.022161057
427,0.0052382187
428,-0.03600533
429,-0.032602657
430,0.051203396
431,-0.07170944
432,-0.059359204
433,-0.031406485
434,0.016010856
435,-0.031071924
436,-0.04192084
437,0.081428565
438,-0.05384931
439,-0.06634682
440,0.03183586
441,0.079819955
442,-0.04282238
443,-0.007618939
444,-0.04539142
445,-0.0027765702
446,-0.06962334
447,-0.016434604
448,0.009968527
449,-0.07131847
450,-0.068117574
451,-0.07321782
452,-0.034080684
453,-0.019165235
454,-0.03695376
455,0.026950354
456,-0.031983048
457,0.046707645
458,-0.03969215
459,0.043578163
460,0.06123943
461,0.02767537
462,-0.04770274
463,0.0362349
464,-0.031224942
465,0.039617993
466,0.016564718
467,-0.032290507
468,0.047571156
469,0.016272157
470,-0.0983946
471,-0.026745368
472,-0.060495272
473,0.03407382
474,-0.0047423807
475,-0.016035981
476,-0.059391785
477,-0.04424506
478,0.0071916203
479,-0.04969076
480,-0.004110347
481,0.025996095
482,0.060958855
483,0.0302107
484,-0.04155194
485,-0.012608194
486,0.048403785
487,-0.05205061
488,0.031318046
489,0.023235032
490,0.012805765
491,0.02346844
492,0.08636291
493,0.012859301
494,0.0012903578
495,0.07911244
496,-0.069933355
497,0.006783708
498,-0.063781984
499,-0.047030687
500,0.10719965
501,0.034520518
502,0.006096415
503,-0.04376113
504,-0.021400126
505,-0.02069536
506,-0.03420774
507,0.056467652
508,-0.06307371
509,0.05097698
510,0.04374325
511,-0.060853735
512,0.010503338
513,-0.015976844
514,0.02748945
515,-0.046491977
516,0.053233154
517,-0.016137365
518,0.043429192
519,-0.067150764
520,-0.002477849
521,0.057510775
522,-0.05341917
523,-0.02332813
524,-0.0073074456
525,-0.048845105
526,0.054461118
527,-0.045062315
528,-0.04666686
529,-0.050408047
530,-0.035365596
531,-0.047849003
532,0.057817478
533,0.056540594
534,-0.05656008
535,-0.05272158
536,-0.043006614
537,0.059617322
538,0.013369042
539,-0.05606254
540,-0.06829968
541,0.08046478
542,-0.039519034
543,-0.07551604
544,-0.045008503
545,0.05298469
546,-0.018069977
547,-0.042030744
548,0.03177405
549,-0.006613462
550,0.07554905
551,0.044620838
552,-0.04194406
553,-0.01550791
554,0.030546755
555,0.013949443
556,-0.035625834
557,-0.027301159
558,-0.09657021
559,-0.0717725
560,-0.049108017
561,-0.019658042
562,-0.05753461
563,-0.034268215
564,-0.020539414
565,-0.006498143
566,-0.053883262
567,0.03408364
568,0.026487917
569,-0.05619135
570,-0.017686939
571,-0.046080273
572,-0.045298778
573,0.08668905
574,-0.04705514
575,-0.012825892
576,0.012788231
577,-0.07114841
578,0.010894103
579,-0.07324593
580,-0.0072114547
581,0.039888594
582,-0.03692037
583,0.01814849
584,0.07328739
585,0.07110511
586,-0.04098838
587,-0.0536444
588,0.031801622
589,0.03789632
590,0.030161921
591,-0.036377754
592,-0.03366973
593,0.052159082
594,-0.047438104
595,-0.03280072
596,-0.029981466
597,0.015494635
598,0.07719508
599,-0.034471508
600,-0.060501106
601,-0.04073966
602,-0.0067315083
603,0.026904857
604,0.037147444
605,0.06743936
606,-0.024899213
607,-0.049548287
608,-0.039719168
609,0.02512358
610,-0.077269316
611,-0.055336695
612,0.04518967
613,0.011424245
614,-0.0381453
615,0.015287053
616,-0.035988215
617,0.018464886
618,-0.03571774
619,0.024079192
620,-0.054758947
621,0.017024536
622,-0.01943195
623,-0.07249814
624,-0.050158672
625,0.005065256
626,0.101923935
627,-0.034828737
628,-0.033604253
629,0.040387247
630,-0.012747341
631,-0.049376458
632,0.007265318
633,-0.038537726
634,-0.034486085
635,0.027448637
636,-0.035182755
637,0.0031509
638,-0.026634095
639,-0.060998887
640,-0.050445177
641,-0.01298589
642,-0.047668625
643,-0.046372943
644,0.017379155
645,-0.043811433
646,0.009857796
647,-0.06731577
648,-0.0314509
649,-0.045848485
650,0.076790236
651,-0.044120375
652,-0.031204246
653,-0.04872532
654,-0.04192522
655,-0.04440504
656,-0.04636233
657,-0.02550855
658,-0.047149915
659,-0.043370206
660,-0.0282328
661,0.025565779
662,-0.06781133
663,0.0681853
664,-0.040832456
665,-0.0114394
666,0.041076604
667,-0.056891195
668,-0.008295187
669,0.06512192
670,-0.039153766
671,-0.04610859
672,-0.045124892
673,0.0128160715
674,0.001160568
675,-0.041595954
676,-0.06387279
677,0.020796645
678,-0.011333214
679,0.10361316
680,-0.0010082234
681,-0.08542667
682,-0.003851797
683,-0.044378232
684,-0.040442746
685,-0.00853123
686,-0.05465762
687,-0.03517855
688,-0.04504874
689,-0.014558183
690,-0.05733002
691,-0.027281858
692,-0.034826286
693,-0.07538563
694,-0.05400364
695,0.0007843422
696,-0.09135509
697,-0.05612788
698,-0.043685205
699,-0.05450263
700,-0.044771582
701,0.09081101
702,0.04345096
703,-0.053033084
704,-0.0352399
705,0.08422417
706,-0.019680073
707,0.08101701
708,0.029085116
709,-0.039414883
710,-0.036473718
711,-0.0022648089
712,0.011087054
713,-0.04729211
714,-0.003115225
715,-0.053178146
716,-0.034621656
717,-0.04225723
718,-0.04771651
719,-0.035834357
720,-0.046574272
721,-0.051415388
722,-0.045930628
723,-0.018007524
724,0.0071051563
725,0.07183354
726,-0.081627004
727,-0.03409732
728,-0.060721986
729,-0.03016415
730,-0.016282588
731,0.034004815
732,-0.059576772
733,0.0438162
734,-0.009724702
735,-0.036877874
736,-0.035350673
737,0.027320102
738,-0.060182054
739,-0.053717133
740,-0.020995025
741,0.008356442
742,-0.045540318
743,-0.03510628
744,-0.035420474
745,0.026554236
746,-0.038696796
747,0.067854
748,0.035192613
749,-0.030890366
750,-0.04299819
751,-0.072331496
752,-0.06996906
753,-0.019612687
754,-0.063800626
755,-0.033163123
756,-0.039205942
757,0.017615328
758,-0.04145963
759,-0.0483864
760,-0.022722015
761,-0.013158787
762,-0.034203097
763,0.038544387
764,-0.06453206
765,-0.03411895
766,-0.027150033
767,0.025071984
768,-0.050063606
769,-0.053191997
770,-0.04828982
771,-0.03911173
772,-0.01724432
773,-0.0067958697
774,0.025382044
775,0.046648297
776,0.028643398
777,-0.04614814
778,-0.053071763
779,-0.015679585
780,-0.03164607
781,-0.04826295
782,-0.043008626
783,-0.04360069
784,-0.03287929
785,-0.029679805
786,-0.046713185
787,-0.048645027
788,0.011862457
789,-0.030222563
790,0.021417668
791,-0.05280766
792,-0.043163456
793,-0.025014395
794,0.0022245133
795,-0.057240725
796,-0.05750554
797,-0.05732676
798,-0.039284077
799,0.07056214
800,-0.044630364
801,-0.04666455
802,-0.041896943
803,-0.041829374
804,-0.0626409
805,0.018462813
806,-0.10186705
807,-0.019823307
808,0.008586311
809,-0.010615014
810,-0.05338174
811,-0.043527264
812,-0.039357215
813,-0.0013783855
814,-0.039910547
815,-0.029639894
816,-0.02816732
817,-0.018003484
818,-0.049380366
819,-0.035315312
820,-0.032075066
821,-0.016389297
822,-0.046639916
823,0.003707431
824,-0.09117995
825,-0.0048677074
826,0.009102781
827,-0.056450088
828,-0.033071853
829,-0.06415638
830,-0.052212466
831,-0.031021466
832,0.016068133
833,-0.0714327
834,0.07927185
835,-0.072805665
836,-0.040385466
837,-0.04040936
838,-0.036194317
839,0.007503819
840,0.032052007
841,-0.04401964
842,-0.040625095
843,-0.029721841
844,-0.06620014
845,-0.042090364
846,-0.047249775
847,-0.03600839
848,-0.04659897
849,-0.052021973
850,-0.025902346
851,-0.03231895
852,-0.017890591
853,0.086580925
854,-0.04766573
855,-0.03720165
856,-0.060718086
857,-0.04139826
858,-0.027271198
859,0.007881377
860,-0.059269086
861,0.0016183928
862,-0.03472025
863,-0.04765199
864,-0.035246465
865,0.022970494
866,-0.07745075
867,-0.055079013
868,0.14589213
869,-0.049426463
870,-0.044108544
871,-0.039587375
872,-0.03574917
873,0.029868692
874,-0.020384667
875,-0.01499371
876,0.07072392
877,-0.01798629
878,-0.043369744
879,-0.07245461
880,-0.068020426
881,-0.05038028
882,-0.063664466
883,-0.03442965
884,0.010920757
885,-0.012357175
886,-0.039908756
887,-0.04832088
888,-0.039398875
889,0.11600479
890,-0.03229046
891,0.019446746
892,-0.06685033
893,-0.033655208
894,-0.0249419
895,-0.025471253
896,-0.050509393
897,-0.054195143
898,-0.043499034
899,-0.042888552
900,-0.05919856
901,-0.015677756
902,0.10047122
903,-0.058859367
904,0.048205
905,-0.046032004
906,0.0011729673
907,0.024536708
908,-0.030890761
909,0.02169266
910,-0.04289741
911,-0.02736109
912,-0.046620563
913,-0.02951152
914,-0.036620438
915,-0.048555296
916,-0.061862446
917,-0.056256056
918,0.009260443
919,-0.053032584
920,0.04462857
921,-0.044674378
922,0.0812744
923,-0.05671073
924,-0.055625465
925,-0.026476894
926,-0.038361065
927,-0.019750498
928,-0.045018442
929,-0.027670832
930,-0.04185624
931,-0.04169388
932,-0.06278656
933,-0.042317834
934,-0.0110755665
935,0.043591063
936,-0.05165122
937,-0.04776441
938,-0.053565614
939,-0.04446276
940,-0.029652884
941,-0.032938678
942,0.05072176
943,0.014713413
944,-0.009903132
945,0.06360151
946,-0.057501692
947,-0.03419798
948,-0.03698077
949,-0.017605413
950,-0.053479385
951,-0.06640124
952,-0.06436892
953,-0.056043796
954,-0.047975037
955,-0.056223948
956,-0.042850077
957,0.001270595
958,-0.0062342132
959,0.10315473
960,-0.035423756
961,-0.06353932
962,-0.08497002
963,-0.072226755
964,-0.0072755306
965,-0.0029451232
966,-0.03649042
967,-0.029796183
968,-0.051959712
969,0.00855394
970,-0.023542475
971,0.002154291
972,-0.028093476
973,-0.042421512
974,-0.018205272
975,-0.03745032
976,-0.02686737
977,-0.051843844
978,-0.015095148
979,-0.031392474
980,-0.04218099
981,0.029528745
982,0.00052708667
983,-0.034112766
984,-0.06079499
985,-0.036044933
986,-0.031084588
987,-0.12841275
988,-0.059578817
989,-0.045362078
990,-0.039539676
991,-0.023474898
992,-0.041049525
993,0.017865667
994,-0.07700598
995,-0.05534178
996,-0.0053191716
997,-0.02180605
998,-0.03785206
999,-0.05393256
1000,-0.035942975
1001,-0.052212898
1002,-0.013823424
1003,-0.057805028
1004,-0.0076616495
1005,-0.04522826
1006,-0.04312727
1007,-0.07274098
1008,0.021863975
1009,-0.04851658
1010,-0.059516784
1011,-0.038804892
1012,0.0747541
1013,-0.048461564
1014,-0.04101069
1015,-0.048570048
1016,-0.039162505
1017,-0.012794179
1018,-0.031317573
1019,-0.004056659
1020,0.03450533
1021,-0.035440665
1022,-0.026382806
1023,-0.060753204
1024,-0.05052004
1025,-0.053263783
1026,-0.03814466
1027,-0.0068968385
1028,-0.013562103
1029,-0.04995574
1030,-0.1520174
1031,-0.06709605
1032,-0.06581849
1033,-0.04569106
1034,-0.03669337
1035,0.04172874
1036,-0.031442396
1037,-0.04500677
1038,-0.04214554
1039,-0.04465756
1040,-0.046391547
1041,-0.01448489
1042,-0.0039995145
1043,-0.023941748
1044,-0.001092324
1045,-0.07759603
1046,-0.008239535
1047,-0.044769794
1048,-0.075714745
1049,-0.044963587
1050,0.013185924
1051,-0.05679137
1052,-0.034584228
1053,-0.05482745
1054,-0.03871188
1055,-0.06774657
1056,-0.0371665
1057,-0.024177909
1058,-0.042086408
1059,0.057801902
1060,-0.028736161
1061,-0.04228793
1062,-0.026622197
1063,0.13480361
1064,-0.045447484
1065,0.012273093
1066,-0.053407937
1067,-0.044449445
1068,-0.039341323
1069,-0.032533266
1070,0.07855581
1071,0.04566675
1072,-0.016680341
1073,0.10466116
1074,-0.057398167
1075,-0.03492845
1076,-0.036769684
1077,-0.021777192
1078,-0.053733345
1079,-0.04425984
1080,-0.0909009
1081,-0.012089436
1082,-0.05034873
1083,0.015973343
1084,-0.04546479
1085,-0.040863197
1086,-0.060902383
1087,-0.067647256
1088,-0.038125344
1089,-0.06181884
1090,-0.07504851
1091,-0.018981975
1092,0.017299838
1093,-0.0453159
1094,-0.0363682
1095,-0.04693424
1096,-0.04990768
1097,-0.025434636
1098,-0.02998813
1099,-0.031958666
1100,-0.007487123
1101,-0.042268366
1102,-0.04853867
1103,-0.03738015
1104,0.008306886
1105,-0.0023497543
1106,-0.045372974
1107,-0.031981952
1108,-0.042305373
1109,-0.0035889205
1110,-0.030605314
1111,-0.037819926
1112,-0.060633123
1113,-0.03247026
1114,-0.004662765
1115,-0.025940612
1116,-0.058540467
1117,-0.045551192
1118,-0.041132543
1119,0.05688278
1120,-0.040517904
1121,-0.05355916
1122,-0.07734565
1123,-0.05506489
1124,-0.0128400335
1125,-0.049645357
1126,-0.039735947
1127,0.023031378
1128,-0.03532687
1129,-0.04708606
1130,-0.027964829
1131,-0.0055572675
1132,-0.05464695
1133,-0.045394182
1134,-0.043092478
1135,-0.07239204
1136,0.040354192
1137,-0.06267503
1138,0.0017415674
1139,-0.0014244299
1140,0.04417917
1141,-0.04873169
1142,-0.041277405
1143,0.007139109
1144,-0.03876407
1145,0.09448735
1146,-0.025512388
1147,0.021962533
1148,-0.08518678
1149,-0.034318
1150,-0.027254531
1151,-0.060795024
1152,-0.0504936
1153,0.015936151
1154,-0.020708444
1155,-0.017936736
1156,-0.008738276
1157,-0.03449223
1158,0.014186301
1159,-0.04109966
1160,-0.05118583
1161,-0.042571772
1162,-0.018931007
1163,-0.008874783
1164,-0.0306554
1165,-0.03626902
1166,-0.041564256
1167,-0.04413314
1168,-0.013476101
1169,-0.0502461
1170,-0.0009540594
1171,-0.01666292
1172,0.012140284
1173,0.02677614
1174,-0.014184785
1175,-0.044832032
1176,-0.028979952
1177,0.0017401989
1178,0.049266316
1179,-0.056825247
1180,-0.031360768
1181,-0.041753177
1182,-0.03725761
1183,-0.036961325
1184,-0.031537373
1185,-0.03472685
1186,-0.013302881
1187,-0.015643135
1188,-0.04075565
1189,-0.04137564
1190,-0.03464289
1191,0.047549106
1192,0.0004227789
1193,-0.05488587
1194,-0.049986098
1195,-0.016410533
1196,0.08777649
1197,-0.03263234
1198,0.0007442364
1199,0.004560714
1200,-0.042125713
1201,0.025436144
1202,-0.052648097
1203,-0.03128521
1204,0.012143858
1205,0.012190294
1206,-0.05398942
1207,0.05203791
1208,-0.018612659
1209,-0.0175571
1210,-0.047050633
1211,-0.055765223
1212,-0.020206003
1213,-0.042894598
1214,-0.0154622765
1215,-0.031384747
1216,-0.025393426
1217,-0.041603446
1218,-0.018789994
1219,-0.0074415156
1220,-0.005727781
1221,-0.041384034
1222,-0.011674505
1223,-0.012562443
1224,0.010933353
1225,0.009153266
1226,-0.03819806
1227,-0.006518104
1228,0.030617874
1229,-0.03977778
1230,-0.047621805
1231,-0.03445455
1232,0.012906833
1233,-0.026348706
1234,-0.04629509
1235,-0.031435523
1236,-0.042061504
1237,0.0114743505
1238,-0.024256552
1239,-0.0223953
1240,-0.0341931
1241,-0.03296476
1242,-0.04564125
1243,0.027409654
1244,-0.055765018
1245,-0.04578326
1246,0.063075595
1247,-0.00065292424
1248,-0.037443005
1249,-0.05289009
1250,-0.027735602
1251,-0.040303156
1252,0.0037130036
1253,-0.049544685
1254,-0.023599977
1255,-0.011391353
1256,-0.035630237
1257,-0.0405282
1258,0.020702144
1259,-0.056863565
1260,-0.05444339
1261,0.0425961
1262,-0.043406177
1263,-0.04216381
1264,0.029694317
1265,0.054864544
1266,0.054612502
1267,0.0914384
1268,0.031834297
1269,-0.04820161
1270,-0.04013707
1271,0.04371219
1272,-0.039272804
1273,0.04449271
1274,-0.0074923183
1275,0.034582313
1276,-0.031814683
1277,-0.00081183005
1278,-0.024369644
1279,-0.0610699
1280,-0.04381178
1281,0.030076025
1282,0.010490184
1283,-0.017917983
1284,-0.007715377
1285,-0.01929401
1286,-0.012778948
1287,-0.027249271
1288,-0.030266093
1289,-0.04021233
1290,0.002168773
1291,0.01219287
1292,-0.01689963
1293,-0.0050931806
1294,-0.028580364
1295,-0.032454275
1296,-0.018567633
1297,-0.026333805
1298,-0.028255852
1299,-0.008121498
1300,-0.005968219
1301,0.0023696076
1302,-0.004900941
1303,-0.012022822
1304,0.029975126
1305,0.016401842
1306,0.004204239
1307,-0.007257221
1308,0.026230404
1309,-0.002306585
1310,-0.0006797302
1311,0.017315874
1312,-0.019628456
1313,-0.02041836
1314,0.0053715003
1315,-0.011254432
1316,-0.040868737
1317,-0.0017192309
1318,-0.0032368763
1319,0.04377656
1320,0.019322472
1321,-0.039449785
1322,-0.038038705
1323,-0.009372594
1324,0.01051605
1325,-0.022242071
1326,-0.03627594
1327,0.0067121834
1328,-0.005871832
1329,0.030426022
1330,-0.02014041
1331,0.009684599
1332,-0.028714703
1333,-0.005646334
1334,0.0009190368
1335,0.047951344
1336,-0.029533288
1337,0.0050712493
1338,0.0035171665
1339,-0.027370537
1340,-0.01947733
1341,-0.020669436
1342,0.0036625508
1343,-0.000314139
1344,-0.014510545
1345,-0.023432981
1346,-0.0075994106
1347,0.0048620226
1348,0.016163116
1349,-0.018394094
1350,-0.0039046295
1351,0.03422937
1352,-0.019863179
1353,0.008120121
1354,-0.0003396558
1355,-0.0095853675
1356,0.0445048
1357,-0.028512543
1358,-0.029838098
1359,-0.029455813
1360,0.010935217
1361,0.026315013
1362,-0.028594881
1363,0.0066983094
1364,-0.003345347
1365,-0.0057268743
1366,0.011722001
1367,-0.005639021
1368,-0.0040295413
1369,-0.0225955
1370,-0.0008287451
1371,0.043851938
1372,0.02818215
1373,-0.018835716
1374,0.020618802
1375,0.041352473
1376,-0.03490629
1377,-0.03721871
1378,-0.023720875
1379,-0.03287462
1380,0.0043383893
1381,-0.048441693
1382,-0.012134751
1383,-0.0058347797
1384,-0.024652341
1385,0.004752839
1386,0.021757381
1387,-0.036774416
1388,-0.014743632
1389,-0.0006803661
1390,-0.024221566
1391,-0.024459211
1392,0.033392295
1393,0.045808095
1394,-0.007391554
1395,0.01704462
1396,-0.004905677
1397,-0.016690824
1398,-0.0034845998
1399,0.010745875
1400,-0.028844178
1401,1.1283904e-05
1402,0.029973568
1403,0.02880557
1404,0.016689133
1405,0.035727434
1406,-0.024061909
1407,-0.056303453
1408,0.00069045875
1409,0.020934392
1410,0.00016555237
1411,-0.0102855
1412,-0.0025462976
1413,0.0028105737
1414,0.006414219
1415,-0.010301058
1416,-0.005162196
1417,0.0154099
1418,0.0017362282
1419,-0.01782712
1420,0.021323323
1421,0.0038072628
1422,-0.007750848
1423,0.0028513297
1424,-0.00023242955
1425,-0.012918293
1426,-0.0035413115
1427,0.011879779
1428,-0.0075063924
1429,0.009253216
1430,0.0137745105
1431,-0.0053943396
1432,0.010143615
1433,-0.016797869
1434,-0.00430898
1435,0.008277703
1436,-0.008021646
1437,0.01111144
1438,-0.0085818665
1439,0.017787578
1440,-0.0029869562
1441,0.0031428016
1442,0.004864282
1443,-0.0063706553
1444,0.018060148
1445,-0.012979666
1446,0.00070911046
1447,-0.004267598
1448,0.00042139698
1449,0.0054735797
1450,0.006366558
1451,0.004488402
1452,-0.0075188475
1453,-0.00019396454
1454,0.010691193
1455,0.010170674
1456,-0.005158537
1457,0.008787148
1458,0.0023002706
1459,0.0018315733
1460,-0.011905693
1461,-0.010393225
1462,-0.00891876
1463,0.007614447
1464,-0.009979889
1465,-0.014640902
1466,0.0057166354
1467,0.012801466
1468,0.0046287742
1469,-0.011241353
1470,-0.0048519
1471,-0.007750936
1472,-0.006857143
1473,-0.011690633
1474,-0.012130935
1475,-0.005544542
1476,-0.0049643614
1477,-0.008297644
1478,-0.0060872533
1479,-0.0020379173
1480,0.013751912
1481,-0.0018980243
1482,0.01712721
1483,0.005369715
1484,-0.0050476906
1485,-0.0014100383
1486,0.013191328
1487,-0.012683971
1488,0.0060578557
1489,-0.011596529
1490,-0.007881783
1491,0.0055482495
1492,-0.01535416
1493,-0.0020519537
1494,0.006054179
1495,0.0036769744
1496,0.00011673635
1497,0.008996557
1498,0.00820803
1499,-0.0015502739
1500,0.006732672
1501,0.0051734867
1502,-0.016967857
1503,0.0001673099
1504,-0.0017340246
1505,-0.009577254
1506,0.0009549075
1507,0.010323644
1508,0.012426208
1509,0.008884236
1510,-0.0012098353
1511,0.008899103
1512,-0.0026359246
1513,0.013002212
1514,-0.002396297
1515,0.008969371
1516,-0.002494555
1517,-0.005074869
1518,-0.011673681
1519,-0.018208623
1520,-0.00063203566
1521,0.0067909434
1522,0.003705272
1523,0.012539486
1524,-0.008517492
1525,0.010516191
1526,0.0041328613
1527,-0.01668372
1528,-0.0046738363
1529,0.008879509
1530,0.0058643487
1531,0.009232135
1532,0.0042288285
1533,0.0015019617
1534,-0.019344795
1535,-0.014431382
1536,0.016523492
1537,-0.0059012715
1538,-0.013889198
1539,-0.011591762
1540,-0.003017973
1541,0.0061009866
1542,-0.0049488293
1543,-0.00958796
1544,-0.0061234985
1545,0.0051356666
1546,-0.004003562
1547,-0.00083303894
1548,0.009274176
1549,0.0016023463
1550,0.00017607874
1551,-0.00535945
1552,0.01483315
1553,0.002841031
1554,-0.014646467
1555,-0.002679482
1556,0.008380121
1557,0.015968658
1558,0.00025309017
1559,-0.009958923
1560,0.019626748
1561,-0.008248968
1562,0.0033562651
1563,-0.008565985
1564,0.0015527623
1565,0.0065513393
1566,0.008438724
1567,-6.459926e-05
1568,0.0011346835
1569,-0.010658993
1570,-0.005967605
1571,-0.011162092
1572,-0.007997678
1573,0.0033945888
1574,-0.008063078
1575,-0.0068613407
1576,0.0148094
1577,0.007935123
1578,0.005478668
1579,0.018883795
1580,0.011639319
1581,0.006991302
1582,-0.0040229694
1583,0.0087348195
1584,0.00931896
1585,0.0086575085
1586,-6.905466e-05
1587,-0.00918257
1588,-0.0031296222
1589,0.013529569
1590,-0.016502924
1591,0.013580065
1592,-0.0014142151
1593,-0.009783599
1594,-0.005157222
1595,-0.005472703
1596,-0.0024321366
1597,-0.004704094
1598,0.0083954055
1599,-0.014755854
1600,-0.014905832
1601,0.012026623
1602,0.01833594
1603,-0.0027927968
1604,-0.00092186464
1605,-0.019968837
1606,-0.019117184
1607,-0.01149985
1608,0.010259387
1609,-0.008816352
1610,0.0055590877
1611,-0.01797898
1612,-0.0020459837
1613,0.008902676
1614,-6.94349e-05
1615,-0.008840442
1616,0.00988901
1617,0.0067227106
1618,-0.011185365
1619,0.005495577
1620,0.00514082
1621,0.014099564
1622,-0.0007213941
1623,0.0026755875
1624,0.0061924974
1625,0.0044223024
1626,-0.01085648
1627,-0.016890194
1628,-0.0059736115
1629,0.002395111
1630,0.00025312093
1631,0.008964129
1632,-0.0016996112
1633,0.008568696
1634,0.002374142
1635,-0.0059636217
1636,0.013633935
1637,-0.011493365
1638,-0.0010781864
1639,-0.006181222
1640,-0.0015997922
1641,-0.010403953
1642,-0.0017579545
1643,-0.014986374
1644,-0.0009143136
1645,0.016743658
1646,0.0063564954
1647,0.014446413
1648,-0.0039277384
1649,0.010770602
1650,-0.003269388
1651,0.013948848
1652,-0.009152235
1653,-0.0084214825
1654,0.00071753585
1655,-0.006952763
1656,-0.0012931057
1657,0.010422677
1658,0.012079772
1659,-0.0070794486
1660,-0.018915666
1661,-0.0012736327
1662,-0.0042965827
1663,0.0009490081
1664,0.0018350739
1665,-0.011429797
1666,0.0030467215
1667,-0.0039978647
1668,0.004032946
1669,-0.0030531972
1670,0.002966992
1671,-0.012567254
1672,-0.0082560005
1673,-0.0016297215
1674,-0.010448756
1675,0.004977997
1676,0.006552362
1677,-0.012886317
1678,0.015725963
1679,-0.017253546
1680,0.0004495153
1681,-0.014970954
1682,-0.007417788
1683,-0.0028416265
1684,-0.013669326
1685,0.011592903
1686,0.0035380286
1687,0.015492939
1688,-0.007839708
1689,0.004680794
1690,-0.009908143
1691,-0.004072069
1692,-0.0009180667
1693,-0.0017170006
1694,-0.009152112
1695,0.0029946803
1696,0.0016809083
1697,0.006391982
1698,0.013751321
1699,-0.005092197
1700,-0.007674117
1701,-0.012356033
1702,-0.008327785
1703,0.0004276229
1704,0.0033206677
1705,0.012507171
1706,0.0028140154
1707,0.009590176
1708,0.0035121678
1709,0.008354915
1710,-0.001910055
1711,-0.009954363
1712,-0.002177224
1713,0.002102984
1714,-0.008066994
1715,-0.0013213466
1716,0.0024669564
1717,0.0021860923
1718,-0.015984265
1719,-0.00801761
1720,-0.0024285591
1721,-0.007959954
1722,-0.0029092976
1723,0.018511968
1724,-0.0043711797
1725,-0.0036979143
1726,-0.014565282
1727,-0.005366166
1728,0.011738126
1729,0.0060893176
1730,0.0073116818
1731,0.0056001614
1732,0.016176442
1733,0.008096104
1734,-0.0043062577
1735,-0.00060102675
1736,0.0010230966
1737,-0.0067234067
1738,8.035426e-05
1739,-0.012089015
1740,-0.0101625165
1741,0.0058261356
1742,0.019472564
1743,-0.017586559
1744,0.013415737
1745,0.0095062405
1746,0.006098497
1747,-0.0044575487
1748,0.0004923718
1749,0.015895836
1750,0.010674214
1751,0.003324523
1752,-0.017017437
1753,0.019983903
1754,-0.0013812588
1755,0.0021130021
1756,-0.0062800967
1757,-0.012590794
1758,-0.0023422432
1759,0.001857831
1760,-0.0022185259
1761,0.010163193
1762,0.0143346805
1763,0.0035866236
1764,-0.016409421
1765,0.007407936
1766,-0.012020775
1767,-0.0023990553
1768,0.002984518
1769,0.0068265093
1770,-0.0008330766
1771,-0.00015322627
1772,-0.008489193
1773,0.002026426
1774,-0.0025383532
1775,-0.0017788928
1776,0.0024556378
1777,0.006582216
1778,0.009576384
1779,0.005091493
1780,-0.011280231
1781,0.0009588661
1782,-0.0031817132
1783,0.0013673236
1784,-0.0040131253
1785,0.018897321
1786,-0.008505537
1787,-0.0064879837
1788,0.006450353
1789,0.002338271
1790,-0.0046521076
1791,0.015920954
1792,-0.006568629
1793,-0.011432358
1794,0.01742362
1795,-0.003155
1796,-0.003817447
1797,-0.017189791
1798,0.019831568
1799,0.0016362803
1800,-0.0050372845
1801,0.015711302
1802,-0.00550334
1803,-0.0023026858
1804,0.0075530186
1805,0.0016435368
1806,-0.00277431
1807,-0.013813785
1808,0.0119105065
1809,-0.011014658
1810,0.0037855105
1811,-0.0062571093
1812,0.003082054
1813,0.00027744504
1814,-0.002498199
1815,-0.005210932
1816,0.00663504
1817,0.0036241375
1818,-0.0022893695
1819,-0.014289669
1820,0.008056887
1821,0.0031241323
1822,-0.00953118
1823,-0.017010374
1824,0.015818825
1825,0.006750871
1826,-0.003787308
1827,0.0076884506
1828,-0.0029998743
1829,0.0056459247
1830,2.3156165e-06
1831,0.009601095
1832,0.004326033
1833,0.0072429692
1834,0.012675484
1835,-0.0034747755
1836,0.0013012508
1837,-0.00011733748
1838,-0.0060378634
1839,-0.0066459724
1840,-0.0041201417
1841,0.0016566986
1842,0.0056234235
1843,-0.013009784
1844,-0.001449788
1845,-0.0081496
1846,-0.00067118317
1847,0.0020877495
1848,0.009809375
1849,-0.0077649164
1850,0.0029027453
1851,-0.0075912005
1852,-0.011573126
1853,0.008091989
1854,0.003320505
1855,-0.004703051
1856,-0.002404706
1857,-0.0027158328
1858,0.00014144483
1859,0.003587258
1860,-0.0034725314
1861,-0.0071045426
1862,-0.0011464946
1863,-0.0080721965
1864,-0.00032919794
1865,-0.006325529
1866,-0.004578694
1867,-0.019369079
1868,-0.004589472
1869,0.014587811
1870,-0.017562075
1871,0.011185795
1872,0.0062107807
1873,0.004169311
1874,-0.012879986
1875,0.0057102866
1876,0.008080161
1877,0.0023322965
1878,-0.010797006
1879,-0.0065967175
1880,-0.010915311
1881,-0.0035921454
1882,-0.0076509938
1883,0.0032660689
1884,0.008115529
1885,-0.00755414
1886,5.8774407e-05
1887,0.00015649339
1888,0.0016291761
1889,0.012938901
1890,-0.0070518474
1891,0.007971674
1892,-0.00075040763
1893,0.019709136
1894,-0.0047250385
1895,-0.0095030395
1896,-0.00046664334
1897,0.0058693388
1898,0.0112740025
1899,0.008395932
1900,0.0030844468
1901,0.01542605
1902,-0.017451102
1903,0.001169454
1904,0.001954618
1905,0.012871781
1906,-0.0028065364
1907,0.018005531
1908,-0.00067226734
1909,0.014488443
1910,0.00076202396
1911,-0.0034189038
1912,0.011054269
1913,-0.0035235174
1914,0.013930687
1915,-0.0017854435
1916,-0.004253893
1917,-0.0037741833
1918,0.0078377165
1919,0.005869572
1920,-0.004720826
1921,0.0066544157
1922,-0.0032561265
1923,0.0067472714
1924,-0.016126428
1925,0.007891318
1926,0.0077833417
1927,-0.013440002
1928,0.0059189447
1929,0.017526865
1930,0.0069099097
1931,0.012531333
1932,-0.0032135367
1933,-0.0060789455
1934,0.015943319
1935,-0.008171698
1936,0.00052437134
1937,0.00039192304
1938,0.00401991
1939,0.0055072233
1940,0.006563943
1941,-0.0074189072
1942,-0.0033324014
1943,-0.01432219
1944,-0.00305731
1945,-0.0072545707
1946,0.0020296923
1947,0.008737086
1948,0.015808918
1949,-0.00042202216
1950,-0.0014142419
1951,-0.0021589994
1952,-0.0040026824
1953,0.0058209156
1954,0.010867715
1955,0.012991874
1956,-0.0049420698
1957,0.009046227
1958,-0.0015055283
1959,0.0019795562
1960,0.013334983
1961,-0.0044484516
1962,-0.010101209
1963,0.009086157
1964,0.0060085943
1965,-0.015101227
1966,-0.001570485
1967,-0.004029771
1968,-0.009785404
1969,0.012678161
1970,-0.0036892649
1971,-0.0014820845
1972,0.001228613
1973,0.008054548
1974,0.0054717856
1975,-0.0018308738
1976,-0.0008312198
1977,0.009489961
1978,0.01719997
1979,-0.00089457794
1980,-0.012521332
1981,0.006785308
1982,0.0058403867
1983,-0.00084599864
1984,0.008819976
1985,-0.00024804598
1986,-0.0032033
1987,-0.011906747
1988,0.015207825
1989,0.006540531
1990,0.0060789734
1991,-0.0017356458
1992,0.003973385
1993,-0.0062091867
1994,-0.0018378401
1995,-0.0014937666
1996,-0.00013493901
1997,0.002909531
1998,-0.017094864
1999,0.0005506754
2000,0.01260222
2001,-0.008371701
2002,0.0076757604
2003,0.0042762104
2004,0.0013651183
2005,9.640187e-05
2006,0.009323859
2007,0.0057487176
2008,-0.018878754
2009,0.0017151654
2010,-0.011660169
2011,0.006493993
2012,0.008110168
2013,0.0004996189
2014,-0.0065945033
2015,-0.0031724083
2016,0.006303264
2017,0.00020094679
2018,0.002616246
2019,0.0098699685
2020,0.016001236
2021,0.01209946
2022,-0.0038275002
2023,-0.003375186
2024,0.014681593
2025,0.007150893
2026,-0.003326894
2027,-0.0094051305
2028,0.001442579
2029,0.0007104138
2030,-0.013726439
2031,8.05538e-05
2032,0.011615653
2033,0.0006865016
2034,-0.014835882
2035,-0.009596491
2036,0.006550198
2037,0.011170108
2038,-0.008925324
2039,-0.010118197
2040,-0.007873774
2041,-0.011085554
2042,-0.0049971202
2043,0.0055798367
2044,0.01044636
2045,-0.0022958117
2046,-0.009528492
2047,0.014230965
2048,-0.048702933
2049,-0.06861565
2050,-0.0036830138
2051,0.017598724
2052,0.0348431
2053,0.026105257
2054,0.004072152
2055,0.013132064
2056,0.02432432
2057,-0.023403024
2058,0.048053224
2059,0.0095257
2060,0.027801821
2061,0.04718028
2062,-0.013243124
2063,-0.007973155
2064,0.009208122
2065,0.0040076836
2066,0.027898792
2067,0.024381582
2068,0.011759481
2069,-0.010262736
2070,0.01755296
2071,-0.008607586
2072,-0.06186875
2073,0.01320694
2074,0.0949687
2075,0.021988083
2076,0.004654302
2077,0.05830351
2078,0.009429421
2079,-0.07413064
2080,-0.025760967
2081,0.011592013
2082,-0.03023474
2083,0.009604157
2084,-0.044026386
2085,-0.013508432
2086,-0.08276414
2087,-0.08298816
2088,0.013091543
2089,-0.00012671898
2090,-0.06632498
2091,0.024518333
2092,0.020518335
2093,0.031593934
2094,-0.07517158
2095,0.06796137
2096,-0.04683437
2097,-0.13376391
2098,-0.03688772
2099,0.016109087
2100,0.020307597
2101,0.0034320238
2102,-0.0024040667
2103,-0.062107675
2104,-0.03454995
2105,0.011461756
2106,0.030208707
2107,-0.050809465
2108,0.008583157
2109,-0.02105314
2110,0.05001884
2111,-0.028477691
2112,0.01281199
2113,0.00930668
2114,0.008449449
2115,-0.07716327
2116,0.014417204
2117,0.016417265
2118,0.025691045
2119,-0.003967963
2120,0.0013536216
2121,0.031852778
2122,-0.06532156
2123,0.027855793
2124,-0.061318647
2125,-0.04129988
2126,-0.04851597
2127,0.006170759
2128,0.04445299
2129,-0.006404946
2130,0.012164513
2131,-0.019300235
2132,0.023483614
2133,0.016471602
2134,0.09699394
2135,0.00794749
2136,0.0064870706
2137,0.013229808
2138,-0.046773035
2139,0.03146209
2140,0.015196853
2141,-0.033170562
2142,0.02090165
2143,-0.071157634
2144,0.008209977
2145,-0.0398955
2146,-0.06348315
2147,-0.027089518
2148,-0.042606518
2149,-0.07027651
2150,-0.0049762507
2151,-0.0059659127
2152,-0.042424027
2153,-0.036727168
2154,-0.04020101
2155,0.032705303
2156,-0.033701524
2157,0.005054074
2158,-0.0539031
2159,-0.08125769
2160,0.068821065
2161,-0.072828285
2162,-0.016300844
2163,0.055110328
2164,0.042520918
2165,-0.07065346
2166,-0.005650805
2167,0.047088064
2168,0.02834541
2169,0.034856953
2170,0.012588355
2171,-0.09841178
2172,-0.065826364
2173,-0.02586494
2174,0.019995162
2175,-0.048160236
2176,0.049506668
2177,0.05294784
2178,-0.043863975
2179,0.033436004
2180,0.012370536
2181,0.04764087
2182,0.029266994
2183,0.044122454
2184,0.04991779
2185,0.042334553
2186,-0.077584594
2187,0.0465932
2188,0.0048612775
2189,0.016659271
2190,-0.066729896
2191,0.04352416
2192,0.045296095
2193,0.04743688
2194,0.030228816
2195,0.046218414
2196,0.05139437
2197,-0.0037573138
2198,0.036698334
2199,-0.07054012
2200,0.027151437
2201,0.038749773
2202,-0.049015176
2203,0.05460355
2204,0.0694922
2205,-0.08211872
2206,0.030783202
2207,0.015973669
2208,0.029200792
2209,0.028670097
2210,0.02514026
2211,0.03325783
2212,0.038933475
2213,0.03742946
2214,0.06337685
2215,-0.013200689
2216,0.04048995
2217,0.068527356
2218,0.034624796
2219,0.038960453
2220,-0.017304786
2221,-0.00020730153
2222,0.012623321
2223,-0.076467335
2224,0.058432113
2225,-0.13355985
2226,0.056602657
2227,0.021115411
2228,0.020019852
2229,0.08217929
2230,0.05235049
2231,0.008644199
2232,-0.034357097
2233,-0.08132937
2234,0.037702132
2235,0.054293353
2236,0.039698023
2237,0.035149425
2238,0.068350196
2239,-0.018483577
2240,0.0014667382
2241,-0.088202104
2242,0.0511246
2243,-0.05760621
2244,0.013872791
2245,0.044484932
2246,0.033554308
2247,0.04139619
2248,0.0066839857
2249,-0.07670063
2250,0.01960866
2251,0.052648503
2252,0.010076961
2253,0.039477434
2254,0.04677282
2255,0.016952824
2256,0.03275229
2257,0.04784227
2258,0.043496795
2259,0.018992733
2260,0.0375407
2261,0.024265945
2262,-0.07954191
2263,0.019413516
2264,0.05501533
2265,0.02999967
2266,-0.009032063
2267,0.04578778
2268,0.058221467
2269,0.04341462
2270,0.021099305
2271,0.043997698
2272,0.030283421
2273,0.051917024
2274,-0.06251218
2275,0.054358553
2276,0.066798516
2277,0.041037194
2278,-0.04934038
2279,0.0005434159
2280,0.021630684
2281,0.052025262
2282,0.009078839
2283,0.035283558
2284,0.05414813
2285,0.043722637
2286,0.03478279
2287,-0.080993734
2288,-0.09517946
2289,0.030291587
2290,-0.10409005
2291,0.030800784
2292,-0.10218176
2293,-0.06887294
2294,0.03786761
2295,0.043184776
2296,0.02099298
2297,-0.058095966
2298,0.019281724
2299,0.109389834
2300,0.034428477
2301,0.031030132
2302,0.016990783
2303,0.059966955
2304,-0.056786858
2305,0.040028457
2306,0.017210005
2307,0.013935582
2308,0.041561816
2309,0.03759238
2310,-0.0144357
2311,0.028713902
2312,0.031374227
2313,0.014777436
2314,-0.07790714
2315,0.033109453
2316,-0.0013931136
2317,0.03186553
2318,0.038842686
2319,0.039884124
2320,-0.061829634
2321,0.027381824
2322,0.02550561
2323,0.03106821
2324,0.017314274
2325,-0.075652376
2326,0.0041503594
2327,0.041362118
2328,0.02547123
2329,0.011748198
2330,-0.06454293
2331,0.054540593
2332,0.00479363
2333,-0.0821356
2334,0.030345948
2335,0.018948518
2336,0.043312434
2337,0.0015472375
2338,0.041500136
2339,0.018880675
2340,0.03285422
2341,0.025565673
2342,-0.021627614
2343,0.074906155
2344,0.018483143
2345,-0.011852006
2346,0.034215383
2347,-0.021549972
2348,0.020094488
2349,0.0101733925
2350,-0.011782739
2351,0.069782786
2352,0.04135106
2353,0.075674295
2354,-0.058437668
2355,0.025786025
2356,0.020455081
2357,-0.081909865
2358,0.046492644
2359,0.032087643
2360,-0.03323794
2361,-0.009754644
2362,-0.0026663141
2363,-0.036714867
2364,0.030785242
2365,0.019779544
2366,-0.07807406
2367,-0.0016306706
2368,-0.08374399
2369,0.05313537
2370,-0.04656596
2371,-0.08143474
2372,0.03406758
2373,-0.06624846
2374,0.030009812
2375,0.034758598
2376,0.017659487
2377,-0.07608893
2378,0.033301793
2379,-0.07034794
2380,0.052378338
2381,0.041950684
2382,0.026483927
2383,0.012099897
2384,-0.0066622472
2385,0.042025242
2386,0.02584652
2387,0.017983902
2388,0.04046689
2389,0.025561906
2390,0.062145337
2391,0.019783618
2392,0.059895977
2393,0.01868842
2394,0.03243721
2395,-0.00021260216
2396,0.022232963
2397,-0.06832558
2398,0.0040258956
2399,0.010738952
2400,0.023830185
2401,0.03400577
2402,0.06625657
2403,-0.06928733
2404,0.0029660389
2405,0.04842176
2406,-0.04931334
2407,-0.030827994
2408,0.034044307
2409,0.025903009
2410,0.029176902
2411,0.002393782
2412,0.027794817
2413,0.042636525
2414,0.042611048
2415,0.061307013
2416,0.049573995
2417,0.06211232
2418,-0.09094869
2419,-0.005962933
2420,-0.107347526
2421,0.0234652
2422,0.012272181
2423,0.006414737
2424,0.034230858
2425,-0.03788267
2426,0.022278804
2427,-0.09838711
2428,0.027753163
2429,0.027278308
2430,0.0059447144
2431,0.053454634
2432,0.038746968
2433,-0.047972158
2434,0.01574179
2435,-0.008321133
2436,0.027672743
2437,0.0023134602
2438,0.05773883
2439,0.009850172
2440,0.02719059
2441,-0.059629403
2442,0.03476724
2443,-0.044834882
2444,0.014932071
2445,0.018527575
2446,0.036096185
2447,0.011807859
2448,0.03353965
2449,-0.05008488
2450,-0.049642935
2451,-0.043025147
2452,-0.06337903
2453,0.0869463
2454,-0.019787084
2455,0.051640283
2456,0.042427104
2457,-0.059827525
2458,-0.06940189
2459,-0.058144264
2460,-0.062297046
2461,0.04796242
2462,0.0010413828
2463,0.01934477
2464,-0.032314092
2465,-0.035173655
2466,-0.010982482
2467,0.012628245
2468,-0.04399597
2469,0.011073137
2470,-0.03667603
2471,0.050830044
2472,0.006916739
2473,-0.111598015
2474,0.052084427
2475,0.009100541
2476,-0.031783618
2477,0.008679661
2478,-0.0076645785
2479,-0.07684108
2480,-0.03945419
2481,0.07655284
2482,0.054977067
2483,0.008333555
2484,0.0099412035
2485,-0.08149917
2486,-0.056790285
2487,0.04905085
2488,0.05112501
2489,0.05496922
2490,0.042350437
2491,0.051969487
2492,0.0014063921
2493,-0.040789127
2494,-0.07850819
2495,-0.0022853008
2496,0.0034974713
2497,-0.087981835
2498,0.016592285
2499,-0.08177624
2500,-0.0293068
2501,0.032126475
2502,-0.049880173
2503,0.032346696
2504,0.055224635
2505,-0.011388438
2506,0.039441355
2507,0.044882674
2508,-0.0006859385
2509,0.0117762005
2510,-0.04854122
2511,0.026394472
2512,-0.014100236
2513,0.004138628
2514,0.017508192
2515,-0.033005066
2516,0.026334642
2517,0.017494963
2518,-0.07954096
2519,0.010266486
2520,-0.043796673
2521,0.008741648
2522,0.045270767
2523,-0.004199526
2524,-0.040550094
2525,-0.0062113237
2526,-0.012576612
2527,0.0038726735
2528,0.033824284
2529,0.028005783
2530,0.07643489
2531,0.05195724
2532,0.054049946
2533,0.031218465
2534,0.03751508
2535,0.053407606
2536,0.0199921
2537,0.018846406
2538,0.019708727
2539,0.026945978
2540,0.0031493916
2541,-0.023992885
2542,0.013956507
2543,0.07197424
2544,-0.094891004
2545,0.02096205
2546,-0.104091406
2547,0.026750088
2548,0.038182523
2549,0.006164858
2550,0.014470119
2551,-0.01480814
2552,0.03008347
2553,-0.021453405
2554,-0.021996457
2555,0.015242719
2556,0.031261582
2557,-0.038192425
2558,0.0029969513
2559,-0.048164394
2560,0.03352458
2561,-0.02088204
2562,0.043135405
2563,0.012780562
2564,-0.05448442
2565,0.018139893
2566,-0.044332072
2567,-0.026506433
2568,0.0035515002
2569,0.04521806
2570,-0.07776098
2571,0.021489551
2572,0.0070604314
2573,-0.02589109
2574,0.032734115
2575,-0.046171814
2576,-0.062272076
2577,0.0048309993
2578,-0.013031246
2579,-0.01955029
2580,-0.055982422
2581,-0.004722774
2582,0.056206744
2583,-0.06975727
2584,0.024247963
2585,0.0014455259
2586,-0.024429463
2587,-0.058033988
2588,-0.041263092
2589,0.06909947
2590,-0.037557643
2591,0.07705752
2592,-0.027454922
2593,0.046118103
2594,0.004443616
2595,-0.0045939223
2596,0.061896343
2597,0.014982086
2598,-0.067307286
2599,-0.06715492
2600,0.040181
2601,0.019497767
2602,0.020785384
2603,0.026378026
2604,0.013848564
2605,0.023588145
2606,0.09666444
2607,-0.07638808
2608,-0.036487084
2609,0.04604604
2610,-0.016875349
2611,-0.025758531
2612,0.0068981973
2613,0.022445723
2614,-0.05644544
2615,-0.035910405
2616,0.089829475
2617,-0.081166625
2618,0.016438944
2619,0.0026842414
2620,-0.014926916
2621,-0.078448534
2622,-0.045235857
2623,-0.025584154
2624,0.033309173
2625,-0.08785612
2626,0.011702226
2627,-0.08180963
2628,-0.03032281
2629,0.026721787
2630,-0.017954785
2631,-0.012992964
2632,-0.07447255
2633,0.0414524
2634,-0.033370838
2635,-0.07006656
2636,-0.020026598
2637,0.023833808
2638,0.044729445
2639,-0.03860739
2640,-0.030887974
2641,0.027134025
2642,-0.04955558
2643,0.030879831
2644,0.03129116
2645,-0.008653445
2646,0.07784592
2647,-0.04150509
2648,-0.0464768
2649,0.04116371
2650,-0.007008512
2651,-0.009250482
2652,0.03729246
2653,0.025533514
2654,-0.008136159
2655,0.046800174
2656,-0.015061942
2657,-0.03873287
2658,-0.063341014
2659,-0.04564469
2660,-0.02336083
2661,0.010294779
2662,0.04479102
2663,-0.04404452
2664,-0.024162734
2665,0.008281239
2666,-0.011765325
2667,-0.017103096
2668,-0.0806457
2669,-0.022458654
2670,-0.012075105
2671,-0.081140816
2672,-0.09560537
2673,-0.014392591
2674,0.06208264
2675,0.034886867
2676,-0.10747586
2677,0.045689147
2678,0.012622009
2679,0.0035506177
2680,-0.022871641
2681,-0.054278262
2682,-0.05608774
2683,0.022640647
2684,0.045686238
2685,-0.012562899
2686,-0.0459734
2687,-0.048380423
2688,-0.021941718
2689,0.0015886824
2690,0.046967797
2691,0.0052063866
2692,-0.020883434
2693,0.0033719698
2694,-0.04841873
2695,-0.011595061
2696,-0.0011059539
2697,-0.05968444
2698,0.035338458
2699,0.022529555
2700,0.0025514772
2701,-0.02908585
2702,-0.06601299
2703,-0.045896783
2704,-0.062221624
2705,0.015688881
2706,0.010325502
2707,-0.04244084
2708,0.02287126
2709,-0.07554759
2710,0.07595443
2711,0.048595384
2712,0.025218327
2713,0.013715604
2714,-0.0464886
2715,-0.05801735
2716,-0.06225246
2717,0.047241773
2718,-0.03646452
2719,0.03196005
2720,-0.044803165
2721,-0.055563603
2722,-0.027758727
2723,-0.036083467
2724,-0.037922934
2725,-0.010446694
2726,0.017797325
2727,-0.10333258
2728,-0.012082301
2729,0.08474823
2730,0.012339596
2731,-0.039207228
2732,0.03903168
2733,0.012014052
2734,0.055831287
2735,-0.07679691
2736,-0.03724259
2737,0.029172204
2738,-0.057503812
2739,0.0033599595
2740,0.004306636
2741,0.07535993
2742,-0.056924224
2743,0.013200678
2744,-0.03391789
2745,-0.081163384
2746,-0.03748299
2747,-0.0010342516
2748,0.019726733
2749,-0.06197502
2750,0.06767557
2751,0.0009891709
2752,0.031748027
2753,0.06770892
2754,-0.047332574
2755,0.07006612
2756,-0.030886138
2757,-0.044828936
2758,0.012868537
2759,0.0011103747
2760,-0.016772034
2761,-0.041048396
2762,0.0019444441
2763,-0.051526435
2764,0.04260411
2765,-0.041742563
2766,-0.028060028
2767,-0.03879676
2768,-0.024828907
2769,-0.047998466
2770,-0.023431793
2771,0.009710395
2772,-0.006250026
2773,-0.07743932
2774,-0.07957223
2775,-0.04134942
2776,-0.046422847
2777,0.024662511
2778,-0.04676373
2779,-0.051002685
2780,-0.04001699
2781,0.034503195
2782,0.01793764
2783,0.031095572
2784,0.0051261224
2785,0.024703294
2786,-0.06247285
2787,-0.04474222
2788,0.025772482
2789,0.010823799
2790,-0.049561433
2791,-0.02135534
2792,-0.035530552
2793,-0.035602707
2794,0.03842808
2795,-0.05158316
2796,-0.08776848
2797,-0.018252177
2798,0.016134001
2799,-0.08134017
2800,-0.0955809
2801,-0.02310693
2802,-0.1039904
2803,0.030164955
2804,-0.10555465
2805,0.023241853
2806,-0.030798346
2807,-0.012795808
2808,-0.032900758
2809,-0.03721786
2810,0.006993337
2811,-0.061638195
2812,0.061355356
2813,-0.05161007
2814,-0.04577986
2815,0.0469121
2816,-0.056727715
2817,0.00019186665
2818,-0.017233536
2819,-0.0049974453
2820,0.0036913112
2821,0.0051702503
2822,-0.0103495065
2823,0.06689614
2824,-0.029182209
2825,-0.059974536
2826,-0.030679967
2827,0.026868155
2828,-0.022359041
2829,-0.023910422
2830,-0.066252835
2831,-0.045868456
2832,-0.06231935
2833,-0.010225042
2834,0.0054061306
2835,0.010115757
2836,-0.012603358
2837,0.033080705
2838,-0.03105122
2839,-0.07096266
2840,-0.0075592315
2841,-0.06048352
2842,-0.03961264
2843,-0.058181025
2844,-0.060217667
2845,-0.08212926
2846,-0.03827506
2847,-0.07208921
2848,-0.034008905
2849,-0.0544755
2850,-0.03035353
2851,-0.009007518
2852,-0.03852101
2853,-0.0065779835
2854,0.10151851
2855,0.020336457
2856,-0.008989381
2857,0.012228646
2858,-0.034006108
2859,-0.037453145
2860,0.032432098
2861,-0.017138332
2862,0.028312853
2863,-0.02102189
2864,-0.046062917
2865,0.013383762
2866,-0.058165632
2867,-0.026991066
2868,-0.023401571
2869,0.0041420893
2870,-0.016238105
2871,-0.0125015965
2872,-0.034579523
2873,-0.01781515
2874,-0.04826646
2875,0.00029972524
2876,0.01764704
2877,0.07269326
2878,-0.026021983
2879,-0.030129073
2880,0.004662332
2881,-0.062305156
2882,0.08438684
2883,-0.08184455
2884,-0.030361481
2885,-0.018915974
2886,-0.049707394
2887,-0.0015945691
2888,-0.036650345
2889,-0.042138442
2890,-0.006373407
2891,-0.02486937
2892,0.07267164
2893,-0.041338257
2894,0.013612272
2895,-0.01565023
2896,-0.043976452
2897,-0.053174745
2898,-0.023195367
2899,-0.018197196
2900,0.01719346
2901,-0.08726414
2902,-0.07940074
2903,-0.04116375
2904,-0.016702985
2905,-0.05293087
2906,0.014331505
2907,-0.021750532
2908,0.0108399615
2909,-0.068285875
2910,-0.036044516
2911,0.040959958
2912,0.007833652
2913,0.018755546
2914,-0.06350024
2915,-0.050267383
2916,-0.14605494
2917,-0.011793924
2918,-0.041878738
2919,-0.0064145625
2920,-0.027226042
2921,-0.024931334
2922,-0.040158294
2923,0.011665227
2924,-0.087675415
2925,0.014205596
2926,0.039833598
2927,-0.081246056
2928,-0.032818336
2929,-0.013715103
2930,-0.10406856
2931,0.033655852
2932,-0.045289975
2933,0.0026235965
2934,-0.032705206
2935,0.019546706
2936,-0.031201206
2937,0.057512037
2938,0.003187605
2939,-0.014427217
2940,0.05871496
2941,0.030030167
2942,-0.045107383
2943,0.0052218447
2944,-0.013820837
2945,0.012829402
2946,-0.04399344
2947,0.0450401
2948,0.058119606
2949,0.015514722
2950,-0.09971102
2951,-0.032197192
2952,-0.048810087
2953,-0.03774068
2954,-0.037786953
2955,-0.046056464
2956,-0.027720874
2957,-0.023569802
2958,-0.066958115
2959,-0.008588964
2960,-0.038399618
2961,-0.006677314
2962,-0.022503544
2963,-0.034334935
2964,0.06098299
2965,-0.0010365351
2966,-0.038442314
2967,-0.07056458
2968,-0.045079872
2969,-0.04384087
2970,-0.07973167
2971,-0.05816644
2972,-0.04988632
2973,-0.08212414
2974,-0.0025949734
2975,0.02061194
2976,0.016477019
2977,-0.039004758
2978,0.00038016017
2979,0.039934628
2980,-0.033394147
2981,-0.01954189
2982,0.010446096
2983,0.037469305
2984,-0.020231556
2985,0.050115168
2986,-0.031124923
2987,-0.03244099
2988,-3.72212e-05
2989,0.005378675
2990,0.07023527
2991,-0.002542244
2992,-0.010250615
2993,-0.061313115
2994,-0.019112652
2995,-0.009825756
2996,-0.004378042
2997,0.019810438
2998,-0.056302927
2999,0.065862104
3000,-0.034401763
3001,-0.024228953
3002,0.019528206
3003,0.018614706
3004,-0.042366423
3005,0.0003611655
3006,-0.034896567
3007,0.066964015
3008,-0.015828108
3009,-0.087925956
3010,-0.059897814
3011,-0.039664283
3012,-0.030621778
3013,-0.007670018
3014,-0.049245197
3015,-0.04526248
3016,-0.0045453706
3017,-0.07671908
3018,0.015461136
3019,-0.037070405
3020,0.030903896
3021,-0.02828854
3022,-0.030725524
3023,-0.018784685
3024,-0.043233622
3025,-0.053004906
3026,-0.043937057
3027,0.030092794
3028,0.009918173
3029,-0.038187128
3030,-0.0694092
3031,-0.042023268
3032,-0.009418998
3033,0.029416757
3034,0.0035676553
3035,0.1269658
3036,-0.040415186
3037,-0.06798662
3038,-0.035261877
3039,0.022003628
3040,-0.010761031
3041,-0.028039778
3042,-0.063480034
3043,-0.03525826
3044,0.006247299
3045,-0.008452113
3046,-0.02221849
3047,0.055387825
3048,0.029014993
3049,-0.04234697
3050,-0.0072782086
3051,0.05730338
3052,-0.033937052
3053,0.036432195
3054,-0.004331906
3055,-0.039337043
3056,-0.02336081
3057,0.024225056
3058,-0.0720261
3059,0.017513767
3060,-0.105018675
3061,-0.01935445
3062,-0.019109242
3063,0.0131193595
3064,-0.032112595
3065,-0.09494381
3066,0.033461582
3067,0.0011674119
3068,-0.035812255
3069,-0.0057179327
3070,-0.045925718
3071,-0.048371546
3072,-0.029519334
3073,0.0040083886
3074,-0.035762355
3075,0.0060130106
3076,0.013746178
3077,-0.020485181
3078,0.15243687
3079,-0.0527551
3080,0.06257567
3081,-0.04075624
3082,-0.042046096
3083,-0.046074077
3084,-0.045805052
3085,-0.034102708
3086,-0.06695423
3087,-0.047029473
3088,-0.047709767
3089,-0.010559084
3090,-0.0021741427
3091,-0.005173741
3092,0.0008704268
3093,-0.03153876
3094,-0.03628968
3095,-0.07076581
3096,0.07389086
3097,-0.057054687
3098,-0.018951282
3099,-0.058064017
3100,-0.044910714
3101,-0.056401186
3102,-0.037549756
3103,0.029571565
3104,0.011512345
3105,-0.055621546
3106,-0.03871609
3107,-0.058256898
3108,-0.042356886
3109,-0.021147538
3110,0.023702402
3111,0.10992622
3112,-0.02513179
3113,-0.012579948
3114,-0.03266829
3115,-0.005841131
3116,-0.012324481
3117,0.024983702
3118,0.0396212
3119,-0.04843422
3120,-0.027995374
3121,-0.1045452
3122,-0.02735866
3123,-0.031598747
3124,-0.023104547
3125,0.014173744
3126,-0.0027015524
3127,0.04475671
3128,-0.034219414
3129,-0.020824438
3130,-0.022542782
3131,-0.021398589
3132,-0.037318844
3133,0.04013667
3134,-0.04606851
3135,-0.10421503
3136,-0.021386923
3137,-0.07481051
3138,-0.080906674
3139,-0.012402189
3140,-0.030182064
3141,-0.03314421
3142,-0.045505982
3143,-0.04491435
3144,-0.014692694
3145,-0.07644114
3146,0.00010430309
3147,-0.036189277
3148,0.004318964
3149,-0.03906174
3150,-0.03348878
3151,-0.026189864
3152,-0.043183845
3153,-0.010260809
3154,-0.056113284
3155,0.019052781
3156,-0.025909886
3157,0.0036306651
3158,-0.06625845
3159,-0.0027772333
3160,-0.031163745
3161,0.023845412
3162,0.0020369694
3163,0.02606127
3164,-0.04036764
3165,-0.06818759
3166,-0.03576064
3167,-0.057600297
3168,-0.04973895
3169,-0.03301477
3170,-0.0635139
3171,-0.047198452
3172,0.011688085
3173,-0.012207694
3174,-0.009887946
3175,-0.02530949
3176,0.013365914
3177,-0.04253397
3178,-0.024878312
3179,-0.0073852357
3180,-0.03877698
3181,-0.008510357
3182,-0.011543115
3183,-0.03859949
3184,0.014337543
3185,0.0012901007
3186,-0.032241635
3187,-0.0017174722
3188,-0.107219644
3189,-0.046469003
3190,0.010099164
3191,-0.0075462773
3192,-0.032254297
3193,0.01242694
3194,0.024487376
3195,-0.021108013
3196,0.08298088
3197,0.029738734
3198,-0.045563307
3199,-0.048041638
3200,-0.0130288415
3201,-0.014646141
3202,-0.044005938
3203,-0.020212265
3204,-0.031556007
3205,0.01101319
3206,0.04244351
3207,-0.054802485
3208,0.012132211
3209,-0.049144022
3210,-0.047123365
3211,0.00020844047
3212,-0.031981703
3213,-0.048929013
3214,-0.06595628
3215,-0.046468884
3216,-0.03583408
3217,-0.019604305
3218,0.030587701
3219,-0.008343843
3220,0.02623869
3221,0.058821894
3222,-0.03098937
3223,-0.07092979
3224,-0.0615467
3225,-0.03405704
3226,-0.01820507
3227,-0.05790914
3228,-0.037263654
3229,-0.07278304
3230,-0.035183314
3231,0.033130042
3232,-0.000999159
3233,-0.03568268
3234,-0.035081465
3235,0.014606775
3236,-0.043915343
3237,-0.025546912
3238,0.021902636
3239,0.04715043
3240,-0.0060833367
3241,0.027358375
3242,-0.032169636
3243,0.011633543
3244,-0.04076839
3245,-0.042365972
3246,0.004879543
3247,0.022910008
3248,0.009869973
3249,-0.0035645138
3250,-0.016535807
3251,-0.027724445
3252,-0.019792033
3253,-0.0030630257
3254,0.007370165
3255,-0.027405895
3256,-0.031182978
3257,-0.025471607
3258,-0.0490781
3259,-0.026042817
3260,-0.03677312
3261,0.07632035
3262,-0.040545892
3263,-0.05486573
3264,-0.042614043
3265,-0.042566836
3266,-0.02566514
3267,-0.01636371
3268,0.07429429
3269,-0.026335966
3270,-0.021449188
3271,-0.016730346
3272,0.05180476
3273,-0.0672389
3274,-0.013476018
3275,-0.043424953
3276,0.016945465
3277,-0.041354757
3278,-0.048730608
3279,-0.038716905
3280,-0.043008864
3281,-0.03144675
3282,-0.057842795
3283,-0.03492168
3284,-0.017249966
3285,0.098411836
3286,-0.05982948
3287,-0.017673738
3288,-0.033703316
3289,-0.0028429811
3290,-0.046712458
3291,0.0871313
3292,-0.018715369
3293,-0.0679132
3294,-0.063161455
3295,-0.0015070807
3296,-0.04626809
3297,-0.04042025
3298,-0.06352649
3299,-0.030630896
3300,0.07106533
3301,-0.013417573
3302,-0.046590295
3303,-0.043219905
3304,-0.0077447407
3305,-0.042391017
3306,-0.040319428
3307,-0.02908907
3308,-0.06541086
3309,-0.03900824
3310,-0.0068254834
3311,-0.050633956
3312,-0.015635133
3313,-0.010445532
3314,-0.027061408
3315,-0.030300857
3316,-0.0064326804
3317,-0.05872725
3318,-0.032079317
3319,0.025232997
3320,-0.030856088
3321,-0.008374129
3322,-0.029257607
3323,-0.0373572
3324,0.050383955
3325,-0.011670804
3326,-0.044628303
3327,-0.04180342
3328,-0.030145552
3329,-0.024312451
3330,-0.029041294
3331,-0.025886368
3332,-0.020092748
3333,0.01719358
3334,0.053456325
3335,-0.049825177
3336,0.025756653
3337,-0.043676723
3338,-0.05632861
3339,-0.027250035
3340,-0.04741387
3341,-0.048907056
3342,-0.055245847
3343,-0.0475655
3344,-0.043167107
3345,-0.015524432
3346,0.017359123
3347,0.0014970182
3348,0.021945108
3349,0.0020713874
3350,-0.03166823
3351,-0.0699955
3352,-0.008516553
3353,0.0052183573
3354,-0.026751855
3355,-0.057605986
3356,-0.04976621
3357,-0.05773579
3358,-0.009926452
3359,0.02880573
3360,-0.0007618457
3361,-0.030319838
3362,-0.034015004
3363,0.01948179
3364,-0.03216978
3365,-0.055351693
3366,0.008878031
3367,0.040473673
3368,0.03230647
3369,0.022593549
3370,-0.030634753
3371,-0.006185464
3372,0.00016084335
3373,-0.03290063
3374,-0.038941756
3375,0.0030935241
3376,-7.179988e-07
3377,0.06272974
3378,-0.021410627
3379,-0.026768036
3380,0.028982386
3381,0.015512015
3382,0.003665259
3383,-0.037973642
3384,-0.029011311
3385,-0.019035343
3386,0.016452912
3387,-0.007812245
3388,-0.02817107
3389,0.03299466
3390,-0.048091933
3391,-0.036434434
3392,-0.029089028
3393,-0.04329219
3394,-0.013708145
3395,-0.016058203
3396,0.03910784
3397,-0.048379887
3398,0.0030858272
3399,-0.038927495
3400,0.060065884
3401,-0.045633666
3402,-0.05238898
3403,-0.046604406
3404,0.019675251
3405,-0.041318454
3406,-0.048682585
3407,-0.03877424
3408,-0.024525516
3409,-0.025936203
3410,-0.055816695
3411,-0.034768358
3412,-0.016428897
3413,0.08603825
3414,-0.04430745
3415,0.024364216
3416,-0.0463735
3417,-0.0031668977
3418,-0.033823706
3419,0.03696034
3420,-0.019521449
3421,-0.03728164
3422,0.012130372
3423,-0.0028645783
3424,-0.0469721
3425,-0.039718334
3426,-0.048911136
3427,-0.014737583
3428,0.054470472
3429,-0.032308493
3430,-0.04911929
3431,-0.043792978
3432,-0.042116735
3433,-0.038582742
3434,-0.0014151041
3435,0.046704806
3436,-0.024581794
3437,-0.023427732
3438,-0.024749568
3439,-0.037653524
3440,-0.023189828
3441,-0.015208054
3442,-0.03309828
3443,-0.043424543
3444,-0.014893713
3445,-0.05018925
3446,-0.04315824
3447,0.01108528
3448,-0.006412032
3449,-0.017637081
3450,-0.02782282
3451,0.03201671
3452,0.018597405
3453,0.018868683
3454,-0.028794559
3455,-0.04836582
3456,-0.013447315
3457,-0.009040195
3458,0.008168443
3459,-0.009238117
3460,-0.0035031056
3461,-0.006906126
3462,0.027821206
3463,-0.007987924
3464,0.0027695778
3465,-0.023299906
3466,0.0027608273
3467,-0.0035356334
3468,0.0138855055
3469,-0.0012582825
3470,-0.0035659736
3471,0.0035263055
3472,0.009432227
3473,-0.0060273265
3474,0.00051582593
3475,-0.00243311
3476,0.014849093
3477,0.025186814
3478,0.0018805955
3479,-0.017994914
3480,0.004991424
3481,-0.008815325
3482,0.0008264256
3483,0.015503975
3484,0.0055709435
3485,-0.004457409
3486,0.0073181014
3487,0.0033787556
3488,-0.011189486
3489,-0.009173091
3490,-0.0033917944
3491,0.0071026096
3492,0.0013862916
3493,-0.012830386
3494,0.012586406
3495,0.008918983
3496,0.006712463
3497,-0.009802627
3498,0.00020080374
3499,-0.016815769
3500,-0.0010619375
3501,0.021339867
3502,-0.010112171
3503,-0.0044074827
3504,0.0047174105
3505,-0.009135705
3506,-0.013582582
3507,0.011293653
3508,-0.0040842323
3509,0.0077284
3510,0.0087173935
3511,-0.010030745
3512,-0.016759695
3513,-0.0040032114
3514,0.0065549263
3515,0.0034133743
3516,0.002604937
3517,0.009759252
3518,0.011032692
3519,-0.0022735428
3520,0.0077710194
3521,-0.0029606447
3522,-0.018418614
3523,-0.008155551
3524,0.022595976
3525,-0.006171522
3526,-0.002014472
3527,0.011899968
3528,0.010160337
3529,-0.013479175
3530,-0.004289344
3531,-0.010215208
3532,-0.0064601125
3533,0.011923807
3534,-0.020888984
3535,0.0114685
3536,0.002078227
3537,-0.0066288994
3538,-0.00027893536
3539,0.00131182
3540,0.004759471
3541,0.019619972
3542,-0.0007884388
3543,-0.0034941975
3544,0.009554606
3545,0.004328138
3546,0.00052923965
3547,0.004854206
3548,0.011032186
3549,-0.0029117167
3550,-0.0033241077
3551,0.005820256
3552,-0.0056898063
3553,-0.009652792
3554,-0.012668175
3555,-0.01250642
3556,0.00970885
3557,0.007324081
3558,-0.0034548612
3559,-0.015776034
3560,-0.008500695
3561,-0.013966987
3562,-0.018082507
3563,0.004598158
3564,0.0058890022
3565,0.01388077
3566,-0.0024010793
3567,0.0011310653
3568,8.662717e-05
3569,-0.000103869694
3570,0.0017092477
3571,0.01767277
3572,0.0030195608
3573,-0.0010978519
3574,-0.0011259753
3575,0.00020737575
3576,0.008437099
3577,0.010088007
3578,0.0040656645
3579,0.009886186
3580,-0.0031019992
3581,-0.011371987
3582,0.0007234388
3583,0.0045604785
3584,0.0101430435
3585,0.0035768088
3586,-0.0029228097
3587,-0.00088601164
3588,0.007967588
3589,0.005208355
3590,0.0009522531
3591,0.011036473
3592,-0.0050699594
3593,-0.0062842774
3594,0.0039882646
3595,0.006766448
3596,0.013485283
3597,-0.008946071
3598,-0.012396656
3599,-0.011938619
3600,0.0033899515
3601,0.0019842186
3602,0.017783053
3603,-0.002444659
3604,0.007166125
3605,-0.0074893995
3606,-0.013144093
3607,-0.012933142
3608,0.01564037
3609,0.0019448682
3610,0.008620139
3611,0.0026408858
3612,0.010714316
3613,0.0028133972
3614,0.01979185
3615,-0.0011860182
3616,0.0027464733
3617,-0.006231528
3618,-0.017358664
3619,0.009971026
3620,0.010171908
3621,-0.0059222747
3622,0.0010022242
3623,-0.010172624
3624,0.012241979
3625,-0.0029217936
3626,-0.0056464993
3627,0.014111371
3628,0.0043464005
3629,-0.009877002
3630,0.013500214
3631,-0.008747235
3632,-0.017342474
3633,-0.007763329
3634,-0.0035829772
3635,-0.01448221
3636,0.0036309895
3637,0.0027692546
3638,-0.008362848
3639,0.0014299048
3640,0.014003993
3641,-3.0408895e-05
3642,-0.004851608
3643,0.0074390746
3644,-0.00986586
3645,-0.006603987
3646,0.00083487877
3647,9.340361e-05
3648,-0.003322812
3649,0.010429161
3650,0.00696095
3651,-0.015633749
3652,0.00874773
3653,-0.0023751392
3654,-0.004696965
3655,0.009754621
3656,-0.005617363
3657,-0.006650593
3658,-0.0008287048
3659,0.011240316
3660,0.008437438
3661,-0.011349683
3662,0.004810925
3663,-0.0014176534
3664,0.0057055536
3665,0.008738488
3666,0.013122249
3667,0.008198897
3668,-0.005327404
3669,-0.009108883
3670,-0.014734981
3671,0.01416859
3672,0.005014716
3673,0.0095917005
3674,-0.0041203247
3675,-0.0152104935
3676,-0.0035248264
3677,0.0035605202
3678,0.0189814
3679,0.0030995845
3680,-0.013979572
3681,0.006665187
3682,-0.001438231
3683,-0.018898638
3684,0.006362671
3685,0.003250757
3686,-0.013250735
3687,-0.015028553
3688,0.007736368
3689,-0.010224417
3690,-0.0039704414
3691,0.0035053294
3692,-0.0071083372
3693,-0.017757827
3694,0.00056217785
3695,-0.007145591
3696,-0.0060138926
3697,0.013488655
3698,0.010318024
3699,-0.0027522624
3700,0.011801111
3701,-0.012702912
3702,0.015743997
3703,-0.004570546
3704,-0.007062187
3705,0.0036782008
3706,8.761947e-06
3707,-0.002010339
3708,-0.019127203
3709,0.0065897075
3710,-0.010038868
3711,-0.017142659
3712,-0.007204474
3713,-0.003240063
3714,-0.0015554043
3715,0.017640052
3716,-0.0025516062
3717,-0.01545265
3718,0.0017282774
3719,-0.0035999273
3720,0.008430119
3721,-0.0073715085
3722,-0.014458641
3723,-0.010246536
3724,-0.014446115
3725,-0.017183775
3726,-0.00052006723
3727,-0.015880626
3728,0.004233165
3729,-0.011842593
3730,-0.007018452
3731,0.003154425
3732,0.008025546
3733,0.006760163
3734,0.006601017
3735,0.016795842
3736,-0.0008908626
3737,-0.00040993246
3738,-0.0024272646
3739,0.016355956
3740,0.0042299526
3741,-0.0043905154
3742,0.009067286
3743,-0.013985452
3744,0.01737716
3745,-0.0026875702
3746,2.2622193e-05
3747,0.016513182
3748,0.0012423084
3749,0.01644045
3750,-0.01594871
3751,0.0001347436
3752,-0.00042627638
3753,0.0077147637
3754,-0.006420902
3755,0.0026490933
3756,-0.014665902
3757,-0.004487444
3758,-0.008413804
3759,0.014165555
3760,0.008288464
3761,-0.0034464174
3762,-0.0061855405
3763,-0.0076513295
3764,-0.001474667
3765,-0.0025020766
3766,0.003872468
3767,-0.0041965283
3768,0.006953649
3769,-0.00665323
3770,0.0004741988
3771,0.01252266
3772,-0.006461346
3773,0.0044608484
3774,-0.012665187
3775,-0.01077471
3776,0.01356391
3777,-0.00026962915
3778,-0.0055010663
3779,-0.0009869345
3780,-0.008231597
3781,-0.009901194
3782,0.015814533
3783,-0.016654655
3784,0.008939225
3785,-0.006912756
3786,-0.0094612315
3787,0.0047005485
3788,-0.0025431623
3789,0.0020385378
3790,0.00198109
3791,-0.0010505728
3792,-0.005367583
3793,0.0014006429
3794,0.0055303113
3795,-0.008656117
3796,0.01115297
3797,0.01714728
3798,0.0014964711
3799,0.012712663
3800,0.011177146
3801,-0.0014870906
3802,0.017432833
3803,-0.005192033
3804,-0.019078024
3805,0.008534928
3806,-0.0013003346
3807,0.011798672
3808,-0.015268377
3809,-0.018043432
3810,-0.016513143
3811,0.0041164537
3812,-0.012471071
3813,0.0053491895
3814,0.00741232
3815,0.007262215
3816,0.010578308
3817,-0.005284979
3818,0.008165081
3819,0.007161171
3820,0.013768088
3821,0.0031165753
3822,-0.00867567
3823,-0.010287974
3824,-0.0031981524
3825,-0.009109833
3826,-0.0003762875
3827,-0.016034149
3828,-0.0017953529
3829,-0.00064009504
3830,-0.0045453864
3831,0.01190148
3832,-0.019430727
3833,0.0024057697
3834,0.01540641
3835,0.0066050803
3836,0.016369054
3837,0.01107191
3838,0.010189242
3839,-0.010508549
3840,-0.0021911985
3841,-0.0114591615
3842,0.018505398
3843,0.013738402
3844,-0.014645894
3845,-0.00040791184
3846,0.018035186
3847,0.015638085
3848,0.017934475
3849,0.0077078175
3850,0.010742949
3851,0.00020320165
3852,0.015652426
3853,-0.004542831
3854,-0.013144296
3855,0.014331967
3856,0.006062499
3857,0.008799896
3858,-0.01516564
3859,-0.008921089
3860,0.0059699747
3861,0.0021881699
3862,-0.0017545936
3863,0.0017917481
3864,-0.011826775
3865,0.0030403768
3866,-0.00015463795
3867,0.017206516
3868,-0.016387971
3869,-0.0032147886
3870,0.004297453
3871,0.00068477093
3872,-0.008527477
3873,0.00090537226
3874,-0.00034770838
3875,0.012042054
3876,0.013338817
3877,-0.0038843495
3878,-0.013760799
3879,-0.0140855
3880,0.002035437
3881,-0.0042131497
3882,0.00916942
3883,0.00809573
3884,-0.0012798527
3885,-0.0076563116
3886,-0.0081461305
3887,0.010589247
3888,-0.006117644
3889,-0.010854093
3890,0.0028605137
3891,-0.0032067022
3892,0.0011632782
3893,-0.01769544
3894,0.018308679
3895,-0.005386485
3896,0.006227947
3897,0.0077604675
3898,0.019122833
3899,0.0015444093
3900,-0.014719668
3901,-0.0032965164
3902,0.0019442075
3903,-0.015885718
3904,-0.008230998
3905,-0.0066431994
3906,0.006538332
3907,-0.0040145935
3908,-0.019726798
3909,0.003460184
3910,0.019057075
3911,-0.008240616
3912,0.0037280696
3913,0.011664596
3914,-0.014527206
3915,0.01813373
3916,0.015197435
3917,-0.0079206545
3918,-0.0029259508
3919,-0.009787829
3920,-0.007671244
3921,0.00046839038
3922,-0.01158531
3923,0.017600073
3924,-0.00027896828
3925,-0.004788979
3926,0.0070575248
3927,-0.0023903898
3928,-0.019686745
3929,0.006236421
3930,0.0042950665
3931,0.006456751
3932,0.008859608
3933,0.013764065
3934,-0.00761047
3935,0.0071422057
3936,-0.0020324746
3937,0.011197343
3938,-0.017387273
3939,-0.0027328606
3940,0.01342203
3941,-0.01193005
3942,0.010051732
3943,-0.008758739
3944,0.0043313564
3945,-0.0053777564
3946,0.012820261
3947,-0.016713372
3948,-0.014602858
3949,0.006912139
3950,-0.0055854646
3951,0.015745383
3952,0.006702563
3953,-0.006154424
3954,-0.008997138
3955,0.010007324
3956,0.009542655
3957,-0.017789958
3958,0.004362569
3959,-0.010074584
3960,-0.0080701895
3961,0.016613247
3962,-0.0035168289
3963,-0.014484922
3964,0.008767732
3965,0.010159805
3966,-0.0046346844
3967,0.009215168
3968,-0.007901266
3969,-0.0013448986
3970,-0.015578339
3971,-0.0075265476
3972,0.007944207
3973,0.000727451
3974,-0.0021879785
3975,-0.010718927
3976,0.00557695
3977,-0.00033981798
3978,0.00075234566
3979,0.0079676565
3980,-0.006074882
3981,-0.0028960009
3982,-0.009447784
3983,-0.007964243
3984,-0.011036858
3985,-0.006912062
3986,-0.009127786
3987,-0.00425917
3988,0.012934916
3989,0.006138829
3990,0.0036614453
3991,0.013684062
3992,0.010805789
3993,0.014061525
3994,-0.0035984186
3995,-0.0025356393
3996,0.005323643
3997,-0.0048578302
3998,0.012649577
3999,-0.0068479683
4000,-0.019416178
4001,0.009324067
4002,0.011582138
4003,0.0016997788
4004,0.01717391
4005,0.0047413893
4006,-0.008990056
4007,0.0089750625
4008,-0.006945341
4009,0.0028871004
4010,0.004703131
4011,-0.00034725698
4012,0.016301403
4013,-0.012055384
4014,-0.0022004305
4015,-0.013375208
4016,0.011692184
4017,0.010600592
4018,0.0006108399
4019,0.011494906
4020,0.010994337
4021,-0.011580029
4022,-0.0019552233
4023,0.0012055192
4024,-0.003476325
4025,-0.010580077
4026,-0.0011267219
4027,-0.016894441
4028,-0.004338242
4029,0.015781227
4030,-0.0014922448
4031,0.010954817
4032,0.0050321836
4033,0.0038816503
4034,0.0017099249
4035,0.015193757
4036,-0.0012132567
4037,0.014508935
4038,0.0052581774
4039,0.0046432796
4040,-0.0034240976
4041,0.001077583
4042,0.0017333527
4043,0.00401214
4044,-0.0053771804
4045,0.00086065073
4046,-0.01115736
4047,0.0036743842
4048,0.0026675093
4049,-0.0064363107
4050,0.002187972
4051,-0.00025297914
4052,-0.012309706
4053,0.018900488
4054,-0.005796358
4055,0.005566595
4056,-0.0033193491
4057,-0.0071405745
4058,-0.004449773
4059,-0.011941978
4060,-0.003886417
4061,-0.0042504226
4062,-0.009347922
4063,-0.019832466
4064,0.0077610146
4065,-0.0079894485
4066,0.0049397876
4067,0.0011992678
4068,-0.0022179459
4069,-0.004720123
4070,0.010021878
4071,-0.0033661218
4072,0.008244556
4073,-0.014748975
4074,-0.018010164
4075,0.0049339673
4076,-0.009192134
4077,0.007596487
4078,0.0026093125
4079,-0.019609876
4080,0.0115226405
4081,-0.0027864357
4082,-0.007570268
4083,0.018810915
4084,0.008939683
4085,0.008270935
4086,0.0016617298
4087,0.013977488
4088,0.0013447526
4089,0.011375875
4090,0.0044596577
4091,0.0074895364
4092,-0.018213468
4093,-0.013885291
4094,0.0044893366
4095,0.0017759394
