Sno,Weight
0,-0.034054495
1,-0.03984554
2,0.018176487
3,-0.026557649
4,0.026485948
5,-0.013148004
6,0.03920456
7,-0.02428419
8,-0.027367817
9,-0.01985189
10,-0.0042694733
11,0.02331276
12,-0.041232757
13,-0.02616604
14,0.037747417
15,0.025555898
16,-0.0574373
17,0.025509892
18,-0.028965544
19,-0.03581672
20,0.013535698
21,0.010786332
22,-0.012042983
23,-0.004070091
24,-0.08394456
25,-0.01161794
26,0.02586145
27,-0.028019605
28,-0.057850793
29,-0.013959656
30,0.05181731
31,0.060033727
32,-0.053751547
33,0.012282635
34,-0.07897166
35,-0.06331633
36,-0.12500037
37,-0.024970269
38,-0.030934636
39,0.023807967
40,-0.02109564
41,0.027981589
42,-0.040802974
43,-0.10407971
44,-0.08907078
45,0.019375324
46,-0.007978776
47,0.0063715884
48,-0.010195881
49,-0.07887999
50,-0.027225634
51,0.018704819
52,0.012991131
53,-0.06669508
54,-0.01362518
55,-0.04386103
56,-0.0750019
57,-0.013662424
58,0.037704613
59,-0.001304031
60,0.0028044132
61,-0.113476746
62,0.023332346
63,0.037678543
64,0.0009964741
65,-0.0040095863
66,-0.018932462
67,-0.012135392
68,-0.049348727
69,-0.078490086
70,-0.05658556
71,0.04427144
72,-0.04887557
73,0.060015075
74,0.049350243
75,0.031922538
76,-0.10342318
77,0.029540231
78,0.0349849
79,-0.039793413
80,0.017365621
81,-0.054602765
82,-0.03379044
83,-0.0017549753
84,-0.05501012
85,0.007106466
86,0.0010280141
87,-0.027216658
88,0.0033429458
89,-0.034506463
90,-0.14605549
91,-0.035733677
92,0.021454124
93,-0.0003063731
94,0.01604346
95,-0.039006643
96,-0.054378435
97,0.027526865
98,-0.04412103
99,0.032889087
100,-0.0411507
101,0.06831358
102,-0.006059995
103,0.02050163
104,-0.028466038
105,0.028834939
106,-0.0053737834
107,0.059128497
108,-0.04891466
109,-0.008872207
110,0.039113414
111,0.032759782
112,-0.018088125
113,0.01523449
114,0.029442402
115,-0.038779
116,-0.0056198263
117,-0.0139379585
118,-0.016992781
119,0.03729865
120,-0.13938645
121,0.019564457
122,-0.028980104
123,-0.0553294
124,0.044514794
125,0.07489255
126,-0.0021051234
127,-0.017310694
128,-0.018566811
129,-0.04411505
130,-0.028963586
131,-0.004967047
132,0.16122024
133,0.06871951
134,-0.038780447
135,0.013069841
136,-0.008109497
137,0.0044432054
138,0.017423036
139,0.1436254
140,0.072076574
141,0.0012649568
142,0.001615144
143,0.06776626
144,0.023325354
145,0.033473495
146,0.0035435876
147,-0.044784535
148,0.10707579
149,0.0025592318
150,0.072332144
151,0.019751435
152,-0.0079776775
153,0.012235837
154,-0.041619748
155,0.06779295
156,0.013550758
157,-0.006076621
158,0.025256393
159,-0.005446072
160,-0.059611376
161,0.087179266
162,0.020073807
163,-0.03982574
164,0.019998658
165,0.09001859
166,-0.01713224
167,0.02477807
168,0.024291208
169,-0.08906413
170,0.0076331985
171,-0.048462782
172,0.054757446
173,-0.21178778
174,0.08906958
175,0.0064206277
176,0.0781093
177,0.060665667
178,0.025878275
179,-0.0529129
180,0.05859575
181,-0.010079091
182,0.15075532
183,-0.123004526
184,0.010886819
185,-0.0063366834
186,0.036456406
187,0.21252045
188,0.025970256
189,0.07698148
190,-0.08106243
191,-0.0033165333
192,0.039126635
193,-0.02082538
194,-0.004734073
195,0.011024728
196,-0.0049910024
197,-0.1234971
198,-0.055050105
199,-0.12072197
200,0.0475468
201,0.0008574255
202,0.035456985
203,-0.0025921306
204,0.041877184
205,0.001100484
206,-0.063627
207,0.0709372
208,0.054394398
209,0.07136734
210,0.027009912
211,0.009134207
212,-0.023240713
213,0.020703109
214,0.10891468
215,0.076804034
216,-0.026323162
217,0.03733132
218,-0.03364921
219,-0.0078118485
220,0.03406188
221,-0.068018466
222,0.016055306
223,0.0457252
224,-0.009609874
225,-0.16251627
226,-0.17872077
227,-0.035609435
228,-0.03510531
229,0.08962883
230,0.024287656
231,0.011665433
232,0.10053221
233,0.045257963
234,-0.0049806745
235,0.08777345
236,0.056290206
237,0.08424259
238,0.015112129
239,-0.28057805
240,-0.022149632
241,-0.019101491
242,-0.10072486
243,-0.03548128
244,0.099625826
245,-0.054941047
246,0.057386164
247,-0.15671012
248,0.01725524
249,-0.045556787
250,0.06863475
251,0.065121956
252,-0.11989971
253,-0.0071355347
254,0.032986496
255,0.0006913322
256,-0.0013766977
257,-0.075524375
258,0.029358521
259,-0.023548676
260,0.003941062
261,-0.039530125
262,-0.023850376
263,0.036891427
264,-0.057873007
265,-0.025423227
266,0.018429914
267,0.0076198354
268,0.03373957
269,-0.014434759
270,-0.027747624
271,-0.019740192
272,0.0040413653
273,0.06502054
274,-0.013945109
275,-0.02192576
276,-0.0066358927
277,0.0016568159
278,-0.05025188
279,-0.0035615545
280,-0.022893783
281,-0.012033667
282,-0.00097125425
283,-0.05394113
284,-0.04298075
285,0.0069166883
286,-0.037763216
287,0.030655533
288,-0.02231836
289,0.024268351
290,-0.056921378
291,-0.008832649
292,0.023256542
293,-0.0451174
294,-0.0005866181
295,-0.0096610105
296,-0.041114695
297,0.020269344
298,0.00426897
299,-0.029078739
300,-0.07673041
301,0.0028591733
302,-0.026845293
303,-0.0034741352
304,0.039962187
305,-0.06695005
306,0.0047933585
307,0.034496617
308,0.008222487
309,-0.021661822
310,0.0074482798
311,0.023700234
312,-0.060141947
313,-0.05092581
314,-0.03587641
315,-0.019788342
316,-0.003438513
317,-0.038116317
318,0.0077992654
319,-0.051869415
320,-0.060995698
321,-0.016517805
322,-0.0013027301
323,-0.0034258
324,0.009103545
325,-0.042399783
326,-0.070120424
327,0.033886164
328,0.046712883
329,0.019777881
330,-0.020749263
331,0.02384892
332,-0.047419377
333,-0.01157212
334,-0.0032233605
335,-0.011361224
336,0.00045537128
337,0.039251387
338,-0.049293227
339,0.028221518
340,-0.062832154
341,0.033764817
342,-0.010451654
343,-0.071861304
344,-0.029732378
345,0.039399404
346,-0.047205187
347,-0.045987017
348,-0.056201834
349,-0.023658162
350,-0.0312062
351,-0.048496097
352,-0.009686014
353,0.0073266756
354,0.013191579
355,0.05616138
356,-0.08043128
357,-0.0047693695
358,-0.02059553
359,-0.044191014
360,-0.016323052
361,-0.044666808
362,-0.0072839684
363,-0.033302195
364,-0.039467663
365,-0.026668776
366,-0.03726702
367,0.03179882
368,-0.027736017
369,-0.016177652
370,0.00393284
371,-0.01700976
372,-0.026270878
373,-0.11525929
374,-0.024884922
375,-0.011472627
376,0.038202073
377,-0.04014577
378,0.0054193316
379,-0.03780814
380,0.0009640309
381,-0.018353634
382,-0.0036206103
383,0.014315974
384,-0.00952969
385,-0.011672742
386,-0.030517444
387,-0.036363337
388,-0.027161103
389,-0.06504862
390,0.0068884785
391,-0.0019743731
392,-0.032420926
393,-0.046649046
394,-0.041662112
395,-0.0089653125
396,-0.019737719
397,-0.044315327
398,0.02204951
399,0.03658954
400,-0.010337763
401,-0.035849303
402,-0.061816785
403,-0.01999754
404,-0.027852172
405,0.001256822
406,-0.0942993
407,-0.021960821
408,-0.0811525
409,0.002310661
410,-0.0045340136
411,-0.0023168984
412,-0.043881647
413,-0.018052796
414,-0.0076304437
415,0.017489882
416,-0.063312456
417,-0.101271026
418,-0.01200059
419,-0.060124617
420,-0.03488562
421,-0.07150442
422,-0.022920035
423,-0.12905791
424,-0.052484248
425,-0.0061492207
426,-0.037494976
427,-0.0039491826
428,0.019327968
429,0.028826624
430,-0.030690541
431,-0.004107015
432,-0.02468524
433,-0.062907875
434,-0.03947857
435,-0.08120825
436,-0.033108138
437,0.013195132
438,-0.059979662
439,-0.039564665
440,-0.07403196
441,-0.02435997
442,-0.029779753
443,-0.028002022
444,-0.029506696
445,-0.036775626
446,0.011842314
447,-0.030918233
448,-0.0030514083
449,-0.03750315
450,-0.015808914
451,-0.0102878595
452,-0.10805044
453,-0.039599713
454,-0.0490733
455,0.02301746
456,-0.04068175
457,-0.0651531
458,-0.008037667
459,-0.041806422
460,-0.11624828
461,-0.031675722
462,0.032919146
463,-0.1082217
464,-0.011139907
465,-0.03710551
466,-0.026706623
467,-0.0018005525
468,-0.03287207
469,-0.035558805
470,-0.001570979
471,-0.09190753
472,-0.047107708
473,-0.057486165
474,-0.031371534
475,-0.08401146
476,-0.0010388755
477,0.018373737
478,-0.029960198
479,-0.026712248
480,-0.04618861
481,0.013581811
482,-0.03500742
483,-0.084807746
484,-0.048127472
485,-0.011525149
486,0.011330567
487,-0.024238333
488,0.015606909
489,-0.07511501
490,-0.021615462
491,-0.007149707
492,-0.07299364
493,-0.017490927
494,-0.021313116
495,0.018804893
496,-0.0032134855
497,-0.085439295
498,-0.0008419172
499,0.026192065
500,-0.035988774
501,-0.06881993
502,-0.046011142
503,-0.021009285
504,-0.008380564
505,-0.007657226
506,0.0068137813
507,-0.11720285
508,0.035760947
509,-0.014214917
510,-0.16288634
511,0.004605669
512,-0.025808118
513,-0.08761908
514,-0.041963127
515,-0.039072398
516,-0.040409572
517,-0.0121641
518,0.040420264
519,0.008365099
520,-0.06736483
521,0.03348157
522,0.005544926
523,-0.03954424
524,-0.018264594
525,-0.022444168
526,0.020540083
527,0.02650666
528,-0.11202851
529,0.019333461
530,-0.00070892164
531,0.010957071
532,-0.064186014
533,-0.0011345862
534,-0.003419971
535,-0.042956285
536,-0.0882225
537,0.010731915
538,-0.014388505
539,-0.05403833
540,-0.051992726
541,-0.018650746
542,-0.07815888
543,-0.058921047
544,-0.015100437
545,0.03254303
546,-0.03486716
547,0.022511069
548,-0.07564311
549,0.05377898
550,-0.027140222
551,-0.051227193
552,-0.05959732
553,0.070575766
554,-0.057799015
555,-0.07105167
556,-0.038501665
557,0.04514224
558,0.037128143
559,0.000267466
560,-0.0145616885
561,-0.03875683
562,-0.01871486
563,0.01698396
564,-0.052551612
565,0.012604462
566,-0.058524307
567,-0.048875056
568,-0.059279025
569,-0.011365161
570,-0.0049651857
571,-0.049306374
572,-0.0056746784
573,-0.045767684
574,0.046956547
575,-0.015888924
576,-0.11818821
577,-0.040795274
578,-0.038199283
579,-0.020714754
580,0.020396596
581,-0.06185734
582,-0.14222166
583,0.056572955
584,0.02346819
585,-0.08327589
586,-0.03761481
587,0.0022960645
588,0.016631795
589,-0.009416736
590,0.063124694
591,0.035495516
592,-0.08967203
593,-0.05025581
594,-0.003021755
595,-0.0024357585
596,-0.056396127
597,0.0046753
598,-0.02420609
599,-0.059057686
600,0.0049974434
601,0.009660764
602,-0.09996263
603,-0.03478271
604,-0.07509221
605,0.019159032
606,-0.024771271
607,-0.041793574
608,-0.06599608
609,0.0776885
610,-0.06071346
611,0.012090063
612,-0.10767482
613,-0.07319424
614,0.03628028
615,-0.105427206
616,-0.0107660815
617,-0.012517908
618,0.03275537
619,-0.049740113
620,0.041132767
621,0.049024623
622,-0.08494442
623,0.04852257
624,-0.04959011
625,-0.09860881
626,0.05553481
627,-0.08532703
628,0.037740152
629,-0.107512936
630,0.05006679
631,0.0225757
632,-0.068377756
633,0.011629089
634,-0.022410246
635,0.036545128
636,0.05716327
637,-0.054319985
638,0.005990016
639,-0.0015992166
640,-0.008347761
641,0.018881075
642,-0.007865169
643,0.013620217
644,-0.08758244
645,-0.015828593
646,-0.0001902879
647,-0.03710505
648,0.006609915
649,-0.011621576
650,0.009082128
651,-0.0918802
652,0.019489078
653,-0.0066918395
654,-0.03168254
655,0.0371121
656,-0.001754294
657,0.02402899
658,-0.017574541
659,0.004196399
660,-0.06220357
661,-0.004240328
662,0.012121349
663,-0.02780577
664,-0.01765295
665,-0.04003619
666,-0.0018017314
667,0.02561821
668,0.0029949942
669,-0.012413769
670,-0.07507029
671,0.00483309
672,0.026811063
673,0.0349175
674,0.0055154976
675,-0.01744757
676,0.0066443435
677,0.042318054
678,-0.014383715
679,-0.078725815
680,-0.008203092
681,0.02872982
682,-0.014235591
683,-0.0033343146
684,0.0021317902
685,0.019069776
686,0.06311918
687,0.0060913204
688,0.022807786
689,0.009118026
690,-0.027116992
691,0.026277505
692,-0.038648423
693,0.000101562044
694,-0.023258558
695,-0.034960777
696,-0.015379113
697,-0.017542515
698,-0.05750281
699,-0.037928365
700,0.035523478
701,0.009644216
702,0.029073993
703,-0.0036404324
704,-0.09290858
705,-0.023140766
706,0.017133921
707,-0.031747837
708,0.049121458
709,0.0029943213
710,-0.040418725
711,0.017483775
712,0.011208764
713,-0.020470858
714,-0.0376106
715,0.012617012
716,0.033196572
717,-0.043509312
718,0.023067264
719,0.046297833
720,-0.07133118
721,0.0144313965
722,0.020855892
723,0.021478672
724,-0.038163196
725,0.023253838
726,-0.01833879
727,-0.034108896
728,-0.024437787
729,0.0198637
730,-0.023341218
731,-0.025183927
732,-0.08229499
733,-0.0050688554
734,-0.010484098
735,0.023384398
736,-0.037329163
737,0.005220825
738,-0.0063310843
739,0.006034889
740,-0.012459969
741,-0.066100486
742,0.0671245
743,-0.06775598
744,0.022947202
745,0.0051513067
746,-0.011751138
747,-0.019795835
748,0.068341084
749,0.058831867
750,-0.05229014
751,0.023256298
752,-0.031035367
753,-0.06974866
754,0.038138706
755,-0.0816767
756,0.029945003
757,-0.0054767346
758,0.05697143
759,-0.020310013
760,-0.014795445
761,0.029277332
762,-0.022276172
763,0.047902733
764,0.029600192
765,-0.04786301
766,0.018185355
767,0.0014951066
768,0.010151375
769,0.039120052
770,-0.013445212
771,-0.022927195
772,-0.0163262
773,-0.023880478
774,0.023388749
775,-0.024170248
776,-0.0026188188
777,0.049988233
778,0.029457238
779,0.053598635
780,0.010891814
781,-0.00484064
782,0.023532616
783,0.036723677
784,0.071577206
785,0.025864244
786,0.005763483
787,-0.0071523366
788,0.019442113
789,0.006141716
790,-0.012858651
791,0.010196009
792,-0.011275139
793,0.040316183
794,0.007377807
795,0.02509339
796,0.008936309
797,-0.009772379
798,-0.017519493
799,0.048768252
800,0.04602733
801,0.02208495
802,0.012104617
803,-0.019416938
804,0.046789873
805,-0.014310636
806,-0.007407981
807,-0.022476904
808,-0.004894775
809,0.0052790185
810,-0.0012485681
811,-0.0103201475
812,-0.0856833
813,0.04156503
814,-0.023275374
815,0.010465248
816,-0.01825629
817,0.007349741
818,0.014721901
819,-0.025749294
820,0.031568494
821,0.10314332
822,0.017514642
823,0.020883135
824,-0.021373043
825,0.05068171
826,-0.022724567
827,0.013345591
828,-0.035618685
829,0.020719197
830,-0.0030162283
831,0.049659654
832,-0.03778878
833,-0.0066768904
834,0.014728986
835,0.0318974
836,-0.02397968
837,-0.008276297
838,-0.068760894
839,0.02796635
840,-0.0017149068
841,0.018691607
842,0.013153921
843,-0.019977408
844,0.013692587
845,0.0055785193
846,0.032680552
847,0.04011751
848,0.014864975
849,-0.08975686
850,-0.04455435
851,0.055734824
852,-0.02332808
853,0.03963017
854,0.07985554
855,-0.00839505
856,-0.009543632
857,0.014434091
858,0.005892155
859,-0.00564446
860,-0.030747844
861,0.048655808
862,0.0043724147
863,0.023759488
864,0.0019460481
865,0.041839637
866,-0.0015089416
867,-0.07566366
868,0.01881488
869,-0.009328169
870,-0.025534501
871,-0.023947556
872,-0.036522035
873,0.010498588
874,-0.029503634
875,-0.00012760016
876,-0.038260777
877,-0.0261095
878,-0.013354431
879,0.02800425
880,-0.010387145
881,-0.007987442
882,0.030562732
883,-0.057655815
884,-0.03269233
885,-0.040392037
886,-0.029588299
887,0.023449643
888,-0.008569973
889,0.007815736
890,0.009374853
891,-0.025720697
892,0.039692994
893,-0.023496578
894,-0.0056502065
895,-0.009945178
896,0.021539386
897,-0.04019941
898,-0.015107615
899,0.004409948
900,-0.053523198
901,-0.11150458
902,0.0009300534
903,-0.020374537
904,-0.06242105
905,0.06477285
906,-0.0069669564
907,-0.04797364
908,-0.019679938
909,-0.022327134
910,-0.016557336
911,0.004509952
912,-0.07887701
913,-0.00486593
914,-0.037774604
915,0.00057892
916,-0.047476374
917,0.005354417
918,-0.01950216
919,-0.034281828
920,-0.046717837
921,0.009690757
922,-0.022807077
923,-0.05164801
924,-0.116003715
925,-0.0075055226
926,-0.027654348
927,0.0014164108
928,0.12173155
929,-0.026418732
930,-0.03901558
931,-0.118359186
932,-0.018127782
933,-4.9473703e-05
934,0.08597738
935,0.12873521
936,-0.034031518
937,0.032985453
938,0.037915
939,-0.0032884385
940,0.0035958623
941,0.03363819
942,-0.027022341
943,0.0040610745
944,-0.017712638
945,-0.0541082
946,-0.034018517
947,-0.062250767
948,-0.06382681
949,0.043643247
950,-0.057326198
951,-0.031056494
952,-0.0213918
953,-0.035421696
954,-0.017757108
955,-0.05920047
956,0.025314964
957,-0.11287211
958,-0.009198447
959,-0.0798761
960,-0.026671465
961,0.039453343
962,0.001989559
963,0.0045231483
964,-0.008910011
965,0.0038416253
966,-0.040942922
967,0.026569568
968,-0.020030182
969,-0.011521888
970,-0.030988805
971,-0.032421686
972,-0.05625813
973,-0.043178055
974,0.043283433
975,-0.055038672
976,-0.03697576
977,0.02771172
978,0.040025637
979,-0.0013517232
980,-0.029373802
981,0.006658709
982,-0.06751051
983,-0.050324205
984,-0.024155604
985,-0.039008033
986,-0.074104495
987,-0.07792589
988,-0.035418026
989,0.024628459
990,-0.05899026
991,-0.08486389
992,-0.035912763
993,-0.009132415
994,-0.02701906
995,-0.031987328
996,-0.04674149
997,-0.056407433
998,-0.023962969
999,-0.023196183
1000,0.034641676
1001,-0.0574922
1002,0.09640044
1003,-0.04095006
1004,-0.028909024
1005,-0.013396599
1006,-0.00949155
1007,0.021418042
1008,-0.0444749
1009,0.128439
1010,0.036818627
1011,-0.027169049
1012,0.005719656
1013,-0.008919763
1014,-0.017470608
1015,0.014392241
1016,0.01895645
1017,-0.034891665
1018,-0.04961428
1019,0.015538249
1020,0.025061863
1021,-0.055021007
1022,-0.048940387
1023,-0.0028370342
1024,-0.020064935
1025,-0.0002237488
1026,-0.029224424
1027,0.01736914
1028,-0.06970106
1029,-0.007976635
1030,0.038343474
1031,-0.028072268
1032,0.002423818
1033,-0.0037412765
1034,-0.019629586
1035,-0.06717762
1036,0.0035168158
1037,0.029603658
1038,0.02780449
1039,0.009200294
1040,-0.097621426
1041,0.007143675
1042,0.024451887
1043,0.01230735
1044,-0.06396771
1045,-0.0074563455
1046,0.03121791
1047,-0.0623438
1048,0.03496912
1049,-0.035846703
1050,-0.012370282
1051,0.060000658
1052,0.028379753
1053,-0.0064499495
1054,-0.05630439
1055,-0.04646957
1056,0.0029959315
1057,0.029657986
1058,-0.044933118
1059,-0.002707694
1060,-0.055820026
1061,0.024213208
1062,0.012448792
1063,-0.071097605
1064,0.0076827374
1065,0.036847647
1066,-0.04260916
1067,-0.07538439
1068,-0.053563036
1069,0.049140047
1070,0.009823083
1071,0.0014117886
1072,0.00545464
1073,0.025946336
1074,-0.035038136
1075,-0.028948052
1076,-0.072958045
1077,0.0027283658
1078,-0.029132092
1079,-0.029911965
1080,0.02808609
1081,-0.00456435
1082,-0.0060385084
1083,-0.023835367
1084,-0.0014673544
1085,0.04205304
1086,0.062412594
1087,-0.008008008
1088,-0.06909521
1089,-0.030760637
1090,-0.028400898
1091,0.008227514
1092,0.057482854
1093,0.018751277
1094,-0.0005031748
1095,0.073840275
1096,-0.0021037196
1097,-0.068235055
1098,-0.052846726
1099,-0.009584729
1100,0.026696432
1101,-0.052879542
1102,0.051396925
1103,0.035100825
1104,-0.06110844
1105,-0.08747651
1106,0.004242099
1107,0.005730604
1108,-0.06868534
1109,0.0024425553
1110,-0.0067169215
1111,-0.044219024
1112,-0.020657409
1113,-0.015709944
1114,0.018675497
1115,-0.00056219386
1116,-0.059909012
1117,0.026744131
1118,-0.008781798
1119,0.034943428
1120,-0.022914968
1121,0.046681467
1122,-0.07033228
1123,-0.0011948117
1124,0.025252962
1125,-0.045306593
1126,0.041954443
1127,-0.061700135
1128,0.026213441
1129,0.010652405
1130,-0.0114948135
1131,-0.051387955
1132,0.03209747
1133,0.046650983
1134,-0.053483054
1135,0.051346127
1136,-0.024148583
1137,-0.06509734
1138,0.061773323
1139,-0.11658218
1140,0.027554128
1141,0.035499357
1142,0.03525237
1143,0.009042571
1144,-0.08337713
1145,0.03380827
1146,-0.0056679025
1147,0.036634453
1148,0.04140639
1149,-0.030833526
1150,0.03149919
1151,-0.0055843587
1152,0.011968742
1153,-0.034697145
1154,0.08683753
1155,-0.08151337
1156,0.039495815
1157,-0.0060988083
1158,-0.00534888
1159,-0.029794868
1160,-0.0148959365
1161,0.022330724
1162,-0.042889513
1163,-0.02354377
1164,-0.0017348926
1165,-0.08290074
1166,-0.06506078
1167,0.053490255
1168,0.041100927
1169,-0.056776635
1170,-0.048718985
1171,-0.008159086
1172,0.04156318
1173,0.0016620867
1174,-0.016470259
1175,0.00429901
1176,-0.0629961
1177,0.06113613
1178,-0.2271441
1179,-0.051873248
1180,-0.0081141265
1181,-0.005678337
1182,0.087525494
1183,0.07398274
1184,-0.036487572
1185,0.062105272
1186,0.04829792
1187,-0.05537392
1188,0.061623402
1189,-0.017909806
1190,-0.042130783
1191,-0.102287106
1192,-0.06753325
1193,-0.031169096
1194,0.033049557
1195,-0.0028353517
1196,0.012383547
1197,-0.104899004
1198,-0.04881249
1199,-0.003944762
1200,0.015151454
1201,-0.095001556
1202,0.036625125
1203,-0.061559353
1204,0.013601341
1205,-0.028339384
1206,-0.011048838
1207,0.024027586
1208,-0.067095436
1209,-0.0041397656
1210,-0.006329378
1211,-0.009293006
1212,-0.00399208
1213,-0.0660139
1214,-0.098298565
1215,0.04636333
1216,0.102510184
1217,0.041938197
1218,-0.013126011
1219,0.004774887
1220,-0.09818103
1221,-0.057261255
1222,-0.016863933
1223,-0.023730975
1224,-0.03970715
1225,-0.09987976
1226,0.04653873
1227,-0.04558361
1228,-0.10444415
1229,0.102347486
1230,-0.042864133
1231,-0.078639306
1232,0.06709195
1233,-0.12929599
1234,-0.0004967032
1235,-0.026159318
1236,-0.018512227
1237,-0.05607854
1238,-0.027349181
1239,-0.037476406
1240,-0.0074956417
1241,-0.057161983
1242,-0.085107066
1243,-0.06823514
1244,0.07214858
1245,-0.14775254
1246,0.011641605
1247,-0.038495865
1248,0.02174464
1249,-0.011929158
1250,-0.08770631
1251,-0.1023943
1252,-0.029252395
1253,0.06344263
1254,-0.10255032
1255,0.0779201
1256,-0.01997773
1257,0.013391956
1258,0.043794483
1259,0.09472309
1260,-0.07710146
1261,-0.04903086
1262,0.07472508
1263,-0.011899902
1264,-0.018996933
1265,0.045131072
1266,-0.053605024
1267,-0.003112345
1268,-0.04756589
1269,-0.022301165
1270,-0.04535897
1271,-0.112806365
1272,0.012574058
1273,-0.06998832
1274,-0.15370949
1275,-0.08342014
1276,-0.042276204
1277,0.08598538
1278,-0.017521935
1279,0.008880798
1280,0.037751544
1281,0.022808887
1282,0.15452775
1283,-0.046197392
1284,0.03020315
1285,0.00020720217
1286,0.06800156
1287,-0.0060589723
1288,0.030592203
1289,0.14413436
1290,-0.20412631
1291,0.03192962
1292,-0.07361651
1293,-0.0019003332
1294,0.04330018
1295,0.0066017867
1296,0.017080104
1297,-0.068669155
1298,0.022537582
1299,-0.025267579
1300,0.0071276743
1301,0.0056356047
1302,0.033628706
1303,0.01829498
1304,0.009510142
1305,-0.08159084
1306,0.08715986
1307,-0.011719297
1308,0.03146666
1309,-0.0011877911
1310,0.13101722
1311,0.049600244
1312,0.055492148
1313,0.01082215
1314,-0.029126732
1315,0.0012163771
1316,-0.04457008
1317,-0.041269068
1318,0.001299997
1319,-0.010867332
1320,0.022986026
1321,0.041419286
1322,0.007913157
1323,-0.014672047
1324,-0.07200937
1325,0.040887278
1326,-0.03507889
1327,0.0056908587
1328,-0.0670082
1329,0.014884326
1330,-0.010015885
1331,0.05302228
1332,0.023623448
1333,0.0091386605
1334,0.017353924
1335,0.099153176
1336,-0.02833686
1337,0.08012614
1338,0.048313696
1339,-0.019478938
1340,-0.025625808
1341,0.044947416
1342,0.011278359
1343,0.009987085
1344,0.07008728
1345,0.07928545
1346,-0.0351119
1347,-0.00016325452
1348,0.019062443
1349,-0.03471832
1350,-0.0039489223
1351,0.016684122
1352,0.006759141
1353,-0.06947008
1354,0.12221253
1355,-0.044127647
1356,-0.018619427
1357,0.085721396
1358,0.04302912
1359,0.03789181
1360,0.07572878
1361,-0.07758332
1362,-0.0075267637
1363,-0.17630953
1364,0.01256246
1365,-0.12251128
1366,0.004448367
1367,0.01116361
1368,0.06621735
1369,-0.14118256
1370,0.02712488
1371,0.0060627917
1372,0.10349391
1373,0.05242003
1374,-0.047384515
1375,0.01601577
1376,0.032425527
1377,0.05044161
1378,-0.109866396
1379,0.03663852
1380,0.04425644
1381,0.1335481
1382,-0.028778661
1383,0.09846143
1384,-0.008263956
1385,0.011076695
1386,0.12915377
1387,0.08955078
1388,-0.08256753
1389,-0.032280907
1390,0.115123376
1391,0.048755705
1392,-0.006672655
1393,0.020392854
1394,0.033478875
1395,0.008603805
1396,-0.056880932
1397,-0.012452712
1398,-0.037356663
1399,0.07807937
1400,-0.05254588
1401,-0.005085612
1402,-0.03995574
1403,-0.05533128
1404,0.019546352
1405,0.13160016
1406,0.0022130918
1407,-0.0009167399
1408,0.018065795
1409,-0.06427074
1410,-0.013870942
1411,-0.019376196
1412,-0.081470035
1413,-0.022398995
1414,-0.021885116
1415,-0.04311909
1416,-0.06467545
1417,-0.017286241
1418,0.020083146
1419,-0.06347102
1420,0.029224021
1421,-0.021587715
1422,-0.06939703
1423,-0.007192649
1424,-0.038490802
1425,0.011157993
1426,-0.026871674
1427,-0.027684245
1428,-0.04161829
1429,0.0034841348
1430,0.0156119205
1431,0.008095911
1432,-0.010215346
1433,-0.03271722
1434,-0.052638873
1435,0.030906461
1436,0.002092414
1437,-0.014994648
1438,-0.066809654
1439,0.008044042
1440,-0.0020213702
1441,0.036248907
1442,-0.0022436331
1443,-0.034777425
1444,0.031245861
1445,0.0010642649
1446,-0.0017719204
1447,-0.04424578
1448,-0.027228788
1449,-0.012898732
1450,0.022915192
1451,-0.021117263
1452,0.004042488
1453,-0.011081508
1454,0.012480175
1455,-0.004515567
1456,0.03982801
1457,-0.033567257
1458,0.038588155
1459,-0.0030677905
1460,0.0008310963
1461,0.017329386
1462,-0.018906973
1463,-0.04526634
1464,-0.0069175255
1465,-0.031260405
1466,-0.036753863
1467,-0.06931779
1468,0.030191537
1469,-0.0002526762
1470,-0.053916678
1471,-0.030094348
1472,-0.053374607
1473,0.013759066
1474,0.0076226336
1475,0.03431489
1476,-0.013741481
1477,0.016868263
1478,-0.023245094
1479,-0.0041436283
1480,-0.0014204755
1481,0.012217301
1482,-0.024467593
1483,-0.020196553
1484,-0.02287134
1485,-0.06985696
1486,0.0017171137
1487,-0.007956637
1488,-0.04904365
1489,0.029882705
1490,-0.01475784
1491,0.03698874
1492,-0.04849925
1493,0.0055442695
1494,-0.04085569
1495,-0.054902878
1496,-0.015271562
1497,0.05567904
1498,-0.014308001
1499,-0.043449588
1500,-0.050637685
1501,-0.031012466
1502,-0.023314921
1503,-0.02004833
1504,-0.0021234532
1505,-0.014811994
1506,-0.03629895
1507,-0.028193466
1508,0.015343686
1509,-0.07794208
1510,-0.009813657
1511,-0.0510068
1512,0.014343383
1513,-0.015269815
1514,-0.01720465
1515,-0.054580975
1516,0.001037755
1517,0.010749371
1518,-0.057365052
1519,0.0072318064
1520,-0.021853821
1521,-0.001558536
1522,-0.005731806
1523,-0.061575767
1524,0.010919761
1525,-0.028886467
1526,0.0047268346
1527,-0.007663178
1528,0.020597462
1529,-0.010711561
1530,-0.023367357
1531,-0.0045626536
1532,-0.004388804
1533,-0.04215111
1534,0.016710218
1535,-0.012801415
1536,-0.058373056
1537,-0.09294952
1538,-0.03760265
1539,-0.09232178
1540,-0.045594774
1541,-0.0532751
1542,-0.008152147
1543,0.0021536448
1544,-0.046160344
1545,-0.010252189
1546,-0.10142049
1547,-0.020883784
1548,-0.097922556
1549,-0.02947353
1550,0.029431347
1551,0.01629498
1552,-0.022104966
1553,-0.0022912605
1554,-0.06005689
1555,0.03540117
1556,0.01708782
1557,-0.013066975
1558,-0.07244407
1559,-0.024417395
1560,-0.058034196
1561,-0.053662658
1562,0.00051023776
1563,-0.0322596
1564,-0.068337984
1565,-4.084877e-05
1566,-0.052356016
1567,-0.041805413
1568,0.0046049333
1569,-0.07455216
1570,0.0022181612
1571,0.017465264
1572,-0.024888976
1573,0.043945458
1574,-0.05150959
1575,-0.12536396
1576,-0.06420573
1577,0.024091767
1578,-0.06625453
1579,-0.03480456
1580,0.032800443
1581,-0.012483946
1582,0.05399384
1583,-0.00273937
1584,-0.08105118
1585,-0.058789812
1586,-0.11445771
1587,-0.05706894
1588,-0.030120533
1589,-0.032294307
1590,-0.02686468
1591,-0.04850117
1592,-0.05567503
1593,-0.051401716
1594,0.019470543
1595,0.008229175
1596,-0.0035347953
1597,-0.042087562
1598,-0.0026650904
1599,-0.03705951
1600,-0.040618863
1601,-0.05262853
1602,0.01509907
1603,-0.0027709021
1604,0.010720677
1605,-0.05353192
1606,-0.07040274
1607,0.018880788
1608,0.021241985
1609,-0.068251714
1610,-0.054820668
1611,-0.03383574
1612,-0.0062521202
1613,-0.026138658
1614,0.020527756
1615,-0.0042504175
1616,-0.08348634
1617,0.013675388
1618,-0.03416865
1619,-0.065770864
1620,-0.049748503
1621,-0.09854246
1622,-0.009084241
1623,-0.09094276
1624,-0.008063431
1625,-0.0811754
1626,-0.0908782
1627,-0.07130288
1628,-0.057848494
1629,-0.04422518
1630,-0.121247485
1631,-0.05747306
1632,0.01364596
1633,0.003102618
1634,-0.047452115
1635,-0.028491642
1636,-0.08049121
1637,-0.020421324
1638,0.03419551
1639,-0.04408378
1640,0.0033911772
1641,-0.089705385
1642,-0.00074685353
1643,-0.04582309
1644,0.025956905
1645,0.044777684
1646,-0.043122903
1647,0.0027074055
1648,-0.008142413
1649,-0.02165143
1650,0.025453899
1651,-0.05138373
1652,0.03157818
1653,-0.07811206
1654,0.046891853
1655,-0.037805613
1656,-0.049271684
1657,0.016929192
1658,0.011059013
1659,0.04402239
1660,-0.0008316914
1661,-0.0530065
1662,-0.03717766
1663,-0.0028930702
1664,-0.062012535
1665,-0.027393732
1666,0.019763097
1667,0.0425404
1668,0.02393136
1669,-0.015867654
1670,0.04003443
1671,-0.0030368
1672,-0.017481815
1673,-0.0903555
1674,0.008118119
1675,0.059017282
1676,-0.04010173
1677,0.009757467
1678,0.020379359
1679,0.03921677
1680,0.020878732
1681,-0.026118781
1682,-0.006121498
1683,0.015988588
1684,0.035701048
1685,0.002528053
1686,-0.05921955
1687,0.018948998
1688,-0.003725313
1689,0.0454736
1690,0.03486293
1691,-0.02492942
1692,-0.042151798
1693,0.0016051056
1694,0.013452708
1695,-0.020356564
1696,-0.023976982
1697,-0.031717744
1698,0.0048365425
1699,-0.07417466
1700,0.0024991115
1701,-0.00947639
1702,0.0071032676
1703,0.005463822
1704,-0.032487612
1705,0.042877756
1706,0.045734182
1707,0.01738722
1708,0.037788767
1709,0.013774203
1710,-0.05149675
1711,-0.009561586
1712,-0.040000483
1713,-5.1396753e-05
1714,0.04283386
1715,-0.030677158
1716,0.02521365
1717,0.03974627
1718,0.038571354
1719,0.044778924
1720,-0.02080391
1721,0.0064161383
1722,0.02041029
1723,0.036275327
1724,0.02268472
1725,-0.024760261
1726,0.04551673
1727,0.046805218
1728,0.009698793
1729,-0.045243412
1730,0.00056656916
1731,-0.019452333
1732,-0.0015901268
1733,-0.013616722
1734,0.08597344
1735,0.027120769
1736,-0.08452859
1737,-0.11507927
1738,0.030289855
1739,0.0009727767
1740,-0.0088828
1741,0.032457143
1742,0.047215953
1743,-0.055028252
1744,0.011397973
1745,-0.044894557
1746,0.049713567
1747,0.019957626
1748,-0.09758933
1749,-0.032977615
1750,0.0007607417
1751,-0.034492064
1752,0.027784571
1753,0.0028208666
1754,-0.08951432
1755,-0.027971841
1756,-0.013260631
1757,0.010871661
1758,0.003779171
1759,0.00620999
1760,0.04410633
1761,0.026477877
1762,-0.09565119
1763,-0.044511296
1764,-0.02657107
1765,0.006137576
1766,0.011291171
1767,0.015580335
1768,-0.018206013
1769,-0.081652224
1770,-0.08620909
1771,0.036300436
1772,-0.081879005
1773,-0.025435524
1774,-0.0074647875
1775,0.035563264
1776,0.0008369478
1777,0.060748644
1778,0.04517718
1779,-0.023304887
1780,0.01059527
1781,0.08097361
1782,-0.02605044
1783,0.008319446
1784,-0.028980402
1785,0.028635906
1786,-0.079835914
1787,-0.0754756
1788,0.038016953
1789,0.026943114
1790,-0.056668863
1791,0.0076396633
1792,0.021437444
1793,-0.06031974
1794,0.043093693
1795,-0.06851785
1796,-0.0060747853
1797,-0.030669028
1798,0.014238912
1799,-0.06273717
1800,-0.0014112617
1801,0.02345618
1802,0.04081313
1803,0.014447493
1804,0.049399134
1805,-0.08902339
1806,-0.006463575
1807,0.008231003
1808,-0.01264982
1809,0.04766978
1810,-0.042275593
1811,0.026044052
1812,-0.017424017
1813,0.004620506
1814,-0.07342653
1815,0.022091206
1816,-0.06584603
1817,0.01211167
1818,0.02412466
1819,-0.061146736
1820,-0.08143959
1821,0.011233349
1822,0.016999392
1823,0.06317711
1824,0.025308006
1825,0.062890135
1826,-0.027707122
1827,-0.086078264
1828,0.027308512
1829,-0.05726631
1830,0.030978309
1831,0.018152473
1832,-0.17087081
1833,0.009591183
1834,0.02376953
1835,0.01318091
1836,-0.07187373
1837,0.0143839745
1838,-0.049794376
1839,-0.01766585
1840,0.03186308
1841,-0.1033682
1842,0.03896728
1843,0.033903718
1844,0.016367408
1845,0.04667359
1846,-0.010627461
1847,0.059578944
1848,-0.10568372
1849,-0.021776367
1850,-0.0066788327
1851,-0.027419448
1852,-0.022517227
1853,-0.12014497
1854,-0.013626262
1855,-0.045939855
1856,-0.007530573
1857,0.00850386
1858,0.017606592
1859,-0.019823238
1860,-0.07862419
1861,0.009022403
1862,0.0010812636
1863,0.018080814
1864,-0.058973283
1865,0.017560674
1866,-0.005755574
1867,-0.04945724
1868,-0.083260655
1869,0.002828874
1870,0.011776905
1871,-0.02648439
1872,-0.0025226567
1873,-0.014586234
1874,-0.06867012
1875,0.059632797
1876,-0.029409567
1877,0.04031524
1878,-0.036115706
1879,-0.056059144
1880,-0.022327144
1881,0.07644144
1882,-0.101562984
1883,-0.017766692
1884,0.0005832534
1885,-0.0028062558
1886,-0.033183526
1887,-0.06695632
1888,-0.0007639723
1889,0.039301928
1890,0.021663515
1891,0.016763708
1892,-0.05335981
1893,0.0354401
1894,-0.038997747
1895,-0.013030484
1896,-0.11051355
1897,-0.011213581
1898,-0.00019907486
1899,-0.0028354984
1900,-0.0799881
1901,-0.04994432
1902,-0.0055075763
1903,0.003799491
1904,-0.026447441
1905,0.020344935
1906,0.01244885
1907,-0.0015971578
1908,-0.071987905
1909,-0.035726536
1910,-0.038321298
1911,0.01781216
1912,0.029903103
1913,-0.07324102
1914,0.0016147395
1915,-0.09022001
1916,-0.0018748111
1917,0.030120017
1918,-0.043202586
1919,-0.009027361
1920,-0.016524458
1921,-0.033004563
1922,0.030798437
1923,0.0071637263
1924,0.009718239
1925,-0.053903326
1926,-0.0036591147
1927,-0.016409542
1928,-0.018878296
1929,-0.004061939
1930,0.05295151
1931,0.018396975
1932,0.013377347
1933,-0.030205933
1934,0.0012490486
1935,0.013382239
1936,0.009546291
1937,-0.014154649
1938,-0.019088663
1939,-0.024650255
1940,0.006644731
1941,0.006944683
1942,-0.020211719
1943,0.0073950803
1944,-0.052538294
1945,0.072127745
1946,0.006647356
1947,-0.023361772
1948,-0.068480566
1949,-0.0099185845
1950,0.030654358
1951,0.033055592
1952,-0.018563798
1953,0.02157028
1954,0.0076358425
1955,-0.050052144
1956,0.009896884
1957,0.04962372
1958,0.031296127
1959,0.008229295
1960,-0.056180757
1961,0.027019965
1962,0.075121656
1963,-0.017005203
1964,0.050773494
1965,0.042709045
1966,0.021006528
1967,-0.003985575
1968,0.029556362
1969,-0.016397696
1970,0.03340739
1971,0.007967106
1972,-0.0018479245
1973,0.044351526
1974,0.026565228
1975,0.0031686148
1976,-0.057293784
1977,-0.0011411016
1978,-0.025261078
1979,0.022892574
1980,0.04861356
1981,0.022516744
1982,0.0144660175
1983,-0.06722151
1984,0.019813403
1985,0.047219582
1986,-0.06117121
1987,0.0060808053
1988,-0.03764511
1989,-0.027234046
1990,-0.011977673
1991,0.00117485
1992,0.08195236
1993,-0.0009794343
1994,-0.015348538
1995,-0.038869523
1996,-0.019225582
1997,-0.007896993
1998,0.015247384
1999,-0.043397337
2000,0.0042847563
2001,0.025171056
2002,0.061640155
2003,0.026156284
2004,-0.010686885
2005,0.02105421
2006,0.008578335
2007,-0.0661901
2008,-0.015838651
2009,0.066804
2010,-0.07587175
2011,-0.05725824
2012,0.013110548
2013,-0.012769869
2014,0.0034915362
2015,-0.034169476
2016,0.022350883
2017,0.008171699
2018,-0.14428486
2019,-0.0117528
2020,-0.0387326
2021,0.010310342
2022,0.0024308313
2023,0.015912535
2024,0.05119388
2025,-0.044878434
2026,0.038151953
2027,0.005328876
2028,-0.04905821
2029,0.02184148
2030,0.016062813
2031,0.019973774
2032,-0.0059321187
2033,0.05878908
2034,0.0050449935
2035,-0.03527076
2036,0.0066517466
2037,0.017585093
2038,-0.0056231255
2039,-0.025760228
2040,-0.0048355707
2041,-0.0069479607
2042,-0.13223705
2043,-0.03483942
2044,0.013320932
2045,0.0083817635
2046,-0.014899871
2047,-0.012041511
2048,-0.110959984
2049,0.022766845
2050,0.12483012
2051,0.08364956
2052,-0.004292041
2053,-0.11719563
2054,0.02289534
2055,0.001894046
2056,-0.0048825555
2057,0.02288013
2058,-0.08796262
2059,-0.05840187
2060,-0.10531033
2061,0.008795863
2062,-0.16069452
2063,0.037929904
2064,-0.01614184
2065,-0.19941713
2066,0.012294683
2067,-0.031496406
2068,0.021575322
2069,0.012377239
2070,0.008166895
2071,0.02328061
2072,0.021537475
2073,-0.08543625
2074,0.007515393
2075,-0.015174376
2076,-0.008665353
2077,-0.010349733
2078,0.06991939
2079,-0.03164819
2080,0.013800929
2081,-0.033133104
2082,-0.048863668
2083,-0.00264177
2084,-0.02284741
2085,-0.014549741
2086,-0.07209352
2087,-0.08759516
2088,-0.064231
2089,-0.010067651
2090,-0.11753297
2091,-0.10842191
2092,-0.1681329
2093,-0.15050791
2094,-0.0018976171
2095,-0.018575234
2096,-0.11542115
2097,0.0030442895
2098,-0.05582393
2099,0.07389351
2100,-0.0074914517
2101,-0.059201803
2102,-0.080570824
2103,0.022557199
2104,0.014528781
2105,0.0036912307
2106,-0.028294226
2107,-0.005789154
2108,-0.06731065
2109,-0.024920985
2110,-0.20172893
2111,-0.061570507
2112,0.07338465
2113,-0.07233817
2114,0.023432229
2115,-0.00021402526
2116,-0.014305311
2117,-0.042116504
2118,0.05519544
2119,0.028589644
2120,-0.005831053
2121,-0.02603858
2122,0.01267813
2123,-0.046300255
2124,0.022673894
2125,0.07275923
2126,0.020182673
2127,-0.0013227753
2128,0.06150867
2129,-0.20192075
2130,-0.002059247
2131,-0.086021185
2132,-0.09463341
2133,-0.14169717
2134,-0.16209202
2135,-0.05829408
2136,0.05243889
2137,-0.09240421
2138,-0.06489555
2139,-0.11955233
2140,0.04004898
2141,-0.15109217
2142,-0.008064006
2143,-0.0350315
2144,0.011712584
2145,-0.0031829707
2146,-0.10108978
2147,0.10529408
2148,-0.007300544
2149,0.03915063
2150,-0.07486074
2151,0.06678758
2152,-0.07665431
2153,-0.036046326
2154,0.030218793
2155,0.080321416
2156,-0.03229777
2157,-0.000863868
2158,0.084248476
2159,-0.02552992
2160,0.0067748264
2161,-0.022940619
2162,0.0012326103
2163,0.02986178
2164,0.011169942
2165,0.05707068
2166,-0.0049355
2167,-0.11100659
2168,-0.055774286
2169,-0.025181705
2170,-0.07236285
2171,-0.012786575
2172,0.01652073
2173,0.088217385
2174,0.00393496
2175,-0.010733061
2176,-0.018622236
2177,-0.01566826
2178,0.00016132116
2179,-0.031342305
2180,-0.00018497842
2181,-0.03303893
2182,0.044804007
2183,-0.0072309677
2184,-0.06905063
2185,-0.048200164
2186,-0.068778805
2187,0.00051550526
2188,-0.06935532
2189,-0.0898015
2190,0.0035162242
2191,0.013566552
2192,-0.044707168
2193,-0.05438492
2194,-0.048881695
2195,0.023267398
2196,-0.019710705
2197,-0.0071257814
2198,-0.076873206
2199,-0.029624268
2200,-0.09955328
2201,-0.029049167
2202,-0.005985877
2203,-0.067809
2204,-0.046129994
2205,-0.010702737
2206,-0.015317048
2207,0.009753828
2208,-0.03219328
2209,-0.051717795
2210,-0.006697065
2211,0.04969831
2212,-0.054092113
2213,0.008443546
2214,-0.032165173
2215,-0.09858332
2216,-0.07463034
2217,0.045134995
2218,-0.05348168
2219,-0.025401153
2220,-0.027228253
2221,0.044423718
2222,0.009445828
2223,0.008685948
2224,-0.04951499
2225,-0.04207134
2226,-0.010182525
2227,-0.018076885
2228,-0.019364342
2229,0.0043205144
2230,-0.045832902
2231,-0.0066393395
2232,-0.037361227
2233,-0.018333064
2234,0.013914602
2235,0.00093169895
2236,-0.08169033
2237,-0.0318488
2238,0.053265348
2239,0.003282933
2240,-0.02079648
2241,-0.030173035
2242,-0.01992993
2243,-0.027028335
2244,0.03970583
2245,-0.012240279
2246,-0.00053935923
2247,0.04288786
2248,-0.021613028
2249,-0.058686156
2250,0.0154790785
2251,-0.005871304
2252,-0.005843543
2253,-0.04134239
2254,0.043203164
2255,0.019355157
2256,-0.049368724
2257,-0.04782691
2258,-0.053448524
2259,-0.047762558
2260,-0.021170458
2261,-0.05037269
2262,-0.014362353
2263,-0.045402147
2264,-0.0855699
2265,-0.075707175
2266,-0.004131972
2267,-0.019547427
2268,-0.007690851
2269,-0.0022385921
2270,0.0012438984
2271,-0.01650428
2272,0.0002237817
2273,0.04725292
2274,-0.051539496
2275,0.0041852295
2276,-0.037676483
2277,-0.010506321
2278,0.02087538
2279,-0.012994613
2280,-0.019483991
2281,-0.10921993
2282,-0.022718878
2283,0.034809664
2284,0.011410614
2285,0.009399917
2286,0.0064393585
2287,0.06024908
2288,-0.0066049453
2289,-0.12333296
2290,0.047938902
2291,-0.03117823
2292,0.01661255
2293,0.017553639
2294,0.02317491
2295,0.022603242
2296,-0.016514016
2297,0.02681427
2298,0.0018008101
2299,0.005673953
2300,0.017038219
2301,0.024837464
2302,7.832518e-05
2303,-0.008149152
2304,0.006577062
2305,-0.05798518
2306,0.017957246
2307,-0.0036200245
2308,-0.018201746
2309,0.0070879315
2310,0.00985013
2311,-0.024493251
2312,-0.057830133
2313,-0.05779898
2314,-0.120735
2315,-0.053113326
2316,-0.06546066
2317,0.009804461
2318,-0.011378538
2319,0.05289936
2320,-0.07329642
2321,-0.06777556
2322,-0.0046645408
2323,-0.0010874221
2324,-0.007759177
2325,-0.015555837
2326,-0.017219167
2327,-0.08528812
2328,-0.03397121
2329,-0.023433533
2330,-0.034288693
2331,-0.0013462784
2332,-0.03142622
2333,-0.00516041
2334,0.025945632
2335,0.0012165298
2336,-0.12748888
2337,-0.08510591
2338,-0.031820245
2339,-0.06736584
2340,-0.00020914283
2341,0.009868929
2342,-0.086463064
2343,-0.17176685
2344,-0.030709073
2345,0.025524037
2346,-0.07181442
2347,0.03400271
2348,0.030260772
2349,-0.024816334
2350,-0.005144663
2351,-0.0024247882
2352,-0.03587473
2353,0.022879584
2354,-0.08615118
2355,0.027186837
2356,-0.076653406
2357,-0.04748514
2358,-0.07836015
2359,0.06905732
2360,-0.037708983
2361,-0.024129603
2362,0.046158075
2363,-0.007054945
2364,0.034410734
2365,0.009908673
2366,-0.05543664
2367,0.016051639
2368,0.005434875
2369,-0.07480548
2370,-0.0071733645
2371,0.037717637
2372,-0.061838698
2373,-0.013649433
2374,-0.015238315
2375,0.036534764
2376,0.014383093
2377,-0.023977052
2378,-0.01289502
2379,-0.04804326
2380,-0.01815299
2381,-0.024751388
2382,0.019426713
2383,-0.062466275
2384,-0.006940207
2385,0.0027645258
2386,0.018498702
2387,-0.088309966
2388,-0.02097238
2389,-0.10223821
2390,-0.061224334
2391,-0.03439913
2392,-0.0065031867
2393,-0.15686831
2394,-0.030154664
2395,-0.0028308698
2396,-0.002160692
2397,-0.056635033
2398,-0.11857498
2399,0.0031842042
2400,-0.031718783
2401,-0.0011154151
2402,0.0026492449
2403,-0.018114781
2404,-0.03403022
2405,0.0031100812
2406,-0.060502145
2407,0.030862272
2408,0.04403813
2409,-0.07300921
2410,-0.07410123
2411,-0.023615733
2412,-0.04102248
2413,0.01433818
2414,0.020429838
2415,0.015963167
2416,-0.018726328
2417,-0.22208221
2418,-0.010649607
2419,-0.016324556
2420,-0.011895864
2421,-0.04016129
2422,-0.01869745
2423,-0.030843597
2424,-0.0060326606
2425,-0.030579569
2426,0.016299304
2427,-0.017437816
2428,-0.0004890527
2429,0.0024583116
2430,-0.065933235
2431,-0.0036021932
2432,-0.047531415
2433,-0.02494251
2434,-0.010013815
2435,-0.061522894
2436,0.11034768
2437,-0.04716965
2438,-0.0046982975
2439,0.0016411134
2440,-0.021985907
2441,0.010862635
2442,-0.1095436
2443,0.06087556
2444,-0.10337974
2445,-0.02799805
2446,0.015088554
2447,0.09949916
2448,-0.04271143
2449,-0.13117522
2450,-0.069481745
2451,-0.05785233
2452,-0.00870074
2453,0.00010105024
2454,-0.1006256
2455,-0.0025025287
2456,-0.046560597
2457,-0.0358001
2458,0.04712874
2459,0.009661695
2460,-0.024714429
2461,0.007347801
2462,0.03402463
2463,0.014840749
2464,-0.015440654
2465,-0.122775495
2466,0.045225766
2467,0.0016731273
2468,-0.034823436
2469,0.008397728
2470,-0.03430252
2471,-0.079063915
2472,-0.06906004
2473,0.016277585
2474,-0.027201386
2475,-0.0079314625
2476,0.15392762
2477,0.006555586
2478,0.008740203
2479,-0.005250971
2480,-0.08291005
2481,-0.029950324
2482,-0.022003548
2483,-0.06923738
2484,0.06850031
2485,-0.02410313
2486,-0.02745178
2487,-0.01816991
2488,-0.04676456
2489,-0.0010021067
2490,-0.028587792
2491,0.08840655
2492,-0.014957258
2493,0.059500698
2494,-0.11686259
2495,-0.07222832
2496,0.08690598
2497,-0.047117274
2498,0.14634934
2499,0.030223211
2500,-0.06265266
2501,-0.003063864
2502,-0.09176527
2503,-0.018750751
2504,0.0133636575
2505,-0.053560935
2506,0.07428927
2507,-0.03308358
2508,-0.009044141
2509,-0.1403158
2510,0.007854102
2511,0.015913522
2512,0.016367223
2513,0.11025053
2514,0.048300706
2515,-0.11884396
2516,0.0271109
2517,-0.1185608
2518,-0.03386308
2519,0.017319536
2520,-0.121599
2521,-0.09213982
2522,-0.07106356
2523,0.040007904
2524,0.06477495
2525,0.06228033
2526,0.05326815
2527,-0.0777709
2528,0.026415242
2529,-0.047753405
2530,0.13749845
2531,-0.057244774
2532,-0.041867502
2533,0.07362487
2534,-0.012883931
2535,0.062388066
2536,0.032398347
2537,-0.11758187
2538,0.0066776173
2539,0.103578344
2540,0.06295319
2541,0.00968928
2542,0.027915616
2543,-0.016929101
2544,0.00122745
2545,-0.1269384
2546,-0.017244587
2547,0.08685755
2548,0.029533772
2549,-0.099047616
2550,0.00013415726
2551,0.07604355
2552,-0.008205274
2553,0.052668188
2554,0.17440398
2555,0.10976646
2556,-0.0398663
2557,0.054166958
2558,-0.1140958
2559,0.0014018441
2560,0.009546556
2561,-0.050117083
2562,0.13923821
2563,-0.05858644
2564,-0.08458469
2565,-0.08561964
2566,0.0005876493
2567,0.03571178
2568,-0.034159355
2569,-0.029760068
2570,0.09829336
2571,-0.17757958
2572,0.05636444
2573,-0.052283823
2574,-0.082747884
2575,0.0022911744
2576,-0.016434532
2577,0.061693955
2578,-0.041353773
2579,-0.006872944
2580,-0.031577308
2581,-0.0003082188
2582,0.0139395865
2583,-0.020561589
2584,-0.019235533
2585,-0.00968656
2586,-0.012556217
2587,-0.05000971
2588,-0.032050323
2589,-0.008520085
2590,-0.05917534
2591,-0.17380841
2592,-0.013901505
2593,0.014337598
2594,-0.024616694
2595,0.004489834
2596,0.048994213
2597,0.040567975
2598,-0.019834392
2599,-0.0026152572
2600,-0.006598234
2601,-0.010077372
2602,-0.04262478
2603,-0.035924327
2604,-0.06348055
2605,-0.07261799
2606,0.08499626
2607,0.00075775635
2608,0.053281046
2609,-0.073269755
2610,0.0018398504
2611,0.03865368
2612,-0.007896142
2613,-0.034604356
2614,0.01506308
2615,-0.025068192
2616,-0.031471502
2617,-0.037060544
2618,-0.07120719
2619,-0.075700074
2620,-0.04918345
2621,-0.05242385
2622,-0.04775862
2623,-0.04379326
2624,-0.066390075
2625,-0.011937749
2626,0.023053797
2627,0.0015724673
2628,0.021758707
2629,-0.059042566
2630,-0.15294662
2631,0.009503463
2632,0.017902441
2633,0.06104071
2634,-0.035496082
2635,-0.0017915851
2636,-0.008329414
2637,-0.011920509
2638,-0.019847931
2639,0.02341473
2640,-0.040368672
2641,0.034797218
2642,-0.09533032
2643,0.074007206
2644,0.011463699
2645,0.057706796
2646,-0.075078756
2647,-0.00024919142
2648,0.0107233105
2649,0.10472896
2650,-0.04093057
2651,-0.0549606
2652,-0.074556425
2653,-0.061689157
2654,-0.0038805495
2655,-0.050629538
2656,0.012861186
2657,0.079498805
2658,0.023739366
2659,0.0200525
2660,-0.011311929
2661,-0.06513656
2662,-0.0013946684
2663,-0.07053483
2664,-0.07739535
2665,-0.0025289098
2666,-0.06289871
2667,-0.049311534
2668,0.07175527
2669,0.03148874
2670,-0.05574335
2671,-0.029673122
2672,-0.06107675
2673,-0.072328895
2674,-0.043756746
2675,-0.032330092
2676,0.0028845964
2677,-0.11148611
2678,0.06836864
2679,-0.034442324
2680,-0.027256198
2681,-0.03716358
2682,0.020111417
2683,0.03490235
2684,-0.016750699
2685,-0.037404247
2686,0.014382473
2687,-0.005780731
2688,0.07769688
2689,-0.015254692
2690,-0.010374259
2691,-0.009818622
2692,0.010758622
2693,0.008157231
2694,-0.007917324
2695,-0.057176515
2696,-0.05432829
2697,0.037597835
2698,0.039762903
2699,0.04330347
2700,-0.0287166
2701,-0.05070295
2702,-0.100931
2703,0.028534817
2704,0.06473333
2705,-0.0011995968
2706,0.001847854
2707,-0.033755433
2708,0.038910292
2709,-0.009987314
2710,-0.028033013
2711,-0.020166028
2712,-0.019179482
2713,0.09709556
2714,-0.03327599
2715,-0.037190523
2716,0.041764196
2717,-0.00020450803
2718,0.0135152675
2719,-0.0077714594
2720,0.05651192
2721,-0.040050842
2722,0.064990215
2723,-0.04006836
2724,0.023614319
2725,-0.044966783
2726,0.027802989
2727,0.078920804
2728,0.069820404
2729,-0.003604334
2730,0.088246435
2731,0.061473556
2732,-0.13823979
2733,-0.11439437
2734,-0.07733661
2735,-0.016237814
2736,-0.04172408
2737,0.027626667
2738,0.011319181
2739,-0.045546073
2740,0.0023260906
2741,0.11539528
2742,0.015787376
2743,-0.0034916024
2744,-0.022027304
2745,-0.05148002
2746,-0.037509512
2747,0.054916188
2748,-0.04989988
2749,0.01546242
2750,-0.10536716
2751,0.09661929
2752,0.023568278
2753,0.1177627
2754,0.039068114
2755,-0.007615446
2756,-0.048894994
2757,0.016170753
2758,0.04275895
2759,0.001199518
2760,-0.021109406
2761,-0.015473965
2762,0.0031352302
2763,-0.03539933
2764,-0.091507755
2765,0.033152793
2766,-0.046389032
2767,-0.04484078
2768,-0.005745847
2769,0.062206835
2770,-0.042391907
2771,0.05234082
2772,0.17007606
2773,0.019882023
2774,0.02650184
2775,0.091056325
2776,-0.008470545
2777,0.016058035
2778,0.015618064
2779,0.09573124
2780,-0.0032845873
2781,-0.08236383
2782,-0.017427476
2783,0.007831
2784,0.020629013
2785,0.0032801914
2786,0.04340259
2787,-0.059406165
2788,-0.03067328
2789,-0.00930705
2790,-0.09172188
2791,0.00948085
2792,-0.08063083
2793,0.020979926
2794,0.03633523
2795,-0.013911434
2796,-0.10432564
2797,-0.07237707
2798,-0.013657845
2799,-0.025597602
2800,0.0008015229
2801,0.018111948
2802,0.0009462432
2803,0.0519261
2804,-0.06723241
2805,-0.0021732375
2806,-0.042318106
2807,-0.09355248
2808,0.022394104
2809,-0.054139856
2810,-0.11320967
2811,-0.09419372
2812,-0.003201036
2813,0.007753678
2814,-0.0880226
2815,0.006387354
2816,-0.04747336
2817,-0.02159297
2818,-0.0074492716
2819,0.0165021
2820,-0.06373741
2821,-0.13207561
2822,-0.030546984
2823,-0.03453574
2824,-0.024319232
2825,-0.045860194
2826,-0.010475474
2827,-0.109873
2828,-0.0038826396
2829,-0.033228524
2830,-0.118229754
2831,0.02466555
2832,0.0043817097
2833,0.00028336988
2834,-0.021921996
2835,-0.040351924
2836,0.020882312
2837,-0.009053496
2838,0.014185798
2839,-0.003285699
2840,-0.017945565
2841,-0.05203087
2842,-0.10804917
2843,0.0055178315
2844,-0.013313307
2845,0.010129677
2846,-0.0035320034
2847,-0.03354404
2848,-0.028139008
2849,-0.033282902
2850,0.028523367
2851,-0.07672902
2852,0.008278601
2853,0.027292099
2854,-0.07104524
2855,-0.047998305
2856,-0.010238527
2857,-0.07763097
2858,-0.037435636
2859,-0.018616546
2860,0.012420507
2861,-0.07532413
2862,-0.0048633637
2863,-0.017355552
2864,0.004591411
2865,-0.020335326
2866,-0.01725205
2867,-0.07054678
2868,-0.019523052
2869,-0.053781122
2870,-0.060570236
2871,-0.08347102
2872,-0.03341595
2873,-0.032071456
2874,-0.05612418
2875,-0.042693805
2876,0.051492248
2877,-0.040682435
2878,-0.09330559
2879,-0.08048517
2880,0.004413454
2881,-0.04745178
2882,0.003606769
2883,-0.0049740705
2884,-0.060715422
2885,-0.020167975
2886,-0.03143221
2887,-0.069876514
2888,-0.01653786
2889,-0.0026935483
2890,-0.040069174
2891,-0.050829794
2892,-0.048289083
2893,-0.03294142
2894,-0.06452921
2895,0.024165284
2896,-0.046103843
2897,-0.0052724266
2898,0.082729556
2899,0.01730001
2900,-0.03110585
2901,0.0022196774
2902,-0.10068104
2903,-0.078955956
2904,0.002688005
2905,-0.0051259734
2906,-0.017367328
2907,-0.15099426
2908,-0.033484656
2909,-0.09578065
2910,-0.1028167
2911,-0.003794177
2912,0.0015888731
2913,-0.0068527292
2914,-0.011224218
2915,-0.03761416
2916,0.0025700293
2917,-0.044189863
2918,-0.06184946
2919,-0.003877836
2920,-0.006963014
2921,-0.020703
2922,-0.033788934
2923,-0.031187553
2924,-0.045282513
2925,-0.013864347
2926,-0.030140718
2927,-0.062298417
2928,-0.02584123
2929,-0.03657144
2930,-0.04644993
2931,-0.083346695
2932,-0.012225684
2933,-0.027593622
2934,-0.031148203
2935,-0.035531998
2936,0.0011224818
2937,-0.07198717
2938,0.018208051
2939,-0.03169571
2940,-0.01983835
2941,-0.026290826
2942,-0.022490816
2943,-0.0037642953
2944,0.053394455
2945,-0.10199127
2946,0.037391957
2947,-0.05347422
2948,0.15776587
2949,0.018450674
2950,-0.06369
2951,-0.013120288
2952,-0.008673353
2953,0.02910994
2954,0.008762198
2955,0.11111379
2956,-0.008882248
2957,-0.0072810785
2958,-0.054186318
2959,0.06237599
2960,0.008312069
2961,0.021366324
2962,-0.10560094
2963,0.03663196
2964,0.0766322
2965,-0.009354513
2966,-0.036195215
2967,0.02897613
2968,-0.031236595
2969,-0.006691002
2970,0.051463984
2971,-0.058844484
2972,-0.055457994
2973,-0.012278094
2974,0.14831498
2975,0.05882591
2976,0.0019745552
2977,0.02769114
2978,-0.14370142
2979,-0.15451376
2980,0.0021228823
2981,0.049910378
2982,0.007508634
2983,0.008096287
2984,-0.055213626
2985,-0.24638201
2986,0.0021502494
2987,0.00860891
2988,-0.1532062
2989,-0.13745447
2990,0.016349792
2991,-0.02282805
2992,0.010070624
2993,-0.011008597
2994,-0.009063061
2995,0.02274237
2996,0.053804986
2997,-0.048085675
2998,0.12642406
2999,0.04670313
3000,-0.058176834
3001,0.035942882
3002,0.031892322
3003,0.06991871
3004,0.032433562
3005,-0.04336172
3006,-0.13057612
3007,-0.071768686
3008,0.15882103
3009,0.0037948343
3010,-0.003150301
3011,-0.0056954585
3012,-0.038701892
3013,-0.015223825
3014,-0.04756181
3015,-0.13233909
3016,-0.013654506
3017,-0.059933484
3018,0.05429993
3019,-0.09196814
3020,-0.02778771
3021,0.043479986
3022,-0.15533365
3023,0.035393734
3024,0.099527076
3025,-0.18909793
3026,-0.0036224409
3027,-0.004820759
3028,-0.03483226
3029,-0.009351824
3030,0.05737287
3031,-0.026750907
3032,0.039432045
3033,0.009668065
3034,-0.09785717
3035,-0.11950789
3036,0.16509569
3037,-0.00545937
3038,-0.047314923
3039,-0.061204597
3040,-0.08392712
3041,-0.15733223
3042,-0.17411762
3043,0.011473912
3044,-0.08452936
3045,0.12278041
3046,-0.06303528
3047,0.15682139
3048,0.010865146
3049,-0.024994103
3050,0.028542362
3051,0.12127965
3052,-0.04363378
3053,0.017250879
3054,0.10026125
3055,-0.14860296
3056,-0.054194514
3057,0.010491002
3058,-0.2662587
3059,-0.04449564
3060,0.0060423273
3061,-0.07580181
3062,0.023512742
3063,-0.01673582
3064,0.03627808
3065,-0.14262003
3066,-0.013315983
3067,-0.033855766
3068,-0.13951579
3069,0.09052057
3070,-0.027808413
3071,-0.004507366
3072,-0.028742649
3073,-0.03893203
3074,0.015629936
3075,-0.0115575325
3076,-0.10803162
3077,-0.1486777
3078,0.021470424
3079,-0.007924938
3080,-0.017005121
3081,0.02323965
3082,-0.072994046
3083,-0.13057451
3084,-0.1000188
3085,-0.043009676
3086,-0.053620327
3087,0.018431436
3088,-0.071844615
3089,-0.047806613
3090,-0.0050194208
3091,0.0023030445
3092,-0.040642526
3093,-0.00033091186
3094,-0.11010015
3095,-0.0694911
3096,-0.04130379
3097,-0.11343473
3098,-0.014626873
3099,-0.013306936
3100,-0.04508487
3101,-0.013870958
3102,-0.054784436
3103,-0.033758868
3104,-0.029703187
3105,-0.12111463
3106,-0.06037982
3107,-0.048882037
3108,-0.031869456
3109,-0.0074742683
3110,-0.072818235
3111,-0.13754071
3112,-0.07821738
3113,-0.03006229
3114,-0.106662355
3115,-0.043765772
3116,-0.052777585
3117,-0.04021365
3118,-0.057313025
3119,0.002513215
3120,-0.101922326
3121,-0.035218883
3122,-0.091114886
3123,-0.08138879
3124,-0.07935491
3125,-0.06763059
3126,-0.124424644
3127,-0.033997603
3128,0.00813777
3129,-0.02194431
3130,-0.026470127
3131,-0.11487713
3132,-0.043392785
3133,-0.05376623
3134,-0.049517516
3135,-0.10422772
3136,-0.058081415
3137,-0.08436056
3138,0.025183855
3139,-0.022507383
3140,-0.00079283665
3141,-0.015132914
3142,-0.033941094
3143,0.038458318
3144,-0.035099745
3145,-0.032806102
3146,-0.051824417
3147,-0.118671365
3148,-0.052010804
3149,0.0046611438
3150,-0.0033562721
3151,-0.06979415
3152,-0.039783414
3153,-0.010605241
3154,-0.041097432
3155,-0.047363903
3156,-0.111031026
3157,-0.054898098
3158,-0.111319445
3159,-0.13925107
3160,-0.06375577
3161,-0.0656939
3162,-0.039373446
3163,-0.09624727
3164,-0.049406946
3165,-0.017070506
3166,-0.15621305
3167,-0.014727928
3168,-0.039009582
3169,0.029000388
3170,-0.08968171
3171,-0.09796795
3172,-0.025263306
3173,-0.058970828
3174,-0.04721433
3175,-0.048107386
3176,-0.05766746
3177,-0.09135356
3178,-0.008386144
3179,-0.0901653
3180,-0.034576662
3181,-0.037909407
3182,-0.060230922
3183,-0.026555061
3184,-0.011872639
3185,-0.10914437
3186,-0.008430313
3187,-0.059370723
3188,-0.05491693
3189,-0.01935216
3190,-0.056985043
3191,-0.013495122
3192,-0.023064436
3193,-0.052191786
3194,0.0062345364
3195,-0.039068706
3196,0.018707072
3197,-0.053251423
3198,-0.14971803
3199,0.005476104
3200,-0.016722297
3201,-0.04012447
3202,-0.0039730626
3203,-0.027440773
3204,0.02483912
3205,0.042469293
3206,-0.017735802
3207,0.056306075
3208,-0.04643597
3209,-0.014284186
3210,0.037614465
3211,0.027278308
3212,0.059723906
3213,-0.01888462
3214,-0.08785526
3215,-0.0038434851
3216,0.0027271607
3217,0.049661364
3218,-0.039214235
3219,-0.100443736
3220,0.02343617
3221,-0.01410479
3222,0.017213024
3223,0.015939852
3224,-0.0150124375
3225,0.0011951956
3226,-0.08733759
3227,-0.0496569
3228,-0.032153912
3229,-0.00703455
3230,-0.018120622
3231,0.008824641
3232,-0.017950993
3233,-0.005984271
3234,0.038070623
3235,-0.029609885
3236,0.056888226
3237,0.0029769356
3238,-0.006669278
3239,0.09118112
3240,0.01791987
3241,0.02184101
3242,-0.015139053
3243,0.23636098
3244,0.046845324
3245,-0.08616014
3246,-0.03980739
3247,0.004876927
3248,0.05969781
3249,-0.021415433
3250,0.040484715
3251,0.035260372
3252,0.012936133
3253,-0.027109714
3254,0.068504214
3255,-0.011780422
3256,-0.014889929
3257,-0.009612319
3258,-0.014519774
3259,0.095259584
3260,0.0128411325
3261,-0.059555292
3262,-0.10420188
3263,0.07541776
3264,0.012030692
3265,-0.0063446905
3266,0.18709505
3267,-0.020806907
3268,-0.035887375
3269,-0.031407606
3270,0.018121634
3271,0.04429467
3272,0.055819646
3273,0.14706062
3274,0.04322118
3275,0.1081243
3276,-0.045847006
3277,-0.03229302
3278,-0.010971513
3279,-0.03520617
3280,-0.017673578
3281,0.24209878
3282,-0.0010344952
3283,0.059270635
3284,0.18265314
3285,0.055763714
3286,0.11513373
3287,0.20077088
3288,-0.043076463
3289,0.04435595
3290,-0.065810814
3291,0.113374755
3292,0.03220817
3293,-0.12568784
3294,0.020089742
3295,-0.071278945
3296,0.02298885
3297,0.016610807
3298,0.08405616
3299,0.045228645
3300,-0.07582938
3301,0.013773854
3302,-0.07017527
3303,-0.0024383166
3304,0.01573969
3305,0.0010078877
3306,-0.028562406
3307,0.040250957
3308,-0.058861762
3309,-0.018525679
3310,0.005437713
3311,0.009477423
3312,-0.014248764
3313,-0.017790075
3314,0.024657534
3315,0.10858768
3316,-0.0047062756
3317,-0.042871233
3318,0.0006988963
3319,-0.10089055
3320,0.15112156
3321,-0.024756609
3322,0.008419925
3323,-0.031581625
3324,-0.0046429643
3325,0.031153709
3326,0.0660777
3327,-0.004715309
3328,0.04496931
3329,0.043091375
3330,0.055523973
3331,0.022033248
3332,-0.02661464
3333,0.013617314
3334,0.03723831
3335,-0.0058478015
3336,0.07866188
3337,0.18923493
3338,-0.042319056
3339,-0.0323057
3340,-0.080733605
3341,-0.015589794
3342,-0.030551478
3343,-0.011893083
3344,-5.328242e-05
3345,-0.06023017
3346,0.023656834
3347,0.010802526
3348,-0.015551668
3349,0.005123849
3350,-0.036986053
3351,-0.0026435885
3352,0.015808767
3353,0.038855493
3354,0.13782407
3355,0.05767748
3356,0.0049091103
3357,-0.0075894473
3358,-0.10261434
3359,0.027722312
3360,0.18697043
3361,-0.048355635
3362,-0.067092784
3363,0.03778626
3364,-0.0034719426
3365,0.03138722
3366,0.10524663
3367,0.025650542
3368,-0.021257084
3369,0.031967133
3370,0.112930514
3371,-0.047693923
3372,-0.038168807
3373,0.00036591495
3374,0.043680772
3375,-0.013058609
3376,-0.12432017
3377,0.013729153
3378,-0.025165636
3379,-0.023909722
3380,-0.0022131002
3381,0.1719888
3382,0.0046722563
3383,0.07545247
3384,0.008952214
3385,0.06870406
3386,-0.109625176
3387,0.08362325
3388,-0.026248418
3389,0.022782983
3390,-0.015366814
3391,0.00036891713
3392,-0.04990373
3393,0.03792722
3394,-0.025008436
3395,-0.019430326
3396,-0.0016636078
3397,-0.002624822
3398,0.10352293
3399,0.03233956
3400,0.0069996845
3401,-0.0033119405
3402,-0.03221366
3403,-0.012181183
3404,0.07023511
3405,0.04045837
3406,0.0032698407
3407,0.054210562
3408,0.0173757
3409,-0.037087638
3410,0.0014697172
3411,-0.06795602
3412,-0.010057814
3413,-0.091221504
3414,-0.008848715
3415,0.010681155
3416,0.063365184
3417,-0.016444609
3418,-0.009444412
3419,0.015155183
3420,-0.07906259
3421,-0.011137473
3422,-0.029066013
3423,0.019374298
3424,0.013692211
3425,0.03301283
3426,-0.033488486
3427,-0.014727439
3428,0.027234798
3429,-0.06428922
3430,-0.014234371
3431,-0.03243048
3432,0.011374613
3433,0.003068403
3434,0.11251971
3435,-0.06873628
3436,0.05992466
3437,0.044327635
3438,-0.07869216
3439,0.01026172
3440,0.018618751
3441,0.11393076
3442,0.03424581
3443,-0.034507103
3444,0.012959951
3445,0.06436224
3446,0.048396606
3447,0.028652953
3448,-0.027056834
3449,-0.010172146
3450,-0.019638093
3451,0.042456165
3452,0.008155792
3453,-0.055269502
3454,-2.4963476e-05
3455,-0.0070170737
3456,-0.070638865
3457,-0.02414417
3458,-0.010785502
3459,0.0038439096
3460,0.022673683
3461,-0.05142496
3462,-0.00016799201
3463,-0.01690981
3464,-0.009718062
3465,-0.05168113
3466,-0.03845272
3467,0.009192017
3468,-0.066246435
3469,0.06506374
3470,-0.027239079
3471,-0.0010922538
3472,-0.035357732
3473,-0.1277372
3474,0.022974234
3475,0.044806164
3476,0.044524558
3477,0.015564851
3478,0.032960404
3479,0.0030930827
3480,-0.007174607
3481,-0.028060086
3482,0.0079504
3483,0.035410356
3484,-0.008519796
3485,0.01275391
3486,0.09367772
3487,0.11450206
3488,-0.02593991
3489,-0.07754752
3490,0.033298448
3491,-0.07282067
3492,-0.01970032
3493,0.02601928
3494,-0.024186432
3495,-0.16018768
3496,-0.04151985
3497,0.00244175
3498,-0.0059074378
3499,0.022569153
3500,0.05331769
3501,-0.010023967
3502,-0.008430241
3503,-0.0035098174
3504,-0.06573282
3505,0.024896558
3506,-0.009329251
3507,0.049842894
3508,-0.015513807
3509,-0.026915753
3510,0.036092486
3511,-0.006847634
3512,0.0044400375
3513,0.013462063
3514,-0.039848708
3515,0.04309775
3516,0.027693452
3517,0.025496673
3518,-0.05434075
3519,-0.11732177
3520,0.06757008
3521,0.0161861
3522,0.0068188114
3523,-0.0015290016
3524,-0.05033035
3525,0.026294487
3526,0.04220137
3527,-0.023250123
3528,0.006053832
3529,-0.0129455235
3530,0.010991438
3531,-0.04094266
3532,-0.044860207
3533,-0.058221392
3534,-0.00084854953
3535,-0.030706583
3536,0.03218449
3537,-0.0039548827
3538,0.0930778
3539,-0.13203615
3540,-0.08473037
3541,-0.09814212
3542,-0.019906025
3543,0.030267179
3544,-0.054415174
3545,-0.06177747
3546,-0.099197514
3547,-0.07718842
3548,0.07914008
3549,-0.03699489
3550,-0.043394793
3551,0.021508006
3552,0.020001566
3553,0.009816659
3554,-0.20184329
3555,0.0056305425
3556,-0.025969166
3557,0.0144719975
3558,-0.018044127
3559,0.068848394
3560,0.060514655
3561,-0.008537985
3562,0.028911212
3563,0.06044325
3564,-0.066951625
3565,0.0078119584
3566,0.08425989
3567,-0.018750675
3568,0.00821996
3569,-0.014291672
3570,-0.013157192
3571,0.039622404
3572,-0.022062676
3573,0.05903777
3574,-0.013583201
3575,-0.06765112
3576,0.0027268545
3577,-0.055327237
3578,-0.119580105
3579,-0.058865175
3580,-0.010674195
3581,0.059686285
3582,-0.03200976
3583,-0.0067936736
3584,0.04506924
3585,-0.029423444
3586,-0.21849959
3587,-0.0016105457
3588,0.084353164
3589,-0.061729472
3590,-0.02103445
3591,-0.017240416
3592,-0.018229246
3593,-0.15127766
3594,0.08978019
3595,0.0027068346
3596,0.09610237
3597,0.07424693
3598,-0.012428569
3599,-0.03241186
3600,0.0042532138
3601,0.049579
3602,0.01163489
3603,-0.054205764
3604,0.09346127
3605,-0.0087114405
3606,0.07025719
3607,0.05484836
3608,0.047596462
3609,0.07472709
3610,-0.0066756345
3611,0.0118024135
3612,0.016674813
3613,-0.0071825185
3614,0.10189776
3615,-0.25876155
3616,-0.1368061
3617,0.04987822
3618,0.14943121
3619,-0.066004395
3620,0.034702677
3621,0.06635607
3622,-0.017171089
3623,0.057855964
3624,0.066259325
3625,-0.23207767
3626,0.06546412
3627,-0.042168472
3628,0.022605
3629,0.039544653
3630,0.0013636147
3631,0.002597742
3632,0.119416654
3633,0.10011448
3634,0.09683718
3635,0.021509515
3636,0.07861821
3637,0.05345709
3638,-0.041087423
3639,0.11626231
3640,0.037576143
3641,0.0038972385
3642,0.055942427
3643,0.11824112
3644,0.00710818
3645,0.06828886
3646,-0.017864129
3647,-0.015983537
3648,0.11962483
3649,0.01874612
3650,-0.08165737
3651,-0.002987135
3652,-0.031587936
3653,-0.20239185
3654,-0.0806597
3655,-0.13534635
3656,0.050876338
3657,0.06900097
3658,0.05576019
3659,0.039041553
3660,-0.010304061
3661,0.14116417
3662,-0.07586242
3663,0.029090432
3664,0.10735149
3665,-0.08022245
3666,0.03468679
3667,0.16630144
3668,0.0025336111
3669,0.1127811
3670,0.096129015
3671,-0.09028362
3672,-0.0127380425
3673,0.07166981
3674,-0.04591765
3675,0.0014681987
3676,0.13652313
3677,-0.11070995
3678,0.053022053
3679,0.05089291
3680,-0.010622535
3681,-0.16395055
3682,-0.07766348
3683,0.04048288
3684,-0.012624495
3685,0.26698297
3686,0.015085272
3687,0.10387835
3688,-0.002018549
3689,-2.677081e-05
3690,-0.11846081
3691,0.068369076
3692,-0.048551068
3693,0.034739055
3694,0.0956679
3695,-0.24796115
3696,0.0015467394
3697,-0.079194576
3698,-0.22809063
3699,-0.13245131
3700,0.05028336
3701,-0.019846402
3702,0.0067876168
3703,-0.11200448
3704,-0.15125433
3705,-0.0034308427
3706,0.014055496
3707,0.024517134
3708,-0.121744074
3709,0.098662816
3710,0.0667584
3711,0.00034892577
3712,0.05826799
3713,-0.038427986
3714,0.054950435
3715,-0.018965216
3716,0.25754106
3717,-0.012289787
3718,0.0020681918
3719,0.0704887
3720,0.0052865436
3721,0.06665554
3722,0.0074065975
3723,0.15323845
3724,0.09429113
3725,-0.016236922
3726,0.11918135
3727,0.04532283
3728,-0.061186045
3729,0.108220115
3730,-0.023246912
3731,0.022082943
3732,-0.08236389
3733,-0.0012544731
3734,-0.03186595
3735,-0.051737655
3736,-0.017587813
3737,0.040834736
3738,0.072936915
3739,-0.02298227
3740,-0.07786277
3741,-0.0051183198
3742,0.26225725
3743,0.084673285
3744,0.06265579
3745,0.024414234
3746,-0.029069768
3747,0.034343757
3748,-0.062757574
3749,0.04649179
3750,0.04319478
3751,0.011512321
3752,-0.04026501
3753,-0.089478336
3754,0.044692438
3755,-0.08365818
3756,0.13505737
3757,0.03585731
3758,0.07095671
3759,-0.0072042807
3760,0.07580184
3761,-0.029676467
3762,0.0015380221
3763,0.11698406
3764,0.0841465
3765,-0.0010480318
3766,-0.023559745
3767,0.022443568
3768,-0.029967554
3769,0.022437077
3770,0.012940403
3771,0.060509585
3772,-0.005761589
3773,-0.015545909
3774,0.032680444
3775,-0.061156943
3776,0.26112562
3777,0.0707057
3778,0.04625444
3779,-0.0012824535
3780,0.03525812
3781,-0.10109476
3782,-0.053495534
3783,-0.057210293
3784,0.033516914
3785,0.063572
3786,0.18019445
3787,0.054795057
3788,0.0016522479
3789,0.04355081
3790,-0.0059074163
3791,0.049260493
3792,0.13439165
3793,0.10298694
3794,0.007298098
3795,0.026088584
3796,0.024717316
3797,0.09106084
3798,-0.14215124
3799,-0.019642424
3800,0.006137861
3801,-0.009448265
3802,-0.0860523
3803,-0.013059272
3804,0.1959997
3805,0.07691633
3806,0.1422883
3807,-0.045342952
3808,-0.006558914
3809,-0.041672554
3810,0.17946215
3811,0.09167622
3812,-0.044113547
3813,0.15419044
3814,0.06889549
3815,0.23230071
3816,0.0025285974
3817,-0.012018554
3818,0.06626527
3819,0.26218477
3820,0.14650175
3821,0.06833018
3822,0.1754215
3823,-0.056659546
3824,-0.02339798
3825,0.034852542
3826,-0.06336218
3827,0.0944043
3828,0.034400847
3829,-0.07458455
3830,0.09309665
3831,0.08323272
3832,0.005615992
3833,0.04269535
3834,0.116950765
3835,0.12626237
3836,-0.037911136
3837,0.23398727
3838,0.03337494
3839,0.0018220458
3840,-0.0043751663
3841,0.01671349
3842,0.030911447
3843,-0.02737268
3844,-0.0119796
3845,-0.017794348
3846,0.0193828
3847,-0.010771065
3848,-0.031516276
3849,-0.020140193
3850,0.06593132
3851,-0.007062735
3852,-0.016916098
3853,-0.022601062
3854,-0.018546948
3855,-0.03264068
3856,-0.0068403413
3857,-0.014510158
3858,-0.001696144
3859,0.010307962
3860,-0.027626015
3861,-0.00708948
3862,-0.038673684
3863,0.0014431195
3864,-0.042007178
3865,0.008117815
3866,0.0026784255
3867,-0.008089656
3868,-0.05214044
3869,-0.0034422472
3870,-0.013810438
3871,0.017221242
3872,-0.034160063
3873,-0.022745622
3874,0.0012082583
3875,-0.020855622
3876,0.00067285565
3877,-0.04093704
3878,-0.040544353
3879,-0.024348533
3880,-0.0662438
3881,0.027162716
3882,0.0013968197
3883,-0.011491233
3884,-0.02775371
3885,0.0055369744
3886,-0.02441109
3887,-0.010449361
3888,-0.033413094
3889,-0.018154599
3890,0.014231466
3891,-0.06166057
3892,-0.028916331
3893,-0.036994714
3894,-0.001586239
3895,0.022957325
3896,-0.026408318
3897,-0.024464134
3898,-0.01409769
3899,-0.007496641
3900,-0.055909287
3901,-0.05529003
3902,0.009659154
3903,-0.030535279
3904,-0.041079074
3905,0.003629764
3906,-0.00030894578
3907,0.0010670199
3908,0.018480245
3909,0.011781814
3910,-0.0043332786
3911,0.017493052
3912,-0.041078974
3913,0.0032788394
3914,-0.018251233
3915,-0.035404515
3916,-0.019604057
3917,-0.013722006
3918,0.025600871
3919,-0.044363264
3920,-0.022160612
3921,-0.052207977
3922,-0.05292228
3923,-0.0011187462
3924,-0.053312115
3925,-0.00549326
3926,-0.025101228
3927,-0.030952381
3928,-0.03725948
3929,0.033036444
3930,-0.014163612
3931,-0.034151275
3932,-0.031212302
3933,-0.011467179
3934,-0.066946164
3935,-0.047603086
3936,0.020000985
3937,0.024772296
3938,-0.025844762
3939,-0.063138776
3940,-0.04479501
3941,-0.043607306
3942,0.0034512552
3943,-0.015017056
3944,-0.045784082
3945,-0.064193726
3946,-0.018323287
3947,-0.01690825
3948,-0.011632258
3949,-0.021254307
3950,-0.037378784
3951,0.034906846
3952,0.0011010856
3953,-0.04132997
3954,0.021225663
3955,-0.053765446
3956,-0.03768309
3957,-0.02427254
3958,-0.01099064
3959,-0.020974837
3960,-0.01667854
3961,-0.026959896
3962,-0.048865907
3963,-0.016059956
3964,0.042112466
3965,-0.023055615
3966,-0.040556576
3967,-0.012348096
3968,-0.036161248
3969,0.033056244
3970,0.02555566
3971,0.052324876
3972,0.017707728
3973,0.012761699
3974,0.030845104
3975,-0.03402357
3976,0.03392164
3977,-0.04663011
3978,0.03544105
3979,0.04348879
3980,0.041723274
3981,0.031099359
3982,0.027939688
3983,0.0071049873
3984,0.009552994
3985,0.029512776
3986,0.019458268
3987,-0.026092567
3988,-0.01079206
3989,-0.0098506715
3990,0.03734076
3991,0.0067791105
3992,0.046963546
3993,0.0037087793
3994,0.0061593647
3995,0.034725085
3996,0.059017275
3997,-0.00084741693
3998,-0.0347291
3999,-0.013468341
4000,-0.020533428
4001,-0.0017156815
4002,0.039711215
4003,-0.012405982
4004,-0.0014317974
4005,-0.12260219
4006,-0.0018828199
4007,-0.003987551
4008,0.06955606
4009,0.020606061
4010,0.0015034112
4011,0.01733557
4012,0.021644637
4013,0.03248639
4014,-0.060630683
4015,-0.0069026863
4016,0.047588285
4017,0.055052266
4018,0.04125507
4019,-0.0007178597
4020,0.00304093
4021,0.01898923
4022,0.034673437
4023,0.041233715
4024,0.039323907
4025,0.031399805
4026,-0.022987397
4027,-0.009991243
4028,-0.01570626
4029,0.07184744
4030,0.009031557
4031,0.04223778
4032,-0.0291559
4033,-0.025124948
4034,0.016687917
4035,-0.026779458
4036,-0.084339574
4037,-0.018125635
4038,0.036009267
4039,0.04417206
4040,-0.07531801
4041,-0.008755045
4042,-0.026684012
4043,0.043699548
4044,-0.031420216
4045,-0.031166185
4046,0.04268033
4047,-0.00721299
4048,-0.021409154
4049,0.06144646
4050,0.026442088
4051,0.044178803
4052,0.0824791
4053,0.039408922
4054,0.024337212
4055,0.065046184
4056,0.012129728
4057,0.04799121
4058,0.04688226
4059,0.06627352
4060,-0.0445178
4061,-0.0025360563
4062,0.0015368727
4063,0.059928853
4064,0.03317774
4065,0.057937052
4066,0.037687145
4067,0.013362014
4068,0.062250197
4069,-0.0019065697
4070,0.004261274
4071,-0.039240282
4072,-0.0033311667
4073,0.028060855
4074,-0.044071466
4075,-0.015640346
4076,-0.07707497
4077,-0.046705812
4078,-0.013941934
4079,0.043384958
4080,0.01012199
4081,-0.013284559
4082,0.028401349
4083,0.052124728
4084,-0.045535505
4085,0.05142195
4086,-0.04848478
4087,-0.015561675
4088,0.0321831
4089,-0.040860303
4090,-0.072320834
4091,-0.0659249
4092,0.044953864
4093,-0.026113937
4094,0.00091227406
4095,-0.000756873
4096,-0.111483924
4097,-0.019917093
4098,0.015005807
4099,-0.011779679
4100,0.054110214
4101,-0.012798824
4102,0.03973762
4103,-0.0026309213
4104,-0.012838201
4105,-0.08753424
4106,-0.076365694
4107,0.06274138
4108,-0.06879137
4109,-0.024451243
4110,0.018310351
4111,0.0027296059
4112,0.0005979376
4113,-0.0736648
4114,-0.0069259256
4115,-0.05404364
4116,-0.01687075
4117,-0.011082375
4118,-0.1363872
4119,0.025371127
4120,-0.028694501
4121,-0.04974974
4122,-0.06234917
4123,-0.017661424
4124,-0.064785786
4125,-0.0007060541
4126,0.017451882
4127,0.04898337
4128,-0.1020472
4129,-0.18637857
4130,0.038364347
4131,-0.075843
4132,-0.02823799
4133,-0.09121568
4134,-0.076837935
4135,-0.15127243
4136,-0.0031431627
4137,0.054058272
4138,-0.13515648
4139,0.026172116
4140,0.06912138
4141,0.031332344
4142,-0.09319425
4143,0.00977023
4144,-0.054952703
4145,-0.043392815
4146,0.00023600733
4147,-0.10135459
4148,0.006793442
4149,0.009028334
4150,-0.0038212307
4151,-0.015856085
4152,-0.029696357
4153,0.011407663
4154,0.013811064
4155,0.0044569336
4156,-0.061334282
4157,-0.017678538
4158,0.018312264
4159,0.054773524
4160,0.020428486
4161,-0.14449525
4162,-0.008252973
4163,-0.01570633
4164,0.005656613
4165,0.01131487
4166,0.017733555
4167,0.045901857
4168,-0.09408368
4169,-0.06073888
4170,0.033809677
4171,0.04178538
4172,-0.05345142
4173,-0.06945934
4174,0.021945259
4175,-0.102623425
4176,-0.0039398014
4177,0.04685484
4178,-0.006647726
4179,-0.076409
4180,-0.006378145
4181,-0.0819407
4182,-0.0048294924
4183,0.00074650557
4184,-0.12313144
4185,-0.09115614
4186,-0.10207113
4187,0.012471542
4188,0.02144024
4189,0.020358298
4190,0.026584933
4191,-0.005687934
4192,0.035106517
4193,0.02626434
4194,0.016100485
4195,-0.010322999
4196,-0.036844082
4197,-0.009833494
4198,-0.06678368
4199,0.01978186
4200,-0.0014549086
4201,-0.12538974
4202,-0.15967551
4203,0.036789153
4204,-0.11179889
4205,-0.10686433
4206,0.02354333
4207,0.054536097
4208,0.0045109405
4209,-0.261157
4210,0.027902314
4211,0.008479152
4212,-0.090711534
4213,-0.0017540932
4214,-0.114600986
4215,0.024468323
4216,0.0414389
4217,-0.037795346
4218,0.021965245
4219,-0.10079102
4220,0.04780411
4221,0.019549603
4222,-0.016207315
4223,-0.01115235
4224,-0.016237209
4225,-0.039162926
4226,0.10538484
4227,-0.055089477
4228,-0.011104383
4229,-0.07554546
4230,-0.029232964
4231,-0.042873073
4232,-0.0475611
4233,0.011092497
4234,-0.053275127
4235,-0.025220158
4236,-0.018412052
4237,-0.07480482
4238,-0.09034421
4239,0.047867596
4240,-0.023639027
4241,-0.069126725
4242,-0.026604198
4243,-0.009286947
4244,0.01267299
4245,0.010977831
4246,-0.005063288
4247,-0.02777586
4248,-0.06871391
4249,0.022279594
4250,-0.23663326
4251,-0.059904538
4252,-0.041060373
4253,0.00543942
4254,0.06699325
4255,0.039621238
4256,-0.07748389
4257,0.038790416
4258,0.012117635
4259,-0.024974223
4260,0.0057624043
4261,-0.010164311
4262,-0.123270124
4263,-0.106979765
4264,-0.09969805
4265,-0.047406193
4266,0.03726855
4267,-0.02956085
4268,-0.004566342
4269,-0.16590665
4270,-0.089007445
4271,0.007740167
4272,-0.0049996865
4273,-0.032137394
4274,-0.007215476
4275,-0.036540434
4276,-0.04650716
4277,-0.07723047
4278,-0.059197884
4279,0.0045099705
4280,-0.068927325
4281,-0.021956814
4282,-0.037491735
4283,0.03649205
4284,-0.05189005
4285,-0.032782607
4286,-0.14578788
4287,-0.0021412454
4288,0.04545611
4289,0.017819468
4290,0.007317577
4291,-0.030006794
4292,-0.050514404
4293,-0.07266154
4294,-0.007818263
4295,-0.054775927
4296,-0.03998233
4297,-0.049275946
4298,0.04056239
4299,-0.064146526
4300,-0.08718306
4301,0.08520024
4302,-0.053335994
4303,-0.056873627
4304,0.0572625
4305,-0.06456004
4306,0.004478897
4307,-0.025450807
4308,-0.046919867
4309,-0.062480547
4310,-0.07233081
4311,-0.063937575
4312,-0.048780598
4313,-0.05784763
4314,-0.08971343
4315,-0.09149884
4316,0.059252135
4317,-0.16689439
4318,-0.0032828846
4319,-0.050301872
4320,0.015224832
4321,-0.035156682
4322,-0.042250697
4323,-0.09387888
4324,-0.0732455
4325,0.060467035
4326,-0.1022367
4327,0.06213466
4328,-0.038661998
4329,0.03153097
4330,0.0069122175
4331,0.039183043
4332,-0.10516717
4333,-0.08292374
4334,0.030304
4335,-0.03866357
4336,-0.014354795
4337,0.028413009
4338,-0.07486075
4339,-0.027403854
4340,-0.016452076
4341,-0.06272713
4342,-0.12585796
4343,-0.17757797
4344,-0.0030190249
4345,-0.05128506
4346,-0.026797984
4347,-0.051597975
4348,-0.03936958
4349,0.058674555
4350,-0.007342034
4351,0.0003524924
4352,0.011422483
4353,-0.011112934
4354,-0.006724958
4355,-0.064786226
4356,-0.027269194
4357,-0.042436186
4358,-0.031981286
4359,-0.030241651
4360,-0.00879444
4361,-0.014530619
4362,0.018803703
4363,-0.048981756
4364,0.03323484
4365,-0.07194756
4366,-0.14619051
4367,0.016545521
4368,0.048452098
4369,0.03558133
4370,-0.0341521
4371,-0.028146593
4372,0.029482447
4373,0.0029042128
4374,-0.00025174773
4375,-0.0001134777
4376,-0.07395363
4377,-0.008024043
4378,-0.06433201
4379,-0.0481268
4380,-0.066619016
4381,-0.009062491
4382,-0.0039648204
4383,0.021022456
4384,-0.004760998
4385,0.04390584
4386,0.004270975
4387,-0.027383994
4388,0.062153682
4389,0.033189513
4390,-0.017927574
4391,0.023976263
4392,-0.011660724
4393,0.00015024451
4394,-0.01827208
4395,0.009547269
4396,0.029292049
4397,-0.06482282
4398,-0.017825235
4399,0.01580152
4400,0.026212998
4401,-0.0446893
4402,5.084832e-06
4403,-0.077065684
4404,-0.039765257
4405,-0.003736733
4406,-0.034060184
4407,-0.07111815
4408,-0.08514206
4409,-0.005317566
4410,-0.07336769
4411,-0.060564935
4412,0.035768077
4413,-0.03766125
4414,-0.13971311
4415,-0.01175373
4416,0.01617353
4417,-0.0006877623
4418,-0.042961203
4419,-0.0067697675
4420,-0.045544587
4421,-0.04817798
4422,-0.08299918
4423,-0.043136027
4424,0.003918491
4425,-0.013585783
4426,-0.018776104
4427,0.026105141
4428,-0.05756197
4429,-0.0102502275
4430,-0.019966545
4431,0.019367643
4432,-0.00064032397
4433,-0.007143233
4434,-0.0027140146
4435,0.03255179
4436,-0.02126533
4437,0.0217137
4438,-0.047501624
4439,-0.06996486
4440,-0.036416344
4441,0.016964473
4442,-0.110554285
4443,-0.056329813
4444,0.003150106
4445,-0.13848437
4446,0.019002752
4447,-0.06717283
4448,-0.021181066
4449,-0.012500158
4450,-0.008474317
4451,-0.055178728
4452,-0.07769926
4453,-0.035418607
4454,-0.046155706
4455,0.01601884
4456,-0.022681544
4457,0.0019099893
4458,-0.022332361
4459,0.0034876817
4460,-0.07186566
4461,-0.0011549601
4462,0.0098450165
4463,-0.0031123366
4464,-0.038259443
4465,0.019857543
4466,-0.011358407
4467,-0.03659018
4468,0.00045263095
4469,-0.08229361
4470,-0.0067612994
4471,-0.13353798
4472,-0.002140048
4473,-0.05119183
4474,0.030297818
4475,-0.044580244
4476,-0.029795295
4477,0.002153412
4478,0.02670477
4479,0.0037952107
4480,0.027615298
4481,-0.007844885
4482,0.016018435
4483,-0.07041868
4484,-0.019095762
4485,-0.07315944
4486,0.01760727
4487,-0.0236253
4488,-0.029341936
4489,-0.04787337
4490,0.006526191
4491,-0.01032386
4492,-0.044758003
4493,-0.020068763
4494,-0.025755495
4495,-0.013557554
4496,-0.016731674
4497,-0.051792897
4498,-0.036879998
4499,0.0009791924
4500,-0.003939483
4501,0.004174907
4502,-0.023266463
4503,-0.037627537
4504,-0.055178106
4505,-0.047747716
4506,-0.038730692
4507,-0.028673416
4508,-0.043743864
4509,-0.014970652
4510,-0.031494588
4511,-0.021516621
4512,-0.007195192
4513,-0.012460734
4514,-0.0065857805
4515,-0.021241302
4516,-0.037534464
4517,-0.0007239446
4518,-0.0506685
4519,-0.072227895
4520,-0.053788874
4521,-0.0036294886
4522,-0.04018106
4523,-0.044473033
4524,-0.07801191
4525,0.054256186
4526,-0.016324487
4527,-0.009292981
4528,-0.06254538
4529,-0.014869063
4530,-0.01841135
4531,-0.094700724
4532,-0.034787323
4533,-0.095305584
4534,-0.01797821
4535,-0.0013119264
4536,-0.04337273
4537,-0.02730592
4538,-0.043557815
4539,-0.037083134
4540,-0.03026162
4541,-0.01222729
4542,0.017083123
4543,-0.07700019
4544,-0.056772657
4545,-0.02083016
4546,-0.0036392792
4547,-0.007714099
4548,0.028805109
4549,0.04312952
4550,-0.1477293
4551,0.03483174
4552,0.009229534
4553,0.017593533
4554,-0.032488387
4555,-0.07954679
4556,0.016952239
4557,-0.04890444
4558,0.037890278
4559,-0.020262307
4560,-0.03209694
4561,0.0031579917
4562,-0.04608319
4563,0.021287957
4564,-0.016842058
4565,-0.049197722
4566,-0.02354597
4567,-0.096951276
4568,-0.049488727
4569,0.012424633
4570,-0.001611554
4571,-0.09373792
4572,-0.041221686
4573,0.0013743343
4574,-0.091882564
4575,-0.04062879
4576,-0.0049934955
4577,0.00047110245
4578,-0.05605598
4579,-0.07942973
4580,-0.0044750483
4581,-0.078779295
4582,0.012196516
4583,-0.04611069
4584,-0.019171178
4585,-0.01658391
4586,-0.018494785
4587,-0.03294817
4588,-0.0036843007
4589,0.002777191
4590,-0.05547788
4591,0.02430188
4592,-0.026278703
4593,-0.05043507
4594,-0.00088878465
4595,-0.061308075
4596,-0.022523092
4597,-0.07148363
4598,0.005919769
4599,0.01544862
4600,0.019901387
4601,0.022403715
4602,-0.03358366
4603,-0.017944442
4604,0.028676238
4605,-0.05499859
4606,-0.02178113
4607,0.004874485
4608,-0.036015686
4609,-0.047180817
4610,0.041801557
4611,-0.07501467
4612,0.026287787
4613,0.03572018
4614,-0.019993922
4615,-0.025622342
4616,-0.019102225
4617,0.011938545
4618,-0.064600214
4619,-0.013049225
4620,-0.022148112
4621,-0.07171464
4622,0.0053407815
4623,0.016967766
4624,-0.01378849
4625,-0.06993455
4626,-0.011571942
4627,0.0001132638
4628,-0.030261846
4629,-0.003034846
4630,-0.014625874
4631,0.00032967818
4632,-0.038549714
4633,0.0029839785
4634,-0.05530311
4635,0.008187279
4636,-0.024737867
4637,-0.0050109713
4638,0.07349349
4639,0.039749257
4640,-0.10202646
4641,0.012712984
4642,0.052013364
4643,-0.009068999
4644,-0.04163348
4645,0.02918545
4646,-0.082082264
4647,-0.1383466
4648,-0.05853118
4649,-0.06504011
4650,0.023745365
4651,0.042541314
4652,-0.0062496085
4653,-0.016653897
4654,0.04170736
4655,-0.0094112
4656,-0.026081108
4657,-0.01686981
4658,-0.016235117
4659,-0.061237443
4660,-0.009727185
4661,-0.052168135
4662,0.038397137
4663,0.00031900007
4664,-0.076693535
4665,-0.015155133
4666,-0.02270056
4667,0.016716039
4668,0.03909561
4669,-0.033681463
4670,0.017766457
4671,-0.043368172
4672,0.051310413
4673,0.009055247
4674,-0.0136733875
4675,0.012192206
4676,-0.0013667989
4677,-0.05472625
4678,-0.08528227
4679,0.0022315625
4680,0.008325333
4681,-0.023680747
4682,0.05320344
4683,-0.10208044
4684,0.04864764
4685,0.07059845
4686,-0.015292578
4687,0.027377985
4688,0.04818961
4689,0.01960719
4690,-0.008411564
4691,-0.0577235
4692,-0.004992274
4693,-0.07948652
4694,-0.016839024
4695,-0.021361567
4696,-0.13938345
4697,-0.04372076
4698,-0.044342875
4699,0.000781599
4700,0.06283945
4701,-0.030261155
4702,-0.043555953
4703,-0.03467983
4704,-0.060387094
4705,0.00028802693
4706,-0.20798239
4707,-0.06786255
4708,-0.022878192
4709,0.05146959
4710,0.09464545
4711,0.048486724
4712,0.031027785
4713,0.0016558295
4714,0.028314598
4715,0.04283959
4716,0.008999797
4717,0.039199755
4718,0.05590562
4719,-0.10171527
4720,0.0017178608
4721,0.022313278
4722,-0.09729823
4723,-0.01793351
4724,0.035763744
4725,-0.11914781
4726,0.05030002
4727,-0.03171652
4728,0.06989851
4729,-0.10758201
4730,-0.040144917
4731,-0.020563878
4732,-0.011047419
4733,0.020022253
4734,-0.02805211
4735,0.0012966542
4736,-0.0014022719
4737,-0.026463449
4738,-0.034526948
4739,0.027116556
4740,-0.028200043
4741,0.017521681
4742,0.009196408
4743,0.005680894
4744,-0.020192266
4745,-0.004528972
4746,0.010446654
4747,-0.031410214
4748,0.03234618
4749,0.010678893
4750,-0.0162434
4751,0.0114217065
4752,0.00875681
4753,0.030943079
4754,0.022706281
4755,-0.05605826
4756,-0.007738258
4757,-0.0047127753
4758,0.059054736
4759,0.017986132
4760,-0.049248174
4761,0.0030926617
4762,-0.00527378
4763,-0.030695483
4764,-0.01063271
4765,-0.009314632
4766,-0.034719802
4767,-0.020010732
4768,0.0049239537
4769,0.030212648
4770,0.01976088
4771,0.001261874
4772,0.013000516
4773,0.036193747
4774,-0.012818345
4775,-0.01402815
4776,0.017973451
4777,0.034835443
4778,-0.0042169327
4779,0.022002734
4780,0.054672685
4781,-0.009442909
4782,0.06145896
4783,0.0009808339
4784,0.02064984
4785,0.0100104455
4786,0.00752765
4787,-0.014993826
4788,-0.00038966315
4789,-0.024939837
4790,0.009975897
4791,-0.006588974
4792,-0.032222357
4793,-0.0019256928
4794,-0.028511465
4795,0.01940756
4796,0.075623855
4797,0.027331486
4798,-0.019997064
4799,0.019510897
4800,-0.022812627
4801,-0.004430955
4802,0.014945195
4803,-0.025895158
4804,0.014152267
4805,0.015080428
4806,0.0069870343
4807,0.024590608
4808,0.01983845
4809,0.038475677
4810,-0.04276886
4811,0.023085743
4812,0.0071355356
4813,-0.02920819
4814,0.0014839814
4815,0.035552558
4816,-0.058701575
4817,0.04715015
4818,0.008285892
4819,0.005287154
4820,0.016688893
4821,0.02074323
4822,0.025162488
4823,0.01622649
4824,-0.008381752
4825,-0.0068856296
4826,-0.049843397
4827,0.024602355
4828,-0.026860265
4829,-0.001282538
4830,0.014638981
4831,0.03215725
4832,0.021880265
4833,-0.01723615
4834,0.00024294072
4835,0.019544035
4836,-0.044340134
4837,-0.037156288
4838,0.01919166
4839,-0.013888284
4840,0.0682776
4841,0.037170075
4842,-0.00068245665
4843,-0.013708855
4844,0.008555605
4845,0.03116753
4846,-0.016119195
4847,-0.04843071
4848,-0.025046147
4849,-0.01245134
4850,0.038998816
4851,-0.011232057
4852,0.039468043
4853,-0.0088236425
4854,0.03398
4855,-0.05208275
4856,-0.013962098
4857,0.005540459
4858,0.043894667
4859,0.015513622
4860,0.015553966
4861,-0.03815797
4862,0.06097269
4863,0.01074453
4864,0.04855068
4865,-0.03505037
4866,0.07093476
4867,-0.03083719
4868,-0.06610838
4869,-0.0024063913
4870,0.032971352
4871,0.012952773
4872,-0.060823176
4873,0.043544654
4874,0.08125702
4875,-0.16189583
4876,0.0756932
4877,-0.048796505
4878,-0.11093357
4879,0.007906351
4880,-0.0039103157
4881,0.03534919
4882,0.016391426
4883,0.015344905
4884,-0.009589096
4885,-0.0025287922
4886,-0.0098243235
4887,-0.028409028
4888,-0.014920875
4889,0.09834231
4890,-0.0076374644
4891,-0.038460396
4892,-0.0013252802
4893,-0.005210736
4894,-0.0087531125
4895,0.031114526
4896,0.004145847
4897,-0.0052959817
4898,0.06673793
4899,-0.042578373
4900,0.10013132
4901,-0.035209093
4902,0.016645635
4903,0.0016820398
4904,-0.01644845
4905,0.0020459325
4906,0.07606157
4907,-0.05786742
4908,-0.06934452
4909,-0.083366245
4910,-0.09128663
4911,-0.002340317
4912,0.071989186
4913,0.0037154914
4914,0.05450514
4915,0.03796468
4916,0.012144955
4917,0.07711192
4918,-0.008497851
4919,0.008217982
4920,-0.040280603
4921,-0.030069139
4922,-0.061199978
4923,-0.013786695
4924,0.0009661487
4925,-0.0057845195
4926,-0.09567848
4927,0.0006621327
4928,-0.05314715
4929,0.07186559
4930,0.0018884797
4931,0.014310239
4932,-0.084191024
4933,-0.029385766
4934,-0.056830116
4935,0.02847592
4936,0.025307523
4937,0.040362295
4938,0.020007143
4939,-2.1862357e-05
4940,-0.060512774
4941,-0.01597922
4942,-0.0075546363
4943,-0.016180472
4944,0.0025222101
4945,-0.057900086
4946,-0.03937019
4947,0.0687435
4948,0.015199324
4949,0.06440869
4950,-0.016133765
4951,-0.022228248
4952,-0.02692826
4953,0.09717534
4954,-0.002390011
4955,-0.015648738
4956,-0.017927663
4957,0.015074879
4958,0.044765215
4959,0.0004814797
4960,0.044577222
4961,0.047335785
4962,0.01801905
4963,0.01295111
4964,-0.0013976677
4965,0.013032471
4966,-0.09111769
4967,-0.032052673
4968,-0.054761216
4969,0.027905745
4970,0.04443089
4971,-0.06945267
4972,-0.1312334
4973,-0.04118125
4974,-0.0016139699
4975,-0.023259815
4976,-0.08556127
4977,0.023442153
4978,-0.014800047
4979,0.023843324
4980,-0.04032742
4981,-0.027970986
4982,-0.0630281
4983,0.015135222
4984,-0.03852016
4985,-0.06431919
4986,0.006660725
4987,-0.10731513
4988,0.012339009
4989,-0.04648722
4990,0.006301013
4991,-0.008991734
4992,0.010120872
4993,0.10063663
4994,0.017058795
4995,0.027027836
4996,-0.048799984
4997,0.035458315
4998,0.068485126
4999,-0.000994931
5000,0.06840424
5001,0.038631845
5002,0.035128314
5003,-0.039121613
5004,0.060081594
5005,0.043912087
5006,-0.03927325
5007,-0.012527102
5008,0.008020312
5009,0.076474436
5010,0.08305048
5011,-0.0048427815
5012,-0.009695867
5013,-0.020174505
5014,0.08770741
5015,-0.014948017
5016,0.038301934
5017,0.08990443
5018,-0.1002011
5019,0.07490597
5020,0.05500746
5021,-0.0131839495
5022,-0.10545044
5023,-0.06811632
5024,0.02975777
5025,0.14415856
5026,-0.0008244107
5027,0.026559807
5028,-0.00291265
5029,0.0064441646
5030,0.002519995
5031,-0.0068064374
5032,0.083496384
5033,0.033634502
5034,0.014528354
5035,-0.04464797
5036,0.09125688
5037,-0.04224696
5038,-0.013823934
5039,-0.009010938
5040,0.07682694
5041,0.121562615
5042,-0.0013818617
5043,0.08374398
5044,0.011310931
5045,0.07574353
5046,-0.008991593
5047,-0.0894882
5048,0.061317883
5049,0.09733871
5050,-0.010461337
5051,-0.06319135
5052,0.027431346
5053,0.12198946
5054,-0.019155959
5055,0.027029723
5056,-0.09713684
5057,0.038809173
5058,-0.028685741
5059,0.03770129
5060,-0.056882437
5061,0.0057993187
5062,0.056168355
5063,0.05512953
5064,0.058570065
5065,0.05148675
5066,-0.09459107
5067,0.026651839
5068,0.066878416
5069,-0.050016984
5070,0.03292832
5071,0.113991305
5072,-0.03941888
5073,0.03809195
5074,0.04685513
5075,0.055919535
5076,0.044432443
5077,0.04873719
5078,-0.028095573
5079,0.029788878
5080,-0.018034134
5081,0.049423143
5082,0.08344437
5083,0.04592684
5084,-0.114121154
5085,0.033822037
5086,0.10773354
5087,0.0688963
5088,0.034369744
5089,0.10047477
5090,0.07370045
5091,0.040247526
5092,0.022998273
5093,-0.11778941
5094,-0.03915538
5095,-0.10768424
5096,0.027953653
5097,0.12996905
5098,-0.004595201
5099,-0.12485286
5100,-0.026117563
5101,-0.00010717042
5102,-0.10842874
5103,-0.03245127
5104,0.04623077
5105,-0.012826962
5106,0.02007466
5107,-0.12989931
5108,0.018606307
5109,0.022334479
5110,-0.006169792
5111,-0.023122326
5112,-0.07659339
5113,-0.015972894
5114,-0.010394784
5115,0.029470118
5116,0.041984852
5117,-0.10278357
5118,0.10854387
5119,-0.0030719463
5120,-0.038485385
5121,-0.06605682
5122,-0.012579703
5123,0.015571183
5124,-0.09568732
5125,-0.01614238
5126,0.0010469987
5127,-0.016180437
5128,-0.045744963
5129,-0.025205748
5130,0.022240184
5131,-0.11141146
5132,0.0387031
5133,0.011755622
5134,0.007776558
5135,0.006162499
5136,-0.0803061
5137,0.051646594
5138,0.004355381
5139,-0.02242201
5140,-0.049506556
5141,-0.004092127
5142,0.012143756
5143,-0.03220166
5144,0.0012186393
5145,-0.028807607
5146,-0.022764169
5147,0.02387841
5148,-0.016094586
5149,-0.004585832
5150,-0.056899644
5151,-0.020777838
5152,-0.040846653
5153,0.025143726
5154,-0.04141041
5155,0.021286732
5156,0.0013487377
5157,0.0040000724
5158,-0.034914665
5159,-0.028758755
5160,-0.002292813
5161,0.03770907
5162,-0.00706594
5163,-0.0667635
5164,-0.022340713
5165,-0.0019683193
5166,0.0175244
5167,-0.0016398506
5168,0.02691501
5169,0.017167905
5170,-0.023803769
5171,0.019505316
5172,-0.055254787
5173,-0.010474879
5174,-0.034212485
5175,0.014335051
5176,-0.006742714
5177,-0.036239475
5178,-0.049259063
5179,-0.017309688
5180,0.042409226
5181,0.048497863
5182,-0.0041250167
5183,-0.035182368
5184,-0.058147237
5185,-0.013315313
5186,-0.09195134
5187,0.039323427
5188,-0.012291227
5189,0.009949793
5190,0.023220431
5191,0.041467313
5192,0.030233875
5193,0.019216664
5194,-0.059574433
5195,0.0045305323
5196,0.009887101
5197,-0.06792851
5198,0.0208809
5199,0.021424409
5200,-0.057268623
5201,-0.038356997
5202,0.048741896
5203,0.020069491
5204,-0.07686344
5205,0.033886477
5206,-0.021218814
5207,-0.048029155
5208,-0.0540704
5209,0.022219332
5210,-0.006970334
5211,-0.038759835
5212,-0.065818466
5213,-0.011236608
5214,-0.015154342
5215,-0.00044072513
5216,-0.063416176
5217,0.028024184
5218,-0.038706787
5219,0.03150056
5220,0.009833942
5221,-0.03555208
5222,-0.012322094
5223,-0.050849706
5224,0.051859386
5225,-0.0114761945
5226,-0.009315288
5227,-0.063172385
5228,0.01224053
5229,0.0068093403
5230,-0.061722238
5231,0.00014922899
5232,-0.022610573
5233,0.0010252058
5234,0.02547862
5235,-0.069703326
5236,0.012886331
5237,-0.0010164647
5238,0.0018482781
5239,-0.030196669
5240,-0.056189258
5241,0.0316532
5242,-0.017136753
5243,0.010177564
5244,0.029131602
5245,-0.06209542
5246,0.028399453
5247,-0.011300798
5248,0.006951743
5249,-0.026581474
5250,0.023685394
5251,-0.009187108
5252,-0.053209424
5253,-0.020101164
5254,0.012571913
5255,0.004779166
5256,-0.057691317
5257,-0.04959629
5258,0.10695077
5259,-0.07824071
5260,0.08611858
5261,-0.0118262265
5262,0.0064261453
5263,-0.015513314
5264,-0.021610642
5265,0.0688072
5266,-0.011965376
5267,0.0030020191
5268,-0.047060806
5269,-0.009279327
5270,0.012988175
5271,-0.04168238
5272,-0.010439334
5273,0.006559902
5274,-0.05543906
5275,-0.05578788
5276,-0.014905846
5277,0.010912167
5278,-0.055713788
5279,0.0092117805
5280,-0.033287633
5281,0.026604239
5282,0.010302704
5283,-0.048760362
5284,0.060896836
5285,-0.009952558
5286,0.01929527
5287,0.005352861
5288,0.020956712
5289,-0.00042120804
5290,0.019968659
5291,-0.045710236
5292,-0.06629657
5293,0.007256545
5294,-0.025444303
5295,-0.00095674186
5296,0.10240497
5297,0.01393404
5298,0.023236984
5299,0.020143604
5300,-0.022143506
5301,0.007859265
5302,0.0017065523
5303,-0.014493483
5304,0.0052019777
5305,-0.055177566
5306,-0.047510736
5307,-0.036678433
5308,0.0097764665
5309,0.0035522897
5310,0.012411428
5311,0.0017052663
5312,-0.089133844
5313,0.020979304
5314,0.0029905476
5315,-0.009585166
5316,-0.045268822
5317,-0.08081135
5318,-0.08603481
5319,0.039839793
5320,0.009046594
5321,0.05174109
5322,-0.069098145
5323,0.03295337
5324,-0.06921108
5325,-0.028372642
5326,0.0057414
5327,-0.04904586
5328,-0.037494402
5329,-0.022355037
5330,0.025276037
5331,0.106142424
5332,-0.028784677
5333,0.073482536
5334,-0.032546733
5335,-0.07492075
5336,0.026202273
5337,0.08303155
5338,-0.029299555
5339,-0.042410176
5340,-0.072402515
5341,-0.027641365
5342,0.016612077
5343,-0.0032639652
5344,0.0107370885
5345,0.07131081
5346,0.007698408
5347,0.005594736
5348,0.032343592
5349,-0.08321682
5350,0.020713402
5351,-0.07775948
5352,0.015413737
5353,0.0025040568
5354,-0.022652565
5355,-0.07465118
5356,-0.065145515
5357,-0.03067138
5358,-0.058590744
5359,0.030381564
5360,-0.04757693
5361,-2.061903e-05
5362,-0.010123057
5363,-0.102175444
5364,-0.009884421
5365,-0.033864345
5366,-0.019821266
5367,-0.025012868
5368,-0.038655702
5369,-0.009122559
5370,-0.045550358
5371,-0.05214064
5372,0.012779322
5373,-0.05105441
5374,0.014012233
5375,4.5081328e-05
5376,-0.040376805
5377,-0.04856792
5378,-0.015055802
5379,-0.043413725
5380,0.016481675
5381,-0.0040199305
5382,0.066193566
5383,0.017065749
5384,-0.034752417
5385,-0.082968056
5386,0.019745555
5387,0.0414878
5388,0.028526839
5389,-0.05190382
5390,0.01906985
5391,-0.015470586
5392,-0.022191048
5393,0.017199786
5394,-0.032802287
5395,0.0208069
5396,-0.043673784
5397,-0.00075800455
5398,-0.04576019
5399,-0.009555716
5400,-0.070156574
5401,0.020939434
5402,0.014515036
5403,-0.044916876
5404,-0.0977581
5405,-0.0026238454
5406,-0.042126264
5407,-0.033690773
5408,-0.0106248595
5409,5.520932e-05
5410,0.0012636692
5411,0.062811546
5412,-0.09138329
5413,0.02587606
5414,-0.015920319
5415,-0.02042925
5416,-0.03309984
5417,0.11097663
5418,-0.034248285
5419,-0.018156018
5420,0.010592094
5421,0.04450041
5422,0.045508474
5423,-0.0008174041
5424,0.024312304
5425,-0.050900083
5426,0.05499077
5427,-0.0062668836
5428,-0.011961256
5429,-0.03739628
5430,0.007364703
5431,0.044002023
5432,-0.079424895
5433,-0.015908659
5434,0.00972812
5435,-0.011420316
5436,-0.09132553
5437,-0.08962261
5438,0.051406443
5439,0.015920516
5440,-0.06283233
5441,-0.040825646
5442,-0.0021608975
5443,-0.014755829
5444,0.038218673
5445,-0.021971116
5446,-0.062927976
5447,0.07184126
5448,-0.001165475
5449,-0.0231792
5450,0.004349079
5451,0.060449176
5452,0.023550699
5453,-0.016955998
5454,0.088131085
5455,0.02175081
5456,-0.05252424
5457,0.0022731393
5458,-0.10051796
5459,0.039179068
5460,0.033995043
5461,0.0249513
5462,0.012151257
5463,-0.004228369
5464,-0.016925268
5465,0.035396885
5466,-0.11327399
5467,0.023877032
5468,-0.00093417615
5469,0.009806623
5470,0.026651928
5471,-0.046432942
5472,0.008330564
5473,0.045475375
5474,0.012167699
5475,0.062798634
5476,-0.06966812
5477,-0.010311304
5478,0.019023003
5479,-0.051781334
5480,-0.03876751
5481,-0.045988366
5482,-0.07275796
5483,0.020068359
5484,0.022872595
5485,0.010311691
5486,-0.00943624
5487,0.070263356
5488,-0.028460545
5489,-0.089316666
5490,0.0793867
5491,0.02392868
5492,0.023470638
5493,-0.075254165
5494,0.03407614
5495,0.0075007235
5496,-0.033724338
5497,-0.0065941843
5498,0.0034660464
5499,0.021432512
5500,0.06585545
5501,0.015390643
5502,0.029114284
5503,-0.00544501
5504,0.015674561
5505,-0.10566967
5506,0.009134401
5507,-0.042491183
5508,-0.05280117
5509,-0.057097867
5510,0.025583437
5511,-0.029143533
5512,-0.057082105
5513,-0.023061693
5514,-0.021402182
5515,-0.00066272804
5516,-0.0329101
5517,-0.047182973
5518,0.01687975
5519,0.050127923
5520,-0.07978453
5521,0.008201025
5522,-0.0595731
5523,0.018405562
5524,-0.110019006
5525,-0.0037218425
5526,0.009718552
5527,-0.05506185
5528,-0.07307883
5529,-0.052763242
5530,-0.0011362839
5531,0.0067804954
5532,-0.04761351
5533,-0.001778142
5534,-0.10242185
5535,0.04451781
5536,-0.048675705
5537,0.017559571
5538,-0.10191548
5539,0.048279997
5540,-0.07247975
5541,0.023884343
5542,-0.061107274
5543,-0.0751059
5544,-0.05292404
5545,0.07096336
5546,-0.065314144
5547,-0.028830143
5548,-0.043283887
5549,0.062288083
5550,0.038192842
5551,-0.022721445
5552,-0.03601591
5553,-0.031638753
5554,-0.071884684
5555,0.04298981
5556,-0.041699205
5557,-0.08435179
5558,-0.05346384
5559,-0.027790878
5560,-0.065775715
5561,-0.021412011
5562,0.021837099
5563,-0.072050214
5564,0.039669316
5565,-0.0123149725
5566,0.038237363
5567,-0.008547059
5568,-0.060466748
5569,-0.017948413
5570,0.027455708
5571,0.0068060462
5572,0.045721553
5573,0.02647435
5574,-0.1061769
5575,0.08957619
5576,0.014326419
5577,0.015030802
5578,-0.034990434
5579,0.04473289
5580,0.030161897
5581,-0.04855316
5582,0.086126365
5583,0.03746653
5584,-0.07993238
5585,-0.02769609
5586,-0.0007408684
5587,-0.05167328
5588,0.016038975
5589,-0.021134967
5590,-0.10562295
5591,-0.10484289
5592,-0.023591857
5593,-0.036890395
5594,-0.104507215
5595,-0.05445364
5596,-0.077588655
5597,0.01174869
5598,0.0130213685
5599,-0.042532984
5600,0.009048771
5601,0.017415537
5602,-0.0542039
5603,0.03322201
5604,-0.06268025
5605,-0.09700371
5606,0.04385787
5607,-0.103873774
5608,0.04268164
5609,-0.0050683483
5610,-0.042133126
5611,-0.026579611
5612,0.062325
5613,0.04573402
5614,-0.061182037
5615,0.09460064
5616,-0.03328681
5617,-0.070575595
5618,0.0822829
5619,0.028547185
5620,0.034025017
5621,-0.09136581
5622,0.051781047
5623,0.024191136
5624,-0.0021449935
5625,0.03388798
5626,0.03328584
5627,0.03967533
5628,0.06718587
5629,-0.010021237
5630,0.024949638
5631,-0.020034367
5632,-0.056824174
5633,-0.020381244
5634,-0.026092457
5635,-0.09991698
5636,0.03220557
5637,-0.021074677
5638,-0.003156238
5639,-0.01436996
5640,-0.009404828
5641,0.0065745204
5642,-0.122794315
5643,0.04379885
5644,-0.087241866
5645,-0.10612445
5646,0.015048706
5647,0.06890194
5648,-0.005137102
5649,-0.083012104
5650,-0.15316692
5651,-0.077865236
5652,-0.0008984496
5653,0.005714204
5654,-0.10407255
5655,0.0074282335
5656,-0.07796984
5657,-0.03654615
5658,0.0043425583
5659,0.012328681
5660,-0.07179537
5661,-0.0016313707
5662,0.005737181
5663,-0.0016923643
5664,-0.010071619
5665,-0.08233693
5666,-0.028644688
5667,-0.023607401
5668,-0.022128617
5669,-0.039046712
5670,-0.056913804
5671,-0.07635586
5672,-0.1389704
5673,0.031247001
5674,-0.07715492
5675,-0.019039199
5676,0.1944252
5677,0.01232445
5678,-0.062854454
5679,-0.0016685056
5680,-0.061492886
5681,-0.029845078
5682,-0.039177436
5683,-0.10922105
5684,0.091792874
5685,-0.02717703
5686,-0.0030336468
5687,-0.046053085
5688,-0.082950644
5689,-0.007535686
5690,-0.0056160227
5691,0.096899785
5692,-0.012939913
5693,-0.0028885277
5694,-0.11613741
5695,-0.1434169
5696,0.017854845
5697,-0.06178446
5698,0.12663653
5699,-0.017588595
5700,-0.1325275
5701,0.052689966
5702,-0.027909597
5703,0.024697253
5704,-0.043701015
5705,-0.09935427
5706,0.04691009
5707,-0.025946897
5708,-0.07028275
5709,-0.06778946
5710,0.00974752
5711,-0.06453533
5712,-0.00036455726
5713,0.120850444
5714,0.014015989
5715,-0.08936671
5716,0.028481172
5717,-0.08495495
5718,-0.066954225
5719,0.029765839
5720,-0.038085192
5721,-0.08301094
5722,-0.030238755
5723,0.059453204
5724,0.02964095
5725,0.07030279
5726,0.057272013
5727,-0.08626033
5728,0.017418625
5729,-0.042137064
5730,0.16021276
5731,-0.10381999
5732,-0.0565308
5733,0.06589995
5734,-0.014778607
5735,0.020329922
5736,-0.005519215
5737,-0.11460976
5738,0.006758075
5739,0.047440987
5740,-0.009479018
5741,-0.053913724
5742,-0.00146865
5743,-0.009365032
5744,0.005120579
5745,-0.048381478
5746,0.0022870686
5747,0.099727385
5748,0.010619829
5749,-0.07803093
5750,-0.036581844
5751,0.056706555
5752,-0.023856811
5753,0.007519846
5754,0.21632771
5755,0.03502313
5756,0.0041425102
5757,-0.008903238
5758,-0.13205293
5759,0.0015167109
5760,-0.04551808
5761,-0.061533973
5762,0.0081196325
5763,-0.031009724
5764,-0.05122646
5765,-0.031598087
5766,0.027670566
5767,-0.02107401
5768,-0.043810893
5769,0.007902174
5770,-0.05731716
5771,-0.033811517
5772,-0.08813106
5773,-0.024695095
5774,-0.022643013
5775,0.014416161
5776,0.014948895
5777,-0.0070580076
5778,-0.105639294
5779,-0.0093329875
5780,-0.021335062
5781,-0.013202716
5782,-0.058790926
5783,0.030490285
5784,-0.059493866
5785,-0.05094118
5786,-0.028056633
5787,-0.03286714
5788,-0.014550122
5789,-0.0052693044
5790,-0.05584827
5791,-0.06447772
5792,-0.02118311
5793,-0.10767963
5794,-0.00524834
5795,-0.0118292095
5796,0.008346188
5797,-0.022121156
5798,-0.0733377
5799,-0.145668
5800,-0.022429015
5801,0.017865736
5802,-0.10291399
5803,-0.021004522
5804,0.03145515
5805,0.015409765
5806,0.00518649
5807,-0.009362173
5808,-0.06790678
5809,-0.04316482
5810,-0.11252552
5811,-0.033317506
5812,-0.0036437516
5813,0.005623566
5814,-0.068167485
5815,-0.05618106
5816,-0.071870856
5817,-0.0020861523
5818,0.023531003
5819,-0.026123155
5820,0.038822904
5821,-0.006388694
5822,-0.022085395
5823,-0.08852471
5824,-0.01338382
5825,-0.085805334
5826,-0.020870157
